################################################################################
# Neural network connection values (weights and biases).
################################################################################
# Col  Name       Description
################################################################################
# 1    connection Neural network connection value.
# 2    t          Connection type (a = weight, b = bias).
# 3    index      Index enumerating weights.
# 4    l_s        Starting point layer (end point layer for biases).
# 5    n_s        Starting point neuron in starting layer (end point neuron for biases).
# 6    l_e        End point layer.
# 7    n_e        End point neuron in end layer.
################################################################################
#                      1 2         3     4     5     6     7
#             connection t     index   l_s   n_s   l_e   n_e
############################################################
  1.3136097195343837E+01 a         1     0     1     1     1
 -2.7401382300162069E+00 a         2     0     1     1     2
  8.4278233957536948E+00 a         3     0     1     1     3
  3.1481860944476331E+01 a         4     0     1     1     4
  4.1749547608381015E+01 a         5     0     1     1     5
 -2.5753985827328616E+01 a         6     0     1     1     6
 -8.6697790487538011E+00 a         7     0     1     1     7
  2.3196150324608036E+00 a         8     0     1     1     8
  1.3357362676386348E+00 a         9     0     1     1     9
  1.2863390595687713E+01 a        10     0     1     1    10
  2.3544209165809924E+01 a        11     0     1     1    11
  3.0225703767933680E+01 a        12     0     1     1    12
  5.8649671422890023E+01 a        13     0     1     1    13
  2.5064550516926150E+02 a        14     0     1     1    14
  3.9834893397446031E+01 a        15     0     1     1    15
 -1.3723949360972945E+01 a        16     0     1     1    16
 -1.1393599858549260E+01 a        17     0     1     1    17
 -1.8463132783829439E+00 a        18     0     1     1    18
  1.8510886041245875E+01 a        19     0     1     1    19
  4.9862454702613208E+00 a        20     0     1     1    20
 -3.2562894533985243E+00 a        21     0     1     1    21
 -1.0234309481737833E+01 a        22     0     1     1    22
 -6.9816324132622096E+00 a        23     0     1     1    23
  2.0166317206441429E+00 a        24     0     1     1    24
 -1.0666878546599225E+01 a        25     0     1     1    25
 -1.1445517144404684E+00 a        26     0     1     1    26
  9.6048312766689023E+01 a        27     0     1     1    27
  4.7322531003677156E+01 a        28     0     1     1    28
  1.8978771428873859E+01 a        29     0     1     1    29
 -8.2468177324028133E+01 a        30     0     1     1    30
  6.2624728780976193E+00 a        31     0     1     1    31
 -1.6972972467675682E-01 a        32     0     1     1    32
 -2.7025334114571621E+01 a        33     0     1     1    33
  4.2137250116938446E+01 a        34     0     1     1    34
  3.7001361246962936E+01 a        35     0     1     1    35
 -3.4138327488238973E+00 a        36     0     1     1    36
  2.1665716704959685E+01 a        37     0     1     1    37
 -6.7621045692189785E+00 a        38     0     1     1    38
  3.6632058039537112E+00 a        39     0     1     1    39
  3.9817720038938238E+00 a        40     0     1     1    40
 -6.7244808754942213E+01 a        41     0     1     1    41
 -5.6114325848565469E+00 a        42     0     1     1    42
 -1.1294490498971792E+01 a        43     0     1     1    43
  1.1614175352106077E+01 a        44     0     1     1    44
  4.3176684535429786E+00 a        45     0     1     1    45
 -1.5710243730251227E+01 a        46     0     1     1    46
  2.9420262346308899E+01 a        47     0     1     1    47
 -8.5825766495153317E+00 a        48     0     1     1    48
  7.6033140508830584E+01 a        49     0     1     1    49
  1.3560497841727120E+01 a        50     0     1     1    50
  1.5545899405278531E+01 a        51     0     2     1     1
 -3.1740468470039480E+00 a        52     0     2     1     2
  1.2353372316095388E+01 a        53     0     2     1     3
  2.8142272063177082E+01 a        54     0     2     1     4
  3.2127948053398036E+01 a        55     0     2     1     5
 -4.3368746386597998E+01 a        56     0     2     1     6
 -1.0722006225343209E+01 a        57     0     2     1     7
  7.9869192987107429E-01 a        58     0     2     1     8
  3.0415330801397786E+00 a        59     0     2     1     9
  1.4114386343789592E+01 a        60     0     2     1    10
  2.3208950089054095E+01 a        61     0     2     1    11
  3.3206217556269173E+01 a        62     0     2     1    12
  5.1364381541475105E+01 a        63     0     2     1    13
  2.1132833965123052E+02 a        64     0     2     1    14
  3.2320215168441202E+01 a        65     0     2     1    15
 -1.4452116096007888E+01 a        66     0     2     1    16
 -8.4144400131052706E+00 a        67     0     2     1    17
 -3.3295422297188302E+00 a        68     0     2     1    18
  1.8010325531224339E+01 a        69     0     2     1    19
  4.2755731381197144E+00 a        70     0     2     1    20
  3.4035926748227405E+00 a        71     0     2     1    21
 -1.2307710946992017E+01 a        72     0     2     1    22
 -8.5496316614839181E+00 a        73     0     2     1    23
  3.7215654809103262E+00 a        74     0     2     1    24
 -1.0188804322254034E+01 a        75     0     2     1    25
 -9.1792555151959454E-01 a        76     0     2     1    26
  8.0973678608209212E+01 a        77     0     2     1    27
  3.4458853030816321E+01 a        78     0     2     1    28
  2.2964166978777964E+01 a        79     0     2     1    29
 -7.3513694558687988E+01 a        80     0     2     1    30
  7.7706952048019229E+00 a        81     0     2     1    31
 -4.6343000945175081E+00 a        82     0     2     1    32
 -2.8078161758866319E+01 a        83     0     2     1    33
  3.6869947856480664E+01 a        84     0     2     1    34
  3.6588398609734696E+01 a        85     0     2     1    35
 -4.2243829104274848E+00 a        86     0     2     1    36
  2.1209068624209916E+01 a        87     0     2     1    37
 -7.9748760817642550E+00 a        88     0     2     1    38
 -6.7816903317992583E-01 a        89     0     2     1    39
  4.6825653707326254E+00 a        90     0     2     1    40
 -5.6844949589388250E+01 a        91     0     2     1    41
 -5.8297663394924690E+00 a        92     0     2     1    42
 -6.9768971442412946E+00 a        93     0     2     1    43
  1.4093481625461267E+01 a        94     0     2     1    44
  5.7007316558762682E+00 a        95     0     2     1    45
 -1.4253508390299544E+01 a        96     0     2     1    46
  3.4647086870564308E+01 a        97     0     2     1    47
 -3.5004784515996699E+00 a        98     0     2     1    48
  7.4681538747400779E+01 a        99     0     2     1    49
  1.4493251671404476E+01 a       100     0     2     1    50
 -1.1431975251917135E+00 a       101     0     3     1     1
  5.2738735961570649E-01 a       102     0     3     1     2
 -1.0260225299562386E+01 a       103     0     3     1     3
  2.8915751959028164E+01 a       104     0     3     1     4
  6.2782401556194522E+01 a       105     0     3     1     5
  5.2359609837328925E+01 a       106     0     3     1     6
  3.8830414966008524E+00 a       107     0     3     1     7
  5.2264391234363190E+00 a       108     0     3     1     8
 -3.7045810139415516E+00 a       109     0     3     1     9
  2.9703649140020982E-01 a       110     0     3     1    10
  1.3877552168868712E+01 a       111     0     3     1    11
  5.2493993625174724E+00 a       112     0     3     1    12
  6.1758124509332802E+01 a       113     0     3     1    13
  2.9612514944002584E+02 a       114     0     3     1    14
  5.1240641274918843E+01 a       115     0     3     1    15
 -4.6772329685129614E+00 a       116     0     3     1    16
 -1.6704342389638413E+01 a       117     0     3     1    17
  6.0861475418590265E+00 a       118     0     3     1    18
  1.3382666022981924E+01 a       119     0     3     1    19
  7.3101060915480618E+00 a       120     0     3     1    20
 -2.7563782674629060E+01 a       121     0     3     1    21
  3.8216102096492230E+00 a       122     0     3     1    22
  2.8174993785050519E+00 a       123     0     3     1    23
 -4.7457877409077094E+00 a       124     0     3     1    24
 -6.4703968489286643E+00 a       125     0     3     1    25
 -1.5271035309628924E+00 a       126     0     3     1    26
  1.1332844051351965E+02 a       127     0     3     1    27
  7.6574085730573273E+01 a       128     0     3     1    28
 -4.4897307599305236E+00 a       129     0     3     1    29
 -8.3566270683955466E+01 a       130     0     3     1    30
 -3.3250434666003739E+00 a       131     0     3     1    31
  1.4388204518773728E+01 a       132     0     3     1    32
 -1.4834759260444864E+01 a       133     0     3     1    33
  4.5616515163446941E+01 a       134     0     3     1    34
  2.6380983328985891E+01 a       135     0     3     1    35
  3.0411210756514806E+00 a       136     0     3     1    36
  1.4371809174155143E+01 a       137     0     3     1    37
  2.8807818536618890E+00 a       138     0     3     1    38
  1.8309119210024217E+01 a       139     0     3     1    39
 -2.6341168473551537E+00 a       140     0     3     1    40
 -8.0387834935904607E+01 a       141     0     3     1    41
 -1.6655669471895198E+00 a       142     0     3     1    42
 -2.2798698845479560E+01 a       143     0     3     1    43
 -1.5007308174029810E+00 a       144     0     3     1    44
 -1.6739109542078199E+00 a       145     0     3     1    45
 -1.7566424154302258E+01 a       146     0     3     1    46
 -3.3594098551158309E+00 a       147     0     3     1    47
 -2.5539713916284445E+01 a       148     0     3     1    48
  4.5398806068032719E+01 a       149     0     3     1    49
  5.4720863619435258E+00 a       150     0     3     1    50
  2.0978037769221327E+01 a       151     0     4     1     1
 -2.9655689035688693E+00 a       152     0     4     1     2
  2.5746651040577341E+01 a       153     0     4     1     3
 -4.1653403337835861E+00 a       154     0     4     1     4
 -2.5409857261908424E+01 a       155     0     4     1     5
 -1.0586829565502923E+02 a       156     0     4     1     6
 -1.5762982698763482E+01 a       157     0     4     1     7
 -4.3189865949857431E+00 a       158     0     4     1     8
  8.1095309648182585E+00 a       159     0     4     1     9
  1.5365901322333093E+01 a       160     0     4     1    10
  1.1629175740964623E+01 a       161     0     4     1    11
  2.9866807884019490E+01 a       162     0     4     1    12
 -6.0548839811883290E+00 a       163     0     4     1    13
 -6.9531381397054801E+01 a       164     0     4     1    14
 -2.0089897620127076E+01 a       165     0     4     1    15
 -1.0971911760289052E+01 a       166     0     4     1    16
  8.9797860206939131E+00 a       167     0     4     1    17
 -8.9118920527635073E+00 a       168     0     4     1    18
  1.0986691336387182E+01 a       169     0     4     1    19
 -8.5290341586007778E-01 a       170     0     4     1    20
  2.8755141629964015E+01 a       171     0     4     1    21
 -1.8013719680002584E+01 a       172     0     4     1    22
 -1.0311384945254458E+01 a       173     0     4     1    23
  1.0574708290974570E+01 a       174     0     4     1    24
 -2.2083193318790038E+00 a       175     0     4     1    25
  2.5013751121946024E+00 a       176     0     4     1    26
 -2.9090421848784171E+01 a       177     0     4     1    27
 -3.9861229321316053E+01 a       178     0     4     1    28
  2.7356528395664920E+01 a       179     0     4     1    29
 -7.9282514844584318E-01 a       180     0     4     1    30
  9.8678399946909217E+00 a       181     0     4     1    31
 -2.5371061641014023E+01 a       182     0     4     1    32
 -2.5008637442201159E+01 a       183     0     4     1    33
 -3.7967346890196199E+00 a       184     0     4     1    34
  1.7147380712718860E+01 a       185     0     4     1    35
 -6.3556437043127421E+00 a       186     0     4     1    36
  9.7889099982625840E+00 a       187     0     4     1    37
 -1.0894423637671972E+01 a       188     0     4     1    38
 -2.0159814994516829E+01 a       189     0     4     1    39
  4.2898780492778634E+00 a       190     0     4     1    40
  1.2493406091381619E+01 a       191     0     4     1    41
 -5.4068832986238355E+00 a       192     0     4     1    42
  1.7219186467377853E+01 a       193     0     4     1    43
  1.9385134321476798E+01 a       194     0     4     1    44
  1.0258283267448736E+01 a       195     0     4     1    45
 -4.9454549875344904E+00 a       196     0     4     1    46
  4.4323547824114421E+01 a       197     0     4     1    47
  1.7484306264901722E+01 a       198     0     4     1    48
  2.3284824684169216E+01 a       199     0     4     1    49
  1.2051833129193245E+01 a       200     0     4     1    50
 -2.2692062365980533E+01 a       201     0     5     1     1
  5.0782491534003489E+00 a       202     0     5     1     2
 -3.5687003148858786E+01 a       203     0     5     1     3
  3.0747907154156454E+01 a       204     0     5     1     4
  9.5906453874595229E+01 a       205     0     5     1     5
  1.6552512447681238E+02 a       206     0     5     1     6
  2.1544399735060313E+01 a       207     0     5     1     7
  8.4389087308966815E+00 a       208     0     5     1     8
 -1.1832876319330831E+01 a       209     0     5     1     9
 -1.5977388874424268E+01 a       210     0     5     1    10
  2.6669977140883789E+00 a       211     0     5     1    11
 -2.6871748151219830E+01 a       212     0     5     1    12
  7.8496302482369771E+01 a       213     0     5     1    13
  4.0627396145884148E+02 a       214     0     5     1    14
  7.3984921848116016E+01 a       215     0     5     1    15
  5.5296146841816292E+00 a       216     0     5     1    16
 -2.6444321036764396E+01 a       217     0     5     1    17
  1.7342079307881828E+01 a       218     0     5     1    18
  4.1658660007085322E+00 a       219     0     5     1    19
  1.0870044959738383E+01 a       220     0     5     1    20
 -6.1755920474702911E+01 a       221     0     5     1    21
  2.3846958686031087E+01 a       222     0     5     1    22
  1.0259509840824304E+01 a       223     0     5     1    23
 -1.5275440357141782E+01 a       224     0     5     1    24
 -3.1895814286109547E+00 a       225     0     5     1    25
 -2.4005294501138335E+00 a       226     0     5     1    26
  1.5841347022940113E+02 a       227     0     5     1    27
  1.2450438215335660E+02 a       228     0     5     1    28
 -3.6214498747514483E+01 a       229     0     5     1    29
 -9.4130203593941275E+01 a       230     0     5     1    30
 -1.9247403366826681E+01 a       231     0     5     1    31
  3.3472721982212043E+01 a       232     0     5     1    32
  3.2324683408921624E+00 a       233     0     5     1    33
  5.5696638398097377E+01 a       234     0     5     1    34
  1.4879749320319375E+01 a       235     0     5     1    35
  1.1948528109425826E+01 a       236     0     5     1    36
  6.1298886774621710E+00 a       237     0     5     1    37
  1.7503932310787881E+01 a       238     0     5     1    38
  4.1210170753507668E+01 a       239     0     5     1    39
 -1.1914122782509812E+01 a       240     0     5     1    40
 -9.9473229521282875E+01 a       241     0     5     1    41
  5.0515802139811985E+00 a       242     0     5     1    42
 -3.9754551860129830E+01 a       243     0     5     1    43
 -2.0513667722448616E+01 a       244     0     5     1    44
 -9.8033296145164837E+00 a       245     0     5     1    45
 -1.7414663978231768E+01 a       246     0     5     1    46
 -4.9427262270498503E+01 a       247     0     5     1    47
 -5.2071353225253432E+01 a       248     0     5     1    48
  2.5143501792955092E+01 a       249     0     5     1    49
 -5.2711563784874800E+00 a       250     0     5     1    50
  2.5718505442151912E+01 a       251     0     6     1     1
 -1.7322270301284302E+00 a       252     0     6     1     2
  4.4508904647309265E+01 a       253     0     6     1     3
 -5.0530947012781489E+01 a       254     0     6     1     4
 -1.0860928116127910E+02 a       255     0     6     1     5
 -1.9524268194215497E+02 a       256     0     6     1     6
 -2.4100649353850677E+01 a       257     0     6     1     7
 -1.1066257656018982E+01 a       258     0     6     1     8
  1.7071399203168426E+01 a       259     0     6     1     9
  1.5874388265427456E+01 a       260     0     6     1    10
 -6.4952142132330604E+00 a       261     0     6     1    11
  2.2359631822049547E+01 a       262     0     6     1    12
 -8.9602661662623916E+01 a       263     0     6     1    13
 -4.6613050259347341E+02 a       264     0     6     1    14
 -9.7057513541319324E+01 a       265     0     6     1    15
 -6.0363224909172848E+00 a       266     0     6     1    16
  3.5457160241601805E+01 a       267     0     6     1    17
 -1.5522055820343624E+01 a       268     0     6     1    18
 -2.5035987146305878E+00 a       269     0     6     1    19
 -9.1754421325595175E+00 a       270     0     6     1    20
  6.5331190258279591E+01 a       271     0     6     1    21
 -2.4310167497853922E+01 a       272     0     6     1    22
 -1.0629684282165453E+01 a       273     0     6     1    23
  2.0600798420768154E+01 a       274     0     6     1    24
  1.0251082554890358E+01 a       275     0     6     1    25
  8.2353941834040647E+00 a       276     0     6     1    26
 -1.9372259372830305E+02 a       277     0     6     1    27
 -1.4511497137325151E+02 a       278     0     6     1    28
  3.3753872024651287E+01 a       279     0     6     1    29
  1.0289945809358045E+02 a       280     0     6     1    30
  1.1551180379878476E+01 a       281     0     6     1    31
 -5.6292966165036994E+01 a       282     0     6     1    32
 -1.9480708690962111E+01 a       283     0     6     1    33
 -6.5778083586517880E+01 a       284     0     6     1    34
 -1.3345578495003188E+01 a       285     0     6     1    35
 -9.9106321914006479E+00 a       286     0     6     1    36
 -8.7468312149802170E+00 a       287     0     6     1    37
 -1.5108042887116097E+01 a       288     0     6     1    38
 -5.0354373655970470E+01 a       289     0     6     1    39
  4.9343632691366910E+00 a       290     0     6     1    40
  1.1275193336409890E+02 a       291     0     6     1    41
 -3.8085971013645872E+00 a       292     0     6     1    42
  5.3247909070213140E+01 a       293     0     6     1    43
  2.5829554582250999E+01 a       294     0     6     1    44
  1.5680140292866124E+01 a       295     0     6     1    45
  9.7071075581070616E+00 a       296     0     6     1    46
  5.7072337490352929E+01 a       297     0     6     1    47
  4.4175715834019449E+01 a       298     0     6     1    48
 -5.3865305034620391E+01 a       299     0     6     1    49
  9.4312656499676635E+00 a       300     0     6     1    50
 -3.0583154849142257E+01 a       301     0     7     1     1
  7.5993949389332354E+00 a       302     0     7     1     2
 -4.4236734648986371E+01 a       303     0     7     1     3
  1.5094857982539329E+01 a       304     0     7     1     4
  8.5761764412424967E+01 a       305     0     7     1     5
  2.0854977505267789E+02 a       306     0     7     1     6
  3.2084283151785947E+01 a       307     0     7     1     7
  5.5998210475816510E+00 a       308     0     7     1     8
 -1.7927716130075975E+01 a       309     0     7     1     9
 -2.5714401396033818E+01 a       310     0     7     1    10
 -8.3502553374595596E+00 a       311     0     7     1    11
 -4.2369513689515841E+01 a       312     0     7     1    12
  6.6346577069434076E+01 a       313     0     7     1    13
  3.1661801982993433E+02 a       314     0     7     1    14
  6.4416359861675247E+01 a       315     0     7     1    15
  1.4223700854369929E+01 a       316     0     7     1    16
 -2.6227457011683068E+01 a       317     0     7     1    17
  1.7802846837740603E+01 a       318     0     7     1    18
 -1.5836779220477062E+00 a       319     0     7     1    19
  1.1541161278109376E+01 a       320     0     7     1    20
 -7.1918338301001526E+01 a       321     0     7     1    21
  3.3773964502983112E+01 a       322     0     7     1    22
  7.5673398696985190E+00 a       323     0     7     1    23
 -2.2300105416043383E+01 a       324     0     7     1    24
  2.5651134597757959E+00 a       325     0     7     1    25
 -2.0619871976083113E+00 a       326     0     7     1    26
  1.4787446763124927E+02 a       327     0     7     1    27
  1.1192429488404055E+02 a       328     0     7     1    28
 -5.5145679610453776E+01 a       329     0     7     1    29
 -6.0537988023542589E+01 a       330     0     7     1    30
 -3.2496569814810513E+01 a       331     0     7     1    31
  3.4936580986346073E+01 a       332     0     7     1    32
  1.8062638339086913E+01 a       333     0     7     1    33
  4.7230788496370778E+01 a       334     0     7     1    34
  4.2024870313233267E+00 a       335     0     7     1    35
  1.8274783838068796E+01 a       336     0     7     1    36
 -2.4419310358245130E+00 a       337     0     7     1    37
  2.6743854097011994E+01 a       338     0     7     1    38
  5.0697774218701326E+01 a       339     0     7     1    39
 -2.1256961121054935E+01 a       340     0     7     1    40
 -6.9402647108616463E+01 a       341     0     7     1    41
  8.7562180750323328E+00 a       342     0     7     1    42
 -3.8521523076384824E+01 a       343     0     7     1    43
 -2.7479177372380857E+01 a       344     0     7     1    44
 -1.0244797877849885E+01 a       345     0     7     1    45
 -1.1930137852538216E+01 a       346     0     7     1    46
 -7.4938273799568648E+01 a       347     0     7     1    47
 -5.3152143566610711E+01 a       348     0     7     1    48
  2.5957339589300504E-01 a       349     0     7     1    49
 -1.4022487997589231E+01 a       350     0     7     1    50
  1.9345180371035113E+01 a       351     0     8     1     1
  1.6075245320715850E-01 a       352     0     8     1     2
  5.0826876062011536E+01 a       353     0     8     1     3
 -6.5093233199039844E+01 a       354     0     8     1     4
 -1.4145667919456221E+02 a       355     0     8     1     5
 -2.2557520138736538E+02 a       356     0     8     1     6
 -2.8257193486626122E+01 a       357     0     8     1     7
 -1.2597611716627560E+01 a       358     0     8     1     8
  2.4612635803783490E+01 a       359     0     8     1     9
  1.5559289096265450E+01 a       360     0     8     1    10
 -1.7840812424919211E+01 a       361     0     8     1    11
  8.7845983635784766E+00 a       362     0     8     1    12
 -1.2067231731865731E+02 a       363     0     8     1    13
 -5.6562968258895762E+02 a       364     0     8     1    14
 -1.2755682320180343E+02 a       365     0     8     1    15
 -4.3580157639750547E+00 a       366     0     8     1    16
  4.9793044130203675E+01 a       367     0     8     1    17
 -9.8605030168897407E+00 a       368     0     8     1    18
 -2.0475193047134059E+01 a       369     0     8     1    19
 -1.5012158497338184E+01 a       370     0     8     1    20
  8.0999652933738972E+01 a       371     0     8     1    21
 -2.2310405203153440E+01 a       372     0     8     1    22
 -9.5304563539833289E+00 a       373     0     8     1    23
  2.7321097208951258E+01 a       374     0     8     1    24
  1.5412644778722518E+01 a       375     0     8     1    25
  1.1194885740542778E+01 a       376     0     8     1    26
 -2.6427059430676024E+02 a       377     0     8     1    27
 -1.7685894745018885E+02 a       378     0     8     1    28
  3.5799993020598819E+01 a       379     0     8     1    29
  1.3724533052453734E+02 a       380     0     8     1    30
  1.0008333279945710E+01 a       381     0     8     1    31
 -7.1212707690081487E+01 a       382     0     8     1    32
 -1.1455433165212925E+01 a       383     0     8     1    33
 -9.5698604793685277E+01 a       384     0     8     1    34
 -3.4406470762958982E+01 a       385     0     8     1    35
 -1.3602592265566040E+01 a       386     0     8     1    36
 -1.8422551783606274E+01 a       387     0     8     1    37
 -1.5731342973129795E+01 a       388     0     8     1    38
 -6.4590178773118069E+01 a       389     0     8     1    39
  9.3919515280054178E+00 a       390     0     8     1    40
  1.5081024435530750E+02 a       391     0     8     1    41
 -6.7638344524337934E-01 a       392     0     8     1    42
  6.7310731986172740E+01 a       393     0     8     1    43
  2.2741585926869917E+01 a       394     0     8     1    44
  1.3863680023346799E+01 a       395     0     8     1    45
  2.2362751286110417E+01 a       396     0     8     1    46
  5.8769332914020737E+01 a       397     0     8     1    47
  4.3314792081815703E+01 a       398     0     8     1    48
 -8.2521963209718663E+01 a       399     0     8     1    49
  9.2910321590587284E+00 a       400     0     8     1    50
 -5.7992014419348106E+00 a       401     0     9     1     1
  8.0780626974256418E+00 a       402     0     9     1     2
 -1.9825337780450603E+01 a       403     0     9     1     3
 -7.8834101406943503E+01 a       404     0     9     1     4
 -4.7972778377350501E+01 a       405     0     9     1     5
  9.9464226197449221E+01 a       406     0     9     1     6
  3.1714628854937637E+01 a       407     0     9     1     7
 -9.5061801389651652E+00 a       408     0     9     1     8
 -1.9377981574453678E+01 a       409     0     9     1     9
 -3.0884251856769726E+01 a       410     0     9     1    10
 -3.5649499032569018E+01 a       411     0     9     1    11
 -4.1190249992202553E+01 a       412     0     9     1    12
 -8.0908146903362365E+01 a       413     0     9     1    13
 -5.3171831470061500E+02 a       414     0     9     1    14
 -6.1610922839286992E+01 a       415     0     9     1    15
  3.2625040038117923E+01 a       416     0     9     1    16
  4.6419628269728292E+00 a       417     0     9     1    17
 -1.3530895785864820E+01 a       418     0     9     1    18
  6.7155460577012400E+00 a       419     0     9     1    19
  6.3311010971362798E+00 a       420     0     9     1    20
 -2.9723686614456053E+01 a       421     0     9     1    21
  2.0671070146696675E+01 a       422     0     9     1    22
  4.8860593894110345E+00 a       423     0     9     1    23
 -2.1456842250111173E+01 a       424     0     9     1    24
  2.6024240329377072E+01 a       425     0     9     1    25
  3.9509964457234337E+00 a       426     0     9     1    26
 -9.9606882887343076E+01 a       427     0     9     1    27
 -8.4591737378703527E+01 a       428     0     9     1    28
 -6.1581759662827245E+01 a       429     0     9     1    29
  1.4684504596553359E+02 a       430     0     9     1    30
 -3.5222804636321307E+01 a       431     0     9     1    31
 -1.5906243194928482E+00 a       432     0     9     1    32
  2.5962183094006793E+01 a       433     0     9     1    33
 -3.8410773733665501E+01 a       434     0     9     1    34
 -2.8685679465379000E+01 a       435     0     9     1    35
  2.5431157247346604E+01 a       436     0     9     1    36
 -3.1812244914910067E+01 a       437     0     9     1    37
  2.5731063586202275E+01 a       438     0     9     1    38
  2.0754605318648260E+01 a       439     0     9     1    39
 -4.0619622409310956E+01 a       440     0     9     1    40
  1.0949418210036603E+02 a       441     0     9     1    41
  7.0680833042327516E+00 a       442     0     9     1    42
  1.5749943400143920E+01 a       443     0     9     1    43
 -9.4193556610913536E+00 a       444     0     9     1    44
  8.1682471412374245E+00 a       445     0     9     1    45
 -3.5433080950966094E+00 a       446     0     9     1    46
 -7.0203910814560061E+01 a       447     0     9     1    47
  1.5778919250761584E+01 a       448     0     9     1    48
 -1.5343708758210352E+02 a       449     0     9     1    49
 -3.0084197617070195E+01 a       450     0     9     1    50
 -1.0840894734272098E+01 a       451     0    10     1     1
  1.1649115162399399E+00 a       452     0    10     1     2
  3.0997997286574730E+01 a       453     0    10     1     3
 -1.0124476842111950E+01 a       454     0    10     1     4
 -6.3632039691610309E+01 a       455     0    10     1     5
 -1.2824746646910080E+02 a       456     0    10     1     6
 -2.2277798356027475E+01 a       457     0    10     1     7
 -4.2261034640931205E+00 a       458     0    10     1     8
  2.6151325966477394E+01 a       459     0    10     1     9
  1.2293794031447050E+01 a       460     0    10     1    10
 -9.8116987152352273E+00 a       461     0    10     1    11
 -1.0460192740762700E+01 a       462     0    10     1    12
 -2.6623406529611046E+01 a       463     0    10     1    13
  6.4941553620016848E+00 a       464     0    10     1    14
 -5.1016595766208553E+01 a       465     0    10     1    15
 -1.3985903272937328E+01 a       466     0    10     1    16
  3.2915171664551750E+01 a       467     0    10     1    17
  1.9658139713617786E+01 a       468     0    10     1    18
 -4.3701304292457365E+01 a       469     0    10     1    19
 -1.4167571558900127E+01 a       470     0    10     1    20
  5.1108578478124322E+01 a       471     0    10     1    21
 -3.6272229802762173E+00 a       472     0    10     1    22
 -1.5316011571345838E+01 a       473     0    10     1    23
  2.6352536205246182E+01 a       474     0    10     1    24
  2.8149940032683261E+00 a       475     0    10     1    25
  8.9748926488600560E+00 a       476     0    10     1    26
 -1.1136435908323865E+02 a       477     0    10     1    27
 -4.8821318038356729E+01 a       478     0    10     1    28
  2.9979586022374470E+01 a       479     0    10     1    29
  1.4505033320944202E+01 a       480     0    10     1    30
  1.4609016436235365E+00 a       481     0    10     1    31
 -5.3405498836329215E+01 a       482     0    10     1    32
 -2.5614019200854337E+00 a       483     0    10     1    33
 -5.0755431994706690E+01 a       484     0    10     1    34
 -2.7195146384858699E+01 a       485     0    10     1    35
 -1.6574995095324546E+01 a       486     0    10     1    36
 -5.9155593839376772E+00 a       487     0    10     1    37
 -8.0411291635416511E+00 a       488     0    10     1    38
 -4.2030862524621703E+01 a       489     0    10     1    39
  2.0094820945503681E+01 a       490     0    10     1    40
  5.7308404588769832E+01 a       491     0    10     1    41
  5.5504436473659480E+00 a       492     0    10     1    42
  3.4854495304010392E+01 a       493     0    10     1    43
  2.7054317850758145E+00 a       494     0    10     1    44
 -1.8065759364479219E+00 a       495     0    10     1    45
  2.9298891511948909E+01 a       496     0    10     1    46
  3.8911524447490308E+01 a       497     0    10     1    47
 -1.2707793623848334E+01 a       498     0    10     1    48
  1.9965037929777566E+01 a       499     0    10     1    49
  1.7449056683969864E+01 a       500     0    10     1    50
 -1.2468517513037288E+01 a       501     0    11     1     1
  5.7121053283732852E+00 a       502     0    11     1     2
  4.4569058822213464E+01 a       503     0    11     1     3
 -7.6775279555072351E-01 a       504     0    11     1     4
 -8.8998832758693027E+01 a       505     0    11     1     5
 -1.7792125341942639E+02 a       506     0    11     1     6
 -3.4278292410674410E+01 a       507     0    11     1     7
 -7.5836720004629656E+00 a       508     0    11     1     8
  2.8495062500351356E+01 a       509     0    11     1     9
  1.9972975100884955E+01 a       510     0    11     1    10
 -5.3877025311679541E+00 a       511     0    11     1    11
 -8.3784129185719769E-01 a       512     0    11     1    12
 -1.5376173932716299E+01 a       513     0    11     1    13
 -3.1594195418532028E+01 a       514     0    11     1    14
 -6.3168559902644709E+01 a       515     0    11     1    15
 -1.7214768005305029E+01 a       516     0    11     1    16
  4.8102880320601749E+01 a       517     0    11     1    17
  1.4179402251917114E+01 a       518     0    11     1    18
 -6.3441094601937046E+01 a       519     0    11     1    19
 -1.8735160660392200E+01 a       520     0    11     1    20
  6.9683557221464227E+01 a       521     0    11     1    21
 -3.6798451577157820E+00 a       522     0    11     1    22
 -1.7791821187613213E+01 a       523     0    11     1    23
  1.8823352844706882E+01 a       524     0    11     1    24
  1.3347269943009064E+00 a       525     0    11     1    25
  1.0593837854203029E+01 a       526     0    11     1    26
 -1.1383462928888639E+02 a       527     0    11     1    27
 -7.1734370103561091E+01 a       528     0    11     1    28
  4.6088410857597488E+01 a       529     0    11     1    29
  1.9174162314075296E+01 a       530     0    11     1    30
 -1.5114437731070661E+01 a       531     0    11     1    31
 -7.2965413629310561E+01 a       532     0    11     1    32
  2.4621242626417590E+01 a       533     0    11     1    33
 -6.1751111556245704E+01 a       534     0    11     1    34
 -3.1139015963186154E+01 a       535     0    11     1    35
 -2.1866283862190638E+01 a       536     0    11     1    36
 -6.9591372980424229E+00 a       537     0    11     1    37
 -1.2285433278617630E+01 a       538     0    11     1    38
 -5.4883245870833619E+01 a       539     0    11     1    39
  2.9552810835673302E+01 a       540     0    11     1    40
  8.4133144734787933E+01 a       541     0    11     1    41
  8.6075298796947965E+00 a       542     0    11     1    42
  4.8992858173684112E+01 a       543     0    11     1    43
  4.5653213013333556E+00 a       544     0    11     1    44
  2.1797011920480327E+00 a       545     0    11     1    45
  5.7452540661673247E+01 a       546     0    11     1    46
  5.6029258595716627E+01 a       547     0    11     1    47
 -1.1414292666333996E+01 a       548     0    11     1    48
  5.0300740510222866E+01 a       549     0    11     1    49
  1.8233528152617545E+01 a       550     0    11     1    50
 -1.3637728956202887E+01 a       551     0    12     1     1
 -2.4495171797648477E-01 a       552     0    12     1     2
  9.2730888047189115E+00 a       553     0    12     1     3
 -2.2463395778797821E+01 a       554     0    12     1     4
 -3.3871369340826170E+01 a       555     0    12     1     5
 -5.6397986786161255E+01 a       556     0    12     1     6
 -6.3898712734970573E+00 a       557     0    12     1     7
  1.2242214282747268E+00 a       558     0    12     1     8
  2.4305012187242667E+01 a       559     0    12     1     9
  9.2007844051883569E-01 a       560     0    12     1    10
 -1.8363430276316926E+01 a       561     0    12     1    11
 -2.9828090791311933E+01 a       562     0    12     1    12
 -4.6537216046279880E+01 a       563     0    12     1    13
  5.3341716879689987E+00 a       564     0    12     1    14
 -4.0596058525254065E+01 a       565     0    12     1    15
 -5.4447842916567337E+00 a       566     0    12     1    16
  1.7868079022491173E+01 a       567     0    12     1    17
  2.6352587914955688E+01 a       568     0    12     1    18
 -2.3489317044323993E+01 a       569     0    12     1    19
 -8.7992781017101649E+00 a       570     0    12     1    20
  2.5204172046391957E+01 a       571     0    12     1    21
  5.8050785779996905E-01 a       572     0    12     1    22
 -1.1491642580016801E+00 a       573     0    12     1    23
  3.4810319814595012E+01 a       574     0    12     1    24
  8.7543745277677303E+00 a       575     0    12     1    25
  8.0288649425332750E+00 a       576     0    12     1    26
 -1.1971230559502568E+02 a       577     0    12     1    27
 -2.0737361672836535E+01 a       578     0    12     1    28
  4.6796301845449637E+00 a       579     0    12     1    29
  1.9240380019835325E+01 a       580     0    12     1    30
  1.8149078370940728E+01 a       581     0    12     1    31
 -2.7871302320326883E+01 a       582     0    12     1    32
 -2.8717511882628585E+01 a       583     0    12     1    33
 -4.3829794130532171E+01 a       584     0    12     1    34
 -3.1838425130040505E+01 a       585     0    12     1    35
 -1.0332775435010106E+01 a       586     0    12     1    36
 -1.0543051441594738E+01 a       587     0    12     1    37
 -2.5305195541496577E+00 a       588     0    12     1    38
 -2.7615308130207904E+01 a       589     0    12     1    39
  9.9245546567956371E+00 a       590     0    12     1    40
  2.7100479507204390E+01 a       591     0    12     1    41
  3.7499128273193869E+00 a       592     0    12     1    42
  1.8286240371205746E+01 a       593     0    12     1    43
 -3.9261664568762562E+00 a       594     0    12     1    44
 -8.3400719035471340E+00 a       595     0    12     1    45
 -2.8780271435429916E+00 a       596     0    12     1    46
  8.3507423310996973E+00 a       597     0    12     1    47
 -1.8083540549587735E+01 a       598     0    12     1    48
 -4.3306708045553080E+01 a       599     0    12     1    49
  1.3069152447450852E+01 a       600     0    12     1    50
 -3.0321735947360118E+00 a       601     0    13     1     1
  1.3606348642388586E+01 a       602     0    13     1     2
  2.5697690800645280E+01 a       603     0    13     1     3
  8.5862905002558193E+01 a       604     0    13     1     4
  4.4883804623647539E+00 a       605     0    13     1     5
 -1.6039908067246193E+02 a       606     0    13     1     6
 -4.8710587487472296E+01 a       607     0    13     1     7
  1.2039066045610488E+01 a       608     0    13     1     8
  2.1381974735787125E+01 a       609     0    13     1     9
  3.6618331158964011E+01 a       610     0    13     1    10
  3.9683626314700057E+01 a       611     0    13     1    11
  5.0187373699953774E+01 a       612     0    13     1    12
  8.3084668656447079E+01 a       613     0    13     1    13
  1.4941121097896834E+02 a       614     0    13     1    14
  1.9698326840225089E+01 a       615     0    13     1    15
 -1.4451634613648713E+01 a       616     0    13     1    16
  2.9589931723989206E+01 a       617     0    13     1    17
 -1.3434669542421911E+01 a       618     0    13     1    18
 -3.5440355871705783E+01 a       619     0    13     1    19
 -8.6831398424472717E+00 a       620     0    13     1    20
  4.8785300974039842E+01 a       621     0    13     1    21
 -1.3507338056249802E+01 a       622     0    13     1    22
  3.9505709345347384E+01 a       623     0    13     1    23
 -4.1291109959068288E+00 a       624     0    13     1    24
 -1.2168149771832287E+01 a       625     0    13     1    25
  1.3029890806970905E+00 a       626     0    13     1    26
  7.1777663695098710E+01 a       627     0    13     1    27
  2.7996274268971359E+01 a       628     0    13     1    28
  6.7937227194569772E+01 a       629     0    13     1    29
 -9.0148715669553170E+01 a       630     0    13     1    30
 -1.0128859181294720E+01 a       631     0    13     1    31
 -2.6574548993391804E+01 a       632     0    13     1    32
  3.4966665687871952E+01 a       633     0    13     1    33
  3.6583346577943061E+00 a       634     0    13     1    34
  4.0907067187800825E+00 a       635     0    13     1    35
 -2.8183122227118066E+01 a       636     0    13     1    36
  1.1513338163765427E+01 a       637     0    13     1    37
 -3.6447510416494630E+01 a       638     0    13     1    38
 -4.4963872411284342E+01 a       639     0    13     1    39
  5.6471228601056374E+01 a       640     0    13     1    40
 -4.8415657474003929E+01 a       641     0    13     1    41
  1.0593137334406706E+00 a       642     0    13     1    42
  1.5918826972143204E+01 a       643     0    13     1    43
  6.6923656789557624E+00 a       644     0    13     1    44
 -6.1983642630688107E-01 a       645     0    13     1    45
  4.9615804507832863E+01 a       646     0    13     1    46
  7.1469694757024811E+01 a       647     0    13     1    47
 -1.0339183354478356E+01 a       648     0    13     1    48
  9.0411161995327134E+01 a       649     0    13     1    49
  1.4942004811433671E+01 a       650     0    13     1    50
 -6.5874814157368874E+01 a       651     0    14     1     1
  2.4470579542752969E+01 a       652     0    14     1     2
 -8.9100036629545173E+01 a       653     0    14     1     3
  3.5046577746077404E+01 a       654     0    14     1     4
  7.0367741417602033E+01 a       655     0    14     1     5
  2.6403842233151084E+02 a       656     0    14     1     6
  7.0406612384383209E+01 a       657     0    14     1     7
  1.4904910098664475E+01 a       658     0    14     1     8
  4.3434035135574804E+00 a       659     0    14     1     9
 -2.8931671528538057E+01 a       660     0    14     1    10
 -1.0262295159201932E+01 a       661     0    14     1    11
 -5.9228756574014028E+01 a       662     0    14     1    12
  8.5727148459598752E+01 a       663     0    14     1    13
 -3.7372538526899675E+01 a       664     0    14     1    14
  6.8209806469816058E+01 a       665     0    14     1    15
  4.0945854204000099E+01 a       666     0    14     1    16
 -2.4077688695610362E+01 a       667     0    14     1    17
  2.4700675412760759E+01 a       668     0    14     1    18
 -1.3018860797347459E+01 a       669     0    14     1    19
  3.6059407557517211E+00 a       670     0    14     1    20
 -7.4173392260867743E+01 a       671     0    14     1    21
  5.2902845439934211E+01 a       672     0    14     1    22
  2.9155076668268997E+01 a       673     0    14     1    23
  2.6737616679014735E+01 a       674     0    14     1    24
  3.1177812088304762E+01 a       675     0    14     1    25
  1.3775446969081655E+01 a       676     0    14     1    26
  1.9197902837618162E+02 a       677     0    14     1    27
  1.0805471820733203E+02 a       678     0    14     1    28
 -9.9731946208786496E+01 a       679     0    14     1    29
  3.0071661249149795E+01 a       680     0    14     1    30
 -1.3027404501258297E+00 a       681     0    14     1    31
  2.5557386369862542E+01 a       682     0    14     1    32
 -1.7491413810673400E+01 a       683     0    14     1    33
  1.7150722764274057E+01 a       684     0    14     1    34
 -4.5058416774990420E+01 a       685     0    14     1    35
  1.5369689231562770E+01 a       686     0    14     1    36
 -2.9747642791135654E+01 a       687     0    14     1    37
  2.6424599826599518E+01 a       688     0    14     1    38
  5.6703251388830459E+01 a       689     0    14     1    39
 -6.8179875958359260E+00 a       690     0    14     1    40
  1.6402819727996562E+01 a       691     0    14     1    41
  1.9444631490261571E+01 a       692     0    14     1    42
 -3.5629623244923046E+01 a       693     0    14     1    43
 -5.1702714419312059E+01 a       694     0    14     1    44
 -2.8935700746386946E+01 a       695     0    14     1    45
 -2.6905954061340850E+01 a       696     0    14     1    46
 -1.7334466524800982E+02 a       697     0    14     1    47
 -4.7161494182785631E+01 a       698     0    14     1    48
 -5.4457462687463988E+01 a       699     0    14     1    49
 -1.8819758057860767E+01 a       700     0    14     1    50
  2.2970050002112856E+01 a       701     0    15     1     1
 -4.8367405889606040E+01 a       702     0    15     1     2
 -5.5048124504107818E+01 a       703     0    15     1     3
 -1.5797544916835474E+01 a       704     0    15     1     4
  1.1570809727286409E+02 a       705     0    15     1     5
  3.0523904683238533E+02 a       706     0    15     1     6
  3.3603169086983826E+01 a       707     0    15     1     7
  1.3137454010430465E+01 a       708     0    15     1     8
 -6.4579725057552210E+01 a       709     0    15     1     9
 -4.6614953246142903E+01 a       710     0    15     1    10
 -2.2578579675935917E+01 a       711     0    15     1    11
  1.2674986794407642E+01 a       712     0    15     1    12
 -7.2710296995660457E+01 a       713     0    15     1    13
  3.1610141882537569E+01 a       714     0    15     1    14
  9.0031633046715172E+01 a       715     0    15     1    15
  1.9432299575162190E+01 a       716     0    15     1    16
 -1.1808242539595253E+02 a       717     0    15     1    17
 -5.6057078493558372E+01 a       718     0    15     1    18
  1.0446334854490460E+02 a       719     0    15     1    19
  4.6681786597654344E+01 a       720     0    15     1    20
 -9.2333369279913299E+01 a       721     0    15     1    21
 -7.7807843796282397E+00 a       722     0    15     1    22
 -5.5720875102532075E+00 a       723     0    15     1    23
 -8.4110522077568916E+01 a       724     0    15     1    24
 -3.9115673608909887E+01 a       725     0    15     1    25
 -5.9150628745012789E+01 a       726     0    15     1    26
  7.4074109071908239E+01 a       727     0    15     1    27
  5.4183688761652000E+01 a       728     0    15     1    28
 -3.7899068036309082E+01 a       729     0    15     1    29
  2.1084029393147240E+01 a       730     0    15     1    30
  9.0498830186990862E+00 a       731     0    15     1    31
  2.1019346706679781E+02 a       732     0    15     1    32
  2.8617150312433914E+01 a       733     0    15     1    33
  9.8126486609132868E+01 a       734     0    15     1    34
  4.8151381010783901E+01 a       735     0    15     1    35
  3.4913342143450073E+01 a       736     0    15     1    36
  2.9900795269718376E+01 a       737     0    15     1    37
  2.0229981325174760E+00 a       738     0    15     1    38
  9.9097450704611362E+01 a       739     0    15     1    39
 -4.0681472527552977E+01 a       740     0    15     1    40
 -1.1064850758430806E+02 a       741     0    15     1    41
 -2.9497123327819967E+01 a       742     0    15     1    42
 -9.6801397289791225E+01 a       743     0    15     1    43
 -8.7772917265632717E+00 a       744     0    15     1    44
 -4.5143482672598907E+00 a       745     0    15     1    45
 -5.8790563611655870E+01 a       746     0    15     1    46
 -4.5667698287277140E+01 a       747     0    15     1    47
  9.4147961174908431E+01 a       748     0    15     1    48
 -2.7470794037258671E+01 a       749     0    15     1    49
 -4.8117063334070203E+01 a       750     0    15     1    50
  5.2194479858853512E+01 a       751     0    16     1     1
 -2.1123878982463104E+01 a       752     0    16     1     2
  6.7865983262313225E+00 a       753     0    16     1     3
 -1.3893651007459344E+01 a       754     0    16     1     4
  2.4248639933840437E+01 a       755     0    16     1     5
  4.4780566784063353E+01 a       756     0    16     1     6
 -4.1009453830556648E+00 a       757     0    16     1     7
 -1.2214201901153359E+01 a       758     0    16     1     8
 -5.1284290400213486E+01 a       759     0    16     1     9
 -4.5863373395571170E+00 a       760     0    16     1    10
  1.3499303727302760E+01 a       761     0    16     1    11
  3.0173516610508145E+01 a       762     0    16     1    12
 -4.0515183569166624E+01 a       763     0    16     1    13
  4.2799601778198905E+01 a       764     0    16     1    14
  2.7609280764582817E+01 a       765     0    16     1    15
 -7.3399736747974096E+00 a       766     0    16     1    16
 -2.2171317774101784E+01 a       767     0    16     1    17
 -2.7852059429832750E+01 a       768     0    16     1    18
  4.8549279820925911E+01 a       769     0    16     1    19
  3.3956160307493390E+00 a       770     0    16     1    20
 -2.7877965033763562E+01 a       771     0    16     1    21
 -3.0150062836030013E+01 a       772     0    16     1    22
 -9.8591337784546589E+00 a       773     0    16     1    23
 -5.1141034001146522E+01 a       774     0    16     1    24
 -2.8261819312212864E+01 a       775     0    16     1    25
 -1.1944067916361931E+01 a       776     0    16     1    26
  1.5765628876684867E+00 a       777     0    16     1    27
 -3.7282328192386855E+00 a       778     0    16     1    28
  1.2486411335573619E+01 a       779     0    16     1    29
 -1.4314812778351911E+01 a       780     0    16     1    30
 -1.2038956563349714E+01 a       781     0    16     1    31
  5.7612607227431234E+01 a       782     0    16     1    32
  4.5776924025513686E+01 a       783     0    16     1    33
  3.8980713139198599E+01 a       784     0    16     1    34
  4.3215653278117095E+01 a       785     0    16     1    35
  1.3193001784819367E+01 a       786     0    16     1    36
  1.4159042188686104E+01 a       787     0    16     1    37
  6.6736403673971489E+00 a       788     0    16     1    38
  2.6561759285676253E+01 a       789     0    16     1    39
 -2.7206463642950755E+01 a       790     0    16     1    40
 -6.5157271459651739E+01 a       791     0    16     1    41
 -1.5736070432164531E+01 a       792     0    16     1    42
 -3.1456288572082251E+01 a       793     0    16     1    43
  1.9654924058642116E+01 a       794     0    16     1    44
  2.0157126050778672E+01 a       795     0    16     1    45
  6.3456041701666699E-01 a       796     0    16     1    46
  3.9095958531728186E+01 a       797     0    16     1    47
  4.7999658269170617E+01 a       798     0    16     1    48
  1.4170861150296560E+01 a       799     0    16     1    49
 -1.8698831466836150E+01 a       800     0    16     1    50
  5.7361015446247920E+00 a       801     0    17     1     1
  1.1623860577722137E+01 a       802     0    17     1     2
 -2.4061303069505555E-01 a       803     0    17     1     3
  1.0470998781585012E-02 a       804     0    17     1     4
 -1.6669766481783228E+01 a       805     0    17     1     5
 -2.2931190417622897E+01 a       806     0    17     1     6
  1.0064105047718606E+01 a       807     0    17     1     7
 -5.5445669059574625E+00 a       808     0    17     1     8
 -5.3938795271318227E+00 a       809     0    17     1     9
  8.3487554402297643E+00 a       810     0    17     1    10
  1.2679787712778257E+01 a       811     0    17     1    11
 -7.6386524383616132E+00 a       812     0    17     1    12
  9.0386722552940224E+00 a       813     0    17     1    13
 -9.6755055490614019E+00 a       814     0    17     1    14
 -2.7605356086997070E+00 a       815     0    17     1    15
  4.6085214120737472E-01 a       816     0    17     1    16
  2.7146704939131986E+01 a       817     0    17     1    17
  1.8491664434746770E+01 a       818     0    17     1    18
 -1.1517341169423323E+01 a       819     0    17     1    19
 -2.6996853015121221E+01 a       820     0    17     1    20
  7.9059097693248290E+00 a       821     0    17     1    21
  3.7006776553005971E+00 a       822     0    17     1    22
  2.7301176734925923E+00 a       823     0    17     1    23
  2.1761312762364803E+01 a       824     0    17     1    24
  1.0943294819182375E+01 a       825     0    17     1    25
  2.1472607538322492E+01 a       826     0    17     1    26
  1.7802544702379279E+00 a       827     0    17     1    27
  6.6759452382076678E-01 a       828     0    17     1    28
 -9.9523296834927439E+00 a       829     0    17     1    29
  2.3763489943979605E+00 a       830     0    17     1    30
 -2.3610520539898086E-01 a       831     0    17     1    31
 -3.6782963136057326E+01 a       832     0    17     1    32
 -4.2374307641165014E+00 a       833     0    17     1    33
 -1.8827636586630646E+01 a       834     0    17     1    34
 -8.3034678605699863E+00 a       835     0    17     1    35
 -1.7433006961460020E+00 a       836     0    17     1    36
 -1.4214673630511246E+01 a       837     0    17     1    37
  1.4390671322404087E+01 a       838     0    17     1    38
 -6.9988601314888284E+00 a       839     0    17     1    39
 -5.0040780707911576E+00 a       840     0    17     1    40
  1.5299802266769776E+01 a       841     0    17     1    41
  1.0296559743263366E+01 a       842     0    17     1    42
  7.0298079992308988E+00 a       843     0    17     1    43
  1.3681229959572108E+00 a       844     0    17     1    44
  1.5655477424776139E+00 a       845     0    17     1    45
  7.2250642617351142E+00 a       846     0    17     1    46
 -1.2100427064096786E+01 a       847     0    17     1    47
 -1.7074601724304777E+01 a       848     0    17     1    48
 -7.4753918240857935E+00 a       849     0    17     1    49
  6.9850675089406788E+00 a       850     0    17     1    50
 -8.6043766762983207E+00 a       851     0    18     1     1
  7.5383084215815210E-01 a       852     0    18     1     2
  3.1367915733780842E+00 a       853     0    18     1     3
  3.6946345328174477E+00 a       854     0    18     1     4
 -4.0272436209923601E+00 a       855     0    18     1     5
 -1.2749382947693800E+01 a       856     0    18     1     6
 -4.9972060351520717E+00 a       857     0    18     1     7
  4.4583121952221223E+00 a       858     0    18     1     8
  8.7172505775111766E+00 a       859     0    18     1     9
  1.0735251386435793E+00 a       860     0    18     1    10
 -3.2366550787909474E+00 a       861     0    18     1    11
 -9.4171801939641242E-01 a       862     0    18     1    12
  3.2578111363607341E+00 a       863     0    18     1    13
 -2.3201737329412269E+00 a       864     0    18     1    14
 -5.9793294242683084E+00 a       865     0    18     1    15
  4.9699126016743023E-01 a       866     0    18     1    16
  1.4673927972031209E+00 a       867     0    18     1    17
 -1.4345153391502690E+00 a       868     0    18     1    18
 -8.0862380352079146E+00 a       869     0    18     1    19
  1.1941716771132675E+00 a       870     0    18     1    20
  6.6710011870013117E+00 a       871     0    18     1    21
  2.4935640475829239E+00 a       872     0    18     1    22
  2.3350259056749652E+00 a       873     0    18     1    23
 -9.9838380979843979E+00 a       874     0    18     1    24
  1.4462635686029996E+00 a       875     0    18     1    25
 -2.5078758491459583E+00 a       876     0    18     1    26
 -5.2510394370012712E+00 a       877     0    18     1    27
 -2.8770389794791620E+00 a       878     0    18     1    28
  4.5898129264307848E+00 a       879     0    18     1    29
 -7.4313099699581231E-01 a       880     0    18     1    30
  2.1131771315130834E+00 a       881     0    18     1    31
 -4.6162069675868933E-01 a       882     0    18     1    32
 -2.1038751161574942E+00 a       883     0    18     1    33
 -4.3495568023736597E+00 a       884     0    18     1    34
 -4.1723997705114861E+00 a       885     0    18     1    35
 -3.3440722765893152E+00 a       886     0    18     1    36
  9.6494219036486772E-01 a       887     0    18     1    37
 -5.4963418634201915E+00 a       888     0    18     1    38
 -5.4915183360719553E+00 a       889     0    18     1    39
  7.1386571411349786E+00 a       890     0    18     1    40
  7.2663434055197369E+00 a       891     0    18     1    41
  1.3001439470159129E-01 a       892     0    18     1    42
  5.6599078156347442E+00 a       893     0    18     1    43
 -1.7239061145433725E+00 a       894     0    18     1    44
 -3.7422747591496375E+00 a       895     0    18     1    45
  2.7739639431583383E+00 a       896     0    18     1    46
  2.5078965703734992E+00 a       897     0    18     1    47
 -3.4456460627757242E+00 a       898     0    18     1    48
  2.5938928192016957E+00 a       899     0    18     1    49
  1.8199869468698155E+00 a       900     0    18     1    50
  1.1583574745868930E+01 a       901     0    19     1     1
 -3.5858926357421154E+01 a       902     0    19     1     2
 -1.3712777459385191E+02 a       903     0    19     1     3
 -5.2840264823299748E+01 a       904     0    19     1     4
 -1.1750898374591517E+02 a       905     0    19     1     5
 -1.9490457098921095E+01 a       906     0    19     1     6
  3.7552461311143567E+01 a       907     0    19     1     7
  3.3378807191150536E+01 a       908     0    19     1     8
 -1.0073050519335847E+01 a       909     0    19     1     9
 -4.5656986999742273E+01 a       910     0    19     1    10
 -1.2757293919588871E+02 a       911     0    19     1    11
 -3.9731209251254009E+00 a       912     0    19     1    12
 -1.2183125253561484E+02 a       913     0    19     1    13
  1.6393371038322127E+02 a       914     0    19     1    14
 -2.0692993113546869E+01 a       915     0    19     1    15
 -1.5596024734347683E+01 a       916     0    19     1    16
 -3.0191399838042912E+01 a       917     0    19     1    17
  7.1186339565929728E+01 a       918     0    19     1    18
 -7.7899742821650753E-01 a       919     0    19     1    19
 -2.5714746799735671E+01 a       920     0    19     1    20
 -5.2721277712958887E+00 a       921     0    19     1    21
 -6.6052879876220780E+00 a       922     0    19     1    22
  7.9139475007827315E+01 a       923     0    19     1    23
  2.2684988582165135E+00 a       924     0    19     1    24
 -8.7140956454251850E+01 a       925     0    19     1    25
 -6.6869316726638521E+00 a       926     0    19     1    26
 -2.4003208905349018E+02 a       927     0    19     1    27
  4.5724386198260241E+01 a       928     0    19     1    28
 -5.9955414328566285E+01 a       929     0    19     1    29
  1.1129455724380031E+02 a       930     0    19     1    30
  2.0870396873520640E+01 a       931     0    19     1    31
  1.1416847378353443E+01 a       932     0    19     1    32
 -2.3259799080323891E+01 a       933     0    19     1    33
 -2.1544107671506648E+01 a       934     0    19     1    34
  4.2854663507430629E+01 a       935     0    19     1    35
 -5.0513698213194886E+01 a       936     0    19     1    36
 -3.4005085541611123E+01 a       937     0    19     1    37
  5.6821934258599491E+01 a       938     0    19     1    38
  1.7511028875548124E+01 a       939     0    19     1    39
 -1.5703875115687831E+01 a       940     0    19     1    40
 -2.6234580141020444E+02 a       941     0    19     1    41
 -1.3644009587378644E+01 a       942     0    19     1    42
 -8.1346741448388702E+00 a       943     0    19     1    43
  1.2505254075620831E+01 a       944     0    19     1    44
 -3.7845365911321359E+01 a       945     0    19     1    45
  7.8685365515430421E+00 a       946     0    19     1    46
  1.0770974943897214E+02 a       947     0    19     1    47
 -2.6193324060953387E+02 a       948     0    19     1    48
 -1.9065902176227030E+02 a       949     0    19     1    49
 -1.5533976343860201E+00 a       950     0    19     1    50
 -1.7382957185457119E+01 a       951     0    20     1     1
 -6.7051815607905327E+00 a       952     0    20     1     2
  5.0510668283226579E+01 a       953     0    20     1     3
 -3.8032026562545887E+01 a       954     0    20     1     4
  4.1170899232597380E-01 a       955     0    20     1     5
 -8.1525040126689262E+01 a       956     0    20     1     6
  4.4724079943311871E+01 a       957     0    20     1     7
 -5.9287170425652536E-01 a       958     0    20     1     8
  3.9325762107966362E+01 a       959     0    20     1     9
  1.1157098901884387E+01 a       960     0    20     1    10
  1.6379193701256852E+01 a       961     0    20     1    11
 -7.4321192251101905E+01 a       962     0    20     1    12
 -7.4725842697948380E+01 a       963     0    20     1    13
  1.5268881393586676E+02 a       964     0    20     1    14
  6.3210861417891252E+01 a       965     0    20     1    15
  1.2369978015809924E+01 a       966     0    20     1    16
 -9.4836109949084928E+01 a       967     0    20     1    17
  3.2120409064803340E+01 a       968     0    20     1    18
 -7.3054602170174448E+01 a       969     0    20     1    19
 -2.9228471104233691E+00 a       970     0    20     1    20
  2.2546664194041007E+01 a       971     0    20     1    21
 -1.6371944555194922E+01 a       972     0    20     1    22
  8.5739859166939596E+01 a       973     0    20     1    23
 -3.9181572147908639E+01 a       974     0    20     1    24
  1.1250306390780872E+02 a       975     0    20     1    25
 -6.2569393027544358E+01 a       976     0    20     1    26
 -1.1974493374606801E+02 a       977     0    20     1    27
 -4.2243834377457361E+01 a       978     0    20     1    28
 -8.4195885945165063E+00 a       979     0    20     1    29
  6.2716420069225457E+01 a       980     0    20     1    30
 -2.1574498789844608E+01 a       981     0    20     1    31
 -1.5465745604017055E+01 a       982     0    20     1    32
  3.5539297281760525E+00 a       983     0    20     1    33
 -3.5995558103812693E+00 a       984     0    20     1    34
 -8.4481946683916007E+01 a       985     0    20     1    35
  3.6851620164532520E+01 a       986     0    20     1    36
 -8.9736337876142613E+01 a       987     0    20     1    37
 -8.6742282873734311E+00 a       988     0    20     1    38
 -3.2435830461655470E+01 a       989     0    20     1    39
  1.2068451173949322E+01 a       990     0    20     1    40
  7.2487046245308008E+01 a       991     0    20     1    41
 -3.4007613150951364E+00 a       992     0    20     1    42
 -1.0161851611206682E+01 a       993     0    20     1    43
 -5.0057859946864063E+01 a       994     0    20     1    44
 -4.7898946997652921E+01 a       995     0    20     1    45
 -3.2973051853138941E+01 a       996     0    20     1    46
 -7.6856802637858308E+01 a       997     0    20     1    47
  1.7515709076604193E+00 a       998     0    20     1    48
 -8.9377308170046206E+01 a       999     0    20     1    49
 -1.1366994187781286E+01 a      1000     0    20     1    50
 -6.9907847487323732E-02 a      1001     0    21     1     1
 -1.8169438313966857E+01 a      1002     0    21     1     2
  8.3026959862839234E+01 a      1003     0    21     1     3
 -2.8578957805172912E+01 a      1004     0    21     1     4
  1.4737268067834265E+01 a      1005     0    21     1     5
  8.6131969155721364E+01 a      1006     0    21     1     6
 -5.7691480220746428E+01 a      1007     0    21     1     7
 -1.5475129328908874E+01 a      1008     0    21     1     8
  3.9761136502145582E+01 a      1009     0    21     1     9
  1.4159054240594577E+01 a      1010     0    21     1    10
  2.5417812211675489E+01 a      1011     0    21     1    11
  1.1133335111427353E+02 a      1012     0    21     1    12
 -2.6292708701881981E+01 a      1013     0    21     1    13
  1.3858740254957322E+00 a      1014     0    21     1    14
 -1.0322179785631621E+02 a      1015     0    21     1    15
 -4.5027508681561407E+01 a      1016     0    21     1    16
  9.1269830970246986E+01 a      1017     0    21     1    17
  7.5167048546159005E+00 a      1018     0    21     1    18
  9.8829369331368170E+01 a      1019     0    21     1    19
  8.7714943470996722E+00 a      1020     0    21     1    20
 -9.0338356796304495E+00 a      1021     0    21     1    21
  3.0516250604514738E+01 a      1022     0    21     1    22
 -6.5361719828396133E+01 a      1023     0    21     1    23
 -2.1655701450764841E+01 a      1024     0    21     1    24
 -2.2454827794074621E+00 a      1025     0    21     1    25
 -3.0366027974836797E+01 a      1026     0    21     1    26
  2.3038908023835390E+01 a      1027     0    21     1    27
  1.3309291994813250E+01 a      1028     0    21     1    28
  1.2583853783924425E+02 a      1029     0    21     1    29
 -8.4448911412224206E+01 a      1030     0    21     1    30
 -2.5782630847077188E+00 a      1031     0    21     1    31
  2.0899038802992411E+01 a      1032     0    21     1    32
  2.5643206346685211E+01 a      1033     0    21     1    33
 -7.2274138210354010E+01 a      1034     0    21     1    34
 -5.8602170477820232E+00 a      1035     0    21     1    35
 -9.6551324200481226E+00 a      1036     0    21     1    36
  3.6253199418585957E+01 a      1037     0    21     1    37
 -8.1141500052900675E+00 a      1038     0    21     1    38
  6.1149205953873009E+00 a      1039     0    21     1    39
 -4.1771686432907416E+01 a      1040     0    21     1    40
 -4.4093188311398166E+01 a      1041     0    21     1    41
 -4.1440658644744900E+01 a      1042     0    21     1    42
  9.7489958374872415E+01 a      1043     0    21     1    43
  4.0074303556960714E+01 a      1044     0    21     1    44
  1.1359169554458477E+02 a      1045     0    21     1    45
  4.0101930271025481E+01 a      1046     0    21     1    46
 -6.4900993606156391E+01 a      1047     0    21     1    47
  2.1656299529301489E+02 a      1048     0    21     1    48
 -5.6642101546406465E+01 a      1049     0    21     1    49
  2.0399301063492569E+01 a      1050     0    21     1    50
 -6.8191043932208459E+01 a      1051     0    22     1     1
  4.1080169214710104E+01 a      1052     0    22     1     2
  3.3976229242893808E+01 a      1053     0    22     1     3
  2.1689411622136813E+01 a      1054     0    22     1     4
  2.2793799132372904E+01 a      1055     0    22     1     5
 -1.0028596699861449E+01 a      1056     0    22     1     6
 -3.2144097173550442E+01 a      1057     0    22     1     7
 -3.9751433645860658E+01 a      1058     0    22     1     8
 -7.5564342992447715E+00 a      1059     0    22     1     9
  1.5368444451184109E+01 a      1060     0    22     1    10
 -5.3707156245917581E+01 a      1061     0    22     1    11
 -2.8355885400316787E+01 a      1062     0    22     1    12
  6.5601380964098055E+01 a      1063     0    22     1    13
 -2.5168008555021021E+02 a      1064     0    22     1    14
 -4.0203153871271283E+01 a      1065     0    22     1    15
 -1.0188955133155700E+02 a      1066     0    22     1    16
  4.7245735424284874E+01 a      1067     0    22     1    17
 -1.1169815642553769E+02 a      1068     0    22     1    18
  3.5112807382702627E+01 a      1069     0    22     1    19
 -2.5223952446815112E+01 a      1070     0    22     1    20
  3.0029473362172563E+01 a      1071     0    22     1    21
 -2.5039244318989020E+00 a      1072     0    22     1    22
 -1.7131945167055108E+02 a      1073     0    22     1    23
  1.1419725448169553E+00 a      1074     0    22     1    24
 -2.2882862692803968E+01 a      1075     0    22     1    25
 -2.8506858086890674E+01 a      1076     0    22     1    26
  2.8691247812632230E+02 a      1077     0    22     1    27
 -1.1440208915574773E+02 a      1078     0    22     1    28
  1.8445993855978060E+01 a      1079     0    22     1    29
 -1.1884108189084401E+02 a      1080     0    22     1    30
 -2.1216670385572520E+00 a      1081     0    22     1    31
  2.1005718126298021E+01 a      1082     0    22     1    32
 -5.7167872183414596E+00 a      1083     0    22     1    33
  5.9805595413012171E+01 a      1084     0    22     1    34
  9.3317986188485392E+01 a      1085     0    22     1    35
  3.4267971802088162E+01 a      1086     0    22     1    36
  5.0057356274346255E+01 a      1087     0    22     1    37
  4.5367599422942540E+01 a      1088     0    22     1    38
  2.2770313179298146E+01 a      1089     0    22     1    39
  2.8589321263370874E+01 a      1090     0    22     1    40
  1.4930687502460486E+02 a      1091     0    22     1    41
 -1.5484030353428626E+01 a      1092     0    22     1    42
 -1.8030748969281198E+01 a      1093     0    22     1    43
  1.0325918667360702E+01 a      1094     0    22     1    44
 -8.6155781673943981E+00 a      1095     0    22     1    45
  1.9263086284810367E+01 a      1096     0    22     1    46
 -1.8630699481986126E+00 a      1097     0    22     1    47
  1.1660837376440261E+02 a      1098     0    22     1    48
  3.4882917061512165E+02 a      1099     0    22     1    49
  4.0870164613067615E+01 a      1100     0    22     1    50
  1.3634107391385559E+01 a      1101     0    23     1     1
  2.7682974925147818E+01 a      1102     0    23     1     2
  9.8180533677412015E+01 a      1103     0    23     1     3
  6.2789951842780290E+01 a      1104     0    23     1     4
  9.0794144312745075E+01 a      1105     0    23     1     5
 -8.1277110458165438E+01 a      1106     0    23     1     6
 -1.8557431665641626E+01 a      1107     0    23     1     7
 -7.3039095679437880E+00 a      1108     0    23     1     8
  2.1678605996506374E+01 a      1109     0    23     1     9
  2.4036555373166260E+00 a      1110     0    23     1    10
  5.4164541144843490E+01 a      1111     0    23     1    11
 -3.9844210582260075E+01 a      1112     0    23     1    12
  2.1281567824462107E+02 a      1113     0    23     1    13
 -2.3516091934604481E+02 a      1114     0    23     1    14
  9.7252669815071584E+01 a      1115     0    23     1    15
  1.7711447233789709E+01 a      1116     0    23     1    16
 -1.7560911025637697E+01 a      1117     0    23     1    17
 -8.6803282070579982E+01 a      1118     0    23     1    18
 -6.8600383053028551E+01 a      1119     0    23     1    19
  6.8536291891539189E+00 a      1120     0    23     1    20
  4.7423285995578489E+01 a      1121     0    23     1    21
 -1.8415150385966133E+01 a      1122     0    23     1    22
 -1.0982310908417148E+02 a      1123     0    23     1    23
  8.9624949486537198E-01 a      1124     0    23     1    24
 -1.4838797846259189E-01 a      1125     0    23     1    25
 -4.7834260790195300E+00 a      1126     0    23     1    26
  3.6230987250551601E+02 a      1127     0    23     1    27
 -8.7026247130995586E+01 a      1128     0    23     1    28
  9.3583476372278120E+00 a      1129     0    23     1    29
 -1.1073290308629451E+02 a      1130     0    23     1    30
  8.5968032447383518E+00 a      1131     0    23     1    31
 -4.1716216662941811E+01 a      1132     0    23     1    32
 -2.9355670157566284E+01 a      1133     0    23     1    33
  6.7001469290506407E+01 a      1134     0    23     1    34
 -1.4582102431105298E+01 a      1135     0    23     1    35
 -4.4729642331682946E+01 a      1136     0    23     1    36
 -1.3804893487663239E+00 a      1137     0    23     1    37
 -3.2952737243364894E+01 a      1138     0    23     1    38
 -1.0449673448414130E+01 a      1139     0    23     1    39
  3.2829273831034691E+01 a      1140     0    23     1    40
  3.0199519847096059E+02 a      1141     0    23     1    41
  9.5367760325132114E+00 a      1142     0    23     1    42
 -5.8297706158406065E+01 a      1143     0    23     1    43
 -6.5275498215740711E+01 a      1144     0    23     1    44
 -2.7774247593940313E+01 a      1145     0    23     1    45
 -3.1619168206630132E+01 a      1146     0    23     1    46
 -6.0074730223969283E+01 a      1147     0    23     1    47
  1.8901990319643883E+02 a      1148     0    23     1    48
  3.8283166241995934E+02 a      1149     0    23     1    49
  1.4226104243186817E+00 a      1150     0    23     1    50
  2.8720690746069039E+01 a      1151     0    24     1     1
 -8.5212721013788570E+00 a      1152     0    24     1     2
 -3.0520513724465189E+01 a      1153     0    24     1     3
  1.6376614625217410E+01 a      1154     0    24     1     4
  2.3593799240872046E+00 a      1155     0    24     1     5
 -1.5460672222600822E+01 a      1156     0    24     1     6
  4.4489016737836245E+01 a      1157     0    24     1     7
  4.4547026370797598E+00 a      1158     0    24     1     8
  1.1261003552034381E+01 a      1159     0    24     1     9
 -5.7176079877869403E+00 a      1160     0    24     1    10
  5.5772026290370547E+01 a      1161     0    24     1    11
  5.0446771123461630E+01 a      1162     0    24     1    12
  5.6747187456570799E+01 a      1163     0    24     1    13
  7.7757393592257785E+01 a      1164     0    24     1    14
  3.3809019080314968E+01 a      1165     0    24     1    15
  3.7960790960594920E+01 a      1166     0    24     1    16
 -5.7689449844356616E+01 a      1167     0    24     1    17
  9.1303567047136937E+01 a      1168     0    24     1    18
 -2.3439876219887118E+01 a      1169     0    24     1    19
  1.0259990698603083E+01 a      1170     0    24     1    20
 -5.7702807852360358E+00 a      1171     0    24     1    21
 -3.3505873543707310E+00 a      1172     0    24     1    22
  1.1428301837276946E+02 a      1173     0    24     1    23
 -7.1173103342326485E+00 a      1174     0    24     1    24
  3.6813787867073792E+01 a      1175     0    24     1    25
 -1.0753034404892487E+01 a      1176     0    24     1    26
 -8.0644887882287918E+01 a      1177     0    24     1    27
  1.0051675492551723E+02 a      1178     0    24     1    28
 -3.1526537475010730E+00 a      1179     0    24     1    29
  4.7333632653699631E+01 a      1180     0    24     1    30
 -5.1425763563007418E+00 a      1181     0    24     1    31
 -1.2309624190119671E+01 a      1182     0    24     1    32
 -1.1778485672792958E+00 a      1183     0    24     1    33
 -2.9705022072866612E+01 a      1184     0    24     1    34
 -6.1411262130498578E+01 a      1185     0    24     1    35
 -1.0143548269336470E+01 a      1186     0    24     1    36
 -1.5517150386273915E+01 a      1187     0    24     1    37
 -2.0491758910105251E+01 a      1188     0    24     1    38
 -2.1216877447447029E+01 a      1189     0    24     1    39
  5.9283977807685959E+00 a      1190     0    24     1    40
 -6.3309495768607142E+01 a      1191     0    24     1    41
  1.0913331281142764E+01 a      1192     0    24     1    42
  1.5952465558609038E+01 a      1193     0    24     1    43
  4.6490176280629697E-01 a      1194     0    24     1    44
 -1.3293241520677523E+01 a      1195     0    24     1    45
 -1.9617966647061575E+01 a      1196     0    24     1    46
  1.2338850848204334E+01 a      1197     0    24     1    47
 -1.8594754271267619E+00 a      1198     0    24     1    48
 -1.5171792730596118E+02 a      1199     0    24     1    49
 -3.0453272151461682E+01 a      1200     0    24     1    50
 -1.4607491627836501E+01 a      1201     0    25     1     1
  2.4788335153577247E+01 a      1202     0    25     1     2
 -7.4475060580343083E+01 a      1203     0    25     1     3
  3.1134203352115122E+01 a      1204     0    25     1     4
 -2.6159467543238866E+00 a      1205     0    25     1     5
 -8.2787310183351067E+01 a      1206     0    25     1     6
  6.9509313247372091E+01 a      1207     0    25     1     7
  9.6745001225461618E+00 a      1208     0    25     1     8
 -2.1859362340252392E+01 a      1209     0    25     1     9
 -3.9552760456383624E+00 a      1210     0    25     1    10
  2.3346622910494648E+00 a      1211     0    25     1    11
 -1.2092433744480270E+02 a      1212     0    25     1    12
  2.8764807944387613E+01 a      1213     0    25     1    13
  4.6703523937322924E+00 a      1214     0    25     1    14
  1.1739237400853551E+02 a      1215     0    25     1    15
  4.9756423392520837E+01 a      1216     0    25     1    16
 -9.7053711713908399E+01 a      1217     0    25     1    17
 -9.0325957807521569E+00 a      1218     0    25     1    18
 -9.4419652474191125E+01 a      1219     0    25     1    19
 -1.2360149703282636E+01 a      1220     0    25     1    20
  4.6261702520995582E+00 a      1221     0    25     1    21
 -2.5797334772204223E+01 a      1222     0    25     1    22
  8.2803164030597870E+01 a      1223     0    25     1    23
 -1.3545587064456864E+01 a      1224     0    25     1    24
  5.2877645571353909E+01 a      1225     0    25     1    25
  4.3700462763749805E+01 a      1226     0    25     1    26
 -4.2014782381530772E+01 a      1227     0    25     1    27
 -1.0703165183986226E+01 a      1228     0    25     1    28
 -1.1693924975422475E+02 a      1229     0    25     1    29
  9.0053581660191014E+01 a      1230     0    25     1    30
  1.7669364398429959E+01 a      1231     0    25     1    31
 -8.9780491365683908E+00 a      1232     0    25     1    32
  2.7161323163382278E-01 a      1233     0    25     1    33
  9.0580283052044507E+01 a      1234     0    25     1    34
 -3.0001777373476248E+01 a      1235     0    25     1    35
  3.4140489980525210E+01 a      1236     0    25     1    36
 -3.8736213634067333E+01 a      1237     0    25     1    37
 -4.9987338954224887E+00 a      1238     0    25     1    38
 -7.3383318902671135E+00 a      1239     0    25     1    39
  3.2396941119884687E+01 a      1240     0    25     1    40
  7.2100477375911282E+01 a      1241     0    25     1    41
  4.4942162410426000E+01 a      1242     0    25     1    42
 -9.6249339710667215E+01 a      1243     0    25     1    43
 -2.9405529026398646E+01 a      1244     0    25     1    44
 -9.7767239032981024E+01 a      1245     0    25     1    45
 -2.6760440975320734E+01 a      1246     0    25     1    46
  5.1991788009017725E+01 a      1247     0    25     1    47
 -2.0668432459691269E+02 a      1248     0    25     1    48
  4.4806621413237593E+01 a      1249     0    25     1    49
 -4.2365567162146796E+01 a      1250     0    25     1    50
  2.7934027126901977E+01 a      1251     0    26     1     1
 -2.6414680901438188E+00 a      1252     0    26     1     2
 -8.6220354448183926E+01 a      1253     0    26     1     3
 -3.1305213681512015E+01 a      1254     0    26     1     4
 -5.2171003258159097E+01 a      1255     0    26     1     5
  7.0761940579039177E+01 a      1256     0    26     1     6
  2.3287077555765677E+01 a      1257     0    26     1     7
 -4.6343232254739162E+00 a      1258     0    26     1     8
 -3.5287433109841189E+01 a      1259     0    26     1     9
 -2.7263990345234141E+01 a      1260     0    26     1    10
 -2.7624116381161866E+01 a      1261     0    26     1    11
  7.3889126157245514E+01 a      1262     0    26     1    12
 -9.1777355042824425E+01 a      1263     0    26     1    13
  1.9979756108636073E+02 a      1264     0    26     1    14
 -5.3376686365280158E+01 a      1265     0    26     1    15
  5.9444635219521400E+00 a      1266     0    26     1    16
  1.5729559308610270E+01 a      1267     0    26     1    17
  9.4400186294749474E+01 a      1268     0    26     1    18
  5.1240326961341353E+01 a      1269     0    26     1    19
 -1.4817802506837722E+01 a      1270     0    26     1    20
 -2.0285658997993412E+01 a      1271     0    26     1    21
  1.1762797838397702E+01 a      1272     0    26     1    22
  7.8136864053500474E+01 a      1273     0    26     1    23
  3.6900282769061747E+01 a      1274     0    26     1    24
 -4.0646584689841212E+01 a      1275     0    26     1    25
  3.6252473907986982E+01 a      1276     0    26     1    26
 -2.2524912447227177E+02 a      1277     0    26     1    27
  1.1087567744054549E+02 a      1278     0    26     1    28
 -2.6883648129777921E+01 a      1279     0    26     1    29
  7.6373207880701969E+01 a      1280     0    26     1    30
  2.2459396069092850E+01 a      1281     0    26     1    31
  2.7033554943393725E+01 a      1282     0    26     1    32
  6.8588301818528166E+00 a      1283     0    26     1    33
 -3.1165708625676544E+01 a      1284     0    26     1    34
  2.3828665768450733E+01 a      1285     0    26     1    35
 -1.8751721739046484E+01 a      1286     0    26     1    36
  6.3834925773139595E+01 a      1287     0    26     1    37
  2.1938483568450277E+01 a      1288     0    26     1    38
  6.3095203898832155E+00 a      1289     0    26     1    39
 -5.8698008355685438E+00 a      1290     0    26     1    40
 -3.0095240136112568E+02 a      1291     0    26     1    41
  1.0257631625208305E+01 a      1292     0    26     1    42
  3.0609902293675585E+01 a      1293     0    26     1    43
  5.5219874063741948E+01 a      1294     0    26     1    44
  6.1518276220362802E+00 a      1295     0    26     1    45
 -1.2245389665971086E+01 a      1296     0    26     1    46
  1.1732297993170306E+02 a      1297     0    26     1    47
 -2.5364798478116276E+02 a      1298     0    26     1    48
 -2.6798063745905142E+02 a      1299     0    26     1    49
 -2.4317632146636086E+01 a      1300     0    26     1    50
 -6.7962963418689455E+01 a      1301     0    27     1     1
  7.9956780072786779E+00 a      1302     0    27     1     2
 -1.6029644352465107E+02 a      1303     0    27     1     3
  1.0700005628395247E+02 a      1304     0    27     1     4
  2.7229409453206692E+01 a      1305     0    27     1     5
  4.4743922861646908E+01 a      1306     0    27     1     6
 -5.7634637245046335E+01 a      1307     0    27     1     7
  1.2402153458781262E+02 a      1308     0    27     1     8
 -1.8143808617999692E+01 a      1309     0    27     1     9
  1.9752334034167326E+01 a      1310     0    27     1    10
 -1.2747666278363543E+02 a      1311     0    27     1    11
  1.9993670506969494E+01 a      1312     0    27     1    12
 -7.5443791290354881E+01 a      1313     0    27     1    13
  8.3514698072645626E+00 a      1314     0    27     1    14
 -1.1824234082157490E+02 a      1315     0    27     1    15
  2.7476947001571897E+01 a      1316     0    27     1    16
  1.0462279026823727E+02 a      1317     0    27     1    17
 -2.5508354665471721E+01 a      1318     0    27     1    18
  6.8273474064877277E+01 a      1319     0    27     1    19
 -3.9608479682336721E+01 a      1320     0    27     1    20
  2.1369880104587562E+01 a      1321     0    27     1    21
 -1.0701273863149108E+01 a      1322     0    27     1    22
 -7.0819457334363918E+01 a      1323     0    27     1    23
 -3.6580585158704446E+00 a      1324     0    27     1    24
 -4.9486442081569002E+01 a      1325     0    27     1    25
 -1.8174879617257737E+01 a      1326     0    27     1    26
  2.6148257590342208E+01 a      1327     0    27     1    27
  3.4251069972766968E+00 a      1328     0    27     1    28
  6.4535617294744796E+00 a      1329     0    27     1    29
 -4.8433025175984973E+01 a      1330     0    27     1    30
  1.2777565806189800E+01 a      1331     0    27     1    31
 -1.2946726822422557E+01 a      1332     0    27     1    32
  4.3162747654229232E+00 a      1333     0    27     1    33
 -7.5696670643837765E+00 a      1334     0    27     1    34
  6.6132172997004446E+01 a      1335     0    27     1    35
  3.6831955944385562E+01 a      1336     0    27     1    36
 -4.3320899245049539E+01 a      1337     0    27     1    37
  8.0928717445421739E+01 a      1338     0    27     1    38
  2.7965209401305021E+01 a      1339     0    27     1    39
 -1.0897333009631251E+02 a      1340     0    27     1    40
  8.9700507676592082E+01 a      1341     0    27     1    41
  2.2967379803019433E+01 a      1342     0    27     1    42
 -2.9736696242283681E+01 a      1343     0    27     1    43
  6.9964321875077673E+01 a      1344     0    27     1    44
  3.5736888717975688E+01 a      1345     0    27     1    45
  7.5345682060036665E+01 a      1346     0    27     1    46
 -2.2287341891263452E+01 a      1347     0    27     1    47
  8.7334592593494676E+01 a      1348     0    27     1    48
  1.4357126835541088E+01 a      1349     0    27     1    49
 -4.3504911544838096E+00 a      1350     0    27     1    50
 -9.5884458081096913E+00 a      1351     0    28     1     1
 -3.4468944924326554E+00 a      1352     0    28     1     2
 -1.0765623619595536E+02 a      1353     0    28     1     3
  7.8991799774513780E+01 a      1354     0    28     1     4
  1.4506968679880618E+01 a      1355     0    28     1     5
  8.0812378211777549E+00 a      1356     0    28     1     6
 -6.7508393098044355E+00 a      1357     0    28     1     7
  6.5138690557466660E+01 a      1358     0    28     1     8
 -6.6859783810541096E+00 a      1359     0    28     1     9
  4.2800504049298356E+00 a      1360     0    28     1    10
 -2.4443406496348107E+01 a      1361     0    28     1    11
  5.1417818143764492E+01 a      1362     0    28     1    12
  5.7514235398829342E+01 a      1363     0    28     1    13
 -8.8864169258669435E+01 a      1364     0    28     1    14
 -3.1111730848737544E+01 a      1365     0    28     1    15
  3.2488837182429073E+01 a      1366     0    28     1    16
  2.3894032764639881E+01 a      1367     0    28     1    17
  2.2937341545285953E+01 a      1368     0    28     1    18
  2.1016960914695730E+01 a      1369     0    28     1    19
 -1.4109292142697014E+00 a      1370     0    28     1    20
  4.2905783014676535E-01 a      1371     0    28     1    21
 -7.9526718297887982E+00 a      1372     0    28     1    22
  1.6116435750627275E+01 a      1373     0    28     1    23
 -1.1775905192757319E+01 a      1374     0    28     1    24
 -3.0776558427482950E+01 a      1375     0    28     1    25
 -9.4751211224509380E+00 a      1376     0    28     1    26
  3.7513009369251982E+01 a      1377     0    28     1    27
  6.2643802816936926E+01 a      1378     0    28     1    28
  3.5427453344784881E+00 a      1379     0    28     1    29
 -1.1672410874414314E+01 a      1380     0    28     1    30
 -1.4168846550472396E+00 a      1381     0    28     1    31
 -1.5406198707826912E+01 a      1382     0    28     1    32
 -4.9834521505551859E+00 a      1383     0    28     1    33
 -2.0388742522767682E+01 a      1384     0    28     1    34
  1.2458885964496638E+01 a      1385     0    28     1    35
  6.2561458266338930E+00 a      1386     0    28     1    36
 -2.3581395655608468E+01 a      1387     0    28     1    37
  2.3950733366526457E+01 a      1388     0    28     1    38
  7.5080243892270113E+00 a      1389     0    28     1    39
 -4.7694835301150015E+01 a      1390     0    28     1    40
  3.5853109578845405E+01 a      1391     0    28     1    41
  1.5125009058419566E+01 a      1392     0    28     1    42
 -7.9499036252629107E+00 a      1393     0    28     1    43
  3.2921384621611288E+01 a      1394     0    28     1    44
  1.2273537126794571E+01 a      1395     0    28     1    45
  3.8743490794555584E+01 a      1396     0    28     1    46
  2.0923629504615917E+00 a      1397     0    28     1    47
  9.2683382429656902E+01 a      1398     0    28     1    48
 -1.8278303458227583E+01 a      1399     0    28     1    49
 -1.0642449881157303E+01 a      1400     0    28     1    50
 -1.2267161043294630E+01 a      1401     0    29     1     1
  1.8378071675442129E+01 a      1402     0    29     1     2
 -3.0056542133267971E+01 a      1403     0    29     1     3
  4.8181249276728856E+01 a      1404     0    29     1     4
  5.4678717872700446E+01 a      1405     0    29     1     5
  6.6763280935508334E+01 a      1406     0    29     1     6
 -6.2435919657765645E+01 a      1407     0    29     1     7
  4.9928261370891001E+01 a      1408     0    29     1     8
 -1.4948119586057844E+01 a      1409     0    29     1     9
  2.0295801645300738E+01 a      1410     0    29     1    10
 -2.7762058024422437E+01 a      1411     0    29     1    11
  8.0629840625084306E+00 a      1412     0    29     1    12
 -4.8826719724859522E+01 a      1413     0    29     1    13
  1.8576978328824492E+01 a      1414     0    29     1    14
 -9.0272513506731002E+01 a      1415     0    29     1    15
  5.0629400996751720E+01 a      1416     0    29     1    16
  9.4063165538139586E+01 a      1417     0    29     1    17
 -2.1535386093062108E+01 a      1418     0    29     1    18
  4.6137042487513604E+01 a      1419     0    29     1    19
 -2.9293060573203334E+01 a      1420     0    29     1    20
  2.1468416571163804E+01 a      1421     0    29     1    21
  2.7762010357509874E+00 a      1422     0    29     1    22
 -7.2613060196175695E+01 a      1423     0    29     1    23
  3.5895941311296866E+01 a      1424     0    29     1    24
 -1.5060462902955868E+01 a      1425     0    29     1    25
  2.0259031218284782E+01 a      1426     0    29     1    26
  1.5135162412826888E+01 a      1427     0    29     1    27
 -9.3178569654899821E+00 a      1428     0    29     1    28
  1.3427979424396403E+01 a      1429     0    29     1    29
 -4.2251494382576368E+01 a      1430     0    29     1    30
  3.1234539262489182E+01 a      1431     0    29     1    31
 -1.2633731037255604E+01 a      1432     0    29     1    32
  1.1542290033290257E+01 a      1433     0    29     1    33
  4.3938221299448719E+00 a      1434     0    29     1    34
  2.5317463782098756E+01 a      1435     0    29     1    35
 -6.1894653733989378E+00 a      1436     0    29     1    36
  8.0577762592724866E+00 a      1437     0    29     1    37
  1.8035736020463748E+01 a      1438     0    29     1    38
  1.2822896081807979E+01 a      1439     0    29     1    39
 -7.9658012026637181E+01 a      1440     0    29     1    40
  1.0714852688040664E+02 a      1441     0    29     1    41
  2.3003023437463074E+01 a      1442     0    29     1    42
 -9.2314573011323535E+00 a      1443     0    29     1    43
  3.7500588119252789E+01 a      1444     0    29     1    44
  4.7760414673839129E+01 a      1445     0    29     1    45
  1.9358358194599152E+00 a      1446     0    29     1    46
 -5.7377363667825243E+01 a      1447     0    29     1    47
  8.6968629317648620E+01 a      1448     0    29     1    48
 -1.8650015650618744E+01 a      1449     0    29     1    49
 -2.0463048880666594E+01 a      1450     0    29     1    50
  2.0652985031820883E+01 a      1451     0    30     1     1
 -4.1157817133812467E+00 a      1452     0    30     1     2
 -6.1379613036829760E+01 a      1453     0    30     1     3
  5.7383668194945542E+01 a      1454     0    30     1     4
  1.7735352030488656E+01 a      1455     0    30     1     5
  3.2348587473869941E+00 a      1456     0    30     1     6
  6.4083287871373109E+00 a      1457     0    30     1     7
  3.0446039231697416E+01 a      1458     0    30     1     8
 -2.8803618975199248E+00 a      1459     0    30     1     9
  6.8013325416932294E-02 a      1460     0    30     1    10
  2.8817372369217725E+01 a      1461     0    30     1    11
  5.7458121732971811E+01 a      1462     0    30     1    12
  1.0149884987116666E+02 a      1463     0    30     1    13
 -1.1363941966738608E+02 a      1464     0    30     1    14
  1.6236142743900665E-02 a      1465     0    30     1    15
  3.9752465579514528E+01 a      1466     0    30     1    16
 -9.0071722450780545E-01 a      1467     0    30     1    17
  3.7733265298653897E+01 a      1468     0    30     1    18
  2.1693534398738974E+00 a      1469     0    30     1    19
  1.1663870811083477E+01 a      1470     0    30     1    20
 -5.2928993204277113E+00 a      1471     0    30     1    21
 -3.8037658457814030E+00 a      1472     0    30     1    22
  3.9934641498239550E+01 a      1473     0    30     1    23
 -4.0926259406917280E+00 a      1474     0    30     1    24
 -1.7290887256597728E+01 a      1475     0    30     1    25
  2.4160516011910089E+00 a      1476     0    30     1    26
  3.7915498179945878E+01 a      1477     0    30     1    27
  7.5924811297426928E+01 a      1478     0    30     1    28
  4.4247518274009341E+00 a      1479     0    30     1    29
  3.1402903371780239E-01 a      1480     0    30     1    30
 -5.9129932303011967E-01 a      1481     0    30     1    31
 -1.5838007919259914E+01 a      1482     0    30     1    32
 -5.7409729991620946E+00 a      1483     0    30     1    33
 -2.1096282390024527E+01 a      1484     0    30     1    34
 -1.2428150308666753E+01 a      1485     0    30     1    35
 -1.2432272637775464E+01 a      1486     0    30     1    36
 -5.3941384898136766E+00 a      1487     0    30     1    37
 -7.2985632033168244E+00 a      1488     0    30     1    38
 -2.1575766360059601E+00 a      1489     0    30     1    39
 -2.3602685806379483E+01 a      1490     0    30     1    40
  2.4937563127830909E+01 a      1491     0    30     1    41
  1.3105133249877520E+01 a      1492     0    30     1    42
  3.0912217640592239E+00 a      1493     0    30     1    43
  1.4349454044426944E+01 a      1494     0    30     1    44
  8.8336944979019716E+00 a      1495     0    30     1    45
  1.0633101280419377E+01 a      1496     0    30     1    46
  1.6253779784082770E-01 a      1497     0    30     1    47
  9.4062841800356679E+01 a      1498     0    30     1    48
 -3.5344332674061796E+01 a      1499     0    30     1    49
 -1.6814278267834450E+01 a      1500     0    30     1    50
 -9.9582104041033581E+00 a      1501     0    31     1     1
 -4.2490277634194005E+00 a      1502     0    31     1     2
  7.0983055241178889E+01 a      1503     0    31     1     3
 -3.4367655982529669E+01 a      1504     0    31     1     4
 -3.7394001046024592E+01 a      1505     0    31     1     5
 -2.1188842983103498E+01 a      1506     0    31     1     6
  3.5306939866266880E+01 a      1507     0    31     1     7
 -3.2941426153499272E+01 a      1508     0    31     1     8
  1.1003000109223475E+01 a      1509     0    31     1     9
 -6.6135052134234700E+00 a      1510     0    31     1    10
  2.6056228795120486E+01 a      1511     0    31     1    11
 -1.9469798228316426E+00 a      1512     0    31     1    12
 -1.8345068490102317E+01 a      1513     0    31     1    13
  6.8681741704608452E+00 a      1514     0    31     1    14
  6.8939087046962953E+01 a      1515     0    31     1    15
 -5.1595227504177828E+01 a      1516     0    31     1    16
 -5.8154068481708968E+01 a      1517     0    31     1    17
 -1.7449284099021817E+01 a      1518     0    31     1    18
 -1.9955013149275416E+01 a      1519     0    31     1    19
  1.8793142910284558E+01 a      1520     0    31     1    20
 -2.8767642504632143E+01 a      1521     0    31     1    21
  8.8024170276486409E+00 a      1522     0    31     1    22
  2.6471660255416566E+01 a      1523     0    31     1    23
 -2.0229015960338323E+01 a      1524     0    31     1    24
  2.7473997435216855E+01 a      1525     0    31     1    25
 -6.0387326415140601E+00 a      1526     0    31     1    26
  1.3029508953045521E-01 a      1527     0    31     1    27
 -3.3619664530868192E+01 a      1528     0    31     1    28
  3.5457230428832656E+00 a      1529     0    31     1    29
  2.1498116607324633E+01 a      1530     0    31     1    30
 -3.0141696436192138E+00 a      1531     0    31     1    31
  1.1469043794539520E+01 a      1532     0    31     1    32
  1.5276380453717664E+01 a      1533     0    31     1    33
  9.0638233426503678E+00 a      1534     0    31     1    34
 -2.9886576478716655E+01 a      1535     0    31     1    35
  1.4845428553111311E+01 a      1536     0    31     1    36
 -3.5704687609947321E+00 a      1537     0    31     1    37
 -2.2231037196353959E+01 a      1538     0    31     1    38
 -7.9841747038309077E+00 a      1539     0    31     1    39
  8.6522259703320529E+01 a      1540     0    31     1    40
 -9.9082283996753219E+01 a      1541     0    31     1    41
 -1.7307499342233406E+01 a      1542     0    31     1    42
  1.1164201020858847E+01 a      1543     0    31     1    43
 -1.0692418025504177E+01 a      1544     0    31     1    44
 -1.8892297340745419E+01 a      1545     0    31     1    45
  3.1348882245295124E+00 a      1546     0    31     1    46
  5.6375677555179465E+01 a      1547     0    31     1    47
 -1.2658261311205260E+02 a      1548     0    31     1    48
  5.4600564629363362E+01 a      1549     0    31     1    49
  1.9362244502063739E+01 a      1550     0    31     1    50
  9.4525680994466494E+00 a      1551     0    32     1     1
 -3.4779626846512599E+00 a      1552     0    32     1     2
  2.7028640853723527E+01 a      1553     0    32     1     3
 -1.2047472831770483E+01 a      1554     0    32     1     4
 -1.2786477676518555E+01 a      1555     0    32     1     5
  6.2772778218996095E+00 a      1556     0    32     1     6
 -2.0237117402829178E+01 a      1557     0    32     1     7
  7.8999549693858873E+00 a      1558     0    32     1     8
 -1.1432655900857224E+01 a      1559     0    32     1     9
 -1.2372842903173423E+01 a      1560     0    32     1    10
 -2.1390062126638195E+01 a      1561     0    32     1    11
  1.6778180937488214E+00 a      1562     0    32     1    12
 -1.5633228399407168E+01 a      1563     0    32     1    13
 -5.6623043340180388E+01 a      1564     0    32     1    14
  1.2638770244972058E+01 a      1565     0    32     1    15
 -1.7946995472091007E+01 a      1566     0    32     1    16
  2.6990634903960427E+01 a      1567     0    32     1    17
 -4.9227936845177069E+01 a      1568     0    32     1    18
  9.7866024986633597E+00 a      1569     0    32     1    19
  1.4979709111159437E+01 a      1570     0    32     1    20
 -8.5439555988500597E+00 a      1571     0    32     1    21
  1.9742736738582738E+00 a      1572     0    32     1    22
 -5.1901222950966961E+01 a      1573     0    32     1    23
 -4.0753708657594867E+00 a      1574     0    32     1    24
 -5.0819779159002053E+01 a      1575     0    32     1    25
  9.9823616493802891E+00 a      1576     0    32     1    26
  5.3095673383360705E+01 a      1577     0    32     1    27
 -4.7168258602939595E+01 a      1578     0    32     1    28
  5.4220197210392902E+00 a      1579     0    32     1    29
 -1.8028727890592759E+01 a      1580     0    32     1    30
  2.5191256711247543E+00 a      1581     0    32     1    31
  3.9156699690935040E+00 a      1582     0    32     1    32
 -3.8764772174959536E+00 a      1583     0    32     1    33
  3.0284558774412527E+00 a      1584     0    32     1    34
  3.1839451341397744E+01 a      1585     0    32     1    35
 -9.3431639894427381E+00 a      1586     0    32     1    36
  1.9383036607280577E+01 a      1587     0    32     1    37
  1.5760042052743157E+00 a      1588     0    32     1    38
  9.4602200475489209E+00 a      1589     0    32     1    39
  1.5042754435007621E+01 a      1590     0    32     1    40
 -2.7148091260662753E+01 a      1591     0    32     1    41
 -1.1897200799176320E+01 a      1592     0    32     1    42
 -5.9790599374068600E+00 a      1593     0    32     1    43
 -6.5139172650480770E+00 a      1594     0    32     1    44
  5.2119488315946452E+00 a      1595     0    32     1    45
  1.4879081116337622E+01 a      1596     0    32     1    46
  2.8571967672088896E+01 a      1597     0    32     1    47
 -5.4241684857551071E+01 a      1598     0    32     1    48
  8.9087723195959910E+01 a      1599     0    32     1    49
  2.7909492319770386E+01 a      1600     0    32     1    50
  4.5700994689644915E+01 a      1601     0    33     1     1
 -1.4899826904086100E+00 a      1602     0    33     1     2
  1.3147366238320907E+02 a      1603     0    33     1     3
 -4.4213966795217196E+01 a      1604     0    33     1     4
  1.5061157443559809E+01 a      1605     0    33     1     5
  6.2116114100241848E+00 a      1606     0    33     1     6
  4.7173065966005304E+01 a      1607     0    33     1     7
 -9.3216030102608229E+01 a      1608     0    33     1     8
  2.6511638492515868E+01 a      1609     0    33     1     9
  2.6960895932225284E+01 a      1610     0    33     1    10
  1.8849499206406892E+02 a      1611     0    33     1    11
 -4.2170712885632762E+00 a      1612     0    33     1    12
  9.1618753723334081E+01 a      1613     0    33     1    13
 -5.8479872526092542E+01 a      1614     0    33     1    14
  7.3263781261734152E+01 a      1615     0    33     1    15
  3.3313021210235739E+01 a      1616     0    33     1    16
 -9.5451987001211009E+01 a      1617     0    33     1    17
  5.1275907318369448E+01 a      1618     0    33     1    18
 -5.1804589370825063E+01 a      1619     0    33     1    19
  2.8073942379421787E+01 a      1620     0    33     1    20
 -3.9057338658586552E+01 a      1621     0    33     1    21
  2.4002860048976920E+01 a      1622     0    33     1    22
  1.1719003677794625E+02 a      1623     0    33     1    23
