################################################################################
# Neural network connection values (weights and biases).
################################################################################
# Col  Name       Description
################################################################################
# 1    connection Neural network connection value.
# 2    t          Connection type (a = weight, b = bias).
# 3    index      Index enumerating weights.
# 4    l_s        Starting point layer (end point layer for biases).
# 5    n_s        Starting point neuron in starting layer (end point neuron for biases).
# 6    l_e        End point layer.
# 7    n_e        End point neuron in end layer.
################################################################################
#                      1 2         3     4     5     6     7
#             connection t     index   l_s   n_s   l_e   n_e
############################################################
  1.3541708837948210E-01 a         1     0     1     1     1
  1.5201545836673178E-01 a         2     0     1     1     2
 -2.3466699792715140E-01 a         3     0     1     1     3
 -1.5006380414600173E-01 a         4     0     1     1     4
 -5.3792228023239574E-02 a         5     0     1     1     5
 -1.7067514007599599E-01 a         6     0     1     1     6
 -2.1002371156129990E-01 a         7     0     1     1     7
  1.1566651040419119E-01 a         8     0     1     1     8
  2.3319475501708437E-01 a         9     0     1     1     9
  1.1542125818069145E-01 a        10     0     1     1    10
 -1.0761256247187274E-01 a        11     0     1     1    11
 -2.4328895480106186E-01 a        12     0     1     1    12
  2.2634848315862244E-01 a        13     0     1     1    13
  1.6841272594023424E-01 a        14     0     1     1    14
  6.8022554760109313E-03 a        15     0     1     1    15
 -1.6273482832341805E-02 a        16     0     1     1    16
  4.7501221015285158E-02 a        17     0     1     1    17
  8.0749116327463677E-02 a        18     0     1     1    18
  2.6153349375351051E-03 a        19     0     1     1    19
  1.8672418320333331E-01 a        20     0     1     1    20
  9.1842992460062695E-02 a        21     0     1     1    21
 -1.6158231373602353E-02 a        22     0     1     1    22
 -6.7906612975625266E-02 a        23     0     1     1    23
 -8.5223091672740989E-02 a        24     0     1     1    24
  8.1506675756333316E-02 a        25     0     1     1    25
 -9.4355290126149918E-02 a        26     0     1     1    26
 -1.0793729277240384E-02 a        27     0     1     1    27
 -1.6399744505084976E-01 a        28     0     1     1    28
  1.6552547020541267E-01 a        29     0     1     1    29
  2.4180552587879159E-01 a        30     0     1     1    30
 -1.5303594128789039E-01 a        31     0     1     1    31
  5.2114586982479241E-02 a        32     0     1     1    32
  1.4220540248626959E-01 a        33     0     1     1    33
  1.4398759654213683E-01 a        34     0     1     1    34
  5.0891554639190970E-02 a        35     0     1     1    35
  8.7108503400427265E-02 a        36     0     1     1    36
  2.0115334278171329E-01 a        37     0     1     1    37
 -1.5622891214898618E-01 a        38     0     1     1    38
  1.1196474295035364E-01 a        39     0     1     1    39
  1.4852293037040956E-01 a        40     0     1     1    40
  4.9940006422020487E-03 a        41     0     1     1    41
  8.4448865485256916E-02 a        42     0     1     1    42
  2.2250244999175703E-02 a        43     0     1     1    43
  1.6428424394361124E-01 a        44     0     1     1    44
  1.5943019308123313E-01 a        45     0     1     1    45
  1.7849031890085573E-01 a        46     0     1     1    46
  1.5257087590944532E-01 a        47     0     1     1    47
  1.5387012699332950E-01 a        48     0     1     1    48
  1.9762707741868266E-01 a        49     0     1     1    49
 -1.5792047374811632E-01 a        50     0     1     1    50
  1.6106590940871071E-01 a        51     0     2     1     1
 -1.3988660532639755E-01 a        52     0     2     1     2
 -2.9961236128599068E-02 a        53     0     2     1     3
  2.0844387499203232E-01 a        54     0     2     1     4
 -1.2458095859338549E-01 a        55     0     2     1     5
 -2.5342559243451296E-01 a        56     0     2     1     6
  1.3533875822913682E-01 a        57     0     2     1     7
  2.3928924679910760E-01 a        58     0     2     1     8
  3.9932013399188178E-02 a        59     0     2     1     9
  1.8892603371178904E-01 a        60     0     2     1    10
 -9.1360310039967030E-02 a        61     0     2     1    11
 -9.4064231786787258E-02 a        62     0     2     1    12
 -1.4283075722152025E-01 a        63     0     2     1    13
 -1.0860191390195453E-01 a        64     0     2     1    14
 -1.7412858933245834E-01 a        65     0     2     1    15
 -2.2140045856776805E-01 a        66     0     2     1    16
 -4.6179758328946198E-02 a        67     0     2     1    17
  1.7424213727417948E-01 a        68     0     2     1    18
 -9.9430035810152126E-02 a        69     0     2     1    19
  2.3055675884373694E-01 a        70     0     2     1    20
  1.8318140888741832E-01 a        71     0     2     1    21
  1.8870413602282529E-01 a        72     0     2     1    22
 -1.0498748936295102E-01 a        73     0     2     1    23
 -5.5929043900596040E-02 a        74     0     2     1    24
  6.1205491113091584E-03 a        75     0     2     1    25
 -4.3919578089672340E-02 a        76     0     2     1    26
  6.1525275446690109E-03 a        77     0     2     1    27
 -2.5524925883516464E-01 a        78     0     2     1    28
 -2.0624305230190743E-01 a        79     0     2     1    29
  4.5475818242825192E-02 a        80     0     2     1    30
  2.0280497406085315E-01 a        81     0     2     1    31
  1.6602554086668822E-01 a        82     0     2     1    32
 -1.6658111906919179E-01 a        83     0     2     1    33
 -3.0414339190541002E-02 a        84     0     2     1    34
 -2.4876833530674711E-01 a        85     0     2     1    35
 -3.6069346295397479E-02 a        86     0     2     1    36
 -1.4451477375647859E-02 a        87     0     2     1    37
 -1.6206688138161945E-01 a        88     0     2     1    38
 -2.4134141756177505E-01 a        89     0     2     1    39
  2.4966682452826777E-01 a        90     0     2     1    40
 -2.9842809171434465E-02 a        91     0     2     1    41
  1.8426290233409973E-01 a        92     0     2     1    42
  7.7835981761020740E-03 a        93     0     2     1    43
  2.3631550163228901E-01 a        94     0     2     1    44
 -1.1854178384409017E-01 a        95     0     2     1    45
 -1.5108584336225414E-01 a        96     0     2     1    46
  1.9571669516394649E-01 a        97     0     2     1    47
  2.4260593104986591E-01 a        98     0     2     1    48
  1.5384336827881676E-01 a        99     0     2     1    49
 -6.5346396713653235E-02 a       100     0     2     1    50
 -7.8609229838384352E-04 a       101     0     3     1     1
 -1.9277986214874646E-01 a       102     0     3     1     2
  2.4373783052457676E-01 a       103     0     3     1     3
 -5.6316839411958294E-02 a       104     0     3     1     4
 -2.3109706425806156E-01 a       105     0     3     1     5
 -5.3090859088354383E-02 a       106     0     3     1     6
 -8.2980322744964766E-02 a       107     0     3     1     7
 -5.4198189744949880E-02 a       108     0     3     1     8
 -1.3022409304678820E-01 a       109     0     3     1     9
  9.4044474675868794E-02 a       110     0     3     1    10
  1.8686020496426495E-01 a       111     0     3     1    11
  1.7668637334077761E-01 a       112     0     3     1    12
 -1.8522655842482955E-01 a       113     0     3     1    13
  1.5340005690188507E-02 a       114     0     3     1    14
 -8.3106003057592928E-02 a       115     0     3     1    15
 -2.2088612034200333E-01 a       116     0     3     1    16
 -2.2034423829740793E-01 a       117     0     3     1    17
  1.2823621236233682E-01 a       118     0     3     1    18
  5.7157508471276770E-02 a       119     0     3     1    19
 -1.3011357231129522E-01 a       120     0     3     1    20
  9.9376504110827060E-02 a       121     0     3     1    21
 -1.6366661027289450E-01 a       122     0     3     1    22
 -4.7934028143578437E-02 a       123     0     3     1    23
  7.1140497380355855E-02 a       124     0     3     1    24
 -6.1205978681662266E-03 a       125     0     3     1    25
 -4.6125512282205489E-02 a       126     0     3     1    26
  1.4718947682696823E-01 a       127     0     3     1    27
 -2.1980325135735678E-02 a       128     0     3     1    28
 -1.4509360541222910E-01 a       129     0     3     1    29
  2.5103401508166001E-01 a       130     0     3     1    30
 -8.8550838259772405E-02 a       131     0     3     1    31
  1.7239553778850750E-01 a       132     0     3     1    32
 -5.1633015624128926E-02 a       133     0     3     1    33
 -5.9340330248690974E-02 a       134     0     3     1    34
 -1.8245527777185783E-01 a       135     0     3     1    35
  2.0832898112321774E-01 a       136     0     3     1    36
 -3.7370703913345332E-03 a       137     0     3     1    37
  2.2005174947942652E-01 a       138     0     3     1    38
  4.7476528164482196E-02 a       139     0     3     1    39
  2.3272797708376456E-02 a       140     0     3     1    40
  1.1434614106064221E-01 a       141     0     3     1    41
 -2.6612397681957140E-02 a       142     0     3     1    42
  1.7494303493241936E-01 a       143     0     3     1    43
  2.5494167525099221E-01 a       144     0     3     1    44
 -8.3049547849550348E-02 a       145     0     3     1    45
  1.1978618798270003E-01 a       146     0     3     1    46
  1.0081047050971174E-01 a       147     0     3     1    47
  1.8560676213678867E-01 a       148     0     3     1    48
 -1.4857336220389752E-01 a       149     0     3     1    49
  1.1077136476537298E-01 a       150     0     3     1    50
 -2.8773004646099117E-02 a       151     0     4     1     1
 -1.7500006547137537E-01 a       152     0     4     1     2
 -1.9209266861599864E-02 a       153     0     4     1     3
 -1.6252272553028196E-01 a       154     0     4     1     4
 -5.4304510731261767E-02 a       155     0     4     1     5
 -2.4716695403369410E-01 a       156     0     4     1     6
 -1.7810418124155300E-01 a       157     0     4     1     7
 -1.9537462847099082E-01 a       158     0     4     1     8
  1.2967968967808652E-01 a       159     0     4     1     9
 -3.9557572153138765E-02 a       160     0     4     1    10
  1.8669691361209384E-01 a       161     0     4     1    11
  1.6742927218715117E-01 a       162     0     4     1    12
 -2.1868173281211176E-01 a       163     0     4     1    13
  2.9950641025719670E-02 a       164     0     4     1    14
  9.9857394894804205E-02 a       165     0     4     1    15
  1.6677088099474227E-01 a       166     0     4     1    16
  7.9179453649398088E-02 a       167     0     4     1    17
  3.4425007258287676E-02 a       168     0     4     1    18
 -1.7671220650744016E-01 a       169     0     4     1    19
  1.0245256328274063E-01 a       170     0     4     1    20
  3.6913708389341014E-02 a       171     0     4     1    21
 -2.2053298524789722E-01 a       172     0     4     1    22
  1.6313022681258482E-01 a       173     0     4     1    23
  2.0074829233755351E-01 a       174     0     4     1    24
 -2.8124894372139411E-02 a       175     0     4     1    25
 -5.3189573053610217E-02 a       176     0     4     1    26
  1.3938549400352146E-01 a       177     0     4     1    27
  5.5400230358563375E-02 a       178     0     4     1    28
 -2.5241982635444354E-01 a       179     0     4     1    29
 -1.8251716473161619E-01 a       180     0     4     1    30
  7.1236718205347174E-02 a       181     0     4     1    31
  2.4725400619117319E-01 a       182     0     4     1    32
  4.4383569152393575E-03 a       183     0     4     1    33
 -2.6350795381575580E-02 a       184     0     4     1    34
 -9.2873396450281503E-02 a       185     0     4     1    35
 -1.4271232741029574E-01 a       186     0     4     1    36
 -1.8046515296387047E-01 a       187     0     4     1    37
  3.3456382130307556E-02 a       188     0     4     1    38
  1.6101615648472764E-01 a       189     0     4     1    39
 -2.3772299531724939E-01 a       190     0     4     1    40
 -7.3173663195814503E-03 a       191     0     4     1    41
  1.5935065031217677E-01 a       192     0     4     1    42
 -1.7103173833398397E-01 a       193     0     4     1    43
  1.1000079998001645E-01 a       194     0     4     1    44
  4.4521801739495381E-02 a       195     0     4     1    45
  1.5008024055819632E-02 a       196     0     4     1    46
  1.6056823044965313E-01 a       197     0     4     1    47
 -5.2900507442671711E-02 a       198     0     4     1    48
 -2.1657723559584213E-01 a       199     0     4     1    49
 -4.7341859346874633E-02 a       200     0     4     1    50
  1.2595340335218230E-01 a       201     0     5     1     1
  2.3618678043772889E-01 a       202     0     5     1     2
  2.2148698248632251E-01 a       203     0     5     1     3
  2.3027127519692470E-01 a       204     0     5     1     4
 -1.0815193413292493E-01 a       205     0     5     1     5
 -8.6776690274513180E-02 a       206     0     5     1     6
 -1.8940035135791830E-01 a       207     0     5     1     7
 -5.4357653208164429E-02 a       208     0     5     1     8
  5.0410772428410189E-02 a       209     0     5     1     9
 -6.1246422018924260E-02 a       210     0     5     1    10
 -5.6384854514054422E-02 a       211     0     5     1    11
  2.1836237111722059E-01 a       212     0     5     1    12
  2.0529581288279103E-01 a       213     0     5     1    13
 -1.6646445580214228E-01 a       214     0     5     1    14
 -4.1309532200856737E-02 a       215     0     5     1    15
 -2.5330423756862180E-01 a       216     0     5     1    16
 -9.9546588125622018E-02 a       217     0     5     1    17
  2.3257843052743951E-01 a       218     0     5     1    18
 -9.2311682018937080E-02 a       219     0     5     1    19
  2.3775963407371090E-01 a       220     0     5     1    20
 -2.1319557962222213E-01 a       221     0     5     1    21
 -1.6831900907715130E-01 a       222     0     5     1    22
 -6.3393892220903594E-02 a       223     0     5     1    23
  1.2636824143810074E-01 a       224     0     5     1    24
 -2.4000633363660101E-01 a       225     0     5     1    25
  1.8487209476582786E-01 a       226     0     5     1    26
  1.6402466422036388E-01 a       227     0     5     1    27
  5.6884356979566390E-02 a       228     0     5     1    28
  7.5656444530904698E-02 a       229     0     5     1    29
  2.2220092593356494E-01 a       230     0     5     1    30
  5.8425216484858947E-02 a       231     0     5     1    31
 -6.2912044256578786E-02 a       232     0     5     1    32
 -3.6670795662546432E-03 a       233     0     5     1    33
  2.3920546349159708E-01 a       234     0     5     1    34
 -1.6745406588140485E-01 a       235     0     5     1    35
  2.4692969508069373E-01 a       236     0     5     1    36
 -1.1509774002319476E-01 a       237     0     5     1    37
  1.4178655480291263E-01 a       238     0     5     1    38
  5.3905912008483846E-02 a       239     0     5     1    39
 -1.8702597280801769E-01 a       240     0     5     1    40
 -1.2818517867896198E-01 a       241     0     5     1    41
  1.9792526365379132E-01 a       242     0     5     1    42
  3.4898370697048355E-02 a       243     0     5     1    43
 -1.7461232751688829E-01 a       244     0     5     1    44
  5.4237562809739633E-02 a       245     0     5     1    45
  6.6598970598801224E-02 a       246     0     5     1    46
  1.2581778056504447E-01 a       247     0     5     1    47
  2.3852353831563430E-01 a       248     0     5     1    48
  1.8298552512224581E-01 a       249     0     5     1    49
 -2.3315433356094847E-01 a       250     0     5     1    50
  1.5359721298318879E-01 a       251     0     6     1     1
  1.5389726232483328E-01 a       252     0     6     1     2
 -2.2439403802404229E-01 a       253     0     6     1     3
 -7.3408338035390222E-02 a       254     0     6     1     4
 -2.2265523566825973E-01 a       255     0     6     1     5
  1.0242702812750201E-01 a       256     0     6     1     6
 -8.0603413833101434E-02 a       257     0     6     1     7
  2.1547642932023744E-01 a       258     0     6     1     8
  1.5183510068755660E-01 a       259     0     6     1     9
 -2.2440187967260808E-01 a       260     0     6     1    10
  6.1956825361585990E-02 a       261     0     6     1    11
 -8.5638416256957658E-02 a       262     0     6     1    12
 -1.6675548631442066E-01 a       263     0     6     1    13
  6.6545979268155475E-02 a       264     0     6     1    14
 -1.7408043491987216E-01 a       265     0     6     1    15
  1.5729263907262831E-02 a       266     0     6     1    16
  7.3181322779140865E-03 a       267     0     6     1    17
  1.3377100075499099E-01 a       268     0     6     1    18
 -2.3278696943216218E-01 a       269     0     6     1    19
 -1.2306702119753642E-01 a       270     0     6     1    20
 -1.5846147614765871E-01 a       271     0     6     1    21
  1.4018791961118507E-01 a       272     0     6     1    22
  2.2022398307702240E-01 a       273     0     6     1    23
 -2.0676183655844102E-01 a       274     0     6     1    24
  2.2381127811156115E-01 a       275     0     6     1    25
 -1.7669878053387167E-01 a       276     0     6     1    26
 -1.9516354219886503E-01 a       277     0     6     1    27
 -2.3732652477182295E-01 a       278     0     6     1    28
  1.4100340932140237E-01 a       279     0     6     1    29
  2.2113723872892344E-01 a       280     0     6     1    30
 -1.0550299573165961E-01 a       281     0     6     1    31
  1.1825707471779036E-01 a       282     0     6     1    32
  4.8514991425336169E-02 a       283     0     6     1    33
  7.0248165079610528E-02 a       284     0     6     1    34
 -3.7538065511728391E-02 a       285     0     6     1    35
 -1.5115851141446379E-01 a       286     0     6     1    36
 -1.6266294668363721E-01 a       287     0     6     1    37
  1.6536886769943560E-01 a       288     0     6     1    38
  2.2497037083140842E-01 a       289     0     6     1    39
 -2.1898389903378718E-01 a       290     0     6     1    40
  5.6234305944857010E-02 a       291     0     6     1    41
 -5.2510464240198576E-02 a       292     0     6     1    42
  1.8208940381911039E-03 a       293     0     6     1    43
 -2.0540111568322433E-01 a       294     0     6     1    44
  2.5266669575964884E-01 a       295     0     6     1    45
 -7.7026990864174069E-02 a       296     0     6     1    46
  1.2627574254509125E-01 a       297     0     6     1    47
 -1.7384233128405285E-02 a       298     0     6     1    48
  1.5521746256533164E-01 a       299     0     6     1    49
  2.3633688020600294E-01 a       300     0     6     1    50
 -1.9422327346436036E-01 a       301     0     7     1     1
  1.8400016411786760E-01 a       302     0     7     1     2
 -1.3487894776961133E-03 a       303     0     7     1     3
 -1.7232769404892609E-01 a       304     0     7     1     4
  1.8810928785844683E-01 a       305     0     7     1     5
  2.1269440527218936E-01 a       306     0     7     1     6
  9.6938520219254282E-02 a       307     0     7     1     7
 -8.2318874854375113E-02 a       308     0     7     1     8
 -1.6186397722362481E-01 a       309     0     7     1     9
  3.1782260502193460E-02 a       310     0     7     1    10
  1.7626230451154354E-01 a       311     0     7     1    11
  9.0510139815154947E-02 a       312     0     7     1    12
  1.7378711057584742E-01 a       313     0     7     1    13
  1.4430116449537822E-01 a       314     0     7     1    14
 -8.5583738533653142E-02 a       315     0     7     1    15
 -3.3781311858275979E-02 a       316     0     7     1    16
  2.2447331013308230E-01 a       317     0     7     1    17
 -1.1704763221867798E-01 a       318     0     7     1    18
  1.6673917012950046E-01 a       319     0     7     1    19
 -3.2644895595893945E-02 a       320     0     7     1    20
  2.3507119726685741E-01 a       321     0     7     1    21
 -1.7530674586450041E-02 a       322     0     7     1    22
  4.3012176233598647E-02 a       323     0     7     1    23
 -1.9003727716562391E-01 a       324     0     7     1    24
  5.2608013867923770E-02 a       325     0     7     1    25
  1.5862124820610277E-01 a       326     0     7     1    26
 -1.5068120081082548E-01 a       327     0     7     1    27
 -1.1412124446821124E-01 a       328     0     7     1    28
 -1.0736264088741493E-01 a       329     0     7     1    29
 -1.0467258761237087E-01 a       330     0     7     1    30
 -2.0647658599318941E-01 a       331     0     7     1    31
 -1.6307194631430039E-01 a       332     0     7     1    32
 -2.3151476984177149E-01 a       333     0     7     1    33
  8.9012131522348603E-02 a       334     0     7     1    34
 -1.3746670939636318E-01 a       335     0     7     1    35
 -2.7352588966985523E-02 a       336     0     7     1    36
  2.3532369297553013E-01 a       337     0     7     1    37
 -1.5077190735420146E-01 a       338     0     7     1    38
 -7.2256735082303694E-02 a       339     0     7     1    39
 -1.5527318095023665E-01 a       340     0     7     1    40
  1.0487669761068424E-01 a       341     0     7     1    41
  1.0112451080987089E-01 a       342     0     7     1    42
 -7.3654020746262136E-02 a       343     0     7     1    43
  9.5701664950229484E-02 a       344     0     7     1    44
  9.6490964855212649E-02 a       345     0     7     1    45
  1.9085702525216994E-01 a       346     0     7     1    46
 -2.2794332744525331E-01 a       347     0     7     1    47
 -2.4500289044622425E-02 a       348     0     7     1    48
  5.9866421374311730E-02 a       349     0     7     1    49
  1.0776751485553594E-01 a       350     0     7     1    50
 -1.3328133005024739E-01 a       351     0     8     1     1
  1.9977133763567942E-01 a       352     0     8     1     2
  2.1846183819753939E-01 a       353     0     8     1     3
  6.3602420422901554E-02 a       354     0     8     1     4
 -9.7027986911430761E-02 a       355     0     8     1     5
 -5.8998462388576818E-02 a       356     0     8     1     6
 -1.5940270503549014E-01 a       357     0     8     1     7
 -3.1723137818392554E-02 a       358     0     8     1     8
 -5.5492631856777913E-02 a       359     0     8     1     9
  1.3734848472069583E-01 a       360     0     8     1    10
 -4.3795006460406259E-02 a       361     0     8     1    11
 -8.0406004453979288E-02 a       362     0     8     1    12
  2.5127122444536915E-01 a       363     0     8     1    13
 -2.4581149188281021E-01 a       364     0     8     1    14
  1.3969770021342068E-01 a       365     0     8     1    15
 -1.2257506153673217E-01 a       366     0     8     1    16
 -1.9609269389428133E-01 a       367     0     8     1    17
 -1.5896328088817763E-02 a       368     0     8     1    18
  4.8858256347784096E-02 a       369     0     8     1    19
  1.6458905397613143E-02 a       370     0     8     1    20
  1.2504875340447308E-01 a       371     0     8     1    21
 -1.7403824561145043E-01 a       372     0     8     1    22
 -2.2670796770362972E-01 a       373     0     8     1    23
 -1.7714641937916614E-01 a       374     0     8     1    24
 -2.8910567599390789E-02 a       375     0     8     1    25
  5.1902194502260669E-02 a       376     0     8     1    26
  1.0135592155624459E-01 a       377     0     8     1    27
  3.3903108984536516E-02 a       378     0     8     1    28
 -2.3182986245760920E-01 a       379     0     8     1    29
  1.8117597692361379E-01 a       380     0     8     1    30
 -5.5246072830589563E-02 a       381     0     8     1    31
  6.9147803086000978E-02 a       382     0     8     1    32
  3.2985737302545545E-02 a       383     0     8     1    33
 -1.6029705896201638E-01 a       384     0     8     1    34
 -1.8143849383128247E-01 a       385     0     8     1    35
  4.6637324070339894E-02 a       386     0     8     1    36
  4.1736853469214782E-02 a       387     0     8     1    37
  8.1986484257002681E-02 a       388     0     8     1    38
 -2.3674663140577996E-02 a       389     0     8     1    39
 -1.8298422807092860E-01 a       390     0     8     1    40
 -7.4087767217028547E-02 a       391     0     8     1    41
  1.8241857253958388E-01 a       392     0     8     1    42
 -1.1511745622592094E-01 a       393     0     8     1    43
  2.3491759746976079E-01 a       394     0     8     1    44
  9.8228884711882236E-02 a       395     0     8     1    45
  8.7252604767171033E-02 a       396     0     8     1    46
 -1.4343000682198126E-01 a       397     0     8     1    47
 -1.5783623402885597E-01 a       398     0     8     1    48
  1.2893315964488167E-02 a       399     0     8     1    49
 -2.1394969836293182E-01 a       400     0     8     1    50
 -1.5641536265150752E-01 a       401     0     9     1     1
  9.9233436984048976E-02 a       402     0     9     1     2
  1.9773228496486595E-01 a       403     0     9     1     3
  1.3183994535501925E-01 a       404     0     9     1     4
  2.1255866094966636E-01 a       405     0     9     1     5
  8.8601432298999500E-02 a       406     0     9     1     6
  1.5641943931935429E-01 a       407     0     9     1     7
  1.6052499738773263E-01 a       408     0     9     1     8
 -1.9003154098084932E-01 a       409     0     9     1     9
  1.7969980801628024E-01 a       410     0     9     1    10
  1.9941140773840449E-01 a       411     0     9     1    11
  3.8745233443998918E-02 a       412     0     9     1    12
 -2.3093512739516367E-01 a       413     0     9     1    13
 -5.7459878282560252E-02 a       414     0     9     1    14
  1.9434739855216718E-01 a       415     0     9     1    15
  1.8002247340445487E-02 a       416     0     9     1    16
 -2.3663145213097281E-01 a       417     0     9     1    17
 -1.0801744119676031E-01 a       418     0     9     1    18
 -7.2818041977674525E-02 a       419     0     9     1    19
 -2.2099558008071882E-01 a       420     0     9     1    20
 -7.3683899661788926E-02 a       421     0     9     1    21
  2.1315406589356871E-02 a       422     0     9     1    22
  2.6388440431999310E-02 a       423     0     9     1    23
 -1.7026457867995748E-01 a       424     0     9     1    24
 -1.0216084077984935E-01 a       425     0     9     1    25
  2.0477025939070884E-01 a       426     0     9     1    26
 -9.1924078680943169E-02 a       427     0     9     1    27
 -4.5268297999657755E-03 a       428     0     9     1    28
 -3.0111035982742559E-02 a       429     0     9     1    29
 -1.2660968741593170E-01 a       430     0     9     1    30
 -1.4247517227372516E-01 a       431     0     9     1    31
  2.2222785494031991E-02 a       432     0     9     1    32
 -1.7517522923716192E-01 a       433     0     9     1    33
  7.3309266599128661E-02 a       434     0     9     1    34
 -1.1004452108618427E-01 a       435     0     9     1    35
 -1.6615849106454370E-01 a       436     0     9     1    36
  2.0647904488473481E-01 a       437     0     9     1    37
 -1.8542649661996527E-01 a       438     0     9     1    38
 -7.3987283258941952E-02 a       439     0     9     1    39
 -1.9503369115333169E-01 a       440     0     9     1    40
 -1.6358239635909261E-01 a       441     0     9     1    41
 -1.8485967663217073E-01 a       442     0     9     1    42
  1.8448640614528680E-01 a       443     0     9     1    43
  4.1915977243148640E-02 a       444     0     9     1    44
 -1.1434135361295469E-01 a       445     0     9     1    45
 -6.5272510572451037E-02 a       446     0     9     1    46
 -3.6783874706005559E-03 a       447     0     9     1    47
 -1.9105287750376412E-01 a       448     0     9     1    48
 -5.2026942012969687E-02 a       449     0     9     1    49
 -1.6256920972321565E-01 a       450     0     9     1    50
 -1.0735703979481019E-01 a       451     0    10     1     1
 -1.3877382186939430E-01 a       452     0    10     1     2
 -1.9053126737114631E-01 a       453     0    10     1     3
 -2.3318084313981347E-01 a       454     0    10     1     4
 -1.1519810898645017E-01 a       455     0    10     1     5
 -2.4744900055992131E-01 a       456     0    10     1     6
 -2.2628102709551431E-01 a       457     0    10     1     7
  2.0580557735860522E-01 a       458     0    10     1     8
 -1.4927483792819159E-02 a       459     0    10     1     9
 -1.9944705090362849E-01 a       460     0    10     1    10
 -1.3477286331351582E-01 a       461     0    10     1    11
 -1.4936041453668897E-01 a       462     0    10     1    12
 -8.9976201332848537E-04 a       463     0    10     1    13
  4.2367828918732191E-02 a       464     0    10     1    14
  1.7557458059932615E-01 a       465     0    10     1    15
  1.5095489814149670E-02 a       466     0    10     1    16
 -3.6668840512577967E-02 a       467     0    10     1    17
  9.9891039980241667E-02 a       468     0    10     1    18
  2.2928363691631350E-02 a       469     0    10     1    19
 -3.2514730247011256E-03 a       470     0    10     1    20
  6.7882366904119890E-02 a       471     0    10     1    21
  2.3854308339368410E-01 a       472     0    10     1    22
 -1.9442261373394158E-02 a       473     0    10     1    23
 -2.0765178536239068E-01 a       474     0    10     1    24
  8.7012466900139487E-02 a       475     0    10     1    25
 -7.2003982151480142E-02 a       476     0    10     1    26
 -1.2873924315943228E-01 a       477     0    10     1    27
  2.4648330488661688E-01 a       478     0    10     1    28
  8.5151917601983457E-02 a       479     0    10     1    29
  1.1903180357657889E-01 a       480     0    10     1    30
 -1.0565028722388566E-01 a       481     0    10     1    31
  2.1161561354998540E-01 a       482     0    10     1    32
  1.9898718360074280E-01 a       483     0    10     1    33
  1.6140168087790380E-01 a       484     0    10     1    34
  4.0512217738843927E-02 a       485     0    10     1    35
 -2.5279422229229159E-01 a       486     0    10     1    36
 -2.3596109160583012E-01 a       487     0    10     1    37
  1.0966687270921220E-01 a       488     0    10     1    38
  2.4186430310242230E-01 a       489     0    10     1    39
 -3.5606072553070973E-02 a       490     0    10     1    40
  1.6082046013615692E-01 a       491     0    10     1    41
 -1.2023738833802465E-01 a       492     0    10     1    42
 -2.9456206419282944E-02 a       493     0    10     1    43
 -2.0498281776316060E-01 a       494     0    10     1    44
 -8.8998356402115852E-03 a       495     0    10     1    45
 -1.7272670779958491E-02 a       496     0    10     1    46
  3.2706284522195241E-02 a       497     0    10     1    47
  1.0378545493313403E-01 a       498     0    10     1    48
 -1.1537006752402067E-02 a       499     0    10     1    49
 -1.9484701850981279E-01 a       500     0    10     1    50
 -1.5545893280267195E-01 a       501     0    11     1     1
 -4.8754158555235384E-02 a       502     0    11     1     2
  1.3580790515111435E-01 a       503     0    11     1     3
 -1.7191421152255332E-01 a       504     0    11     1     4
 -1.1743346556384113E-01 a       505     0    11     1     5
 -1.2207945426842336E-01 a       506     0    11     1     6
  1.9626151082538831E-01 a       507     0    11     1     7
 -5.8614838323634712E-02 a       508     0    11     1     8
  1.9865273260994212E-01 a       509     0    11     1     9
 -8.8458945378820514E-02 a       510     0    11     1    10
  8.5448353941599983E-02 a       511     0    11     1    11
  1.5830893175813890E-02 a       512     0    11     1    12
 -1.1751322096036194E-01 a       513     0    11     1    13
 -1.9190074676168004E-01 a       514     0    11     1    14
 -1.6080191195745541E-01 a       515     0    11     1    15
 -1.3059729955516214E-01 a       516     0    11     1    16
 -5.5650885912098824E-02 a       517     0    11     1    17
  1.6140087948166040E-01 a       518     0    11     1    18
 -4.0855649980555013E-02 a       519     0    11     1    19
  2.2868979682968471E-01 a       520     0    11     1    20
  3.0866374477313125E-02 a       521     0    11     1    21
 -2.0370007931865489E-01 a       522     0    11     1    22
  3.7357118588097649E-02 a       523     0    11     1    23
 -1.0857575311299630E-01 a       524     0    11     1    24
 -1.2787992067795256E-01 a       525     0    11     1    25
 -1.0653554395331698E-01 a       526     0    11     1    26
  3.8349377353890698E-02 a       527     0    11     1    27
  1.3205453260732092E-01 a       528     0    11     1    28
  1.7594604815277103E-02 a       529     0    11     1    29
 -1.0532915422805293E-01 a       530     0    11     1    30
  2.4976565099105236E-01 a       531     0    11     1    31
  3.0338681153801415E-02 a       532     0    11     1    32
  1.9146939900936223E-02 a       533     0    11     1    33
 -3.9035837036480038E-02 a       534     0    11     1    34
  1.9558008499099344E-01 a       535     0    11     1    35
  4.1715323987082283E-03 a       536     0    11     1    36
 -1.1221848635889066E-01 a       537     0    11     1    37
 -1.9836973163850802E-01 a       538     0    11     1    38
 -1.5118814595110941E-01 a       539     0    11     1    39
 -1.8638203148317570E-01 a       540     0    11     1    40
  9.6054201167427813E-02 a       541     0    11     1    41
 -3.2018933421555693E-02 a       542     0    11     1    42
 -2.4869090097446109E-01 a       543     0    11     1    43
 -2.1168699346981509E-01 a       544     0    11     1    44
  1.5545899297576873E-01 a       545     0    11     1    45
 -1.3950170026422534E-01 a       546     0    11     1    46
 -2.1386157426811220E-01 a       547     0    11     1    47
 -1.5177350757705141E-01 a       548     0    11     1    48
  1.4095532637923350E-01 a       549     0    11     1    49
 -2.2693055084265235E-01 a       550     0    11     1    50
  1.6317109195612003E-01 a       551     0    12     1     1
  1.6899965111533902E-01 a       552     0    12     1     2
  1.4273890845957807E-01 a       553     0    12     1     3
  9.8485826332404658E-02 a       554     0    12     1     4
  1.2842062411471769E-01 a       555     0    12     1     5
 -1.5648076367254976E-01 a       556     0    12     1     6
  1.5731978510685679E-01 a       557     0    12     1     7
 -9.8980839004895557E-02 a       558     0    12     1     8
 -3.5333231916054197E-02 a       559     0    12     1     9
 -1.9723528099098084E-01 a       560     0    12     1    10
 -5.7888419542617489E-02 a       561     0    12     1    11
 -8.6313726435526969E-02 a       562     0    12     1    12
  3.2237306584349167E-02 a       563     0    12     1    13
  3.9910022867458469E-02 a       564     0    12     1    14
 -2.2972039893923005E-01 a       565     0    12     1    15
 -2.1071201449092476E-02 a       566     0    12     1    16
 -2.1490692247286093E-02 a       567     0    12     1    17
  1.2673950064517102E-02 a       568     0    12     1    18
 -3.9459492027024833E-02 a       569     0    12     1    19
 -4.5689223081883348E-02 a       570     0    12     1    20
 -1.9831735238479722E-01 a       571     0    12     1    21
  3.8311286713361023E-02 a       572     0    12     1    22
  2.4183978482495147E-01 a       573     0    12     1    23
 -2.2344774912580040E-01 a       574     0    12     1    24
 -1.0833789433173482E-01 a       575     0    12     1    25
 -7.7719621381080878E-02 a       576     0    12     1    26
  1.6196455013324576E-01 a       577     0    12     1    27
  9.4589521872922133E-02 a       578     0    12     1    28
  1.8343192268931080E-01 a       579     0    12     1    29
  8.9403519938400192E-02 a       580     0    12     1    30
 -3.8654186553976753E-02 a       581     0    12     1    31
 -2.4657434856582164E-01 a       582     0    12     1    32
  5.6473197301215881E-02 a       583     0    12     1    33
 -2.1897355496926210E-01 a       584     0    12     1    34
  1.5176752546744657E-01 a       585     0    12     1    35
 -1.5939131840665793E-01 a       586     0    12     1    36
  2.9671850387272197E-02 a       587     0    12     1    37
 -8.4817132210494792E-02 a       588     0    12     1    38
 -2.6043028067295408E-02 a       589     0    12     1    39
  1.6389298419809464E-01 a       590     0    12     1    40
  6.0214250414257958E-02 a       591     0    12     1    41
 -2.1136137460529372E-01 a       592     0    12     1    42
  2.5211195569941020E-01 a       593     0    12     1    43
 -1.3914116257110534E-01 a       594     0    12     1    44
 -2.4299771106672316E-01 a       595     0    12     1    45
  2.3064619628179917E-01 a       596     0    12     1    46
  2.2188720386108755E-02 a       597     0    12     1    47
  7.2769363131576933E-02 a       598     0    12     1    48
  1.8637027786980467E-01 a       599     0    12     1    49
 -1.8339790110580143E-01 a       600     0    12     1    50
  1.3646441397208292E-01 a       601     0    13     1     1
 -1.7085585582077273E-01 a       602     0    13     1     2
  1.9160241294788938E-01 a       603     0    13     1     3
 -1.6554126052979151E-01 a       604     0    13     1     4
  2.2127665028061302E-01 a       605     0    13     1     5
 -2.3551778022889844E-01 a       606     0    13     1     6
  7.8669041896576544E-02 a       607     0    13     1     7
 -1.2280408093764539E-01 a       608     0    13     1     8
 -1.4603674402290850E-01 a       609     0    13     1     9
 -1.1070501143966877E-02 a       610     0    13     1    10
  7.2477117384365908E-02 a       611     0    13     1    11
  4.5463620228539857E-02 a       612     0    13     1    12
  2.3213543309709966E-01 a       613     0    13     1    13
  1.1712354616945760E-01 a       614     0    13     1    14
 -2.1432663500870985E-02 a       615     0    13     1    15
  2.3246458041212370E-01 a       616     0    13     1    16
 -1.7131214425143040E-01 a       617     0    13     1    17
 -1.4187412211820835E-01 a       618     0    13     1    18
  1.6692691994280312E-01 a       619     0    13     1    19
  2.1034184410771625E-01 a       620     0    13     1    20
  4.9537703605135285E-02 a       621     0    13     1    21
 -2.4376863522579204E-01 a       622     0    13     1    22
  1.5574611390162518E-01 a       623     0    13     1    23
  8.0540428892705684E-02 a       624     0    13     1    24
 -1.0204375106867924E-01 a       625     0    13     1    25
 -4.9969252093001210E-02 a       626     0    13     1    26
 -5.0307232723496173E-02 a       627     0    13     1    27
  1.2855764063445271E-01 a       628     0    13     1    28
  8.6995544703161676E-02 a       629     0    13     1    29
  2.4057895973363830E-01 a       630     0    13     1    30
 -2.4077392865368538E-01 a       631     0    13     1    31
  1.7640845925548490E-01 a       632     0    13     1    32
  1.4884997400542982E-01 a       633     0    13     1    33
  1.0128674401932444E-01 a       634     0    13     1    34
 -2.2436519965119683E-01 a       635     0    13     1    35
 -1.1079178068845770E-01 a       636     0    13     1    36
 -4.7818357494787356E-02 a       637     0    13     1    37
  7.0488584309383109E-02 a       638     0    13     1    38
 -5.6996429729063276E-02 a       639     0    13     1    39
  1.2000134806861266E-01 a       640     0    13     1    40
  6.9899869163028081E-02 a       641     0    13     1    41
  1.7600085121687395E-01 a       642     0    13     1    42
  1.5424607054517245E-01 a       643     0    13     1    43
 -3.5702348913311684E-03 a       644     0    13     1    44
  7.1134565454638032E-02 a       645     0    13     1    45
  1.3260565146010930E-01 a       646     0    13     1    46
  1.7422945513997920E-01 a       647     0    13     1    47
 -4.0353038492430340E-02 a       648     0    13     1    48
 -3.3002670083328918E-02 a       649     0    13     1    49
 -3.6104701795164749E-02 a       650     0    13     1    50
 -1.9157216098294644E-01 a       651     0    14     1     1
  1.9143210679209685E-01 a       652     0    14     1     2
  4.0991669600941708E-02 a       653     0    14     1     3
  7.5955205859088423E-02 a       654     0    14     1     4
 -1.7731774098569650E-01 a       655     0    14     1     5
 -2.1748034435119135E-01 a       656     0    14     1     6
  1.6817872109122614E-01 a       657     0    14     1     7
 -6.4355314534064678E-02 a       658     0    14     1     8
 -2.0105239087671800E-01 a       659     0    14     1     9
 -1.6486598590805210E-01 a       660     0    14     1    10
 -1.7980584942363853E-01 a       661     0    14     1    11
  5.4011127641170227E-02 a       662     0    14     1    12
  9.7975294709066213E-02 a       663     0    14     1    13
 -1.0822860203120166E-01 a       664     0    14     1    14
 -1.6726831260193958E-01 a       665     0    14     1    15
 -8.2866940814395995E-02 a       666     0    14     1    16
  8.4231978930927390E-02 a       667     0    14     1    17
 -2.4185838366321663E-01 a       668     0    14     1    18
 -2.0660017106907441E-01 a       669     0    14     1    19
 -1.8418563282377443E-01 a       670     0    14     1    20
 -9.9944124543511662E-02 a       671     0    14     1    21
 -1.3707033327275261E-01 a       672     0    14     1    22
  1.1792754424522125E-03 a       673     0    14     1    23
  1.5930812862469285E-01 a       674     0    14     1    24
 -1.8679334135642980E-01 a       675     0    14     1    25
 -1.6928109745654762E-01 a       676     0    14     1    26
  1.1118441835032271E-01 a       677     0    14     1    27
  7.6051684262988056E-02 a       678     0    14     1    28
  1.4329656703392934E-02 a       679     0    14     1    29
  2.1821493275982753E-01 a       680     0    14     1    30
  4.7451401139812999E-02 a       681     0    14     1    31
  1.1459248246476121E-01 a       682     0    14     1    32
 -2.2685180102657879E-01 a       683     0    14     1    33
 -1.4735664684657876E-01 a       684     0    14     1    34
 -2.3964732750338880E-01 a       685     0    14     1    35
  1.9803901470944385E-01 a       686     0    14     1    36
 -1.8313670301165688E-01 a       687     0    14     1    37
  8.3260765051675234E-02 a       688     0    14     1    38
 -7.0843541601832802E-02 a       689     0    14     1    39
  5.6333685024994758E-02 a       690     0    14     1    40
 -1.8366101130117721E-01 a       691     0    14     1    41
  2.5479457783484116E-01 a       692     0    14     1    42
 -1.3617790131774821E-01 a       693     0    14     1    43
 -2.3091653557312916E-01 a       694     0    14     1    44
  4.9744508549533772E-02 a       695     0    14     1    45
 -1.9188230775077073E-02 a       696     0    14     1    46
 -1.9457124544514121E-01 a       697     0    14     1    47
  1.4038193420494441E-01 a       698     0    14     1    48
 -2.0255312158593625E-01 a       699     0    14     1    49
 -2.3762407193534649E-01 a       700     0    14     1    50
  2.7751064132752485E-02 a       701     0    15     1     1
  8.7477524429919740E-02 a       702     0    15     1     2
  3.3644200559967592E-02 a       703     0    15     1     3
 -2.2016054850326916E-01 a       704     0    15     1     4
 -1.6016361061178466E-01 a       705     0    15     1     5
  1.2127415735755505E-01 a       706     0    15     1     6
 -1.6793260361189219E-01 a       707     0    15     1     7
  1.9986011804536286E-01 a       708     0    15     1     8
 -2.1546543488680672E-01 a       709     0    15     1     9
  1.3917359135133769E-01 a       710     0    15     1    10
 -1.9096751162002462E-01 a       711     0    15     1    11
  8.8204901818314599E-02 a       712     0    15     1    12
 -1.3103165108663287E-01 a       713     0    15     1    13
  1.9280314842368257E-01 a       714     0    15     1    14
 -3.8899844410743477E-02 a       715     0    15     1    15
 -9.4928006601751519E-02 a       716     0    15     1    16
 -2.4639861267993909E-01 a       717     0    15     1    17
 -1.1005288253041411E-02 a       718     0    15     1    18
  1.7081259124527390E-01 a       719     0    15     1    19
  2.2375825122408549E-01 a       720     0    15     1    20
 -9.1261960561947575E-02 a       721     0    15     1    21
 -2.4809394913007884E-01 a       722     0    15     1    22
  1.6826017144258551E-01 a       723     0    15     1    23
 -5.3366015676081936E-02 a       724     0    15     1    24
  2.2597814700209989E-01 a       725     0    15     1    25
 -1.4988312966617479E-01 a       726     0    15     1    26
 -1.1596489737484796E-01 a       727     0    15     1    27
 -2.6851248130123732E-02 a       728     0    15     1    28
 -1.7671363270496901E-01 a       729     0    15     1    29
  1.4632487909139197E-01 a       730     0    15     1    30
 -9.8111183875130473E-02 a       731     0    15     1    31
 -2.3332604070340715E-01 a       732     0    15     1    32
 -1.2971926038652612E-01 a       733     0    15     1    33
 -1.9658337850381364E-02 a       734     0    15     1    34
 -2.1373453506620177E-01 a       735     0    15     1    35
 -2.2345680386875391E-01 a       736     0    15     1    36
  1.1648884165280857E-01 a       737     0    15     1    37
  1.6045137072814536E-01 a       738     0    15     1    38
 -2.3828131020646448E-01 a       739     0    15     1    39
  1.6165964853296960E-01 a       740     0    15     1    40
  2.0974815623761683E-01 a       741     0    15     1    41
  1.4864953147412135E-01 a       742     0    15     1    42
 -1.9183450914432199E-01 a       743     0    15     1    43
 -1.1025847711556565E-01 a       744     0    15     1    44
 -2.3776397926102902E-01 a       745     0    15     1    45
 -1.7631127149877449E-01 a       746     0    15     1    46
  2.3289671719309188E-01 a       747     0    15     1    47
  2.5185498256530942E-01 a       748     0    15     1    48
  1.3383823443926321E-01 a       749     0    15     1    49
  1.4196128677321621E-02 a       750     0    15     1    50
  9.3522365082763945E-02 a       751     0    16     1     1
  1.9608392455732043E-01 a       752     0    16     1     2
  1.5927296351450648E-01 a       753     0    16     1     3
  4.0789781131523220E-02 a       754     0    16     1     4
 -2.3391851179262479E-01 a       755     0    16     1     5
 -9.3814001369261629E-02 a       756     0    16     1     6
 -1.5139584588113303E-01 a       757     0    16     1     7
  1.5256483053484544E-02 a       758     0    16     1     8
 -1.2185503109318260E-01 a       759     0    16     1     9
  1.2317563232910057E-01 a       760     0    16     1    10
 -1.0800590984330602E-01 a       761     0    16     1    11
  9.0519136287718308E-02 a       762     0    16     1    12
 -1.4819453438666103E-01 a       763     0    16     1    13
  1.5200527912416742E-01 a       764     0    16     1    14
  4.5537596272629731E-02 a       765     0    16     1    15
 -2.3020206234101298E-01 a       766     0    16     1    16
  2.0180884685466874E-01 a       767     0    16     1    17
  3.7321279444092088E-02 a       768     0    16     1    18
  2.1613040207112345E-02 a       769     0    16     1    19
  1.9536102804300937E-01 a       770     0    16     1    20
 -2.5263672931961761E-01 a       771     0    16     1    21
  2.2306517036030618E-01 a       772     0    16     1    22
 -6.0182789992774675E-02 a       773     0    16     1    23
  1.0046751882034069E-01 a       774     0    16     1    24
 -2.0935381862630842E-01 a       775     0    16     1    25
 -2.1619620373082782E-01 a       776     0    16     1    26
 -2.7178364900429606E-02 a       777     0    16     1    27
 -7.1206241007508400E-02 a       778     0    16     1    28
  1.3704455183592623E-01 a       779     0    16     1    29
 -1.5853322269526973E-01 a       780     0    16     1    30
 -2.5061164525051605E-01 a       781     0    16     1    31
 -1.1114294695689154E-01 a       782     0    16     1    32
  1.1703406199616408E-01 a       783     0    16     1    33
 -2.9309441382194081E-02 a       784     0    16     1    34
  4.3567566305985420E-02 a       785     0    16     1    35
 -2.4492848332016640E-01 a       786     0    16     1    36
 -2.3296239660389606E-01 a       787     0    16     1    37
 -2.0426020891430624E-01 a       788     0    16     1    38
  2.7418872962817378E-02 a       789     0    16     1    39
  2.1304778926410484E-01 a       790     0    16     1    40
  6.0003945797794403E-02 a       791     0    16     1    41
 -1.6464587949844942E-01 a       792     0    16     1    42
  5.0415640265452283E-02 a       793     0    16     1    43
 -5.5695058078654117E-02 a       794     0    16     1    44
  4.6679246643077696E-02 a       795     0    16     1    45
 -1.6309767649696730E-01 a       796     0    16     1    46
  1.7320353249952083E-01 a       797     0    16     1    47
 -1.4311383287418911E-01 a       798     0    16     1    48
 -5.1129170349682083E-02 a       799     0    16     1    49
 -9.9632861005822151E-02 a       800     0    16     1    50
  3.3228461185708352E-02 a       801     0    17     1     1
 -2.1773125094308110E-01 a       802     0    17     1     2
 -4.8943219095559043E-02 a       803     0    17     1     3
 -1.5155488741915518E-01 a       804     0    17     1     4
  2.1841255702587825E-01 a       805     0    17     1     5
 -2.4363210449084025E-03 a       806     0    17     1     6
 -1.5535594131510205E-01 a       807     0    17     1     7
  1.9589960282674637E-02 a       808     0    17     1     8
  1.0934908942837929E-01 a       809     0    17     1     9
 -1.6950559781032554E-01 a       810     0    17     1    10
  5.2962204726364183E-02 a       811     0    17     1    11
 -2.0982585242990107E-01 a       812     0    17     1    12
 -1.1896850992203449E-01 a       813     0    17     1    13
  1.0176384056846831E-01 a       814     0    17     1    14
  1.6511293605936947E-01 a       815     0    17     1    15
 -1.6842082504878919E-01 a       816     0    17     1    16
 -1.6967659048644942E-01 a       817     0    17     1    17
  4.2236302777860626E-02 a       818     0    17     1    18
  9.5271370108186051E-02 a       819     0    17     1    19
  2.5891163419714629E-02 a       820     0    17     1    20
 -2.0086546505429981E-01 a       821     0    17     1    21
  5.2752531808497573E-02 a       822     0    17     1    22
 -5.4910767405598554E-02 a       823     0    17     1    23
 -1.0459269533989275E-01 a       824     0    17     1    24
 -1.6262930052792726E-01 a       825     0    17     1    25
  4.5571921218925402E-03 a       826     0    17     1    26
 -3.7155226075427601E-02 a       827     0    17     1    27
  1.6554253462971014E-01 a       828     0    17     1    28
 -2.0734715691943326E-01 a       829     0    17     1    29
  2.4633268068483144E-01 a       830     0    17     1    30
  1.1021036349225256E-01 a       831     0    17     1    31
 -2.3797292974497689E-01 a       832     0    17     1    32
  2.1648722199443235E-01 a       833     0    17     1    33
  1.5360346789335491E-01 a       834     0    17     1    34
 -1.9563241025540395E-01 a       835     0    17     1    35
 -5.1712017786667619E-02 a       836     0    17     1    36
 -1.3224761832349352E-01 a       837     0    17     1    37
  1.1882402825180557E-03 a       838     0    17     1    38
 -2.3275850089791547E-01 a       839     0    17     1    39
 -2.5005450896913123E-01 a       840     0    17     1    40
  7.1015366593182611E-02 a       841     0    17     1    41
  1.1271780449969908E-01 a       842     0    17     1    42
  2.4194664344480191E-01 a       843     0    17     1    43
  1.2586001898708077E-01 a       844     0    17     1    44
  9.9504751412520326E-02 a       845     0    17     1    45
 -2.2554547627408725E-01 a       846     0    17     1    46
  1.7366264086030453E-02 a       847     0    17     1    47
  1.4771116128406328E-01 a       848     0    17     1    48
  1.5725105399247674E-01 a       849     0    17     1    49
  3.6967983928034291E-02 a       850     0    17     1    50
  9.9456902860022872E-02 a       851     0    18     1     1
 -8.2302075857650772E-02 a       852     0    18     1     2
 -9.9640436156542375E-02 a       853     0    18     1     3
 -1.0284662916376026E-01 a       854     0    18     1     4
 -1.3830213697462759E-02 a       855     0    18     1     5
 -1.3418595811683051E-01 a       856     0    18     1     6
  1.7859195542347578E-01 a       857     0    18     1     7
  1.5547606465413516E-01 a       858     0    18     1     8
 -1.5307508103328119E-01 a       859     0    18     1     9
 -1.7056465810815036E-01 a       860     0    18     1    10
  8.8907052527781180E-02 a       861     0    18     1    11
  2.1659659944108664E-01 a       862     0    18     1    12
 -1.7249608608186159E-01 a       863     0    18     1    13
 -1.5044140317152094E-01 a       864     0    18     1    14
  1.3956534627625142E-02 a       865     0    18     1    15
 -1.0127586826721899E-01 a       866     0    18     1    16
 -6.8627772199875550E-02 a       867     0    18     1    17
 -2.2182356260582797E-01 a       868     0    18     1    18
  1.7995121466325287E-01 a       869     0    18     1    19
 -7.3652357305001942E-02 a       870     0    18     1    20
  2.4973850317303639E-01 a       871     0    18     1    21
  2.4635258394740195E-01 a       872     0    18     1    22
 -4.6132588567034477E-02 a       873     0    18     1    23
  2.5272722573283157E-01 a       874     0    18     1    24
  4.3027554384156508E-02 a       875     0    18     1    25
  2.5503533098962505E-01 a       876     0    18     1    26
 -1.5538191968206334E-04 a       877     0    18     1    27
 -1.9796532311999326E-01 a       878     0    18     1    28
 -6.2316450469044639E-02 a       879     0    18     1    29
  2.5181216964479386E-01 a       880     0    18     1    30
 -1.2666860020740889E-01 a       881     0    18     1    31
 -1.9522019814245573E-01 a       882     0    18     1    32
  2.3903894455440718E-02 a       883     0    18     1    33
  9.2814822935178024E-02 a       884     0    18     1    34
 -7.9736331876197941E-02 a       885     0    18     1    35
 -9.1336878802570520E-02 a       886     0    18     1    36
 -2.2332213742952961E-01 a       887     0    18     1    37
  2.2029359383645547E-01 a       888     0    18     1    38
 -1.3678993508505183E-01 a       889     0    18     1    39
 -3.6420777634646950E-05 a       890     0    18     1    40
 -2.2321149718027726E-02 a       891     0    18     1    41
 -1.4405077234779012E-01 a       892     0    18     1    42
 -7.4505650584888016E-04 a       893     0    18     1    43
 -1.2002350948718045E-01 a       894     0    18     1    44
  2.4167164359253196E-01 a       895     0    18     1    45
 -1.4217363370739514E-01 a       896     0    18     1    46
  3.8601539613228743E-02 a       897     0    18     1    47
 -9.6110154417680907E-02 a       898     0    18     1    48
 -1.2958837331723967E-02 a       899     0    18     1    49
 -2.5273701373134771E-01 a       900     0    18     1    50
  6.3256988079778170E-02 a       901     0    19     1     1
  2.5356635669168825E-01 a       902     0    19     1     2
 -1.1449257431326468E-01 a       903     0    19     1     3
 -1.5888001880336108E-01 a       904     0    19     1     4
 -1.1495276341140702E-01 a       905     0    19     1     5
  1.1212084040664297E-03 a       906     0    19     1     6
 -8.4718074687775369E-02 a       907     0    19     1     7
 -2.0999180376592319E-01 a       908     0    19     1     8
  2.4638241101417341E-01 a       909     0    19     1     9
  2.1086408094432613E-01 a       910     0    19     1    10
 -1.4913042213917932E-01 a       911     0    19     1    11
  1.4033225572435776E-01 a       912     0    19     1    12
  1.4755830627768818E-01 a       913     0    19     1    13
  1.9627803297829985E-01 a       914     0    19     1    14
 -2.2256910013969355E-01 a       915     0    19     1    15
 -1.6361312899529479E-01 a       916     0    19     1    16
 -2.0093452010448148E-01 a       917     0    19     1    17
  5.4236400018158118E-02 a       918     0    19     1    18
 -1.1174675068564111E-01 a       919     0    19     1    19
  1.5961446486575848E-01 a       920     0    19     1    20
  1.0488430724796190E-02 a       921     0    19     1    21
 -1.3674792510672881E-01 a       922     0    19     1    22
  4.2986520137570670E-02 a       923     0    19     1    23
 -4.1581311960015195E-02 a       924     0    19     1    24
 -1.2004791526712252E-01 a       925     0    19     1    25
  2.3791716177078062E-01 a       926     0    19     1    26
 -1.6208779747870619E-01 a       927     0    19     1    27
  5.9608781817218237E-02 a       928     0    19     1    28
  7.4169670650401170E-02 a       929     0    19     1    29
  9.3602348090563878E-02 a       930     0    19     1    30
 -1.5575192869196688E-01 a       931     0    19     1    31
  2.3147003590108745E-01 a       932     0    19     1    32
  1.6815155817047640E-02 a       933     0    19     1    33
  1.9071674761221200E-01 a       934     0    19     1    34
 -9.6735139076494517E-02 a       935     0    19     1    35
 -1.6263170792747483E-01 a       936     0    19     1    36
 -2.2063004112325521E-01 a       937     0    19     1    37
 -1.2103708486980318E-01 a       938     0    19     1    38
  5.4746611392189032E-02 a       939     0    19     1    39
 -1.5952155403676629E-01 a       940     0    19     1    40
 -2.3490567344522836E-01 a       941     0    19     1    41
  1.6896798543937938E-01 a       942     0    19     1    42
  1.6697252972312696E-01 a       943     0    19     1    43
 -3.1827747201182990E-02 a       944     0    19     1    44
 -3.4562950158306995E-02 a       945     0    19     1    45
 -2.0539236608684458E-01 a       946     0    19     1    46
  7.2559122731461714E-02 a       947     0    19     1    47
 -2.3500219121137114E-01 a       948     0    19     1    48
  1.9655515315925645E-01 a       949     0    19     1    49
 -1.0165216239275619E-01 a       950     0    19     1    50
  6.9808788143205958E-02 a       951     0    20     1     1
 -1.9168754432303831E-01 a       952     0    20     1     2
 -4.2833030697457863E-02 a       953     0    20     1     3
  1.2159557492694623E-02 a       954     0    20     1     4
  1.2966654994294477E-01 a       955     0    20     1     5
  3.5822660620299908E-02 a       956     0    20     1     6
 -2.1732541765406746E-01 a       957     0    20     1     7
  3.0203039339597421E-02 a       958     0    20     1     8
  3.3815308349841831E-02 a       959     0    20     1     9
 -1.7921081717239484E-01 a       960     0    20     1    10
  1.5233629501600884E-01 a       961     0    20     1    11
 -2.1625217053786557E-02 a       962     0    20     1    12
 -1.9868362376538934E-01 a       963     0    20     1    13
  1.4200595851917772E-01 a       964     0    20     1    14
  1.9197531609347701E-01 a       965     0    20     1    15
 -4.7112258906928155E-02 a       966     0    20     1    16
 -1.5290980670405732E-01 a       967     0    20     1    17
  1.0368837123069174E-01 a       968     0    20     1    18
 -6.9666601018238378E-02 a       969     0    20     1    19
 -1.8360141294072196E-01 a       970     0    20     1    20
  1.8201480761158242E-01 a       971     0    20     1    21
 -9.1630211114179197E-02 a       972     0    20     1    22
  2.3746194920179590E-02 a       973     0    20     1    23
  2.2660767116214492E-01 a       974     0    20     1    24
  2.1100043912757155E-01 a       975     0    20     1    25
 -2.2767482093607247E-01 a       976     0    20     1    26
  1.0747376299711814E-01 a       977     0    20     1    27
 -1.5650115914153834E-01 a       978     0    20     1    28
  1.3561046116651560E-02 a       979     0    20     1    29
  1.3008494870645920E-01 a       980     0    20     1    30
 -2.1902614839638648E-01 a       981     0    20     1    31
 -1.8758838517593318E-01 a       982     0    20     1    32
 -8.6109532718122439E-02 a       983     0    20     1    33
  7.0149559568631883E-03 a       984     0    20     1    34
  1.4806215440619494E-01 a       985     0    20     1    35
 -9.4720073709086458E-02 a       986     0    20     1    36
 -2.8608164015064851E-02 a       987     0    20     1    37
 -3.5842763548146070E-02 a       988     0    20     1    38
 -1.1434354410394790E-01 a       989     0    20     1    39
  1.2899326555232707E-01 a       990     0    20     1    40
  1.7326204548477006E-01 a       991     0    20     1    41
  1.5320404660672249E-01 a       992     0    20     1    42
 -1.0267751885907674E-01 a       993     0    20     1    43
 -2.7620588285933688E-03 a       994     0    20     1    44
  1.9890498203702708E-01 a       995     0    20     1    45
  9.3522134141748280E-03 a       996     0    20     1    46
 -1.5307996575684450E-03 a       997     0    20     1    47
 -6.4376212674357711E-02 a       998     0    20     1    48
 -2.2954956977695609E-01 a       999     0    20     1    49
 -7.2340818779621438E-03 a      1000     0    20     1    50
 -2.1753093280121774E-01 a      1001     0    21     1     1
 -1.6332467332074629E-01 a      1002     0    21     1     2
  5.5079861656195009E-02 a      1003     0    21     1     3
  2.0373693997827563E-01 a      1004     0    21     1     4
 -3.4429314510392640E-02 a      1005     0    21     1     5
  1.3441912018572630E-01 a      1006     0    21     1     6
 -1.0890484061168107E-01 a      1007     0    21     1     7
 -6.6588104241309704E-02 a      1008     0    21     1     8
  1.9581245160960400E-01 a      1009     0    21     1     9
  1.2497492374987358E-01 a      1010     0    21     1    10
  6.0923711084709967E-02 a      1011     0    21     1    11
 -5.0164162742658149E-02 a      1012     0    21     1    12
 -5.3603477148417886E-02 a      1013     0    21     1    13
  8.0991433150329556E-02 a      1014     0    21     1    14
  2.1002936723780072E-01 a      1015     0    21     1    15
 -2.3530683273543654E-01 a      1016     0    21     1    16
 -1.3109687277757642E-01 a      1017     0    21     1    17
  1.2655274630418673E-01 a      1018     0    21     1    18
  1.7469017212028867E-01 a      1019     0    21     1    19
 -1.2974575450589988E-02 a      1020     0    21     1    20
 -3.1620315671711592E-02 a      1021     0    21     1    21
  9.9004971032923064E-02 a      1022     0    21     1    22
 -6.2698425481945333E-02 a      1023     0    21     1    23
 -1.0489460719347728E-01 a      1024     0    21     1    24
 -9.4615960813803981E-02 a      1025     0    21     1    25
 -2.0200675771590371E-01 a      1026     0    21     1    26
  6.4656526310533188E-02 a      1027     0    21     1    27
 -1.7208133516369004E-01 a      1028     0    21     1    28
 -1.4412585814551454E-02 a      1029     0    21     1    29
  1.4977314347232210E-01 a      1030     0    21     1    30
 -5.5634856798039520E-02 a      1031     0    21     1    31
 -1.1099588188675297E-01 a      1032     0    21     1    32
  9.9670331126156253E-02 a      1033     0    21     1    33
 -1.0579305907438058E-01 a      1034     0    21     1    34
  8.3537857048790090E-02 a      1035     0    21     1    35
 -7.0161786837031458E-03 a      1036     0    21     1    36
  8.2443707154447779E-02 a      1037     0    21     1    37
  1.8084895826161787E-01 a      1038     0    21     1    38
 -4.7207779179126809E-02 a      1039     0    21     1    39
  1.1234652400609852E-02 a      1040     0    21     1    40
 -4.3315169894814286E-02 a      1041     0    21     1    41
 -2.9273045577583784E-02 a      1042     0    21     1    42
  5.5951377751951005E-02 a      1043     0    21     1    43
 -2.2912031298029156E-01 a      1044     0    21     1    44
  2.4676597003033304E-01 a      1045     0    21     1    45
 -1.5286962154029947E-03 a      1046     0    21     1    46
 -1.0047426629368238E-01 a      1047     0    21     1    47
 -5.3447967152796642E-03 a      1048     0    21     1    48
 -1.6685498990292269E-01 a      1049     0    21     1    49
 -1.0685716142582213E-01 a      1050     0    21     1    50
  7.6408336391357148E-02 a      1051     0    22     1     1
  3.1715157866839497E-02 a      1052     0    22     1     2
  1.0831368881166423E-01 a      1053     0    22     1     3
 -2.0847633861557957E-01 a      1054     0    22     1     4
 -2.5430247939537298E-01 a      1055     0    22     1     5
 -1.1367610078480705E-01 a      1056     0    22     1     6
 -1.1185318749921833E-01 a      1057     0    22     1     7
  1.5416144659809453E-01 a      1058     0    22     1     8
  1.6061919765721552E-01 a      1059     0    22     1     9
 -1.4476292475350983E-02 a      1060     0    22     1    10
  2.1383099491871188E-01 a      1061     0    22     1    11
  1.5645727642422722E-01 a      1062     0    22     1    12
  2.0801946664858623E-01 a      1063     0    22     1    13
 -2.6048678273514713E-02 a      1064     0    22     1    14
  1.3782646472030596E-01 a      1065     0    22     1    15
 -4.2934541046845340E-02 a      1066     0    22     1    16
 -2.1822470957994231E-01 a      1067     0    22     1    17
  1.8191228466551707E-01 a      1068     0    22     1    18
  1.0143353735917425E-01 a      1069     0    22     1    19
 -4.8695377169433958E-02 a      1070     0    22     1    20
 -1.4483104081797582E-01 a      1071     0    22     1    21
  6.9583168879017901E-02 a      1072     0    22     1    22
 -9.0137410529384468E-02 a      1073     0    22     1    23
 -1.8622872660560477E-01 a      1074     0    22     1    24
 -1.2401080875009149E-01 a      1075     0    22     1    25
 -5.6927824550077451E-02 a      1076     0    22     1    26
  9.3468889037607444E-02 a      1077     0    22     1    27
  1.2687765486454403E-01 a      1078     0    22     1    28
  1.2107676105954090E-01 a      1079     0    22     1    29
  2.5788608603313407E-02 a      1080     0    22     1    30
  2.4070011172343639E-01 a      1081     0    22     1    31
  2.1600223016417991E-01 a      1082     0    22     1    32
  1.0843204132543242E-01 a      1083     0    22     1    33
 -2.4233525593081798E-01 a      1084     0    22     1    34
 -1.1103849799605277E-01 a      1085     0    22     1    35
 -2.6780239000246085E-02 a      1086     0    22     1    36
 -2.3232618990037265E-01 a      1087     0    22     1    37
 -5.4380899288423240E-02 a      1088     0    22     1    38
 -4.6496755554107840E-03 a      1089     0    22     1    39
 -2.0220319576329773E-01 a      1090     0    22     1    40
  4.1229937345206746E-02 a      1091     0    22     1    41
  1.0713931105496416E-01 a      1092     0    22     1    42
  2.4400483544147902E-01 a      1093     0    22     1    43
  7.3393321161251326E-03 a      1094     0    22     1    44
 -2.3506160084711378E-01 a      1095     0    22     1    45
 -1.7467714630970563E-01 a      1096     0    22     1    46
 -4.1383758807624280E-02 a      1097     0    22     1    47
 -2.0644803861553726E-01 a      1098     0    22     1    48
  2.0875541121136390E-01 a      1099     0    22     1    49
  4.9333504417449232E-03 a      1100     0    22     1    50
  2.4768384807012253E-02 a      1101     0    23     1     1
 -1.2893178862584473E-01 a      1102     0    23     1     2
 -1.6278753115617295E-01 a      1103     0    23     1     3
 -1.8770222530203923E-01 a      1104     0    23     1     4
  1.0035751573996679E-01 a      1105     0    23     1     5
 -1.4410317502857614E-01 a      1106     0    23     1     6
 -1.0836087117900728E-01 a      1107     0    23     1     7
 -1.6980554773554926E-01 a      1108     0    23     1     8
 -1.6567657258115490E-01 a      1109     0    23     1     9
 -8.7447711157771238E-02 a      1110     0    23     1    10
  2.4093096093351965E-01 a      1111     0    23     1    11
  4.1131336590994647E-02 a      1112     0    23     1    12
  3.1871053874065733E-02 a      1113     0    23     1    13
 -1.4979037628615520E-02 a      1114     0    23     1    14
 -1.1346400179708421E-01 a      1115     0    23     1    15
  3.1030850264353520E-02 a      1116     0    23     1    16
 -1.9619017906781985E-01 a      1117     0    23     1    17
 -1.8885490982491854E-01 a      1118     0    23     1    18
  1.5156199046079596E-01 a      1119     0    23     1    19
  2.3242215588159643E-01 a      1120     0    23     1    20
 -1.6289658882919636E-01 a      1121     0    23     1    21
 -1.1628083966810945E-01 a      1122     0    23     1    22
 -1.6576596471101579E-01 a      1123     0    23     1    23
  1.9465860952758637E-01 a      1124     0    23     1    24
 -1.3468303284761793E-01 a      1125     0    23     1    25
 -1.7799967757789897E-01 a      1126     0    23     1    26
  1.1668802245179144E-01 a      1127     0    23     1    27
  3.6913030787946916E-02 a      1128     0    23     1    28
  2.1390730427571042E-01 a      1129     0    23     1    29
 -7.2119861146645828E-02 a      1130     0    23     1    30
 -1.2909351856939799E-01 a      1131     0    23     1    31
 -3.4391239329354235E-02 a      1132     0    23     1    32
 -1.9099263935820882E-01 a      1133     0    23     1    33
 -1.7583765511895286E-01 a      1134     0    23     1    34
 -2.0148403128909737E-01 a      1135     0    23     1    35
  9.2917023967067594E-02 a      1136     0    23     1    36
 -7.6022005726251896E-02 a      1137     0    23     1    37
 -1.0231752153463607E-01 a      1138     0    23     1    38
 -2.5443861793492328E-01 a      1139     0    23     1    39
 -6.1942103406972780E-02 a      1140     0    23     1    40
 -2.1056229859371076E-01 a      1141     0    23     1    41
 -2.3106548693904050E-01 a      1142     0    23     1    42
  9.8266154334506528E-02 a      1143     0    23     1    43
 -1.0894745493719342E-01 a      1144     0    23     1    44
 -1.2702842759636479E-01 a      1145     0    23     1    45
  2.2203081373492822E-01 a      1146     0    23     1    46
 -1.2443027695364403E-01 a      1147     0    23     1    47
 -6.6027473995979663E-02 a      1148     0    23     1    48
  8.0135392124249721E-02 a      1149     0    23     1    49
  7.7002237959193504E-02 a      1150     0    23     1    50
  2.3653795205752511E-02 a      1151     0    24     1     1
 -1.6474942336553414E-01 a      1152     0    24     1     2
  1.7154215163275466E-01 a      1153     0    24     1     3
  1.6500534644342049E-01 a      1154     0    24     1     4
 -2.4589539410948433E-01 a      1155     0    24     1     5
 -5.9056109523395989E-02 a      1156     0    24     1     6
 -1.3737680674653301E-02 a      1157     0    24     1     7
 -1.9642862400163863E-01 a      1158     0    24     1     8
 -1.6226903397050027E-01 a      1159     0    24     1     9
 -7.3493932957438779E-02 a      1160     0    24     1    10
  8.7299870853605258E-03 a      1161     0    24     1    11
  1.7642274477676775E-01 a      1162     0    24     1    12
 -1.7292821858173987E-01 a      1163     0    24     1    13
 -1.4027685675632612E-01 a      1164     0    24     1    14
  1.5500817839421077E-01 a      1165     0    24     1    15
  1.0150398875817469E-01 a      1166     0    24     1    16
 -3.2294456042468750E-02 a      1167     0    24     1    17
  1.9575268592988562E-01 a      1168     0    24     1    18
 -1.1810158577086106E-01 a      1169     0    24     1    19
 -2.2471064364839824E-01 a      1170     0    24     1    20
  1.8975429676720507E-01 a      1171     0    24     1    21
  2.2834785476401248E-01 a      1172     0    24     1    22
  8.8764670494304476E-02 a      1173     0    24     1    23
  1.7606394294667860E-01 a      1174     0    24     1    24
 -1.6332399131934314E-01 a      1175     0    24     1    25
 -1.9991809339707350E-01 a      1176     0    24     1    26
 -1.3546065786371636E-01 a      1177     0    24     1    27
  6.1339282545110230E-02 a      1178     0    24     1    28
 -1.5535901941873223E-02 a      1179     0    24     1    29
 -2.4410287917832890E-01 a      1180     0    24     1    30
 -1.6826636772560399E-01 a      1181     0    24     1    31
  1.6302614186330577E-01 a      1182     0    24     1    32
  9.9294951726825342E-02 a      1183     0    24     1    33
  9.3147546030531839E-02 a      1184     0    24     1    34
 -6.9355462107832305E-02 a      1185     0    24     1    35
  1.1490248855121499E-01 a      1186     0    24     1    36
  1.3525077909677760E-01 a      1187     0    24     1    37
  4.4913333690977407E-02 a      1188     0    24     1    38
 -1.8107657180017922E-01 a      1189     0    24     1    39
 -1.6325788748604411E-01 a      1190     0    24     1    40
 -2.2879353108635034E-01 a      1191     0    24     1    41
  1.6995377987835925E-01 a      1192     0    24     1    42
  2.1305730969450296E-02 a      1193     0    24     1    43
 -1.2628288150031944E-01 a      1194     0    24     1    44
  1.8676910384710421E-01 a      1195     0    24     1    45
 -4.7265659990102425E-02 a      1196     0    24     1    46
 -2.2480048862243407E-01 a      1197     0    24     1    47
  2.1346522942024165E-01 a      1198     0    24     1    48
  1.2180482270880302E-02 a      1199     0    24     1    49
  4.2194404702470524E-02 a      1200     0    24     1    50
  1.7601364442157302E-01 a      1201     0    25     1     1
  3.6506380524279465E-02 a      1202     0    25     1     2
  1.5325362888170579E-01 a      1203     0    25     1     3
 -2.1339332863447547E-01 a      1204     0    25     1     4
  1.0610337458849800E-01 a      1205     0    25     1     5
 -1.2288219441727463E-01 a      1206     0    25     1     6
 -9.0981206568109360E-02 a      1207     0    25     1     7
 -1.6864482368261596E-01 a      1208     0    25     1     8
 -8.0282287377822711E-02 a      1209     0    25     1     9
  7.5343780363306509E-02 a      1210     0    25     1    10
  2.0115080052783421E-01 a      1211     0    25     1    11
  7.5593499309509579E-02 a      1212     0    25     1    12
  6.9711181553201412E-02 a      1213     0    25     1    13
 -1.6429092874655371E-01 a      1214     0    25     1    14
 -2.5328118639687208E-01 a      1215     0    25     1    15
 -1.5199839846136254E-01 a      1216     0    25     1    16
 -2.9621884954743813E-02 a      1217     0    25     1    17
 -2.0835383463381071E-01 a      1218     0    25     1    18
  4.9840275341158528E-02 a      1219     0    25     1    19
 -2.3235570420974391E-01 a      1220     0    25     1    20
 -2.3165412954470574E-01 a      1221     0    25     1    21
 -4.3042547712301010E-02 a      1222     0    25     1    22
  1.5862561111237627E-02 a      1223     0    25     1    23
 -4.5014615002055822E-02 a      1224     0    25     1    24
  2.5159084145970456E-01 a      1225     0    25     1    25
 -1.3223126931688417E-01 a      1226     0    25     1    26
 -1.8221689301113581E-01 a      1227     0    25     1    27
 -6.8761452323557085E-02 a      1228     0    25     1    28
 -1.0303640809475113E-01 a      1229     0    25     1    29
  2.0146400542086920E-01 a      1230     0    25     1    30
  1.2558822424410770E-01 a      1231     0    25     1    31
 -6.2301027367042947E-02 a      1232     0    25     1    32
 -1.7021348232618341E-01 a      1233     0    25     1    33
 -2.1785315676145717E-01 a      1234     0    25     1    34
 -4.4625593196278700E-02 a      1235     0    25     1    35
  2.2351203837158232E-01 a      1236     0    25     1    36
 -1.1871896661943603E-01 a      1237     0    25     1    37
 -3.4131953098602612E-02 a      1238     0    25     1    38
  4.5539804958254951E-02 a      1239     0    25     1    39
 -1.6535520246050997E-01 a      1240     0    25     1    40
 -1.2639701178918464E-01 a      1241     0    25     1    41
 -7.7471507011152033E-02 a      1242     0    25     1    42
  7.6965090466550201E-02 a      1243     0    25     1    43
 -9.0166772027630529E-02 a      1244     0    25     1    44
  2.0655108218970081E-01 a      1245     0    25     1    45
  1.2257264973717555E-01 a      1246     0    25     1    46
  1.5017685072452922E-01 a      1247     0    25     1    47
 -1.3911685371028160E-01 a      1248     0    25     1    48
 -5.2356449296301899E-02 a      1249     0    25     1    49
  1.5959938306175626E-02 a      1250     0    25     1    50
 -1.6748768242624307E-01 a      1251     0    26     1     1
  1.8855475274251185E-01 a      1252     0    26     1     2
  9.2940767842945166E-02 a      1253     0    26     1     3
 -1.8966202191789977E-01 a      1254     0    26     1     4
  1.0403970196432884E-01 a      1255     0    26     1     5
  2.5238138680508793E-01 a      1256     0    26     1     6
 -1.1375385025287657E-01 a      1257     0    26     1     7
 -1.5429046128515039E-01 a      1258     0    26     1     8
  3.0333053185465701E-02 a      1259     0    26     1     9
  1.2288504669341316E-01 a      1260     0    26     1    10
 -1.3168602542753427E-01 a      1261     0    26     1    11
 -4.6237895291800168E-02 a      1262     0    26     1    12
 -1.2651044104958051E-01 a      1263     0    26     1    13
  1.3384706406824007E-01 a      1264     0    26     1    14
 -1.5191521070102321E-01 a      1265     0    26     1    15
 -1.7959326203491086E-01 a      1266     0    26     1    16
  2.1774049155668729E-01 a      1267     0    26     1    17
  9.1242143396851501E-03 a      1268     0    26     1    18
  2.6031939687725471E-02 a      1269     0    26     1    19
 -5.1413546026647217E-02 a      1270     0    26     1    20
  8.1752968760352734E-02 a      1271     0    26     1    21
  1.3478445091573446E-01 a      1272     0    26     1    22
  8.3918567118547768E-02 a      1273     0    26     1    23
  6.3183256295650289E-02 a      1274     0    26     1    24
 -2.0929684290908684E-01 a      1275     0    26     1    25
  1.1835521763322267E-01 a      1276     0    26     1    26
 -2.1657425369781530E-01 a      1277     0    26     1    27
 -6.7173956289882319E-02 a      1278     0    26     1    28
 -1.6199791563972965E-01 a      1279     0    26     1    29
  2.5085211466417567E-01 a      1280     0    26     1    30
 -8.6329340640624534E-03 a      1281     0    26     1    31
  9.9230713140607107E-02 a      1282     0    26     1    32
 -9.9413888728282551E-02 a      1283     0    26     1    33
  1.0013081918707584E-01 a      1284     0    26     1    34
 -1.8415646813674411E-01 a      1285     0    26     1    35
 -2.8835482396262182E-02 a      1286     0    26     1    36
 -1.0691994979284047E-01 a      1287     0    26     1    37
 -1.3541969556322450E-01 a      1288     0    26     1    38
 -9.1137688846812046E-02 a      1289     0    26     1    39
 -9.4903586551509822E-02 a      1290     0    26     1    40
 -2.3523213818176031E-01 a      1291     0    26     1    41
 -2.6581133477093764E-02 a      1292     0    26     1    42
  5.9535605504503458E-02 a      1293     0    26     1    43
  2.3313600609621460E-01 a      1294     0    26     1    44
 -7.3394806818361968E-02 a      1295     0    26     1    45
 -1.0401546766582065E-01 a      1296     0    26     1    46
  1.9622320922226245E-02 a      1297     0    26     1    47
 -2.1723820602599000E-01 a      1298     0    26     1    48
  1.3259970752355593E-01 a      1299     0    26     1    49
 -1.3694878730376556E-01 a      1300     0    26     1    50
  1.2432815440840243E-01 a      1301     0    27     1     1
 -6.9218185630805715E-02 a      1302     0    27     1     2
 -1.0573992741912180E-01 a      1303     0    27     1     3
 -1.7981602450403217E-01 a      1304     0    27     1     4
  2.1813753220058396E-01 a      1305     0    27     1     5
 -1.1202656723971281E-01 a      1306     0    27     1     6
  6.5810642857980356E-02 a      1307     0    27     1     7
  1.3415177373298620E-01 a      1308     0    27     1     8
 -2.5180469081859617E-02 a      1309     0    27     1     9
  8.6198379841456646E-02 a      1310     0    27     1    10
 -1.0669441519909689E-01 a      1311     0    27     1    11
 -2.1040553875768025E-01 a      1312     0    27     1    12
  1.6569709719635511E-01 a      1313     0    27     1    13
 -1.9031114264799243E-01 a      1314     0    27     1    14
 -1.9868306627235047E-01 a      1315     0    27     1    15
 -9.0283807987338704E-02 a      1316     0    27     1    16
  7.7084266376607050E-02 a      1317     0    27     1    17
  1.1467756758035548E-01 a      1318     0    27     1    18
 -1.0226364306702999E-01 a      1319     0    27     1    19
 -5.6559633338508454E-03 a      1320     0    27     1    20
 -2.3231194469268626E-01 a      1321     0    27     1    21
 -7.8236034151654296E-02 a      1322     0    27     1    22
 -5.8635322744157649E-02 a      1323     0    27     1    23
 -1.2842025582206809E-01 a      1324     0    27     1    24
 -2.1243500333309157E-01 a      1325     0    27     1    25
 -2.9219116093656534E-02 a      1326     0    27     1    26
 -1.2948410451893372E-01 a      1327     0    27     1    27
  1.1350412940396688E-01 a      1328     0    27     1    28
 -4.0604829723977998E-02 a      1329     0    27     1    29
  1.3688113561863335E-01 a      1330     0    27     1    30
 -2.4177612263991913E-01 a      1331     0    27     1    31
 -8.7030693878180132E-02 a      1332     0    27     1    32
  5.3570194647510186E-02 a      1333     0    27     1    33
 -1.2504720757426566E-01 a      1334     0    27     1    34
  2.4307096812555001E-01 a      1335     0    27     1    35
  2.2215344828993872E-01 a      1336     0    27     1    36
 -1.7083604567190730E-01 a      1337     0    27     1    37
 -2.2726375520386119E-01 a      1338     0    27     1    38
  2.3059872470305030E-02 a      1339     0    27     1    39
  1.6213133877909869E-01 a      1340     0    27     1    40
  8.1014472905839546E-02 a      1341     0    27     1    41
 -7.7806801376660824E-03 a      1342     0    27     1    42
 -1.1767962276217573E-02 a      1343     0    27     1    43
  8.4584375655946828E-02 a      1344     0    27     1    44
 -2.0834031661680960E-01 a      1345     0    27     1    45
  1.1160706026851294E-01 a      1346     0    27     1    46
 -2.3662261156143291E-01 a      1347     0    27     1    47
  1.4706588081052019E-01 a      1348     0    27     1    48
  2.0221384366628575E-01 a      1349     0    27     1    49
 -2.1907064212036012E-01 a      1350     0    27     1    50
  5.7234833516851456E-02 a      1351     0    28     1     1
  1.7138565639186313E-03 a      1352     0    28     1     2
 -1.7516010711956326E-01 a      1353     0    28     1     3
  1.2786916325041486E-01 a      1354     0    28     1     4
  2.1346725544603160E-01 a      1355     0    28     1     5
  4.7714175388551661E-02 a      1356     0    28     1     6
  1.9711015900382570E-01 a      1357     0    28     1     7
  1.8212127474954637E-01 a      1358     0    28     1     8
  1.4965681198973899E-01 a      1359     0    28     1     9
  8.3209636946484505E-02 a      1360     0    28     1    10
  1.4798681400254129E-01 a      1361     0    28     1    11
  4.0548323975290894E-02 a      1362     0    28     1    12
  7.3032074828835558E-02 a      1363     0    28     1    13
  1.5421194978308064E-01 a      1364     0    28     1    14
 -1.7558690276521828E-02 a      1365     0    28     1    15
 -2.1280813147373670E-01 a      1366     0    28     1    16
 -2.2482821985786657E-02 a      1367     0    28     1    17
 -1.9111884767192328E-01 a      1368     0    28     1    18
  3.4920256342075781E-02 a      1369     0    28     1    19
  3.4474280462364851E-02 a      1370     0    28     1    20
  5.0265392918496229E-02 a      1371     0    28     1    21
  1.1582395961461298E-01 a      1372     0    28     1    22
 -8.4588295112659348E-02 a      1373     0    28     1    23
  2.4961592510462860E-01 a      1374     0    28     1    24
 -1.1063601335176646E-02 a      1375     0    28     1    25
 -1.4418348910732748E-01 a      1376     0    28     1    26
  1.6700228543840029E-01 a      1377     0    28     1    27
 -2.2481200903532531E-01 a      1378     0    28     1    28
  1.5786503755838649E-01 a      1379     0    28     1    29
 -2.5638161115405043E-02 a      1380     0    28     1    30
  9.2801906173467993E-03 a      1381     0    28     1    31
  1.2684150272529990E-01 a      1382     0    28     1    32
 -7.8558712620936944E-02 a      1383     0    28     1    33
 -1.1707100696947179E-01 a      1384     0    28     1    34
 -1.5916459569155100E-01 a      1385     0    28     1    35
  1.1165960838743602E-01 a      1386     0    28     1    36
 -1.5810625081141430E-01 a      1387     0    28     1    37
  1.9895143174340330E-01 a      1388     0    28     1    38
 -4.1775612792201287E-02 a      1389     0    28     1    39
  2.2586988882261325E-01 a      1390     0    28     1    40
  7.0495605058962699E-02 a      1391     0    28     1    41
  1.3180003346749933E-01 a      1392     0    28     1    42
 -7.1594454757568968E-02 a      1393     0    28     1    43
  1.8593625538765957E-01 a      1394     0    28     1    44
 -1.2747811969993766E-01 a      1395     0    28     1    45
 -2.1750740440686456E-01 a      1396     0    28     1    46
 -7.4390295547557092E-02 a      1397     0    28     1    47
 -3.4541556006182653E-02 a      1398     0    28     1    48
  1.5775868565309204E-02 a      1399     0    28     1    49
 -3.6782197826879880E-02 a      1400     0    28     1    50
  2.3869053530786183E-01 a      1401     0    29     1     1
 -8.9252284016437269E-02 a      1402     0    29     1     2
  6.3627398679697106E-02 a      1403     0    29     1     3
 -1.5615488746695838E-01 a      1404     0    29     1     4
  2.1673783200192814E-01 a      1405     0    29     1     5
 -1.9667875726220763E-01 a      1406     0    29     1     6
 -2.4147267494533692E-01 a      1407     0    29     1     7
  1.5921129726871569E-01 a      1408     0    29     1     8
 -1.8416017234977053E-01 a      1409     0    29     1     9
 -5.5946158865538019E-02 a      1410     0    29     1    10
 -1.0279097713574853E-01 a      1411     0    29     1    11
 -1.6250130343215419E-01 a      1412     0    29     1    12
  3.8614348396338226E-02 a      1413     0    29     1    13
 -1.7874890029772481E-02 a      1414     0    29     1    14
 -1.7475272645439306E-02 a      1415     0    29     1    15
  1.9979448881844569E-01 a      1416     0    29     1    16
  4.4386871418647104E-02 a      1417     0    29     1    17
 -4.3341684468284167E-02 a      1418     0    29     1    18
  2.1502537154898996E-01 a      1419     0    29     1    19
 -2.3599148686836521E-01 a      1420     0    29     1    20
 -1.3531481254743866E-01 a      1421     0    29     1    21
  1.1539880707504119E-01 a      1422     0    29     1    22
 -2.4068018384459902E-01 a      1423     0    29     1    23
 -2.3720254095998244E-01 a      1424     0    29     1    24
 -1.2596581982097113E-01 a      1425     0    29     1    25
  1.3246809897170400E-01 a      1426     0    29     1    26
 -2.2950895269879609E-01 a      1427     0    29     1    27
  2.3154011401283339E-01 a      1428     0    29     1    28
  1.2606501077099211E-01 a      1429     0    29     1    29
 -1.1748327794740598E-01 a      1430     0    29     1    30
  2.4928210081782001E-01 a      1431     0    29     1    31
 -1.2807744517082503E-01 a      1432     0    29     1    32
  1.1677772674445676E-03 a      1433     0    29     1    33
  1.1522235315524892E-01 a      1434     0    29     1    34
  1.4366389477345157E-01 a      1435     0    29     1    35
 -2.2831497694501846E-01 a      1436     0    29     1    36
 -2.5096128578608112E-01 a      1437     0    29     1    37
 -5.5054189624999104E-02 a      1438     0    29     1    38
 -1.5485474092177245E-01 a      1439     0    29     1    39
  1.5195465630650275E-02 a      1440     0    29     1    40
  1.8351733578395824E-01 a      1441     0    29     1    41
 -1.2633969953073010E-01 a      1442     0    29     1    42
  1.2131991840305498E-01 a      1443     0    29     1    43
 -9.6921888541793108E-02 a      1444     0    29     1    44
  2.5065716917120379E-01 a      1445     0    29     1    45
 -1.9097476568900318E-01 a      1446     0    29     1    46
  7.6958152960385121E-02 a      1447     0    29     1    47
  1.8668161929954633E-01 a      1448     0    29     1    48
  1.1435148350406617E-01 a      1449     0    29     1    49
  2.3644669848599661E-01 a      1450     0    29     1    50
 -1.2612389430835505E-01 a      1451     0    30     1     1
  7.6254560712817596E-02 a      1452     0    30     1     2
 -3.8977575922019288E-02 a      1453     0    30     1     3
 -4.1643108065532598E-02 a      1454     0    30     1     4
  1.1524674751895130E-01 a      1455     0    30     1     5
 -2.5302903852675283E-02 a      1456     0    30     1     6
  2.1214129951801583E-01 a      1457     0    30     1     7
  1.4666332933366394E-01 a      1458     0    30     1     8
 -1.1396232862774499E-02 a      1459     0    30     1     9
 -6.2515802511623073E-02 a      1460     0    30     1    10
  8.6726200408473397E-02 a      1461     0    30     1    11
 -1.1333186143873274E-01 a      1462     0    30     1    12
  1.7940338820642746E-01 a      1463     0    30     1    13
  1.5571533215180846E-02 a      1464     0    30     1    14
 -7.0899597955000740E-02 a      1465     0    30     1    15
 -1.5979571384406471E-01 a      1466     0    30     1    16
  3.4652959835384392E-03 a      1467     0    30     1    17
 -1.8212202441595360E-01 a      1468     0    30     1    18
  1.0086079353216502E-01 a      1469     0    30     1    19
  1.1944295790356704E-01 a      1470     0    30     1    20
 -1.8035676373546555E-01 a      1471     0    30     1    21
 -1.2079178448404219E-01 a      1472     0    30     1    22
  1.8465780433575851E-01 a      1473     0    30     1    23
 -1.1125407263416966E-01 a      1474     0    30     1    24
 -2.2765696379663056E-01 a      1475     0    30     1    25
 -2.1134792128031760E-01 a      1476     0    30     1    26
 -1.9597440607253813E-01 a      1477     0    30     1    27
  1.7416271378104420E-01 a      1478     0    30     1    28
  2.3922382461045424E-01 a      1479     0    30     1    29
  2.3930186864129194E-01 a      1480     0    30     1    30
  2.1195904495926235E-01 a      1481     0    30     1    31
  1.0492204897966562E-01 a      1482     0    30     1    32
  9.4088360485078182E-02 a      1483     0    30     1    33
 -1.1474789554126412E-02 a      1484     0    30     1    34
  1.2950015551411914E-01 a      1485     0    30     1    35
  1.5753653240684579E-01 a      1486     0    30     1    36
 -1.3314249787272281E-01 a      1487     0    30     1    37
 -4.7592478154388537E-02 a      1488     0    30     1    38
 -2.3759731726408534E-01 a      1489     0    30     1    39
 -2.3402658505281206E-02 a      1490     0    30     1    40
  2.3311413412689097E-01 a      1491     0    30     1    41
  8.7403909424410509E-02 a      1492     0    30     1    42
 -1.7010655164131985E-01 a      1493     0    30     1    43
 -1.9176364271744062E-01 a      1494     0    30     1    44
  2.3925689079740339E-01 a      1495     0    30     1    45
 -2.0186073865872799E-02 a      1496     0    30     1    46
  2.0455293307331238E-01 a      1497     0    30     1    47
 -2.0503825050423471E-01 a      1498     0    30     1    48
  2.4387051386782913E-01 a      1499     0    30     1    49
 -1.0184236467596941E-01 a      1500     0    30     1    50
  2.3590548441034304E-01 a      1501     0    31     1     1
  3.4139867644615691E-03 a      1502     0    31     1     2
 -1.7238541455686920E-01 a      1503     0    31     1     3
  1.5411046892564573E-01 a      1504     0    31     1     4
  2.2533671950945688E-01 a      1505     0    31     1     5
  2.0922922808889532E-02 a      1506     0    31     1     6
 -1.5352736058001529E-01 a      1507     0    31     1     7
  2.3919836627699528E-01 a      1508     0    31     1     8
  1.4430331158087673E-01 a      1509     0    31     1     9
  2.3773061327886849E-01 a      1510     0    31     1    10
 -4.3378728025578496E-02 a      1511     0    31     1    11
 -1.1842149603985383E-01 a      1512     0    31     1    12
 -1.0220189881026791E-01 a      1513     0    31     1    13
  2.1696642139114583E-01 a      1514     0    31     1    14
 -3.7124561223148687E-02 a      1515     0    31     1    15
  1.3665693910331839E-01 a      1516     0    31     1    16
  2.1446729152512295E-01 a      1517     0    31     1    17
  2.4602885209216829E-01 a      1518     0    31     1    18
  1.0935931386022579E-01 a      1519     0    31     1    19
  6.2523899003956426E-02 a      1520     0    31     1    20
 -1.8141186461973888E-01 a      1521     0    31     1    21
 -5.4448651817006179E-02 a      1522     0    31     1    22
  8.6508171278820170E-02 a      1523     0    31     1    23
 -9.7550552916285446E-03 a      1524     0    31     1    24
  1.8133733203396343E-01 a      1525     0    31     1    25
 -2.2980343174789922E-01 a      1526     0    31     1    26
  6.1826817223837559E-02 a      1527     0    31     1    27
  9.1262080551383629E-02 a      1528     0    31     1    28
 -2.2330853402856908E-03 a      1529     0    31     1    29
  6.6019561709430685E-02 a      1530     0    31     1    30
 -7.2383067785463273E-02 a      1531     0    31     1    31
 -1.1288966219381887E-01 a      1532     0    31     1    32
  3.8423520598324573E-02 a      1533     0    31     1    33
  2.4458797208987040E-01 a      1534     0    31     1    34
  9.9925730246207850E-02 a      1535     0    31     1    35
  7.0299888969810806E-02 a      1536     0    31     1    36
  3.8607330976495213E-02 a      1537     0    31     1    37
 -1.6625074284353128E-01 a      1538     0    31     1    38
 -2.0617045346065102E-01 a      1539     0    31     1    39
  6.8739876225112462E-02 a      1540     0    31     1    40
 -9.2872343540007146E-02 a      1541     0    31     1    41
  5.1141874246089299E-02 a      1542     0    31     1    42
  2.1881837794729889E-01 a      1543     0    31     1    43
  2.4969736225596081E-01 a      1544     0    31     1    44
  1.6392470017686046E-02 a      1545     0    31     1    45
  1.2354145276822438E-01 a      1546     0    31     1    46
  1.0227844422180615E-01 a      1547     0    31     1    47
  9.3229767215909545E-02 a      1548     0    31     1    48
  2.1414326903145350E-01 a      1549     0    31     1    49
  1.5598343041150070E-01 a      1550     0    31     1    50
 -1.6474552246021115E-01 a      1551     0    32     1     1
 -4.0262765885082263E-02 a      1552     0    32     1     2
 -1.0995065640658103E-01 a      1553     0    32     1     3
  1.9565974394407259E-01 a      1554     0    32     1     4
  2.9830108485844671E-02 a      1555     0    32     1     5
  2.0377569609044471E-01 a      1556     0    32     1     6
  6.9119461557420976E-03 a      1557     0    32     1     7
 -1.5969818003258826E-01 a      1558     0    32     1     8
  2.6303172180893116E-02 a      1559     0    32     1     9
 -2.4104609739742791E-01 a      1560     0    32     1    10
 -2.1848518000772488E-01 a      1561     0    32     1    11
  1.4772191906835846E-01 a      1562     0    32     1    12
  2.4206335903628340E-01 a      1563     0    32     1    13
 -7.4878544692619217E-02 a      1564     0    32     1    14
  2.4303325957229294E-01 a      1565     0    32     1    15
  4.8968622845121899E-02 a      1566     0    32     1    16
 -4.0778084242593229E-02 a      1567     0    32     1    17
  1.4573145819481481E-01 a      1568     0    32     1    18
  2.4818462641934058E-01 a      1569     0    32     1    19
 -3.2685766923225669E-03 a      1570     0    32     1    20
 -1.6921611039311379E-01 a      1571     0    32     1    21
  1.5393432324432549E-01 a      1572     0    32     1    22
 -2.5301566903978706E-01 a      1573     0    32     1    23
  7.6106113326321528E-02 a      1574     0    32     1    24
  2.3800725825884744E-01 a      1575     0    32     1    25
 -1.8818468486762235E-01 a      1576     0    32     1    26
 -7.8088914140862137E-02 a      1577     0    32     1    27
 -1.2559851764906907E-02 a      1578     0    32     1    28
 -7.3488182502364566E-02 a      1579     0    32     1    29
 -2.4973238668477668E-01 a      1580     0    32     1    30
 -8.8532961022991866E-02 a      1581     0    32     1    31
 -2.0023516268724828E-01 a      1582     0    32     1    32
  2.1062853418944302E-01 a      1583     0    32     1    33
 -1.9843876100215035E-01 a      1584     0    32     1    34
 -1.1581156086477952E-02 a      1585     0    32     1    35
 -2.2250526516511651E-01 a      1586     0    32     1    36
 -1.7021135200828699E-01 a      1587     0    32     1    37
 -5.7065893147652681E-02 a      1588     0    32     1    38
 -1.4092622781125813E-01 a      1589     0    32     1    39
 -2.0217914353002897E-01 a      1590     0    32     1    40
 -7.7612695215145522E-02 a      1591     0    32     1    41
  6.6114847235200433E-02 a      1592     0    32     1    42
 -9.4591942829254344E-02 a      1593     0    32     1    43
  2.5155243615906803E-01 a      1594     0    32     1    44
 -1.7480458995569140E-01 a      1595     0    32     1    45
  1.3818270408025824E-02 a      1596     0    32     1    46
 -4.4082273181157245E-03 a      1597     0    32     1    47
 -2.1273904990458156E-02 a      1598     0    32     1    48
 -4.6709850727664023E-02 a      1599     0    32     1    49
 -4.4024276186158812E-02 a      1600     0    32     1    50
 -2.5055337402792643E-01 a      1601     0    33     1     1
 -2.3478907070803312E-01 a      1602     0    33     1     2
  1.4825322503714064E-01 a      1603     0    33     1     3
 -9.1601116113778733E-02 a      1604     0    33     1     4
 -2.5437848669769603E-01 a      1605     0    33     1     5
  1.0374703155678465E-01 a      1606     0    33     1     6
 -2.5369145132743581E-01 a      1607     0    33     1     7
  1.5247818091873508E-01 a      1608     0    33     1     8
  1.0417629025615578E-01 a      1609     0    33     1     9
  1.6065441723237883E-02 a      1610     0    33     1    10
  1.0840051989841822E-01 a      1611     0    33     1    11
  1.4875196796595480E-01 a      1612     0    33     1    12
 -1.9495215315854875E-01 a      1613     0    33     1    13
 -3.8451982710936444E-02 a      1614     0    33     1    14
 -1.4580016802266460E-01 a      1615     0    33     1    15
 -1.4167198261043555E-02 a      1616     0    33     1    16
 -1.8651107839732489E-01 a      1617     0    33     1    17
 -1.4117842729229435E-01 a      1618     0    33     1    18
 -7.8089977040346245E-02 a      1619     0    33     1    19
 -2.4642729146326700E-01 a      1620     0    33     1    20
  1.7561192799508343E-01 a      1621     0    33     1    21
  1.0346961895360478E-01 a      1622     0    33     1    22
 -1.9374000203764746E-01 a      1623     0    33     1    23
