################################################################################
# Neural network connection values (weights and biases).
################################################################################
# Col  Name       Description
################################################################################
# 1    connection Neural network connection value.
# 2    t          Connection type (a = weight, b = bias).
# 3    index      Index enumerating weights.
# 4    l_s        Starting point layer (end point layer for biases).
# 5    n_s        Starting point neuron in starting layer (end point neuron for biases).
# 6    l_e        End point layer.
# 7    n_e        End point neuron in end layer.
################################################################################
#                      1 2         3     4     5     6     7
#             connection t     index   l_s   n_s   l_e   n_e
############################################################
 -6.5135489652706977E-02 a         1     0     1     1     1
 -1.7752721982748815E-01 a         2     0     1     1     2
  9.3715528215312052E-02 a         3     0     1     1     3
  3.2322872133364315E-02 a         4     0     1     1     4
 -8.0905284064978697E-02 a         5     0     1     1     5
  1.4886603938983403E-01 a         6     0     1     1     6
  1.1947714454687546E-01 a         7     0     1     1     7
  2.1493027320198371E-01 a         8     0     1     1     8
 -9.1300795874279611E-02 a         9     0     1     1     9
 -1.9873784079585413E-01 a        10     0     1     1    10
 -2.2831549079472430E-01 a        11     0     1     1    11
 -2.4783075057776452E-01 a        12     0     1     1    12
 -3.8665371971584171E-02 a        13     0     1     1    13
  9.7838766471416885E-02 a        14     0     1     1    14
  3.9348000911157019E-02 a        15     0     1     1    15
 -7.3734478598282235E-02 a        16     0     1     1    16
 -1.2971501972915278E-01 a        17     0     1     1    17
 -1.0337809270043420E-01 a        18     0     1     1    18
 -1.4575399111684963E-02 a        19     0     1     1    19
 -4.4846670105175394E-02 a        20     0     1     1    20
  8.2153468049203038E-02 a        21     0     1     1    21
 -2.4971440313426391E-01 a        22     0     1     1    22
 -1.9654612992988130E-01 a        23     0     1     1    23
  1.8345767392066964E-01 a        24     0     1     1    24
 -1.9863746648123637E-01 a        25     0     1     1    25
 -1.4701816425829431E-01 a        26     0     1     1    26
 -5.2117521669598134E-02 a        27     0     1     1    27
  1.0535343324016663E-01 a        28     0     1     1    28
  1.2528096507141351E-01 a        29     0     1     1    29
  2.5237636663259727E-01 a        30     0     1     1    30
  9.6373749327567468E-02 a        31     0     1     1    31
 -1.4681457001239340E-01 a        32     0     1     1    32
 -4.1458620799482843E-02 a        33     0     1     1    33
 -1.9791884415950278E-01 a        34     0     1     1    34
 -5.0394714060236637E-03 a        35     0     1     1    35
  4.2430579112699020E-02 a        36     0     1     1    36
  2.2994541302379465E-01 a        37     0     1     1    37
 -1.9252371395688345E-01 a        38     0     1     1    38
  8.5579511195226110E-02 a        39     0     1     1    39
 -2.0596642301925808E-01 a        40     0     1     1    40
 -2.0471594425193410E-01 a        41     0     1     1    41
  5.8650561045779127E-02 a        42     0     1     1    42
  2.3556224660146441E-01 a        43     0     1     1    43
  1.0635346396789563E-01 a        44     0     1     1    44
  2.3929391877628728E-01 a        45     0     1     1    45
 -1.4537611952860751E-02 a        46     0     1     1    46
 -2.1105970308733879E-01 a        47     0     1     1    47
 -1.3212106252798306E-02 a        48     0     1     1    48
 -2.1969826987650351E-01 a        49     0     1     1    49
 -3.5146782840562815E-02 a        50     0     1     1    50
  2.2400016740828924E-01 a        51     0     2     1     1
 -1.7989559712179856E-01 a        52     0     2     1     2
 -2.1940187361264510E-01 a        53     0     2     1     3
  2.2827346404879920E-01 a        54     0     2     1     4
 -9.7017988544914224E-02 a        55     0     2     1     5
  3.1516619112420811E-02 a        56     0     2     1     6
 -4.1053471057821474E-03 a        57     0     2     1     7
 -1.7683206085132525E-01 a        58     0     2     1     8
 -2.4121305241119068E-01 a        59     0     2     1     9
  2.3135554600067157E-01 a        60     0     2     1    10
  2.3004010728348304E-01 a        61     0     2     1    11
 -8.4865714613150720E-02 a        62     0     2     1    12
 -9.0461295195743332E-03 a        63     0     2     1    13
 -2.2911618945829434E-01 a        64     0     2     1    14
 -9.1658100512099258E-02 a        65     0     2     1    15
  7.9199241441460760E-02 a        66     0     2     1    16
  5.5139868503977146E-02 a        67     0     2     1    17
  4.1415341359088566E-02 a        68     0     2     1    18
 -3.2863596499902253E-02 a        69     0     2     1    19
 -1.8026832343458996E-01 a        70     0     2     1    20
  8.4987565371954024E-02 a        71     0     2     1    21
  1.7408422951146290E-02 a        72     0     2     1    22
  2.4736554963147298E-01 a        73     0     2     1    23
 -2.3188128857422385E-01 a        74     0     2     1    24
 -1.5441900814421672E-01 a        75     0     2     1    25
 -1.7384268542532200E-01 a        76     0     2     1    26
 -1.4425032797997661E-01 a        77     0     2     1    27
  2.3230087486450585E-01 a        78     0     2     1    28
 -1.7020272941757394E-01 a        79     0     2     1    29
 -1.1842547174533072E-01 a        80     0     2     1    30
 -1.8157778503677849E-02 a        81     0     2     1    31
  1.3320803719675228E-01 a        82     0     2     1    32
  2.1842507243541118E-01 a        83     0     2     1    33
  1.6942882086317579E-01 a        84     0     2     1    34
  1.5655557381565302E-01 a        85     0     2     1    35
  2.2245723038520890E-01 a        86     0     2     1    36
  9.0361421887561730E-02 a        87     0     2     1    37
  1.0985959964626828E-02 a        88     0     2     1    38
  5.5558019558873843E-02 a        89     0     2     1    39
  1.0600973216881147E-01 a        90     0     2     1    40
 -6.1038416109892760E-02 a        91     0     2     1    41
  5.6701722949761904E-02 a        92     0     2     1    42
  7.9023672280245552E-02 a        93     0     2     1    43
  3.9248297419541021E-02 a        94     0     2     1    44
  1.5153903763519455E-01 a        95     0     2     1    45
  2.1712227090097910E-01 a        96     0     2     1    46
  3.4940272815690017E-02 a        97     0     2     1    47
 -1.8069276899973424E-01 a        98     0     2     1    48
 -2.3390208560747827E-01 a        99     0     2     1    49
 -1.1099887841183692E-01 a       100     0     2     1    50
 -1.9448993851029311E-01 a       101     0     3     1     1
  1.9275224031894445E-01 a       102     0     3     1     2
 -2.5144880488639804E-01 a       103     0     3     1     3
 -2.2427010118527141E-01 a       104     0     3     1     4
  1.5773640460184571E-01 a       105     0     3     1     5
  3.8004364914333927E-02 a       106     0     3     1     6
 -6.2656808531457941E-02 a       107     0     3     1     7
  1.3693017597898824E-01 a       108     0     3     1     8
  2.3401409854063589E-02 a       109     0     3     1     9
 -2.1047573947508388E-01 a       110     0     3     1    10
  9.2425026371050160E-03 a       111     0     3     1    11
 -1.5923139698574443E-01 a       112     0     3     1    12
 -7.3355934165412570E-02 a       113     0     3     1    13
 -1.5075627091122029E-01 a       114     0     3     1    14
 -1.7927015117554942E-01 a       115     0     3     1    15
 -4.4159972703178056E-02 a       116     0     3     1    16
 -8.6934589356130798E-02 a       117     0     3     1    17
 -1.4015329926968707E-02 a       118     0     3     1    18
  2.3051716114064719E-01 a       119     0     3     1    19
  8.8174974502688228E-02 a       120     0     3     1    20
  2.3464410123139517E-01 a       121     0     3     1    21
 -8.4500071482499800E-02 a       122     0     3     1    22
 -1.0834491864888933E-01 a       123     0     3     1    23
 -3.9085734804004346E-02 a       124     0     3     1    24
 -1.4487438495039509E-01 a       125     0     3     1    25
 -2.3589044232534148E-01 a       126     0     3     1    26
  1.1059941502782059E-01 a       127     0     3     1    27
  2.1657799168388420E-01 a       128     0     3     1    28
 -2.0618231100937101E-01 a       129     0     3     1    29
  6.3633888930887963E-02 a       130     0     3     1    30
  1.2059417543964439E-01 a       131     0     3     1    31
  9.9063062449737380E-02 a       132     0     3     1    32
  1.1959162647970737E-02 a       133     0     3     1    33
 -1.7822074473542426E-01 a       134     0     3     1    34
 -1.7897110230082816E-01 a       135     0     3     1    35
  1.2427098140428847E-02 a       136     0     3     1    36
 -2.5179258425314766E-01 a       137     0     3     1    37
 -2.0959863620026525E-01 a       138     0     3     1    38
 -1.8825348459835978E-01 a       139     0     3     1    39
 -3.5585672802992512E-02 a       140     0     3     1    40
  1.6202651439046048E-01 a       141     0     3     1    41
  8.3858036312930880E-03 a       142     0     3     1    42
  9.5447663249269149E-02 a       143     0     3     1    43
  5.9770322560382248E-02 a       144     0     3     1    44
 -9.6277635529823366E-02 a       145     0     3     1    45
  1.1480085416913989E-01 a       146     0     3     1    46
 -2.3344927924884948E-01 a       147     0     3     1    47
 -1.8364996371088038E-01 a       148     0     3     1    48
 -4.7311122905259240E-02 a       149     0     3     1    49
  4.9992974206671838E-04 a       150     0     3     1    50
  1.0031575632432144E-01 a       151     0     4     1     1
 -2.1624995947385706E-01 a       152     0     4     1     2
 -2.3361889567349323E-01 a       153     0     4     1     3
  3.4612501157550296E-02 a       154     0     4     1     4
 -1.8057163829646641E-01 a       155     0     4     1     5
  5.1941947275939739E-02 a       156     0     4     1     6
 -5.6296261758811111E-02 a       157     0     4     1     7
  8.5645692325981460E-02 a       158     0     4     1     8
  2.4109582713217409E-01 a       159     0     4     1     9
 -2.2599679971074615E-01 a       160     0     4     1    10
  1.8463537748961763E-02 a       161     0     4     1    11
 -1.9117154562899247E-01 a       162     0     4     1    12
  1.5492183737332990E-01 a       163     0     4     1    13
 -2.3818491516489851E-01 a       164     0     4     1    14
 -1.7088258658928202E-01 a       165     0     4     1    15
 -8.9600079996856027E-02 a       166     0     4     1    16
  1.5738117676829888E-01 a       167     0     4     1    17
  1.6635388868817552E-01 a       168     0     4     1    18
 -1.7587610560887154E-01 a       169     0     4     1    19
  2.2386353499745260E-01 a       170     0     4     1    20
 -1.0247050402235452E-01 a       171     0     4     1    21
 -1.1673851326918452E-01 a       172     0     4     1    22
 -4.7006562602982568E-02 a       173     0     4     1    23
  2.1161755538100756E-02 a       174     0     4     1    24
 -6.7242108862531541E-02 a       175     0     4     1    25
  6.3797117969417352E-02 a       176     0     4     1    26
  1.4756544927616794E-01 a       177     0     4     1    27
  1.2374038918832610E-01 a       178     0     4     1    28
  5.2763222760222821E-02 a       179     0     4     1    29
 -8.3297123991344826E-02 a       180     0     4     1    30
  1.0872551479408829E-01 a       181     0     4     1    31
 -1.7815511075174054E-01 a       182     0     4     1    32
  1.3328305437811933E-01 a       183     0     4     1    33
 -9.4022126673133366E-02 a       184     0     4     1    34
 -1.2647440616463168E-01 a       185     0     4     1    35
 -2.5064162715003852E-01 a       186     0     4     1    36
 -5.5860157715626670E-02 a       187     0     4     1    37
 -4.3011772859795780E-02 a       188     0     4     1    38
 -1.2114696867425601E-01 a       189     0     4     1    39
  1.8133259179718386E-01 a       190     0     4     1    40
  1.3210058524260995E-01 a       191     0     4     1    41
 -1.6648541744526867E-02 a       192     0     4     1    42
 -1.6762635834398670E-01 a       193     0     4     1    43
  1.4680168678588751E-01 a       194     0     4     1    44
  1.5356618840044003E-01 a       195     0     4     1    45
 -3.2498862744095261E-02 a       196     0     4     1    46
  3.4312547545832489E-02 a       197     0     4     1    47
  1.6881541940657180E-01 a       198     0     4     1    48
 -2.1481957170936208E-01 a       199     0     4     1    49
  2.2537651009942997E-01 a       200     0     4     1    50
  1.6397960432225245E-01 a       201     0     5     1     1
  1.9436237772893122E-01 a       202     0     5     1     2
  2.1914934508228323E-01 a       203     0     5     1     3
  2.2558163007819965E-01 a       204     0     5     1     4
  1.4929127267551789E-01 a       205     0     5     1     5
  1.6868690858001203E-01 a       206     0     5     1     6
  1.3898917056110038E-01 a       207     0     5     1     7
 -7.2510819313163555E-02 a       208     0     5     1     8
 -2.3442873208559298E-01 a       209     0     5     1     9
  1.8305780835204208E-01 a       210     0     5     1    10
 -7.9265048928204143E-02 a       211     0     5     1    11
  8.0381291386918519E-02 a       212     0     5     1    12
 -9.2003095232700660E-04 a       213     0     5     1    13
  8.2337458708825681E-02 a       214     0     5     1    14
  8.8155071477956037E-02 a       215     0     5     1    15
  1.4783049832958678E-01 a       216     0     5     1    16
 -1.2226233933658216E-01 a       217     0     5     1    17
  1.3486800292547185E-01 a       218     0     5     1    18
  5.2936630803478241E-02 a       219     0     5     1    19
 -8.0475551948417337E-02 a       220     0     5     1    20
  2.3685032261370839E-01 a       221     0     5     1    21
  6.8349692698026307E-02 a       222     0     5     1    22
  1.0281923173441995E-01 a       223     0     5     1    23
  4.6391523391657710E-02 a       224     0     5     1    24
  7.0942621124597496E-02 a       225     0     5     1    25
  1.3936817176247737E-01 a       226     0     5     1    26
 -7.1401140954440612E-02 a       227     0     5     1    27
 -1.3012714253380914E-01 a       228     0     5     1    28
 -2.2779748855061041E-01 a       229     0     5     1    29
 -2.4439710992421848E-01 a       230     0     5     1    30
 -9.7730982541554601E-02 a       231     0     5     1    31
 -2.4230455028926595E-01 a       232     0     5     1    32
 -1.4797509880006010E-01 a       233     0     5     1    33
  1.3021883741435367E-01 a       234     0     5     1    34
 -3.4858373901245611E-02 a       235     0     5     1    35
 -3.0082641297296434E-02 a       236     0     5     1    36
  1.5992089053403510E-01 a       237     0     5     1    37
 -2.5032599559255148E-01 a       238     0     5     1    38
 -1.1244103738973912E-01 a       239     0     5     1    39
 -8.4976052094212606E-02 a       240     0     5     1    40
  9.5267756630481440E-02 a       241     0     5     1    41
 -9.6949619301548953E-02 a       242     0     5     1    42
  1.4788523765301803E-01 a       243     0     5     1    43
  1.7307138952494777E-01 a       244     0     5     1    44
 -3.6111757863735931E-02 a       245     0     5     1    45
 -1.3335857161456924E-01 a       246     0     5     1    46
 -1.0742495559940472E-01 a       247     0     5     1    47
  1.8270698552215265E-02 a       248     0     5     1    48
  1.7575575228017606E-01 a       249     0     5     1    49
  1.4403156607043738E-01 a       250     0     5     1    50
 -9.9185981221548827E-02 a       251     0     6     1     1
 -8.4609768227108306E-02 a       252     0     6     1     2
  4.5113694286982177E-02 a       253     0     6     1     3
 -1.8652565170298360E-01 a       254     0     6     1     4
  4.5696146912344623E-02 a       255     0     6     1     5
  1.6792368550705764E-01 a       256     0     6     1     6
  8.8640955083016199E-02 a       257     0     6     1     7
 -1.6732380504043382E-01 a       258     0     6     1     8
 -1.1720401115662753E-01 a       259     0     6     1     9
  2.0089683426478464E-01 a       260     0     6     1    10
  1.9908756195861213E-01 a       261     0     6     1    11
 -2.2162044724739879E-01 a       262     0     6     1    12
  4.0961567711983192E-02 a       263     0     6     1    13
 -1.4078438911943983E-01 a       264     0     6     1    14
  1.8899450689050329E-02 a       265     0     6     1    15
 -8.5282508562552609E-02 a       266     0     6     1    16
 -1.4780505462318494E-01 a       267     0     6     1    17
  2.4530336076170783E-01 a       268     0     6     1    18
  7.5044771683262540E-02 a       269     0     6     1    19
  1.4961404306931397E-01 a       270     0     6     1    20
  1.4655818124706246E-01 a       271     0     6     1    21
 -1.8084907396996402E-01 a       272     0     6     1    22
 -1.7094446272739650E-01 a       273     0     6     1    23
  1.5577792739410512E-01 a       274     0     6     1    24
  1.5810768854410201E-01 a       275     0     6     1    25
 -6.7819885943139396E-02 a       276     0     6     1    26
  2.3518479634381886E-01 a       277     0     6     1    27
  1.8284600440276407E-02 a       278     0     6     1    28
  1.8455638400817787E-01 a       279     0     6     1    29
 -1.1151236148989632E-01 a       280     0     6     1    30
 -1.9605834028846725E-01 a       281     0     6     1    31
 -6.1806222565249987E-02 a       282     0     6     1    32
 -7.5439938993575285E-04 a       283     0     6     1    33
  1.7145724644185487E-01 a       284     0     6     1    34
  2.5115329445138918E-01 a       285     0     6     1    35
 -1.7949945931219183E-01 a       286     0     6     1    36
 -2.0723084386932050E-01 a       287     0     6     1    37
  1.8832465248532082E-01 a       288     0     6     1    38
  1.5004032676796977E-01 a       289     0     6     1    39
 -5.8696015041998680E-02 a       290     0     6     1    40
  2.2106308038175582E-01 a       291     0     6     1    41
  1.1130097137930757E-01 a       292     0     6     1    42
  7.5401808039449153E-02 a       293     0     6     1    43
 -1.2223379838056483E-01 a       294     0     6     1    44
 -2.3328135647093348E-01 a       295     0     6     1    45
 -2.7219499514789504E-02 a       296     0     6     1    46
  5.6694823378809996E-02 a       297     0     6     1    47
 -2.3605184666822485E-01 a       298     0     6     1    48
  1.7839020918137694E-03 a       299     0     6     1    49
 -1.3132844584860842E-01 a       300     0     6     1    50
  8.2394315031207015E-03 a       301     0     7     1     1
  1.1453416783667685E-01 a       302     0     7     1     2
  1.1577312000731310E-01 a       303     0     7     1     3
  6.5237248780984664E-02 a       304     0     7     1     4
 -1.4349052359513687E-01 a       305     0     7     1     5
 -2.3283805234807076E-01 a       306     0     7     1     6
 -1.8245322427574107E-01 a       307     0     7     1     7
  1.6825580615792873E-01 a       308     0     7     1     8
 -9.9897454717763640E-03 a       309     0     7     1     9
 -1.8615079816419405E-01 a       310     0     7     1    10
 -9.3295597297294003E-02 a       311     0     7     1    11
  5.3658698332299970E-02 a       312     0     7     1    12
  7.7881170567505500E-02 a       313     0     7     1    13
 -1.1829603905741488E-03 a       314     0     7     1    14
  1.4252052245351490E-01 a       315     0     7     1    15
  2.2027394244467344E-01 a       316     0     7     1    16
  9.9941055477737920E-02 a       317     0     7     1    17
  3.3964254364390802E-02 a       318     0     7     1    18
  3.7430536901310318E-03 a       319     0     7     1    19
  1.1651908862314665E-01 a       320     0     7     1    20
  1.8685180320643868E-01 a       321     0     7     1    21
 -5.3022922948582879E-02 a       322     0     7     1    22
  5.9240873038662746E-02 a       323     0     7     1    23
  2.0141491642257642E-01 a       324     0     7     1    24
 -9.2536486449016270E-02 a       325     0     7     1    25
  1.6933832504455768E-02 a       326     0     7     1    26
  4.8868084184220055E-02 a       327     0     7     1    27
 -1.0355760914544621E-01 a       328     0     7     1    28
 -2.1567694784089145E-01 a       329     0     7     1    29
  2.0162227291405560E-01 a       330     0     7     1    30
 -1.4026592237707300E-01 a       331     0     7     1    31
  2.2502233458156165E-01 a       332     0     7     1    32
 -2.1636806867901659E-01 a       333     0     7     1    33
 -1.5831025437707627E-01 a       334     0     7     1    34
  1.7642432723407755E-01 a       335     0     7     1    35
  1.5819214089082687E-01 a       336     0     7     1    36
 -2.0777788403263631E-01 a       337     0     7     1    37
  2.2439329596846153E-01 a       338     0     7     1    38
  7.5426679150078321E-02 a       339     0     7     1    39
  1.3805456701662963E-01 a       340     0     7     1    40
 -1.7500019497434452E-01 a       341     0     7     1    41
 -1.5396060580650722E-01 a       342     0     7     1    42
 -1.3624035837597681E-01 a       343     0     7     1    43
 -3.5599251230928705E-02 a       344     0     7     1    44
  4.4651594514638564E-02 a       345     0     7     1    45
  1.0354575932647185E-01 a       346     0     7     1    46
 -6.3920988332375792E-02 a       347     0     7     1    47
  5.3291442657790879E-02 a       348     0     7     1    48
 -2.1009423217125353E-01 a       349     0     7     1    49
  1.9513681880334388E-01 a       350     0     7     1    50
  1.3564416583045402E-01 a       351     0     8     1     1
 -2.4301242505375242E-01 a       352     0     8     1     2
 -1.3260266040530685E-01 a       353     0     8     1     3
  1.7939862394797684E-01 a       354     0     8     1     4
 -1.4767707072743902E-01 a       355     0     8     1     5
  1.7478024791642101E-02 a       356     0     8     1     6
  1.8872826305624793E-01 a       357     0     8     1     7
  2.4938919905978510E-01 a       358     0     8     1     8
  1.7364957307125675E-01 a       359     0     8     1     9
  3.8868260907925882E-02 a       360     0     8     1    10
  5.0666746760456037E-02 a       361     0     8     1    11
 -5.2278778790557000E-02 a       362     0     8     1    12
 -2.3980437559947182E-01 a       363     0     8     1    13
 -1.7035104052270855E-01 a       364     0     8     1    14
 -9.0167738245834642E-02 a       365     0     8     1    15
 -7.1215843492129366E-02 a       366     0     8     1    16
 -9.4429730073896934E-02 a       367     0     8     1    17
  1.9171087352779245E-01 a       368     0     8     1    18
 -3.0877467732568772E-02 a       369     0     8     1    19
  2.4087806568955808E-01 a       370     0     8     1    20
  2.3496563082263844E-01 a       371     0     8     1    21
 -2.8557960863128465E-02 a       372     0     8     1    22
 -6.9921981467981287E-02 a       373     0     8     1    23
 -7.7932028250518245E-02 a       374     0     8     1    24
 -5.6723268485981485E-03 a       375     0     8     1    25
  1.5472240613058855E-01 a       376     0     8     1    26
  1.5313399180313259E-01 a       377     0     8     1    27
 -1.7394825971820575E-02 a       378     0     8     1    28
  1.0257353142351183E-01 a       379     0     8     1    29
  2.3912544635399721E-01 a       380     0     8     1    30
  1.6805359506081943E-01 a       381     0     8     1    31
  2.0475683995769436E-01 a       382     0     8     1    32
  8.2379666925394404E-02 a       383     0     8     1    33
  2.4555715720819184E-02 a       384     0     8     1    34
  3.4747868506324740E-02 a       385     0     8     1    35
  5.8567111782199095E-02 a       386     0     8     1    36
  1.6963375283074786E-01 a       387     0     8     1    37
  6.5230069749998343E-02 a       388     0     8     1    38
  1.4841492965091208E-01 a       389     0     8     1    39
 -7.0859129050118569E-02 a       390     0     8     1    40
  1.7195764103893205E-01 a       391     0     8     1    41
  1.4636040131582659E-01 a       392     0     8     1    42
  1.2709282458290891E-01 a       393     0     8     1    43
  3.1308867809318540E-02 a       394     0     8     1    44
 -1.9434153892930081E-01 a       395     0     8     1    45
 -5.8641353253862084E-02 a       396     0     8     1    46
 -1.3617552424258736E-01 a       397     0     8     1    47
  8.3588091595385675E-02 a       398     0     8     1    48
 -1.3438536058113429E-01 a       399     0     8     1    49
 -9.6765907745203245E-02 a       400     0     8     1    50
  2.2112997145991775E-01 a       401     0     9     1     1
  1.1756418864360101E-01 a       402     0     9     1     2
  1.7688574262663476E-01 a       403     0     9     1     3
  1.3531110988036135E-01 a       404     0     9     1     4
 -9.2055175642553375E-02 a       405     0     9     1     5
 -2.2744809001554323E-01 a       406     0     9     1     6
 -2.2922272188287907E-01 a       407     0     9     1     7
  1.3970247565027269E-01 a       408     0     9     1     8
  1.8966872301276763E-01 a       409     0     9     1     9
  2.2353893776746556E-01 a       410     0     9     1    10
  6.2981337739683424E-02 a       411     0     9     1    11
  9.8334343177500658E-02 a       412     0     9     1    12
  1.9454797260807058E-01 a       413     0     9     1    13
  5.1300409783070405E-02 a       414     0     9     1    14
 -1.1125305658883601E-01 a       415     0     9     1    15
  7.0705472528580920E-02 a       416     0     9     1    16
  2.4725212738730776E-01 a       417     0     9     1    17
 -7.4576852958406492E-02 a       418     0     9     1    18
  1.1264182121904709E-01 a       419     0     9     1    19
  6.6990278149821570E-03 a       420     0     9     1    20
 -2.2516409110023791E-01 a       421     0     9     1    21
 -1.0188227977430676E-02 a       422     0     9     1    22
  1.8118580440329227E-01 a       423     0     9     1    23
  1.4513783977350694E-01 a       424     0     9     1    24
 -3.7824052067683411E-02 a       425     0     9     1    25
 -8.3131381953050597E-03 a       426     0     9     1    26
 -1.4722363814049481E-02 a       427     0     9     1    27
  7.9354376247120897E-02 a       428     0     9     1    28
 -1.6262011533065132E-01 a       429     0     9     1    29
  1.0583447017579581E-01 a       430     0     9     1    30
  1.8330912913937861E-02 a       431     0     9     1    31
  1.6250174129251449E-01 a       432     0     9     1    32
 -5.1263048830528478E-02 a       433     0     9     1    33
  3.9794647019273904E-02 a       434     0     9     1    34
  5.7492739333952214E-02 a       435     0     9     1    35
 -1.4532260519148033E-01 a       436     0     9     1    36
  2.2934873528808444E-01 a       437     0     9     1    37
  8.2143521531441818E-02 a       438     0     9     1    38
  2.4467115782858392E-01 a       439     0     9     1    39
 -1.5098480952195514E-01 a       440     0     9     1    40
 -4.8857926109266828E-02 a       441     0     9     1    41
 -6.7666696179318822E-02 a       442     0     9     1    42
 -1.9783911385492547E-01 a       443     0     9     1    43
  2.0668351651622463E-01 a       444     0     9     1    44
 -1.7589799244309062E-01 a       445     0     9     1    45
  1.8470464397807212E-01 a       446     0     9     1    46
  2.3606132060123000E-01 a       447     0     9     1    47
  5.0280655598546248E-02 a       448     0     9     1    48
  1.6254358085967613E-01 a       449     0     9     1    49
 -1.1234653994126645E-01 a       450     0     9     1    50
 -2.8851549445534672E-02 a       451     0    10     1     1
  1.2434984728546569E-01 a       452     0    10     1     2
 -2.2276361538313158E-01 a       453     0    10     1     3
  1.9305717652469723E-01 a       454     0    10     1     4
 -8.5726438200215777E-02 a       455     0    10     1     5
  1.3401961850973929E-01 a       456     0    10     1     6
 -1.8462226070587445E-01 a       457     0    10     1     7
  1.7105195506746967E-01 a       458     0    10     1     8
  2.2896417235634584E-01 a       459     0    10     1     9
 -1.2639238393101465E-02 a       460     0    10     1    10
  1.9121599297449229E-01 a       461     0    10     1    11
 -1.2019278306787558E-02 a       462     0    10     1    12
 -3.0347971237779655E-02 a       463     0    10     1    13
 -6.9568494254231797E-02 a       464     0    10     1    14
  1.6656509720920146E-01 a       465     0    10     1    15
  2.5356597900442474E-01 a       466     0    10     1    16
  2.2550581875465819E-01 a       467     0    10     1    17
  8.2464849792541137E-02 a       468     0    10     1    18
 -2.8101099361021498E-02 a       469     0    10     1    19
 -8.2239394161122165E-02 a       470     0    10     1    20
 -6.3150988294127117E-02 a       471     0    10     1    21
 -2.1674583728326304E-03 a       472     0    10     1    22
  7.6756777032561674E-02 a       473     0    10     1    23
  2.1718703986666693E-01 a       474     0    10     1    24
  3.1327806637472387E-02 a       475     0    10     1    25
  1.6007500180245429E-01 a       476     0    10     1    26
  2.1038155454617308E-01 a       477     0    10     1    27
 -6.2550298820433448E-02 a       478     0    10     1    28
  1.8242130042627730E-01 a       479     0    10     1    29
 -8.8116717669317363E-02 a       480     0    10     1    30
  7.0631216667699139E-04 a       481     0    10     1    31
 -8.4994672575765540E-02 a       482     0    10     1    32
  9.2763469121414817E-03 a       483     0    10     1    33
  2.5486763070946411E-01 a       484     0    10     1    34
 -3.7256379786243500E-02 a       485     0    10     1    35
 -1.4301768494664507E-02 a       486     0    10     1    36
 -8.6873962344910571E-02 a       487     0    10     1    37
  9.3452080765188336E-02 a       488     0    10     1    38
 -1.3223454506416424E-01 a       489     0    10     1    39
  5.4845488752375625E-02 a       490     0    10     1    40
 -2.4656649561993529E-01 a       491     0    10     1    41
 -7.9320931302635737E-03 a       492     0    10     1    42
  2.1911178363203151E-01 a       493     0    10     1    43
 -1.9618130282253088E-01 a       494     0    10     1    44
  1.0882486771201004E-01 a       495     0    10     1    45
 -1.5748023191263502E-01 a       496     0    10     1    46
  2.1371345046066023E-01 a       497     0    10     1    47
  1.5632131804720974E-02 a       498     0    10     1    48
  5.5861460237225387E-02 a       499     0    10     1    49
 -9.3560986102763199E-02 a       500     0    10     1    50
  9.1142208012866516E-02 a       501     0    11     1     1
  1.0951884689115104E-01 a       502     0    11     1     2
  2.0468580466560071E-01 a       503     0    11     1     3
  2.4050741118643462E-01 a       504     0    11     1     4
 -8.2733118344475651E-02 a       505     0    11     1     5
 -1.8077955002152038E-01 a       506     0    11     1     6
  1.8922564923632479E-01 a       507     0    11     1     7
 -3.4518511018229461E-02 a       508     0    11     1     8
 -1.3648807293967768E-01 a       509     0    11     1     9
 -9.9307979796872475E-02 a       510     0    11     1    10
 -1.3625520614706507E-01 a       511     0    11     1    11
  1.8807658294791663E-01 a       512     0    11     1    12
 -4.7997250208786361E-02 a       513     0    11     1    13
  1.9627339251469852E-01 a       514     0    11     1    14
  6.9067152584935867E-03 a       515     0    11     1    15
 -1.5502925063215930E-01 a       516     0    11     1    16
 -8.3948055860298854E-02 a       517     0    11     1    17
  1.9779504229398257E-02 a       518     0    11     1    18
 -1.7486723228997686E-01 a       519     0    11     1    19
 -2.0988098585144044E-01 a       520     0    11     1    20
  2.3801440791680037E-01 a       521     0    11     1    21
  1.5081627050493346E-01 a       522     0    11     1    22
  1.4576827449758753E-02 a       523     0    11     1    23
  1.1830392779796946E-01 a       524     0    11     1    24
 -5.5700191581107658E-02 a       525     0    11     1    25
 -3.8974397093857562E-02 a       526     0    11     1    26
 -5.6219452346729717E-02 a       527     0    11     1    27
 -2.3126905383353377E-01 a       528     0    11     1    28
 -1.9155260306162697E-01 a       529     0    11     1    29
  1.3329142117371151E-01 a       530     0    11     1    30
 -4.3522094947567983E-04 a       531     0    11     1    31
  3.1851622720574652E-02 a       532     0    11     1    32
 -1.7464567637468928E-01 a       533     0    11     1    33
 -1.4742568857781410E-01 a       534     0    11     1    34
  4.4470968197072844E-02 a       535     0    11     1    35
  2.1715877872744149E-01 a       536     0    11     1    36
  1.5452716880998923E-01 a       537     0    11     1    37
 -1.7008043473353299E-01 a       538     0    11     1    38
 -4.1599264115868798E-02 a       539     0    11     1    39
 -1.3026557252672250E-01 a       540     0    11     1    40
  7.7430860084281988E-02 a       541     0    11     1    41
  1.9737885411879999E-01 a       542     0    11     1    42
  2.5036925933561616E-01 a       543     0    11     1    43
 -1.3982569457405300E-01 a       544     0    11     1    44
 -1.9180166747675367E-01 a       545     0    11     1    45
  1.2432156236240756E-01 a       546     0    11     1    46
  3.0051574973921261E-02 a       547     0    11     1    47
  1.8902093810163950E-01 a       548     0    11     1    48
 -2.0932728906902393E-01 a       549     0    11     1    49
 -4.1383356147336389E-02 a       550     0    11     1    50
 -2.2744535309099337E-01 a       551     0    12     1     1
  1.7628156465927738E-01 a       552     0    12     1     2
  2.5124328486356207E-01 a       553     0    12     1     3
 -8.9831858916960175E-02 a       554     0    12     1     4
 -8.6647518138484744E-02 a       555     0    12     1     5
 -2.0336317645253947E-02 a       556     0    12     1     6
 -6.5964332914722132E-02 a       557     0    12     1     7
  2.2442080613316892E-01 a       558     0    12     1     8
 -1.5058899112922178E-01 a       559     0    12     1     9
  5.8849451800922020E-02 a       560     0    12     1    10
  1.4513391829516864E-01 a       561     0    12     1    11
 -2.5036240721341052E-01 a       562     0    12     1    12
  2.0596774813549787E-01 a       563     0    12     1    13
 -4.4233871211973273E-02 a       564     0    12     1    14
 -2.0548931541063201E-01 a       565     0    12     1    15
  3.4395310645838652E-02 a       566     0    12     1    16
 -1.8956942943550850E-01 a       567     0    12     1    17
  2.1381529521073570E-01 a       568     0    12     1    18
 -3.8462073001966433E-02 a       569     0    12     1    19
 -1.4134075884789621E-01 a       570     0    12     1    20
 -7.0067420913153697E-02 a       571     0    12     1    21
 -2.2475432527340375E-01 a       572     0    12     1    22
 -4.7587283884242410E-02 a       573     0    12     1    23
  1.4280535478006820E-01 a       574     0    12     1    24
 -1.6884943516304216E-01 a       575     0    12     1    25
  1.8109956945830528E-02 a       576     0    12     1    26
  1.3389475255554334E-01 a       577     0    12     1    27
  1.6901063591631749E-01 a       578     0    12     1    28
  1.1540951384301519E-01 a       579     0    12     1    29
 -1.5271023858535868E-01 a       580     0    12     1    30
 -2.1083494598708671E-02 a       581     0    12     1    31
  1.1625852282219488E-01 a       582     0    12     1    32
  1.3594546203952868E-01 a       583     0    12     1    33
 -1.8946802647012576E-01 a       584     0    12     1    34
  4.5783397902665224E-02 a       585     0    12     1    35
 -4.8167693597293663E-02 a       586     0    12     1    36
  1.9574306810469252E-01 a       587     0    12     1    37
  9.4687308982217000E-02 a       588     0    12     1    38
 -1.8517489708610928E-02 a       589     0    12     1    39
 -2.2737841099651027E-01 a       590     0    12     1    40
  1.2203070074109104E-01 a       591     0    12     1    41
  1.9862619782021443E-01 a       592     0    12     1    42
  7.2616705887770874E-02 a       593     0    12     1    43
  2.0619959150978870E-01 a       594     0    12     1    44
 -2.9901980136415787E-02 a       595     0    12     1    45
  6.3266627548259013E-02 a       596     0    12     1    46
  2.2994890472827575E-01 a       597     0    12     1    47
 -6.5712036276729238E-02 a       598     0    12     1    48
  2.1187740255345378E-01 a       599     0    12     1    49
 -1.6735598420934181E-02 a       600     0    12     1    50
  9.1981766842873791E-02 a       601     0    13     1     1
  6.0993025973264052E-02 a       602     0    13     1     2
 -2.4201323651153991E-01 a       603     0    13     1     3
  1.0100546238115742E-01 a       604     0    13     1     4
 -2.2519664985911605E-01 a       605     0    13     1     5
 -1.7813659979473725E-01 a       606     0    13     1     6
  1.6016956762944601E-01 a       607     0    13     1     7
 -2.0407913700663458E-01 a       608     0    13     1     8
 -7.0042944970905114E-03 a       609     0    13     1     9
 -5.8855976419751148E-02 a       610     0    13     1    10
  1.0960078921109015E-01 a       611     0    13     1    11
 -2.5425578483443895E-01 a       612     0    13     1    12
 -1.5554404574535052E-01 a       613     0    13     1    13
 -7.7366375929990953E-03 a       614     0    13     1    14
 -8.6408788631107514E-02 a       615     0    13     1    15
  8.6077706382372804E-02 a       616     0    13     1    16
 -1.6246789523369057E-02 a       617     0    13     1    17
  2.5143906195824489E-01 a       618     0    13     1    18
 -6.3221489995933758E-02 a       619     0    13     1    19
  1.9795563097032295E-01 a       620     0    13     1    20
  1.6844829573233430E-01 a       621     0    13     1    21
 -1.5074214307674835E-01 a       622     0    13     1    22
 -1.1852492158237081E-02 a       623     0    13     1    23
 -2.4869558496247629E-01 a       624     0    13     1    24
  1.4174471297628691E-01 a       625     0    13     1    25
  2.5130611758742843E-01 a       626     0    13     1    26
  3.5679796607453212E-02 a       627     0    13     1    27
 -1.1229824282568396E-01 a       628     0    13     1    28
 -1.2411139319487131E-01 a       629     0    13     1    29
 -5.9259889402111257E-02 a       630     0    13     1    30
  1.9098161602742134E-01 a       631     0    13     1    31
  4.0696128365869472E-02 a       632     0    13     1    32
  2.4594342282451459E-01 a       633     0    13     1    33
 -1.0177901726996307E-01 a       634     0    13     1    34
 -1.8301078628773151E-01 a       635     0    13     1    35
 -2.3926312144806013E-02 a       636     0    13     1    36
 -7.2303411924282371E-02 a       637     0    13     1    37
  2.5080661952192551E-01 a       638     0    13     1    38
 -1.2847214917207647E-01 a       639     0    13     1    39
  6.8382878993330662E-02 a       640     0    13     1    40
  1.2252295651061261E-01 a       641     0    13     1    41
  4.8944978028907592E-02 a       642     0    13     1    42
 -1.7285775481514640E-01 a       643     0    13     1    43
  6.8464000414283563E-02 a       644     0    13     1    44
 -1.3399872905054519E-01 a       645     0    13     1    45
  1.2613627878788886E-01 a       646     0    13     1    46
  6.8797318224374460E-02 a       647     0    13     1    47
 -1.8275693513843227E-01 a       648     0    13     1    48
 -2.3949764002785490E-01 a       649     0    13     1    49
  3.7296475522790341E-02 a       650     0    13     1    50
  2.0579045428965323E-01 a       651     0    14     1     1
 -1.6342461013176124E-01 a       652     0    14     1     2
  1.1864297061443355E-01 a       653     0    14     1     3
 -2.1673849735464840E-01 a       654     0    14     1     4
 -2.1553484288906591E-01 a       655     0    14     1     5
 -1.7323960103859296E-01 a       656     0    14     1     6
  4.9221994036676923E-02 a       657     0    14     1     7
  2.0382825431749671E-01 a       658     0    14     1     8
  1.7101705704972472E-01 a       659     0    14     1     9
  2.4217230004960733E-01 a       660     0    14     1    10
  7.2968408719470811E-03 a       661     0    14     1    11
  2.5229288847166048E-01 a       662     0    14     1    12
 -5.1074042874100903E-02 a       663     0    14     1    13
  2.5325596875580025E-01 a       664     0    14     1    14
  1.1914224998759462E-01 a       665     0    14     1    15
  1.2524787569522747E-01 a       666     0    14     1    16
  1.0211247255060706E-01 a       667     0    14     1    17
 -1.1903086506653990E-01 a       668     0    14     1    18
 -1.6949084743403223E-01 a       669     0    14     1    19
  2.3659588721455846E-01 a       670     0    14     1    20
 -1.1620708481366385E-01 a       671     0    14     1    21
  2.4772122400647908E-01 a       672     0    14     1    22
 -4.9165337260652061E-03 a       673     0    14     1    23
 -1.9644971360178504E-01 a       674     0    14     1    24
  1.4142513270797308E-01 a       675     0    14     1    25
  3.7661505030557166E-02 a       676     0    14     1    26
  1.5314928147783272E-01 a       677     0    14     1    27
  2.0225483070196365E-01 a       678     0    14     1    28
  3.1550823950361261E-02 a       679     0    14     1    29
 -1.8055912288693349E-01 a       680     0    14     1    30
 -6.1772883577739586E-02 a       681     0    14     1    31
  2.5534552270889321E-01 a       682     0    14     1    32
  2.1387514865279683E-01 a       683     0    14     1    33
  1.1023491411573588E-01 a       684     0    14     1    34
  1.6132180049734204E-01 a       685     0    14     1    35
  2.2729527044707890E-01 a       686     0    14     1    36
  2.2940408038573498E-01 a       687     0    14     1    37
  5.7010693607058363E-02 a       688     0    14     1    38
  3.2894065849076240E-02 a       689     0    14     1    39
  1.4618723979199728E-02 a       690     0    14     1    40
  1.1205884641963736E-01 a       691     0    14     1    41
  2.3900144696374628E-01 a       692     0    14     1    42
 -2.1570826163504606E-01 a       693     0    14     1    43
 -3.3715369873958588E-02 a       694     0    14     1    44
 -2.0722935987707816E-01 a       695     0    14     1    45
 -2.3900451008356183E-01 a       696     0    14     1    46
  1.4320168583331577E-01 a       697     0    14     1    47
 -2.5520606739495144E-01 a       698     0    14     1    48
  1.3518979818212656E-01 a       699     0    14     1    49
  2.0177914453409987E-01 a       700     0    14     1    50
  6.0969722573968391E-02 a       701     0    15     1     1
 -1.9498974077101647E-01 a       702     0    15     1     2
  1.6100457066629645E-01 a       703     0    15     1     3
  2.0171528886758838E-01 a       704     0    15     1     4
  8.4581576655593585E-02 a       705     0    15     1     5
 -1.1617998896332238E-01 a       706     0    15     1     6
 -2.9608757825033413E-02 a       707     0    15     1     7
 -2.0383518718581439E-01 a       708     0    15     1     8
  2.1649108389426970E-02 a       709     0    15     1     9
  1.3974323757197391E-01 a       710     0    15     1    10
 -1.8023981541918094E-01 a       711     0    15     1    11
  2.2308046372150041E-02 a       712     0    15     1    12
  2.0791789220176958E-02 a       713     0    15     1    13
 -3.8777604429517755E-02 a       714     0    15     1    14
 -4.6091879564361039E-02 a       715     0    15     1    15
 -1.2264811690865758E-01 a       716     0    15     1    16
  1.5942955781506127E-01 a       717     0    15     1    17
 -1.3680960966607078E-01 a       718     0    15     1    18
 -1.3656327242412250E-01 a       719     0    15     1    19
  1.1648500983951961E-01 a       720     0    15     1    20
 -1.9174659173100866E-01 a       721     0    15     1    21
 -2.4856734990945689E-01 a       722     0    15     1    22
 -4.4620552212934435E-02 a       723     0    15     1    23
  1.4549951813924400E-01 a       724     0    15     1    24
  9.2213221351499688E-02 a       725     0    15     1    25
  2.0008928847361382E-01 a       726     0    15     1    26
 -1.5173961894516694E-01 a       727     0    15     1    27
 -1.8338939553154535E-01 a       728     0    15     1    28
  8.4908235824957989E-02 a       729     0    15     1    29
  2.9303056850139654E-02 a       730     0    15     1    30
 -1.6518305567390351E-01 a       731     0    15     1    31
  1.5938049069789459E-01 a       732     0    15     1    32
 -1.9443086315631932E-02 a       733     0    15     1    33
 -2.0421075661796873E-01 a       734     0    15     1    34
 -1.3328623724953262E-02 a       735     0    15     1    35
 -8.7779827289714119E-02 a       736     0    15     1    36
  1.3877511166664250E-01 a       737     0    15     1    37
  2.1189160649619043E-01 a       738     0    15     1    38
 -2.4365411987667515E-01 a       739     0    15     1    39
  3.6961147027481593E-02 a       740     0    15     1    40
  1.0559657667013857E-01 a       741     0    15     1    41
  1.1070340246338549E-01 a       742     0    15     1    42
 -1.5964690030546397E-01 a       743     0    15     1    43
 -1.0705860335378137E-01 a       744     0    15     1    44
  8.9415761833856883E-02 a       745     0    15     1    45
 -6.4323371062938908E-02 a       746     0    15     1    46
 -3.9464611378097897E-02 a       747     0    15     1    47
 -4.3088875288696239E-02 a       748     0    15     1    48
 -9.7371326515113418E-02 a       749     0    15     1    49
 -5.8440676095043859E-02 a       750     0    15     1    50
 -2.2913916749475843E-01 a       751     0    16     1     1
 -1.3510093524254357E-01 a       752     0    16     1     2
 -3.0643792765320456E-02 a       753     0    16     1     3
  1.3465341270019110E-01 a       754     0    16     1     4
  1.3226079206951605E-01 a       755     0    16     1     5
  1.9736555586441318E-01 a       756     0    16     1     6
 -2.4160432131348286E-01 a       757     0    16     1     7
  8.5230967570025906E-02 a       758     0    16     1     8
  3.9316817809163213E-02 a       759     0    16     1     9
 -2.0358836546719369E-01 a       760     0    16     1    10
 -2.0292353587234924E-01 a       761     0    16     1    11
  3.6962148802515617E-02 a       762     0    16     1    12
  8.3087364262488805E-02 a       763     0    16     1    13
  2.1201564941085521E-01 a       764     0    16     1    14
 -1.2206875630046746E-01 a       765     0    16     1    15
 -2.2842137130445428E-01 a       766     0    16     1    16
 -2.0264995936354824E-01 a       767     0    16     1    17
  1.6111909719381470E-01 a       768     0    16     1    18
  1.0917408501427193E-01 a       769     0    16     1    19
  1.8787225615996805E-01 a       770     0    16     1    20
 -6.1121882616751513E-03 a       771     0    16     1    21
 -2.3425013904788619E-01 a       772     0    16     1    22
 -2.4619818977029258E-02 a       773     0    16     1    23
  2.0251863169876069E-01 a       774     0    16     1    24
  1.7125728969532963E-01 a       775     0    16     1    25
  4.9397802820006741E-03 a       776     0    16     1    26
  2.2182001108500757E-01 a       777     0    16     1    27
  1.4998397240337791E-01 a       778     0    16     1    28
 -1.2854030519338144E-01 a       779     0    16     1    29
 -7.4673304248736833E-02 a       780     0    16     1    30
  4.7238647026417967E-03 a       781     0    16     1    31
  2.3686907794959283E-01 a       782     0    16     1    32
  1.1353825373363359E-01 a       783     0    16     1    33
 -1.9275956003130129E-01 a       784     0    16     1    34
  5.3525335960623527E-03 a       785     0    16     1    35
 -2.1573046491315939E-01 a       786     0    16     1    36
 -1.5637318416472967E-01 a       787     0    16     1    37
 -2.2006194905716786E-01 a       788     0    16     1    38
  8.0482349962403540E-02 a       789     0    16     1    39
  8.7431648032831141E-02 a       790     0    16     1    40
 -5.7164956616330281E-02 a       791     0    16     1    41
  1.8913166742134541E-01 a       792     0    16     1    42
 -1.6353193824446952E-01 a       793     0    16     1    43
 -1.9933115728140569E-01 a       794     0    16     1    44
 -2.0925034896478176E-01 a       795     0    16     1    45
  2.2248465683082513E-01 a       796     0    16     1    46
  2.0426788550307301E-01 a       797     0    16     1    47
  3.2767799027133289E-02 a       798     0    16     1    48
 -2.2671035345988952E-01 a       799     0    16     1    49
  1.1727977229628193E-01 a       800     0    16     1    50
 -1.3015244627235542E-01 a       801     0    17     1     1
  1.3123053209040433E-01 a       802     0    17     1     2
 -1.3038424124654666E-01 a       803     0    17     1     3
  1.0219859559266108E-01 a       804     0    17     1     4
  8.6330459313196370E-02 a       805     0    17     1     5
 -2.2948607978687260E-01 a       806     0    17     1     6
  7.5306829681878948E-02 a       807     0    17     1     7
  1.8673109942296814E-02 a       808     0    17     1     8
 -1.1311986757555050E-01 a       809     0    17     1     9
 -1.8494008644084878E-01 a       810     0    17     1    10
 -1.9157386794862050E-01 a       811     0    17     1    11
 -7.6414863269650378E-03 a       812     0    17     1    12
 -3.5541417987618529E-03 a       813     0    17     1    13
 -4.1557345348544231E-02 a       814     0    17     1    14
 -1.1694097897222305E-03 a       815     0    17     1    15
  2.1411078471597178E-01 a       816     0    17     1    16
 -2.0248468420189022E-01 a       817     0    17     1    17
 -1.4080873151546772E-01 a       818     0    17     1    18
 -1.6485630434218734E-01 a       819     0    17     1    19
 -2.3245929909314983E-01 a       820     0    17     1    20
 -4.5767717340674377E-02 a       821     0    17     1    21
 -1.5115742651493441E-01 a       822     0    17     1    22
  1.9542733475240145E-01 a       823     0    17     1    23
 -2.6471398678352909E-02 a       824     0    17     1    24
  2.2756561520869040E-01 a       825     0    17     1    25
  5.2471103899759335E-02 a       826     0    17     1    26
  1.1535938168581947E-01 a       827     0    17     1    27
 -2.3955828475803051E-01 a       828     0    17     1    28
 -1.9129218032042897E-01 a       829     0    17     1    29
  1.9355597986444648E-01 a       830     0    17     1    30
 -1.9364888736370206E-01 a       831     0    17     1    31
 -1.8902950991386971E-01 a       832     0    17     1    32
 -3.7634072163306095E-02 a       833     0    17     1    33
 -1.5604524304678186E-01 a       834     0    17     1    34
 -1.6784557071931758E-01 a       835     0    17     1    35
 -5.1197292835782927E-02 a       836     0    17     1    36
 -2.1584396195747851E-01 a       837     0    17     1    37
  6.0726052926697610E-02 a       838     0    17     1    38
  1.8137071835130095E-01 a       839     0    17     1    39
 -1.0883316731827480E-01 a       840     0    17     1    40
  1.2319913919908512E-02 a       841     0    17     1    41
  1.8574887505619819E-01 a       842     0    17     1    42
  1.7042781687526246E-01 a       843     0    17     1    43
  1.5095720077326114E-01 a       844     0    17     1    44
  9.6951803133068976E-02 a       845     0    17     1    45
  1.8919762629218401E-01 a       846     0    17     1    46
  1.3498570114600200E-01 a       847     0    17     1    47
  7.0894739155815071E-03 a       848     0    17     1    48
 -9.2286238669292753E-02 a       849     0    17     1    49
  1.7055298203007399E-01 a       850     0    17     1    50
  9.3552943718649278E-02 a       851     0    18     1     1
  1.4118033927460644E-01 a       852     0    18     1     2
  1.5567772372848709E-01 a       853     0    18     1     3
 -2.2871375797087415E-01 a       854     0    18     1     4
  9.6991482771462453E-02 a       855     0    18     1     5
 -5.4867669079090409E-02 a       856     0    18     1     6
 -2.3495075831636414E-01 a       857     0    18     1     7
 -1.2326565425485183E-02 a       858     0    18     1     8
 -2.1960173320221371E-01 a       859     0    18     1     9
  1.3277471134306748E-01 a       860     0    18     1    10
  1.1319578176416843E-01 a       861     0    18     1    11
 -7.7885319419284574E-02 a       862     0    18     1    12
 -5.1395790206332691E-02 a       863     0    18     1    13
 -5.5646968595931247E-02 a       864     0    18     1    14
 -1.8576159821750990E-01 a       865     0    18     1    15
  1.7253948931710517E-01 a       866     0    18     1    16
 -3.9666584993637510E-02 a       867     0    18     1    17
 -4.3477884964718674E-02 a       868     0    18     1    18
  1.6323963232416169E-01 a       869     0    18     1    19
 -1.1398037294595037E-01 a       870     0    18     1    20
 -6.3638851308665104E-02 a       871     0    18     1    21
  5.8100528876307581E-02 a       872     0    18     1    22
 -1.4014586979494223E-01 a       873     0    18     1    23
 -1.9179265768524401E-01 a       874     0    18     1    24
 -1.4887844693968558E-01 a       875     0    18     1    25
  1.2288034058643353E-01 a       876     0    18     1    26
 -2.3111433036926046E-01 a       877     0    18     1    27
  4.6914560197481019E-02 a       878     0    18     1    28
 -2.2446215694256820E-03 a       879     0    18     1    29
  8.1755224419047571E-04 a       880     0    18     1    30
  8.6639984966229266E-02 a       881     0    18     1    31
  7.6244759633193437E-02 a       882     0    18     1    32
  1.1208665495252619E-01 a       883     0    18     1    33
 -1.7446647197356249E-01 a       884     0    18     1    34
 -1.3006160891789950E-01 a       885     0    18     1    35
 -1.3004786852206249E-01 a       886     0    18     1    36
  1.2189050004183194E-01 a       887     0    18     1    37
 -8.4373598097969710E-02 a       888     0    18     1    38
  1.7866931602588038E-02 a       889     0    18     1    39
  9.0887893673425119E-02 a       890     0    18     1    40
 -1.1652333915081059E-01 a       891     0    18     1    41
 -2.2081049215397380E-01 a       892     0    18     1    42
 -1.6240284193228263E-01 a       893     0    18     1    43
  2.4925553927128052E-01 a       894     0    18     1    44
  5.2067140376754702E-02 a       895     0    18     1    45
 -2.3454657990643091E-01 a       896     0    18     1    46
  2.2425718977492373E-01 a       897     0    18     1    47
  7.7792111292383460E-03 a       898     0    18     1    48
 -1.0892996644715863E-01 a       899     0    18     1    49
  4.1740981747978557E-02 a       900     0    18     1    50
  1.2781770585806018E-01 a       901     0    19     1     1
 -1.5497745384451175E-01 a       902     0    19     1     2
 -1.2492236647417490E-01 a       903     0    19     1     3
 -3.1937000139473010E-02 a       904     0    19     1     4
  7.1050096340311106E-02 a       905     0    19     1     5
  2.2218813605860246E-01 a       906     0    19     1     6
  2.2141423963395901E-01 a       907     0    19     1     7
 -1.2620828529279149E-01 a       908     0    19     1     8
 -1.9301957250138491E-01 a       909     0    19     1     9
 -2.4933966899031457E-01 a       910     0    19     1    10
 -2.3264545657885211E-01 a       911     0    19     1    11
 -5.9834288464958384E-02 a       912     0    19     1    12
  2.4225810046397056E-01 a       913     0    19     1    13
  1.6865037066700128E-01 a       914     0    19     1    14
 -4.3945852565350947E-02 a       915     0    19     1    15
  1.8172112603439031E-01 a       916     0    19     1    16
  1.6590065029622542E-01 a       917     0    19     1    17
  7.9683600740682106E-02 a       918     0    19     1    18
  2.3051078184103596E-01 a       919     0    19     1    19
  2.0843248848211926E-01 a       920     0    19     1    20
 -2.2025924141983302E-01 a       921     0    19     1    21
  8.5021328544120922E-03 a       922     0    19     1    22
 -5.2840258118715025E-02 a       923     0    19     1    23
  2.2532122434244206E-01 a       924     0    19     1    24
  9.2781124573955279E-02 a       925     0    19     1    25
  1.4918032180941024E-01 a       926     0    19     1    26
  4.1401486681935364E-02 a       927     0    19     1    27
  1.8561643704318026E-01 a       928     0    19     1    28
  2.2449311409815123E-01 a       929     0    19     1    29
  1.2576597057736977E-01 a       930     0    19     1    30
  2.4092216745596853E-01 a       931     0    19     1    31
 -3.4775207546355741E-02 a       932     0    19     1    32
 -8.2781848563651908E-02 a       933     0    19     1    33
  1.6994745028695840E-01 a       934     0    19     1    34
 -1.4660756754326421E-01 a       935     0    19     1    35
  9.9015371584050840E-02 a       936     0    19     1    36
  1.0967593042514481E-01 a       937     0    19     1    37
  7.0257610472016410E-02 a       938     0    19     1    38
  6.8250793099956117E-02 a       939     0    19     1    39
 -1.8901396848730026E-01 a       940     0    19     1    40
  2.2084151459617762E-01 a       941     0    19     1    41
 -2.0415118204134619E-01 a       942     0    19     1    42
  2.4288139587606547E-01 a       943     0    19     1    43
 -1.4840343635159012E-01 a       944     0    19     1    44
 -1.7153826951665949E-01 a       945     0    19     1    45
  5.8943060447566087E-02 a       946     0    19     1    46
 -1.4607501565840517E-01 a       947     0    19     1    47
  8.4083973210204877E-03 a       948     0    19     1    48
 -1.3533273592485467E-01 a       949     0    19     1    49
  1.7331263429155394E-01 a       950     0    19     1    50
  2.6361764485224443E-02 a       951     0    20     1     1
  2.3340233888200432E-01 a       952     0    20     1     2
  1.6643710058910502E-01 a       953     0    20     1     3
  1.1406587154347643E-02 a       954     0    20     1     4
  5.6765878768242281E-02 a       955     0    20     1     5
  2.4326581182371787E-01 a       956     0    20     1     6
 -9.9174357230066110E-02 a       957     0    20     1     7
  9.3311956412032264E-03 a       958     0    20     1     8
 -1.5057582118861249E-01 a       959     0    20     1     9
 -3.4896296508997143E-02 a       960     0    20     1    10
 -8.0093184264438483E-02 a       961     0    20     1    11
  1.8383494698876143E-01 a       962     0    20     1    12
  9.9364353902045496E-02 a       963     0    20     1    13
  1.2905697423475240E-01 a       964     0    20     1    14
 -1.2710292081989708E-01 a       965     0    20     1    15
 -1.7891876514450128E-01 a       966     0    20     1    16
 -2.5362158477288183E-01 a       967     0    20     1    17
 -9.5011900385165021E-02 a       968     0    20     1    18
 -8.1487345089535465E-02 a       969     0    20     1    19
 -1.0602681550125595E-01 a       970     0    20     1    20
 -1.2872767303833066E-01 a       971     0    20     1    21
  1.4446449663682245E-01 a       972     0    20     1    22
 -5.3268004285244551E-02 a       973     0    20     1    23
  1.8849083226505620E-01 a       974     0    20     1    24
 -2.1376863620663156E-01 a       975     0    20     1    25
 -7.4380508857151723E-02 a       976     0    20     1    26
  6.5611013971589111E-02 a       977     0    20     1    27
 -7.8526865712172003E-02 a       978     0    20     1    28
 -1.1626346759993582E-01 a       979     0    20     1    29
  1.8387447845387708E-01 a       980     0    20     1    30
  1.5420099292810563E-01 a       981     0    20     1    31
  1.6535106859254553E-01 a       982     0    20     1    32
  2.3459989909721066E-01 a       983     0    20     1    33
  1.5270895069081705E-01 a       984     0    20     1    34
  1.7919750988015160E-01 a       985     0    20     1    35
 -5.1594207068608705E-02 a       986     0    20     1    36
 -2.4222556239702689E-01 a       987     0    20     1    37
  2.0868636246389791E-01 a       988     0    20     1    38
  1.8841758674138820E-01 a       989     0    20     1    39
  2.0309783259851411E-01 a       990     0    20     1    40
  5.6515411701581114E-02 a       991     0    20     1    41
  2.3326964019817983E-01 a       992     0    20     1    42
 -2.4862884550624792E-01 a       993     0    20     1    43
  1.7042745381505606E-01 a       994     0    20     1    44
  2.5156694025377357E-01 a       995     0    20     1    45
  2.3051680723721636E-03 a       996     0    20     1    46
 -6.7771560643715145E-02 a       997     0    20     1    47
  2.2913106600782020E-05 a       998     0    20     1    48
  8.2294846880615752E-02 a       999     0    20     1    49
  5.6598418229115127E-02 a      1000     0    20     1    50
 -1.6941350133976560E-01 a      1001     0    21     1     1
  5.1525512819169353E-02 a      1002     0    21     1     2
 -7.5589796880270607E-02 a      1003     0    21     1     3
  1.0177281397071393E-01 a      1004     0    21     1     4
 -2.6714786368286836E-02 a      1005     0    21     1     5
  1.2484954810814251E-01 a      1006     0    21     1     6
 -2.1624035924870019E-01 a      1007     0    21     1     7
 -2.7557561010315708E-02 a      1008     0    21     1     8
 -1.6717201400381529E-01 a      1009     0    21     1     9
  6.5409871601002936E-02 a      1010     0    21     1    10
  1.1242584748821723E-01 a      1011     0    21     1    11
  2.1806389186529287E-01 a      1012     0    21     1    12
 -2.2575953124421269E-01 a      1013     0    21     1    13
 -2.0031845985321808E-01 a      1014     0    21     1    14
  9.9534429711418168E-02 a      1015     0    21     1    15
  7.3081927288158544E-02 a      1016     0    21     1    16
 -1.2325174499380254E-01 a      1017     0    21     1    17
 -1.0366457859795711E-01 a      1018     0    21     1    18
 -9.8431310814839273E-02 a      1019     0    21     1    19
  1.8703745433434243E-01 a      1020     0    21     1    20
 -1.4238696422197605E-01 a      1021     0    21     1    21
  5.6422171823263319E-02 a      1022     0    21     1    22
  7.8276240007346620E-02 a      1023     0    21     1    23
 -2.2608191443721216E-02 a      1024     0    21     1    24
  2.6170861887056890E-02 a      1025     0    21     1    25
  2.3837332212549911E-01 a      1026     0    21     1    26
  8.1045202806900946E-02 a      1027     0    21     1    27
  2.0829550335704345E-02 a      1028     0    21     1    28
 -2.3615124501326712E-01 a      1029     0    21     1    29
 -1.4475780694838589E-01 a      1030     0    21     1    30
  9.2031667226619693E-02 a      1031     0    21     1    31
  1.4523115040872706E-01 a      1032     0    21     1    32
  3.2148504412458791E-02 a      1033     0    21     1    33
  1.7938751083322088E-01 a      1034     0    21     1    34
 -1.1204155616784826E-01 a      1035     0    21     1    35
 -1.8737261634282215E-01 a      1036     0    21     1    36
 -1.3592405028736812E-01 a      1037     0    21     1    37
 -6.1976229639346098E-02 a      1038     0    21     1    38
  1.0188116752336977E-01 a      1039     0    21     1    39
 -1.5649479767980165E-01 a      1040     0    21     1    40
 -5.0213223081432508E-02 a      1041     0    21     1    41
 -3.2596325085154379E-02 a      1042     0    21     1    42
  2.0071187500857463E-01 a      1043     0    21     1    43
  3.3382754400447814E-02 a      1044     0    21     1    44
  7.9363957088454104E-02 a      1045     0    21     1    45
  1.4591671700839789E-01 a      1046     0    21     1    46
 -1.5339821638999029E-01 a      1047     0    21     1    47
 -1.1166673331020291E-01 a      1048     0    21     1    48
 -5.2208301467178897E-03 a      1049     0    21     1    49
 -7.4570205258243052E-02 a      1050     0    21     1    50
 -1.3238080053263715E-01 a      1051     0    22     1     1
  1.4561397807203066E-01 a      1052     0    22     1     2
  1.7180441167502999E-01 a      1053     0    22     1     3
 -2.0866061539470979E-01 a      1054     0    22     1     4
 -1.6566351216509526E-01 a      1055     0    22     1     5
  8.3360667851809400E-02 a      1056     0    22     1     6
  7.3953547557101845E-02 a      1057     0    22     1     7
 -3.6251192366824066E-02 a      1058     0    22     1     8
 -2.7159238774593114E-02 a      1059     0    22     1     9
  1.0445083655073582E-01 a      1060     0    22     1    10
 -2.1835410088398924E-01 a      1061     0    22     1    11
 -2.2454560037910923E-01 a      1062     0    22     1    12
 -1.6257748043212365E-03 a      1063     0    22     1    13
 -2.5337966954003138E-01 a      1064     0    22     1    14
 -2.6908901805496904E-02 a      1065     0    22     1    15
  6.2509515255444445E-02 a      1066     0    22     1    16
  2.2556445601043337E-01 a      1067     0    22     1    17
 -4.3095674848631568E-02 a      1068     0    22     1    18
 -2.0920225282258573E-01 a      1069     0    22     1    19
 -1.0781754759631092E-01 a      1070     0    22     1    20
  1.1940851713000604E-02 a      1071     0    22     1    21
 -2.4739740010781283E-01 a      1072     0    22     1    22
 -2.5258989146109145E-01 a      1073     0    22     1    23
 -1.8523635938553454E-01 a      1074     0    22     1    24
 -2.4921462905738231E-01 a      1075     0    22     1    25
  2.4445710143142851E-01 a      1076     0    22     1    26
 -2.1733406438537073E-01 a      1077     0    22     1    27
 -2.4002419945714185E-01 a      1078     0    22     1    28
 -5.2776349652094892E-02 a      1079     0    22     1    29
 -1.8910472985241064E-01 a      1080     0    22     1    30
 -6.8451876367717990E-02 a      1081     0    22     1    31
 -1.2442693318460242E-02 a      1082     0    22     1    32
  7.1288758777280081E-02 a      1083     0    22     1    33
  4.3188225828234728E-02 a      1084     0    22     1    34
 -2.4998620394211430E-02 a      1085     0    22     1    35
  9.6302935581875582E-02 a      1086     0    22     1    36
  1.2998703922934501E-01 a      1087     0    22     1    37
  1.0604798156642453E-01 a      1088     0    22     1    38
  1.6074198002874635E-01 a      1089     0    22     1    39
  2.3083489721057215E-01 a      1090     0    22     1    40
 -8.2689575260295717E-02 a      1091     0    22     1    41
  1.2238282894663911E-01 a      1092     0    22     1    42
 -1.4630454046576361E-01 a      1093     0    22     1    43
  1.3470248956872918E-02 a      1094     0    22     1    44
 -1.4269380693975936E-01 a      1095     0    22     1    45
  2.4299164083801808E-01 a      1096     0    22     1    46
 -1.7471673735332224E-01 a      1097     0    22     1    47
  2.5351822368455151E-01 a      1098     0    22     1    48
  2.1935899695145789E-01 a      1099     0    22     1    49
 -3.5448039330636831E-02 a      1100     0    22     1    50
  3.1431253823277140E-02 a      1101     0    23     1     1
  2.3973583332872353E-01 a      1102     0    23     1     2
 -1.5364125493325995E-01 a      1103     0    23     1     3
  1.1691193368003296E-01 a      1104     0    23     1     4
  1.4998278273606542E-02 a      1105     0    23     1     5
 -1.9992639419252992E-01 a      1106     0    23     1     6
  1.9376425084429361E-01 a      1107     0    23     1     7
  3.3990358072150506E-02 a      1108     0    23     1     8
 -1.9963257466910803E-01 a      1109     0    23     1     9
  3.2946046010074045E-02 a      1110     0    23     1    10
 -2.3156196564698003E-01 a      1111     0    23     1    11
  2.3528880815781231E-01 a      1112     0    23     1    12
 -1.0797458368155842E-01 a      1113     0    23     1    13
  2.0833040613155496E-01 a      1114     0    23     1    14
  1.2928209915197744E-01 a      1115     0    23     1    15
  6.5037067515078567E-02 a      1116     0    23     1    16
 -1.9855243154952912E-01 a      1117     0    23     1    17
  2.2978076694451199E-01 a      1118     0    23     1    18
 -3.5970271529399335E-02 a      1119     0    23     1    19
 -7.0206966367821450E-02 a      1120     0    23     1    20
  2.2450006313947518E-01 a      1121     0    23     1    21
  1.1209524733777169E-01 a      1122     0    23     1    22
  1.8914345623478884E-01 a      1123     0    23     1    23
 -1.4856398816298980E-01 a      1124     0    23     1    24
  1.9494054284276985E-01 a      1125     0    23     1    25
  4.0597675309258542E-02 a      1126     0    23     1    26
 -1.7824283789439213E-01 a      1127     0    23     1    27
 -2.1038628063157219E-01 a      1128     0    23     1    28
 -1.8517921563553480E-01 a      1129     0    23     1    29
  1.8327202576574497E-01 a      1130     0    23     1    30
  1.2148145308134164E-01 a      1131     0    23     1    31
 -1.5174115193210469E-01 a      1132     0    23     1    32
  1.4097872015709348E-01 a      1133     0    23     1    33
 -1.0716608677491728E-01 a      1134     0    23     1    34
 -2.4598755539098842E-02 a      1135     0    23     1    35
 -9.9678042201480452E-02 a      1136     0    23     1    36
  2.1268767504212638E-01 a      1137     0    23     1    37
 -2.4132290422638850E-01 a      1138     0    23     1    38
 -2.5378478098972207E-01 a      1139     0    23     1    39
 -2.6520922088350257E-02 a      1140     0    23     1    40
  5.0013871871288224E-02 a      1141     0    23     1    41
  1.6910715451489443E-02 a      1142     0    23     1    42
 -6.1335244288153290E-02 a      1143     0    23     1    43
  9.5364911803341029E-02 a      1144     0    23     1    44
 -1.9241546041524418E-02 a      1145     0    23     1    45
 -8.2977628274556306E-02 a      1146     0    23     1    46
 -6.6455453600827302E-02 a      1147     0    23     1    47
  4.5092938017251297E-02 a      1148     0    23     1    48
  2.3210329007961741E-01 a      1149     0    23     1    49
  1.4866262221456769E-01 a      1150     0    23     1    50
 -1.6287905455528359E-01 a      1151     0    24     1     1
  2.0704043133702607E-01 a      1152     0    24     1     2
  2.2503700100092547E-01 a      1153     0    24     1     3
  2.4021894136050569E-02 a      1154     0    24     1     4
 -1.3514471854343396E-01 a      1155     0    24     1     5
 -9.6643390325568887E-02 a      1156     0    24     1     6
 -2.4630171936707770E-01 a      1157     0    24     1     7
 -2.0781585468372993E-01 a      1158     0    24     1     8
 -2.5007935486889776E-01 a      1159     0    24     1     9
 -1.1224568650133861E-02 a      1160     0    24     1    10
  2.5464448282333363E-01 a      1161     0    24     1    11
  9.3528404511405663E-02 a      1162     0    24     1    12
  1.3513647209403531E-01 a      1163     0    24     1    13
  5.6681603373232838E-02 a      1164     0    24     1    14
  2.5289040874964464E-01 a      1165     0    24     1    15
  2.3706128235584412E-01 a      1166     0    24     1    16
 -1.5547809805291327E-01 a      1167     0    24     1    17
  3.7519529224943268E-02 a      1168     0    24     1    18
 -1.5434035429590816E-03 a      1169     0    24     1    19
  1.2812314521079404E-01 a      1170     0    24     1    20
  8.7218683075759071E-02 a      1171     0    24     1    21
  1.1881110506846072E-01 a      1172     0    24     1    22
 -3.2166648860599910E-02 a      1173     0    24     1    23
  1.1164412225827762E-01 a      1174     0    24     1    24
 -8.6453931415875956E-02 a      1175     0    24     1    25
  1.0053405397344603E-02 a      1176     0    24     1    26
 -2.1073051831277823E-02 a      1177     0    24     1    27
 -2.1973544650434187E-01 a      1178     0    24     1    28
 -2.1765139339499875E-01 a      1179     0    24     1    29
  2.0876239949601183E-01 a      1180     0    24     1    30
  1.2779489716248502E-01 a      1181     0    24     1    31
  2.4298666787643539E-01 a      1182     0    24     1    32
  2.0354852338522278E-01 a      1183     0    24     1    33
  1.8433123364225182E-01 a      1184     0    24     1    34
 -1.5563240494335653E-01 a      1185     0    24     1    35
 -5.8225155208388911E-02 a      1186     0    24     1    36
 -9.6796756208670731E-02 a      1187     0    24     1    37
  8.2987127180585804E-02 a      1188     0    24     1    38
 -8.1506187831005134E-02 a      1189     0    24     1    39
  7.7369007848919369E-02 a      1190     0    24     1    40
  2.3989221262343058E-01 a      1191     0    24     1    41
  2.1593272310225747E-01 a      1192     0    24     1    42
 -2.2973867824170266E-01 a      1193     0    24     1    43
  2.2462064610107552E-01 a      1194     0    24     1    44
 -2.3950142213293349E-01 a      1195     0    24     1    45
 -1.4844258489699905E-01 a      1196     0    24     1    46
 -1.8262261451613568E-01 a      1197     0    24     1    47
 -2.3064583345943110E-01 a      1198     0    24     1    48
 -7.6755033677623555E-02 a      1199     0    24     1    49
  1.2547924886314549E-01 a      1200     0    24     1    50
  3.3111966427113643E-02 a      1201     0    25     1     1
  1.1825049361235852E-01 a      1202     0    25     1     2
  2.4612679260718417E-01 a      1203     0    25     1     3
  2.2976291539427077E-01 a      1204     0    25     1     4
 -2.2213952285588318E-01 a      1205     0    25     1     5
 -8.4849089000566869E-02 a      1206     0    25     1     6
 -1.2668900697371799E-01 a      1207     0    25     1     7
 -2.3621264999365549E-01 a      1208     0    25     1     8
 -2.3314458290304968E-01 a      1209     0    25     1     9
 -1.5824512603767610E-01 a      1210     0    25     1    10
  1.7519977153630378E-01 a      1211     0    25     1    11
 -1.3360347873465625E-01 a      1212     0    25     1    12
 -2.2701827715286979E-01 a      1213     0    25     1    13
 -1.5478959997694096E-02 a      1214     0    25     1    14
 -1.8872866631113164E-01 a      1215     0    25     1    15
  7.4260104868892562E-02 a      1216     0    25     1    16
 -2.4255873560141486E-01 a      1217     0    25     1    17
  1.5528759633124614E-01 a      1218     0    25     1    18
 -2.1293735640987377E-01 a      1219     0    25     1    19
  9.6981886708476309E-02 a      1220     0    25     1    20
 -3.6703726043810767E-02 a      1221     0    25     1    21
 -4.5612820849018063E-02 a      1222     0    25     1    22
  1.0363261526733103E-01 a      1223     0    25     1    23
  2.7916632549067878E-02 a      1224     0    25     1    24
 -5.0094872470370928E-02 a      1225     0    25     1    25
  9.6646016536377444E-02 a      1226     0    25     1    26
 -2.1256205728097827E-01 a      1227     0    25     1    27
 -1.8197457904232986E-01 a      1228     0    25     1    28
  2.3721082534459428E-01 a      1229     0    25     1    29
  1.9434080781428312E-01 a      1230     0    25     1    30
 -1.4909097998235551E-01 a      1231     0    25     1    31
  2.1013041903489341E-01 a      1232     0    25     1    32
  2.2711883603002945E-02 a      1233     0    25     1    33
  2.1141006106221777E-01 a      1234     0    25     1    34
  1.5973557475817265E-01 a      1235     0    25     1    35
  1.2554057821094583E-01 a      1236     0    25     1    36
  1.3127729300823165E-01 a      1237     0    25     1    37
 -2.0306746730360828E-02 a      1238     0    25     1    38
  2.1299683525656959E-01 a      1239     0    25     1    39
 -2.0910000648249483E-01 a      1240     0    25     1    40
 -2.9865681726600465E-02 a      1241     0    25     1    41
  4.2641683579456836E-02 a      1242     0    25     1    42
  7.7968614801466926E-02 a      1243     0    25     1    43
 -8.0957286107102608E-02 a      1244     0    25     1    44
  1.8533443427920526E-01 a      1245     0    25     1    45
 -1.9578764328829321E-01 a      1246     0    25     1    46
 -4.1175622919946982E-02 a      1247     0    25     1    47
 -1.3395455260290001E-01 a      1248     0    25     1    48
  5.4469488476091642E-02 a      1249     0    25     1    49
  1.6922234473026462E-01 a      1250     0    25     1    50
  1.6561959412879254E-01 a      1251     0    26     1     1
  8.9424013515698716E-02 a      1252     0    26     1     2
 -3.0076278765287272E-02 a      1253     0    26     1     3
 -8.4304747588749410E-02 a      1254     0    26     1     4
  2.1405685083203546E-01 a      1255     0    26     1     5
  7.9814645140021998E-02 a      1256     0    26     1     6
 -1.7271425161179546E-01 a      1257     0    26     1     7
  2.0374449253435478E-01 a      1258     0    26     1     8
 -2.3454913797655874E-01 a      1259     0    26     1     9
 -1.8237497273096293E-01 a      1260     0    26     1    10
 -1.2050160317351095E-01 a      1261     0    26     1    11
  1.3300069057556368E-01 a      1262     0    26     1    12
  4.0971609246156108E-02 a      1263     0    26     1    13
 -1.7900366557863450E-03 a      1264     0    26     1    14
  2.5145961606539768E-01 a      1265     0    26     1    15
  2.3599535328713075E-01 a      1266     0    26     1    16
 -1.3582027738197433E-01 a      1267     0    26     1    17
  9.3318264241226176E-02 a      1268     0    26     1    18
 -8.6050349623386438E-02 a      1269     0    26     1    19
 -9.2500732213293510E-02 a      1270     0    26     1    20
  5.6387281059587326E-02 a      1271     0    26     1    21
 -5.7760426371176808E-02 a      1272     0    26     1    22
 -1.0529245981742288E-01 a      1273     0    26     1    23
 -1.2614199130774989E-01 a      1274     0    26     1    24
  9.7346271674376511E-02 a      1275     0    26     1    25
 -1.0639759653436945E-01 a      1276     0    26     1    26
 -2.2162372703793043E-01 a      1277     0    26     1    27
 -4.5676526439545118E-02 a      1278     0    26     1    28
  1.7027462199791785E-01 a      1279     0    26     1    29
 -1.5871277981063570E-01 a      1280     0    26     1    30
 -2.4563622037626145E-01 a      1281     0    26     1    31
  1.7140802175679645E-01 a      1282     0    26     1    32
 -8.3665395473349238E-02 a      1283     0    26     1    33
 -1.1271431327089462E-01 a      1284     0    26     1    34
 -3.1867877662125600E-02 a      1285     0    26     1    35
 -8.6565892619197407E-02 a      1286     0    26     1    36
  5.3563746969379898E-02 a      1287     0    26     1    37
  3.7650848803227686E-02 a      1288     0    26     1    38
  2.0614968458548880E-01 a      1289     0    26     1    39
 -1.3073394564170257E-01 a      1290     0    26     1    40
 -2.1030333832038650E-01 a      1291     0    26     1    41
  8.0377367768035266E-02 a      1292     0    26     1    42
 -1.1076765091989429E-01 a      1293     0    26     1    43
  6.8016807634771692E-02 a      1294     0    26     1    44
  5.9499266662172520E-02 a      1295     0    26     1    45
  1.2214773491701177E-01 a      1296     0    26     1    46
 -2.5268922654113868E-01 a      1297     0    26     1    47
 -8.7806852026395779E-02 a      1298     0    26     1    48
  5.4394668105940333E-02 a      1299     0    26     1    49
  9.1068908856655764E-02 a      1300     0    26     1    50
  2.5079286961255542E-01 a      1301     0    27     1     1
 -3.8475772846368647E-02 a      1302     0    27     1     2
 -1.1438122078686913E-01 a      1303     0    27     1     3
  3.7101762992459923E-02 a      1304     0    27     1     4
 -7.9763563770062551E-02 a      1305     0    27     1     5
  2.0336403861647545E-01 a      1306     0    27     1     6
 -8.9269400646247540E-02 a      1307     0    27     1     7
 -3.1647278332589859E-02 a      1308     0    27     1     8
  1.7900293410685930E-01 a      1309     0    27     1     9
 -7.2367034509233244E-03 a      1310     0    27     1    10
 -3.2792170677275412E-02 a      1311     0    27     1    11
 -2.0830125167157271E-01 a      1312     0    27     1    12
 -1.8589218382671668E-01 a      1313     0    27     1    13
 -1.9870566555127855E-01 a      1314     0    27     1    14
 -3.1275368994452282E-02 a      1315     0    27     1    15
 -1.5450975737957243E-01 a      1316     0    27     1    16
 -2.6329018428663666E-02 a      1317     0    27     1    17
  2.7294238544232925E-02 a      1318     0    27     1    18
  8.7763340455794189E-02 a      1319     0    27     1    19
 -1.2914558363867859E-01 a      1320     0    27     1    20
 -1.5595013815922160E-01 a      1321     0    27     1    21
 -1.2113906946881503E-01 a      1322     0    27     1    22
  8.2818915548021454E-02 a      1323     0    27     1    23
 -1.7442395801582422E-01 a      1324     0    27     1    24
 -2.0394050306735570E-01 a      1325     0    27     1    25
 -7.9463991294264028E-02 a      1326     0    27     1    26
  5.6336133570572926E-02 a      1327     0    27     1    27
  1.8858234912361282E-01 a      1328     0    27     1    28
 -2.1339935605228164E-01 a      1329     0    27     1    29
  8.1118599238987510E-02 a      1330     0    27     1    30
 -6.2884791551860539E-02 a      1331     0    27     1    31
 -1.2835041221891272E-01 a      1332     0    27     1    32
  2.4455800897957577E-01 a      1333     0    27     1    33
 -2.3548651019699604E-01 a      1334     0    27     1    34
  2.2794926757639342E-01 a      1335     0    27     1    35
 -2.4019803144721544E-01 a      1336     0    27     1    36
  1.7172381385515434E-01 a      1337     0    27     1    37
 -9.1728301943017856E-02 a      1338     0    27     1    38
  2.0168495175652429E-01 a      1339     0    27     1    39
 -1.0089780141371027E-01 a      1340     0    27     1    40
 -2.7475717393282369E-02 a      1341     0    27     1    41
  1.3749298874772750E-01 a      1342     0    27     1    42
  5.7040679311994059E-02 a      1343     0    27     1    43
  1.6457084400353117E-01 a      1344     0    27     1    44
  1.6862966910008565E-02 a      1345     0    27     1    45
 -1.4799135350377274E-01 a      1346     0    27     1    46
 -3.8140201042451215E-02 a      1347     0    27     1    47
 -6.2766854184892404E-02 a      1348     0    27     1    48
  4.9960530918301542E-02 a      1349     0    27     1    49
 -1.0336791060380993E-01 a      1350     0    27     1    50
  7.8981446344721457E-02 a      1351     0    28     1     1
  1.1288635909513119E-01 a      1352     0    28     1     2
 -1.2520562811641558E-01 a      1353     0    28     1     3
  1.5406121296484729E-01 a      1354     0    28     1     4
 -1.3743997886569223E-01 a      1355     0    28     1     5
  2.4723761746556322E-01 a      1356     0    28     1     6
  4.5352740832849521E-02 a      1357     0    28     1     7
 -1.1504827048357850E-01 a      1358     0    28     1     8
  9.7754883033970605E-02 a      1359     0    28     1     9
  1.3194498724680766E-02 a      1360     0    28     1    10
 -1.4320277227879427E-01 a      1361     0    28     1    11
 -1.6940190684023546E-01 a      1362     0    28     1    12
  1.6632025692168437E-01 a      1363     0    28     1    13
 -1.9306328944538201E-01 a      1364     0    28     1    14
 -2.1024246193568025E-01 a      1365     0    28     1    15
  8.5371054701483789E-02 a      1366     0    28     1    16
 -1.6574847931287925E-01 a      1367     0    28     1    17
 -3.2100149383243640E-02 a      1368     0    28     1    18
  2.0448644572571079E-01 a      1369     0    28     1    19
 -1.2802274663666691E-01 a      1370     0    28     1    20
  8.2460853870806428E-02 a      1371     0    28     1    21
 -2.3965295392577540E-01 a      1372     0    28     1    22
 -5.9127162296606674E-03 a      1373     0    28     1    23
 -5.3741385918637252E-03 a      1374     0    28     1    24
  1.7103222590255465E-01 a      1375     0    28     1    25
 -2.3957727020249646E-03 a      1376     0    28     1    26
 -1.6848270534907442E-01 a      1377     0    28     1    27
  6.9058442945395065E-02 a      1378     0    28     1    28
 -1.2592059426846483E-01 a      1379     0    28     1    29
 -2.5308781622606019E-01 a      1380     0    28     1    30
  7.2160566700663523E-02 a      1381     0    28     1    31
 -4.1305556852137333E-02 a      1382     0    28     1    32
  7.8441676066632951E-02 a      1383     0    28     1    33
  8.9323684390363103E-02 a      1384     0    28     1    34
 -2.1180514382100521E-01 a      1385     0    28     1    35
  1.4991520014296725E-01 a      1386     0    28     1    36
 -1.2143596757154373E-02 a      1387     0    28     1    37
 -1.4553548024566471E-01 a      1388     0    28     1    38
 -1.4788795293428011E-01 a      1389     0    28     1    39
  3.1028693308564458E-02 a      1390     0    28     1    40
 -9.8474510936151435E-02 a      1391     0    28     1    41
  1.9328420141339883E-01 a      1392     0    28     1    42
  2.1838370259894574E-02 a      1393     0    28     1    43
 -1.8127922670360699E-01 a      1394     0    28     1    44
  1.5488435880973520E-01 a      1395     0    28     1    45
 -6.6573586589819531E-02 a      1396     0    28     1    46
  4.7379197823694652E-02 a      1397     0    28     1    47
  1.7920701972674414E-02 a      1398     0    28     1    48
 -9.2619509149556543E-03 a      1399     0    28     1    49
  1.6413622276339745E-01 a      1400     0    28     1    50
  8.6422236842559577E-02 a      1401     0    29     1     1
  1.3101138702332005E-01 a      1402     0    29     1     2
  1.1776900847040181E-01 a      1403     0    29     1     3
 -3.0303958303984403E-02 a      1404     0    29     1     4
  2.5384491983777580E-01 a      1405     0    29     1     5
 -1.6509945609650073E-01 a      1406     0    29     1     6
 -5.0327510581431964E-02 a      1407     0    29     1     7
 -2.1109637086007621E-01 a      1408     0    29     1     8
  1.1272565185638474E-01 a      1409     0    29     1     9
  1.3934470092499937E-01 a      1410     0    29     1    10
 -5.4924356655178634E-02 a      1411     0    29     1    11
 -1.2657666285068980E-01 a      1412     0    29     1    12
 -9.6276648857523114E-02 a      1413     0    29     1    13
  2.0003249125405678E-01 a      1414     0    29     1    14
 -1.1073150781850661E-02 a      1415     0    29     1    15
  6.5161869847522008E-02 a      1416     0    29     1    16
  2.1737863707166898E-02 a      1417     0    29     1    17
 -1.3396853583166904E-01 a      1418     0    29     1    18
 -1.5018993563793653E-01 a      1419     0    29     1    19
  2.9184193102887210E-02 a      1420     0    29     1    20
  2.3648250718669631E-01 a      1421     0    29     1    21
  1.8829881622676001E-01 a      1422     0    29     1    22
 -1.4299171252564197E-01 a      1423     0    29     1    23
  1.8396397071367374E-01 a      1424     0    29     1    24
 -5.7154227253715197E-02 a      1425     0    29     1    25
  1.0108728649544792E-01 a      1426     0    29     1    26
  1.4154627173558235E-01 a      1427     0    29     1    27
 -2.1787496047118087E-02 a      1428     0    29     1    28
  2.2385153771871541E-01 a      1429     0    29     1    29
 -1.0190524687020781E-01 a      1430     0    29     1    30
 -2.3500317776475221E-02 a      1431     0    29     1    31
  1.3194403434754987E-01 a      1432     0    29     1    32
  2.4751578568110849E-01 a      1433     0    29     1    33
 -2.7356387839666173E-02 a      1434     0    29     1    34
 -1.6052932295338879E-01 a      1435     0    29     1    35
  2.3202245798898952E-01 a      1436     0    29     1    36
  5.8549344664564025E-02 a      1437     0    29     1    37
 -1.2114748192936603E-01 a      1438     0    29     1    38
 -3.7611259543398542E-02 a      1439     0    29     1    39
  2.4220637264943787E-01 a      1440     0    29     1    40
 -1.7480352586701567E-01 a      1441     0    29     1    41
 -1.2987346667135702E-01 a      1442     0    29     1    42
 -1.5746988475621168E-01 a      1443     0    29     1    43
 -2.2781952676892472E-01 a      1444     0    29     1    44
  7.0856385822853044E-02 a      1445     0    29     1    45
  1.3547585192740899E-01 a      1446     0    29     1    46
 -1.5082040365938293E-01 a      1447     0    29     1    47
  8.4475166123151521E-02 a      1448     0    29     1    48
 -1.6429652365536193E-01 a      1449     0    29     1    49
  1.0351927638549947E-01 a      1450     0    29     1    50
  1.2925712493843344E-01 a      1451     0    30     1     1
  3.7949944651018572E-02 a      1452     0    30     1     2
 -7.2423061013691115E-02 a      1453     0    30     1     3
  4.1815349036116618E-02 a      1454     0    30     1     4
  1.8661442961536462E-01 a      1455     0    30     1     5
  2.0317867253780683E-01 a      1456     0    30     1     6
  9.8792856228951450E-03 a      1457     0    30     1     7
  2.7920374816226660E-02 a      1458     0    30     1     8
 -1.6756814907828127E-01 a      1459     0    30     1     9
  1.3351770353115572E-01 a      1460     0    30     1    10
 -2.2461036470694966E-02 a      1461     0    30     1    11
  1.2168562242031764E-01 a      1462     0    30     1    12
 -1.2740962559145063E-02 a      1463     0    30     1    13
 -9.8335608001724514E-02 a      1464     0    30     1    14
  2.3986494434030189E-01 a      1465     0    30     1    15
 -1.3354841892407915E-01 a      1466     0    30     1    16
  4.6075388092593719E-02 a      1467     0    30     1    17
 -9.9840766903837086E-02 a      1468     0    30     1    18
  3.6671974508215029E-02 a      1469     0    30     1    19
  1.1340627569994041E-01 a      1470     0    30     1    20
 -2.4784095217713162E-01 a      1471     0    30     1    21
 -1.3132027277233371E-01 a      1472     0    30     1    22
  7.5812803014758096E-02 a      1473     0    30     1    23
 -2.1918700535435989E-01 a      1474     0    30     1    24
 -2.4975485408235235E-01 a      1475     0    30     1    25
  1.7642540654440621E-02 a      1476     0    30     1    26
 -2.5958918326680840E-02 a      1477     0    30     1    27
 -8.1938141595380543E-02 a      1478     0    30     1    28
  2.4093960350265217E-01 a      1479     0    30     1    29
  1.1033175153659038E-02 a      1480     0    30     1    30
  1.5623278677317401E-01 a      1481     0    30     1    31
  1.3773760927263029E-01 a      1482     0    30     1    32
  2.1272633922978201E-01 a      1483     0    30     1    33
 -1.9444657059404113E-01 a      1484     0    30     1    34
 -1.1345512329233112E-01 a      1485     0    30     1    35
 -1.9704764201033864E-01 a      1486     0    30     1    36
 -1.7152952360677379E-02 a      1487     0    30     1    37
 -4.1833598965555829E-02 a      1488     0    30     1    38
 -2.0953205966329100E-01 a      1489     0    30     1    39
  1.5852985906672781E-01 a      1490     0    30     1    40
 -5.9914528813828305E-02 a      1491     0    30     1    41
  1.6865641294970291E-01 a      1492     0    30     1    42
  1.5832959265470059E-01 a      1493     0    30     1    43
  8.0157216050231253E-02 a      1494     0    30     1    44
 -2.2449052927121158E-01 a      1495     0    30     1    45
 -1.5074861251708557E-01 a      1496     0    30     1    46
 -6.3642944981952276E-02 a      1497     0    30     1    47
 -2.0751168693361226E-02 a      1498     0    30     1    48
 -6.1258244605410163E-02 a      1499     0    30     1    49
  1.0404946546549730E-01 a      1500     0    30     1    50
  2.2128430189635542E-01 a      1501     0    31     1     1
  1.6384037697634726E-01 a      1502     0    31     1     2
  1.9282105110916412E-01 a      1503     0    31     1     3
  7.8343077096208302E-02 a      1504     0    31     1     4
 -1.3230266659891177E-01 a      1505     0    31     1     5
  1.8927325388561772E-01 a      1506     0    31     1     6
 -2.1765588746910972E-01 a      1507     0    31     1     7
  1.7829858910098631E-01 a      1508     0    31     1     8
  1.3433574037093779E-01 a      1509     0    31     1     9
  1.5290139793000040E-01 a      1510     0    31     1    10
 -7.9114793970421621E-02 a      1511     0    31     1    11
 -1.4600760026565099E-01 a      1512     0    31     1    12
  1.1688185985599704E-01 a      1513     0    31     1    13
  2.1508698987035783E-02 a      1514     0    31     1    14
 -1.4827824170482604E-01 a      1515     0    31     1    15
  2.4612100885474417E-02 a      1516     0    31     1    16
 -2.0806705821677118E-01 a      1517     0    31     1    17
 -1.9138797624724882E-01 a      1518     0    31     1    18
 -2.0540749724229967E-01 a      1519     0    31     1    19
  1.1540374340952150E-01 a      1520     0    31     1    20
  1.5279325058317419E-01 a      1521     0    31     1    21
  2.2101985623877260E-02 a      1522     0    31     1    22
  2.2343705781731765E-01 a      1523     0    31     1    23
 -4.6702583220820000E-03 a      1524     0    31     1    24
  8.0304535250622408E-02 a      1525     0    31     1    25
  1.3033892935872760E-01 a      1526     0    31     1    26
 -7.1532958328343790E-02 a      1527     0    31     1    27
 -1.1306273214989221E-01 a      1528     0    31     1    28
 -1.3337078223428592E-01 a      1529     0    31     1    29
 -4.7068704525427676E-02 a      1530     0    31     1    30
 -1.5327673713465401E-01 a      1531     0    31     1    31
  2.4910994427984215E-01 a      1532     0    31     1    32
  1.5591140107411869E-01 a      1533     0    31     1    33
 -2.4139548463517457E-01 a      1534     0    31     1    34
 -2.0272157081898942E-01 a      1535     0    31     1    35
 -1.7994182218987478E-01 a      1536     0    31     1    36
 -5.2087004396001224E-02 a      1537     0    31     1    37
  5.8530702777561644E-02 a      1538     0    31     1    38
 -6.7577833358655012E-02 a      1539     0    31     1    39
 -5.2877040053849467E-02 a      1540     0    31     1    40
 -1.7102907323660893E-01 a      1541     0    31     1    41
  6.7584831156836042E-02 a      1542     0    31     1    42
 -4.6745990974991783E-02 a      1543     0    31     1    43
 -9.5567370133391394E-02 a      1544     0    31     1    44
 -5.8667262290951004E-02 a      1545     0    31     1    45
 -6.7585005492329847E-02 a      1546     0    31     1    46
 -6.7530115260480018E-03 a      1547     0    31     1    47
  1.6239569334460219E-01 a      1548     0    31     1    48
 -1.1557415611688460E-01 a      1549     0    31     1    49
  3.7164900862900037E-02 a      1550     0    31     1    50
  7.2661686466800202E-03 a      1551     0    32     1     1
  1.5247768359879296E-01 a      1552     0    32     1     2
  2.4637243417202548E-01 a      1553     0    32     1     3
 -4.2096991118268472E-02 a      1554     0    32     1     4
  1.6200842987757780E-01 a      1555     0    32     1     5
 -2.5024196576561480E-01 a      1556     0    32     1     6
 -8.0452000245908123E-02 a      1557     0    32     1     7
 -3.0946377344613366E-02 a      1558     0    32     1     8
  7.5607388235381892E-02 a      1559     0    32     1     9
  2.2694477809354505E-01 a      1560     0    32     1    10
  1.5116858374870007E-01 a      1561     0    32     1    11
  4.4571843874884276E-02 a      1562     0    32     1    12
  1.8435884405581412E-02 a      1563     0    32     1    13
 -2.1868215295351667E-01 a      1564     0    32     1    14
  1.2370961516825502E-01 a      1565     0    32     1    15
  8.0363752118400869E-02 a      1566     0    32     1    16
  2.1269086445409366E-01 a      1567     0    32     1    17
  2.1442095966763786E-01 a      1568     0    32     1    18
 -6.9648980646851169E-02 a      1569     0    32     1    19
 -1.3746523646360304E-01 a      1570     0    32     1    20
 -1.2101776478681088E-01 a      1571     0    32     1    21
 -8.1777262042766058E-02 a      1572     0    32     1    22
  1.6921659772384617E-01 a      1573     0    32     1    23
  9.2631968786001745E-02 a      1574     0    32     1    24
  2.3166636929961748E-01 a      1575     0    32     1    25
 -1.2539959442899454E-01 a      1576     0    32     1    26
 -3.8130071508097246E-02 a      1577     0    32     1    27
 -3.3086866991690391E-04 a      1578     0    32     1    28
  1.6532597783822120E-01 a      1579     0    32     1    29
 -1.6870765200647325E-01 a      1580     0    32     1    30
 -1.7409476527367967E-01 a      1581     0    32     1    31
  2.0016161213592572E-02 a      1582     0    32     1    32
 -2.4160289904028642E-01 a      1583     0    32     1    33
  1.0278051688720063E-01 a      1584     0    32     1    34
  2.0800437093104188E-01 a      1585     0    32     1    35
  7.6918844587620355E-02 a      1586     0    32     1    36
 -7.5102632515818668E-02 a      1587     0    32     1    37
 -1.6287218566547590E-01 a      1588     0    32     1    38
 -1.8481285482773167E-03 a      1589     0    32     1    39
  2.9631367212090403E-02 a      1590     0    32     1    40
 -4.7864025069824694E-03 a      1591     0    32     1    41
 -2.9688038377334054E-04 a      1592     0    32     1    42
 -2.2004502483856425E-01 a      1593     0    32     1    43
 -4.8578180431016617E-02 a      1594     0    32     1    44
 -1.1553440179725641E-01 a      1595     0    32     1    45
  5.3058418059448199E-02 a      1596     0    32     1    46
  1.4828373398639610E-01 a      1597     0    32     1    47
  1.7945262656718969E-01 a      1598     0    32     1    48
  2.2311717382946006E-01 a      1599     0    32     1    49
 -4.1329987961861249E-02 a      1600     0    32     1    50
  5.2124285315946067E-02 a      1601     0    33     1     1
 -1.8214652533122652E-01 a      1602     0    33     1     2
 -1.3920264437327340E-01 a      1603     0    33     1     3
  6.6412020754712003E-02 a      1604     0    33     1     4
  1.0331015061470451E-01 a      1605     0    33     1     5
  2.0749131441602225E-01 a      1606     0    33     1     6
  1.4722018413338855E-01 a      1607     0    33     1     7
 -7.3299022902377650E-02 a      1608     0    33     1     8
  2.1376665299174050E-02 a      1609     0    33     1     9
 -9.4052674508955311E-02 a      1610     0    33     1    10
  3.6960882313423461E-02 a      1611     0    33     1    11
 -2.2927679739953921E-01 a      1612     0    33     1    12
  7.2844857773385757E-02 a      1613     0    33     1    13
  1.7095876061627238E-01 a      1614     0    33     1    14
 -5.9946585258159463E-02 a      1615     0    33     1    15
  2.7431626924192456E-02 a      1616     0    33     1    16
 -1.9286683962499082E-01 a      1617     0    33     1    17
  4.5962575428061016E-02 a      1618     0    33     1    18
  2.9911338361074759E-02 a      1619     0    33     1    19
  1.6280536641448876E-01 a      1620     0    33     1    20
  5.3487581504569302E-02 a      1621     0    33     1    21
  1.6380558812639448E-01 a      1622     0    33     1    22
 -1.5050902500794310E-02 a      1623     0    33     1    23
