################################################################################
# Neural network connection values (weights and biases).
################################################################################
# Col  Name       Description
################################################################################
# 1    connection Neural network connection value.
# 2    t          Connection type (a = weight, b = bias).
# 3    index      Index enumerating weights.
# 4    l_s        Starting point layer (end point layer for biases).
# 5    n_s        Starting point neuron in starting layer (end point neuron for biases).
# 6    l_e        End point layer.
# 7    n_e        End point neuron in end layer.
################################################################################
#                      1 2         3     4     5     6     7
#             connection t     index   l_s   n_s   l_e   n_e
############################################################
  2.0696407488803878E-01 a         1     0     1     1     1
 -1.9093697936261311E-01 a         2     0     1     1     2
  1.3371295238691389E-01 a         3     0     1     1     3
  2.0418160406069308E-01 a         4     0     1     1     4
 -1.5800223031632191E-01 a         5     0     1     1     5
  3.0261370259607192E-03 a         6     0     1     1     6
  1.7776517398191882E-01 a         7     0     1     1     7
  5.1499614365885994E-02 a         8     0     1     1     8
  1.1217513330753413E-01 a         9     0     1     1     9
  1.3677804756870263E-02 a        10     0     1     1    10
 -1.1998808632240909E-01 a        11     0     1     1    11
 -1.0384243005575980E-01 a        12     0     1     1    12
 -1.2356478780001756E-01 a        13     0     1     1    13
  2.1347023877108839E-01 a        14     0     1     1    14
  8.6138669459149317E-02 a        15     0     1     1    15
 -1.6504707910225405E-01 a        16     0     1     1    16
  8.1746571741786137E-02 a        17     0     1     1    17
  1.5391534909718005E-03 a        18     0     1     1    18
  2.0364688951192514E-01 a        19     0     1     1    19
  1.6788894553288106E-01 a        20     0     1     1    20
 -1.2209464987806511E-01 a        21     0     1     1    21
 -1.6382305663800978E-01 a        22     0     1     1    22
 -1.9558207962212421E-01 a        23     0     1     1    23
  1.4523061039680524E-01 a        24     0     1     1    24
  3.9484038726175744E-02 a        25     0     1     1    25
 -1.1797794492188834E-01 a        26     0     1     1    26
 -3.7276602108929892E-02 a        27     0     1     1    27
  7.8203310332977116E-02 a        28     0     1     1    28
  1.0458430214424626E-01 a        29     0     1     1    29
  1.7809780158518426E-01 a        30     0     1     1    30
  2.7674384818236052E-02 a        31     0     1     1    31
 -1.5839580946120502E-01 a        32     0     1     1    32
  5.2496630136060679E-02 a        33     0     1     1    33
  1.2047361840242170E-01 a        34     0     1     1    34
 -2.4835336771785954E-02 a        35     0     1     1    35
  1.2139773589288606E-01 a        36     0     1     1    36
 -1.7071639337168115E-01 a        37     0     1     1    37
 -6.3771934101387956E-02 a        38     0     1     1    38
 -1.0172388848627108E-01 a        39     0     1     1    39
 -1.9384691107922328E-01 a        40     0     1     1    40
  1.9005150750841485E-01 a        41     0     1     1    41
 -8.4860099607003830E-02 a        42     0     1     1    42
  2.3304651157695383E-01 a        43     0     1     1    43
 -5.8418703639027014E-02 a        44     0     1     1    44
 -1.9558894327948870E-01 a        45     0     1     1    45
 -1.0842935173070967E-03 a        46     0     1     1    46
 -2.1308414249565458E-01 a        47     0     1     1    47
  1.0344213340516424E-01 a        48     0     1     1    48
 -5.1629092124164847E-02 a        49     0     1     1    49
  1.3936046687094969E-01 a        50     0     1     1    50
 -1.1914056323817837E-01 a        51     0     2     1     1
  1.6093971500853836E-02 a        52     0     2     1     2
 -9.4252153795038776E-02 a        53     0     2     1     3
 -2.5164533711776960E-01 a        54     0     2     1     4
 -1.0348734302250262E-01 a        55     0     2     1     5
 -1.3099243190324078E-01 a        56     0     2     1     6
 -1.4200198745154818E-01 a        57     0     2     1     7
  1.5162162913484767E-02 a        58     0     2     1     8
  2.3978523710604233E-01 a        59     0     2     1     9
  6.7522239601033429E-02 a        60     0     2     1    10
  6.3014526532290213E-02 a        61     0     2     1    11
  2.6602948365218860E-02 a        62     0     2     1    12
 -2.2433224061041407E-01 a        63     0     2     1    13
  6.6648168764886176E-02 a        64     0     2     1    14
 -7.2966025698351783E-02 a        65     0     2     1    15
 -6.0316763371113601E-02 a        66     0     2     1    16
  1.3800101355509761E-01 a        67     0     2     1    17
  1.8346621659770475E-02 a        68     0     2     1    18
  3.1520146849408494E-02 a        69     0     2     1    19
 -1.5176829106902170E-01 a        70     0     2     1    20
 -6.7963488206153624E-02 a        71     0     2     1    21
 -4.0849518984157340E-02 a        72     0     2     1    22
 -2.3626114653667529E-01 a        73     0     2     1    23
  1.3876840284202899E-01 a        74     0     2     1    24
 -9.7927883422333269E-03 a        75     0     2     1    25
 -1.1496450786800244E-01 a        76     0     2     1    26
 -1.8016378528437849E-01 a        77     0     2     1    27
 -1.0104025848517920E-01 a        78     0     2     1    28
  2.3780937272739433E-01 a        79     0     2     1    29
 -2.5228569267307210E-01 a        80     0     2     1    30
 -6.7348321870242894E-02 a        81     0     2     1    31
  3.7638884940775448E-02 a        82     0     2     1    32
 -2.4203534168134330E-01 a        83     0     2     1    33
 -2.2086072979246762E-01 a        84     0     2     1    34
 -9.1954696560152482E-02 a        85     0     2     1    35
  1.6421205620590332E-01 a        86     0     2     1    36
  5.4822569937654990E-02 a        87     0     2     1    37
  4.4739689474263114E-02 a        88     0     2     1    38
  2.1823336677613195E-01 a        89     0     2     1    39
  1.6552958028954443E-01 a        90     0     2     1    40
  2.1669802821192791E-01 a        91     0     2     1    41
 -4.7101950874909648E-02 a        92     0     2     1    42
  6.7236260418066546E-02 a        93     0     2     1    43
  1.0092012991370289E-01 a        94     0     2     1    44
 -1.9852851191112780E-02 a        95     0     2     1    45
 -9.1400028802765307E-02 a        96     0     2     1    46
 -4.8328608587818900E-02 a        97     0     2     1    47
  2.3645509382218807E-01 a        98     0     2     1    48
  6.4073821457624788E-02 a        99     0     2     1    49
 -2.0156030306764020E-01 a       100     0     2     1    50
 -1.1625257163157256E-01 a       101     0     3     1     1
  2.4291266531337205E-01 a       102     0     3     1     2
 -1.0840134638660512E-01 a       103     0     3     1     3
 -1.4560660401361605E-01 a       104     0     3     1     4
 -2.9710446077489606E-02 a       105     0     3     1     5
  2.4264461414566854E-01 a       106     0     3     1     6
 -3.1183877227839156E-02 a       107     0     3     1     7
  6.6208901115192939E-02 a       108     0     3     1     8
  9.0939499833653459E-02 a       109     0     3     1     9
  2.4913140859427302E-01 a       110     0     3     1    10
  2.4567854037684394E-02 a       111     0     3     1    11
 -4.4410091455609091E-02 a       112     0     3     1    12
 -6.0014552792590159E-02 a       113     0     3     1    13
  2.3298725011448904E-01 a       114     0     3     1    14
 -5.2779492328830897E-02 a       115     0     3     1    15
  1.7252805357465839E-01 a       116     0     3     1    16
  7.7373804691220793E-02 a       117     0     3     1    17
  7.9538848172598556E-02 a       118     0     3     1    18
  1.9184555340488223E-02 a       119     0     3     1    19
  1.4558908626946701E-01 a       120     0     3     1    20
  6.3485172668163031E-02 a       121     0     3     1    21
 -1.4121961435000541E-01 a       122     0     3     1    22
 -1.3097003038688174E-01 a       123     0     3     1    23
 -1.5418333105393032E-02 a       124     0     3     1    24
  1.2823292400962544E-01 a       125     0     3     1    25
  2.1401015306028403E-02 a       126     0     3     1    26
 -5.2793041502652849E-02 a       127     0     3     1    27
  9.5088304282898606E-02 a       128     0     3     1    28
  2.3843232339283399E-01 a       129     0     3     1    29
 -2.2805718850113216E-01 a       130     0     3     1    30
 -1.0005500191757621E-01 a       131     0     3     1    31
 -2.4915836114702236E-01 a       132     0     3     1    32
  5.1664634802695598E-02 a       133     0     3     1    33
  3.0319203621836537E-02 a       134     0     3     1    34
  1.5522065637730798E-01 a       135     0     3     1    35
  2.2926542075991674E-01 a       136     0     3     1    36
 -2.5208500053043925E-01 a       137     0     3     1    37
 -1.5685278919471016E-01 a       138     0     3     1    38
  1.2007806508050396E-01 a       139     0     3     1    39
 -7.2303891882026586E-02 a       140     0     3     1    40
 -6.6635286132976104E-02 a       141     0     3     1    41
 -1.1781509749495489E-01 a       142     0     3     1    42
  9.2709088696019251E-02 a       143     0     3     1    43
  9.4104224539338435E-02 a       144     0     3     1    44
  1.4522041177041722E-01 a       145     0     3     1    45
  4.7152666449521909E-02 a       146     0     3     1    46
 -1.0782460568650788E-01 a       147     0     3     1    47
  2.2435061695092418E-01 a       148     0     3     1    48
 -2.2836951303559913E-01 a       149     0     3     1    49
  1.0160974618657036E-01 a       150     0     3     1    50
  1.0438249537229316E-01 a       151     0     4     1     1
  2.0805253842473606E-01 a       152     0     4     1     2
  1.6173902481519695E-01 a       153     0     4     1     3
 -2.2278828171496107E-01 a       154     0     4     1     4
 -1.2254576044942121E-02 a       155     0     4     1     5
  2.3724956849457451E-01 a       156     0     4     1     6
  1.6105221884000326E-01 a       157     0     4     1     7
  9.6828256586992983E-02 a       158     0     4     1     8
  1.0866413431104760E-01 a       159     0     4     1     9
  1.5338253380637368E-01 a       160     0     4     1    10
  1.0166667481180316E-01 a       161     0     4     1    11
  1.2253799229289851E-01 a       162     0     4     1    12
  1.5717137506097811E-01 a       163     0     4     1    13
 -1.5653424685285608E-01 a       164     0     4     1    14
  1.7748364094863997E-01 a       165     0     4     1    15
 -2.0249041848395818E-01 a       166     0     4     1    16
 -1.3090484223114229E-01 a       167     0     4     1    17
 -1.4483574609252130E-02 a       168     0     4     1    18
 -1.3797108528811794E-01 a       169     0     4     1    19
 -1.6650732461466472E-01 a       170     0     4     1    20
 -2.2720447947109676E-01 a       171     0     4     1    21
 -1.3421910231475095E-01 a       172     0     4     1    22
 -6.6020167245811653E-02 a       173     0     4     1    23
  7.0194834115833590E-02 a       174     0     4     1    24
  7.2094730078725064E-02 a       175     0     4     1    25
 -3.4859920563887169E-02 a       176     0     4     1    26
  1.6589990348387812E-01 a       177     0     4     1    27
  1.5782955219889258E-01 a       178     0     4     1    28
 -1.8220384056266015E-01 a       179     0     4     1    29
 -1.3272166590420229E-01 a       180     0     4     1    30
 -1.7487524316051245E-01 a       181     0     4     1    31
 -9.0387097843090028E-02 a       182     0     4     1    32
 -1.2368446447867226E-01 a       183     0     4     1    33
 -1.2440894832597882E-01 a       184     0     4     1    34
 -2.2501551932429673E-01 a       185     0     4     1    35
 -1.6158151043707350E-01 a       186     0     4     1    36
  2.0165927853613674E-01 a       187     0     4     1    37
 -8.1615732240165092E-04 a       188     0     4     1    38
  1.5661029863094630E-01 a       189     0     4     1    39
  2.2570828231715176E-01 a       190     0     4     1    40
 -1.6954531811907293E-02 a       191     0     4     1    41
  2.4721027224173570E-01 a       192     0     4     1    42
  2.3261725811002590E-01 a       193     0     4     1    43
 -2.2626072985375484E-01 a       194     0     4     1    44
 -1.6782576675424868E-01 a       195     0     4     1    45
 -1.4158525415091974E-01 a       196     0     4     1    46
 -2.2022348647059528E-01 a       197     0     4     1    47
 -7.9300208687028154E-02 a       198     0     4     1    48
  6.0933566391472717E-02 a       199     0     4     1    49
  1.5987158427043044E-01 a       200     0     4     1    50
  9.4919117394273722E-02 a       201     0     5     1     1
  2.3793820023568671E-01 a       202     0     5     1     2
 -1.4571289063228968E-01 a       203     0     5     1     3
  3.8158669426393930E-03 a       204     0     5     1     4
 -1.9949345886937829E-02 a       205     0     5     1     5
 -2.0648401748956002E-01 a       206     0     5     1     6
  1.5223629541567552E-01 a       207     0     5     1     7
  5.2224379813771926E-02 a       208     0     5     1     8
 -2.1733366886023264E-01 a       209     0     5     1     9
 -6.2779006890976416E-02 a       210     0     5     1    10
 -1.4997756277937996E-01 a       211     0     5     1    11
 -2.2389404846563626E-01 a       212     0     5     1    12
 -2.4342074696410235E-01 a       213     0     5     1    13
 -5.5725842325773274E-03 a       214     0     5     1    14
 -6.3629393667585368E-02 a       215     0     5     1    15
 -1.4044055826069241E-01 a       216     0     5     1    16
  2.2280295943164541E-01 a       217     0     5     1    17
  2.4281632533137881E-01 a       218     0     5     1    18
  2.4893923344213595E-01 a       219     0     5     1    19
 -2.2651030086451843E-01 a       220     0     5     1    20
 -2.5340128595207245E-01 a       221     0     5     1    21
  1.7017352988722870E-01 a       222     0     5     1    22
  6.2581468484561781E-02 a       223     0     5     1    23
  1.2991095272685904E-01 a       224     0     5     1    24
  1.1722979556643301E-02 a       225     0     5     1    25
  8.9326622050461095E-03 a       226     0     5     1    26
 -7.8171089304523544E-02 a       227     0     5     1    27
  1.6850435505848130E-01 a       228     0     5     1    28
 -1.2822464354934601E-01 a       229     0     5     1    29
  2.0162330263509307E-01 a       230     0     5     1    30
  4.7227420224941613E-02 a       231     0     5     1    31
  9.9173666547564029E-02 a       232     0     5     1    32
  1.8972462381966959E-01 a       233     0     5     1    33
 -1.9925980982650765E-01 a       234     0     5     1    34
  7.0742222831217866E-02 a       235     0     5     1    35
  1.3146965652832382E-01 a       236     0     5     1    36
 -2.5110124258213573E-01 a       237     0     5     1    37
 -1.3767988721873806E-01 a       238     0     5     1    38
  1.5640800048500927E-01 a       239     0     5     1    39
  7.1213311108540872E-02 a       240     0     5     1    40
  1.1961076283259194E-01 a       241     0     5     1    41
  2.4002416913275515E-01 a       242     0     5     1    42
 -7.8431424759055471E-02 a       243     0     5     1    43
 -1.1710966556792674E-01 a       244     0     5     1    44
 -1.9461886055932054E-01 a       245     0     5     1    45
 -1.5776096414426630E-01 a       246     0     5     1    46
  1.9639204910476799E-01 a       247     0     5     1    47
  2.0140710022271163E-01 a       248     0     5     1    48
  2.5113233506772692E-01 a       249     0     5     1    49
  1.0801478335345423E-01 a       250     0     5     1    50
 -2.5264176316781206E-01 a       251     0     6     1     1
  7.4261747023622468E-02 a       252     0     6     1     2
 -1.7562064893194479E-01 a       253     0     6     1     3
 -7.5959687089929701E-02 a       254     0     6     1     4
  9.7900924685787399E-02 a       255     0     6     1     5
 -2.5038548288250795E-01 a       256     0     6     1     6
 -9.1056700377484034E-02 a       257     0     6     1     7
  9.7704781201161592E-02 a       258     0     6     1     8
  1.9573517246682645E-01 a       259     0     6     1     9
 -5.2555742354975191E-02 a       260     0     6     1    10
  1.9327090304009285E-02 a       261     0     6     1    11
  2.0626805719659563E-01 a       262     0     6     1    12
 -2.2806733349497738E-01 a       263     0     6     1    13
 -6.2348213064122589E-02 a       264     0     6     1    14
 -1.0744947352011805E-01 a       265     0     6     1    15
 -2.7246338975414296E-02 a       266     0     6     1    16
 -9.0079725697190444E-02 a       267     0     6     1    17
 -2.9312175809441499E-02 a       268     0     6     1    18
  2.4842455035079685E-02 a       269     0     6     1    19
  1.7050400636174409E-02 a       270     0     6     1    20
  9.1052163968150843E-02 a       271     0     6     1    21
 -1.2243810875766883E-01 a       272     0     6     1    22
 -7.3609192027004694E-02 a       273     0     6     1    23
  1.3464215295810644E-01 a       274     0     6     1    24
 -9.2580222420079544E-02 a       275     0     6     1    25
  1.0682951521759160E-01 a       276     0     6     1    26
  1.4806769104461304E-01 a       277     0     6     1    27
  1.6613129044641909E-02 a       278     0     6     1    28
 -6.0507057578840270E-02 a       279     0     6     1    29
 -2.1318972130746655E-01 a       280     0     6     1    30
 -7.0497340446316864E-02 a       281     0     6     1    31
 -1.1079834502628745E-01 a       282     0     6     1    32
 -1.3666109996593298E-01 a       283     0     6     1    33
  1.1204255294827740E-01 a       284     0     6     1    34
 -2.5446941978207865E-01 a       285     0     6     1    35
 -1.3877584730058842E-01 a       286     0     6     1    36
  7.4840233219202771E-03 a       287     0     6     1    37
  2.4021154435069250E-01 a       288     0     6     1    38
 -1.6014593755920800E-01 a       289     0     6     1    39
  1.5459001746902351E-01 a       290     0     6     1    40
 -3.8849820945663256E-02 a       291     0     6     1    41
  1.5549662316129700E-01 a       292     0     6     1    42
 -2.3845398594551055E-02 a       293     0     6     1    43
 -2.1122384506828701E-01 a       294     0     6     1    44
 -1.5995376442869672E-01 a       295     0     6     1    45
  1.2802036421014368E-01 a       296     0     6     1    46
  1.4018025943326290E-01 a       297     0     6     1    47
 -6.9995080483239741E-02 a       298     0     6     1    48
 -1.8669656398975293E-01 a       299     0     6     1    49
  1.3384967232225492E-01 a       300     0     6     1    50
 -2.4422597668564322E-01 a       301     0     7     1     1
 -1.9865742967906533E-01 a       302     0     7     1     2
 -2.3510719100577562E-01 a       303     0     7     1     3
  2.0275660226403594E-01 a       304     0     7     1     4
  4.6432092426475613E-02 a       305     0     7     1     5
 -1.0655008491296322E-01 a       306     0     7     1     6
  1.6042308937266214E-01 a       307     0     7     1     7
  7.3977019108094802E-02 a       308     0     7     1     8
  6.3182713786426023E-02 a       309     0     7     1     9
 -1.9464514466745142E-01 a       310     0     7     1    10
 -1.3154966700645054E-01 a       311     0     7     1    11
  4.2596285950920826E-02 a       312     0     7     1    12
 -1.9110341921855922E-01 a       313     0     7     1    13
 -1.9540427834820856E-01 a       314     0     7     1    14
  6.2251441643403876E-02 a       315     0     7     1    15
 -1.1856190068547847E-02 a       316     0     7     1    16
 -2.3440490009061518E-01 a       317     0     7     1    17
  1.3632161441342289E-01 a       318     0     7     1    18
  1.5309595753028643E-01 a       319     0     7     1    19
  7.3943593904190807E-02 a       320     0     7     1    20
  2.4555872099519294E-01 a       321     0     7     1    21
  2.1098436684585586E-01 a       322     0     7     1    22
  2.0820365709240368E-01 a       323     0     7     1    23
 -1.8642566744322239E-02 a       324     0     7     1    24
  5.8204339003399580E-02 a       325     0     7     1    25
 -2.2095614696175148E-01 a       326     0     7     1    26
  1.5519917422500260E-01 a       327     0     7     1    27
 -2.2446583986906438E-02 a       328     0     7     1    28
  1.8728256492511833E-01 a       329     0     7     1    29
 -1.7199702694699145E-01 a       330     0     7     1    30
  5.4378929987074311E-02 a       331     0     7     1    31
 -2.8363543371242896E-02 a       332     0     7     1    32
  5.6428543155290584E-02 a       333     0     7     1    33
 -1.9894036155846540E-01 a       334     0     7     1    34
  4.0859014441531089E-02 a       335     0     7     1    35
 -1.4423065482598763E-01 a       336     0     7     1    36
 -2.3191822320156433E-02 a       337     0     7     1    37
  2.3539444738055937E-01 a       338     0     7     1    38
  7.2457704068749365E-02 a       339     0     7     1    39
 -2.5494455404610422E-01 a       340     0     7     1    40
  1.8110058871445636E-01 a       341     0     7     1    41
 -1.0750993927695246E-01 a       342     0     7     1    42
 -2.5402183159634784E-01 a       343     0     7     1    43
 -1.7807518137648340E-01 a       344     0     7     1    44
 -1.3008133487199708E-01 a       345     0     7     1    45
 -5.8215855254120090E-02 a       346     0     7     1    46
 -2.2234491420818413E-02 a       347     0     7     1    47
  9.4975051498541477E-02 a       348     0     7     1    48
  8.4720618963280231E-02 a       349     0     7     1    49
  4.3261868779747407E-02 a       350     0     7     1    50
  1.4061495892220626E-02 a       351     0     8     1     1
  9.0531315988452439E-04 a       352     0     8     1     2
  1.1590244447879008E-01 a       353     0     8     1     3
  1.6000766132877314E-01 a       354     0     8     1     4
 -9.8311414254651119E-02 a       355     0     8     1     5
 -1.5522658437869341E-01 a       356     0     8     1     6
 -5.3774206418594435E-02 a       357     0     8     1     7
 -2.2619404914359328E-01 a       358     0     8     1     8
  2.4836838185685767E-01 a       359     0     8     1     9
 -3.3411396199915866E-03 a       360     0     8     1    10
  2.1470851904845040E-01 a       361     0     8     1    11
  2.4686982403859639E-01 a       362     0     8     1    12
  1.2584649514304064E-01 a       363     0     8     1    13
  2.0844294837390967E-01 a       364     0     8     1    14
  1.0478484623252043E-01 a       365     0     8     1    15
  2.5102092541148613E-01 a       366     0     8     1    16
  1.9695691667773482E-01 a       367     0     8     1    17
 -6.4625905934021441E-02 a       368     0     8     1    18
  8.7834470050784541E-02 a       369     0     8     1    19
  3.2498501943352950E-02 a       370     0     8     1    20
 -2.0203071433816494E-01 a       371     0     8     1    21
  1.0864353204163356E-01 a       372     0     8     1    22
 -1.0006112684909654E-01 a       373     0     8     1    23
 -2.4554820735194060E-02 a       374     0     8     1    24
  3.0470313132728563E-02 a       375     0     8     1    25
 -5.7002378184544844E-02 a       376     0     8     1    26
  7.2341289461670899E-02 a       377     0     8     1    27
 -1.7960764411855453E-02 a       378     0     8     1    28
  2.4510715163370375E-01 a       379     0     8     1    29
  1.2850291902997685E-01 a       380     0     8     1    30
  1.9083628146895121E-01 a       381     0     8     1    31
 -2.1642459666558728E-01 a       382     0     8     1    32
 -4.9877188444130409E-02 a       383     0     8     1    33
 -7.5019843491434840E-02 a       384     0     8     1    34
  7.3720726667286379E-02 a       385     0     8     1    35
 -5.2177661587924327E-02 a       386     0     8     1    36
  1.7385320109020011E-01 a       387     0     8     1    37
  1.8138882973991460E-01 a       388     0     8     1    38
 -1.1720594502006570E-01 a       389     0     8     1    39
 -1.0441339592235430E-01 a       390     0     8     1    40
  4.8022574282509618E-02 a       391     0     8     1    41
  1.3001475227014547E-01 a       392     0     8     1    42
 -1.6183976611435352E-01 a       393     0     8     1    43
  1.7938135260433474E-01 a       394     0     8     1    44
 -1.3580982248478879E-01 a       395     0     8     1    45
  4.3734924574631892E-02 a       396     0     8     1    46
  7.0435805249444358E-02 a       397     0     8     1    47
  4.1493150643497359E-02 a       398     0     8     1    48
  2.2603351695385562E-01 a       399     0     8     1    49
 -7.4253285330537752E-02 a       400     0     8     1    50
 -2.2187371795226060E-01 a       401     0     9     1     1
 -3.9867796694096042E-02 a       402     0     9     1     2
 -6.1070663181643142E-02 a       403     0     9     1     3
 -1.7052329409872391E-01 a       404     0     9     1     4
  1.4145013926752958E-01 a       405     0     9     1     5
  2.1321402743314954E-01 a       406     0     9     1     6
  1.0997565927964345E-01 a       407     0     9     1     7
  2.3663103638957692E-01 a       408     0     9     1     8
  3.4384887024393136E-02 a       409     0     9     1     9
  3.1826058667979280E-02 a       410     0     9     1    10
 -1.8344751156462652E-01 a       411     0     9     1    11
 -2.5317340829404883E-01 a       412     0     9     1    12
  1.5563653726537188E-01 a       413     0     9     1    13
  2.1177457862298538E-01 a       414     0     9     1    14
 -2.1399200468781049E-01 a       415     0     9     1    15
 -2.3326607321786816E-01 a       416     0     9     1    16
 -1.5074061746279874E-01 a       417     0     9     1    17
 -2.4148469137005946E-01 a       418     0     9     1    18
  3.4846453206449760E-02 a       419     0     9     1    19
  7.1274450423517821E-02 a       420     0     9     1    20
  1.9515576500448589E-01 a       421     0     9     1    21
  9.8601837922437735E-02 a       422     0     9     1    22
  1.2528317256784709E-02 a       423     0     9     1    23
 -1.7411067261451549E-01 a       424     0     9     1    24
 -2.2123955368537174E-01 a       425     0     9     1    25
  1.0075801110448469E-01 a       426     0     9     1    26
 -1.1059901319996683E-01 a       427     0     9     1    27
  2.1696129894817451E-01 a       428     0     9     1    28
 -2.4128878096699429E-02 a       429     0     9     1    29
 -1.2990376013908805E-01 a       430     0     9     1    30
 -1.0018681976715604E-01 a       431     0     9     1    31
  4.4028927352484856E-02 a       432     0     9     1    32
  9.8891243166507437E-02 a       433     0     9     1    33
 -6.6579368320633756E-02 a       434     0     9     1    34
 -9.0581408783405024E-02 a       435     0     9     1    35
  2.3799864113841593E-01 a       436     0     9     1    36
  2.2515973437776088E-02 a       437     0     9     1    37
 -2.0388552412180982E-01 a       438     0     9     1    38
 -1.6030094619163557E-01 a       439     0     9     1    39
 -1.4130837335423940E-01 a       440     0     9     1    40
  2.1708591053427956E-01 a       441     0     9     1    41
  6.5379031699715233E-03 a       442     0     9     1    42
  7.5441801862272798E-02 a       443     0     9     1    43
 -1.3483711914301276E-02 a       444     0     9     1    44
  7.6883030416639145E-02 a       445     0     9     1    45
  1.6365953172860140E-01 a       446     0     9     1    46
 -2.2778170714516885E-01 a       447     0     9     1    47
  2.2437939348580457E-01 a       448     0     9     1    48
  1.8755455909552873E-01 a       449     0     9     1    49
 -1.2214756866802107E-01 a       450     0     9     1    50
  1.0389139870785903E-01 a       451     0    10     1     1
 -2.1229035172737790E-01 a       452     0    10     1     2
  1.5217935799042462E-01 a       453     0    10     1     3
  2.0621119445257946E-01 a       454     0    10     1     4
 -1.8575141671548143E-01 a       455     0    10     1     5
 -3.8255251884561706E-02 a       456     0    10     1     6
 -2.4046301699780093E-01 a       457     0    10     1     7
  2.2003504787749717E-01 a       458     0    10     1     8
 -1.1193747252668002E-01 a       459     0    10     1     9
  2.4458809624147718E-01 a       460     0    10     1    10
  1.2907691567037441E-01 a       461     0    10     1    11
  2.3520032028927129E-01 a       462     0    10     1    12
 -5.8107485647377166E-02 a       463     0    10     1    13
 -3.3161024030747235E-02 a       464     0    10     1    14
  1.0537023735041501E-01 a       465     0    10     1    15
  1.8668088937372024E-01 a       466     0    10     1    16
  2.2313630578233556E-02 a       467     0    10     1    17
 -6.4747154367261209E-02 a       468     0    10     1    18
  1.6724141332497552E-01 a       469     0    10     1    19
 -2.2535090109539077E-01 a       470     0    10     1    20
 -1.4460529835353431E-01 a       471     0    10     1    21
  1.4320403484355402E-02 a       472     0    10     1    22
  3.8644119808941148E-02 a       473     0    10     1    23
 -9.9260318304219344E-02 a       474     0    10     1    24
  1.1925193269974182E-01 a       475     0    10     1    25
 -2.5416274818897172E-01 a       476     0    10     1    26
  2.2093347835295102E-01 a       477     0    10     1    27
  1.3433701827626965E-01 a       478     0    10     1    28
  1.4191449315261889E-01 a       479     0    10     1    29
 -3.5780416609062948E-02 a       480     0    10     1    30
 -1.7663192536929714E-01 a       481     0    10     1    31
 -4.2157124377121505E-02 a       482     0    10     1    32
  2.4882238454227210E-01 a       483     0    10     1    33
 -2.1106323760271881E-01 a       484     0    10     1    34
 -1.9268534055968356E-01 a       485     0    10     1    35
 -2.4190353881557811E-01 a       486     0    10     1    36
  1.0471920511368692E-01 a       487     0    10     1    37
  5.5322367798369299E-02 a       488     0    10     1    38
  2.1146806828426426E-01 a       489     0    10     1    39
  1.1213503792774478E-01 a       490     0    10     1    40
  2.0492704408084453E-01 a       491     0    10     1    41
 -1.1659886043051206E-01 a       492     0    10     1    42
  6.4248457698001679E-02 a       493     0    10     1    43
  6.9819650457445927E-03 a       494     0    10     1    44
  1.5546648262361032E-01 a       495     0    10     1    45
 -1.3477094990417376E-01 a       496     0    10     1    46
  3.4009726555242377E-02 a       497     0    10     1    47
  1.2056014029935037E-01 a       498     0    10     1    48
  1.0031766699852271E-01 a       499     0    10     1    49
 -6.8495815095955162E-02 a       500     0    10     1    50
  8.0587291605337036E-02 a       501     0    11     1     1
 -1.6656629603328954E-01 a       502     0    11     1     2
  2.0460677146516032E-01 a       503     0    11     1     3
  1.0550067716472725E-02 a       504     0    11     1     4
  7.4993037209256696E-03 a       505     0    11     1     5
  3.4886862889588456E-02 a       506     0    11     1     6
 -1.3128185403383172E-01 a       507     0    11     1     7
 -1.1757046662408487E-01 a       508     0    11     1     8
  1.8216195449810557E-01 a       509     0    11     1     9
  1.5191218860831909E-01 a       510     0    11     1    10
 -2.9100898553139000E-02 a       511     0    11     1    11
  6.1371866039174390E-02 a       512     0    11     1    12
 -1.6403959606730081E-01 a       513     0    11     1    13
 -2.2999052191660146E-01 a       514     0    11     1    14
 -1.0944135654793898E-01 a       515     0    11     1    15
  1.3484260131645392E-02 a       516     0    11     1    16
  1.4384254394100354E-01 a       517     0    11     1    17
 -2.7417578646640944E-02 a       518     0    11     1    18
  1.9571846040001070E-01 a       519     0    11     1    19
  8.8628456560004495E-02 a       520     0    11     1    20
  5.2198413457646163E-02 a       521     0    11     1    21
  7.7645882342884023E-03 a       522     0    11     1    22
 -9.6099873737070032E-02 a       523     0    11     1    23
 -5.7031373173928736E-02 a       524     0    11     1    24
 -1.6709410363811744E-01 a       525     0    11     1    25
  3.2766878354968831E-02 a       526     0    11     1    26
 -2.2822890931929465E-01 a       527     0    11     1    27
 -5.0492539818259671E-02 a       528     0    11     1    28
 -5.0233652918059354E-02 a       529     0    11     1    29
  6.8356615220376782E-02 a       530     0    11     1    30
  1.1961999345698839E-02 a       531     0    11     1    31
 -2.3435532495078168E-01 a       532     0    11     1    32
 -6.1653630726983898E-02 a       533     0    11     1    33
  1.4567783671152124E-01 a       534     0    11     1    34
  9.3372794742606166E-02 a       535     0    11     1    35
 -1.7521917272216564E-01 a       536     0    11     1    36
 -4.6588263612646376E-02 a       537     0    11     1    37
 -1.4736808508632795E-01 a       538     0    11     1    38
 -2.2753022914669807E-01 a       539     0    11     1    39
  1.4121985742077575E-01 a       540     0    11     1    40
 -2.0119275485198870E-01 a       541     0    11     1    41
  2.0967472401086204E-01 a       542     0    11     1    42
 -1.5054393765274518E-01 a       543     0    11     1    43
 -1.0775891283783820E-02 a       544     0    11     1    44
  1.7107438036766145E-01 a       545     0    11     1    45
 -1.9634757904570793E-01 a       546     0    11     1    46
 -1.5616395100993000E-01 a       547     0    11     1    47
  1.8405280856131317E-01 a       548     0    11     1    48
  8.3368271067452232E-02 a       549     0    11     1    49
  2.1749126945474967E-01 a       550     0    11     1    50
 -1.4028446092332225E-01 a       551     0    12     1     1
 -7.5247097180607181E-02 a       552     0    12     1     2
  7.6443459641997932E-02 a       553     0    12     1     3
  1.7153044178163582E-01 a       554     0    12     1     4
  1.3851769341811243E-01 a       555     0    12     1     5
 -1.6937484464401725E-01 a       556     0    12     1     6
  9.4719179674814649E-02 a       557     0    12     1     7
 -2.2406064339217172E-01 a       558     0    12     1     8
 -1.1960071713624829E-01 a       559     0    12     1     9
 -1.7069119618470543E-01 a       560     0    12     1    10
 -7.6534497494163675E-02 a       561     0    12     1    11
 -1.8658042801027475E-01 a       562     0    12     1    12
 -2.3537911215981956E-02 a       563     0    12     1    13
  1.6167866025857075E-01 a       564     0    12     1    14
  2.4699644131531442E-01 a       565     0    12     1    15
 -3.0748317953343082E-02 a       566     0    12     1    16
  1.2700470084484677E-01 a       567     0    12     1    17
  8.3979938206974539E-02 a       568     0    12     1    18
 -1.5264398431931770E-02 a       569     0    12     1    19
 -2.1523869564193607E-01 a       570     0    12     1    20
 -1.3709457482532977E-01 a       571     0    12     1    21
 -2.0667648993960602E-01 a       572     0    12     1    22
 -8.5896845912974001E-02 a       573     0    12     1    23
  2.6570943175047202E-02 a       574     0    12     1    24
 -2.2424378366085557E-01 a       575     0    12     1    25
  2.4416373939002892E-01 a       576     0    12     1    26
 -5.5827445669946671E-02 a       577     0    12     1    27
 -7.8001643647798713E-02 a       578     0    12     1    28
 -2.0863030456478088E-01 a       579     0    12     1    29
 -9.2388391182163576E-02 a       580     0    12     1    30
  3.0018901220211940E-03 a       581     0    12     1    31
  1.2574601784442720E-02 a       582     0    12     1    32
 -5.3882456154820471E-02 a       583     0    12     1    33
  1.3397530364018769E-02 a       584     0    12     1    34
 -2.3391803207271888E-01 a       585     0    12     1    35
 -6.1446118451400425E-02 a       586     0    12     1    36
 -2.4466137018682527E-01 a       587     0    12     1    37
 -2.2430680142294046E-01 a       588     0    12     1    38
 -1.8685781885124766E-01 a       589     0    12     1    39
  4.3867504577131122E-02 a       590     0    12     1    40
 -3.8545833476997561E-02 a       591     0    12     1    41
  2.0597247648036110E-01 a       592     0    12     1    42
 -5.7424229171378093E-02 a       593     0    12     1    43
  1.4906586151986609E-01 a       594     0    12     1    44
 -2.0455353563671425E-01 a       595     0    12     1    45
 -1.4405736023161428E-01 a       596     0    12     1    46
  1.9755429080406695E-01 a       597     0    12     1    47
 -1.8720866344334403E-01 a       598     0    12     1    48
  1.1890372704280454E-01 a       599     0    12     1    49
  1.9645036147338826E-02 a       600     0    12     1    50
 -9.5147869940583857E-02 a       601     0    13     1     1
  1.2399854758973031E-01 a       602     0    13     1     2
  1.8430342950937204E-01 a       603     0    13     1     3
 -5.3241238078824528E-03 a       604     0    13     1     4
 -7.2377835580103966E-02 a       605     0    13     1     5
 -1.7532879347742863E-02 a       606     0    13     1     6
 -9.6369018842159301E-02 a       607     0    13     1     7
 -2.4003607936266460E-02 a       608     0    13     1     8
 -1.5510379475309360E-01 a       609     0    13     1     9
  5.2658199538743115E-02 a       610     0    13     1    10
 -2.2204357376118064E-01 a       611     0    13     1    11
 -2.0803188359305172E-01 a       612     0    13     1    12
 -1.6653943825911355E-01 a       613     0    13     1    13
 -2.4836577919204350E-01 a       614     0    13     1    14
 -1.7647703648846727E-01 a       615     0    13     1    15
 -6.6259006634496034E-02 a       616     0    13     1    16
 -2.5285642593378260E-01 a       617     0    13     1    17
  7.3288990168222837E-02 a       618     0    13     1    18
 -1.3548276434163056E-01 a       619     0    13     1    19
  1.1986793812927080E-01 a       620     0    13     1    20
 -1.1180615057001233E-02 a       621     0    13     1    21
  1.2337029098904989E-01 a       622     0    13     1    22
 -1.5189860970470623E-02 a       623     0    13     1    23
 -2.2243525245891052E-01 a       624     0    13     1    24
  1.1754296680534471E-01 a       625     0    13     1    25
  8.4020795620764116E-02 a       626     0    13     1    26
  1.4930491662791323E-01 a       627     0    13     1    27
 -2.1211636538022997E-02 a       628     0    13     1    28
 -2.3121983128902029E-01 a       629     0    13     1    29
 -5.1784323730024139E-03 a       630     0    13     1    30
 -5.9172511406123944E-02 a       631     0    13     1    31
  1.6832702137471686E-01 a       632     0    13     1    32
  1.3977139477585035E-01 a       633     0    13     1    33
  7.9479496450488588E-02 a       634     0    13     1    34
 -2.4180874383135814E-01 a       635     0    13     1    35
  1.7966429209456128E-01 a       636     0    13     1    36
  1.6811551745848857E-01 a       637     0    13     1    37
  1.6995629228352827E-01 a       638     0    13     1    38
 -1.4069611173781835E-01 a       639     0    13     1    39
  1.0073002538204213E-01 a       640     0    13     1    40
 -1.3233912994960698E-01 a       641     0    13     1    41
  4.0893683302047838E-02 a       642     0    13     1    42
 -4.5322879755197262E-02 a       643     0    13     1    43
  1.7246639850726900E-02 a       644     0    13     1    44
  4.9812278678152917E-02 a       645     0    13     1    45
 -7.8834430507116596E-02 a       646     0    13     1    46
 -1.1191805219483282E-01 a       647     0    13     1    47
  1.9509190434336951E-01 a       648     0    13     1    48
 -2.5298147775863122E-01 a       649     0    13     1    49
  1.0107673824671898E-01 a       650     0    13     1    50
 -2.5214465466398223E-01 a       651     0    14     1     1
 -1.0505081036890304E-01 a       652     0    14     1     2
 -6.5999945279882746E-02 a       653     0    14     1     3
  1.2800058700188657E-01 a       654     0    14     1     4
  5.9215778360006043E-02 a       655     0    14     1     5
 -2.3857656068418175E-02 a       656     0    14     1     6
  9.8700203811301762E-02 a       657     0    14     1     7
  2.2878139931003913E-01 a       658     0    14     1     8
  1.1786240044632983E-01 a       659     0    14     1     9
 -1.8206384880437146E-01 a       660     0    14     1    10
 -3.4330768577914957E-02 a       661     0    14     1    11
  2.0621597345700637E-03 a       662     0    14     1    12
  2.3834882798861851E-01 a       663     0    14     1    13
  1.2029048110671693E-02 a       664     0    14     1    14
  1.7230834685236449E-01 a       665     0    14     1    15
  9.8342518394320316E-02 a       666     0    14     1    16
 -2.0498116098137359E-01 a       667     0    14     1    17
 -1.2001881717482381E-01 a       668     0    14     1    18
  5.4986136587689798E-03 a       669     0    14     1    19
 -2.2209988721758023E-01 a       670     0    14     1    20
  1.5676769278179534E-01 a       671     0    14     1    21
 -1.0634067337941816E-01 a       672     0    14     1    22
  2.0989669935403960E-01 a       673     0    14     1    23
  1.9703164750175595E-01 a       674     0    14     1    24
 -2.3294794959038906E-01 a       675     0    14     1    25
 -2.7858906927600742E-02 a       676     0    14     1    26
 -1.0956250687286878E-01 a       677     0    14     1    27
 -8.8351313308730126E-02 a       678     0    14     1    28
 -2.0984619283931691E-01 a       679     0    14     1    29
 -2.4909778883861738E-01 a       680     0    14     1    30
 -5.5968156651336705E-02 a       681     0    14     1    31
  1.4224652271141069E-01 a       682     0    14     1    32
  1.7800383249455539E-02 a       683     0    14     1    33
  2.3036297649910406E-01 a       684     0    14     1    34
 -1.5220391075445286E-01 a       685     0    14     1    35
  1.9870121880699471E-01 a       686     0    14     1    36
 -9.3733510457714039E-02 a       687     0    14     1    37
 -9.8080227433062439E-02 a       688     0    14     1    38
 -1.5362612151834074E-01 a       689     0    14     1    39
  8.8293909601438819E-02 a       690     0    14     1    40
  2.2213553323686415E-02 a       691     0    14     1    41
 -3.7225971561519591E-02 a       692     0    14     1    42
 -1.0400232150904408E-01 a       693     0    14     1    43
 -1.3726869067544684E-01 a       694     0    14     1    44
  7.2863319854612803E-03 a       695     0    14     1    45
 -2.1500301962192214E-01 a       696     0    14     1    46
 -8.5687917904748070E-02 a       697     0    14     1    47
 -1.7620200714424478E-01 a       698     0    14     1    48
 -1.6279545937788986E-01 a       699     0    14     1    49
  5.5961813740989533E-02 a       700     0    14     1    50
  1.4680879672483979E-01 a       701     0    15     1     1
  1.5215167824698994E-01 a       702     0    15     1     2
  2.0684321282316148E-01 a       703     0    15     1     3
 -2.3052082611034963E-01 a       704     0    15     1     4
 -2.3022373488289927E-01 a       705     0    15     1     5
  1.5969157169466797E-01 a       706     0    15     1     6
 -1.3266348077908707E-01 a       707     0    15     1     7
 -2.2001598168691910E-01 a       708     0    15     1     8
 -8.2653910451783955E-02 a       709     0    15     1     9
 -1.9206383583235390E-01 a       710     0    15     1    10
  1.7407390364156985E-01 a       711     0    15     1    11
  1.0345340848782100E-01 a       712     0    15     1    12
  2.3551590475476955E-01 a       713     0    15     1    13
 -2.0152544357970423E-01 a       714     0    15     1    14
 -2.2232087291547845E-01 a       715     0    15     1    15
  7.4513003475691494E-02 a       716     0    15     1    16
  2.3719445410010134E-01 a       717     0    15     1    17
  1.5366927740172406E-01 a       718     0    15     1    18
  2.0837394683735164E-01 a       719     0    15     1    19
  2.2490516352968365E-01 a       720     0    15     1    20
  1.5156054571187760E-01 a       721     0    15     1    21
 -1.1708248920931152E-02 a       722     0    15     1    22
  2.5271373126182484E-01 a       723     0    15     1    23
  2.8710344711777445E-02 a       724     0    15     1    24
  3.8750923012461365E-02 a       725     0    15     1    25
 -1.0394020015961426E-01 a       726     0    15     1    26
  3.0949268626237553E-02 a       727     0    15     1    27
 -1.0006596792932683E-02 a       728     0    15     1    28
 -2.1477647718826717E-01 a       729     0    15     1    29
  2.0119907825959304E-01 a       730     0    15     1    30
 -1.7078017447587709E-01 a       731     0    15     1    31
 -6.3000716925500022E-02 a       732     0    15     1    32
 -8.2616879618840136E-02 a       733     0    15     1    33
 -8.8923960692297688E-02 a       734     0    15     1    34
  1.2527990538274683E-01 a       735     0    15     1    35
 -8.6275585135433611E-02 a       736     0    15     1    36
 -1.9915925677638699E-01 a       737     0    15     1    37
 -4.1033776141625566E-02 a       738     0    15     1    38
 -1.5150761336513699E-01 a       739     0    15     1    39
 -3.7304261160430098E-02 a       740     0    15     1    40
 -2.4008746492784450E-01 a       741     0    15     1    41
 -2.3588542988259648E-01 a       742     0    15     1    42
 -2.1459304152438100E-01 a       743     0    15     1    43
 -2.0387445512606354E-02 a       744     0    15     1    44
 -4.5978663882782954E-02 a       745     0    15     1    45
  1.6388158722329522E-02 a       746     0    15     1    46
 -1.3166202979978741E-03 a       747     0    15     1    47
  1.8339795021941599E-01 a       748     0    15     1    48
  3.5427816175516290E-02 a       749     0    15     1    49
  4.3422064666090457E-02 a       750     0    15     1    50
  2.6924521837633487E-02 a       751     0    16     1     1
 -2.3681064309423408E-01 a       752     0    16     1     2
  4.9211015895171621E-02 a       753     0    16     1     3
  2.1122486289740811E-01 a       754     0    16     1     4
 -2.5114352333939427E-01 a       755     0    16     1     5
 -2.0360126783968494E-01 a       756     0    16     1     6
  1.5928786444246087E-01 a       757     0    16     1     7
 -2.0578933549816225E-01 a       758     0    16     1     8
  2.5809530289600834E-03 a       759     0    16     1     9
  1.9140784728272600E-01 a       760     0    16     1    10
 -5.1502055776314344E-02 a       761     0    16     1    11
  2.0998060966721685E-01 a       762     0    16     1    12
 -1.3041841587901956E-01 a       763     0    16     1    13
 -2.3006380275926103E-01 a       764     0    16     1    14
  8.2416771607138811E-02 a       765     0    16     1    15
 -1.5627197147000865E-01 a       766     0    16     1    16
  1.0337356485328079E-01 a       767     0    16     1    17
 -1.1081074948424077E-01 a       768     0    16     1    18
  2.0883323714445562E-01 a       769     0    16     1    19
  1.2477850413494994E-01 a       770     0    16     1    20
 -3.1361864729164975E-02 a       771     0    16     1    21
  2.0816282239217435E-01 a       772     0    16     1    22
 -1.1668903968631672E-01 a       773     0    16     1    23
  1.3688452207965468E-01 a       774     0    16     1    24
  2.1732184032778856E-01 a       775     0    16     1    25
 -1.3154353636681038E-01 a       776     0    16     1    26
  2.2985887649980882E-01 a       777     0    16     1    27
  7.7728586221146728E-02 a       778     0    16     1    28
  1.6019118546851707E-01 a       779     0    16     1    29
  1.8248189199958678E-01 a       780     0    16     1    30
 -9.2991606498891738E-02 a       781     0    16     1    31
  1.5845792724305990E-01 a       782     0    16     1    32
  1.6129232222047735E-02 a       783     0    16     1    33
  1.9575163052230882E-02 a       784     0    16     1    34
 -2.3239861024396454E-02 a       785     0    16     1    35
  2.1555026682350176E-01 a       786     0    16     1    36
  3.7822219642291766E-02 a       787     0    16     1    37
  1.8060191820741284E-01 a       788     0    16     1    38
  1.8588671271275774E-02 a       789     0    16     1    39
 -2.2477039172808042E-01 a       790     0    16     1    40
  1.8623881142635323E-01 a       791     0    16     1    41
 -1.7688667388260476E-01 a       792     0    16     1    42
  1.9118794398705469E-01 a       793     0    16     1    43
 -2.2393750200368603E-01 a       794     0    16     1    44
  1.9717839030096121E-01 a       795     0    16     1    45
  1.3094851481829138E-03 a       796     0    16     1    46
  1.8247425929199140E-01 a       797     0    16     1    47
  4.0182043913599835E-02 a       798     0    16     1    48
  1.0983721430291547E-02 a       799     0    16     1    49
  1.5930691350867937E-01 a       800     0    16     1    50
  4.2663651635464629E-02 a       801     0    17     1     1
 -2.3036743858396003E-01 a       802     0    17     1     2
  1.7009303600270202E-02 a       803     0    17     1     3
  3.9038152392594991E-02 a       804     0    17     1     4
 -9.6031444082769646E-02 a       805     0    17     1     5
 -8.1760063120894580E-02 a       806     0    17     1     6
  1.2144012284495764E-01 a       807     0    17     1     7
  1.0827250282422565E-01 a       808     0    17     1     8
 -2.5131297434748145E-01 a       809     0    17     1     9
 -1.5743719007272956E-02 a       810     0    17     1    10
  9.1075343810435548E-03 a       811     0    17     1    11
  4.5812539995054469E-02 a       812     0    17     1    12
 -2.1114380022252202E-01 a       813     0    17     1    13
 -1.8189625174604451E-01 a       814     0    17     1    14
  1.7946029043160594E-01 a       815     0    17     1    15
  1.0079625122640300E-01 a       816     0    17     1    16
  1.6098424464609939E-01 a       817     0    17     1    17
  2.3912596567398456E-01 a       818     0    17     1    18
 -1.5476518218616336E-01 a       819     0    17     1    19
  1.3907756436458302E-01 a       820     0    17     1    20
  2.2570632764285997E-01 a       821     0    17     1    21
 -2.5231561594544688E-01 a       822     0    17     1    22
 -1.9112257483634827E-02 a       823     0    17     1    23
  2.4804354167501941E-01 a       824     0    17     1    24
 -4.9666910941236148E-03 a       825     0    17     1    25
 -1.9408138316162507E-01 a       826     0    17     1    26
  3.2460729054828365E-02 a       827     0    17     1    27
  2.8145078521774298E-02 a       828     0    17     1    28
  1.0443410831091382E-01 a       829     0    17     1    29
 -1.2207967498239096E-01 a       830     0    17     1    30
 -1.6188354739361813E-01 a       831     0    17     1    31
  1.8152904589866495E-01 a       832     0    17     1    32
  2.1118826933022877E-01 a       833     0    17     1    33
  1.5688751822832367E-01 a       834     0    17     1    34
 -1.6871493283226360E-01 a       835     0    17     1    35
  4.9756504757998497E-02 a       836     0    17     1    36
 -1.8489044268465787E-01 a       837     0    17     1    37
  2.2620630007690640E-01 a       838     0    17     1    38
  9.7097881174149830E-02 a       839     0    17     1    39
  2.0352169974084675E-01 a       840     0    17     1    40
 -1.9367335367349839E-01 a       841     0    17     1    41
 -2.0858463247081530E-01 a       842     0    17     1    42
  8.8256297015946741E-02 a       843     0    17     1    43
 -2.3550917143280833E-01 a       844     0    17     1    44
 -6.7084430257043207E-02 a       845     0    17     1    45
 -2.0090019932035652E-01 a       846     0    17     1    46
 -2.1747817859538415E-01 a       847     0    17     1    47
 -1.2889383830992809E-01 a       848     0    17     1    48
  7.4561329250792410E-02 a       849     0    17     1    49
 -2.0002667872317917E-01 a       850     0    17     1    50
 -2.8408743356129036E-02 a       851     0    18     1     1
  6.3473450568370365E-02 a       852     0    18     1     2
 -8.2267563851510790E-04 a       853     0    18     1     3
 -7.7066946989622867E-02 a       854     0    18     1     4
 -2.4200895863246835E-01 a       855     0    18     1     5
 -1.9434408213453319E-01 a       856     0    18     1     6
  2.2736869910625879E-01 a       857     0    18     1     7
 -1.5004944548943328E-01 a       858     0    18     1     8
 -2.3471339423882318E-01 a       859     0    18     1     9
  1.8690215417489539E-01 a       860     0    18     1    10
  2.4506913912306454E-02 a       861     0    18     1    11
  1.4005080343719098E-01 a       862     0    18     1    12
 -1.6484401594933770E-01 a       863     0    18     1    13
 -2.1843133031855641E-01 a       864     0    18     1    14
 -7.4915598239123291E-03 a       865     0    18     1    15
 -1.8245513280939740E-01 a       866     0    18     1    16
  8.3131038038829513E-02 a       867     0    18     1    17
  1.2492345291965340E-01 a       868     0    18     1    18
  1.1860947346443558E-01 a       869     0    18     1    19
 -8.5855308400487870E-02 a       870     0    18     1    20
 -5.5541408335508802E-02 a       871     0    18     1    21
 -1.2865394315690942E-01 a       872     0    18     1    22
 -2.4080122321794920E-01 a       873     0    18     1    23
  1.9519991968992412E-01 a       874     0    18     1    24
 -5.6056568887289694E-02 a       875     0    18     1    25
 -5.0787379311347608E-02 a       876     0    18     1    26
 -1.7946669529883735E-01 a       877     0    18     1    27
 -1.9044277867017115E-01 a       878     0    18     1    28
  4.4255687289290004E-02 a       879     0    18     1    29
  2.4395145738571331E-01 a       880     0    18     1    30
  2.3973115897316061E-01 a       881     0    18     1    31
 -2.2968031402432709E-01 a       882     0    18     1    32
  1.4276921667328540E-01 a       883     0    18     1    33
 -1.8465540062270500E-01 a       884     0    18     1    34
 -2.1991657168779882E-01 a       885     0    18     1    35
 -1.5026903222229113E-01 a       886     0    18     1    36
  2.6337905971273181E-03 a       887     0    18     1    37
  2.4880620963331823E-01 a       888     0    18     1    38
  5.6462366619473424E-02 a       889     0    18     1    39
 -2.1133978304735782E-01 a       890     0    18     1    40
  1.6062797841041615E-01 a       891     0    18     1    41
 -1.8588440948639745E-01 a       892     0    18     1    42
  2.1697443499682217E-01 a       893     0    18     1    43
  2.5140750675818821E-02 a       894     0    18     1    44
 -5.2759819412680251E-02 a       895     0    18     1    45
 -6.3458819467998126E-02 a       896     0    18     1    46
  9.5718120746247734E-02 a       897     0    18     1    47
  1.3588681384319047E-02 a       898     0    18     1    48
 -1.7399201471633519E-01 a       899     0    18     1    49
 -2.3960132754928926E-01 a       900     0    18     1    50
 -1.0908483416037736E-02 a       901     0    19     1     1
  2.5420396783053356E-01 a       902     0    19     1     2
 -5.8421542001623403E-02 a       903     0    19     1     3
  2.6388916584330294E-02 a       904     0    19     1     4
  9.1042501905028925E-03 a       905     0    19     1     5
  1.5616889923632668E-01 a       906     0    19     1     6
 -9.8231072229896341E-02 a       907     0    19     1     7
  2.2022416216928277E-02 a       908     0    19     1     8
  7.9941437584667985E-02 a       909     0    19     1     9
 -1.7452366519393428E-01 a       910     0    19     1    10
  2.0394618050606345E-01 a       911     0    19     1    11
 -1.9425639150006482E-01 a       912     0    19     1    12
  2.6335792896655479E-02 a       913     0    19     1    13
 -1.8465063909939516E-01 a       914     0    19     1    14
 -1.3546764626728347E-01 a       915     0    19     1    15
 -1.0943505716200568E-01 a       916     0    19     1    16
 -1.8390044064783212E-01 a       917     0    19     1    17
 -2.2744861028688390E-01 a       918     0    19     1    18
  9.6997582373200927E-02 a       919     0    19     1    19
  1.1400452245509493E-01 a       920     0    19     1    20
  2.2343356432904909E-01 a       921     0    19     1    21
  1.8679080599986222E-01 a       922     0    19     1    22
  8.3276185061778672E-03 a       923     0    19     1    23
 -2.9153287082544548E-02 a       924     0    19     1    24
  2.0311516803958538E-01 a       925     0    19     1    25
  2.3825642934446389E-01 a       926     0    19     1    26
 -1.5812462346543033E-01 a       927     0    19     1    27
  1.5146626243681854E-02 a       928     0    19     1    28
 -1.3721694478520130E-01 a       929     0    19     1    29
  3.3700643876093818E-02 a       930     0    19     1    30
 -1.4976411893483614E-02 a       931     0    19     1    31
 -1.4494251695002902E-01 a       932     0    19     1    32
 -7.9775852519669690E-02 a       933     0    19     1    33
  1.9018243988590264E-01 a       934     0    19     1    34
  1.9295844709995011E-01 a       935     0    19     1    35
  2.3335854951623658E-02 a       936     0    19     1    36
 -1.0739759693771173E-01 a       937     0    19     1    37
  6.5579091668074463E-02 a       938     0    19     1    38
  4.0965082486782038E-02 a       939     0    19     1    39
 -7.2150542171930988E-03 a       940     0    19     1    40
  2.3084153777558578E-01 a       941     0    19     1    41
  1.9680055391279153E-01 a       942     0    19     1    42
  9.4480448859326618E-02 a       943     0    19     1    43
  2.2999391051816775E-01 a       944     0    19     1    44
 -2.2287919672363080E-01 a       945     0    19     1    45
  1.2197232427504161E-01 a       946     0    19     1    46
  2.4427541494951946E-01 a       947     0    19     1    47
  2.2572489853512168E-01 a       948     0    19     1    48
  2.2499810872631409E-01 a       949     0    19     1    49
 -2.3435511945846699E-02 a       950     0    19     1    50
  6.4535775791831340E-02 a       951     0    20     1     1
  7.2560209058021047E-02 a       952     0    20     1     2
  1.6793026054761212E-01 a       953     0    20     1     3
 -1.2873673051642495E-01 a       954     0    20     1     4
 -1.3081205365105031E-01 a       955     0    20     1     5
  1.6753243503723581E-01 a       956     0    20     1     6
 -4.5032206119328788E-02 a       957     0    20     1     7
  2.2081617054403488E-01 a       958     0    20     1     8
 -1.6781767727814595E-01 a       959     0    20     1     9
 -9.1552918295697852E-02 a       960     0    20     1    10
 -7.6553896658399748E-02 a       961     0    20     1    11
 -1.6889054254491359E-01 a       962     0    20     1    12
 -1.8614407280981679E-01 a       963     0    20     1    13
 -1.9993873015304500E-01 a       964     0    20     1    14
  2.0443448530529415E-01 a       965     0    20     1    15
 -4.1024370706058653E-02 a       966     0    20     1    16
 -1.0005522191802885E-01 a       967     0    20     1    17
 -7.6871005429736822E-02 a       968     0    20     1    18
 -1.8769774026578470E-01 a       969     0    20     1    19
 -2.1253359968729460E-01 a       970     0    20     1    20
 -1.3119722425971481E-01 a       971     0    20     1    21
  8.7826084703802834E-02 a       972     0    20     1    22
 -1.6287052115394324E-01 a       973     0    20     1    23
  2.3155191329116323E-01 a       974     0    20     1    24
  9.9691584121233426E-02 a       975     0    20     1    25
 -7.5527536157581079E-02 a       976     0    20     1    26
 -2.1861763324239575E-02 a       977     0    20     1    27
  1.9858616059189607E-01 a       978     0    20     1    28
 -1.6305702826198645E-01 a       979     0    20     1    29
 -1.9306304530433918E-01 a       980     0    20     1    30
 -8.8821539422117166E-02 a       981     0    20     1    31
 -2.3948521689959290E-01 a       982     0    20     1    32
 -6.2671407880413504E-02 a       983     0    20     1    33
  2.4218186317198515E-01 a       984     0    20     1    34
 -2.0613766031210146E-01 a       985     0    20     1    35
 -2.4758726751466140E-01 a       986     0    20     1    36
 -1.3936564996269443E-01 a       987     0    20     1    37
 -1.7691764507064907E-03 a       988     0    20     1    38
 -1.1846449257155794E-01 a       989     0    20     1    39
  1.9020166304977662E-01 a       990     0    20     1    40
 -1.5452955944193472E-01 a       991     0    20     1    41
 -1.7488901923209851E-01 a       992     0    20     1    42
 -3.6542484501262330E-02 a       993     0    20     1    43
 -1.1965480395022896E-01 a       994     0    20     1    44
 -1.3600921020311629E-01 a       995     0    20     1    45
 -1.0679569924531607E-01 a       996     0    20     1    46
 -1.5548314474437738E-01 a       997     0    20     1    47
 -1.9633905920115222E-01 a       998     0    20     1    48
  1.1720066477136430E-01 a       999     0    20     1    49
  2.0034455345284891E-01 a      1000     0    20     1    50
  5.7970476024953643E-05 a      1001     0    21     1     1
 -1.2003848093419885E-01 a      1002     0    21     1     2
  6.0176234692801346E-02 a      1003     0    21     1     3
 -6.1495926910632888E-02 a      1004     0    21     1     4
 -9.8491544441466364E-02 a      1005     0    21     1     5
  2.8646929640767021E-02 a      1006     0    21     1     6
  1.7516712192318468E-01 a      1007     0    21     1     7
 -4.3088607839497341E-02 a      1008     0    21     1     8
  2.1171565025309777E-01 a      1009     0    21     1     9
 -6.7839857822067293E-02 a      1010     0    21     1    10
  3.8457469284386661E-02 a      1011     0    21     1    11
 -1.4937841842237873E-01 a      1012     0    21     1    12
  1.2340652161494196E-01 a      1013     0    21     1    13
 -7.5709648013338265E-02 a      1014     0    21     1    14
  2.4717612448499379E-01 a      1015     0    21     1    15
 -2.0597635360185138E-01 a      1016     0    21     1    16
 -5.7820874884732497E-02 a      1017     0    21     1    17
 -2.1673014566178997E-01 a      1018     0    21     1    18
  2.3578633918143041E-01 a      1019     0    21     1    19
  4.7771557095797716E-02 a      1020     0    21     1    20
 -1.7941521994968895E-01 a      1021     0    21     1    21
 -2.3015267140696385E-01 a      1022     0    21     1    22
  1.6777471737354421E-01 a      1023     0    21     1    23
 -1.0505624806657703E-01 a      1024     0    21     1    24
  1.7579551825388229E-01 a      1025     0    21     1    25
 -2.1580656295080425E-01 a      1026     0    21     1    26
 -2.0617013154647520E-01 a      1027     0    21     1    27
 -1.8183957546727683E-01 a      1028     0    21     1    28
  1.6755086548596534E-01 a      1029     0    21     1    29
 -1.0812116320475210E-01 a      1030     0    21     1    30
 -1.0490804125354888E-01 a      1031     0    21     1    31
 -6.7204062341011561E-02 a      1032     0    21     1    32
 -1.6917948198261953E-01 a      1033     0    21     1    33
 -2.3696660141510204E-01 a      1034     0    21     1    34
 -1.1846520703789275E-01 a      1035     0    21     1    35
 -1.3739133890616115E-01 a      1036     0    21     1    36
 -1.8167137525095220E-01 a      1037     0    21     1    37
 -2.3531842295387680E-02 a      1038     0    21     1    38
 -1.2900276255564996E-01 a      1039     0    21     1    39
 -1.9990223124551987E-01 a      1040     0    21     1    40
  2.0476319856537112E-01 a      1041     0    21     1    41
 -1.4740239754611145E-01 a      1042     0    21     1    42
  5.7000211120626879E-02 a      1043     0    21     1    43
  9.9981103527700163E-02 a      1044     0    21     1    44
 -2.2919116097470257E-01 a      1045     0    21     1    45
 -1.7759966324139775E-01 a      1046     0    21     1    46
  9.3296738326668585E-02 a      1047     0    21     1    47
  6.1700800132138134E-03 a      1048     0    21     1    48
  2.4263428756226052E-01 a      1049     0    21     1    49
  7.9937983696480891E-02 a      1050     0    21     1    50
  5.8388533728306928E-02 a      1051     0    22     1     1
 -1.8398755892436616E-01 a      1052     0    22     1     2
  3.6686475629941463E-02 a      1053     0    22     1     3
 -1.1718890782825671E-01 a      1054     0    22     1     4
  2.5406696379731075E-01 a      1055     0    22     1     5
 -5.7345125689712020E-02 a      1056     0    22     1     6
 -7.4277675056392739E-02 a      1057     0    22     1     7
  2.3491988440419564E-02 a      1058     0    22     1     8
  1.3822834168766635E-02 a      1059     0    22     1     9
  2.0345798772868484E-01 a      1060     0    22     1    10
  1.5981274235477477E-01 a      1061     0    22     1    11
 -1.6393364943851588E-01 a      1062     0    22     1    12
  2.4674653400115626E-01 a      1063     0    22     1    13
  1.5749316235004884E-01 a      1064     0    22     1    14
  4.5925907060727793E-02 a      1065     0    22     1    15
  1.1973439095721415E-01 a      1066     0    22     1    16
 -7.7893037867596909E-02 a      1067     0    22     1    17
  4.8576265951402103E-02 a      1068     0    22     1    18
 -1.3127160153706260E-01 a      1069     0    22     1    19
 -3.3049206957452053E-02 a      1070     0    22     1    20
 -2.0603497777651855E-01 a      1071     0    22     1    21
 -1.5440515453733600E-01 a      1072     0    22     1    22
  1.6728735738706821E-01 a      1073     0    22     1    23
 -8.8236803429894775E-02 a      1074     0    22     1    24
  1.6786504123505180E-01 a      1075     0    22     1    25
  4.2481897369632322E-02 a      1076     0    22     1    26
  2.0319890508754129E-02 a      1077     0    22     1    27
  1.5855913494317608E-01 a      1078     0    22     1    28
  7.3448632485859408E-02 a      1079     0    22     1    29
 -2.1078492145173403E-01 a      1080     0    22     1    30
  2.9373067177962370E-02 a      1081     0    22     1    31
 -1.8197160618215946E-01 a      1082     0    22     1    32
  2.2536558856344655E-01 a      1083     0    22     1    33
 -8.8075856450114537E-02 a      1084     0    22     1    34
 -3.1605655198305958E-02 a      1085     0    22     1    35
 -1.6517478282445056E-01 a      1086     0    22     1    36
 -2.0782305119583330E-01 a      1087     0    22     1    37
  1.8462038772904803E-02 a      1088     0    22     1    38
 -2.2439483739865987E-01 a      1089     0    22     1    39
 -9.3480089201191149E-02 a      1090     0    22     1    40
 -1.2756459688326086E-01 a      1091     0    22     1    41
  1.0808899438181134E-02 a      1092     0    22     1    42
 -1.1969052679129254E-02 a      1093     0    22     1    43
 -1.4929418131933997E-02 a      1094     0    22     1    44
  8.9003032898223741E-02 a      1095     0    22     1    45
 -2.5181826484652331E-01 a      1096     0    22     1    46
  3.2835290884909649E-02 a      1097     0    22     1    47
  1.2927436084416480E-01 a      1098     0    22     1    48
 -1.0878791227381593E-01 a      1099     0    22     1    49
 -1.9193054528785225E-01 a      1100     0    22     1    50
  2.4490421941078649E-01 a      1101     0    23     1     1
 -2.4160050365157437E-01 a      1102     0    23     1     2
 -7.4763986175845967E-02 a      1103     0    23     1     3
  3.5210075662673077E-02 a      1104     0    23     1     4
  1.7761042173920792E-02 a      1105     0    23     1     5
 -1.2199881316197216E-04 a      1106     0    23     1     6
  8.0622350758548664E-02 a      1107     0    23     1     7
  1.9812855988826827E-01 a      1108     0    23     1     8
 -2.2092808156346930E-02 a      1109     0    23     1     9
  7.3889906420761445E-02 a      1110     0    23     1    10
  1.1659326124061394E-01 a      1111     0    23     1    11
  9.7568837926877913E-03 a      1112     0    23     1    12
  5.6655420584229350E-02 a      1113     0    23     1    13
 -2.0044549001727208E-01 a      1114     0    23     1    14
 -7.3771507885276944E-03 a      1115     0    23     1    15
 -2.3348783605250038E-03 a      1116     0    23     1    16
 -1.3851874347432689E-02 a      1117     0    23     1    17
  4.3758940418636580E-02 a      1118     0    23     1    18
 -1.0622846411072148E-01 a      1119     0    23     1    19
  2.1879316898732598E-01 a      1120     0    23     1    20
 -2.2344250990421044E-01 a      1121     0    23     1    21
  4.6598048994940938E-02 a      1122     0    23     1    22
 -2.4750045640632687E-01 a      1123     0    23     1    23
  4.2937121473775916E-02 a      1124     0    23     1    24
 -8.2407012149221900E-02 a      1125     0    23     1    25
 -2.2128612730551642E-01 a      1126     0    23     1    26
  1.2621522922059139E-01 a      1127     0    23     1    27
  2.2848329822105162E-01 a      1128     0    23     1    28
 -1.9830358963215747E-01 a      1129     0    23     1    29
  8.2960924294243676E-02 a      1130     0    23     1    30
 -1.0995994720407425E-02 a      1131     0    23     1    31
 -4.9654207639424755E-02 a      1132     0    23     1    32
 -5.2569525561711079E-03 a      1133     0    23     1    33
  1.2799043273234659E-01 a      1134     0    23     1    34
 -5.3283845863782889E-02 a      1135     0    23     1    35
 -4.5060850653937598E-03 a      1136     0    23     1    36
  2.8191939212779866E-02 a      1137     0    23     1    37
 -1.5531258184211069E-01 a      1138     0    23     1    38
 -7.3827535460007278E-03 a      1139     0    23     1    39
 -1.7355042433753887E-01 a      1140     0    23     1    40
 -2.2836707935491640E-01 a      1141     0    23     1    41
 -2.1378745968319673E-01 a      1142     0    23     1    42
  1.2111266834422720E-01 a      1143     0    23     1    43
 -9.8096928321476831E-02 a      1144     0    23     1    44
  1.6524686127544715E-02 a      1145     0    23     1    45
  2.2433745890223125E-01 a      1146     0    23     1    46
  1.6089831151794962E-01 a      1147     0    23     1    47
  2.1127735583783930E-01 a      1148     0    23     1    48
  2.1450461834786494E-01 a      1149     0    23     1    49
  1.0310429666685721E-01 a      1150     0    23     1    50
  1.8853067268215881E-01 a      1151     0    24     1     1
  1.0846833652443033E-01 a      1152     0    24     1     2
 -2.4284772867166357E-01 a      1153     0    24     1     3
 -1.6531908088349090E-01 a      1154     0    24     1     4
 -1.2979141542146405E-01 a      1155     0    24     1     5
 -2.4975022753229317E-01 a      1156     0    24     1     6
  8.5258595464705253E-02 a      1157     0    24     1     7
  1.5828854425673428E-01 a      1158     0    24     1     8
 -9.9802355538323229E-02 a      1159     0    24     1     9
  3.3445572140499563E-02 a      1160     0    24     1    10
  8.1077510765263081E-02 a      1161     0    24     1    11
 -1.2562089918700864E-01 a      1162     0    24     1    12
  1.5311618877191011E-01 a      1163     0    24     1    13
  2.1031823746455347E-02 a      1164     0    24     1    14
  1.5214546626664188E-01 a      1165     0    24     1    15
  1.9875453003019050E-01 a      1166     0    24     1    16
 -1.9605098430576551E-01 a      1167     0    24     1    17
  1.3532526363921096E-01 a      1168     0    24     1    18
  1.3797908462349465E-01 a      1169     0    24     1    19
 -1.4236662119633861E-01 a      1170     0    24     1    20
 -2.5134979754756565E-01 a      1171     0    24     1    21
  1.8918375912851865E-01 a      1172     0    24     1    22
 -2.4109903771175248E-01 a      1173     0    24     1    23
 -8.0939011204639033E-02 a      1174     0    24     1    24
 -8.0428475419129869E-02 a      1175     0    24     1    25
  1.7444726676648223E-01 a      1176     0    24     1    26
 -1.6482365235068497E-01 a      1177     0    24     1    27
  8.2426974157859226E-02 a      1178     0    24     1    28
 -5.2288360345405183E-02 a      1179     0    24     1    29
 -9.0171329366736511E-02 a      1180     0    24     1    30
 -1.2978704870977731E-01 a      1181     0    24     1    31
 -1.3542264107198729E-01 a      1182     0    24     1    32
  8.3700574021401103E-02 a      1183     0    24     1    33
 -2.3195404082120130E-01 a      1184     0    24     1    34
 -6.1984081871717465E-02 a      1185     0    24     1    35
 -1.4214502413502042E-01 a      1186     0    24     1    36
 -5.8437609288734219E-02 a      1187     0    24     1    37
 -2.1329225983194236E-01 a      1188     0    24     1    38
  2.1538611164252636E-01 a      1189     0    24     1    39
 -2.1443580910359442E-01 a      1190     0    24     1    40
  1.8061463019032317E-01 a      1191     0    24     1    41
  1.4588068842616475E-01 a      1192     0    24     1    42
 -2.0066338405475548E-01 a      1193     0    24     1    43
  7.1395520834769697E-03 a      1194     0    24     1    44
 -1.6106072500885515E-01 a      1195     0    24     1    45
 -2.1400187652433700E-01 a      1196     0    24     1    46
  9.7332299742928022E-02 a      1197     0    24     1    47
 -1.5171780512731431E-01 a      1198     0    24     1    48
 -2.2501372602330991E-01 a      1199     0    24     1    49
 -1.2102694130298791E-01 a      1200     0    24     1    50
  1.7115679336965003E-01 a      1201     0    25     1     1
 -1.8081831862020162E-01 a      1202     0    25     1     2
  5.8255865368869154E-02 a      1203     0    25     1     3
  4.6669497412208862E-02 a      1204     0    25     1     4
 -1.0432273290339217E-02 a      1205     0    25     1     5
 -1.2111249067899681E-01 a      1206     0    25     1     6
  2.0377334731804481E-01 a      1207     0    25     1     7
  1.0136922218901466E-01 a      1208     0    25     1     8
  2.3102002354820703E-01 a      1209     0    25     1     9
  5.2067775286169071E-02 a      1210     0    25     1    10
  1.7456874197856695E-01 a      1211     0    25     1    11
 -1.1739481350594018E-01 a      1212     0    25     1    12
  1.7486081410379914E-01 a      1213     0    25     1    13
  1.6005749285832335E-01 a      1214     0    25     1    14
  1.0488851211066702E-01 a      1215     0    25     1    15
  1.7615010618340990E-01 a      1216     0    25     1    16
  1.6685700046922139E-01 a      1217     0    25     1    17
  1.9525932242835528E-01 a      1218     0    25     1    18
 -2.0812921714465668E-01 a      1219     0    25     1    19
  2.4773521020822720E-01 a      1220     0    25     1    20
 -1.7085205207240636E-01 a      1221     0    25     1    21
  7.7066840438052300E-02 a      1222     0    25     1    22
 -6.0273425898167497E-02 a      1223     0    25     1    23
 -6.2788262964073874E-02 a      1224     0    25     1    24
 -1.6820126459706652E-01 a      1225     0    25     1    25
 -1.8203190319270077E-01 a      1226     0    25     1    26
 -1.7007664739601119E-01 a      1227     0    25     1    27
 -2.4098347420912780E-01 a      1228     0    25     1    28
 -5.0754767871279999E-02 a      1229     0    25     1    29
  1.9202049562426701E-01 a      1230     0    25     1    30
 -5.3287829180086253E-02 a      1231     0    25     1    31
 -5.1427401774072887E-02 a      1232     0    25     1    32
  2.4170239287741702E-01 a      1233     0    25     1    33
  5.6323271630597319E-02 a      1234     0    25     1    34
  3.0733950377837351E-02 a      1235     0    25     1    35
 -1.4401218236569255E-01 a      1236     0    25     1    36
  2.3515380279897183E-01 a      1237     0    25     1    37
 -1.4857564152750591E-01 a      1238     0    25     1    38
 -6.5416619668940440E-02 a      1239     0    25     1    39
 -1.2208978108966971E-01 a      1240     0    25     1    40
 -1.9417127475197304E-01 a      1241     0    25     1    41
  2.2633976020013533E-01 a      1242     0    25     1    42
 -9.6984351664899049E-02 a      1243     0    25     1    43
  2.4188899571538691E-02 a      1244     0    25     1    44
 -1.3868155201469384E-01 a      1245     0    25     1    45
  7.8631086110378376E-02 a      1246     0    25     1    46
  1.4650350792376701E-01 a      1247     0    25     1    47
  2.4645296432689706E-01 a      1248     0    25     1    48
 -1.1546170318282174E-01 a      1249     0    25     1    49
 -1.4088166475741212E-01 a      1250     0    25     1    50
  1.6878396112563346E-01 a      1251     0    26     1     1
  2.1912107680790799E-01 a      1252     0    26     1     2
  7.8202502396179735E-02 a      1253     0    26     1     3
  4.5144555593719334E-02 a      1254     0    26     1     4
 -1.8982928707284114E-01 a      1255     0    26     1     5
 -2.6621430068107896E-02 a      1256     0    26     1     6
 -5.6546026964568813E-02 a      1257     0    26     1     7
  1.8970000434199056E-02 a      1258     0    26     1     8
  1.5888278117661195E-01 a      1259     0    26     1     9
 -1.9373895186251386E-01 a      1260     0    26     1    10
 -5.7728926230692880E-03 a      1261     0    26     1    11
  7.8226521569920993E-02 a      1262     0    26     1    12
  2.5144552390667479E-01 a      1263     0    26     1    13
 -1.8342670760831103E-01 a      1264     0    26     1    14
  7.1275154068208738E-02 a      1265     0    26     1    15
 -1.9450046452113848E-01 a      1266     0    26     1    16
  2.0417902743917574E-01 a      1267     0    26     1    17
 -1.8757953009825531E-01 a      1268     0    26     1    18
  2.4534335696291476E-01 a      1269     0    26     1    19
  1.2100019471822987E-01 a      1270     0    26     1    20
  1.8624419014012208E-01 a      1271     0    26     1    21
  8.5199562208115361E-03 a      1272     0    26     1    22
  1.6106143721572586E-01 a      1273     0    26     1    23
 -5.0861178641560395E-02 a      1274     0    26     1    24
 -1.1423997490708131E-01 a      1275     0    26     1    25
 -2.2441116452414311E-01 a      1276     0    26     1    26
 -7.5932731207443774E-02 a      1277     0    26     1    27
 -6.3374103715325938E-02 a      1278     0    26     1    28
  2.0664535678366092E-01 a      1279     0    26     1    29
 -3.5672918917627409E-02 a      1280     0    26     1    30
 -2.1700053180727041E-01 a      1281     0    26     1    31
  2.3869718395937856E-01 a      1282     0    26     1    32
 -1.0482906228024709E-01 a      1283     0    26     1    33
  4.7531522212761843E-02 a      1284     0    26     1    34
  8.9345232899561786E-03 a      1285     0    26     1    35
  6.3391034236645202E-02 a      1286     0    26     1    36
 -1.6339602791079416E-01 a      1287     0    26     1    37
 -1.0255397599949480E-01 a      1288     0    26     1    38
 -2.2294603761790571E-01 a      1289     0    26     1    39
 -2.2015857658569862E-01 a      1290     0    26     1    40
 -1.1973227455285987E-01 a      1291     0    26     1    41
  1.1950033699459149E-01 a      1292     0    26     1    42
  2.8464336400235642E-04 a      1293     0    26     1    43
  1.9719870573735271E-01 a      1294     0    26     1    44
  4.7206028213362221E-02 a      1295     0    26     1    45
  2.5058078644108134E-01 a      1296     0    26     1    46
 -1.2252889164714785E-01 a      1297     0    26     1    47
  1.9705279013984930E-01 a      1298     0    26     1    48
  1.9984922933106858E-01 a      1299     0    26     1    49
  1.5332352647416145E-01 a      1300     0    26     1    50
 -1.4808739214460545E-01 a      1301     0    27     1     1
  3.9359365302105639E-03 a      1302     0    27     1     2
 -1.1312577250661819E-01 a      1303     0    27     1     3
 -2.5444036557095129E-01 a      1304     0    27     1     4
 -8.7023669085348976E-02 a      1305     0    27     1     5
 -1.6100926940028792E-01 a      1306     0    27     1     6
  6.2066591079309376E-02 a      1307     0    27     1     7
 -5.8175688403913427E-02 a      1308     0    27     1     8
  1.6813326983014737E-01 a      1309     0    27     1     9
 -1.6311528140886322E-01 a      1310     0    27     1    10
  1.9370060031333930E-01 a      1311     0    27     1    11
  1.1238887112025031E-01 a      1312     0    27     1    12
 -1.7604422912233567E-01 a      1313     0    27     1    13
 -2.0491666897841776E-01 a      1314     0    27     1    14
 -2.3000431749093037E-01 a      1315     0    27     1    15
 -2.0290200080101606E-01 a      1316     0    27     1    16
  6.9185808342571195E-02 a      1317     0    27     1    17
  1.7220989986063090E-01 a      1318     0    27     1    18
  2.0142210865358989E-01 a      1319     0    27     1    19
 -2.1966263111128859E-01 a      1320     0    27     1    20
  1.7697263352972803E-01 a      1321     0    27     1    21
  1.8800020009887503E-01 a      1322     0    27     1    22
  7.2743297715787900E-02 a      1323     0    27     1    23
 -1.6629895219677105E-02 a      1324     0    27     1    24
  1.3251200737555449E-01 a      1325     0    27     1    25
 -6.1138304877565622E-02 a      1326     0    27     1    26
  1.9167962882567191E-01 a      1327     0    27     1    27
 -1.4957253885419367E-01 a      1328     0    27     1    28
 -1.5562921517463177E-01 a      1329     0    27     1    29
 -1.4600532795827323E-01 a      1330     0    27     1    30
 -2.3916977644520174E-01 a      1331     0    27     1    31
 -1.7189956579512397E-01 a      1332     0    27     1    32
 -1.6853924891405556E-02 a      1333     0    27     1    33
 -1.3926696870020858E-01 a      1334     0    27     1    34
  2.0465957347649766E-01 a      1335     0    27     1    35
 -2.3323622510240472E-01 a      1336     0    27     1    36
 -9.9988648829710314E-02 a      1337     0    27     1    37
  1.9093592276584467E-01 a      1338     0    27     1    38
  2.2067392740814126E-01 a      1339     0    27     1    39
  6.1987535759904559E-02 a      1340     0    27     1    40
  8.1452125871129655E-02 a      1341     0    27     1    41
 -1.1139281027095921E-01 a      1342     0    27     1    42
 -7.9902118152421014E-02 a      1343     0    27     1    43
  1.7565614392389092E-01 a      1344     0    27     1    44
 -2.3499437406015303E-01 a      1345     0    27     1    45
 -1.7067958289594745E-01 a      1346     0    27     1    46
 -5.6390407325478752E-02 a      1347     0    27     1    47
 -1.9400032024890065E-01 a      1348     0    27     1    48
 -2.0950662844340134E-01 a      1349     0    27     1    49
  8.4882082765745395E-02 a      1350     0    27     1    50
  2.1689192162705956E-01 a      1351     0    28     1     1
 -3.1872386006536186E-03 a      1352     0    28     1     2
 -2.0760615512797068E-02 a      1353     0    28     1     3
 -2.8624831368275108E-02 a      1354     0    28     1     4
 -9.1176331153341589E-02 a      1355     0    28     1     5
  2.1381332376884182E-01 a      1356     0    28     1     6
  4.9365193996160741E-03 a      1357     0    28     1     7
 -2.1633033325002854E-01 a      1358     0    28     1     8
 -1.7010374395986766E-01 a      1359     0    28     1     9
  1.2735442069949396E-01 a      1360     0    28     1    10
  1.3155255317455070E-01 a      1361     0    28     1    11
 -1.9750202107490583E-01 a      1362     0    28     1    12
 -7.7410390885411989E-02 a      1363     0    28     1    13
 -8.3386346185720980E-02 a      1364     0    28     1    14
 -6.7840460385469162E-02 a      1365     0    28     1    15
  2.4628774957617416E-01 a      1366     0    28     1    16
 -1.4818117274836004E-01 a      1367     0    28     1    17
  4.3990947187858155E-02 a      1368     0    28     1    18
 -6.5088908778493312E-02 a      1369     0    28     1    19
  3.1112850497925296E-03 a      1370     0    28     1    20
  1.6025145274926744E-01 a      1371     0    28     1    21
  2.3473473487732391E-01 a      1372     0    28     1    22
  1.8415542545351779E-01 a      1373     0    28     1    23
  8.3234371300075549E-02 a      1374     0    28     1    24
  2.3229763122539995E-01 a      1375     0    28     1    25
 -1.6490517833463236E-01 a      1376     0    28     1    26
  1.1134437009562292E-01 a      1377     0    28     1    27
  1.8866270422947559E-01 a      1378     0    28     1    28
  1.6291713794174428E-01 a      1379     0    28     1    29
 -1.7840481328709903E-01 a      1380     0    28     1    30
  2.6592712992809298E-02 a      1381     0    28     1    31
  2.2693909423320247E-01 a      1382     0    28     1    32
  1.6450537460396986E-01 a      1383     0    28     1    33
 -1.3397690512456367E-01 a      1384     0    28     1    34
 -1.3118265963515502E-01 a      1385     0    28     1    35
  5.0945242955054475E-02 a      1386     0    28     1    36
  2.2366754967531435E-01 a      1387     0    28     1    37
  5.2051014700334568E-02 a      1388     0    28     1    38
  1.0830818107060289E-01 a      1389     0    28     1    39
  9.8479780838885603E-02 a      1390     0    28     1    40
  1.8945944811734156E-01 a      1391     0    28     1    41
 -5.9099021741413120E-02 a      1392     0    28     1    42
  1.3627075566013766E-01 a      1393     0    28     1    43
  1.1632564067920177E-01 a      1394     0    28     1    44
 -2.4575120176958040E-01 a      1395     0    28     1    45
 -2.4745977749020182E-01 a      1396     0    28     1    46
  1.3151316821784459E-01 a      1397     0    28     1    47
  1.3205439799082774E-01 a      1398     0    28     1    48
  1.4370158096990587E-01 a      1399     0    28     1    49
 -4.9130047642101417E-02 a      1400     0    28     1    50
  8.2690448483713902E-02 a      1401     0    29     1     1
 -1.1651890192005983E-01 a      1402     0    29     1     2
 -1.8941197023587700E-01 a      1403     0    29     1     3
 -2.4229053935233180E-01 a      1404     0    29     1     4
  2.3454163060976177E-01 a      1405     0    29     1     5
  1.9887722701776187E-01 a      1406     0    29     1     6
  1.5996048466954996E-01 a      1407     0    29     1     7
 -1.9619756668301912E-02 a      1408     0    29     1     8
  2.3066423750810630E-01 a      1409     0    29     1     9
  8.7531204064684301E-02 a      1410     0    29     1    10
 -6.1754529237274744E-02 a      1411     0    29     1    11
  2.0970082415104685E-01 a      1412     0    29     1    12
  1.0634722618208906E-01 a      1413     0    29     1    13
  1.5468364538057207E-02 a      1414     0    29     1    14
 -2.4845349682116200E-01 a      1415     0    29     1    15
 -2.1837925799520683E-01 a      1416     0    29     1    16
  3.9597102904739424E-02 a      1417     0    29     1    17
 -5.4772654926851967E-02 a      1418     0    29     1    18
 -2.0476999967125556E-01 a      1419     0    29     1    19
  2.4707018392108621E-01 a      1420     0    29     1    20
 -1.5408352790805524E-01 a      1421     0    29     1    21
  6.2338023713429336E-02 a      1422     0    29     1    22
  2.3267040474909928E-01 a      1423     0    29     1    23
 -1.6159813129289080E-01 a      1424     0    29     1    24
  2.5170437655815603E-01 a      1425     0    29     1    25
 -1.4064014076860987E-01 a      1426     0    29     1    26
  1.0678817011631216E-01 a      1427     0    29     1    27
  4.6347850685589470E-02 a      1428     0    29     1    28
 -4.8377865737808987E-02 a      1429     0    29     1    29
 -7.6547138244495022E-03 a      1430     0    29     1    30
 -7.4355538924697614E-03 a      1431     0    29     1    31
 -2.5463567626467454E-01 a      1432     0    29     1    32
 -6.0989588020244880E-02 a      1433     0    29     1    33
  7.1043675775750117E-02 a      1434     0    29     1    34
  2.3818944039583032E-01 a      1435     0    29     1    35
 -4.5075261397099713E-02 a      1436     0    29     1    36
  1.4755702492370057E-01 a      1437     0    29     1    37
  1.0656046334512656E-02 a      1438     0    29     1    38
  2.4163800742603175E-01 a      1439     0    29     1    39
 -1.5198688018901624E-01 a      1440     0    29     1    40
  1.7044117351895857E-01 a      1441     0    29     1    41
  4.6805244588791789E-02 a      1442     0    29     1    42
  2.0245702312876424E-02 a      1443     0    29     1    43
 -2.2025851054265363E-01 a      1444     0    29     1    44
  1.0657543502998330E-01 a      1445     0    29     1    45
 -2.2153119710701921E-01 a      1446     0    29     1    46
  1.1249092160047879E-01 a      1447     0    29     1    47
  1.0058326141522574E-01 a      1448     0    29     1    48
  7.6654548530345326E-02 a      1449     0    29     1    49
  1.2737461697888353E-02 a      1450     0    29     1    50
 -1.9703587376991050E-01 a      1451     0    30     1     1
  1.4616444512888344E-01 a      1452     0    30     1     2
  9.9311975242930534E-02 a      1453     0    30     1     3
  1.4418496382387505E-01 a      1454     0    30     1     4
 -1.3075068446533014E-01 a      1455     0    30     1     5
 -6.7264308929827488E-02 a      1456     0    30     1     6
  2.5216951733135073E-01 a      1457     0    30     1     7
  1.0955315376173384E-01 a      1458     0    30     1     8
  1.4481202516804231E-01 a      1459     0    30     1     9
  1.7080204989385644E-01 a      1460     0    30     1    10
  1.1827452182395622E-02 a      1461     0    30     1    11
  2.5013621868318642E-01 a      1462     0    30     1    12
 -1.4921012830316641E-01 a      1463     0    30     1    13
 -2.1489893407804728E-01 a      1464     0    30     1    14
 -3.9306556750214314E-02 a      1465     0    30     1    15
  2.1164812652498555E-01 a      1466     0    30     1    16
  6.0092335439106317E-02 a      1467     0    30     1    17
 -7.3562047119198171E-02 a      1468     0    30     1    18
 -1.5377546056072536E-01 a      1469     0    30     1    19
  1.3599266854746195E-01 a      1470     0    30     1    20
 -2.4564344852086234E-01 a      1471     0    30     1    21
  1.7371254409811035E-01 a      1472     0    30     1    22
  1.2079782878836960E-01 a      1473     0    30     1    23
  2.5763109004904700E-03 a      1474     0    30     1    24
 -6.8113095173413782E-02 a      1475     0    30     1    25
 -1.0361229483633468E-01 a      1476     0    30     1    26
  1.2513813090727688E-01 a      1477     0    30     1    27
 -1.0489708451749304E-01 a      1478     0    30     1    28
 -1.0636922717870516E-01 a      1479     0    30     1    29
  6.3233757459010623E-02 a      1480     0    30     1    30
 -1.0228080988072730E-01 a      1481     0    30     1    31
  1.0822450098492635E-01 a      1482     0    30     1    32
  4.2247244886859360E-02 a      1483     0    30     1    33
 -1.2856687328047495E-01 a      1484     0    30     1    34
  1.5624990197595434E-01 a      1485     0    30     1    35
 -7.7990487484305530E-03 a      1486     0    30     1    36
 -5.6650583309412299E-02 a      1487     0    30     1    37
  1.6465491200351934E-01 a      1488     0    30     1    38
 -1.3912606911302511E-01 a      1489     0    30     1    39
  1.2238668585187159E-02 a      1490     0    30     1    40
 -1.1160246701581956E-01 a      1491     0    30     1    41
 -1.4371718292632960E-01 a      1492     0    30     1    42
  1.2757781712667635E-01 a      1493     0    30     1    43
 -1.4346269841356513E-01 a      1494     0    30     1    44
  2.2250381506483580E-01 a      1495     0    30     1    45
  1.1332193489939101E-01 a      1496     0    30     1    46
  2.1214266994245695E-01 a      1497     0    30     1    47
 -4.7393191160592589E-02 a      1498     0    30     1    48
  9.5500895985816972E-02 a      1499     0    30     1    49
 -1.5803348334278391E-01 a      1500     0    30     1    50
  1.4802842928816040E-01 a      1501     0    31     1     1
  1.0900085106867201E-01 a      1502     0    31     1     2
  2.1053771027285259E-01 a      1503     0    31     1     3
 -9.8482822196494235E-02 a      1504     0    31     1     4
  9.4999130607541199E-02 a      1505     0    31     1     5
  1.1956838111296354E-01 a      1506     0    31     1     6
 -2.0503962556652322E-01 a      1507     0    31     1     7
  1.7026472851810359E-01 a      1508     0    31     1     8
  2.2079862616199322E-03 a      1509     0    31     1     9
  2.4810054997609182E-01 a      1510     0    31     1    10
  1.1117675543725977E-01 a      1511     0    31     1    11
 -1.6203580720957950E-01 a      1512     0    31     1    12
  5.3308615655284684E-02 a      1513     0    31     1    13
 -6.8898391664754935E-02 a      1514     0    31     1    14
 -4.0728220604868873E-02 a      1515     0    31     1    15
 -1.0914306994505626E-01 a      1516     0    31     1    16
  1.4653370280751143E-01 a      1517     0    31     1    17
 -6.1194143489745029E-02 a      1518     0    31     1    18
  3.4311753641496412E-02 a      1519     0    31     1    19
  1.6954705517129540E-01 a      1520     0    31     1    20
  2.3813393023838073E-01 a      1521     0    31     1    21
 -1.6113743179369838E-01 a      1522     0    31     1    22
 -1.3486218813513015E-01 a      1523     0    31     1    23
 -1.7802277274973920E-02 a      1524     0    31     1    24
 -2.9812939769440751E-02 a      1525     0    31     1    25
  1.7370034632166337E-01 a      1526     0    31     1    26
 -2.2851786790298592E-01 a      1527     0    31     1    27
  1.4246838543814033E-01 a      1528     0    31     1    28
  1.4557859914518817E-01 a      1529     0    31     1    29
 -5.4538295817655562E-02 a      1530     0    31     1    30
 -1.1190615421359720E-01 a      1531     0    31     1    31
 -5.4471498804552008E-02 a      1532     0    31     1    32
  2.2924795426992722E-01 a      1533     0    31     1    33
 -5.8375010122105143E-02 a      1534     0    31     1    34
 -2.2564611970277221E-02 a      1535     0    31     1    35
 -9.7529453445848457E-02 a      1536     0    31     1    36
 -1.8588171275652490E-01 a      1537     0    31     1    37
 -1.6206824348171914E-01 a      1538     0    31     1    38
  1.1880174898434669E-01 a      1539     0    31     1    39
 -1.0735445247056812E-01 a      1540     0    31     1    40
 -2.2145048274636325E-01 a      1541     0    31     1    41
 -8.6040956912170022E-02 a      1542     0    31     1    42
 -1.9437738378142624E-01 a      1543     0    31     1    43
  6.4422772737717737E-02 a      1544     0    31     1    44
  2.4427328035053314E-01 a      1545     0    31     1    45
  2.2759079681725566E-01 a      1546     0    31     1    46
 -2.0945852362010639E-01 a      1547     0    31     1    47
  1.0677928055207685E-02 a      1548     0    31     1    48
 -3.1214614145131204E-02 a      1549     0    31     1    49
 -1.6518840774977974E-02 a      1550     0    31     1    50
 -1.2014629090735796E-01 a      1551     0    32     1     1
  8.3033806163109417E-02 a      1552     0    32     1     2
 -4.7043057705094454E-02 a      1553     0    32     1     3
 -2.0994596102295791E-02 a      1554     0    32     1     4
  2.1160780424743209E-01 a      1555     0    32     1     5
 -8.9626091423344795E-02 a      1556     0    32     1     6
  7.9873685412842541E-04 a      1557     0    32     1     7
  2.5458917673116876E-01 a      1558     0    32     1     8
  8.4006648402468517E-03 a      1559     0    32     1     9
  1.1093746308548130E-01 a      1560     0    32     1    10
 -2.1737764112367397E-01 a      1561     0    32     1    11
 -2.0111085581862514E-02 a      1562     0    32     1    12
 -1.5414415872468870E-01 a      1563     0    32     1    13
  2.4220783464163495E-02 a      1564     0    32     1    14
  8.3387600782896767E-02 a      1565     0    32     1    15
 -2.5065007992418598E-01 a      1566     0    32     1    16
  4.7366826306349655E-02 a      1567     0    32     1    17
 -1.0661230020853225E-01 a      1568     0    32     1    18
 -2.3581922580044254E-01 a      1569     0    32     1    19
 -5.6467520219265606E-02 a      1570     0    32     1    20
 -1.3828905491528018E-01 a      1571     0    32     1    21
  1.5909447940675353E-01 a      1572     0    32     1    22
 -1.2806417712190579E-01 a      1573     0    32     1    23
  2.0968215943156504E-01 a      1574     0    32     1    24
  1.4844214763123453E-01 a      1575     0    32     1    25
 -8.3950227562064203E-02 a      1576     0    32     1    26
  2.0991941255752639E-01 a      1577     0    32     1    27
  2.0638220865307194E-01 a      1578     0    32     1    28
 -8.8387429891144328E-02 a      1579     0    32     1    29
  1.1468239546055861E-01 a      1580     0    32     1    30
 -2.6934545296093543E-02 a      1581     0    32     1    31
  1.7064798892824345E-02 a      1582     0    32     1    32
 -2.5110257079027382E-01 a      1583     0    32     1    33
 -2.1231878030478563E-01 a      1584     0    32     1    34
 -4.4321142061794196E-02 a      1585     0    32     1    35
 -2.2963873060904383E-01 a      1586     0    32     1    36
 -2.3379748633281675E-01 a      1587     0    32     1    37
 -1.5950877676723516E-01 a      1588     0    32     1    38
  1.9101354546608582E-01 a      1589     0    32     1    39
  1.4943105263877624E-01 a      1590     0    32     1    40
 -1.5700852406646973E-01 a      1591     0    32     1    41
  1.0650266625324211E-02 a      1592     0    32     1    42
 -6.8802277985929999E-02 a      1593     0    32     1    43
  4.7602328585465578E-02 a      1594     0    32     1    44
  1.0786861719327318E-01 a      1595     0    32     1    45
  1.9133224287852918E-01 a      1596     0    32     1    46
 -2.0646953610841473E-01 a      1597     0    32     1    47
  1.1527702766773602E-01 a      1598     0    32     1    48
 -1.6283585514748641E-01 a      1599     0    32     1    49
 -1.8652522882643791E-01 a      1600     0    32     1    50
 -1.3141879373178705E-02 a      1601     0    33     1     1
  9.5279835131007365E-02 a      1602     0    33     1     2
  1.9771992403132649E-01 a      1603     0    33     1     3
 -7.1389571309015659E-02 a      1604     0    33     1     4
 -2.4448744353709748E-01 a      1605     0    33     1     5
 -1.9749375238762359E-01 a      1606     0    33     1     6
 -7.6655281072392986E-02 a      1607     0    33     1     7
  4.4001524333943852E-02 a      1608     0    33     1     8
  1.7136935911508994E-01 a      1609     0    33     1     9
 -1.0867185240260244E-01 a      1610     0    33     1    10
 -2.3516186468582859E-01 a      1611     0    33     1    11
 -1.0299354439575274E-01 a      1612     0    33     1    12
 -1.4683308263426497E-02 a      1613     0    33     1    13
 -5.7121726170631396E-02 a      1614     0    33     1    14
  1.5550414396595946E-01 a      1615     0    33     1    15
  1.1417301378553202E-01 a      1616     0    33     1    16
 -2.2986495683664282E-01 a      1617     0    33     1    17
 -1.2246626310748536E-01 a      1618     0    33     1    18
  1.6236820648805085E-02 a      1619     0    33     1    19
 -5.1129295571561338E-02 a      1620     0    33     1    20
  1.1944351123443520E-01 a      1621     0    33     1    21
  1.3066982633140542E-01 a      1622     0    33     1    22
 -2.7201496580453052E-02 a      1623     0    33     1    23
