################################################################################
# Neural network connection values (weights and biases).
################################################################################
# Col  Name       Description
################################################################################
# 1    connection Neural network connection value.
# 2    t          Connection type (a = weight, b = bias).
# 3    index      Index enumerating weights.
# 4    l_s        Starting point layer (end point layer for biases).
# 5    n_s        Starting point neuron in starting layer (end point neuron for biases).
# 6    l_e        End point layer.
# 7    n_e        End point neuron in end layer.
################################################################################
#                      1 2         3     4     5     6     7
#             connection t     index   l_s   n_s   l_e   n_e
############################################################
  7.7786897757332829E-02 a         1     0     1     1     1
 -1.5578039972351601E-01 a         2     0     1     1     2
 -1.1744019626958074E-01 a         3     0     1     1     3
  1.5934090797861944E-01 a         4     0     1     1     4
  7.1202006652850702E-02 a         5     0     1     1     5
  7.6975990121407531E-02 a         6     0     1     1     6
  1.4753809489556484E-02 a         7     0     1     1     7
 -1.9793522586888213E-01 a         8     0     1     1     8
 -9.7381158632639270E-02 a         9     0     1     1     9
 -1.3328889592527285E-01 a        10     0     1     1    10
  2.5096388024547300E-01 a        11     0     1     1    11
 -7.2438073487820956E-02 a        12     0     1     1    12
 -1.8118702130309319E-01 a        13     0     1     1    13
  1.2686530249318437E-01 a        14     0     1     1    14
  2.0017474176293854E-01 a        15     0     1     1    15
  9.9435595994564599E-02 a        16     0     1     1    16
 -7.4983227448533599E-02 a        17     0     1     1    17
  2.2436989897978413E-01 a        18     0     1     1    18
  1.1515472882152433E-01 a        19     0     1     1    19
 -2.4301909237557784E-01 a        20     0     1     1    20
  1.3421083445990287E-01 a        21     0     1     1    21
 -8.6505700138600913E-02 a        22     0     1     1    22
  7.6504428070136812E-02 a        23     0     1     1    23
  1.5450743060721778E-01 a        24     0     1     1    24
 -1.8104560287159902E-01 a        25     0     1     1    25
  2.3338890827058845E-01 a        26     0     1     1    26
  1.6458318912082184E-01 a        27     0     1     1    27
 -2.4978503124714144E-01 a        28     0     1     1    28
  1.6151952513116685E-01 a        29     0     1     1    29
  2.6740902800397046E-03 a        30     0     1     1    30
  1.4357387760446685E-01 a        31     0     1     1    31
 -2.5056705579661576E-01 a        32     0     1     1    32
 -6.3754658714494303E-02 a        33     0     1     1    33
  3.3687501167972991E-02 a        34     0     1     1    34
  2.3787058969658509E-01 a        35     0     1     1    35
  1.3610712931268273E-01 a        36     0     1     1    36
 -1.9396182326158903E-01 a        37     0     1     1    37
  1.6804752126453945E-01 a        38     0     1     1    38
 -1.3363583568771381E-01 a        39     0     1     1    39
 -6.1023096467563383E-02 a        40     0     1     1    40
  9.8454690798076283E-02 a        41     0     1     1    41
 -1.7721461000594771E-01 a        42     0     1     1    42
 -2.3720870263752433E-01 a        43     0     1     1    43
  1.4249018272622924E-01 a        44     0     1     1    44
  4.8345479173879720E-02 a        45     0     1     1    45
  4.0234216247965984E-02 a        46     0     1     1    46
  1.3508127445614762E-02 a        47     0     1     1    47
 -1.3128346253443833E-02 a        48     0     1     1    48
  8.3794903080338143E-02 a        49     0     1     1    49
 -1.3769733515733806E-01 a        50     0     1     1    50
  7.3344208616964154E-02 a        51     0     2     1     1
  2.0216815837229302E-01 a        52     0     2     1     2
  6.0380220182750445E-02 a        53     0     2     1     3
  2.4550649360125407E-01 a        54     0     2     1     4
  2.0653995278301943E-01 a        55     0     2     1     5
  8.4442429936881322E-02 a        56     0     2     1     6
  1.8301663722949896E-01 a        57     0     2     1     7
  3.6522093670121138E-02 a        58     0     2     1     8
  1.6474166888471524E-02 a        59     0     2     1     9
 -6.2122262372225623E-02 a        60     0     2     1    10
  4.0005236684972573E-03 a        61     0     2     1    11
 -1.1156126984997962E-01 a        62     0     2     1    12
  2.2079188344541806E-01 a        63     0     2     1    13
 -9.6301090669971764E-02 a        64     0     2     1    14
  1.1646432551588269E-01 a        65     0     2     1    15
  7.4777254581522706E-02 a        66     0     2     1    16
 -3.7284714060754523E-02 a        67     0     2     1    17
  2.4314087213964050E-01 a        68     0     2     1    18
 -1.5674736141023593E-01 a        69     0     2     1    19
 -7.2362074034162713E-02 a        70     0     2     1    20
  8.2557831854112279E-02 a        71     0     2     1    21
  8.5434361080378704E-02 a        72     0     2     1    22
 -1.2559099244439757E-02 a        73     0     2     1    23
  1.8488398037947045E-03 a        74     0     2     1    24
 -3.5614173564332552E-02 a        75     0     2     1    25
  4.3878901908688053E-02 a        76     0     2     1    26
  6.1516543569265725E-02 a        77     0     2     1    27
  8.4200768239687626E-02 a        78     0     2     1    28
  2.4749223326508429E-01 a        79     0     2     1    29
 -7.5532838763085225E-02 a        80     0     2     1    30
 -1.7313579792773159E-01 a        81     0     2     1    31
  3.3957351701540642E-02 a        82     0     2     1    32
  1.6487284540324587E-01 a        83     0     2     1    33
 -3.5939138135615903E-02 a        84     0     2     1    34
 -2.0458803670229117E-01 a        85     0     2     1    35
 -7.8338611324858282E-02 a        86     0     2     1    36
  1.2473904794566484E-01 a        87     0     2     1    37
 -2.1474849003879465E-01 a        88     0     2     1    38
  1.0130764453800076E-02 a        89     0     2     1    39
  1.8369687434793466E-01 a        90     0     2     1    40
 -1.4258704773632969E-01 a        91     0     2     1    41
  2.5217775331586301E-01 a        92     0     2     1    42
  1.0313573056936701E-01 a        93     0     2     1    43
 -2.2436410500029605E-01 a        94     0     2     1    44
 -2.1519319990509009E-01 a        95     0     2     1    45
  2.2238546766459161E-01 a        96     0     2     1    46
 -1.8024112543268697E-01 a        97     0     2     1    47
  6.9535197958701125E-02 a        98     0     2     1    48
  8.5614261991046561E-02 a        99     0     2     1    49
 -2.2053677008811656E-01 a       100     0     2     1    50
  6.5904575678264340E-02 a       101     0     3     1     1
  7.3756022826391029E-02 a       102     0     3     1     2
  2.4388840371004103E-01 a       103     0     3     1     3
  1.1222935533260380E-02 a       104     0     3     1     4
 -2.5009576642698711E-01 a       105     0     3     1     5
  1.2559736413318232E-02 a       106     0     3     1     6
 -8.3405722517477642E-03 a       107     0     3     1     7
 -1.6622672985358652E-01 a       108     0     3     1     8
 -1.4103477508323145E-01 a       109     0     3     1     9
  2.1001478667807302E-03 a       110     0     3     1    10
 -1.1210893588485336E-01 a       111     0     3     1    11
 -1.0321662509255580E-01 a       112     0     3     1    12
  6.6613080833236970E-04 a       113     0     3     1    13
 -1.3850899305426642E-01 a       114     0     3     1    14
  7.8736561224679702E-02 a       115     0     3     1    15
  2.4026592632203719E-02 a       116     0     3     1    16
  6.2848796861589007E-02 a       117     0     3     1    17
 -5.6618375005309245E-02 a       118     0     3     1    18
 -2.5243598033362461E-02 a       119     0     3     1    19
  1.2739286571913111E-01 a       120     0     3     1    20
  9.4578717591233985E-02 a       121     0     3     1    21
  1.3281076299561836E-01 a       122     0     3     1    22
 -3.8386529603300544E-02 a       123     0     3     1    23
  1.2158451960690377E-01 a       124     0     3     1    24
 -1.0936181984375998E-01 a       125     0     3     1    25
  1.3989244271138032E-01 a       126     0     3     1    26
 -1.8314766307744930E-02 a       127     0     3     1    27
  1.8846854431649837E-01 a       128     0     3     1    28
 -2.2627146373529816E-01 a       129     0     3     1    29
  2.2223895818478528E-01 a       130     0     3     1    30
 -1.0536003230239216E-01 a       131     0     3     1    31
 -1.7868872399013455E-01 a       132     0     3     1    32
  2.0610736755788539E-01 a       133     0     3     1    33
  1.7150553440066177E-01 a       134     0     3     1    34
 -2.2148712697310627E-01 a       135     0     3     1    35
  2.3669318711204013E-01 a       136     0     3     1    36
  1.3885722594369215E-01 a       137     0     3     1    37
 -1.3526027074873812E-01 a       138     0     3     1    38
 -8.7749619800538345E-02 a       139     0     3     1    39
  2.1293100838600257E-01 a       140     0     3     1    40
 -3.5080512520434773E-02 a       141     0     3     1    41
 -2.1098293137263224E-03 a       142     0     3     1    42
  1.4257667893661857E-01 a       143     0     3     1    43
 -1.2434370641877744E-01 a       144     0     3     1    44
  7.7752451989166971E-02 a       145     0     3     1    45
  5.9295236815375400E-02 a       146     0     3     1    46
 -6.3374583197393503E-02 a       147     0     3     1    47
  1.9172646394905729E-01 a       148     0     3     1    48
  2.1355174204147556E-01 a       149     0     3     1    49
 -1.2032067979587460E-01 a       150     0     3     1    50
 -4.1477437854413185E-02 a       151     0     4     1     1
  2.5053570252129886E-01 a       152     0     4     1     2
 -1.7371892637070069E-01 a       153     0     4     1     3
  1.5288563995163405E-03 a       154     0     4     1     4
  1.8629493401749528E-01 a       155     0     4     1     5
  2.1896616997028445E-01 a       156     0     4     1     6
  2.3880839323682868E-01 a       157     0     4     1     7
 -1.1692511610715442E-01 a       158     0     4     1     8
 -8.1976782950556770E-02 a       159     0     4     1     9
  8.5635237072038434E-02 a       160     0     4     1    10
 -1.9899671402035066E-01 a       161     0     4     1    11
  1.0706825400066360E-01 a       162     0     4     1    12
 -1.5450907288086685E-01 a       163     0     4     1    13
  1.7908142146833886E-01 a       164     0     4     1    14
 -1.8181940570686073E-01 a       165     0     4     1    15
 -4.7894451251342306E-02 a       166     0     4     1    16
  6.3246004349072182E-02 a       167     0     4     1    17
  3.7593624307115887E-02 a       168     0     4     1    18
 -2.0461976790270994E-01 a       169     0     4     1    19
 -1.4932850888185722E-01 a       170     0     4     1    20
 -2.1667207624502091E-01 a       171     0     4     1    21
  1.0748325488691698E-01 a       172     0     4     1    22
 -2.0279471323974257E-01 a       173     0     4     1    23
 -1.0313388113853497E-01 a       174     0     4     1    24
  2.1730264201801977E-01 a       175     0     4     1    25
  1.3818049801085461E-01 a       176     0     4     1    26
  1.0353621285277692E-01 a       177     0     4     1    27
 -1.2395224593771273E-01 a       178     0     4     1    28
  1.0239881824243610E-03 a       179     0     4     1    29
  2.6183391210131961E-02 a       180     0     4     1    30
 -2.0682785286723565E-01 a       181     0     4     1    31
 -1.0879429193018465E-01 a       182     0     4     1    32
 -1.4391782571750955E-01 a       183     0     4     1    33
  8.9833063330248944E-02 a       184     0     4     1    34
  1.0198577369534280E-01 a       185     0     4     1    35
 -2.5591060326608198E-02 a       186     0     4     1    36
  2.3688307081081411E-01 a       187     0     4     1    37
 -6.2833177186209913E-02 a       188     0     4     1    38
  3.1816884054508879E-03 a       189     0     4     1    39
  1.1030075204578514E-01 a       190     0     4     1    40
  1.3100464799323899E-01 a       191     0     4     1    41
 -1.7345748330307914E-01 a       192     0     4     1    42
 -1.9613548255528751E-01 a       193     0     4     1    43
  4.8736947265770901E-02 a       194     0     4     1    44
  1.4904171950262884E-01 a       195     0     4     1    45
  1.2516561407733415E-01 a       196     0     4     1    46
  2.1249319464200328E-01 a       197     0     4     1    47
 -1.3820742023921726E-02 a       198     0     4     1    48
  4.1455527355280568E-02 a       199     0     4     1    49
  2.2329545315841332E-01 a       200     0     4     1    50
 -1.8091177433680133E-01 a       201     0     5     1     1
 -5.9927338905048595E-02 a       202     0     5     1     2
  1.0518830625178646E-01 a       203     0     5     1     3
  8.9617878865907771E-03 a       204     0     5     1     4
  1.4094514404477088E-01 a       205     0     5     1     5
  8.1006429689291476E-02 a       206     0     5     1     6
 -2.1340369541256077E-01 a       207     0     5     1     7
 -1.3083021760193424E-02 a       208     0     5     1     8
 -1.8105841308173848E-01 a       209     0     5     1     9
  2.4965699788102344E-01 a       210     0     5     1    10
  1.5891206835038077E-01 a       211     0     5     1    11
 -1.5268339317877569E-01 a       212     0     5     1    12
 -8.3941263673351668E-02 a       213     0     5     1    13
 -9.5154314051139235E-02 a       214     0     5     1    14
 -7.8599294142267018E-02 a       215     0     5     1    15
 -1.8140466263735400E-01 a       216     0     5     1    16
  8.6207361092367069E-02 a       217     0     5     1    17
  2.1543856652882520E-01 a       218     0     5     1    18
 -1.1653078051747177E-01 a       219     0     5     1    19
  2.1145318008066039E-01 a       220     0     5     1    20
 -1.9916550098382840E-01 a       221     0     5     1    21
 -1.0226754195072722E-01 a       222     0     5     1    22
  2.1288035191421459E-01 a       223     0     5     1    23
 -9.7684779116766152E-02 a       224     0     5     1    24
  7.4214293758424768E-02 a       225     0     5     1    25
 -1.3762065786444741E-01 a       226     0     5     1    26
 -1.3258624694451085E-01 a       227     0     5     1    27
  1.7762694734077519E-01 a       228     0     5     1    28
 -1.4883743944991157E-01 a       229     0     5     1    29
  1.4844085819074382E-01 a       230     0     5     1    30
  2.7284906362870773E-02 a       231     0     5     1    31
 -2.4047426223174764E-01 a       232     0     5     1    32
 -1.9402794838141832E-01 a       233     0     5     1    33
  6.7971376708869879E-02 a       234     0     5     1    34
 -1.6199563048908225E-01 a       235     0     5     1    35
  4.1822849505602101E-03 a       236     0     5     1    36
 -1.2064587376222451E-01 a       237     0     5     1    37
 -1.4253245670509543E-01 a       238     0     5     1    38
  1.5604523817109614E-01 a       239     0     5     1    39
 -1.1286761731603140E-01 a       240     0     5     1    40
 -2.2761261943512640E-01 a       241     0     5     1    41
  1.3919809952067960E-01 a       242     0     5     1    42
  3.1174579295196115E-02 a       243     0     5     1    43
 -2.4857152837210769E-01 a       244     0     5     1    44
 -2.0238374216718552E-01 a       245     0     5     1    45
 -1.0014560999588476E-01 a       246     0     5     1    46
  1.8379552956712367E-01 a       247     0     5     1    47
  1.0976613501073132E-01 a       248     0     5     1    48
  6.8335463782265307E-02 a       249     0     5     1    49
 -2.3419888952622944E-01 a       250     0     5     1    50
 -1.6910532625167349E-01 a       251     0     6     1     1
 -1.4067994420185262E-01 a       252     0     6     1     2
 -2.1722052916800008E-01 a       253     0     6     1     3
 -7.7089959274806080E-02 a       254     0     6     1     4
  2.4187545653077469E-01 a       255     0     6     1     5
  4.7170819340923646E-02 a       256     0     6     1     6
 -2.1641665001140002E-02 a       257     0     6     1     7
  1.6991890754715361E-01 a       258     0     6     1     8
  5.8451928464140372E-02 a       259     0     6     1     9
 -2.2654353758154813E-01 a       260     0     6     1    10
  2.2764577386009491E-01 a       261     0     6     1    11
 -9.0655873109580565E-02 a       262     0     6     1    12
 -1.5524664247401490E-01 a       263     0     6     1    13
 -1.9901165561865899E-01 a       264     0     6     1    14
  2.4116111054216356E-02 a       265     0     6     1    15
 -1.0257209214487499E-01 a       266     0     6     1    16
  1.7377544686536406E-01 a       267     0     6     1    17
 -7.9394211669618665E-03 a       268     0     6     1    18
 -9.5266915753075748E-02 a       269     0     6     1    19
  2.2650933440847598E-01 a       270     0     6     1    20
 -1.5374178526982035E-01 a       271     0     6     1    21
 -5.4642954195141397E-02 a       272     0     6     1    22
 -1.4162085462416399E-01 a       273     0     6     1    23
 -8.3415631218944838E-02 a       274     0     6     1    24
 -2.5331726016838740E-01 a       275     0     6     1    25
  8.0860982157615932E-02 a       276     0     6     1    26
  2.3413433354476360E-01 a       277     0     6     1    27
  8.9591392714117979E-02 a       278     0     6     1    28
 -6.9488887268827126E-02 a       279     0     6     1    29
 -2.4903269831551125E-01 a       280     0     6     1    30
 -2.3653507718674549E-01 a       281     0     6     1    31
 -5.1303001388402367E-02 a       282     0     6     1    32
 -2.0246953283017732E-01 a       283     0     6     1    33
 -1.4405151856554160E-01 a       284     0     6     1    34
 -1.7450860883863309E-01 a       285     0     6     1    35
 -2.2471095378957687E-01 a       286     0     6     1    36
 -1.2480875645665038E-02 a       287     0     6     1    37
  1.5232786245811919E-01 a       288     0     6     1    38
  1.2582009378061450E-02 a       289     0     6     1    39
  4.7581479320948777E-02 a       290     0     6     1    40
 -1.6007224418596996E-01 a       291     0     6     1    41
 -1.3505548778687804E-01 a       292     0     6     1    42
  1.4680286491804112E-01 a       293     0     6     1    43
  2.1325309297298226E-01 a       294     0     6     1    44
 -6.3052528340204694E-02 a       295     0     6     1    45
 -2.5195796025825634E-01 a       296     0     6     1    46
 -1.4497890228975291E-01 a       297     0     6     1    47
 -3.0229024841708526E-02 a       298     0     6     1    48
  4.8752117188873324E-02 a       299     0     6     1    49
  1.4972863785643212E-01 a       300     0     6     1    50
  1.1525285984504029E-01 a       301     0     7     1     1
  1.1411550483478093E-01 a       302     0     7     1     2
 -1.8453132857284513E-01 a       303     0     7     1     3
 -6.3180885879962597E-03 a       304     0     7     1     4
 -1.0068986875888354E-01 a       305     0     7     1     5
  6.3796675352290499E-02 a       306     0     7     1     6
  8.8534946973023693E-02 a       307     0     7     1     7
 -6.1572231867622357E-03 a       308     0     7     1     8
  2.1199983994049104E-01 a       309     0     7     1     9
  2.1496999029991370E-01 a       310     0     7     1    10
 -2.2688317142625525E-01 a       311     0     7     1    11
  7.9918268682946339E-02 a       312     0     7     1    12
 -2.1438748225822102E-01 a       313     0     7     1    13
 -1.1597200255703370E-01 a       314     0     7     1    14
 -2.4313683114754278E-01 a       315     0     7     1    15
  1.9969586190201760E-01 a       316     0     7     1    16
 -9.6843175114983596E-02 a       317     0     7     1    17
 -1.3009449482339663E-01 a       318     0     7     1    18
  8.4421903181136154E-02 a       319     0     7     1    19
 -1.9177602565102533E-01 a       320     0     7     1    20
  1.0595836551177859E-01 a       321     0     7     1    21
  2.3897696459986287E-01 a       322     0     7     1    22
 -4.0298370877254727E-02 a       323     0     7     1    23
  1.9048795760636533E-01 a       324     0     7     1    24
  5.6829691148178235E-02 a       325     0     7     1    25
 -1.0703272987352236E-01 a       326     0     7     1    26
  8.4443833777607405E-02 a       327     0     7     1    27
  1.2855007142969069E-01 a       328     0     7     1    28
  6.4944720244002635E-02 a       329     0     7     1    29
  6.8726544792279035E-02 a       330     0     7     1    30
  2.2334748290870232E-01 a       331     0     7     1    31
 -3.9995327151071229E-02 a       332     0     7     1    32
 -2.2332251594922731E-01 a       333     0     7     1    33
 -3.6251308194089393E-02 a       334     0     7     1    34
 -1.1942857082531848E-01 a       335     0     7     1    35
 -8.5895930473252738E-02 a       336     0     7     1    36
  2.1456932262152775E-01 a       337     0     7     1    37
  2.3755526625865087E-01 a       338     0     7     1    38
  8.3606316789638854E-02 a       339     0     7     1    39
  2.4217666569102161E-01 a       340     0     7     1    40
  1.5155321006435285E-01 a       341     0     7     1    41
  8.3854720370973537E-02 a       342     0     7     1    42
  1.0471159036288523E-01 a       343     0     7     1    43
 -1.3019314742636406E-02 a       344     0     7     1    44
 -2.4057618832253100E-01 a       345     0     7     1    45
 -1.7730185017462444E-01 a       346     0     7     1    46
 -6.0946535120857223E-02 a       347     0     7     1    47
 -1.5040064660118208E-01 a       348     0     7     1    48
 -2.3413207705363462E-01 a       349     0     7     1    49
 -2.8599015563810438E-02 a       350     0     7     1    50
  1.4846877874548473E-01 a       351     0     8     1     1
  1.3838880680699575E-01 a       352     0     8     1     2
  4.5848470825735156E-02 a       353     0     8     1     3
  2.9107723205017845E-02 a       354     0     8     1     4
  2.0748925663881562E-01 a       355     0     8     1     5
 -2.1123454006326381E-01 a       356     0     8     1     6
 -2.1426510076319066E-01 a       357     0     8     1     7
 -5.9666803785241022E-02 a       358     0     8     1     8
 -6.9208779957400463E-02 a       359     0     8     1     9
  9.7801720892496766E-02 a       360     0     8     1    10
  1.8117832058248967E-01 a       361     0     8     1    11
 -1.3495633393963610E-01 a       362     0     8     1    12
  1.2698670231051937E-01 a       363     0     8     1    13
 -8.2432295909348710E-02 a       364     0     8     1    14
 -3.7452890731084772E-02 a       365     0     8     1    15
  1.0317823596492554E-01 a       366     0     8     1    16
 -2.2459758208605617E-03 a       367     0     8     1    17
  1.6523726711516762E-01 a       368     0     8     1    18
  3.2382393672039878E-02 a       369     0     8     1    19
 -6.1020986484843935E-02 a       370     0     8     1    20
  2.0404981118413762E-01 a       371     0     8     1    21
 -4.4797709063902631E-02 a       372     0     8     1    22
 -8.8577541082278249E-02 a       373     0     8     1    23
 -2.4509375788722859E-01 a       374     0     8     1    24
  1.9437684638572600E-01 a       375     0     8     1    25
 -2.9233410414957499E-03 a       376     0     8     1    26
  1.4409883281423708E-01 a       377     0     8     1    27
  6.7743175115044615E-02 a       378     0     8     1    28
 -2.7080997575782185E-02 a       379     0     8     1    29
  1.2121139586626768E-01 a       380     0     8     1    30
  2.3958407547055166E-01 a       381     0     8     1    31
  1.1684748282310772E-01 a       382     0     8     1    32
 -3.9998110454094883E-02 a       383     0     8     1    33
  1.1327881885392749E-01 a       384     0     8     1    34
 -1.7892654780916195E-01 a       385     0     8     1    35
  4.0990478863356751E-02 a       386     0     8     1    36
 -1.2443409449663337E-01 a       387     0     8     1    37
  1.9752675947174843E-02 a       388     0     8     1    38
  1.4593583326394383E-01 a       389     0     8     1    39
  8.3600509610123622E-02 a       390     0     8     1    40
  2.4240798142098360E-01 a       391     0     8     1    41
  1.5471940021089065E-01 a       392     0     8     1    42
  2.2953485198451359E-01 a       393     0     8     1    43
  9.4418634915934663E-02 a       394     0     8     1    44
 -1.0144160935415991E-01 a       395     0     8     1    45
 -9.4051954929096473E-02 a       396     0     8     1    46
 -1.6985503475628258E-02 a       397     0     8     1    47
 -5.2908486799628941E-03 a       398     0     8     1    48
  1.8758607992794712E-01 a       399     0     8     1    49
 -1.2248240911908248E-01 a       400     0     8     1    50
 -2.0586625062938008E-01 a       401     0     9     1     1
 -6.5950590259421030E-02 a       402     0     9     1     2
 -2.1388214026718133E-01 a       403     0     9     1     3
  1.1516984689587144E-01 a       404     0     9     1     4
 -6.1221661265278900E-02 a       405     0     9     1     5
  3.4246665972450199E-02 a       406     0     9     1     6
 -3.9614904746770258E-03 a       407     0     9     1     7
  2.1352311950691202E-01 a       408     0     9     1     8
  2.3645163577183024E-02 a       409     0     9     1     9
  2.2078053986532309E-01 a       410     0     9     1    10
  5.5061963013965012E-03 a       411     0     9     1    11
 -1.2488105383782712E-01 a       412     0     9     1    12
 -4.1461729941014713E-02 a       413     0     9     1    13
 -9.5924286975818604E-03 a       414     0     9     1    14
 -1.2541199460585795E-01 a       415     0     9     1    15
  2.8156282847528729E-02 a       416     0     9     1    16
  2.1228003453858377E-01 a       417     0     9     1    17
 -2.5523463986454709E-01 a       418     0     9     1    18
 -1.6908211168499304E-01 a       419     0     9     1    19
 -6.6833004226246912E-02 a       420     0     9     1    20
  1.1048995398099430E-01 a       421     0     9     1    21
  2.1728661242828382E-01 a       422     0     9     1    22
  1.6393605505427600E-01 a       423     0     9     1    23
 -1.2434981981513890E-01 a       424     0     9     1    24
  1.2749680439783895E-01 a       425     0     9     1    25
 -2.1028167648122495E-01 a       426     0     9     1    26
  4.8100102204177379E-03 a       427     0     9     1    27
 -1.0723441320738367E-01 a       428     0     9     1    28
 -9.5610170567394764E-02 a       429     0     9     1    29
 -1.2287976299605602E-01 a       430     0     9     1    30
  3.9347299644849378E-02 a       431     0     9     1    31
  1.4199036310330798E-01 a       432     0     9     1    32
  5.1815295869421754E-02 a       433     0     9     1    33
  1.8201152829672748E-01 a       434     0     9     1    34
 -5.8337044822373882E-02 a       435     0     9     1    35
 -1.4542706128746891E-01 a       436     0     9     1    36
 -2.1651345865381694E-01 a       437     0     9     1    37
 -1.4778615896268749E-01 a       438     0     9     1    38
 -1.3116157395934100E-01 a       439     0     9     1    39
 -1.6996127903973393E-01 a       440     0     9     1    40
 -9.0041170677326976E-02 a       441     0     9     1    41
 -4.8841874876243092E-02 a       442     0     9     1    42
  1.4783031305352992E-01 a       443     0     9     1    43
  1.5761776810911488E-01 a       444     0     9     1    44
  5.3576650649981926E-02 a       445     0     9     1    45
  1.5574126723219419E-02 a       446     0     9     1    46
  3.5374314800577941E-02 a       447     0     9     1    47
 -2.5250945251721835E-01 a       448     0     9     1    48
  2.2637552109533124E-01 a       449     0     9     1    49
 -8.6722216973250874E-02 a       450     0     9     1    50
  1.6992969066123065E-01 a       451     0    10     1     1
 -2.1507933421136385E-01 a       452     0    10     1     2
  1.9109612983058910E-01 a       453     0    10     1     3
  2.3416806674930127E-02 a       454     0    10     1     4
  2.2602534732623666E-01 a       455     0    10     1     5
 -7.8512663909980310E-02 a       456     0    10     1     6
 -6.8493991589500786E-02 a       457     0    10     1     7
 -4.9927964548596937E-02 a       458     0    10     1     8
 -9.8618930054900314E-02 a       459     0    10     1     9
  1.2537386626795341E-01 a       460     0    10     1    10
  1.0637611283611492E-01 a       461     0    10     1    11
  1.8331858285612593E-01 a       462     0    10     1    12
  1.9017989180498457E-01 a       463     0    10     1    13
 -5.1378333586633733E-02 a       464     0    10     1    14
  3.6262912444990958E-04 a       465     0    10     1    15
  1.8765068157437176E-01 a       466     0    10     1    16
 -1.2254434400326378E-01 a       467     0    10     1    17
  2.1277387776002001E-02 a       468     0    10     1    18
 -1.4986213353649094E-01 a       469     0    10     1    19
 -1.0006262416028520E-01 a       470     0    10     1    20
  1.7427841344611120E-01 a       471     0    10     1    21
 -1.1865546378608288E-01 a       472     0    10     1    22
 -1.7731613533914981E-01 a       473     0    10     1    23
  1.9387417757856448E-02 a       474     0    10     1    24
 -2.4848074916912274E-01 a       475     0    10     1    25
  1.5604057868042864E-01 a       476     0    10     1    26
 -2.3545640676208840E-01 a       477     0    10     1    27
 -2.4941829132504478E-01 a       478     0    10     1    28
 -2.4788437479619885E-01 a       479     0    10     1    29
 -1.1794873968342325E-01 a       480     0    10     1    30
 -3.1398178241714071E-02 a       481     0    10     1    31
 -1.6966453933733111E-01 a       482     0    10     1    32
 -1.0392847033007596E-01 a       483     0    10     1    33
 -1.9292111052583671E-01 a       484     0    10     1    34
  1.7787949275765830E-01 a       485     0    10     1    35
 -1.7876264021788515E-01 a       486     0    10     1    36
  3.8933651939758389E-02 a       487     0    10     1    37
 -2.2327917431411048E-01 a       488     0    10     1    38
 -1.2259915146737577E-01 a       489     0    10     1    39
  1.3469417367053901E-01 a       490     0    10     1    40
 -2.4100458081471460E-01 a       491     0    10     1    41
  2.3492904522304309E-01 a       492     0    10     1    42
  1.9248453544384533E-01 a       493     0    10     1    43
  1.7070426361699573E-01 a       494     0    10     1    44
  7.0543824639250532E-02 a       495     0    10     1    45
  8.1093145067699296E-02 a       496     0    10     1    46
  1.0310330821076950E-01 a       497     0    10     1    47
 -1.0836998966263248E-01 a       498     0    10     1    48
 -1.0920503539146262E-01 a       499     0    10     1    49
 -1.6750753003464500E-02 a       500     0    10     1    50
  1.7006432701390653E-01 a       501     0    11     1     1
  1.9218771832506702E-02 a       502     0    11     1     2
 -6.5702897339007915E-02 a       503     0    11     1     3
 -9.5880121111978994E-02 a       504     0    11     1     4
 -9.3806647527104839E-02 a       505     0    11     1     5
  2.2133408466904853E-01 a       506     0    11     1     6
 -6.6679847521953800E-02 a       507     0    11     1     7
 -5.1359400585518902E-03 a       508     0    11     1     8
 -5.8242315005855562E-02 a       509     0    11     1     9
  2.0952435096635007E-02 a       510     0    11     1    10
 -9.5601140797465598E-03 a       511     0    11     1    11
  2.2219291958195758E-01 a       512     0    11     1    12
 -1.5846852044323270E-01 a       513     0    11     1    13
  3.6817619921378761E-02 a       514     0    11     1    14
 -1.3003008523142118E-01 a       515     0    11     1    15
  1.8079693207890377E-01 a       516     0    11     1    16
  7.6437766030283932E-02 a       517     0    11     1    17
  2.4204198046256947E-01 a       518     0    11     1    18
 -2.1449627854692288E-01 a       519     0    11     1    19
 -2.1964352603414403E-01 a       520     0    11     1    20
 -2.3595840771922721E-01 a       521     0    11     1    21
 -2.5209024046554418E-01 a       522     0    11     1    22
 -4.7717393697875699E-02 a       523     0    11     1    23
  1.7707258663266839E-01 a       524     0    11     1    24
 -1.5497787362915919E-01 a       525     0    11     1    25
  2.1657413834622663E-01 a       526     0    11     1    26
  1.6649388960323980E-01 a       527     0    11     1    27
 -1.2391820544605636E-01 a       528     0    11     1    28
  1.5633791654622431E-01 a       529     0    11     1    29
 -4.8479981980334923E-02 a       530     0    11     1    30
  1.8175632432302333E-02 a       531     0    11     1    31
  5.2701469108846814E-02 a       532     0    11     1    32
 -1.3495928254029713E-01 a       533     0    11     1    33
  1.4981004670500342E-01 a       534     0    11     1    34
  2.0944857888613261E-01 a       535     0    11     1    35
  7.8897684918337027E-02 a       536     0    11     1    36
 -2.2823626399388558E-01 a       537     0    11     1    37
  5.2388362799798437E-02 a       538     0    11     1    38
 -2.3251768424029820E-01 a       539     0    11     1    39
 -4.5856921459337667E-02 a       540     0    11     1    40
  5.1321546237367267E-02 a       541     0    11     1    41
  1.3590359345609115E-01 a       542     0    11     1    42
  1.0692655836859908E-03 a       543     0    11     1    43
 -3.5734702536632641E-02 a       544     0    11     1    44
 -1.4121730065875873E-01 a       545     0    11     1    45
  1.8877706795665892E-02 a       546     0    11     1    46
 -3.6786441100474840E-02 a       547     0    11     1    47
  2.3126098790342545E-01 a       548     0    11     1    48
  1.4960881038827800E-01 a       549     0    11     1    49
  3.2878604692942202E-02 a       550     0    11     1    50
 -2.5500821718248989E-01 a       551     0    12     1     1
  1.4754787254811377E-01 a       552     0    12     1     2
 -1.3717111524226316E-01 a       553     0    12     1     3
 -1.2691959646434800E-01 a       554     0    12     1     4
 -2.1653705614020413E-01 a       555     0    12     1     5
 -2.4243519963914442E-01 a       556     0    12     1     6
 -1.7007232587360660E-01 a       557     0    12     1     7
  1.3110129657046171E-01 a       558     0    12     1     8
 -5.6246776046188617E-03 a       559     0    12     1     9
  1.1651181838116187E-01 a       560     0    12     1    10
  9.7634472980834101E-03 a       561     0    12     1    11
  2.2549347280493337E-01 a       562     0    12     1    12
  6.1918669553354670E-02 a       563     0    12     1    13
 -1.8533451169558077E-01 a       564     0    12     1    14
  1.5257209994439608E-01 a       565     0    12     1    15
 -2.3366989189733153E-01 a       566     0    12     1    16
  9.6644890015140830E-02 a       567     0    12     1    17
 -2.0227481221334379E-01 a       568     0    12     1    18
  1.8979227800210427E-01 a       569     0    12     1    19
  2.1606086432805680E-01 a       570     0    12     1    20
  3.4864819200992631E-02 a       571     0    12     1    21
 -1.9472712599287617E-01 a       572     0    12     1    22
 -1.3153635376824913E-01 a       573     0    12     1    23
 -1.4653301378987765E-01 a       574     0    12     1    24
  1.8444995325947799E-01 a       575     0    12     1    25
  1.5679280731995238E-01 a       576     0    12     1    26
  2.4738589265711042E-01 a       577     0    12     1    27
  6.2426755366255707E-02 a       578     0    12     1    28
  6.9867689042766787E-03 a       579     0    12     1    29
  3.8100401414621697E-02 a       580     0    12     1    30
 -8.7685929788421713E-02 a       581     0    12     1    31
 -1.9192800113126657E-01 a       582     0    12     1    32
 -9.5750417645127664E-02 a       583     0    12     1    33
  4.5466668840217467E-02 a       584     0    12     1    34
  1.9790853481937348E-01 a       585     0    12     1    35
  7.0165626974661860E-02 a       586     0    12     1    36
  2.5464048773403308E-01 a       587     0    12     1    37
 -2.3239530452905527E-01 a       588     0    12     1    38
 -1.5628923746228840E-01 a       589     0    12     1    39
 -1.3110132737052507E-01 a       590     0    12     1    40
  1.5085298798588126E-01 a       591     0    12     1    41
 -6.3515675314702827E-02 a       592     0    12     1    42
  2.3213830891923259E-01 a       593     0    12     1    43
 -1.2678128824465815E-01 a       594     0    12     1    44
  1.9966379332793174E-01 a       595     0    12     1    45
 -1.2844394237890880E-01 a       596     0    12     1    46
  2.0997218412555785E-01 a       597     0    12     1    47
  3.5072067000356297E-02 a       598     0    12     1    48
  2.4286091585555158E-01 a       599     0    12     1    49
 -1.7078564915741093E-01 a       600     0    12     1    50
  1.2050128887016161E-01 a       601     0    13     1     1
  8.8039341488502329E-02 a       602     0    13     1     2
  9.6051433680652915E-02 a       603     0    13     1     3
 -5.5925652563888990E-02 a       604     0    13     1     4
  1.4881420478589244E-01 a       605     0    13     1     5
 -4.5486339140146513E-02 a       606     0    13     1     6
  1.7778976277845365E-01 a       607     0    13     1     7
 -3.1955576739854587E-02 a       608     0    13     1     8
 -1.5609693578016129E-01 a       609     0    13     1     9
  1.8916932828801789E-01 a       610     0    13     1    10
 -4.2298689911621043E-02 a       611     0    13     1    11
  9.1906081335807410E-02 a       612     0    13     1    12
 -5.7994441922909618E-02 a       613     0    13     1    13
  2.4452145334760964E-03 a       614     0    13     1    14
  2.2217611618522418E-01 a       615     0    13     1    15
 -4.8973092065127663E-02 a       616     0    13     1    16
  9.9592138327444901E-02 a       617     0    13     1    17
 -2.3215036387376412E-01 a       618     0    13     1    18
  9.0302786177735697E-02 a       619     0    13     1    19
 -2.3662758571220724E-01 a       620     0    13     1    20
 -2.0396646454779574E-01 a       621     0    13     1    21
 -1.7179383060461190E-01 a       622     0    13     1    22
  1.5713784948930004E-01 a       623     0    13     1    23
 -1.8003230457062744E-01 a       624     0    13     1    24
  2.4812924968919253E-01 a       625     0    13     1    25
  1.1529599836622571E-01 a       626     0    13     1    26
 -4.5112905258331809E-02 a       627     0    13     1    27
 -1.3103875924179770E-01 a       628     0    13     1    28
  1.9000020150015541E-02 a       629     0    13     1    29
  2.3539755652209126E-02 a       630     0    13     1    30
  4.9999777096343755E-02 a       631     0    13     1    31
 -2.8220734893645592E-02 a       632     0    13     1    32
  1.3314246041318628E-01 a       633     0    13     1    33
  5.2924168431892266E-02 a       634     0    13     1    34
 -8.0085331080713820E-02 a       635     0    13     1    35
 -4.4522447946230288E-02 a       636     0    13     1    36
  1.9610664513379536E-01 a       637     0    13     1    37
  1.2149887259826156E-01 a       638     0    13     1    38
  3.2905543094311096E-02 a       639     0    13     1    39
  9.7115079501425478E-02 a       640     0    13     1    40
  3.8897043388764450E-02 a       641     0    13     1    41
  9.6614682882722527E-03 a       642     0    13     1    42
 -1.9238426625376817E-01 a       643     0    13     1    43
 -2.1779182004066866E-01 a       644     0    13     1    44
  2.3231137637800350E-01 a       645     0    13     1    45
  2.2933652003052038E-01 a       646     0    13     1    46
 -1.4663365912126922E-01 a       647     0    13     1    47
  4.4738851926593999E-02 a       648     0    13     1    48
  1.2200345600395676E-01 a       649     0    13     1    49
 -3.1405543143353074E-02 a       650     0    13     1    50
 -1.8155027950991845E-01 a       651     0    14     1     1
  2.2524121850216272E-01 a       652     0    14     1     2
 -9.1744647857728956E-02 a       653     0    14     1     3
  2.3198502390116196E-01 a       654     0    14     1     4
 -2.9477193273272011E-02 a       655     0    14     1     5
 -1.2307837809657772E-01 a       656     0    14     1     6
  1.0257619878035099E-01 a       657     0    14     1     7
 -1.5295238368895231E-01 a       658     0    14     1     8
 -6.3755970987464439E-02 a       659     0    14     1     9
  7.2756274174918048E-02 a       660     0    14     1    10
 -2.2564986553750588E-01 a       661     0    14     1    11
  1.5977380346385125E-01 a       662     0    14     1    12
  9.3772510235249296E-02 a       663     0    14     1    13
  7.2367313493591004E-02 a       664     0    14     1    14
 -9.0579576239094212E-02 a       665     0    14     1    15
  9.5902063600366613E-02 a       666     0    14     1    16
  1.1482071830730557E-01 a       667     0    14     1    17
 -2.2630554680001508E-01 a       668     0    14     1    18
 -1.4398284334316844E-01 a       669     0    14     1    19
  1.8730853365962738E-01 a       670     0    14     1    20
 -4.5084371794221784E-02 a       671     0    14     1    21
  2.2531338887767274E-01 a       672     0    14     1    22
 -2.1124669324502449E-01 a       673     0    14     1    23
  9.0936942952717273E-02 a       674     0    14     1    24
 -2.0379185708585643E-01 a       675     0    14     1    25
  8.3298595497074995E-02 a       676     0    14     1    26
 -7.8073620660748758E-02 a       677     0    14     1    27
 -2.9114180872357877E-02 a       678     0    14     1    28
  2.5964544986905752E-03 a       679     0    14     1    29
  2.4878537237963697E-01 a       680     0    14     1    30
 -7.7412170391775836E-02 a       681     0    14     1    31
 -1.7956108774168858E-01 a       682     0    14     1    32
  4.9024425424794738E-02 a       683     0    14     1    33
  1.6527533932322694E-01 a       684     0    14     1    34
  1.0627979913525686E-01 a       685     0    14     1    35
  8.1006956263347807E-02 a       686     0    14     1    36
  1.2041204408114436E-01 a       687     0    14     1    37
 -1.6145830673494613E-01 a       688     0    14     1    38
  1.3496513728747780E-01 a       689     0    14     1    39
 -1.5714924896140192E-01 a       690     0    14     1    40
 -8.9443658010169264E-02 a       691     0    14     1    41
  2.9918308213252340E-02 a       692     0    14     1    42
  2.5089661766384408E-01 a       693     0    14     1    43
 -1.2635668308999634E-01 a       694     0    14     1    44
  1.5037058692852662E-01 a       695     0    14     1    45
 -1.0533346992341852E-01 a       696     0    14     1    46
 -6.8924842735391456E-02 a       697     0    14     1    47
  1.6961860336174156E-01 a       698     0    14     1    48
  1.7938530131516151E-01 a       699     0    14     1    49
 -2.5921541914647642E-02 a       700     0    14     1    50
 -1.6618202017241183E-02 a       701     0    15     1     1
  1.4901472449573810E-01 a       702     0    15     1     2
 -1.9919271075872858E-01 a       703     0    15     1     3
  1.0790249440891796E-01 a       704     0    15     1     4
  1.0467962477279504E-01 a       705     0    15     1     5
  1.3814588646937473E-01 a       706     0    15     1     6
 -9.7008763390799294E-02 a       707     0    15     1     7
  7.2844641578346372E-02 a       708     0    15     1     8
  8.2580646257807297E-02 a       709     0    15     1     9
  2.2324086414880481E-01 a       710     0    15     1    10
  1.7913057266135418E-01 a       711     0    15     1    11
 -2.2891058476501389E-01 a       712     0    15     1    12
 -1.6938625731614629E-01 a       713     0    15     1    13
 -1.9988270876211117E-01 a       714     0    15     1    14
  1.1230712466017363E-01 a       715     0    15     1    15
  7.3223105978618946E-02 a       716     0    15     1    16
  1.1885587908490290E-01 a       717     0    15     1    17
 -2.2306798018230331E-01 a       718     0    15     1    18
 -8.2703792759816999E-02 a       719     0    15     1    19
 -6.3898777800193457E-02 a       720     0    15     1    20
 -1.3588950855143726E-02 a       721     0    15     1    21
 -9.5005932664778955E-02 a       722     0    15     1    22
  1.4520838083755674E-01 a       723     0    15     1    23
 -1.9349436392146191E-01 a       724     0    15     1    24
  1.4775612295494558E-01 a       725     0    15     1    25
 -1.9884668750628137E-01 a       726     0    15     1    26
  6.0889099424310901E-02 a       727     0    15     1    27
 -8.4131205880354124E-02 a       728     0    15     1    28
  2.0361501465715676E-01 a       729     0    15     1    29
  1.9837323428355219E-01 a       730     0    15     1    30
  4.5893559502284180E-02 a       731     0    15     1    31
  6.8971155327972072E-02 a       732     0    15     1    32
 -2.4182847585033307E-01 a       733     0    15     1    33
 -2.6071575563866738E-02 a       734     0    15     1    34
  1.9789668607067160E-01 a       735     0    15     1    35
  6.9333268937847858E-02 a       736     0    15     1    36
  8.1603567404326408E-02 a       737     0    15     1    37
 -1.2171609533706654E-01 a       738     0    15     1    38
  1.9924665796161120E-01 a       739     0    15     1    39
  3.8166473734342371E-02 a       740     0    15     1    40
  1.3933374680516514E-01 a       741     0    15     1    41
 -1.4271897927262989E-01 a       742     0    15     1    42
  1.7301209167321890E-01 a       743     0    15     1    43
 -1.2158556098201925E-01 a       744     0    15     1    44
 -2.3502151926194739E-01 a       745     0    15     1    45
 -2.0076131921840901E-01 a       746     0    15     1    46
 -1.0212213211642654E-01 a       747     0    15     1    47
 -9.0245585822214106E-02 a       748     0    15     1    48
 -1.8306484729625369E-01 a       749     0    15     1    49
 -1.0766953640530688E-01 a       750     0    15     1    50
 -1.9508650160792962E-01 a       751     0    16     1     1
  2.2430649104392350E-01 a       752     0    16     1     2
 -6.0245470143354157E-02 a       753     0    16     1     3
  2.1317184002743444E-01 a       754     0    16     1     4
  8.8905207615877363E-02 a       755     0    16     1     5
 -1.1802575125808273E-02 a       756     0    16     1     6
 -2.2217820250303008E-01 a       757     0    16     1     7
 -2.9184222357001452E-02 a       758     0    16     1     8
  3.5893110473351232E-02 a       759     0    16     1     9
 -1.2680503913676638E-01 a       760     0    16     1    10
 -2.4223606212673710E-01 a       761     0    16     1    11
 -1.8852928572795397E-01 a       762     0    16     1    12
 -1.4324955103449613E-01 a       763     0    16     1    13
 -3.2533102425350638E-02 a       764     0    16     1    14
 -7.9328176452677021E-02 a       765     0    16     1    15
  2.0791168450251141E-01 a       766     0    16     1    16
 -3.6791049931578647E-02 a       767     0    16     1    17
 -1.9873618615461205E-01 a       768     0    16     1    18
 -2.0370439763024206E-01 a       769     0    16     1    19
 -2.5105168991802412E-01 a       770     0    16     1    20
  2.9498006624201416E-02 a       771     0    16     1    21
 -1.5827111546411959E-01 a       772     0    16     1    22
 -1.6598641479700124E-02 a       773     0    16     1    23
 -1.6970246456130425E-01 a       774     0    16     1    24
  2.3440730404150700E-01 a       775     0    16     1    25
 -1.8029331227519108E-01 a       776     0    16     1    26
 -6.7072872860292093E-02 a       777     0    16     1    27
 -2.4231238539727776E-01 a       778     0    16     1    28
 -4.5019558590605115E-02 a       779     0    16     1    29
  4.2933376352557208E-02 a       780     0    16     1    30
  6.4028684618814516E-02 a       781     0    16     1    31
  1.2229900318498717E-01 a       782     0    16     1    32
  5.6443835565131502E-02 a       783     0    16     1    33
  1.2098245626011323E-02 a       784     0    16     1    34
  1.8569022507607252E-01 a       785     0    16     1    35
 -2.2826396787791045E-01 a       786     0    16     1    36
  2.2353764345128913E-01 a       787     0    16     1    37
  2.3418679140404150E-01 a       788     0    16     1    38
  3.8017032778234573E-02 a       789     0    16     1    39
 -1.5741701044202291E-01 a       790     0    16     1    40
  3.6567616520536403E-02 a       791     0    16     1    41
  1.2032783528086653E-01 a       792     0    16     1    42
  1.2668706561837251E-01 a       793     0    16     1    43
  1.0436482077376736E-02 a       794     0    16     1    44
 -9.4000598380192507E-02 a       795     0    16     1    45
  2.2942046887350662E-02 a       796     0    16     1    46
 -3.9976594053070379E-02 a       797     0    16     1    47
 -1.7500307781270807E-01 a       798     0    16     1    48
  7.5525800175631097E-02 a       799     0    16     1    49
 -2.4308845994532138E-01 a       800     0    16     1    50
 -6.4725687793366252E-02 a       801     0    17     1     1
  1.2177773886929706E-02 a       802     0    17     1     2
  9.0557213847139981E-02 a       803     0    17     1     3
 -9.6056556599300888E-02 a       804     0    17     1     4
 -5.5889378770340530E-04 a       805     0    17     1     5
 -1.3454601716031708E-01 a       806     0    17     1     6
 -1.0110343821516489E-01 a       807     0    17     1     7
  1.2224947953715150E-01 a       808     0    17     1     8
 -1.6341475387364518E-01 a       809     0    17     1     9
 -1.4837920110172864E-01 a       810     0    17     1    10
 -1.5601147511784841E-01 a       811     0    17     1    11
  1.7022860040053051E-01 a       812     0    17     1    12
  5.6768101367409639E-02 a       813     0    17     1    13
  2.2605466660817963E-01 a       814     0    17     1    14
  9.0147814529167994E-02 a       815     0    17     1    15
 -1.0317366483119658E-01 a       816     0    17     1    16
 -1.0085600988989074E-01 a       817     0    17     1    17
  1.9196969490353363E-01 a       818     0    17     1    18
 -1.4138550872374818E-02 a       819     0    17     1    19
 -3.9034415595717735E-02 a       820     0    17     1    20
  7.3348344863311890E-02 a       821     0    17     1    21
 -2.4189848915113488E-01 a       822     0    17     1    22
  1.1922173591329077E-01 a       823     0    17     1    23
 -1.5866740346862995E-01 a       824     0    17     1    24
 -2.2634763942715680E-01 a       825     0    17     1    25
 -2.0036496450024791E-01 a       826     0    17     1    26
 -1.9267428226666203E-01 a       827     0    17     1    27
 -2.4883876268407651E-01 a       828     0    17     1    28
 -2.0440856984657040E-02 a       829     0    17     1    29
 -1.0598411650529911E-01 a       830     0    17     1    30
 -9.9981158111596247E-02 a       831     0    17     1    31
 -1.6495278131905702E-01 a       832     0    17     1    32
  6.1451738095394691E-02 a       833     0    17     1    33
  2.3800104354335860E-01 a       834     0    17     1    34
  2.5163088154208285E-01 a       835     0    17     1    35
 -3.7842803479235451E-02 a       836     0    17     1    36
 -1.8206451344357671E-01 a       837     0    17     1    37
 -1.6654398929550387E-01 a       838     0    17     1    38
  2.1602396121429468E-01 a       839     0    17     1    39
 -2.3424347731526143E-01 a       840     0    17     1    40
 -2.1841455570026058E-01 a       841     0    17     1    41
  1.2025544038597566E-01 a       842     0    17     1    42
 -1.6096260005021654E-01 a       843     0    17     1    43
 -2.4048107308900349E-01 a       844     0    17     1    44
 -6.8588294842979337E-03 a       845     0    17     1    45
  2.2539800426257087E-01 a       846     0    17     1    46
 -2.1632132345851884E-01 a       847     0    17     1    47
  2.1087365262888375E-01 a       848     0    17     1    48
 -3.1991627441052162E-02 a       849     0    17     1    49
  8.2732434083608392E-02 a       850     0    17     1    50
  2.1863747787781859E-01 a       851     0    18     1     1
  2.1105786400247398E-01 a       852     0    18     1     2
  1.0980970485172306E-01 a       853     0    18     1     3
 -2.0604647725963698E-01 a       854     0    18     1     4
  1.0851941515924901E-01 a       855     0    18     1     5
 -2.2674560704593361E-01 a       856     0    18     1     6
 -1.6159882280782703E-01 a       857     0    18     1     7
 -3.9490017030367371E-03 a       858     0    18     1     8
 -1.0998612868496693E-01 a       859     0    18     1     9
 -1.7086320764130375E-01 a       860     0    18     1    10
 -1.7133183869194965E-01 a       861     0    18     1    11
 -1.4012583595913011E-01 a       862     0    18     1    12
 -1.5728522089520402E-04 a       863     0    18     1    13
  2.2444428184633261E-01 a       864     0    18     1    14
  1.7183065511280690E-01 a       865     0    18     1    15
 -4.8744751454800180E-02 a       866     0    18     1    16
 -2.0254314331675835E-01 a       867     0    18     1    17
  1.2378596234154755E-01 a       868     0    18     1    18
 -9.7476042092716944E-02 a       869     0    18     1    19
  1.4711868484348328E-01 a       870     0    18     1    20
  2.6311187451437752E-02 a       871     0    18     1    21
 -8.8749514841501689E-02 a       872     0    18     1    22
 -1.4472780780558470E-01 a       873     0    18     1    23
  2.0681295051225129E-01 a       874     0    18     1    24
 -1.0209955483754372E-01 a       875     0    18     1    25
 -8.8826359572574662E-02 a       876     0    18     1    26
  3.1815143315792355E-02 a       877     0    18     1    27
 -2.1565502390389336E-02 a       878     0    18     1    28
 -2.4673154590545496E-01 a       879     0    18     1    29
  1.6732831921188340E-01 a       880     0    18     1    30
  1.4885712164175696E-01 a       881     0    18     1    31
  3.9315675590596996E-02 a       882     0    18     1    32
  2.9551212960694920E-02 a       883     0    18     1    33
  2.3040373604242204E-01 a       884     0    18     1    34
 -7.1779219818784851E-02 a       885     0    18     1    35
 -2.2123914353317653E-01 a       886     0    18     1    36
 -2.2466957360714415E-01 a       887     0    18     1    37
  7.8164755194194482E-03 a       888     0    18     1    38
  1.0164405163012320E-01 a       889     0    18     1    39
 -7.5033600892712229E-02 a       890     0    18     1    40
  6.9422679975855772E-02 a       891     0    18     1    41
  2.3620880973710592E-01 a       892     0    18     1    42
  2.5126406753334729E-01 a       893     0    18     1    43
 -4.7188594188304345E-02 a       894     0    18     1    44
 -2.1788668804125508E-01 a       895     0    18     1    45
  2.5140537929435172E-02 a       896     0    18     1    46
  1.7852973596573601E-01 a       897     0    18     1    47
 -2.0514267651367490E-01 a       898     0    18     1    48
  1.5368357921493233E-02 a       899     0    18     1    49
  1.2891004318651117E-01 a       900     0    18     1    50
 -9.7898124853000007E-02 a       901     0    19     1     1
 -7.0885968867500848E-03 a       902     0    19     1     2
 -2.2655382111621897E-01 a       903     0    19     1     3
  1.8985960135142582E-01 a       904     0    19     1     4
 -5.0049465566140150E-03 a       905     0    19     1     5
 -2.1095517326146878E-02 a       906     0    19     1     6
  1.0585921725373737E-02 a       907     0    19     1     7
  1.1558926218039618E-01 a       908     0    19     1     8
 -8.4292973640201413E-02 a       909     0    19     1     9
  8.8714569256091280E-02 a       910     0    19     1    10
 -2.1466956576830811E-02 a       911     0    19     1    11
 -2.2708546850191980E-01 a       912     0    19     1    12
 -1.1980853622327380E-01 a       913     0    19     1    13
  2.0723820377635463E-01 a       914     0    19     1    14
 -7.7100058841530830E-02 a       915     0    19     1    15
  5.8223082923044317E-02 a       916     0    19     1    16
 -2.3263805386091910E-01 a       917     0    19     1    17
 -2.4320176374599969E-01 a       918     0    19     1    18
 -1.8538814423835653E-01 a       919     0    19     1    19
  3.8727096487765109E-02 a       920     0    19     1    20
  7.6386235026966981E-02 a       921     0    19     1    21
  2.0255320756449149E-01 a       922     0    19     1    22
 -2.5364934918676096E-01 a       923     0    19     1    23
 -2.8424956081376913E-02 a       924     0    19     1    24
  3.9287424202742990E-02 a       925     0    19     1    25
 -1.1939392634323026E-01 a       926     0    19     1    26
 -2.1970110930937237E-01 a       927     0    19     1    27
  1.5756257106582300E-01 a       928     0    19     1    28
 -1.8290508819999846E-02 a       929     0    19     1    29
 -3.6252912532525286E-02 a       930     0    19     1    30
 -6.3626607986178446E-03 a       931     0    19     1    31
 -1.9479671820091973E-01 a       932     0    19     1    32
 -2.2048582951844680E-02 a       933     0    19     1    33
 -1.5800842077230137E-01 a       934     0    19     1    34
 -1.2604177206372141E-01 a       935     0    19     1    35
 -2.3864587117272679E-01 a       936     0    19     1    36
  9.7431071027220706E-02 a       937     0    19     1    37
  2.1836094979537746E-02 a       938     0    19     1    38
  1.2464830418059064E-01 a       939     0    19     1    39
  2.1734425991986048E-01 a       940     0    19     1    40
  2.2078705033277174E-01 a       941     0    19     1    41
 -2.5229356167304551E-01 a       942     0    19     1    42
  2.8433938997155624E-02 a       943     0    19     1    43
 -5.1041651791243418E-02 a       944     0    19     1    44
 -2.1287165499902430E-01 a       945     0    19     1    45
 -2.1334162531729048E-01 a       946     0    19     1    46
  2.3597870282044173E-01 a       947     0    19     1    47
 -1.4224895853263836E-01 a       948     0    19     1    48
 -1.3001717905351670E-01 a       949     0    19     1    49
  1.2743985210769260E-01 a       950     0    19     1    50
  2.1537126220656980E-01 a       951     0    20     1     1
 -2.3387123512238500E-01 a       952     0    20     1     2
 -2.4222261510447665E-01 a       953     0    20     1     3
 -1.2463658612404954E-01 a       954     0    20     1     4
  8.3454212876700948E-02 a       955     0    20     1     5
 -1.0488552664506527E-01 a       956     0    20     1     6
 -1.9707828950041970E-01 a       957     0    20     1     7
 -2.5187899032281097E-01 a       958     0    20     1     8
 -8.6372023582494295E-02 a       959     0    20     1     9
 -1.2888999769662102E-01 a       960     0    20     1    10
 -4.0922889848623745E-02 a       961     0    20     1    11
 -2.4261532590162727E-01 a       962     0    20     1    12
  1.2132868226973436E-02 a       963     0    20     1    13
  2.4002431540332633E-01 a       964     0    20     1    14
 -8.9430153906710302E-02 a       965     0    20     1    15
 -3.3672556477766388E-02 a       966     0    20     1    16
 -3.1544641461965763E-02 a       967     0    20     1    17
  1.7139475941599705E-01 a       968     0    20     1    18
 -1.9888022806177405E-01 a       969     0    20     1    19
 -2.0387109851375226E-01 a       970     0    20     1    20
 -1.4516444841203521E-01 a       971     0    20     1    21
  1.1979274375835001E-04 a       972     0    20     1    22
  1.7786523660940884E-01 a       973     0    20     1    23
 -2.0569571127310776E-01 a       974     0    20     1    24
  2.3725711891010873E-01 a       975     0    20     1    25
  1.6207697357535605E-01 a       976     0    20     1    26
  9.6246150610992384E-02 a       977     0    20     1    27
 -6.7813245259206623E-02 a       978     0    20     1    28
 -1.1816434238646273E-01 a       979     0    20     1    29
 -5.5762331363007817E-02 a       980     0    20     1    30
  3.7039680529596608E-04 a       981     0    20     1    31
 -9.8447325064003138E-02 a       982     0    20     1    32
 -1.7029300357087115E-01 a       983     0    20     1    33
  1.4672008409907958E-01 a       984     0    20     1    34
  2.1996410118018039E-01 a       985     0    20     1    35
 -5.8651494085536597E-02 a       986     0    20     1    36
 -2.3730316096159218E-01 a       987     0    20     1    37
  1.0507565519839707E-01 a       988     0    20     1    38
 -2.2839670009693908E-01 a       989     0    20     1    39
 -1.6559347852911646E-01 a       990     0    20     1    40
 -7.2747444545941189E-02 a       991     0    20     1    41
 -5.6311734806861510E-02 a       992     0    20     1    42
  1.2549144854229910E-01 a       993     0    20     1    43
 -9.8348553898629620E-02 a       994     0    20     1    44
 -2.9304976443278206E-02 a       995     0    20     1    45
  2.2927224410368480E-01 a       996     0    20     1    46
  1.9218214827036395E-01 a       997     0    20     1    47
 -8.2983783411544193E-02 a       998     0    20     1    48
 -1.5169306149802849E-02 a       999     0    20     1    49
  7.7861813500653340E-02 a      1000     0    20     1    50
  6.7918419626943241E-02 a      1001     0    21     1     1
  3.7860550142774389E-02 a      1002     0    21     1     2
  8.0736162106217133E-03 a      1003     0    21     1     3
 -1.0808179941565710E-01 a      1004     0    21     1     4
  5.1570330241106251E-02 a      1005     0    21     1     5
  8.6419389798864255E-03 a      1006     0    21     1     6
 -2.0903308270156290E-01 a      1007     0    21     1     7
 -4.7472423074955321E-03 a      1008     0    21     1     8
  1.2338300225844524E-01 a      1009     0    21     1     9
 -2.6759179962324721E-02 a      1010     0    21     1    10
 -1.2697052133668818E-01 a      1011     0    21     1    11
 -1.9587263695505069E-01 a      1012     0    21     1    12
 -1.0381400421349281E-01 a      1013     0    21     1    13
 -1.1036941157082872E-01 a      1014     0    21     1    14
  1.8184990775880472E-01 a      1015     0    21     1    15
  6.0452231087662116E-02 a      1016     0    21     1    16
 -1.2578668332268678E-01 a      1017     0    21     1    17
  1.9246806525860830E-01 a      1018     0    21     1    18
 -5.1159480466096037E-02 a      1019     0    21     1    19
  4.9054673703243630E-02 a      1020     0    21     1    20
  3.8131674300584013E-02 a      1021     0    21     1    21
 -1.6577966431757968E-01 a      1022     0    21     1    22
 -2.2195711227518705E-01 a      1023     0    21     1    23
 -2.2053807177728113E-01 a      1024     0    21     1    24
  1.6415578484688761E-01 a      1025     0    21     1    25
  1.6983703110843112E-01 a      1026     0    21     1    26
  4.3949407178069597E-03 a      1027     0    21     1    27
  7.2192022008622764E-02 a      1028     0    21     1    28
 -1.6231617840263013E-01 a      1029     0    21     1    29
  7.4798709263501309E-02 a      1030     0    21     1    30
  1.5256466107503733E-01 a      1031     0    21     1    31
 -1.9300426736719350E-01 a      1032     0    21     1    32
 -1.7659386862072909E-02 a      1033     0    21     1    33
  1.9560739525258686E-01 a      1034     0    21     1    34
 -2.1629940808370052E-01 a      1035     0    21     1    35
 -1.1133303971555510E-01 a      1036     0    21     1    36
 -1.2286069062168146E-01 a      1037     0    21     1    37
 -2.5317162593362502E-01 a      1038     0    21     1    38
 -2.5313845688159942E-01 a      1039     0    21     1    39
 -1.6152086368527213E-01 a      1040     0    21     1    40
  6.4351571315552584E-04 a      1041     0    21     1    41
 -9.1626057624552754E-02 a      1042     0    21     1    42
 -6.9151523709871987E-02 a      1043     0    21     1    43
 -1.8365571963623611E-01 a      1044     0    21     1    44
 -2.0421000421642074E-01 a      1045     0    21     1    45
 -1.0636206658018919E-01 a      1046     0    21     1    46
  6.1830791264446169E-02 a      1047     0    21     1    47
 -1.0442545658500568E-01 a      1048     0    21     1    48
 -2.0900581168329346E-01 a      1049     0    21     1    49
 -3.2575281506724281E-03 a      1050     0    21     1    50
  7.2918762347058325E-02 a      1051     0    22     1     1
  2.2323089931749240E-01 a      1052     0    22     1     2
 -1.9834235620921295E-01 a      1053     0    22     1     3
 -2.2415644145953650E-01 a      1054     0    22     1     4
  2.2333026353273472E-01 a      1055     0    22     1     5
 -2.8504104276648488E-02 a      1056     0    22     1     6
 -1.9841116462104935E-01 a      1057     0    22     1     7
  2.1058306651751968E-01 a      1058     0    22     1     8
 -2.3395473837526531E-01 a      1059     0    22     1     9
 -1.1605429652093953E-01 a      1060     0    22     1    10
  2.4617045877269841E-01 a      1061     0    22     1    11
 -1.9109076300873662E-01 a      1062     0    22     1    12
 -1.8847979680451404E-01 a      1063     0    22     1    13
  1.8828711755404257E-01 a      1064     0    22     1    14
  1.6634962650643353E-01 a      1065     0    22     1    15
 -1.5733370840036739E-01 a      1066     0    22     1    16
 -1.6971456018618974E-01 a      1067     0    22     1    17
 -1.7130312577882176E-01 a      1068     0    22     1    18
  2.7252317041767598E-02 a      1069     0    22     1    19
  1.9007626719178775E-01 a      1070     0    22     1    20
  1.7376240440609814E-01 a      1071     0    22     1    21
 -1.8274167448000803E-01 a      1072     0    22     1    22
  5.2894102456521146E-02 a      1073     0    22     1    23
  2.1761541547232929E-01 a      1074     0    22     1    24
  1.3095867646081952E-01 a      1075     0    22     1    25
  1.7520758868752190E-01 a      1076     0    22     1    26
  1.7006286288116451E-01 a      1077     0    22     1    27
 -2.2842434357002886E-01 a      1078     0    22     1    28
 -1.4809992551093207E-01 a      1079     0    22     1    29
 -1.1344552378068924E-01 a      1080     0    22     1    30
 -1.2155379006259985E-01 a      1081     0    22     1    31
 -6.0112907265214482E-02 a      1082     0    22     1    32
 -2.1870612753257160E-01 a      1083     0    22     1    33
 -1.8625061034792556E-01 a      1084     0    22     1    34
 -2.3370652470783487E-01 a      1085     0    22     1    35
 -2.2146808385284597E-01 a      1086     0    22     1    36
  5.7516707015695646E-02 a      1087     0    22     1    37
  2.2939062040128572E-01 a      1088     0    22     1    38
 -1.9634198889366622E-01 a      1089     0    22     1    39
 -1.2161163971675461E-01 a      1090     0    22     1    40
 -1.0549853162517789E-01 a      1091     0    22     1    41
  1.4252456166182517E-01 a      1092     0    22     1    42
 -2.1244183952012927E-01 a      1093     0    22     1    43
  9.0890071321148656E-03 a      1094     0    22     1    44
 -2.2875261231027236E-01 a      1095     0    22     1    45
  2.0408747847244493E-01 a      1096     0    22     1    46
 -1.4469408007132853E-01 a      1097     0    22     1    47
 -1.2136698470529438E-01 a      1098     0    22     1    48
  4.9903475644159524E-03 a      1099     0    22     1    49
 -1.2875992141819184E-01 a      1100     0    22     1    50
  2.0301928791799773E-01 a      1101     0    23     1     1
  1.8933317118726969E-01 a      1102     0    23     1     2
  1.6204343706311494E-01 a      1103     0    23     1     3
 -6.8472800194550362E-02 a      1104     0    23     1     4
 -5.0784290386073544E-02 a      1105     0    23     1     5
 -5.9493580304527491E-02 a      1106     0    23     1     6
  5.7837398345754821E-03 a      1107     0    23     1     7
 -1.5445175538996914E-01 a      1108     0    23     1     8
  1.1862173557615008E-01 a      1109     0    23     1     9
  7.7928897941375266E-02 a      1110     0    23     1    10
 -2.4072564426245341E-01 a      1111     0    23     1    11
  9.0600094194821276E-02 a      1112     0    23     1    12
 -8.4482071283304108E-02 a      1113     0    23     1    13
  2.5530297212405251E-01 a      1114     0    23     1    14
  8.7841488421980862E-02 a      1115     0    23     1    15
  2.4455595393750992E-01 a      1116     0    23     1    16
  9.6371371538891623E-02 a      1117     0    23     1    17
 -2.4375595106996598E-01 a      1118     0    23     1    18
  1.3154503129961576E-01 a      1119     0    23     1    19
 -3.4126498633326563E-02 a      1120     0    23     1    20
  1.5787271402823408E-01 a      1121     0    23     1    21
  2.4574998225355787E-02 a      1122     0    23     1    22
 -1.2371276688284744E-01 a      1123     0    23     1    23
 -1.6094671030941696E-01 a      1124     0    23     1    24
 -1.2834592076102336E-01 a      1125     0    23     1    25
  2.2128373167896603E-01 a      1126     0    23     1    26
  2.1126222610941414E-01 a      1127     0    23     1    27
  1.5743289946930753E-02 a      1128     0    23     1    28
  4.2288664312616041E-02 a      1129     0    23     1    29
 -3.7822258053181602E-02 a      1130     0    23     1    30
  4.7866072738902428E-02 a      1131     0    23     1    31
 -1.7766396663856016E-01 a      1132     0    23     1    32
  9.8733615458421117E-03 a      1133     0    23     1    33
 -2.1688949912477820E-01 a      1134     0    23     1    34
  8.9017249803149207E-02 a      1135     0    23     1    35
 -2.0292892838074106E-01 a      1136     0    23     1    36
 -2.7095287734912422E-02 a      1137     0    23     1    37
 -2.4103525422917330E-01 a      1138     0    23     1    38
  2.4253408853448988E-01 a      1139     0    23     1    39
  2.0076535604833598E-01 a      1140     0    23     1    40
 -2.1970417135891546E-01 a      1141     0    23     1    41
 -1.0963780339535108E-01 a      1142     0    23     1    42
 -2.2778353279216818E-01 a      1143     0    23     1    43
 -1.1275660104438377E-01 a      1144     0    23     1    44
  6.5592304181744318E-02 a      1145     0    23     1    45
  1.9358685068471673E-01 a      1146     0    23     1    46
  1.4849450500381922E-01 a      1147     0    23     1    47
  2.3224494183051053E-01 a      1148     0    23     1    48
  2.3753849045116343E-01 a      1149     0    23     1    49
  2.4014213848897828E-01 a      1150     0    23     1    50
  2.2137358010165761E-01 a      1151     0    24     1     1
 -3.8897132578137136E-02 a      1152     0    24     1     2
  1.0766883727954417E-01 a      1153     0    24     1     3
  1.9686463790409708E-01 a      1154     0    24     1     4
  1.1860572429996530E-01 a      1155     0    24     1     5
  2.2895380498366472E-01 a      1156     0    24     1     6
  1.5895470241647428E-01 a      1157     0    24     1     7
  1.4637043440673891E-01 a      1158     0    24     1     8
 -1.7990381300897218E-01 a      1159     0    24     1     9
  4.6556816866866902E-03 a      1160     0    24     1    10
 -8.6854211298869458E-02 a      1161     0    24     1    11
 -3.5038089535856617E-02 a      1162     0    24     1    12
  2.1890591921929781E-01 a      1163     0    24     1    13
 -5.3654012441578160E-03 a      1164     0    24     1    14
 -1.4968843782777883E-01 a      1165     0    24     1    15
 -1.4562989825613612E-01 a      1166     0    24     1    16
 -1.4641385333931206E-01 a      1167     0    24     1    17
  1.6176748145752728E-01 a      1168     0    24     1    18
 -2.1176186533196423E-01 a      1169     0    24     1    19
  7.5828761252995910E-02 a      1170     0    24     1    20
  1.7871817991019650E-02 a      1171     0    24     1    21
 -1.1636047935628412E-01 a      1172     0    24     1    22
  1.7463672449681225E-01 a      1173     0    24     1    23
 -5.6876605233888251E-03 a      1174     0    24     1    24
 -2.4130983072922088E-01 a      1175     0    24     1    25
  1.4795640696700901E-01 a      1176     0    24     1    26
  1.5590648031804880E-01 a      1177     0    24     1    27
 -1.6416105677124757E-01 a      1178     0    24     1    28
 -5.2918478863429812E-02 a      1179     0    24     1    29
 -3.6177636464139129E-02 a      1180     0    24     1    30
 -1.0217215023014439E-01 a      1181     0    24     1    31
 -1.6018786691033812E-01 a      1182     0    24     1    32
 -7.4635269856971539E-02 a      1183     0    24     1    33
  2.1323010245000598E-01 a      1184     0    24     1    34
 -2.7434038842668242E-02 a      1185     0    24     1    35
 -2.1574373153504869E-01 a      1186     0    24     1    36
  5.8036068268010936E-02 a      1187     0    24     1    37
 -9.2040579266576897E-02 a      1188     0    24     1    38
  2.5504599244939774E-01 a      1189     0    24     1    39
 -1.8070250324678847E-01 a      1190     0    24     1    40
  1.3206415102710981E-01 a      1191     0    24     1    41
  6.9587939321265016E-02 a      1192     0    24     1    42
 -1.6038154175204711E-01 a      1193     0    24     1    43
  1.5931291155345215E-01 a      1194     0    24     1    44
 -1.3193245887508590E-01 a      1195     0    24     1    45
  2.5442968995979814E-01 a      1196     0    24     1    46
  9.9976781648538071E-02 a      1197     0    24     1    47
 -1.8121875821163180E-01 a      1198     0    24     1    48
 -5.8344743530105062E-02 a      1199     0    24     1    49
  2.4450947699864523E-01 a      1200     0    24     1    50
 -2.2927860604109815E-01 a      1201     0    25     1     1
 -1.5095485271437620E-01 a      1202     0    25     1     2
  2.8625315607109215E-02 a      1203     0    25     1     3
  4.8637609807340408E-02 a      1204     0    25     1     4
 -2.2467917335662438E-01 a      1205     0    25     1     5
 -1.8014466201260193E-01 a      1206     0    25     1     6
  1.4193864468338924E-01 a      1207     0    25     1     7
 -2.3437503247240893E-01 a      1208     0    25     1     8
 -3.8472598537135139E-02 a      1209     0    25     1     9
 -1.7131204828366539E-01 a      1210     0    25     1    10
  4.5544783271200012E-02 a      1211     0    25     1    11
  6.9447039496243215E-02 a      1212     0    25     1    12
  1.8656082442399646E-01 a      1213     0    25     1    13
 -8.5256216486837781E-04 a      1214     0    25     1    14
 -1.9250332074735899E-01 a      1215     0    25     1    15
 -5.5815224585343610E-02 a      1216     0    25     1    16
  2.3455546376254636E-02 a      1217     0    25     1    17
 -1.4964904442781210E-02 a      1218     0    25     1    18
  3.5707452923812652E-02 a      1219     0    25     1    19
  1.9443489225650068E-01 a      1220     0    25     1    20
 -9.5867336231621386E-02 a      1221     0    25     1    21
 -6.9173463106361355E-02 a      1222     0    25     1    22
  1.7023314537204348E-01 a      1223     0    25     1    23
 -2.4661001325541421E-01 a      1224     0    25     1    24
 -6.5869461227641660E-02 a      1225     0    25     1    25
  9.5289500761704199E-02 a      1226     0    25     1    26
  1.1431670880549383E-01 a      1227     0    25     1    27
 -1.4285209952488928E-01 a      1228     0    25     1    28
  6.5795727897564660E-02 a      1229     0    25     1    29
  9.2457057247761154E-02 a      1230     0    25     1    30
  2.5205149791015974E-01 a      1231     0    25     1    31
 -2.4626889185088988E-01 a      1232     0    25     1    32
 -1.6012139026546127E-01 a      1233     0    25     1    33
  9.4411450176828490E-02 a      1234     0    25     1    34
  2.5173488003712996E-01 a      1235     0    25     1    35
  2.1756495973608947E-01 a      1236     0    25     1    36
 -7.3398359766212330E-03 a      1237     0    25     1    37
 -1.0180695340311441E-01 a      1238     0    25     1    38
 -5.3015534263111161E-02 a      1239     0    25     1    39
  4.4180218096182187E-02 a      1240     0    25     1    40
 -1.1372703160310541E-02 a      1241     0    25     1    41
 -1.2645813076898460E-01 a      1242     0    25     1    42
  2.3818251561401574E-01 a      1243     0    25     1    43
  1.2848334220051036E-01 a      1244     0    25     1    44
 -1.6315382275302290E-01 a      1245     0    25     1    45
  2.0296023575326083E-01 a      1246     0    25     1    46
  3.0724211136178257E-02 a      1247     0    25     1    47
  6.8504682065549383E-02 a      1248     0    25     1    48
 -1.4716939138023913E-01 a      1249     0    25     1    49
 -1.5448818770276265E-01 a      1250     0    25     1    50
  9.4274681841387875E-02 a      1251     0    26     1     1
 -1.6313919652833636E-01 a      1252     0    26     1     2
 -1.2662104693119461E-01 a      1253     0    26     1     3
 -9.3266035539176478E-02 a      1254     0    26     1     4
  1.0556564627136736E-02 a      1255     0    26     1     5
 -1.2374214859735130E-01 a      1256     0    26     1     6
  1.1319142004708654E-01 a      1257     0    26     1     7
 -1.5052585004796426E-01 a      1258     0    26     1     8
  2.0498231402158368E-01 a      1259     0    26     1     9
 -2.3092764083922031E-02 a      1260     0    26     1    10
  6.7688828343772350E-02 a      1261     0    26     1    11
  1.7272548757004738E-01 a      1262     0    26     1    12
  1.2483935792501512E-02 a      1263     0    26     1    13
 -1.9798804904783057E-01 a      1264     0    26     1    14
  8.4062234073586969E-02 a      1265     0    26     1    15
 -5.5224607326967073E-02 a      1266     0    26     1    16
  1.3012170911722505E-02 a      1267     0    26     1    17
  2.1089156494681754E-01 a      1268     0    26     1    18
 -1.0307074160322657E-01 a      1269     0    26     1    19
 -1.1608288112028989E-01 a      1270     0    26     1    20
  2.4307765078794755E-01 a      1271     0    26     1    21
  1.9349432027812885E-01 a      1272     0    26     1    22
 -6.2676751631948247E-02 a      1273     0    26     1    23
  5.8911373009399519E-02 a      1274     0    26     1    24
 -1.6481047610735999E-01 a      1275     0    26     1    25
 -1.6361528963757790E-01 a      1276     0    26     1    26
 -1.0784510199894717E-01 a      1277     0    26     1    27
  1.3071090017807274E-01 a      1278     0    26     1    28
 -1.7146407085589541E-01 a      1279     0    26     1    29
  2.0759308722000375E-01 a      1280     0    26     1    30
 -1.8759561676918979E-01 a      1281     0    26     1    31
  2.2381004182793654E-01 a      1282     0    26     1    32
 -1.3216007491094967E-01 a      1283     0    26     1    33
 -6.1024054480345209E-02 a      1284     0    26     1    34
 -5.0256821819781007E-02 a      1285     0    26     1    35
 -3.5435292504411568E-02 a      1286     0    26     1    36
  2.3163447101777387E-01 a      1287     0    26     1    37
 -6.0290640874126049E-02 a      1288     0    26     1    38
 -2.3045991987693332E-02 a      1289     0    26     1    39
 -4.6590773639432113E-02 a      1290     0    26     1    40
  2.0718495082354901E-01 a      1291     0    26     1    41
  2.2244890354645566E-01 a      1292     0    26     1    42
 -7.1867408011033654E-02 a      1293     0    26     1    43
  1.2884793016142282E-01 a      1294     0    26     1    44
 -1.8426726345658578E-01 a      1295     0    26     1    45
  4.4854723786609867E-02 a      1296     0    26     1    46
 -1.8551013579744954E-01 a      1297     0    26     1    47
 -1.3992467515607360E-01 a      1298     0    26     1    48
 -2.5056154496365618E-01 a      1299     0    26     1    49
 -2.2732412974969712E-01 a      1300     0    26     1    50
 -9.4039486611552328E-02 a      1301     0    27     1     1
 -2.1020614414204128E-01 a      1302     0    27     1     2
  1.8116108848217155E-01 a      1303     0    27     1     3
  5.9399569235433864E-03 a      1304     0    27     1     4
  2.2659329775960019E-01 a      1305     0    27     1     5
  2.5349460443595739E-01 a      1306     0    27     1     6
 -6.7603723011920275E-02 a      1307     0    27     1     7
 -7.6908657615310377E-02 a      1308     0    27     1     8
  6.9815513497583220E-02 a      1309     0    27     1     9
  1.6508512645620818E-01 a      1310     0    27     1    10
 -4.8158170193916473E-02 a      1311     0    27     1    11
  1.2698485668510057E-01 a      1312     0    27     1    12
  1.8825199156826100E-01 a      1313     0    27     1    13
  1.4492434134506704E-01 a      1314     0    27     1    14
 -2.4383179319357079E-01 a      1315     0    27     1    15
 -9.8165607230344079E-02 a      1316     0    27     1    16
 -9.4557065384524672E-02 a      1317     0    27     1    17
  2.2999413931863849E-01 a      1318     0    27     1    18
  1.1756012981362877E-01 a      1319     0    27     1    19
  2.4701141454612030E-01 a      1320     0    27     1    20
  7.4578467523890454E-02 a      1321     0    27     1    21
  1.2262019908905743E-02 a      1322     0    27     1    22
 -5.4000569878908194E-02 a      1323     0    27     1    23
 -1.6716837043956229E-01 a      1324     0    27     1    24
 -2.0167912935535612E-01 a      1325     0    27     1    25
  1.0091202069701901E-02 a      1326     0    27     1    26
 -9.7386820374017441E-02 a      1327     0    27     1    27
 -2.0707096977823411E-01 a      1328     0    27     1    28
  1.7918095466771261E-01 a      1329     0    27     1    29
 -2.2113228396197276E-01 a      1330     0    27     1    30
  2.3296484205757598E-01 a      1331     0    27     1    31
  1.3017546557376927E-01 a      1332     0    27     1    32
 -1.3755586951493595E-01 a      1333     0    27     1    33
 -1.1299837987695360E-01 a      1334     0    27     1    34
 -2.1845409085187031E-02 a      1335     0    27     1    35
 -1.0672900034052248E-01 a      1336     0    27     1    36
 -2.2261635219366646E-01 a      1337     0    27     1    37
 -2.2210577538104587E-01 a      1338     0    27     1    38
 -2.5250569752570906E-01 a      1339     0    27     1    39
 -1.1290009723150408E-01 a      1340     0    27     1    40
  2.4573350528992852E-01 a      1341     0    27     1    41
 -1.9868006701212576E-01 a      1342     0    27     1    42
  2.3198673942901582E-01 a      1343     0    27     1    43
 -4.4495253987578857E-02 a      1344     0    27     1    44
 -5.3193782554162718E-02 a      1345     0    27     1    45
  1.9915396023576018E-01 a      1346     0    27     1    46
  1.9032283454231755E-01 a      1347     0    27     1    47
 -1.5185265565340383E-01 a      1348     0    27     1    48
  6.5281237217432217E-02 a      1349     0    27     1    49
 -6.9043851920780969E-02 a      1350     0    27     1    50
 -3.7610814191130923E-02 a      1351     0    28     1     1
  2.4722412132968821E-01 a      1352     0    28     1     2
 -8.1293724474965065E-02 a      1353     0    28     1     3
  2.4857440740505801E-01 a      1354     0    28     1     4
  1.5173031803954481E-01 a      1355     0    28     1     5
  2.2119059204950314E-02 a      1356     0    28     1     6
 -4.5333745161335480E-03 a      1357     0    28     1     7
 -1.5965412678519655E-01 a      1358     0    28     1     8
 -5.6809248587200878E-02 a      1359     0    28     1     9
 -2.2365676263690493E-01 a      1360     0    28     1    10
  5.2343695810603476E-02 a      1361     0    28     1    11
 -7.8232554933685361E-02 a      1362     0    28     1    12
  3.5422937278991984E-02 a      1363     0    28     1    13
 -1.6613219827531389E-01 a      1364     0    28     1    14
 -2.5181351033944410E-01 a      1365     0    28     1    15
  1.8737165714084869E-01 a      1366     0    28     1    16
 -6.6462877843128931E-02 a      1367     0    28     1    17
 -1.0152405648594844E-01 a      1368     0    28     1    18
 -2.2582983328074369E-01 a      1369     0    28     1    19
 -1.5390564862316827E-01 a      1370     0    28     1    20
  2.3684205630480942E-01 a      1371     0    28     1    21
 -1.0716689316576553E-01 a      1372     0    28     1    22
  2.3012525970732392E-01 a      1373     0    28     1    23
 -2.5493466698792483E-01 a      1374     0    28     1    24
 -7.9959258453764989E-03 a      1375     0    28     1    25
 -1.0409440596876850E-01 a      1376     0    28     1    26
 -1.6145632922817491E-01 a      1377     0    28     1    27
  1.2783791081854870E-01 a      1378     0    28     1    28
 -2.6238337333988680E-03 a      1379     0    28     1    29
 -1.0379167214592529E-01 a      1380     0    28     1    30
 -2.7606183607648917E-02 a      1381     0    28     1    31
 -7.9291077597971618E-02 a      1382     0    28     1    32
  1.2841425183133712E-01 a      1383     0    28     1    33
  2.3733132981954666E-01 a      1384     0    28     1    34
 -1.4505505705183880E-01 a      1385     0    28     1    35
  1.4533559615874841E-01 a      1386     0    28     1    36
 -1.3262564569583993E-01 a      1387     0    28     1    37
  1.2136475045204898E-02 a      1388     0    28     1    38
  6.6105684751484706E-02 a      1389     0    28     1    39
 -1.5180549492934853E-01 a      1390     0    28     1    40
 -1.2054084614073575E-01 a      1391     0    28     1    41
 -1.4644712894290826E-01 a      1392     0    28     1    42
  1.6801465248340187E-02 a      1393     0    28     1    43
  1.8965824968311176E-01 a      1394     0    28     1    44
 -2.4907661706532894E-01 a      1395     0    28     1    45
  2.5113420281211013E-01 a      1396     0    28     1    46
  1.6415106577771918E-01 a      1397     0    28     1    47
  1.6490846811437371E-01 a      1398     0    28     1    48
  1.0178116055004831E-01 a      1399     0    28     1    49
 -1.1543076992999061E-01 a      1400     0    28     1    50
  6.4599926021111032E-02 a      1401     0    29     1     1
  2.0755767071470557E-01 a      1402     0    29     1     2
  9.1045030839961669E-02 a      1403     0    29     1     3
 -2.3915628922826400E-02 a      1404     0    29     1     4
 -2.4490889887987347E-01 a      1405     0    29     1     5
 -3.0484418610397762E-03 a      1406     0    29     1     6
 -1.1401841911071287E-01 a      1407     0    29     1     7
  8.6296138529071420E-02 a      1408     0    29     1     8
 -1.8394001658871495E-01 a      1409     0    29     1     9
  6.5318607921345570E-02 a      1410     0    29     1    10
 -1.4899689197256305E-01 a      1411     0    29     1    11
 -3.2865618482440649E-02 a      1412     0    29     1    12
  4.4862014720529121E-02 a      1413     0    29     1    13
  2.0186593697212571E-01 a      1414     0    29     1    14
  1.7831525597851991E-01 a      1415     0    29     1    15
 -5.1312666424503384E-02 a      1416     0    29     1    16
  1.3125907732751155E-01 a      1417     0    29     1    17
 -2.0689780444899156E-01 a      1418     0    29     1    18
 -6.9107247132291064E-02 a      1419     0    29     1    19
 -2.2711985207536312E-01 a      1420     0    29     1    20
 -9.6924741650365784E-02 a      1421     0    29     1    21
 -2.0596553814176186E-01 a      1422     0    29     1    22
  1.4973626235860524E-01 a      1423     0    29     1    23
  1.1846484243173720E-02 a      1424     0    29     1    24
  1.4454430923346095E-01 a      1425     0    29     1    25
 -4.2188559112065455E-02 a      1426     0    29     1    26
  2.1359259921742682E-01 a      1427     0    29     1    27
  1.5113794268025388E-01 a      1428     0    29     1    28
 -4.5499680562189691E-02 a      1429     0    29     1    29
 -1.2750609246019140E-01 a      1430     0    29     1    30
  7.5547044846366818E-02 a      1431     0    29     1    31
 -1.8376509434774962E-01 a      1432     0    29     1    32
  9.7630065479874240E-02 a      1433     0    29     1    33
  7.5424059479823766E-02 a      1434     0    29     1    34
 -1.1840527915243522E-01 a      1435     0    29     1    35
 -1.6524126375041731E-01 a      1436     0    29     1    36
 -1.0368325913368766E-01 a      1437     0    29     1    37
 -1.6199108266350934E-01 a      1438     0    29     1    38
 -1.4190504906832382E-01 a      1439     0    29     1    39
  2.5196814520894055E-02 a      1440     0    29     1    40
 -7.5615903442090238E-02 a      1441     0    29     1    41
  1.6678539020297181E-01 a      1442     0    29     1    42
  5.3543893296100608E-03 a      1443     0    29     1    43
  8.3654491061725358E-02 a      1444     0    29     1    44
 -1.1668459199067957E-01 a      1445     0    29     1    45
 -1.5407433331616535E-01 a      1446     0    29     1    46
  2.0147694477722031E-01 a      1447     0    29     1    47
 -1.4870995810655094E-01 a      1448     0    29     1    48
  5.4396350812105032E-02 a      1449     0    29     1    49
 -5.0282237580179384E-02 a      1450     0    29     1    50
 -5.4956536656520762E-02 a      1451     0    30     1     1
 -1.6892035486570878E-01 a      1452     0    30     1     2
  2.2029187593021835E-02 a      1453     0    30     1     3
 -1.4401548808060183E-01 a      1454     0    30     1     4
 -2.1730482037925830E-01 a      1455     0    30     1     5
  1.0475787500946240E-01 a      1456     0    30     1     6
  2.0756430723646763E-01 a      1457     0    30     1     7
  1.9716645343315912E-02 a      1458     0    30     1     8
 -6.7515910366390064E-03 a      1459     0    30     1     9
 -1.0082655301847550E-01 a      1460     0    30     1    10
 -2.3955171352288926E-01 a      1461     0    30     1    11
  1.4216562616659614E-01 a      1462     0    30     1    12
  1.6644699157161685E-01 a      1463     0    30     1    13
  2.0353664383645751E-02 a      1464     0    30     1    14
  1.6060439638352020E-01 a      1465     0    30     1    15
  9.3110316840423160E-02 a      1466     0    30     1    16
  1.0139168827847954E-02 a      1467     0    30     1    17
 -1.1367930506166980E-01 a      1468     0    30     1    18
  7.9671733916267362E-02 a      1469     0    30     1    19
  1.8386832307905088E-01 a      1470     0    30     1    20
  1.0241023911998741E-01 a      1471     0    30     1    21
 -1.5527532042490869E-01 a      1472     0    30     1    22
 -2.6982486486619425E-02 a      1473     0    30     1    23
 -2.4286920452125330E-01 a      1474     0    30     1    24
  2.0280197016278104E-01 a      1475     0    30     1    25
 -1.2969472439009994E-01 a      1476     0    30     1    26
  6.6020746738895783E-02 a      1477     0    30     1    27
  1.9230589543306892E-02 a      1478     0    30     1    28
 -1.5266102305707582E-01 a      1479     0    30     1    29
 -8.5816604018154954E-03 a      1480     0    30     1    30
  1.0895824887291433E-01 a      1481     0    30     1    31
  8.4195742359077133E-02 a      1482     0    30     1    32
  1.4171607950116030E-01 a      1483     0    30     1    33
  5.8614010051660358E-02 a      1484     0    30     1    34
 -7.7387913736464906E-02 a      1485     0    30     1    35
  1.0437777713555885E-01 a      1486     0    30     1    36
 -1.6105034598209597E-01 a      1487     0    30     1    37
  6.6287582671666623E-02 a      1488     0    30     1    38
  1.0616838757630948E-01 a      1489     0    30     1    39
 -1.9945708268643000E-02 a      1490     0    30     1    40
 -1.3489143107097010E-01 a      1491     0    30     1    41
  5.2623013974460599E-02 a      1492     0    30     1    42
 -2.9442852035050935E-03 a      1493     0    30     1    43
 -1.1879479661328615E-01 a      1494     0    30     1    44
  1.3883970035087834E-01 a      1495     0    30     1    45
  1.4526018369008165E-01 a      1496     0    30     1    46
 -1.2259115236983738E-01 a      1497     0    30     1    47
 -4.5401990372013139E-02 a      1498     0    30     1    48
 -1.3610494655143518E-01 a      1499     0    30     1    49
 -1.6917761328688299E-01 a      1500     0    30     1    50
 -1.8518203996566990E-01 a      1501     0    31     1     1
  2.2515711411291051E-01 a      1502     0    31     1     2
 -1.2483023040353348E-01 a      1503     0    31     1     3
  2.1157710145993998E-02 a      1504     0    31     1     4
 -2.0402766034937539E-01 a      1505     0    31     1     5
 -2.1680957736034753E-01 a      1506     0    31     1     6
 -2.7265934475189449E-03 a      1507     0    31     1     7
 -2.5503637498096215E-01 a      1508     0    31     1     8
 -2.5412851433475536E-01 a      1509     0    31     1     9
  9.7759122739990656E-02 a      1510     0    31     1    10
  3.5504280008508311E-02 a      1511     0    31     1    11
  7.9866380089704495E-02 a      1512     0    31     1    12
  1.1730335408533954E-01 a      1513     0    31     1    13
  5.6959169144295413E-02 a      1514     0    31     1    14
  9.8396340137485355E-02 a      1515     0    31     1    15
  9.6596826813553111E-02 a      1516     0    31     1    16
  1.5127994001023637E-01 a      1517     0    31     1    17
 -2.1510589195249014E-01 a      1518     0    31     1    18
 -3.4333255058706304E-02 a      1519     0    31     1    19
  1.9534827431947260E-01 a      1520     0    31     1    20
  4.4873701025653551E-02 a      1521     0    31     1    21
  3.9996380537022244E-02 a      1522     0    31     1    22
  1.3877640253416321E-01 a      1523     0    31     1    23
  4.0014122562713798E-02 a      1524     0    31     1    24
  9.6542980691959532E-02 a      1525     0    31     1    25
  1.2530051466839151E-01 a      1526     0    31     1    26
 -2.2210910571222200E-01 a      1527     0    31     1    27
  2.4555652812581649E-01 a      1528     0    31     1    28
  2.1357307637726061E-01 a      1529     0    31     1    29
  2.0799215674375029E-01 a      1530     0    31     1    30
 -7.3817660650501701E-02 a      1531     0    31     1    31
  2.0821529095417698E-01 a      1532     0    31     1    32
  3.3565799058124152E-02 a      1533     0    31     1    33
  2.2608987250763912E-01 a      1534     0    31     1    34
 -7.5298851276275017E-02 a      1535     0    31     1    35
 -7.2456994359181098E-02 a      1536     0    31     1    36
 -7.7721735644890211E-02 a      1537     0    31     1    37
  6.8959390536199677E-02 a      1538     0    31     1    38
 -2.1522391981694175E-01 a      1539     0    31     1    39
  2.3029549367918414E-01 a      1540     0    31     1    40
  2.4113150621098547E-01 a      1541     0    31     1    41
 -1.4242166566634362E-01 a      1542     0    31     1    42
 -2.4227980011942615E-01 a      1543     0    31     1    43
 -9.6060899764993254E-02 a      1544     0    31     1    44
  1.6388446922922464E-01 a      1545     0    31     1    45
  5.5942606987960137E-04 a      1546     0    31     1    46
 -4.3917443371766868E-02 a      1547     0    31     1    47
 -1.5728544303620159E-01 a      1548     0    31     1    48
  1.0067626226602473E-01 a      1549     0    31     1    49
 -1.1126444083928494E-01 a      1550     0    31     1    50
  1.6286735386094037E-01 a      1551     0    32     1     1
 -2.0104648130780292E-01 a      1552     0    32     1     2
 -1.0490738006299936E-01 a      1553     0    32     1     3
  1.3729990778832143E-01 a      1554     0    32     1     4
 -5.7617545471808883E-02 a      1555     0    32     1     5
 -1.0736502688151306E-01 a      1556     0    32     1     6
  1.8373154499223884E-01 a      1557     0    32     1     7
  1.3386436609302638E-01 a      1558     0    32     1     8
 -3.7222578203186758E-02 a      1559     0    32     1     9
 -6.3870578142175602E-02 a      1560     0    32     1    10
  3.4739887008822565E-02 a      1561     0    32     1    11
 -1.7461887223305605E-02 a      1562     0    32     1    12
 -1.1215625382004291E-01 a      1563     0    32     1    13
 -1.6165139601869363E-01 a      1564     0    32     1    14
 -1.7523066804311335E-01 a      1565     0    32     1    15
 -8.2624662640258292E-02 a      1566     0    32     1    16
 -1.9574697067488384E-01 a      1567     0    32     1    17
  7.0719482038485108E-03 a      1568     0    32     1    18
 -1.7828236638652870E-01 a      1569     0    32     1    19
 -2.1561928072765280E-01 a      1570     0    32     1    20
 -1.5031474022984409E-01 a      1571     0    32     1    21
  6.3847409835049773E-02 a      1572     0    32     1    22
  2.1403462067819116E-02 a      1573     0    32     1    23
  2.3318071423144016E-01 a      1574     0    32     1    24
 -6.5526388002885419E-02 a      1575     0    32     1    25
  1.8251613322679128E-01 a      1576     0    32     1    26
 -1.2771285435585267E-01 a      1577     0    32     1    27
 -1.0195532289755833E-01 a      1578     0    32     1    28
  2.5289951415216183E-01 a      1579     0    32     1    29
  4.1144504034301504E-02 a      1580     0    32     1    30
 -4.7686441417978405E-02 a      1581     0    32     1    31
 -2.3119151283075803E-01 a      1582     0    32     1    32
  2.9278548324040247E-02 a      1583     0    32     1    33
  1.4277023319429569E-03 a      1584     0    32     1    34
  1.4800878657747729E-01 a      1585     0    32     1    35
 -4.5214750246245605E-02 a      1586     0    32     1    36
  5.8135934441042716E-02 a      1587     0    32     1    37
 -1.8782318262116654E-01 a      1588     0    32     1    38
 -1.8772991325089619E-01 a      1589     0    32     1    39
  2.2118855639126092E-01 a      1590     0    32     1    40
 -1.9859200642013946E-03 a      1591     0    32     1    41
  1.3562521106713224E-01 a      1592     0    32     1    42
  2.3711563269469130E-01 a      1593     0    32     1    43
 -2.0072599261599849E-01 a      1594     0    32     1    44
  1.1304045597433159E-01 a      1595     0    32     1    45
  1.1008255309956631E-01 a      1596     0    32     1    46
  6.3584960592385179E-02 a      1597     0    32     1    47
 -7.3697921420366963E-02 a      1598     0    32     1    48
  1.6891846761858273E-01 a      1599     0    32     1    49
  1.8096469645649388E-01 a      1600     0    32     1    50
  3.3483084239298411E-02 a      1601     0    33     1     1
 -2.4502122944611701E-01 a      1602     0    33     1     2
  1.2343325178885542E-02 a      1603     0    33     1     3
  2.0847940197323347E-01 a      1604     0    33     1     4
 -9.2494714546858731E-02 a      1605     0    33     1     5
  5.5102103226279037E-02 a      1606     0    33     1     6
 -1.7847871250940925E-01 a      1607     0    33     1     7
 -3.6730974824196606E-02 a      1608     0    33     1     8
  4.8442562638483670E-02 a      1609     0    33     1     9
 -1.0925117828639680E-01 a      1610     0    33     1    10
 -4.4256050230577257E-02 a      1611     0    33     1    11
  2.0875531429224559E-01 a      1612     0    33     1    12
 -5.1223792187599877E-02 a      1613     0    33     1    13
  1.7402101267869818E-01 a      1614     0    33     1    14
  2.0627862197508831E-01 a      1615     0    33     1    15
  9.3873359869763917E-02 a      1616     0    33     1    16
  1.2352679027319298E-01 a      1617     0    33     1    17
  3.5797387087221175E-02 a      1618     0    33     1    18
 -2.3642153709368915E-01 a      1619     0    33     1    19
  2.2671900328309103E-01 a      1620     0    33     1    20
  1.5417834227609886E-01 a      1621     0    33     1    21
  2.3555841395574131E-01 a      1622     0    33     1    22
  3.6210356953079739E-02 a      1623     0    33     1    23
