################################################################################
# Neural network connection values (weights and biases).
################################################################################
# Col  Name       Description
################################################################################
# 1    connection Neural network connection value.
# 2    t          Connection type (a = weight, b = bias).
# 3    index      Index enumerating weights.
# 4    l_s        Starting point layer (end point layer for biases).
# 5    n_s        Starting point neuron in starting layer (end point neuron for biases).
# 6    l_e        End point layer.
# 7    n_e        End point neuron in end layer.
################################################################################
#                      1 2         3     4     5     6     7
#             connection t     index   l_s   n_s   l_e   n_e
############################################################
 -3.2387278173026878E+01 a         1     0     1     1     1
 -1.4295110277201568E+01 a         2     0     1     1     2
  7.0496851121353032E+01 a         3     0     1     1     3
  3.6400787007479870E+01 a         4     0     1     1     4
  3.3094927081878125E+00 a         5     0     1     1     5
  4.8007814421948915E+01 a         6     0     1     1     6
 -2.2899071374305848E+01 a         7     0     1     1     7
  8.6705098792475859E+00 a         8     0     1     1     8
 -9.3436269183226131E+00 a         9     0     1     1     9
 -1.0659288988063578E+00 a        10     0     1     1    10
 -3.0100080471854298E+01 a        11     0     1     1    11
  2.7985900610466057E+01 a        12     0     1     1    12
 -3.5448497646877493E+00 a        13     0     1     1    13
  4.3583914894404323E+01 a        14     0     1     1    14
  2.8337618144901665E+01 a        15     0     1     1    15
 -8.2565566391305598E+00 a        16     0     1     1    16
  1.4975687139280157E+02 a        17     0     1     1    17
  1.0123969517875079E+02 a        18     0     1     1    18
 -2.7122952835682963E+02 a        19     0     1     1    19
  3.3182308765319284E+01 a        20     0     1     1    20
 -3.2611634912898895E+00 a        21     0     1     1    21
  2.1879168408022496E+00 a        22     0     1     1    22
 -2.0439980419245956E+01 a        23     0     1     1    23
  3.7755696909671627E+01 a        24     0     1     1    24
 -1.1392102054163692E+01 a        25     0     1     1    25
 -1.7158326527383426E+01 a        26     0     1     1    26
  2.4324554024493486E+02 a        27     0     1     1    27
  1.1223037355644193E+01 a        28     0     1     1    28
  1.1057818437442123E+02 a        29     0     1     1    29
  5.0402864655196161E+01 a        30     0     1     1    30
  2.1664146577826483E+02 a        31     0     1     1    31
  1.8971312514843710E+01 a        32     0     1     1    32
  3.8354323355929473E+01 a        33     0     1     1    33
 -2.1157936201645622E+01 a        34     0     1     1    34
  2.5761476907613861E+01 a        35     0     1     1    35
  3.2163688727246530E+01 a        36     0     1     1    36
  2.2910130866936575E+02 a        37     0     1     1    37
 -1.9629384578946780E+01 a        38     0     1     1    38
  1.8962203921345711E+01 a        39     0     1     1    39
  3.2660513924806047E+01 a        40     0     1     1    40
  1.1840781371515369E+01 a        41     0     1     1    41
 -3.4708680256994334E+01 a        42     0     1     1    42
  3.2380479456982371E+01 a        43     0     1     1    43
 -8.5352555489669598E+01 a        44     0     1     1    44
  4.3375555308614743E+01 a        45     0     1     1    45
  3.9881822092694755E+01 a        46     0     1     1    46
 -5.3583331533049424E+01 a        47     0     1     1    47
 -5.5433203971762923E+00 a        48     0     1     1    48
 -1.1183396230865888E+01 a        49     0     1     1    49
 -4.6608511254538856E+00 a        50     0     1     1    50
 -2.3484143198365683E+01 a        51     0     2     1     1
 -1.6810043819390550E+01 a        52     0     2     1     2
  6.2015457614139947E+01 a        53     0     2     1     3
  3.1704816790166106E+01 a        54     0     2     1     4
  2.4557948943326342E+00 a        55     0     2     1     5
  4.1952505288819729E+01 a        56     0     2     1     6
 -1.8386799734311523E+01 a        57     0     2     1     7
  6.8468392015649595E+00 a        58     0     2     1     8
 -7.4634040335212131E+00 a        59     0     2     1     9
  5.9489939783029810E-01 a        60     0     2     1    10
 -2.4398693398141301E+01 a        61     0     2     1    11
  2.1010414054659456E+01 a        62     0     2     1    12
 -3.9504698898893813E+00 a        63     0     2     1    13
  4.0448845937466537E+01 a        64     0     2     1    14
  1.7711856032236494E+01 a        65     0     2     1    15
 -8.1967523129943469E+00 a        66     0     2     1    16
  1.1954270064403603E+02 a        67     0     2     1    17
  8.2694247571859719E+01 a        68     0     2     1    18
 -2.2080679188272850E+02 a        69     0     2     1    19
  3.2926283442244539E+01 a        70     0     2     1    20
 -3.5063578896712904E+00 a        71     0     2     1    21
  2.3112607175643691E+00 a        72     0     2     1    22
 -2.2981247111730450E+01 a        73     0     2     1    23
  4.3056851847331366E+01 a        74     0     2     1    24
 -1.6369102598815289E+01 a        75     0     2     1    25
 -1.6551723169208437E+01 a        76     0     2     1    26
  2.0269773321475270E+02 a        77     0     2     1    27
  1.6742225506799937E+01 a        78     0     2     1    28
  1.0449885640411843E+02 a        79     0     2     1    29
  5.1826626736262057E+01 a        80     0     2     1    30
  1.6939473110705143E+02 a        81     0     2     1    31
  1.2515663747189562E+01 a        82     0     2     1    32
  3.0252338007283242E+01 a        83     0     2     1    33
 -2.3908864809966143E+01 a        84     0     2     1    34
  2.8250918645271604E+01 a        85     0     2     1    35
  3.4727488926282462E+01 a        86     0     2     1    36
  1.8812653575276215E+02 a        87     0     2     1    37
 -1.6092623159760240E+01 a        88     0     2     1    38
  2.2614737702790610E+01 a        89     0     2     1    39
  3.2062529672318121E+01 a        90     0     2     1    40
  1.1144647139491781E+01 a        91     0     2     1    41
 -2.5250952882342546E+01 a        92     0     2     1    42
  2.4281974077465950E+01 a        93     0     2     1    43
 -7.7040033513398910E+01 a        94     0     2     1    44
  4.7910990289674224E+01 a        95     0     2     1    45
  3.9218485511926573E+01 a        96     0     2     1    46
 -4.2498940650440474E+01 a        97     0     2     1    47
 -9.7810674215832549E-01 a        98     0     2     1    48
 -5.4936724352098443E+00 a        99     0     2     1    49
  5.8044179939253171E+00 a       100     0     2     1    50
 -5.1792535321216313E+01 a       101     0     3     1     1
  4.9915331797116638E+00 a       102     0     3     1     2
  7.2572828543798423E+01 a       103     0     3     1     3
  4.1146744658084167E+01 a       104     0     3     1     4
  5.2504146692981468E+00 a       105     0     3     1     5
  5.1574093569045502E+01 a       106     0     3     1     6
 -2.5769554840152402E+01 a       107     0     3     1     7
  1.1439266769084057E+01 a       108     0     3     1     8
 -1.4288980967679249E+01 a       109     0     3     1     9
 -1.0572430056077327E+01 a       110     0     3     1    10
 -3.9817233688273596E+01 a       111     0     3     1    11
  4.5319479562427681E+01 a       112     0     3     1    12
 -1.5966713211843930E+00 a       113     0     3     1    13
  3.4808321462527054E+01 a       114     0     3     1    14
  5.6662090238438594E+01 a       115     0     3     1    15
 -2.2268413774946683E+00 a       116     0     3     1    16
  2.1455713592575296E+02 a       117     0     3     1    17
  1.3963977320799583E+02 a       118     0     3     1    18
 -3.8316239807222092E+02 a       119     0     3     1    19
  2.0053345728929322E+01 a       120     0     3     1    20
 -5.4878173296386557E-01 a       121     0     3     1    21
  1.3984804292342272E+00 a       122     0     3     1    22
 -3.4291466347089425E+00 a       123     0     3     1    23
 -1.5682956144712064E+00 a       124     0     3     1    24
  1.1443582933605549E+01 a       125     0     3     1    25
 -9.7739312081163767E+00 a       126     0     3     1    26
  3.1506472719104340E+02 a       127     0     3     1    27
 -1.4451148614162154E+01 a       128     0     3     1    28
  8.5854281951991894E+01 a       129     0     3     1    29
  2.5701478020539192E+01 a       130     0     3     1    30
  3.3112826329826112E+02 a       131     0     3     1    31
  3.6642776672971316E+01 a       132     0     3     1    32
  5.2780621288708012E+01 a       133     0     3     1    33
 -4.1138315142573303E+00 a       134     0     3     1    34
  5.1307309982763121E+00 a       135     0     3     1    35
  1.0551757613285348E+01 a       136     0     3     1    36
  2.8902052559642118E+02 a       137     0     3     1    37
 -2.7123389318847082E+01 a       138     0     3     1    38
 -2.8395409676896262E+00 a       139     0     3     1    39
  2.5540508228900858E+01 a       140     0     3     1    40
  9.6076409555967839E+00 a       141     0     3     1    41
 -6.0715795144059271E+01 a       142     0     3     1    42
  5.2765869264418093E+01 a       143     0     3     1    43
 -7.9942424186333398E+01 a       144     0     3     1    44
  5.0726519790489544E+00 a       145     0     3     1    45
  2.8075109553347648E+01 a       146     0     3     1    46
 -8.3359933038494319E+01 a       147     0     3     1    47
 -2.0173239924682157E+01 a       148     0     3     1    48
 -2.9345502803144008E+01 a       149     0     3     1    49
 -4.4264481536451562E+01 a       150     0     3     1    50
  2.7545559109984186E+01 a       151     0     4     1     1
 -1.4322589477834876E+01 a       152     0     4     1     2
 -8.3172177903177413E+00 a       153     0     4     1     3
 -9.3153692138559552E-01 a       154     0     4     1     4
 -1.1863420632255139E+00 a       155     0     4     1     5
 -9.6846499428281785E+00 a       156     0     4     1     6
  2.4524147401868415E+01 a       157     0     4     1     7
 -1.4804320624768572E+00 a       158     0     4     1     8
  5.5973794710581144E+00 a       159     0     4     1     9
  7.1758087686582774E+00 a       160     0     4     1    10
  1.4424171636673577E+01 a       161     0     4     1    11
 -1.8760676994312210E+01 a       162     0     4     1    12
 -5.2169342198602235E+00 a       163     0     4     1    13
 -1.7280682938884055E+00 a       164     0     4     1    14
 -3.9741106602756282E+01 a       165     0     4     1    15
  3.6525733519345831E+00 a       166     0     4     1    16
 -5.1516364451493963E+01 a       167     0     4     1    17
 -2.6090522027025646E+01 a       168     0     4     1    18
  4.6636581509676141E+01 a       169     0     4     1    19
  1.2165449992022388E+01 a       170     0     4     1    20
 -5.2474986044839413E+00 a       171     0     4     1    21
 -1.8628483846963795E+00 a       172     0     4     1    22
 -2.6355060686898636E+01 a       173     0     4     1    23
  4.3733173079741618E+01 a       174     0     4     1    24
 -3.4064639391514362E+01 a       175     0     4     1    25
 -1.0743225428900076E+00 a       176     0     4     1    26
 -3.8363459483408029E+01 a       177     0     4     1    27
  3.5750567957170254E+01 a       178     0     4     1    28
  2.0626069160675762E+01 a       179     0     4     1    29
  3.4916649906046473E+01 a       180     0     4     1    30
 -7.4545206772576122E+01 a       181     0     4     1    31
 -1.9306757237784058E+01 a       182     0     4     1    32
 -2.3651980293129693E+01 a       183     0     4     1    33
 -2.7229142394799243E+01 a       184     0     4     1    34
  2.5501805175061989E+01 a       185     0     4     1    35
  2.9314583360199343E+01 a       186     0     4     1    36
 -9.7001168658543719E+01 a       187     0     4     1    37
  7.7088730028851957E+00 a       188     0     4     1    38
  2.7407623821185478E+01 a       189     0     4     1    39
  2.1697786936368299E+01 a       190     0     4     1    40
  4.0693235640871785E+00 a       191     0     4     1    41
  2.3634837831773062E+01 a       192     0     4     1    42
 -2.0995927593556519E+01 a       193     0     4     1    43
  6.9581697088956433E+00 a       194     0     4     1    44
  4.1652515423922154E+01 a       195     0     4     1    45
  1.7927233654643572E+01 a       196     0     4     1    46
  7.5418506855173169E+00 a       197     0     4     1    47
  1.9851988638602862E+01 a       198     0     4     1    48
  2.4700710502104826E+01 a       199     0     4     1    49
  4.8090530200671616E+01 a       200     0     4     1    50
 -8.4089970773330506E+01 a       201     0     5     1     1
  2.2182197952795359E+01 a       202     0     5     1     2
  8.8240296638235648E+01 a       203     0     5     1     3
  4.2033913691141066E+01 a       204     0     5     1     4
  6.3588867475754212E+00 a       205     0     5     1     5
  6.9880093442097547E+01 a       206     0     5     1     6
 -6.2681341598268496E+01 a       207     0     5     1     7
  1.4823574436206927E+01 a       208     0     5     1     8
 -2.1885669054251277E+01 a       209     0     5     1     9
 -2.4717269415923379E+01 a       210     0     5     1    10
 -6.0397515463431539E+01 a       211     0     5     1    11
  7.1556837682095647E+01 a       212     0     5     1    12
  1.6108890817154851E+00 a       213     0     5     1    13
  4.2918814061466406E+01 a       214     0     5     1    14
  9.9730103342334630E+01 a       215     0     5     1    15
 -9.3093045081225672E+00 a       216     0     5     1    16
  2.8279472161040133E+02 a       217     0     5     1    17
  1.7891731529728111E+02 a       218     0     5     1    18
 -4.5386287892807155E+02 a       219     0     5     1    19
  1.0938181604742104E+01 a       220     0     5     1    20
  3.2171932293582288E+00 a       221     0     5     1    21
  5.5994491833337197E+00 a       222     0     5     1    22
  2.2005596323056213E+01 a       223     0     5     1    23
 -4.9055288728904777E+01 a       224     0     5     1    24
  4.6734292269011625E+01 a       225     0     5     1    25
 -4.9521282015239496E+00 a       226     0     5     1    26
  3.7496444849854197E+02 a       227     0     5     1    27
 -5.3310199127672725E+01 a       228     0     5     1    28
  7.7677978825888502E+01 a       229     0     5     1    29
  3.3342769609924228E-01 a       230     0     5     1    30
  4.3326745220603357E+02 a       231     0     5     1    31
  6.2137278528471377E+01 a       232     0     5     1    32
  7.9614992635962778E+01 a       233     0     5     1    33
  2.1418212169402022E+01 a       234     0     5     1    34
 -1.9634334812487452E+01 a       235     0     5     1    35
 -1.9333235950743852E+01 a       236     0     5     1    36
  4.3066992749606408E+02 a       237     0     5     1    37
 -3.6295734732867544E+01 a       238     0     5     1    38
 -3.3781453220245091E+01 a       239     0     5     1    39
  1.3780042872774748E+01 a       240     0     5     1    40
  8.4096430776064253E+00 a       241     0     5     1    41
 -9.2234122436400824E+01 a       242     0     5     1    42
  8.0133272245238587E+01 a       243     0     5     1    43
 -9.8968745640794424E+01 a       244     0     5     1    44
 -4.1282642558651318E+01 a       245     0     5     1    45
  1.8935762150134405E+01 a       246     0     5     1    46
 -9.3111104933065405E+01 a       247     0     5     1    47
 -4.5476806329452835E+01 a       248     0     5     1    48
 -5.9635156338814490E+01 a       249     0     5     1    49
 -1.0141396147925428E+02 a       250     0     5     1    50
  1.0406053924451957E+02 a       251     0     6     1     1
 -1.1292218302277535E+01 a       252     0     6     1     2
 -1.1312272709764433E+02 a       253     0     6     1     3
 -5.1526334171450998E+01 a       254     0     6     1     4
 -4.8484707174193229E+00 a       255     0     6     1     5
 -8.3011819263836017E+01 a       256     0     6     1     6
  9.0061463794348555E+01 a       257     0     6     1     7
 -1.5445302272010075E+01 a       258     0     6     1     8
  2.4626875758845777E+01 a       259     0     6     1     9
  1.7204081013914081E+01 a       260     0     6     1    10
  7.1743849667248043E+01 a       261     0     6     1    11
 -7.6019986003811965E+01 a       262     0     6     1    12
 -5.7605343356815260E+00 a       263     0     6     1    13
 -6.5514078848980830E+01 a       264     0     6     1    14
 -1.2090978842503034E+02 a       265     0     6     1    15
  1.5367929754638656E+01 a       266     0     6     1    16
 -2.8348420555145145E+02 a       267     0     6     1    17
 -1.7774008911332859E+02 a       268     0     6     1    18
  4.1196028876882434E+02 a       269     0     6     1    19
 -1.7905047952423896E+01 a       270     0     6     1    20
 -7.0802086661802823E+00 a       271     0     6     1    21
 -1.0460894016493654E+01 a       272     0     6     1    22
 -2.9821480421531827E+01 a       273     0     6     1    23
  4.5026347917238148E+01 a       274     0     6     1    24
 -5.7990261676489197E+01 a       275     0     6     1    25
  2.3976479128462298E+01 a       276     0     6     1    26
 -3.7451185719709531E+02 a       277     0     6     1    27
  6.2936974559252896E+01 a       278     0     6     1    28
 -9.9940436099602508E+01 a       279     0     6     1    29
  9.6823516672746752E+00 a       280     0     6     1    30
 -4.0658368004292754E+02 a       281     0     6     1    31
 -6.4602241694128793E+01 a       282     0     6     1    32
 -1.0095402403620399E+02 a       283     0     6     1    33
 -2.9585650869174131E+01 a       284     0     6     1    34
  2.2068294782671291E+01 a       285     0     6     1    35
  2.1535931872606525E+01 a       286     0     6     1    36
 -5.0044153157238230E+02 a       287     0     6     1    37
  4.2865728297114515E+01 a       288     0     6     1    38
  3.3667804060980359E+01 a       289     0     6     1    39
  4.8736766183745557E+00 a       290     0     6     1    40
 -7.0300526394992655E+00 a       291     0     6     1    41
  9.2157778086281326E+01 a       292     0     6     1    42
 -8.7622803302377946E+01 a       293     0     6     1    43
  1.2817407433438171E+02 a       294     0     6     1    44
  3.4272398285648968E+01 a       295     0     6     1    45
 -1.6163663171075811E+01 a       296     0     6     1    46
  7.8040967182622396E+01 a       297     0     6     1    47
  5.1953002845425459E+01 a       298     0     6     1    48
  6.7130277007348468E+01 a       299     0     6     1    49
  1.1089333362999132E+02 a       300     0     6     1    50
 -8.4224933792458359E+01 a       301     0     7     1     1
  3.1762437521560557E+01 a       302     0     7     1     2
  6.8388620832478694E+01 a       303     0     7     1     3
  2.7324762665666029E+01 a       304     0     7     1     4
  3.7159647831484360E-01 a       305     0     7     1     5
  5.5226753254344835E+01 a       306     0     7     1     6
 -9.3598535832489404E+01 a       307     0     7     1     7
  1.3176089745625035E+01 a       308     0     7     1     8
 -2.0231840364073609E+01 a       309     0     7     1     9
 -3.3841353023949630E+01 a       310     0     7     1    10
 -5.6895807523157536E+01 a       311     0     7     1    11
  6.6258086630133221E+01 a       312     0     7     1    12
  9.7678154376820991E-01 a       313     0     7     1    13
  4.4162560874315545E+01 a       314     0     7     1    14
  9.1454576413853019E+01 a       315     0     7     1    15
 -4.8934489213662520E+00 a       316     0     7     1    16
  1.7367265318128793E+02 a       317     0     7     1    17
  1.1904939321870951E+02 a       318     0     7     1    18
 -2.2913376130357037E+02 a       319     0     7     1    19
 -1.7782417093096139E+00 a       320     0     7     1    20
  4.7355980170442304E+00 a       321     0     7     1    21
  1.4252291433703263E+01 a       322     0     7     1    22
  3.5600593310978539E+01 a       323     0     7     1    23
 -7.8500528657285813E+01 a       324     0     7     1    24
  6.0105178478056651E+01 a       325     0     7     1    25
 -1.4830197048092377E+00 a       326     0     7     1    26
  2.1727961799919859E+02 a       327     0     7     1    27
 -6.9940916116286274E+01 a       328     0     7     1    28
  3.8518211449413350E+01 a       329     0     7     1    29
 -2.0892746833863864E+01 a       330     0     7     1    30
  2.6821390252614685E+02 a       331     0     7     1    31
  5.9434456419056900E+01 a       332     0     7     1    32
  6.8747784365869705E+01 a       333     0     7     1    33
  3.3220014414623151E+01 a       334     0     7     1    34
 -3.7343053820436523E+01 a       335     0     7     1    35
 -4.1378450283412910E+01 a       336     0     7     1    36
  3.6682523341770508E+02 a       337     0     7     1    37
 -2.8918313167071247E+01 a       338     0     7     1    38
 -5.1026927829139680E+01 a       339     0     7     1    39
  1.2475465628828299E+00 a       340     0     7     1    40
  6.5409708973671146E+00 a       341     0     7     1    41
 -7.7298524282589909E+01 a       342     0     7     1    42
  7.2370514322492085E+01 a       343     0     7     1    43
 -7.9139163460507106E+01 a       344     0     7     1    44
 -7.6481969301954265E+01 a       345     0     7     1    45
  9.5718423717259711E+00 a       346     0     7     1    46
 -4.1547180097329587E+01 a       347     0     7     1    47
 -5.4548274350578133E+01 a       348     0     7     1    48
 -6.5959700340602922E+01 a       349     0     7     1    49
 -1.1820845315819105E+02 a       350     0     7     1    50
  1.4170193838934344E+02 a       351     0     8     1     1
 -1.8763673710855571E+01 a       352     0     8     1     2
 -1.5537186892696303E+02 a       353     0     8     1     3
 -8.6875179705914434E+01 a       354     0     8     1     4
 -1.9123918990442714E+00 a       355     0     8     1     5
 -9.8348466833998060E+01 a       356     0     8     1     6
  1.1005183030821071E+02 a       357     0     8     1     7
 -2.6141372954197127E+01 a       358     0     8     1     8
  3.2273422642717556E+01 a       359     0     8     1     9
  2.3245359325661585E+01 a       360     0     8     1    10
  9.3910600952277321E+01 a       361     0     8     1    11
 -9.9145867535638033E+01 a       362     0     8     1    12
 -3.2672315791775182E+00 a       363     0     8     1    13
 -9.0589668662068718E+01 a       364     0     8     1    14
 -1.4619352280982898E+02 a       365     0     8     1    15
 -7.7931733441253943E+00 a       366     0     8     1    16
 -3.4266336263995913E+02 a       367     0     8     1    17
 -2.3332960918858285E+02 a       368     0     8     1    18
  5.4782045143902428E+02 a       369     0     8     1    19
 -2.5402746218783648E+01 a       370     0     8     1    20
 -6.9193172381554326E+00 a       371     0     8     1    21
 -1.7342936798883986E+01 a       372     0     8     1    22
 -2.4310334154076671E+01 a       373     0     8     1    23
  5.2028288731634220E+01 a       374     0     8     1    24
 -6.0922179427922224E+01 a       375     0     8     1    25
  3.8702177452032153E+01 a       376     0     8     1    26
 -5.0466802171817227E+02 a       377     0     8     1    27
  6.9804452371577838E+01 a       378     0     8     1    28
 -1.3483407574555545E+02 a       379     0     8     1    29
  2.1742150763655581E+00 a       380     0     8     1    30
 -5.1479241816613592E+02 a       381     0     8     1    31
 -8.1817893058311753E+01 a       382     0     8     1    32
 -1.2840958206308963E+02 a       383     0     8     1    33
 -2.2707622918069102E+01 a       384     0     8     1    34
  2.4237821456520695E+01 a       385     0     8     1    35
  1.5924881688039170E+01 a       386     0     8     1    36
 -6.0094006381248096E+02 a       387     0     8     1    37
  5.9521738920302710E+01 a       388     0     8     1    38
  3.4709011071949149E+01 a       389     0     8     1    39
 -8.6314364816862028E+00 a       390     0     8     1    40
 -1.5730309389985294E+01 a       391     0     8     1    41
  1.1801882518370738E+02 a       392     0     8     1    42
 -1.1792906165381704E+02 a       393     0     8     1    43
  1.6349170651494123E+02 a       394     0     8     1    44
  4.0045327021777389E+01 a       395     0     8     1    45
 -3.4496263502196321E+01 a       396     0     8     1    46
  1.1956537022129773E+02 a       397     0     8     1    47
  6.5394925320540722E+01 a       398     0     8     1    48
  8.1613312730546085E+01 a       399     0     8     1    49
  1.3951005590321122E+02 a       400     0     8     1    50
  1.1611399925258205E+01 a       401     0     9     1     1
  7.0871668676787550E+01 a       402     0     9     1     2
 -1.0450230364957451E+02 a       403     0     9     1     3
 -1.5439022448952128E+01 a       404     0     9     1     4
 -2.1075031925536361E+01 a       405     0     9     1     5
 -1.0794764181789850E+02 a       406     0     9     1     6
  1.9547200302695171E+00 a       407     0     9     1     7
  5.6142578519501587E+00 a       408     0     9     1     8
  7.9291834789150109E+00 a       409     0     9     1     9
 -3.1708365609780110E+01 a       410     0     9     1    10
  3.7276156439294766E+01 a       411     0     9     1    11
 -2.3184732279657169E+01 a       412     0     9     1    12
 -8.8099045726800718E+00 a       413     0     9     1    13
 -5.4631189605936370E+01 a       414     0     9     1    14
 -5.2846056078408743E+01 a       415     0     9     1    15
  9.9999135966139960E+01 a       416     0     9     1    16
 -3.3656259917674748E+02 a       417     0     9     1    17
 -1.5532827862472692E+02 a       418     0     9     1    18
  4.8626431249172083E+02 a       419     0     9     1    19
 -7.4264845675270351E+01 a       420     0     9     1    20
  2.5385094725345039E+00 a       421     0     9     1    21
  1.6372596625426663E+01 a       422     0     9     1    22
  2.1225467683835678E+01 a       423     0     9     1    23
 -1.2463328884993328E+02 a       424     0     9     1    24
  1.7110323618686252E+01 a       425     0     9     1    25
  2.5910236072084906E+01 a       426     0     9     1    26
 -3.8711205714522600E+02 a       427     0     9     1    27
 -3.2646450125291196E+01 a       428     0     9     1    28
 -2.2140055394801863E+02 a       429     0     9     1    29
 -8.7222139622962615E+01 a       430     0     9     1    30
 -3.9202186375295582E+02 a       431     0     9     1    31
 -1.2913048414542832E+01 a       432     0     9     1    32
 -6.5308984369638480E+01 a       433     0     9     1    33
  1.8538003935438752E+01 a       434     0     9     1    34
 -6.8749523311576453E+01 a       435     0     9     1    35
 -6.5683040498573561E+01 a       436     0     9     1    36
 -4.6695756534652458E+02 a       437     0     9     1    37
  2.0296602237338018E+01 a       438     0     9     1    38
 -5.4407304693332399E+01 a       439     0     9     1    39
 -1.1242347898188310E+01 a       440     0     9     1    40
 -3.5238685884342686E+00 a       441     0     9     1    41
  3.6411153835565187E+01 a       442     0     9     1    42
 -2.0723552452267171E+01 a       443     0     9     1    43
  1.5629532249264491E+02 a       444     0     9     1    44
 -1.4880130711277127E+02 a       445     0     9     1    45
 -3.9915370148464106E+01 a       446     0     9     1    46
  5.4162597294213548E+01 a       447     0     9     1    47
 -1.6418683855739527E+01 a       448     0     9     1    48
 -1.6291258773026949E+00 a       449     0     9     1    49
 -4.6854674722098537E+01 a       450     0     9     1    50
  8.8479102688068778E+01 a       451     0    10     1     1
 -5.5407197781657878E+01 a       452     0    10     1     2
 -5.4770649184136118E+01 a       453     0    10     1     3
 -9.5333784219439124E+01 a       454     0    10     1     4
  9.8259320166368518E+00 a       455     0    10     1     5
  1.8378240351265962E+01 a       456     0    10     1     6
 -2.3935797037537321E+00 a       457     0    10     1     7
 -2.9552635196233940E+01 a       458     0    10     1     8
  1.7103221239240604E+01 a       459     0    10     1     9
  1.7343110572227467E+01 a       460     0    10     1    10
  3.1106284131399327E+01 a       461     0    10     1    11
 -4.6726285809751424E+01 a       462     0    10     1    12
  6.1686129420041897E+00 a       463     0    10     1    13
 -1.1991131426380861E+01 a       464     0    10     1    14
 -5.6494808387491744E+01 a       465     0    10     1    15
 -1.1727676723017001E+02 a       466     0    10     1    16
 -8.6498499517706108E+01 a       467     0    10     1    17
 -1.1411068380826281E+02 a       468     0    10     1    18
  3.2993213551706725E+02 a       469     0    10     1    19
  2.6974351939847484E+01 a       470     0    10     1    20
 -3.6626168939319408E+00 a       471     0    10     1    21
 -1.0472281680202505E+01 a       472     0    10     1    22
  2.3584399827690530E+00 a       473     0    10     1    23
  8.1401477513511352E+01 a       474     0    10     1    24
 -1.7517644841576040E+01 a       475     0    10     1    25
  2.3582764975727624E+01 a       476     0    10     1    26
 -2.8175777913485410E+02 a       477     0    10     1    27
  3.1409128564114532E+01 a       478     0    10     1    28
  4.1074967789118418E+01 a       479     0    10     1    29
  4.3307496151756425E+01 a       480     0    10     1    30
 -2.4812122603577777E+02 a       481     0    10     1    31
 -3.9510500223564428E+01 a       482     0    10     1    32
 -4.4423263430527911E+01 a       483     0    10     1    33
  2.2053510771912843E+00 a       484     0    10     1    34
  4.1292089419737458E+01 a       485     0    10     1    35
  1.6174969490472218E+01 a       486     0    10     1    36
 -1.1897234668594431E+01 a       487     0    10     1    37
  3.9041793197581477E+01 a       488     0    10     1    38
  2.7398240185625610E+01 a       489     0    10     1    39
 -2.1062148476311059E+01 a       490     0    10     1    40
 -1.2180523005554617E+01 a       491     0    10     1    41
  6.3482506930655354E+01 a       492     0    10     1    42
 -7.2110654082488196E+01 a       493     0    10     1    43
 -3.8074390609753603E+00 a       494     0    10     1    44
  8.3922757223689331E+01 a       495     0    10     1    45
 -6.0721587792237246E+00 a       496     0    10     1    46
  1.4379274806382207E+02 a       497     0    10     1    47
  3.4338339778753252E+01 a       498     0    10     1    48
  3.6450298356200214E+01 a       499     0    10     1    49
  8.9652364871569247E+01 a       500     0    10     1    50
  1.2196213577159122E+02 a       501     0    11     1     1
 -8.0511764104034668E+01 a       502     0    11     1     2
 -5.7731040136064784E+01 a       503     0    11     1     3
 -1.1451562356475111E+02 a       504     0    11     1     4
  1.7518296281331008E+01 a       505     0    11     1     5
  2.4195550494588019E+01 a       506     0    11     1     6
 -1.3134924862550578E+01 a       507     0    11     1     7
 -4.4727482726478470E+01 a       508     0    11     1     8
  1.9783168542059517E+01 a       509     0    11     1     9
  2.5760696586157707E+01 a       510     0    11     1    10
  4.6529136413300307E+01 a       511     0    11     1    11
 -6.9234285751318225E+01 a       512     0    11     1    12
  4.1105365743537616E+00 a       513     0    11     1    13
 -2.5233453750755181E+00 a       514     0    11     1    14
 -7.7619109008847332E+01 a       515     0    11     1    15
 -1.4452851167227431E+02 a       516     0    11     1    16
 -1.6573200733546739E+02 a       517     0    11     1    17
 -1.7258049619339769E+02 a       518     0    11     1    18
  5.1512749681220021E+02 a       519     0    11     1    19
  3.1030237035936477E+01 a       520     0    11     1    20
 -6.6034212063818929E+00 a       521     0    11     1    21
 -1.5177608710172235E+01 a       522     0    11     1    22
 -4.3842239878198459E+00 a       523     0    11     1    23
  1.0995071815435837E+02 a       524     0    11     1    24
 -2.9982044506203195E+01 a       525     0    11     1    25
  1.9793613215589026E+01 a       526     0    11     1    26
 -3.8098552933114331E+02 a       527     0    11     1    27
  4.7548876313169870E+01 a       528     0    11     1    28
  6.9909910299502243E+01 a       529     0    11     1    29
  6.8968835497632796E+01 a       530     0    11     1    30
 -3.9985648564544618E+02 a       531     0    11     1    31
 -6.2243357714255801E+01 a       532     0    11     1    32
 -6.4829079729849340E+01 a       533     0    11     1    33
 -8.9206455699078341E-02 a       534     0    11     1    34
  6.2696172526067087E+01 a       535     0    11     1    35
  3.0285155297100872E+01 a       536     0    11     1    36
 -4.6706927738480701E+01 a       537     0    11     1    37
  5.3247764224556384E+01 a       538     0    11     1    38
  3.9586389024566913E+01 a       539     0    11     1    39
 -1.0507415994731211E+01 a       540     0    11     1    40
 -2.2343258975360250E+01 a       541     0    11     1    41
  9.2080470625987090E+01 a       542     0    11     1    42
 -1.0125835844700913E+02 a       543     0    11     1    43
 -2.1442736164481680E+01 a       544     0    11     1    44
  1.0993516134455902E+02 a       545     0    11     1    45
 -1.8865016039662418E+01 a       546     0    11     1    46
  1.9119969210090252E+02 a       547     0    11     1    47
  5.2554283551674722E+01 a       548     0    11     1    48
  4.1209170560345292E+01 a       549     0    11     1    49
  1.2888353115591750E+02 a       550     0    11     1    50
  5.3649000735945251E+01 a       551     0    12     1     1
 -1.3641042877927298E+01 a       552     0    12     1     2
 -6.0604452538068692E+01 a       553     0    12     1     3
 -6.3951451973537651E+01 a       554     0    12     1     4
  4.5569442992071689E+00 a       555     0    12     1     5
 -5.7388608164532595E-01 a       556     0    12     1     6
  3.7470428962390827E+01 a       557     0    12     1     7
 -1.3138237298692788E+01 a       558     0    12     1     8
  1.2587170571189532E+01 a       559     0    12     1     9
  9.0180283344970302E+00 a       560     0    12     1    10
  2.0320294367701191E+01 a       561     0    12     1    11
 -2.1144570984620771E+01 a       562     0    12     1    12
  9.8038603109148692E+00 a       563     0    12     1    13
 -4.4881647670652114E+01 a       564     0    12     1    14
 -2.8431836216407913E+01 a       565     0    12     1    15
 -6.6153217029244530E+01 a       566     0    12     1    16
  3.6419799661177933E+01 a       567     0    12     1    17
 -2.5874898117378965E+01 a       568     0    12     1    18
  1.1844572189151597E+01 a       569     0    12     1    19
  6.1014158284656634E+00 a       570     0    12     1    20
  1.1575033491019751E+00 a       571     0    12     1    21
 -1.3670318538764153E+01 a       572     0    12     1    22
  1.2057253362218701E+01 a       573     0    12     1    23
  2.9985270679239171E+01 a       574     0    12     1    24
 -1.7114800883690198E-01 a       575     0    12     1    25
  3.4182967786143799E+01 a       576     0    12     1    26
 -9.6184887718274197E+01 a       577     0    12     1    27
  8.3541958139666832E+00 a       578     0    12     1    28
 -2.7035646517545743E+01 a       579     0    12     1    29
 -4.4534155295137108E+00 a       580     0    12     1    30
  6.9747127094673234E+00 a       581     0    12     1    31
 -1.2197223314331927E+01 a       582     0    12     1    32
 -2.5434321937999609E+01 a       583     0    12     1    33
  9.5274248128002359E+00 a       584     0    12     1    34
  9.9738672502994401E+00 a       585     0    12     1    35
 -5.9328663331031102E+00 a       586     0    12     1    36
 -2.1885167499231937E+01 a       587     0    12     1    37
  2.1286909321193370E+01 a       588     0    12     1    38
  6.5767255510202594E+00 a       589     0    12     1    39
 -3.1568681829250782E+01 a       590     0    12     1    40
 -3.7499449968135585E+00 a       591     0    12     1    41
  2.0320305750911352E+01 a       592     0    12     1    42
 -3.6517052629762844E+01 a       593     0    12     1    43
  3.8423322335356140E+01 a       594     0    12     1    44
  3.4105619548549029E+01 a       595     0    12     1    45
 -7.5589325561235485E+00 a       596     0    12     1    46
  4.4458399195512257E+01 a       597     0    12     1    47
  1.5292693978733961E+01 a       598     0    12     1    48
  2.6211046369413836E+01 a       599     0    12     1    49
  4.0318815531666885E+01 a       600     0    12     1    50
  6.5333225478627767E+01 a       601     0    13     1     1
 -3.6106670455429295E+01 a       602     0    13     1     2
  6.3698671313900377E+01 a       603     0    13     1     3
  7.3563667684553806E+01 a       604     0    13     1     4
  5.2432553593341865E+01 a       605     0    13     1     5
  4.2571149791313871E+01 a       606     0    13     1     6
  1.4244208940295843E+02 a       607     0    13     1     7
 -2.9489412017898839E+01 a       608     0    13     1     8
 -1.5021084637478808E+01 a       609     0    13     1     9
  5.0588291689592189E+01 a       610     0    13     1    10
  3.1549452451501548E+01 a       611     0    13     1    11
 -1.7898071544579778E+01 a       612     0    13     1    12
  1.8328992712006089E+00 a       613     0    13     1    13
 -3.5215987080797852E+01 a       614     0    13     1    14
  1.9080785316630209E+01 a       615     0    13     1    15
  4.6769005140027291E+00 a       616     0    13     1    16
  2.8305285161080189E+02 a       617     0    13     1    17
  1.3628950861027349E+02 a       618     0    13     1    18
 -7.0228019085661197E+02 a       619     0    13     1    19
 -9.6208262451613766E+00 a       620     0    13     1    20
 -4.0041315854987838E+00 a       621     0    13     1    21
 -6.1035333804433598E+01 a       622     0    13     1    22
 -4.4074423584847608E+01 a       623     0    13     1    23
  7.5857443419724319E+01 a       624     0    13     1    24
 -4.9086070175373301E+01 a       625     0    13     1    25
 -6.6218822830656698E+00 a       626     0    13     1    26
  5.4636061685532968E+02 a       627     0    13     1    27
  5.6220711606456163E+01 a       628     0    13     1    28
  1.0238641301583088E+02 a       629     0    13     1    29
  6.1692976003289580E+01 a       630     0    13     1    30
  4.6565859026087622E+02 a       631     0    13     1    31
 -2.4305204366896746E+01 a       632     0    13     1    32
 -1.9583002074122813E+00 a       633     0    13     1    33
 -2.7738968627706324E+01 a       634     0    13     1    34
  7.3718316251206900E+01 a       635     0    13     1    35
  8.0460286980209702E+01 a       636     0    13     1    36
  6.1381515053155788E+01 a       637     0    13     1    37
 -3.8675311554138077E+00 a       638     0    13     1    38
  4.8212201872575577E+01 a       639     0    13     1    39
  7.3370952894801206E+01 a       640     0    13     1    40
 -2.7884896855962499E+01 a       641     0    13     1    41
 -3.3968440961774213E+01 a       642     0    13     1    42
 -9.8112564599459535E+00 a       643     0    13     1    43
 -6.1456924274642510E+01 a       644     0    13     1    44
  9.0809483025727914E+01 a       645     0    13     1    45
 -4.7314314937964582E+01 a       646     0    13     1    46
 -2.3792210201613540E+02 a       647     0    13     1    47
  6.5108818046978016E+01 a       648     0    13     1    48
 -8.6669385080742973E+00 a       649     0    13     1    49
  9.5990303347854280E+01 a       650     0    13     1    50
 -6.7949223784691412E+01 a       651     0    14     1     1
  8.9176239388815659E+01 a       652     0    14     1     2
  6.2417172344037603E+01 a       653     0    14     1     3
  8.7517649479378861E+01 a       654     0    14     1     4
 -1.7176216627795604E+00 a       655     0    14     1     5
  1.8155991135139626E+01 a       656     0    14     1     6
 -1.2441414971441850E+02 a       657     0    14     1     7
 -6.8387903356033881E+00 a       658     0    14     1     8
 -2.8455261869359052E+01 a       659     0    14     1     9
 -2.9580750430201228E+01 a       660     0    14     1    10
 -4.3486872136247456E+01 a       661     0    14     1    11
  5.0148199183235917E+01 a       662     0    14     1    12
  2.4922509729853932E+01 a       663     0    14     1    13
  3.4912977004059402E+00 a       664     0    14     1    14
  7.0088513368277631E+01 a       665     0    14     1    15
  8.6896952559684692E+01 a       666     0    14     1    16
 -1.1403500176028409E+01 a       667     0    14     1    17
  5.4593240711815433E+01 a       668     0    14     1    18
 -6.4258259726165420E+01 a       669     0    14     1    19
 -8.6352842035895421E+01 a       670     0    14     1    20
  2.1338449966844401E+01 a       671     0    14     1    21
  1.1033865103857604E+01 a       672     0    14     1    22
  5.4829604738621576E+01 a       673     0    14     1    23
 -1.6470990468716758E+02 a       674     0    14     1    24
  1.0242431854039188E+02 a       675     0    14     1    25
  4.5858029813641004E+00 a       676     0    14     1    26
  1.8560576835589094E+02 a       677     0    14     1    27
 -1.0928180543978817E+02 a       678     0    14     1    28
 -1.2697063094447711E+02 a       679     0    14     1    29
 -1.5163691760718106E+02 a       680     0    14     1    30
  9.9635838494293736E+01 a       681     0    14     1    31
  4.4659459411656641E+01 a       682     0    14     1    32
  5.6543045597008131E+01 a       683     0    14     1    33
  7.2531364710464501E+01 a       684     0    14     1    34
 -6.4151370190587258E+01 a       685     0    14     1    35
 -9.0851041799530591E+01 a       686     0    14     1    36
  8.9952738372932544E+01 a       687     0    14     1    37
 -1.4552037271228729E+01 a       688     0    14     1    38
 -1.0658386233032149E+02 a       689     0    14     1    39
 -3.9209153675754116E+01 a       690     0    14     1    40
  1.1608196772663014E+01 a       691     0    14     1    41
 -7.9053403541279437E+01 a       692     0    14     1    42
  3.9408835648112934E+01 a       693     0    14     1    43
 -4.5958116471492943E+01 a       694     0    14     1    44
 -1.9074013187220072E+02 a       695     0    14     1    45
 -3.7135074260052797E+01 a       696     0    14     1    46
 -1.2357087677483904E+02 a       697     0    14     1    47
 -6.9685039160401232E+01 a       698     0    14     1    48
 -1.2569214622281727E+02 a       699     0    14     1    49
 -1.3872344247203313E+02 a       700     0    14     1    50
 -2.0443367074867214E+02 a       701     0    15     1     1
  3.9218273086299526E+01 a       702     0    15     1     2
  5.3039757222111056E+01 a       703     0    15     1     3
  8.5699938331129431E+01 a       704     0    15     1     4
 -8.1595666316089222E+01 a       705     0    15     1     5
 -6.3066953692814870E+01 a       706     0    15     1     6
 -7.8711557883409313E+01 a       707     0    15     1     7
  1.0661792996587924E+02 a       708     0    15     1     8
 -1.5226871643002907E+01 a       709     0    15     1     9
  1.4247337555365935E+00 a       710     0    15     1    10
 -6.9685389431724801E+01 a       711     0    15     1    11
  6.2882744973330752E+01 a       712     0    15     1    12
 -1.5162485402135109E+01 a       713     0    15     1    13
  8.8668522311558846E+01 a       714     0    15     1    14
  1.3423864844164584E+02 a       715     0    15     1    15
  1.5809302851435268E+02 a       716     0    15     1    16
  3.5605517390616663E+00 a       717     0    15     1    17
  7.3373243454816375E+01 a       718     0    15     1    18
  1.9077287450238099E+01 a       719     0    15     1    19
  1.2999427456976745E+01 a       720     0    15     1    20
  1.0565950857062207E+01 a       721     0    15     1    21
  4.7463009792169665E+01 a       722     0    15     1    22
  5.0198074349826825E+01 a       723     0    15     1    23
 -1.1382133850505315E+02 a       724     0    15     1    24
  3.9818949934881466E+01 a       725     0    15     1    25
 -9.8578773781203765E+01 a       726     0    15     1    26
 -2.1019090635137321E+01 a       727     0    15     1    27
 -8.3491708112213033E+01 a       728     0    15     1    28
 -5.5229836293678062E+01 a       729     0    15     1    29
 -8.6299507385766944E+01 a       730     0    15     1    30
  2.9276478696251523E+01 a       731     0    15     1    31
  7.2675945356731589E+01 a       732     0    15     1    32
  1.0474029906492740E+02 a       733     0    15     1    33
 -3.5861557874372423E+01 a       734     0    15     1    34
 -1.2868241922235268E+02 a       735     0    15     1    35
 -4.0008323180083558E+01 a       736     0    15     1    36
  8.2992371758432043E+01 a       737     0    15     1    37
 -8.3248361467102896E+01 a       738     0    15     1    38
 -2.1547018991502160E+01 a       739     0    15     1    39
 -7.7609472649060919E+01 a       740     0    15     1    40
  2.8347614758641711E+01 a       741     0    15     1    41
 -3.5356729916089712E+01 a       742     0    15     1    42
  1.4019803575119997E+02 a       743     0    15     1    43
  5.0254564507348093E+01 a       744     0    15     1    44
 -1.0219773866706232E+02 a       745     0    15     1    45
  4.6473506417750471E+01 a       746     0    15     1    46
  1.8212359691189651E+01 a       747     0    15     1    47
 -8.1076238177987591E+01 a       748     0    15     1    48
  5.7295590918379062E+00 a       749     0    15     1    49
 -1.8666248003545923E+02 a       750     0    15     1    50
 -9.4566298274166414E+01 a       751     0    16     1     1
  3.4703920784273965E+00 a       752     0    16     1     2
  2.4611137397385725E+01 a       753     0    16     1     3
  2.2654228179513670E+01 a       754     0    16     1     4
 -1.8055756492132730E+01 a       755     0    16     1     5
 -2.8805491845022782E+01 a       756     0    16     1     6
  3.3034896698556544E+01 a       757     0    16     1     7
  3.1199345723966101E+01 a       758     0    16     1     8
  4.4437752030501709E+00 a       759     0    16     1     9
 -1.1816129952106628E+01 a       760     0    16     1    10
 -2.7004027437624099E+01 a       761     0    16     1    11
  3.1710528064211175E+01 a       762     0    16     1    12
 -1.2378322051146592E+01 a       763     0    16     1    13
  3.4189227016678217E+01 a       764     0    16     1    14
  2.7110923848786218E+01 a       765     0    16     1    15
  4.9235707733015779E+01 a       766     0    16     1    16
  2.9470231021404910E+01 a       767     0    16     1    17
  4.2856986503096913E+01 a       768     0    16     1    18
 -7.1151627910863041E+01 a       769     0    16     1    19
  3.5709481744349297E+01 a       770     0    16     1    20
 -7.6535612386037268E+00 a       771     0    16     1    21
  2.9126000867897492E+01 a       772     0    16     1    22
 -2.1687774320312393E+01 a       773     0    16     1    23
 -6.0103140112002098E+00 a       774     0    16     1    24
 -1.3209640391672199E+01 a       775     0    16     1    25
 -3.9108634067824958E+01 a       776     0    16     1    26
  1.7709912738207120E+01 a       777     0    16     1    27
  1.4677031252963141E+01 a       778     0    16     1    28
  2.8508851447367618E+01 a       779     0    16     1    29
  1.7478604481700668E+01 a       780     0    16     1    30
  4.6698817823506744E+01 a       781     0    16     1    31
  2.1813175212415395E+01 a       782     0    16     1    32
  3.1179921842123633E+01 a       783     0    16     1    33
 -5.8063446618425125E+00 a       784     0    16     1    34
 -1.8109882176606515E+01 a       785     0    16     1    35
  6.1971707261596745E+00 a       786     0    16     1    36
  2.3526755232960461E+01 a       787     0    16     1    37
 -3.1959145786275030E+01 a       788     0    16     1    38
  1.8608901302854044E+01 a       789     0    16     1    39
  5.7887218043978992E+00 a       790     0    16     1    40
  4.6433811576545718E+00 a       791     0    16     1    41
 -1.2157651093324045E+01 a       792     0    16     1    42
  6.0335698920923249E+01 a       793     0    16     1    43
  2.1113912893239767E+01 a       794     0    16     1    44
  1.5939643774485768E+01 a       795     0    16     1    45
  2.7109722234396020E+01 a       796     0    16     1    46
  1.4365831228817949E+01 a       797     0    16     1    47
 -1.7657492972194298E+01 a       798     0    16     1    48
  3.3938132054288161E+01 a       799     0    16     1    49
 -4.6973688146774784E+01 a       800     0    16     1    50
  8.2874693028301749E+00 a       801     0    17     1     1
  1.0162403758108772E+01 a       802     0    17     1     2
 -2.8640669924844051E+00 a       803     0    17     1     3
 -1.1422146761381178E+01 a       804     0    17     1     4
  1.9323277816743307E+01 a       805     0    17     1     5
  1.1324647033647157E+01 a       806     0    17     1     6
  3.9564640044550554E+00 a       807     0    17     1     7
 -2.3809096066867905E+01 a       808     0    17     1     8
  3.8643721979581422E+00 a       809     0    17     1     9
 -1.5028740398719155E+01 a       810     0    17     1    10
 -4.5427056733383111E+00 a       811     0    17     1    11
  6.3229978290607649E+00 a       812     0    17     1    12
  7.5707583669702716E+00 a       813     0    17     1    13
 -1.9257314684089987E+01 a       814     0    17     1    14
 -2.0853924401447376E+01 a       815     0    17     1    15
 -2.4375987415357500E+01 a       816     0    17     1    16
 -1.5960595653804472E+01 a       817     0    17     1    17
 -1.7800781062880905E+01 a       818     0    17     1    18
  1.5865301439224073E+01 a       819     0    17     1    19
 -3.7372308294422658E+00 a       820     0    17     1    20
 -1.2489114570850299E+00 a       821     0    17     1    21
  1.0290004593490986E+01 a       822     0    17     1    22
 -1.6516771881651298E+01 a       823     0    17     1    23
  8.2838946904758695E-02 a       824     0    17     1    24
  4.2894887586610420E+00 a       825     0    17     1    25
  1.9471249241493322E+01 a       826     0    17     1    26
 -4.9062182377262227E+00 a       827     0    17     1    27
  1.0237194722772722E+01 a       828     0    17     1    28
 -1.0996962021800258E+01 a       829     0    17     1    29
 -1.0638744055584313E+01 a       830     0    17     1    30
 -1.2687746494631281E+01 a       831     0    17     1    31
 -3.1259827266139024E+00 a       832     0    17     1    32
 -1.2355483258577515E+01 a       833     0    17     1    33
  2.4705831280303837E+01 a       834     0    17     1    34
  1.8992245808935351E+01 a       835     0    17     1    35
 -9.2226365229917864E+00 a       836     0    17     1    36
 -4.5101697146164064E+00 a       837     0    17     1    37
  1.4399884647275506E+01 a       838     0    17     1    38
 -9.8099210871201077E+00 a       839     0    17     1    39
  5.3047907285113300E+00 a       840     0    17     1    40
 -9.8484767451556221E-01 a       841     0    17     1    41
 -6.8684960615173418E+00 a       842     0    17     1    42
 -1.4974459102650833E+01 a       843     0    17     1    43
 -1.2370312371673373E+01 a       844     0    17     1    44
 -2.8145711448772190E+00 a       845     0    17     1    45
 -7.3573450200580286E+00 a       846     0    17     1    46
 -7.6640903954891393E-01 a       847     0    17     1    47
 -3.2236220050009115E+00 a       848     0    17     1    48
 -1.0063756599412464E+01 a       849     0    17     1    49
  3.6570711111990124E+00 a       850     0    17     1    50
  1.9110777587921920E+01 a       851     0    18     1     1
 -7.5505638354539473E+00 a       852     0    18     1     2
 -4.0570697078007338E+00 a       853     0    18     1     3
 -3.1936365734822871E+00 a       854     0    18     1     4
  3.3374716271894822E-01 a       855     0    18     1     5
  3.1366359662103194E+00 a       856     0    18     1     6
 -1.6570230791563345E+00 a       857     0    18     1     7
 -4.8882162419697739E-01 a       858     0    18     1     8
 -1.5393081693471125E+00 a       859     0    18     1     9
  9.8928013297468969E+00 a       860     0    18     1    10
  8.3705307539362277E+00 a       861     0    18     1    11
 -9.2088631174910081E+00 a       862     0    18     1    12
 -2.3903912444719899E+00 a       863     0    18     1    13
 -2.8469799571972296E+00 a       864     0    18     1    14
  4.2650070750160596E-01 a       865     0    18     1    15
 -7.1733891647350845E+00 a       866     0    18     1    16
  2.0531379787799380E+00 a       867     0    18     1    17
 -6.7826821945857914E+00 a       868     0    18     1    18
  4.3413818502343542E+00 a       869     0    18     1    19
 -3.2027778281289940E+00 a       870     0    18     1    20
 -6.8620808973366643E-01 a       871     0    18     1    21
 -8.8460747487815237E+00 a       872     0    18     1    22
  7.2746331738529841E+00 a       873     0    18     1    23
  7.8259215441289731E+00 a       874     0    18     1    24
 -3.8081256558161654E+00 a       875     0    18     1    25
  1.1210344771389917E+00 a       876     0    18     1    26
 -1.2141513925464873E+00 a       877     0    18     1    27
 -8.3548973687621952E-01 a       878     0    18     1    28
  4.6139281136733814E+00 a       879     0    18     1    29
  6.2149728159792526E+00 a       880     0    18     1    30
 -4.1581198351660955E+00 a       881     0    18     1    31
 -5.1581191678820906E+00 a       882     0    18     1    32
 -5.2551245881649402E+00 a       883     0    18     1    33
 -8.4616373547024306E+00 a       884     0    18     1    34
  3.5037248578912257E+00 a       885     0    18     1    35
  5.9967816929153530E+00 a       886     0    18     1    36
 -4.9614220926623833E+00 a       887     0    18     1    37
  2.0869031153680377E+00 a       888     0    18     1    38
  1.9844543311484530E+00 a       889     0    18     1    39
  1.5725043687547295E+00 a       890     0    18     1    40
 -2.8375144134948265E+00 a       891     0    18     1    41
  6.7212007853407876E+00 a       892     0    18     1    42
 -9.0490882455336159E+00 a       893     0    18     1    43
 -2.7128467869925676E-01 a       894     0    18     1    44
  4.8122582428651315E+00 a       895     0    18     1    45
 -3.8139854412564507E+00 a       896     0    18     1    46
 -1.5816377445676872E+00 a       897     0    18     1    47
  8.6186275477463337E+00 a       898     0    18     1    48
  9.7567277434074229E-01 a       899     0    18     1    49
  1.2775929876541364E+01 a       900     0    18     1    50
  4.4374444067305710E+01 a       901     0    19     1     1
  8.0002522233815199E+01 a       902     0    19     1     2
 -8.4410470897929173E+01 a       903     0    19     1     3
  1.3292199480855129E+02 a       904     0    19     1     4
  8.9502544622623091E+01 a       905     0    19     1     5
 -1.6112512681438480E+02 a       906     0    19     1     6
 -8.2573840096598275E+01 a       907     0    19     1     7
  1.1765861299061253E+02 a       908     0    19     1     8
 -5.8783791195054185E+01 a       909     0    19     1     9
 -6.1118007750395638E+00 a       910     0    19     1    10
  3.9972901946949953E+01 a       911     0    19     1    11
 -4.8689289677488503E+00 a       912     0    19     1    12
 -9.7898687532291717E+01 a       913     0    19     1    13
 -8.5387891737755766E+01 a       914     0    19     1    14
  3.9073538581182170E+01 a       915     0    19     1    15
  1.6859059047641637E+02 a       916     0    19     1    16
 -2.0905367394785208E+02 a       917     0    19     1    17
 -1.4165601243449901E+01 a       918     0    19     1    18
 -2.0082745909692918E+01 a       919     0    19     1    19
 -1.0386533346566235E+01 a       920     0    19     1    20
  2.4460276767321665E-01 a       921     0    19     1    21
 -8.0891455510526015E+01 a       922     0    19     1    22
 -2.8212114241525743E+01 a       923     0    19     1    23
 -7.8748535958799167E+01 a       924     0    19     1    24
 -1.1191735746652886E+02 a       925     0    19     1    25
 -8.4770047988361071E+01 a       926     0    19     1    26
  3.4653558002433698E+01 a       927     0    19     1    27
 -2.8608413544117631E+01 a       928     0    19     1    28
 -1.9897586514757074E+02 a       929     0    19     1    29
 -1.6865685327987688E+02 a       930     0    19     1    30
 -1.4205434760775779E+02 a       931     0    19     1    31
  1.5747966666332329E+02 a       932     0    19     1    32
  2.8507768061922995E+01 a       933     0    19     1    33
 -6.8396257835461455E+01 a       934     0    19     1    34
  6.8990173072801380E+00 a       935     0    19     1    35
  4.0497837514911095E-01 a       936     0    19     1    36
 -2.6589651301615834E+02 a       937     0    19     1    37
  1.2691080567475368E+01 a       938     0    19     1    38
  1.3356741731947700E+01 a       939     0    19     1    39
  3.3158652300225832E+01 a       940     0    19     1    40
  1.3880844545758437E+00 a       941     0    19     1    41
 -9.6407453507577358E+01 a       942     0    19     1    42
 -7.1263537894588191E-01 a       943     0    19     1    43
 -1.6504665897682398E+02 a       944     0    19     1    44
 -1.9610587603802114E+02 a       945     0    19     1    45
 -1.9311902805158667E+02 a       946     0    19     1    46
  8.2164168194982423E+00 a       947     0    19     1    47
  4.9997812545787738E+01 a       948     0    19     1    48
 -1.5020904593371588E+02 a       949     0    19     1    49
  1.7985879636684064E+02 a       950     0    19     1    50
  9.8051392234243160E+00 a       951     0    20     1     1
 -9.8975270140976860E+01 a       952     0    20     1     2
 -2.5933260752916857E+02 a       953     0    20     1     3
 -2.8199903745813265E+02 a       954     0    20     1     4
 -4.1346676732385255E+01 a       955     0    20     1     5
 -1.2040088607128315E+02 a       956     0    20     1     6
 -1.4879897232410678E+02 a       957     0    20     1     7
  4.1304629084952609E+01 a       958     0    20     1     8
  2.6835066554044406E+01 a       959     0    20     1     9
 -6.8020744021556240E+01 a       960     0    20     1    10
 -3.2495415478422728E+01 a       961     0    20     1    11
  7.8322986769931703E+01 a       962     0    20     1    12
  9.8923343065079635E+01 a       963     0    20     1    13
  1.7004497686561006E+01 a       964     0    20     1    14
  3.0164236415898231E+00 a       965     0    20     1    15
  6.2432581687955420E+01 a       966     0    20     1    16
 -2.9623015688533531E+01 a       967     0    20     1    17
  6.2348213932854065E+01 a       968     0    20     1    18
  1.5355714599026683E+02 a       969     0    20     1    19
 -4.5431435810470582E+01 a       970     0    20     1    20
  1.0191290558717904E+02 a       971     0    20     1    21
  7.3357936723892891E+01 a       972     0    20     1    22
  8.2732500495878554E+01 a       973     0    20     1    23
 -1.5699861236639730E+01 a       974     0    20     1    24
  4.9512620837622002E+01 a       975     0    20     1    25
 -1.3657349200019405E+01 a       976     0    20     1    26
 -5.8782745936433464E+01 a       977     0    20     1    27
 -4.7511676143740154E+01 a       978     0    20     1    28
 -1.1234867262552974E+01 a       979     0    20     1    29
 -2.2856440565136609E+02 a       980     0    20     1    30
 -7.1065289545257784E+01 a       981     0    20     1    31
 -1.5189203189896625E+02 a       982     0    20     1    32
 -6.1841612449466233E+01 a       983     0    20     1    33
  4.1045457804424913E+01 a       984     0    20     1    34
 -1.5670710684178658E+02 a       985     0    20     1    35
 -7.6993660291226732E+01 a       986     0    20     1    36
 -8.1379491665939838E+00 a       987     0    20     1    37
  6.6004829484323210E+01 a       988     0    20     1    38
  2.3038606551815064E+01 a       989     0    20     1    39
 -1.2854769672513306E+01 a       990     0    20     1    40
 -4.7085933628812882E+01 a       991     0    20     1    41
 -1.6202870440871658E+02 a       992     0    20     1    42
 -6.9366198091405082E+01 a       993     0    20     1    43
 -1.6530441880342076E+02 a       994     0    20     1    44
  5.9221741137435323E+01 a       995     0    20     1    45
 -1.7494216982196448E+02 a       996     0    20     1    46
  1.2330451311844617E+02 a       997     0    20     1    47
 -1.2649954534013980E+02 a       998     0    20     1    48
 -4.9858536977473989E+01 a       999     0    20     1    49
  1.4534320853988535E+02 a      1000     0    20     1    50
  3.7116243662262112E+00 a      1001     0    21     1     1
 -6.2595941931208607E+01 a      1002     0    21     1     2
 -1.7969365649087638E+02 a      1003     0    21     1     3
  6.2516675753993816E+01 a      1004     0    21     1     4
 -1.3853229048426283E+02 a      1005     0    21     1     5
  6.6183556231459036E+01 a      1006     0    21     1     6
 -5.6402818517585915E+00 a      1007     0    21     1     7
  1.5166269357736883E+01 a      1008     0    21     1     8
 -5.4515828668005515E+00 a      1009     0    21     1     9
  5.5880615825185437E+01 a      1010     0    21     1    10
 -1.3784306122135007E+01 a      1011     0    21     1    11
  3.7561167553883955E+01 a      1012     0    21     1    12
 -3.6769511270504893E+01 a      1013     0    21     1    13
  1.0575780365299403E+02 a      1014     0    21     1    14
 -1.2688520169808621E+02 a      1015     0    21     1    15
 -7.0727196064457758E+01 a      1016     0    21     1    16
  2.2535411340398696E+02 a      1017     0    21     1    17
  3.0332659545560309E-01 a      1018     0    21     1    18
  7.9222960807820058E+01 a      1019     0    21     1    19
 -1.5257303658852143E+02 a      1020     0    21     1    20
  2.2104921902036939E+01 a      1021     0    21     1    21
  6.9224609676741045E-01 a      1022     0    21     1    22
 -8.8735454200371066E+01 a      1023     0    21     1    23
  3.4693109613862738E+01 a      1024     0    21     1    24
  1.0855072743717737E+02 a      1025     0    21     1    25
 -3.0945109162301080E+01 a      1026     0    21     1    26
  2.0628646650370143E+01 a      1027     0    21     1    27
  2.3094716866808593E+01 a      1028     0    21     1    28
  2.4222576878832822E+01 a      1029     0    21     1    29
  1.2988543717349307E+02 a      1030     0    21     1    30
 -9.5049833229006154E+01 a      1031     0    21     1    31
  6.0540784775282347E+01 a      1032     0    21     1    32
 -6.7594723775601778E+01 a      1033     0    21     1    33
  4.3115069186952510E+01 a      1034     0    21     1    34
  3.3456110890158953E+01 a      1035     0    21     1    35
 -4.7755078314979940E+01 a      1036     0    21     1    36
  9.8684275921688837E+01 a      1037     0    21     1    37
  1.0986064909965555E+02 a      1038     0    21     1    38
 -1.1844318165568874E+01 a      1039     0    21     1    39
 -1.2630884532761182E+02 a      1040     0    21     1    40
  7.8847029339690735E+01 a      1041     0    21     1    41
 -1.0466461936888687E+02 a      1042     0    21     1    42
 -1.6261523287691344E+02 a      1043     0    21     1    43
  9.9224540279045513E+01 a      1044     0    21     1    44
  9.7591664956233387E+01 a      1045     0    21     1    45
 -1.7746413433756953E+01 a      1046     0    21     1    46
 -2.1774254207110923E+02 a      1047     0    21     1    47
 -1.7849335776633862E+02 a      1048     0    21     1    48
 -1.3959100705019441E+02 a      1049     0    21     1    49
  1.0119829476271761E+02 a      1050     0    21     1    50
  2.5320161442616985E+01 a      1051     0    22     1     1
  4.0880162138039353E+01 a      1052     0    22     1     2
 -2.1047893724176359E+02 a      1053     0    22     1     3
 -1.0153074322565496E+02 a      1054     0    22     1     4
  1.0731172324221639E+02 a      1055     0    22     1     5
  3.2804284354130738E+02 a      1056     0    22     1     6
 -2.4484770870367527E+02 a      1057     0    22     1     7
 -7.8593348164537318E+01 a      1058     0    22     1     8
 -2.1497856604690256E+01 a      1059     0    22     1     9
 -1.7911569872081867E+02 a      1060     0    22     1    10
 -2.1173617438614363E+02 a      1061     0    22     1    11
 -4.9921627375832067E+01 a      1062     0    22     1    12
 -4.0929887232875288E+01 a      1063     0    22     1    13
 -1.5290340731754707E+01 a      1064     0    22     1    14
 -7.1518403659416364E+01 a      1065     0    22     1    15
 -1.4929586433395136E+02 a      1066     0    22     1    16
  1.7648604358355411E+02 a      1067     0    22     1    17
  4.7095409072543795E+01 a      1068     0    22     1    18
  9.2631804184243904E+01 a      1069     0    22     1    19
  1.5438620473325267E+02 a      1070     0    22     1    20
 -1.3123351801787855E+01 a      1071     0    22     1    21
  2.7163958702300071E+01 a      1072     0    22     1    22
 -6.3824825570809182E+01 a      1073     0    22     1    23
  4.6957832934717025E+01 a      1074     0    22     1    24
 -9.2869252359762997E-02 a      1075     0    22     1    25
  1.0007233268586383E+02 a      1076     0    22     1    26
 -1.3626264228536002E+02 a      1077     0    22     1    27
  8.8890638283577701E+00 a      1078     0    22     1    28
  3.1585325993810227E+02 a      1079     0    22     1    29
  3.2804649613015374E+02 a      1080     0    22     1    30
  1.2932667375548820E+02 a      1081     0    22     1    31
  1.5694072955346576E+02 a      1082     0    22     1    32
  2.1636681992113225E+02 a      1083     0    22     1    33
  7.7872240581723105E+01 a      1084     0    22     1    34
  6.0794300493068164E+01 a      1085     0    22     1    35
 -2.1414453516588203E+01 a      1086     0    22     1    36
  4.5755493723697759E+02 a      1087     0    22     1    37
  4.0410423677554405E+01 a      1088     0    22     1    38
  5.2590490823428205E+01 a      1089     0    22     1    39
 -1.2352262659487644E+02 a      1090     0    22     1    40
 -4.8775871991707533E+01 a      1091     0    22     1    41
  1.6514638434094613E+02 a      1092     0    22     1    42
  1.0103542782517735E+02 a      1093     0    22     1    43
 -6.0888565233581524E+01 a      1094     0    22     1    44
  4.7354322825068969E+01 a      1095     0    22     1    45
  7.6090862873773915E+01 a      1096     0    22     1    46
  1.4214778509028616E+02 a      1097     0    22     1    47
 -8.9394358284541070E+01 a      1098     0    22     1    48
  3.4296418189333082E+01 a      1099     0    22     1    49
  1.9847216723792872E+01 a      1100     0    22     1    50
 -9.3970977152688477E+01 a      1101     0    23     1     1
  9.9804645548123307E+00 a      1102     0    23     1     2
  2.3305204119829685E+02 a      1103     0    23     1     3
 -1.4344046900256367E+02 a      1104     0    23     1     4
  3.1167663975681325E+01 a      1105     0    23     1     5
  2.8113931079022069E+02 a      1106     0    23     1     6
  1.7495262304781400E+02 a      1107     0    23     1     7
  6.8161006798664275E+01 a      1108     0    23     1     8
  5.1907330331195567E+01 a      1109     0    23     1     9
  2.4023791415952469E+00 a      1110     0    23     1    10
 -5.4802268875891514E+01 a      1111     0    23     1    11
 -5.3964030727654055E+01 a      1112     0    23     1    12
  2.8623621986715182E+01 a      1113     0    23     1    13
 -4.3185987538108833E+01 a      1114     0    23     1    14
  5.0525846954209236E+01 a      1115     0    23     1    15
 -1.7088276649477493E+02 a      1116     0    23     1    16
  1.2233099154746802E+02 a      1117     0    23     1    17
 -8.7994469593470335E+00 a      1118     0    23     1    18
 -9.4834388761801264E+01 a      1119     0    23     1    19
  6.6733262984995250E+01 a      1120     0    23     1    20
  2.8792693792092660E+01 a      1121     0    23     1    21
  3.6138690180616550E+01 a      1122     0    23     1    22
  2.7322330442978256E+01 a      1123     0    23     1    23
  1.6939498965965331E+01 a      1124     0    23     1    24
 -1.8575160444448435E+00 a      1125     0    23     1    25
  1.4785643385520002E+01 a      1126     0    23     1    26
 -4.7229306708439019E+01 a      1127     0    23     1    27
  4.1632179010650834E+00 a      1128     0    23     1    28
  2.6169435588314633E+02 a      1129     0    23     1    29
  2.1836077382321082E+02 a      1130     0    23     1    30
  3.0431990458023131E+02 a      1131     0    23     1    31
 -8.7992762255772945E+01 a      1132     0    23     1    32
  1.4825644941077334E+02 a      1133     0    23     1    33
 -4.3774926329651713E+01 a      1134     0    23     1    34
  6.6352291910251580E+01 a      1135     0    23     1    35
  7.2885880900250129E+01 a      1136     0    23     1    36
  2.8738251657408006E+02 a      1137     0    23     1    37
  4.1711538714466620E+01 a      1138     0    23     1    38
  1.4615357575666090E+01 a      1139     0    23     1    39
  5.7968865834883815E+01 a      1140     0    23     1    40
  8.8334039923615663E+01 a      1141     0    23     1    41
  2.7835001528037589E+02 a      1142     0    23     1    42
  1.5147062870980105E+02 a      1143     0    23     1    43
  1.9126468341018136E+02 a      1144     0    23     1    44
  2.2385295150631532E+02 a      1145     0    23     1    45
  2.2380020442543002E+02 a      1146     0    23     1    46
  1.4131510225063133E+02 a      1147     0    23     1    47
 -2.1026437874321267E+01 a      1148     0    23     1    48
  2.5725414856108966E+02 a      1149     0    23     1    49
 -2.9141906449112457E+02 a      1150     0    23     1    50
 -7.8957361562925328E+01 a      1151     0    24     1     1
 -5.8703532542231656E+01 a      1152     0    24     1     2
  2.6553791945421455E+02 a      1153     0    24     1     3
  1.5898497529622495E+02 a      1154     0    24     1     4
 -5.0690359373538412E+00 a      1155     0    24     1     5
 -1.7527482567354109E+01 a      1156     0    24     1     6
  1.5727719615780407E+02 a      1157     0    24     1     7
  4.7368361302531333E+01 a      1158     0    24     1     8
  5.5418630254757126E+01 a      1159     0    24     1     9
  1.0648018016164752E+01 a      1160     0    24     1    10
  1.5058153664513458E+02 a      1161     0    24     1    11
  6.0099749722827013E+01 a      1162     0    24     1    12
  5.0149798288936182E+01 a      1163     0    24     1    13
 -2.2942686811273074E+01 a      1164     0    24     1    14
  5.9635734720649381E+01 a      1165     0    24     1    15
 -2.0057540619514982E+00 a      1166     0    24     1    16
 -9.2986421351969867E+01 a      1167     0    24     1    17
 -5.7893626432106728E+01 a      1168     0    24     1    18
 -8.8684197729020042E+01 a      1169     0    24     1    19
 -1.1949136058670327E+02 a      1170     0    24     1    20
  6.1265868823933907E+01 a      1171     0    24     1    21
  3.6765891664481479E+01 a      1172     0    24     1    22
 -7.7670005925077694E+00 a      1173     0    24     1    23
 -5.7634811737112820E+01 a      1174     0    24     1    24
  1.9697398093051561E+01 a      1175     0    24     1    25
 -6.6216983910456605E+01 a      1176     0    24     1    26
  8.3175939400028810E+01 a      1177     0    24     1    27
 -3.2053647529841420E+00 a      1178     0    24     1    28
 -1.6545092544142736E+02 a      1179     0    24     1    29
 -8.3253682551473375E+01 a      1180     0    24     1    30
 -5.8729896198501672E+00 a      1181     0    24     1    31
 -1.2355420872959587E+02 a      1182     0    24     1    32
 -2.5233174734322915E+01 a      1183     0    24     1    33
 -2.3004962123410479E+01 a      1184     0    24     1    34
 -2.2820913383157208E+01 a      1185     0    24     1    35
  1.3490927438074887E+00 a      1186     0    24     1    36
 -1.9497349874246780E+02 a      1187     0    24     1    37
  2.0830594915375396E+01 a      1188     0    24     1    38
 -3.2045190345961863E+01 a      1189     0    24     1    39
  4.7312549419849326E+01 a      1190     0    24     1    40
  6.2714059600289033E+01 a      1191     0    24     1    41
 -8.2977076107687296E+01 a      1192     0    24     1    42
 -6.4033374216199050E+01 a      1193     0    24     1    43
  1.2164355111748320E+02 a      1194     0    24     1    44
  4.3863074062645097E+01 a      1195     0    24     1    45
  3.7220148074045049E+01 a      1196     0    24     1    46
 -1.0970902733507917E+02 a      1197     0    24     1    47
 -8.9525856524960489E+01 a      1198     0    24     1    48
 -3.8798250507713412E+01 a      1199     0    24     1    49
 -7.4183815724067671E+01 a      1200     0    24     1    50
 -1.6664174830142372E+01 a      1201     0    25     1     1
  4.6232419271418244E+01 a      1202     0    25     1     2
  1.7249302351534328E+02 a      1203     0    25     1     3
 -9.4925668619913552E+01 a      1204     0    25     1     4
  1.2158265281387918E+02 a      1205     0    25     1     5
 -6.7050254216386989E+01 a      1206     0    25     1     6
 -1.2284166636801039E+01 a      1207     0    25     1     7
 -1.7582526816390489E+02 a      1208     0    25     1     8
  3.8571746216217761E+01 a      1209     0    25     1     9
 -7.5997297040340101E+01 a      1210     0    25     1    10
  3.1740068745097464E+01 a      1211     0    25     1    11
  2.9903358236270456E+01 a      1212     0    25     1    12
  5.2100938305884775E+01 a      1213     0    25     1    13
 -7.9629122662763479E+01 a      1214     0    25     1    14
  1.2109332173383608E+02 a      1215     0    25     1    15
  5.8142460583907031E+01 a      1216     0    25     1    16
 -2.4737960500029749E+02 a      1217     0    25     1    17
 -9.0599313917905722E+00 a      1218     0    25     1    18
 -5.5814425660685671E+01 a      1219     0    25     1    19
  1.7799535544340287E+02 a      1220     0    25     1    20
  1.2674541333614826E+00 a      1221     0    25     1    21
  1.6562191428379627E+01 a      1222     0    25     1    22
  9.2882846077076707E+01 a      1223     0    25     1    23
 -3.9169639999794285E+01 a      1224     0    25     1    24
 -7.5288887433556127E+01 a      1225     0    25     1    25
  8.7961337497788506E+01 a      1226     0    25     1    26
 -2.3318455524445667E+01 a      1227     0    25     1    27
 -4.8751156684709258E+01 a      1228     0    25     1    28
 -2.6134515196068676E+01 a      1229     0    25     1    29
 -1.5057356662542978E+02 a      1230     0    25     1    30
  8.2598705101249323E+01 a      1231     0    25     1    31
 -1.1041448071173441E+02 a      1232     0    25     1    32
 -2.9269809338516556E+01 a      1233     0    25     1    33
  4.3351590230488178E+01 a      1234     0    25     1    34
 -5.0448585077783221E+01 a      1235     0    25     1    35
 -5.3739493085162442E+00 a      1236     0    25     1    36
 -8.5298795369273293E+01 a      1237     0    25     1    37
 -1.2532998960675285E+02 a      1238     0    25     1    38
  1.3149528992181249E+01 a      1239     0    25     1    39
  1.1489734460078546E+02 a      1240     0    25     1    40
 -1.8184802922828698E+02 a      1241     0    25     1    41
  5.7843101642822695E+01 a      1242     0    25     1    42
  1.4652341753050342E+02 a      1243     0    25     1    43
 -1.0357723980780341E+02 a      1244     0    25     1    44
 -7.0539404238246703E+01 a      1245     0    25     1    45
  1.0394363686545351E+01 a      1246     0    25     1    46
  2.3019037078171124E+02 a      1247     0    25     1    47
  1.2087248670984121E+02 a      1248     0    25     1    48
  1.3284416009963925E+02 a      1249     0    25     1    49
 -9.2244582314083047E+01 a      1250     0    25     1    50
 -8.9287103367285852E+00 a      1251     0    26     1     1
  8.0719998534850532E+01 a      1252     0    26     1     2
  1.8209169551551298E+02 a      1253     0    26     1     3
  2.5232458866661841E+02 a      1254     0    26     1     4
  8.9956247449482021E+01 a      1255     0    26     1     5
 -2.0590956997839922E+02 a      1256     0    26     1     6
  1.9870972238595101E+02 a      1257     0    26     1     7
 -8.5706315441520474E+01 a      1258     0    26     1     8
 -2.8563232446016066E+01 a      1259     0    26     1     9
  9.8740505875436444E+00 a      1260     0    26     1    10
  1.4119921777638419E+02 a      1261     0    26     1    11
  4.8391894417602686E+01 a      1262     0    26     1    12
 -3.9783742505699664E+01 a      1263     0    26     1    13
 -9.0031293269836951E+01 a      1264     0    26     1    14
  6.0659642394926102E+01 a      1265     0    26     1    15
  1.1814440730783910E+02 a      1266     0    26     1    16
 -2.3855836996293957E+02 a      1267     0    26     1    17
 -6.1971611038522745E+01 a      1268     0    26     1    18
 -1.1497336201317998E+02 a      1269     0    26     1    19
 -5.5836762063358812E+01 a      1270     0    26     1    20
 -4.8447236416816409E+01 a      1271     0    26     1    21
 -6.4556662794721149E+01 a      1272     0    26     1    22
 -6.3369191057795739E+01 a      1273     0    26     1    23
 -8.2905160450515055E+01 a      1274     0    26     1    24
 -1.1108007116405139E+02 a      1275     0    26     1    25
 -2.7694605781560199E+01 a      1276     0    26     1    26
  1.7772061239602957E+02 a      1277     0    26     1    27
  2.1725064799011452E+01 a      1278     0    26     1    28
 -3.1515578092576663E+02 a      1279     0    26     1    29
 -1.9752243148483811E+02 a      1280     0    26     1    30
 -1.1010665932379578E+02 a      1281     0    26     1    31
  6.0510294968267893E+01 a      1282     0    26     1    32
 -6.6934108639978632E+01 a      1283     0    26     1    33
  1.2472418099694522E+01 a      1284     0    26     1    34
  3.0100105542631059E+01 a      1285     0    26     1    35
  8.1786457964761929E+00 a      1286     0    26     1    36
 -4.4936971884275965E+02 a      1287     0    26     1    37
 -9.2615120093067745E+01 a      1288     0    26     1    38
 -4.2377797659591607E+01 a      1289     0    26     1    39
  1.2330170021145656E+02 a      1290     0    26     1    40
 -4.5400538088801355E+01 a      1291     0    26     1    41
 -6.2255888078012966E+01 a      1292     0    26     1    42
 -1.3956096211665681E+01 a      1293     0    26     1    43
  9.7839166632184941E+01 a      1294     0    26     1    44
 -1.8325382849758282E+02 a      1295     0    26     1    45
 -8.2810738956477337E+01 a      1296     0    26     1    46
 -1.8979131731832641E+02 a      1297     0    26     1    47
  1.1779870417886715E+02 a      1298     0    26     1    48
 -9.8854019672409706E+01 a      1299     0    26     1    49
 -2.3121018636946289E+01 a      1300     0    26     1    50
  7.9578938047096401E+01 a      1301     0    27     1     1
  4.7805754746226526E+01 a      1302     0    27     1     2
 -2.1510001130340936E+02 a      1303     0    27     1     3
 -7.5691620111249264E+01 a      1304     0    27     1     4
 -1.7656644261528815E+01 a      1305     0    27     1     5
  2.0836852059551077E+01 a      1306     0    27     1     6
 -1.9748500378034808E+02 a      1307     0    27     1     7
 -6.2765708446157909E+01 a      1308     0    27     1     8
 -1.5235616025798752E+01 a      1309     0    27     1     9
 -6.0522360925500664E+01 a      1310     0    27     1    10
 -2.0310428109455452E+02 a      1311     0    27     1    11
  1.3976248097989563E+01 a      1312     0    27     1    12
 -1.0394426017262299E+02 a      1313     0    27     1    13
 -6.7642490690734505E+01 a      1314     0    27     1    14
  1.4949195627075978E+01 a      1315     0    27     1    15
 -1.1147066144902686E+02 a      1316     0    27     1    16
  8.6902995501410388E+01 a      1317     0    27     1    17
  7.1376743190833460E+00 a      1318     0    27     1    18
  1.2560696949127208E+02 a      1319     0    27     1    19
  6.9667512785425131E+01 a      1320     0    27     1    20
 -2.8908148597390770E+01 a      1321     0    27     1    21
  8.1300866474518315E+01 a      1322     0    27     1    22
  4.6290939525317214E+01 a      1323     0    27     1    23
  7.2168034319588230E+01 a      1324     0    27     1    24
  1.2393129878668733E+01 a      1325     0    27     1    25
  1.2291434098875462E+02 a      1326     0    27     1    26
 -5.8948076479453661E+01 a      1327     0    27     1    27
  4.6961211663588841E+01 a      1328     0    27     1    28
 -4.1579683399605983E+01 a      1329     0    27     1    29
 -1.1959256195999521E+02 a      1330     0    27     1    30
 -6.8857195631336523E+01 a      1331     0    27     1    31
  9.8524535589539397E+00 a      1332     0    27     1    32
  1.5989124827903189E+00 a      1333     0    27     1    33
 -1.1183786102385509E+01 a      1334     0    27     1    34
 -6.1608891473859266E+01 a      1335     0    27     1    35
  6.8878337538226631E+01 a      1336     0    27     1    36
  1.2369725954524746E+02 a      1337     0    27     1    37
 -2.6048247574010841E+01 a      1338     0    27     1    38
  5.5057388430369215E+01 a      1339     0    27     1    39
 -1.2784271543930127E+02 a      1340     0    27     1    40
 -1.5393812117180335E+02 a      1341     0    27     1    41
  1.3666322276817212E+02 a      1342     0    27     1    42
 -2.0747013513789859E+01 a      1343     0    27     1    43
 -1.7737962132576791E+02 a      1344     0    27     1    44
 -3.3198803271031530E+01 a      1345     0    27     1    45
 -9.4925575777095119E+00 a      1346     0    27     1    46
 -8.7389444692517898E+01 a      1347     0    27     1    47
 -1.1253196544524640E+00 a      1348     0    27     1    48
  7.8537129858949285E+01 a      1349     0    27     1    49
 -6.3294726159623572E+01 a      1350     0    27     1    50
 -1.2982273374892110E+01 a      1351     0    28     1     1
  1.1945006346877790E+01 a      1352     0    28     1     2
  1.0958302167695263E+02 a      1353     0    28     1     3
  1.7981856584350228E+02 a      1354     0    28     1     4
  8.1319132784361550E+00 a      1355     0    28     1     5
  5.1015456752983951E+01 a      1356     0    28     1     6
 -3.5791078369883977E+01 a      1357     0    28     1     7
  2.4442163247410981E+01 a      1358     0    28     1     8
  2.3183121809432162E+01 a      1359     0    28     1     9
 -1.1910803082447559E+01 a      1360     0    28     1    10
 -1.6400644270320841E+00 a      1361     0    28     1    11
  8.3632547992290096E+00 a      1362     0    28     1    12
 -6.5354377355424987E+01 a      1363     0    28     1    13
 -4.6769706172983724E+01 a      1364     0    28     1    14
  4.8175396541941254E+01 a      1365     0    28     1    15
 -6.8972040859689088E+01 a      1366     0    28     1    16
  7.4685746064282350E+00 a      1367     0    28     1    17
 -5.2839503606348920E+01 a      1368     0    28     1    18
 -6.9307590521128091E+01 a      1369     0    28     1    19
 -3.4163155351084910E+01 a      1370     0    28     1    20
  9.1777337167477082E+00 a      1371     0    28     1    21
  5.7262089300677985E+01 a      1372     0    28     1    22
  1.4693652778617226E+01 a      1373     0    28     1    23
  6.7789774108974914E+00 a      1374     0    28     1    24
  3.0024887490151521E+01 a      1375     0    28     1    25
  2.1803379236093519E+01 a      1376     0    28     1    26
  2.5645626070147600E+01 a      1377     0    28     1    27
  2.2775196334826390E+01 a      1378     0    28     1    28
 -1.1790212071747256E+02 a      1379     0    28     1    29
 -3.2057891824043729E+01 a      1380     0    28     1    30
 -2.5073905226388149E+01 a      1381     0    28     1    31
 -2.4463038444622587E+01 a      1382     0    28     1    32
  1.6838243509641298E+01 a      1383     0    28     1    33
 -5.7596711886716093E+01 a      1384     0    28     1    34
 -1.8981253068603998E+01 a      1385     0    28     1    35
  7.1937522525320404E+01 a      1386     0    28     1    36
 -1.3508671341958186E+01 a      1387     0    28     1    37
  7.1734678444390143E+00 a      1388     0    28     1    38
  1.2711996384419423E+01 a      1389     0    28     1    39
 -7.4295897478445269E+01 a      1390     0    28     1    40
 -2.2864012422760990E+01 a      1391     0    28     1    41
  5.4014068336639873E+01 a      1392     0    28     1    42
 -2.6466571898636023E+01 a      1393     0    28     1    43
 -2.1031043425503569E+01 a      1394     0    28     1    44
 -6.2714253924863623E+00 a      1395     0    28     1    45
  6.6241299258576774E+01 a      1396     0    28     1    46
 -1.2847128116467576E+02 a      1397     0    28     1    47
 -3.4536147821546578E+01 a      1398     0    28     1    48
  2.6318383820736511E+01 a      1399     0    28     1    49
 -8.9150729176572895E+01 a      1400     0    28     1    50
  1.4146485860417629E+01 a      1401     0    29     1     1
 -1.0393379611400077E+01 a      1402     0    29     1     2
 -3.6055188597187147E+01 a      1403     0    29     1     3
 -1.3347250767795450E+02 a      1404     0    29     1     4
 -9.5035682835324309E+01 a      1405     0    29     1     5
 -6.0552141436094988E+00 a      1406     0    29     1     6
  5.8709154285245177E+01 a      1407     0    29     1     7
 -6.5780709272235086E+01 a      1408     0    29     1     8
 -2.4111540478658795E+00 a      1409     0    29     1     9
  3.5678749145444904E+01 a      1410     0    29     1    10
 -1.1959683610256491E+02 a      1411     0    29     1    11
  6.3099949821273587E+00 a      1412     0    29     1    12
 -1.4576473188883984E+01 a      1413     0    29     1    13
 -8.4340797425447036E+00 a      1414     0    29     1    14
  3.1535059141697119E+00 a      1415     0    29     1    15
 -9.3883272601499684E+01 a      1416     0    29     1    16
  1.1881209006853538E+02 a      1417     0    29     1    17
  3.4086314079972664E+00 a      1418     0    29     1    18
  4.8571752566010716E+01 a      1419     0    29     1    19
  3.6784052701290463E+01 a      1420     0    29     1    20
 -4.1149088821050697E+01 a      1421     0    29     1    21
  4.8104661624131040E+01 a      1422     0    29     1    22
  2.1160106735159211E+01 a      1423     0    29     1    23
  7.7826895269274132E+01 a      1424     0    29     1    24
  3.6615635561798427E+01 a      1425     0    29     1    25
  6.8618322320314292E+01 a      1426     0    29     1    26
 -5.6794093799549641E+00 a      1427     0    29     1    27
  4.7473370831572225E+01 a      1428     0    29     1    28
  7.5554558933847522E+00 a      1429     0    29     1    29
 -7.6874817619074449E+01 a      1430     0    29     1    30
  6.4921405035558468E+00 a      1431     0    29     1    31
 -8.1531103682065364E+01 a      1432     0    29     1    32
 -4.3843566097176577E+01 a      1433     0    29     1    33
  6.9004374175785053E+00 a      1434     0    29     1    34
 -2.6775874182841921E+01 a      1435     0    29     1    35
  4.1727586847922716E+01 a      1436     0    29     1    36
  7.6468985363292646E+01 a      1437     0    29     1    37
 -5.5277167800635567E+01 a      1438     0    29     1    38
  1.2304742289361764E+01 a      1439     0    29     1    39
 -3.2567459215069043E+01 a      1440     0    29     1    40
 -4.5510805878097720E+01 a      1441     0    29     1    41
  1.1229996068086699E+02 a      1442     0    29     1    42
 -1.1266594410892157E+01 a      1443     0    29     1    43
  2.2906681470166127E+01 a      1444     0    29     1    44
  2.8516978528958425E+01 a      1445     0    29     1    45
  6.2223949272480901E+01 a      1446     0    29     1    46
 -9.3614469399015121E+01 a      1447     0    29     1    47
  8.6087215319391532E+01 a      1448     0    29     1    48
  1.3859279789052405E+02 a      1449     0    29     1    49
 -1.4054398008776906E+02 a      1450     0    29     1    50
 -5.6773860675143908E+01 a      1451     0    30     1     1
 -1.4673394089694920E+01 a      1452     0    30     1     2
  2.6224203916685934E+02 a      1453     0    30     1     3
  2.2540296291005734E+02 a      1454     0    30     1     4
 -1.5994810799494781E+01 a      1455     0    30     1     5
  4.8846048549826911E+01 a      1456     0    30     1     6
  1.0808082096805245E+02 a      1457     0    30     1     7
  4.5034511908963516E+01 a      1458     0    30     1     8
  3.4725435724607664E+01 a      1459     0    30     1     9
  3.2685288122274386E+01 a      1460     0    30     1    10
  8.4695989421133746E+01 a      1461     0    30     1    11
 -9.5634693545130312E-01 a      1462     0    30     1    12
 -1.5887989860972617E+01 a      1463     0    30     1    13
 -2.1602288212630324E+01 a      1464     0    30     1    14
  4.8163356176900088E+01 a      1465     0    30     1    15
 -4.6129032109420827E+01 a      1466     0    30     1    16
 -8.7591829795948843E+00 a      1467     0    30     1    17
 -6.7037486247346962E+01 a      1468     0    30     1    18
 -1.4878195784674128E+02 a      1469     0    30     1    19
 -7.0842987042426174E+01 a      1470     0    30     1    20
  1.9575006518584349E+01 a      1471     0    30     1    21
  3.2481601603415065E+01 a      1472     0    30     1    22
 -6.4119452609234369E+00 a      1473     0    30     1    23
 -1.1762940761059706E+01 a      1474     0    30     1    24
  3.8113941347715858E+01 a      1475     0    30     1    25
 -2.3426977980487919E+01 a      1476     0    30     1    26
  6.8426165412124263E+01 a      1477     0    30     1    27
  1.4075181982491037E+01 a      1478     0    30     1    28
 -1.1490929879782198E+02 a      1479     0    30     1    29
  1.3673173551519787E+01 a      1480     0    30     1    30
  1.6516554771954620E+01 a      1481     0    30     1    31
 -6.3388003623058673E+01 a      1482     0    30     1    32
  7.2740196268276343E+00 a      1483     0    30     1    33
 -6.4882484863932490E+01 a      1484     0    30     1    34
  6.4260491733741381E+00 a      1485     0    30     1    35
  5.7173547409798630E+01 a      1486     0    30     1    36
 -7.2133302795078421E+01 a      1487     0    30     1    37
  5.6471887898224589E+00 a      1488     0    30     1    38
 -1.4795743170385656E+01 a      1489     0    30     1    39
 -1.9083858846924599E+01 a      1490     0    30     1    40
  5.7820318697474626E+01 a      1491     0    30     1    41
  1.6552477703610894E+01 a      1492     0    30     1    42
 -2.5908820681893403E+01 a      1493     0    30     1    43
  9.3568222060352554E+01 a      1494     0    30     1    44
  2.4380936801937864E+01 a      1495     0    30     1    45
  1.1353146311033338E+02 a      1496     0    30     1    46
 -1.4208561318850317E+02 a      1497     0    30     1    47
 -1.4310519807534536E+01 a      1498     0    30     1    48
  3.0671107271085077E+01 a      1499     0    30     1    49
 -1.2316093403705317E+02 a      1500     0    30     1    50
  1.3911944079289253E+01 a      1501     0    31     1     1
  4.0462391276512371E+01 a      1502     0    31     1     2
  5.7096881615556619E+01 a      1503     0    31     1     3
  3.7126287607579712E+01 a      1504     0    31     1     4
  8.8725527884536078E+01 a      1505     0    31     1     5
  8.6150843956982058E+01 a      1506     0    31     1     6
  3.1433649402814222E+01 a      1507     0    31     1     7
  1.0700663258141403E+00 a      1508     0    31     1     8
  3.5895420530361946E+01 a      1509     0    31     1     9
 -6.1006000347599176E+01 a      1510     0    31     1    10
  1.0296474421943907E+02 a      1511     0    31     1    11
  5.1798218581928019E+01 a      1512     0    31     1    12
  4.6007654531316746E+01 a      1513     0    31     1    13
 -2.4939200280143417E+01 a      1514     0    31     1    14
 -1.9518477023199374E+01 a      1515     0    31     1    15
  4.2535481141958073E+01 a      1516     0    31     1    16
 -1.0392782416574951E+02 a      1517     0    31     1    17
  1.4889230869721011E+00 a      1518     0    31     1    18
  4.6148127230287178E-01 a      1519     0    31     1    19
 -1.0417765265077016E+01 a      1520     0    31     1    20
  1.1687821967432491E+01 a      1521     0    31     1    21
 -2.5986419459157304E+01 a      1522     0    31     1    22
 -2.1795975667936940E+01 a      1523     0    31     1    23
 -3.8540968405619950E+01 a      1524     0    31     1    24
 -3.8709575461471523E+01 a      1525     0    31     1    25
 -4.4036603224869841E+00 a      1526     0    31     1    26
 -5.4705462715046998E+01 a      1527     0    31     1    27
 -2.3439148789954967E+01 a      1528     0    31     1    28
  1.0013014438226710E+02 a      1529     0    31     1    29
  1.2714511007049292E+02 a      1530     0    31     1    30
  2.0142105431187797E+01 a      1531     0    31     1    31
  4.8407622530587254E+01 a      1532     0    31     1    32
  2.7109729333279704E+00 a      1533     0    31     1    33
  6.3657006798081618E+01 a      1534     0    31     1    34
  4.4194525488783043E+01 a      1535     0    31     1    35
 -6.4602758666350255E+01 a      1536     0    31     1    36
 -3.6444158108181604E+01 a      1537     0    31     1    37
 -1.5556055109233546E+01 a      1538     0    31     1    38
 -2.8362792958765414E+01 a      1539     0    31     1    39
  9.5786957442785749E+01 a      1540     0    31     1    40
  1.6281802647925662E+01 a      1541     0    31     1    41
 -3.4827307869047743E+01 a      1542     0    31     1    42
  1.5512253637452465E+01 a      1543     0    31     1    43
  1.0919960883167258E+02 a      1544     0    31     1    44
  4.7708515492111331E+01 a      1545     0    31     1    45
  6.5749077267199196E-01 a      1546     0    31     1    46
  6.9718970066975913E+01 a      1547     0    31     1    47
 -1.2313579404350349E+02 a      1548     0    31     1    48
 -5.3334469384399256E+01 a      1549     0    31     1    49
  2.8127571150006904E+01 a      1550     0    31     1    50
  3.0216494307696117E+01 a      1551     0    32     1     1
  1.1265811113950190E+02 a      1552     0    32     1     2
  2.8520625104685099E+01 a      1553     0    32     1     3
 -9.3183315768323671E-01 a      1554     0    32     1     4
  5.9133249637162557E+01 a      1555     0    32     1     5
  6.4138641875860444E+01 a      1556     0    32     1     6
  8.9943660908905827E+01 a      1557     0    32     1     7
  3.4397558128697149E+01 a      1558     0    32     1     8
 -2.0789162631049834E+01 a      1559     0    32     1     9
  5.4778711418518915E+00 a      1560     0    32     1    10
  1.0666485660911897E+01 a      1561     0    32     1    11
 -4.7755077495430918E+01 a      1562     0    32     1    12
 -4.3694986364744615E+01 a      1563     0    32     1    13
 -2.4140497566824926E+01 a      1564     0    32     1    14
 -1.5755663748260677E+01 a      1565     0    32     1    15
  1.3483563118744767E+01 a      1566     0    32     1    16
 -8.1330526702457000E+00 a      1567     0    32     1    17
 -7.9875709325437940E+00 a      1568     0    32     1    18
 -4.2219671501302791E+01 a      1569     0    32     1    19
  3.8370710186154021E+01 a      1570     0    32     1    20
 -4.7530031700913383E+01 a      1571     0    32     1    21
 -5.7978242680395468E+01 a      1572     0    32     1    22
 -1.7843036167068334E+01 a      1573     0    32     1    23
 -1.2292120013347896E+01 a      1574     0    32     1    24
 -6.1641992995325680E+01 a      1575     0    32     1    25
  1.5502883439005844E+01 a      1576     0    32     1    26
 -2.9442522354333278E+01 a      1577     0    32     1    27
  9.9736755629850684E+00 a      1578     0    32     1    28
  1.0907522136914987E+02 a      1579     0    32     1    29
  1.2294781347640364E+02 a      1580     0    32     1    30
  5.9799803589750624E+01 a      1581     0    32     1    31
  1.1668567792955999E+02 a      1582     0    32     1    32
  4.0839163071284368E+01 a      1583     0    32     1    33
 -3.0087650784383833E+01 a      1584     0    32     1    34
  8.6703743303123673E+01 a      1585     0    32     1    35
  3.0523244219600556E+01 a      1586     0    32     1    36
  2.3071586804844706E+01 a      1587     0    32     1    37
 -8.2878528591533698E+00 a      1588     0    32     1    38
 -5.3512342801614725E+00 a      1589     0    32     1    39
  7.8046540609322108E+01 a      1590     0    32     1    40
  3.2339800650284246E+01 a      1591     0    32     1    41
  1.0958722254576658E+02 a      1592     0    32     1    42
  9.0058331765602730E+01 a      1593     0    32     1    43
  1.1694044688500848E+02 a      1594     0    32     1    44
  1.2327924440124210E+01 a      1595     0    32     1    45
  4.4702843242504549E+01 a      1596     0    32     1    46
  2.5959813128416219E+01 a      1597     0    32     1    47
  5.7113808872715879E+01 a      1598     0    32     1    48
  6.0101640795583478E+01 a      1599     0    32     1    49
 -7.4572022893327258E+01 a      1600     0    32     1    50
 -5.5083773703109408E+01 a      1601     0    33     1     1
 -1.5780298192566028E+02 a      1602     0    33     1     2
  1.5616391948456098E+02 a      1603     0    33     1     3
  7.5442099668008908E+01 a      1604     0    33     1     4
 -1.1683695992521611E+02 a      1605     0    33     1     5
 -5.9693389767490260E+01 a      1606     0    33     1     6
  9.0031842989076281E+01 a      1607     0    33     1     7
 -1.3552494107513368E+01 a      1608     0    33     1     8
  6.1094377579998401E+01 a      1609     0    33     1     9
  8.1308061026560480E+01 a      1610     0    33     1    10
  1.6115487753781250E+02 a      1611     0    33     1    11
  6.9752051168468483E+01 a      1612     0    33     1    12
  1.2142598497716325E+02 a      1613     0    33     1    13
  1.0517024720798538E+02 a      1614     0    33     1    14
 -2.1665609357864746E+01 a      1615     0    33     1    15
  5.5232079901157640E+01 a      1616     0    33     1    16
 -5.8433678669110147E+00 a      1617     0    33     1    17
 -1.3702308493499329E+00 a      1618     0    33     1    18
 -4.5224510081886763E+01 a      1619     0    33     1    19
 -1.1137727553962567E+02 a      1620     0    33     1    20
  2.7248570754150865E+01 a      1621     0    33     1    21
  1.4692123802343882E+01 a      1622     0    33     1    22
  1.0641301775445184E+01 a      1623     0    33     1    23
