################################################################################
# Neural network connection values (weights and biases).
################################################################################
# Col  Name       Description
################################################################################
# 1    connection Neural network connection value.
# 2    t          Connection type (a = weight, b = bias).
# 3    index      Index enumerating weights.
# 4    l_s        Starting point layer (end point layer for biases).
# 5    n_s        Starting point neuron in starting layer (end point neuron for biases).
# 6    l_e        End point layer.
# 7    n_e        End point neuron in end layer.
################################################################################
#                      1 2         3     4     5     6     7
#             connection t     index   l_s   n_s   l_e   n_e
############################################################
 -2.7581318948537721E+01 a         1     0     1     1     1
 -7.3037608390807463E+01 a         2     0     1     1     2
  1.3062462339988053E+02 a         3     0     1     1     3
 -4.0501372112413705E+01 a         4     0     1     1     4
 -8.3603071631241235E+01 a         5     0     1     1     5
  5.4445499942337081E+00 a         6     0     1     1     6
 -8.1391009518564381E+00 a         7     0     1     1     7
 -5.2218085666539672E+01 a         8     0     1     1     8
 -2.3414281428253648E+01 a         9     0     1     1     9
 -5.3585286479730905E+02 a        10     0     1     1    10
 -4.1719641934662278E+01 a        11     0     1     1    11
 -2.2634473002916295E+01 a        12     0     1     1    12
 -2.6638889137719239E+01 a        13     0     1     1    13
 -4.1503022911422221E+01 a        14     0     1     1    14
 -2.1842855638670500E+01 a        15     0     1     1    15
  1.3690532237211985E+00 a        16     0     1     1    16
  5.4771005809090263E+02 a        17     0     1     1    17
  1.2620167100344423E+01 a        18     0     1     1    18
  4.7179040450785891E+01 a        19     0     1     1    19
  1.7155941173810064E+01 a        20     0     1     1    20
 -5.7731486771549584E+01 a        21     0     1     1    21
 -6.7083834711431969E+00 a        22     0     1     1    22
  4.1852079421603044E+01 a        23     0     1     1    23
 -5.8627190804383858E+01 a        24     0     1     1    24
  4.1569408212905364E+02 a        25     0     1     1    25
  9.5060723910125901E+01 a        26     0     1     1    26
  5.3558072852700569E+01 a        27     0     1     1    27
  1.1842373248930421E+01 a        28     0     1     1    28
 -3.4279279762307453E+01 a        29     0     1     1    29
  2.3856402527639663E+01 a        30     0     1     1    30
 -6.5484789850782747E+01 a        31     0     1     1    31
 -3.1586247136552124E+01 a        32     0     1     1    32
 -2.0908025813885708E+01 a        33     0     1     1    33
  3.8331611314898237E+02 a        34     0     1     1    34
  2.7740878912299760E+01 a        35     0     1     1    35
  9.0345696012534233E+00 a        36     0     1     1    36
  2.8313300026623935E+01 a        37     0     1     1    37
  4.2271220552664562E+02 a        38     0     1     1    38
  3.2171049280683111E+00 a        39     0     1     1    39
 -1.2911341080920696E+01 a        40     0     1     1    40
  1.3278562096788798E+02 a        41     0     1     1    41
  1.4584315833776103E+02 a        42     0     1     1    42
 -2.9113391717749199E+01 a        43     0     1     1    43
 -5.9265129309451670E+00 a        44     0     1     1    44
 -5.7844849352561774E+01 a        45     0     1     1    45
  5.8614583889236755E+01 a        46     0     1     1    46
 -1.8805127645676759E+01 a        47     0     1     1    47
 -5.1939386177184388E-01 a        48     0     1     1    48
  1.0284000443686178E+02 a        49     0     1     1    49
  4.8770818873735621E+01 a        50     0     1     1    50
 -3.0776250234857077E+01 a        51     0     2     1     1
 -7.3672359284159299E+01 a        52     0     2     1     2
  1.1772079960362042E+02 a        53     0     2     1     3
 -3.2280819032120114E+01 a        54     0     2     1     4
 -7.7941841529759841E+01 a        55     0     2     1     5
  1.0083061543642742E+01 a        56     0     2     1     6
 -8.7571252569784743E+00 a        57     0     2     1     7
 -4.6334800686643469E+01 a        58     0     2     1     8
 -2.2617106228789044E+01 a        59     0     2     1     9
 -4.8970605440416216E+02 a        60     0     2     1    10
 -3.5352401728173859E+01 a        61     0     2     1    11
 -2.4083057330229050E+01 a        62     0     2     1    12
 -2.5278084748531743E+01 a        63     0     2     1    13
 -2.1484370237706813E+01 a        64     0     2     1    14
 -2.6617225559399301E+01 a        65     0     2     1    15
 -8.8129544473878441E-01 a        66     0     2     1    16
  5.0397658357003320E+02 a        67     0     2     1    17
  2.0753247072669719E+01 a        68     0     2     1    18
  3.5254903142489532E+01 a        69     0     2     1    19
  2.2007025522605669E+01 a        70     0     2     1    20
 -4.8761137566144257E+01 a        71     0     2     1    21
 -2.3012258473075144E+00 a        72     0     2     1    22
  4.4214107173067561E+01 a        73     0     2     1    23
 -5.5921218315141324E+01 a        74     0     2     1    24
  3.7241446577247041E+02 a        75     0     2     1    25
  8.2163645872025242E+01 a        76     0     2     1    26
  4.0992751658110507E+01 a        77     0     2     1    27
  8.7876311705856516E+00 a        78     0     2     1    28
 -3.5552045951248211E+01 a        79     0     2     1    29
  2.2531818191157498E+01 a        80     0     2     1    30
 -6.9603787077874131E+01 a        81     0     2     1    31
 -2.7098784383457037E+01 a        82     0     2     1    32
 -9.5518752307384922E+00 a        83     0     2     1    33
  3.4112703874441047E+02 a        84     0     2     1    34
  3.0318593591060363E+01 a        85     0     2     1    35
  6.1490522420957276E+00 a        86     0     2     1    36
  2.7427065853999281E+01 a        87     0     2     1    37
  3.8498101494658982E+02 a        88     0     2     1    38
  9.0493585707241273E+00 a        89     0     2     1    39
 -1.4027075594428293E+01 a        90     0     2     1    40
  1.1831361858490348E+02 a        91     0     2     1    41
  1.3537657199125462E+02 a        92     0     2     1    42
 -3.3838380847202409E+01 a        93     0     2     1    43
 -9.2957281402602518E+00 a        94     0     2     1    44
 -6.3540787693899631E+01 a        95     0     2     1    45
  5.4393218358132721E+01 a        96     0     2     1    46
 -1.4596042104850897E+01 a        97     0     2     1    47
  6.5183828819766871E+00 a        98     0     2     1    48
  1.0479857689145715E+02 a        99     0     2     1    49
  4.0083688049846032E+01 a       100     0     2     1    50
 -3.3980535517259662E+00 a       101     0     3     1     1
 -3.3112446108373490E+01 a       102     0     3     1     2
  1.1951467788601613E+02 a       103     0     3     1     3
 -5.4543957512855904E+01 a       104     0     3     1     4
 -7.0552995108177470E+01 a       105     0     3     1     5
 -1.5113978303390844E+01 a       106     0     3     1     6
 -3.6281590163870074E+00 a       107     0     3     1     7
 -5.0166513544334293E+01 a       108     0     3     1     8
 -1.6877801151442675E+01 a       109     0     3     1     9
 -4.7944008575083757E+02 a       110     0     3     1    10
 -4.6310764181003968E+01 a       111     0     3     1    11
 -7.1759555075373340E+00 a       112     0     3     1    12
 -2.2328329403798609E+01 a       113     0     3     1    13
 -1.0416098931688722E+02 a       114     0     3     1    14
  4.5872438076069146E+00 a       115     0     3     1    15
  8.4996934710764496E+00 a       116     0     3     1    16
  4.7492522877631382E+02 a       117     0     3     1    17
 -2.2751007360094832E+01 a       118     0     3     1    18
  7.5917625400356783E+01 a       119     0     3     1    19
 -5.4572372353011964E+00 a       120     0     3     1    20
 -6.8293277649605486E+01 a       121     0     3     1    21
 -2.0176236041365712E+01 a       122     0     3     1    22
  1.4883912986325504E+01 a       123     0     3     1    23
 -4.0920849728662141E+01 a       124     0     3     1    24
  4.0172697077161587E+02 a       125     0     3     1    25
  1.0244764788088031E+02 a       126     0     3     1    26
  8.0041307415941048E+01 a       127     0     3     1    27
  1.9205391757210251E+01 a       128     0     3     1    28
 -1.9113844647265715E+01 a       129     0     3     1    29
  1.9079474187423802E+01 a       130     0     3     1    30
 -1.4738867643768524E+01 a       131     0     3     1    31
 -3.8056584748142924E+01 a       132     0     3     1    32
 -5.7197374058100536E+01 a       133     0     3     1    33
  3.7997745709327285E+02 a       134     0     3     1    34
  6.9820434447912421E+00 a       135     0     3     1    35
  1.6834113046984925E+01 a       136     0     3     1    36
  2.2127253521293930E+01 a       137     0     3     1    37
  3.8603423740247246E+02 a       138     0     3     1    38
 -1.8708632881513118E+01 a       139     0     3     1    39
 -8.0322453152496021E+00 a       140     0     3     1    40
  1.3159688621076489E+02 a       141     0     3     1    41
  1.2085979275922068E+02 a       142     0     3     1    42
 -2.2834237014442986E+00 a       143     0     3     1    43
  1.1878521692250105E+01 a       144     0     3     1    44
 -1.4574668638374080E+01 a       145     0     3     1    45
  5.0662207713396946E+01 a       146     0     3     1    46
 -2.3586314034835052E+01 a       147     0     3     1    47
 -2.6830768926728375E+01 a       148     0     3     1    48
  4.6988158535540173E+01 a       149     0     3     1    49
  6.5897136177561990E+01 a       150     0     3     1    50
 -3.0479815369874331E+01 a       151     0     4     1     1
 -3.1359385660115759E+01 a       152     0     4     1     2
 -5.9021818851613936E+00 a       153     0     4     1     3
  2.3314794947674493E+01 a       154     0     4     1     4
 -1.1658328898300006E+01 a       155     0     4     1     5
  2.6248023917769945E+01 a       156     0     4     1     6
 -7.7622695537574549E+00 a       157     0     4     1     7
  1.0111090097686384E+01 a       158     0     4     1     8
 -1.1009896417536265E+01 a       159     0     4     1     9
 -2.1246464506105163E+01 a       160     0     4     1    10
  1.1440001649385854E+01 a       161     0     4     1    11
 -2.3421626231878104E+01 a       162     0     4     1    12
 -1.1719651165606228E+01 a       163     0     4     1    13
  7.4644321186363541E+01 a       164     0     4     1    14
 -3.6884390616639742E+01 a       165     0     4     1    15
 -8.6287532785848917E+00 a       166     0     4     1    16
  3.8914777160985004E+01 a       167     0     4     1    17
  5.0211056539244638E+01 a       168     0     4     1    18
 -3.5950702936256285E+01 a       169     0     4     1    19
  3.4850625613526709E+01 a       170     0     4     1    20
  2.0898185227888288E+01 a       171     0     4     1    21
  1.9999335149146663E+01 a       172     0     4     1    22
  3.4760857093393632E+01 a       173     0     4     1    23
 -1.2324241064225772E+01 a       174     0     4     1    24
 -1.8545506705151844E+01 a       175     0     4     1    25
 -2.0294813578792109E+01 a       176     0     4     1    26
 -4.1065981497175365E+01 a       177     0     4     1    27
 -8.4537723880845181E+00 a       178     0     4     1    28
 -2.9937159917414164E+01 a       179     0     4     1    29
  6.8215029731901327E+00 a       180     0     4     1    30
 -4.6350708438346480E+01 a       181     0     4     1    31
  5.7942215643903117E+00 a       182     0     4     1    32
  4.2796085023779426E+01 a       183     0     4     1    33
 -3.2640402583153453E+01 a       184     0     4     1    34
  2.6532259889734146E+01 a       185     0     4     1    35
 -7.2561036541919481E+00 a       186     0     4     1    36
  1.0738000898721234E+01 a       187     0     4     1    37
  1.9770705217513605E+01 a       188     0     4     1    38
  3.5649626192646529E+01 a       189     0     4     1    39
 -1.7839268660909905E+01 a       190     0     4     1    40
 -2.6267551328194791E+00 a       191     0     4     1    41
  1.8447966546555964E+01 a       192     0     4     1    42
 -4.2240130766037375E+01 a       193     0     4     1    43
 -2.1808122613111625E+01 a       194     0     4     1    44
 -6.2704969947212319E+01 a       195     0     4     1    45
  7.9464456204353411E+00 a       196     0     4     1    46
  1.4746568744879548E+01 a       197     0     4     1    47
  3.6632882696532860E+01 a       198     0     4     1    48
  5.8000840319205835E+01 a       199     0     4     1    49
 -1.7772171355221932E+01 a       200     0     4     1    50
  2.8754000044571555E+01 a       201     0     5     1     1
  1.2777367841455542E-02 a       202     0     5     1     2
  1.3650274750260903E+02 a       203     0     5     1     3
 -8.7080262829393874E+01 a       204     0     5     1     4
 -6.8143014412216004E+01 a       205     0     5     1     5
 -4.3137337121236001E+01 a       206     0     5     1     6
  3.5403175044717825E+00 a       207     0     5     1     7
 -6.4999136731601638E+01 a       208     0     5     1     8
 -5.5354256374885527E+00 a       209     0     5     1     9
 -5.0564462771645026E+02 a       210     0     5     1    10
 -6.3502453364310384E+01 a       211     0     5     1    11
  1.5504395405712964E+01 a       212     0     5     1    12
 -1.6892605457123814E+01 a       213     0     5     1    13
 -1.9352272967447283E+02 a       214     0     5     1    14
  4.0610159501175900E+01 a       215     0     5     1    15
  2.0374372566013442E+01 a       216     0     5     1    16
  4.8051647959452345E+02 a       217     0     5     1    17
 -7.7740632246627882E+01 a       218     0     5     1    18
  1.2403003521536232E+02 a       219     0     5     1    19
 -3.7479404559341006E+01 a       220     0     5     1    20
 -9.4532938818360265E+01 a       221     0     5     1    21
 -4.4794925339490938E+01 a       222     0     5     1    22
 -1.8534921628800678E+01 a       223     0     5     1    23
 -2.5502916432791707E+01 a       224     0     5     1    24
  4.6217734634426409E+02 a       225     0     5     1    25
  1.3119323759361694E+02 a       226     0     5     1    26
  1.2809761712735687E+02 a       227     0     5     1    27
  3.1493720495563167E+01 a       228     0     5     1    28
  4.6578313736047745E+00 a       229     0     5     1    29
  1.6654686262705873E+01 a       230     0     5     1    30
  3.2828745673173465E+01 a       231     0     5     1    31
 -5.1573298234869043E+01 a       232     0     5     1    32
 -1.1084163677071753E+02 a       233     0     5     1    33
  4.5298223892582371E+02 a       234     0     5     1    34
 -1.8700398675146605E+01 a       235     0     5     1    35
  2.5805359033090060E+01 a       236     0     5     1    36
  1.5470550581344602E+01 a       237     0     5     1    37
  3.9339633947965899E+02 a       238     0     5     1    38
 -5.9798423106768837E+01 a       239     0     5     1    39
  2.7546405193196453E+00 a       240     0     5     1    40
  1.4165465483335635E+02 a       241     0     5     1    41
  1.1158480652670487E+02 a       242     0     5     1    42
  3.6617994184233737E+01 a       243     0     5     1    43
  4.1393648776295038E+01 a       244     0     5     1    44
  4.5250467785497996E+01 a       245     0     5     1    45
  4.8849658069294364E+01 a       246     0     5     1    46
 -3.8816227387680406E+01 a       247     0     5     1    47
 -6.9369988614472334E+01 a       248     0     5     1    48
 -1.3432644359149265E+01 a       249     0     5     1    49
  9.9374387737167496E+01 a       250     0     5     1    50
 -2.6638490972216569E+01 a       251     0     6     1     1
  3.7135094275828365E+01 a       252     0     6     1     2
 -1.9972613035746048E+02 a       253     0     6     1     3
  1.0678610157351150E+02 a       254     0     6     1     4
  9.0797987624475439E+01 a       255     0     6     1     5
  4.9581012614835885E+01 a       256     0     6     1     6
 -6.2130494991325795E+00 a       257     0     6     1     7
  9.4757010443722947E+01 a       258     0     6     1     8
  5.6233566195667306E+00 a       259     0     6     1     9
  6.8076660104005964E+02 a       260     0     6     1    10
  7.8738661214397453E+01 a       261     0     6     1    11
 -2.2266049542435063E+01 a       262     0     6     1    12
  1.1766775692763067E+01 a       263     0     6     1    13
  2.1016074212212646E+02 a       264     0     6     1    14
 -5.0160937222874445E+01 a       265     0     6     1    15
 -2.1094744845789165E+01 a       266     0     6     1    16
 -6.5868640437126555E+02 a       267     0     6     1    17
  9.3543086670427456E+01 a       268     0     6     1    18
 -1.3953782789407171E+02 a       269     0     6     1    19
  5.1973713837605743E+01 a       270     0     6     1    20
  1.2704031602514807E+02 a       271     0     6     1    21
  5.2841096951982159E+01 a       272     0     6     1    22
  1.9599485213608396E+01 a       273     0     6     1    23
  5.2861995022929378E+01 a       274     0     6     1    24
 -6.0556829452372654E+02 a       275     0     6     1    25
 -1.6904079859419022E+02 a       276     0     6     1    26
 -1.6300016683591272E+02 a       277     0     6     1    27
 -3.4671594497552277E+01 a       278     0     6     1    28
 -2.0007207353263595E+01 a       279     0     6     1    29
 -1.8160625512288405E+01 a       280     0     6     1    30
 -1.8877060122447888E+00 a       281     0     6     1    31
  5.7128547534692657E+01 a       282     0     6     1    32
  1.2086041604352269E+02 a       283     0     6     1    33
 -5.9222923932408003E+02 a       284     0     6     1    34
  1.7858427428667817E+01 a       285     0     6     1    35
 -2.7565830080063062E+01 a       286     0     6     1    36
 -1.5219511131500164E+01 a       287     0     6     1    37
 -5.2706806533865517E+02 a       288     0     6     1    38
  7.6763664126733204E+01 a       289     0     6     1    39
 -2.1889582784083423E+01 a       290     0     6     1    40
 -1.7868936043890406E+02 a       291     0     6     1    41
 -1.5493832817721272E+02 a       292     0     6     1    42
 -5.2990961564810142E+01 a       293     0     6     1    43
 -3.8712892939104378E+01 a       294     0     6     1    44
 -5.6763925965961626E+01 a       295     0     6     1    45
 -6.4911539579283968E+01 a       296     0     6     1    46
  6.0184260359410835E+01 a       297     0     6     1    47
  8.2771492669257782E+01 a       298     0     6     1    48
 -1.5034085667167806E+01 a       299     0     6     1    49
 -1.0418213292777011E+02 a       300     0     6     1    50
  4.1542831419411037E+01 a       301     0     7     1     1
  1.6351345890781996E+01 a       302     0     7     1     2
  1.1918866858042097E+02 a       303     0     7     1     3
 -8.6628656471763321E+01 a       304     0     7     1     4
 -4.5172136844171149E+01 a       305     0     7     1     5
 -5.2704890966842569E+01 a       306     0     7     1     6
  9.2512533985253320E+00 a       307     0     7     1     7
 -5.9154556062451313E+01 a       308     0     7     1     8
  1.0685887484498009E+01 a       309     0     7     1     9
 -3.3443409626116318E+02 a       310     0     7     1    10
 -5.1270875138426163E+01 a       311     0     7     1    11
  3.3328122637650239E+01 a       312     0     7     1    12
 -9.2540858117823763E+00 a       313     0     7     1    13
 -1.8766583050339460E+02 a       314     0     7     1    14
  5.7508915475725679E+01 a       315     0     7     1    15
  2.4588256463435421E+01 a       316     0     7     1    16
  3.0612254523649852E+02 a       317     0     7     1    17
 -1.0244230394842023E+02 a       318     0     7     1    18
  1.1906062475322631E+02 a       319     0     7     1    19
 -5.0591578721386533E+01 a       320     0     7     1    20
 -8.7722650839875357E+01 a       321     0     7     1    21
 -5.0423265142142093E+01 a       322     0     7     1    22
 -4.4357736256608355E+01 a       323     0     7     1    23
  2.6874745603089076E+00 a       324     0     7     1    24
  3.5122996384732750E+02 a       325     0     7     1    25
  9.7746797799037552E+01 a       326     0     7     1    26
  1.2400725859998400E+02 a       327     0     7     1    27
  3.3172131899013323E+01 a       328     0     7     1    28
  2.6095612537806357E+01 a       329     0     7     1    29
  1.0728100821025171E+01 a       330     0     7     1    30
  4.0573864773208292E+01 a       331     0     7     1    31
 -4.9788798049625676E+01 a       332     0     7     1    32
 -1.1935434449548306E+02 a       333     0     7     1    33
  3.5480678801857016E+02 a       334     0     7     1    34
 -2.9705084066900465E+01 a       335     0     7     1    35
  2.5525998629153463E+01 a       336     0     7     1    36
  5.7353205388792396E+00 a       337     0     7     1    37
  2.4398608801707545E+02 a       338     0     7     1    38
 -8.2560451661293456E+01 a       339     0     7     1    39
  6.7784189993909925E+00 a       340     0     7     1    40
  8.4822739116797536E+01 a       341     0     7     1    41
  5.3481159148052441E+01 a       342     0     7     1    42
  5.8627248904725491E+01 a       343     0     7     1    43
  5.5859750448366114E+01 a       344     0     7     1    44
  7.9059088349150841E+01 a       345     0     7     1    45
  3.2857580007810100E+01 a       346     0     7     1    46
 -4.1667646758686338E+01 a       347     0     7     1    47
 -8.7164163481158738E+01 a       348     0     7     1    48
 -6.0567752271487670E+01 a       349     0     7     1    49
  9.8731781564880635E+01 a       350     0     7     1    50
 -1.4192155039597871E+01 a       351     0     8     1     1
  7.6774446413117971E+01 a       352     0     8     1     2
 -2.9870114353332832E+02 a       353     0     8     1     3
  1.3748993179442689E+02 a       354     0     8     1     4
  1.3962797584609055E+02 a       355     0     8     1     5
  5.7823639990886790E+01 a       356     0     8     1     6
 -2.0505370363675461E+00 a       357     0     8     1     7
  1.2865652309695818E+02 a       358     0     8     1     8
  1.5040677975249434E+01 a       359     0     8     1     9
  9.5695656535273702E+02 a       360     0     8     1    10
  9.6648348646296014E+01 a       361     0     8     1    11
 -1.9454361791249365E+01 a       362     0     8     1    12
  3.1748853004658603E+01 a       363     0     8     1    13
  2.4989717488977729E+02 a       364     0     8     1    14
 -5.3555227474269202E+01 a       365     0     8     1    15
 -2.6404570498501215E+01 a       366     0     8     1    16
 -9.4084516640646507E+02 a       367     0     8     1    17
  1.0847079824241830E+02 a       368     0     8     1    18
 -1.7772408959617459E+02 a       369     0     8     1    19
  5.5265723942453697E+01 a       370     0     8     1    20
  1.7788574505897108E+02 a       371     0     8     1    21
  6.2574477929644893E+01 a       372     0     8     1    22
  1.4099242767710084E+01 a       373     0     8     1    23
  8.0932830521367336E+01 a       374     0     8     1    24
 -8.5079917504417131E+02 a       375     0     8     1    25
 -2.1625097752050698E+02 a       376     0     8     1    26
 -2.1191899512572223E+02 a       377     0     8     1    27
 -4.6391782681666456E+01 a       378     0     8     1    28
 -1.0505789450662206E+01 a       379     0     8     1    29
 -3.2424138042827565E+01 a       380     0     8     1    30
  3.7376699165137310E+01 a       381     0     8     1    31
  8.5244799954709208E+01 a       382     0     8     1    32
  1.5416125186367731E+02 a       383     0     8     1    33
 -8.1897565350364187E+02 a       384     0     8     1    34
  5.7534934705646483E+00 a       385     0     8     1    35
 -4.1380522143886488E+01 a       386     0     8     1    36
 -3.0954584639684327E+01 a       387     0     8     1    37
 -7.6226766858920246E+02 a       388     0     8     1    38
  9.3050036055456616E+01 a       389     0     8     1    39
 -1.4588452196755975E+01 a       390     0     8     1    40
 -2.4609904281216791E+02 a       391     0     8     1    41
 -2.1726476955359007E+02 a       392     0     8     1    42
 -5.3121814138765011E+01 a       393     0     8     1    43
 -3.9645940457216625E+01 a       394     0     8     1    44
 -4.1328957693819014E+01 a       395     0     8     1    45
 -1.0266464371950966E+02 a       396     0     8     1    46
  8.0684550643564776E+01 a       397     0     8     1    47
  1.0215307889291616E+02 a       398     0     8     1    48
 -5.3129894070079310E+01 a       399     0     8     1    49
 -1.3970709380254854E+02 a       400     0     8     1    50
  3.4542052791599069E+01 a       401     0     9     1     1
  1.0125084214864806E+02 a       402     0     9     1     2
 -1.3141365810160349E+02 a       403     0     9     1     3
  4.4137526310082208E+01 a       404     0     9     1     4
  1.0661477990253256E+02 a       405     0     9     1     5
 -2.7091127719885868E+01 a       406     0     9     1     6
  9.4797110100773914E+00 a       407     0     9     1     7
  7.0573634640921881E+01 a       408     0     9     1     8
  4.0337297364471262E+01 a       409     0     9     1     9
  8.8327835965761722E+02 a       410     0     9     1    10
  8.3234134697264594E+01 a       411     0     9     1    11
  4.5043233779342550E+01 a       412     0     9     1    12
  5.3679817352370751E+00 a       413     0     9     1    13
  4.2121855548655596E+01 a       414     0     9     1    14
  5.0450040291505090E+01 a       415     0     9     1    15
  1.1026713775694482E+01 a       416     0     9     1    16
 -8.6318324376632268E+02 a       417     0     9     1    17
 -5.7040341076092488E+01 a       418     0     9     1    18
 -3.9556424058388579E+01 a       419     0     9     1    19
 -2.5334841145714215E+01 a       420     0     9     1    20
  5.3015737490965321E+01 a       421     0     9     1    21
  5.3776825703032651E+00 a       422     0     9     1    22
 -9.2622861851203893E+01 a       423     0     9     1    23
  1.1343151860496599E+02 a       424     0     9     1    24
 -5.7206218187451339E+02 a       425     0     9     1    25
 -1.6599263466327133E+02 a       426     0     9     1    26
 -5.1824450308986457E+01 a       427     0     9     1    27
  1.3771838331925401E+00 a       428     0     9     1    28
  4.8209375234074486E+01 a       429     0     9     1    29
 -1.9514443108829841E+01 a       430     0     9     1    30
  5.0772432791939735E+01 a       431     0     9     1    31
  5.5417434823618015E+00 a       432     0     9     1    32
 -2.4411371272966868E+01 a       433     0     9     1    33
 -5.5312657475851995E+02 a       434     0     9     1    34
 -3.0515649941752351E+01 a       435     0     9     1    35
  1.2549226391221781E+01 a       436     0     9     1    36
 -2.5939829146125764E+01 a       437     0     9     1    37
 -6.0136434324847858E+02 a       438     0     9     1    38
 -4.0146674585565492E+01 a       439     0     9     1    39
 -1.5910392461907790E+01 a       440     0     9     1    40
 -2.1633887442972375E+02 a       441     0     9     1    41
 -2.5673957756559764E+02 a       442     0     9     1    42
  5.0756149450743997E+01 a       443     0     9     1    43
  2.9578152926140280E+01 a       444     0     9     1    44
  8.5135922377465846E+01 a       445     0     9     1    45
 -6.4845871289564698E+01 a       446     0     9     1    46
  1.6687064852917551E+01 a       447     0     9     1    47
 -3.6632838119744804E+01 a       448     0     9     1    48
 -1.8713334569093792E+02 a       449     0     9     1    49
 -2.1678404956850475E+01 a       450     0     9     1    50
  7.7523342830585245E+00 a       451     0    10     1     1
  2.8588516343079167E+01 a       452     0    10     1     2
 -1.4603189896261367E+02 a       453     0    10     1     3
  4.1492553233740580E+01 a       454     0    10     1     4
  4.7670445458944059E+01 a       455     0    10     1     5
  3.6453050550729770E+01 a       456     0    10     1     6
  5.2225785172266059E+00 a       457     0    10     1     7
  3.1390408569897971E+01 a       458     0    10     1     8
  8.7739165547975944E+00 a       459     0    10     1     9
  1.7821926016198555E+02 a       460     0    10     1    10
 -2.6429094628432876E+00 a       461     0    10     1    11
 -1.3338085263819231E+01 a       462     0    10     1    12
  3.5755503524225070E+01 a       463     0    10     1    13
  9.1891340683333254E+01 a       464     0    10     1    14
 -4.3581248366778375E+01 a       465     0    10     1    15
 -1.3821410516612552E+01 a       466     0    10     1    16
 -1.9316399274665656E+02 a       467     0    10     1    17
  5.9082150600086294E+01 a       468     0    10     1    18
 -6.9411808108654085E+01 a       469     0    10     1    19
  2.7630011160674549E+01 a       470     0    10     1    20
  9.3138180593170773E+01 a       471     0    10     1    21
  1.2654894155808210E+01 a       472     0    10     1    22
  3.8028725410788326E+01 a       473     0    10     1    23
  1.3681602840281093E+01 a       474     0    10     1    24
 -2.6575502844261598E+02 a       475     0    10     1    25
 -1.8405648774674251E+01 a       476     0    10     1    26
 -8.6442514204129438E+01 a       477     0    10     1    27
 -2.3296521955793182E+01 a       478     0    10     1    28
 -8.7829714963542287E+00 a       479     0    10     1    29
 -1.4214528237600829E+01 a       480     0    10     1    30
  3.3095679801122557E+01 a       481     0    10     1    31
  4.9985575186802635E+01 a       482     0    10     1    32
  8.8919990162211860E+01 a       483     0    10     1    33
 -2.3084282627432725E+02 a       484     0    10     1    34
 -5.0092017119568206E+00 a       485     0    10     1    35
 -4.0738013078377236E+01 a       486     0    10     1    36
 -1.8843003466393458E+01 a       487     0    10     1    37
 -2.3822888388316935E+02 a       488     0    10     1    38
  4.1528100621275911E+01 a       489     0    10     1    39
  1.2949403474491323E+01 a       490     0    10     1    40
 -6.7360556453529782E+01 a       491     0    10     1    41
 -5.0775360344868776E+00 a       492     0    10     1    42
 -3.2014959811277784E+01 a       493     0    10     1    43
 -1.8483078235963137E+00 a       494     0    10     1    44
 -1.8867558337327726E+01 a       495     0    10     1    45
 -4.5474150627120601E+01 a       496     0    10     1    46
  4.2448614127897464E+01 a       497     0    10     1    47
  5.6405536575780850E+01 a       498     0    10     1    48
  2.1074533341800805E+00 a       499     0    10     1    49
 -5.8104578084958014E+01 a       500     0    10     1    50
  8.8302297772788663E+00 a       501     0    11     1     1
 -3.5506255781878117E+01 a       502     0    11     1     2
 -1.2457143587804688E+02 a       503     0    11     1     3
  5.9696704689231488E+01 a       504     0    11     1     4
  5.0284576901105972E+01 a       505     0    11     1     5
  5.2214788138577283E+01 a       506     0    11     1     6
  1.4912444190974465E+01 a       507     0    11     1     7
  1.9198894866589665E+01 a       508     0    11     1     8
  1.9541380439827520E+01 a       509     0    11     1     9
  1.3017949140222822E+02 a       510     0    11     1    10
 -2.3664137699916639E+00 a       511     0    11     1    11
 -5.2057510272869481E+00 a       512     0    11     1    12
  6.3737106229750630E+01 a       513     0    11     1    13
  1.5097003779380870E+02 a       514     0    11     1    14
 -4.9490808923134303E+01 a       515     0    11     1    15
 -2.6950659434662413E+01 a       516     0    11     1    16
 -1.1618495090594219E+02 a       517     0    11     1    17
  6.6215496677384564E+01 a       518     0    11     1    18
 -9.1123415729003156E+01 a       519     0    11     1    19
  3.4700713583136483E+01 a       520     0    11     1    20
  9.7004347261364003E+01 a       521     0    11     1    21
  2.2091950288685400E+01 a       522     0    11     1    22
  5.6427578859470188E+01 a       523     0    11     1    23
  1.8039907697320043E+01 a       524     0    11     1    24
 -2.3255663368194513E+02 a       525     0    11     1    25
 -1.1462214674216799E+01 a       526     0    11     1    26
 -1.0644985406927869E+02 a       527     0    11     1    27
 -2.6948523632984156E+01 a       528     0    11     1    28
  2.5143918029757220E+01 a       529     0    11     1    29
 -3.1198757545299028E+01 a       530     0    11     1    30
 -2.8132310680251745E+01 a       531     0    11     1    31
  5.9859037948970780E+01 a       532     0    11     1    32
  1.0085608835596911E+02 a       533     0    11     1    33
 -2.0197908592257718E+02 a       534     0    11     1    34
 -4.2419831316170242E-01 a       535     0    11     1    35
 -5.2645746432175059E+01 a       536     0    11     1    36
 -2.8818928613329486E+01 a       537     0    11     1    37
 -2.2890747214975673E+02 a       538     0    11     1    38
  4.4419341085392851E+01 a       539     0    11     1    39
  3.7433400840157539E+01 a       540     0    11     1    40
 -6.6245544084778217E+01 a       541     0    11     1    41
  2.3585024659045544E+01 a       542     0    11     1    42
 -3.2399840325149547E+01 a       543     0    11     1    43
 -9.8140590237859318E+00 a       544     0    11     1    44
  1.1054703257917029E+00 a       545     0    11     1    45
 -5.7738276177566782E+01 a       546     0    11     1    46
  1.9830880278863443E+01 a       547     0    11     1    47
  6.9707832525226650E+01 a       548     0    11     1    48
  4.9576765736324788E+01 a       549     0    11     1    49
 -5.1075627710105117E+01 a       550     0    11     1    50
  1.4602174106335626E+01 a       551     0    12     1     1
  1.1917263792036084E+02 a       552     0    12     1     2
 -2.0313819485718210E+02 a       553     0    12     1     3
  3.2305852121205632E+01 a       554     0    12     1     4
  6.6061345519488214E+01 a       555     0    12     1     5
  1.2914787204458474E+01 a       556     0    12     1     6
 -5.7163716802424647E+00 a       557     0    12     1     7
  5.9788537454159226E+01 a       558     0    12     1     8
 -2.1716068216698350E+00 a       559     0    12     1     9
  3.5575607903777069E+02 a       560     0    12     1    10
  7.4052120245770006E+00 a       561     0    12     1    11
 -2.0263338606624998E+01 a       562     0    12     1    12
  9.7450437641478143E+00 a       563     0    12     1    13
  7.1565837452601473E+00 a       564     0    12     1    14
 -2.5122545612708251E+01 a       565     0    12     1    15
 -8.8869737092743772E-01 a       566     0    12     1    16
 -3.9188200487607116E+02 a       567     0    12     1    17
  4.3646952952483723E+01 a       568     0    12     1    18
 -4.4471484690705189E+01 a       569     0    12     1    19
  1.5411828379841005E+01 a       570     0    12     1    20
  9.9030717185574517E+01 a       571     0    12     1    21
  6.8064654485630420E+00 a       572     0    12     1    22
  3.9573925347418388E+00 a       573     0    12     1    23
  2.2489234531850414E+01 a       574     0    12     1    24
 -3.7013771324125986E+02 a       575     0    12     1    25
 -4.0477922942455180E+01 a       576     0    12     1    26
 -6.6332157582424500E+01 a       577     0    12     1    27
 -1.9406960533028336E+01 a       578     0    12     1    28
 -4.1956169334652280E+01 a       579     0    12     1    29
 -6.4933912865759842E+00 a       580     0    12     1    30
  1.2904662643645315E+02 a       581     0    12     1    31
  4.5384501923162766E+01 a       582     0    12     1    32
  6.1795739243718096E+01 a       583     0    12     1    33
 -3.3581150562376524E+02 a       584     0    12     1    34
 -2.0720525258537940E+01 a       585     0    12     1    35
 -2.1391330850960248E+01 a       586     0    12     1    36
 -1.2318665144428699E+01 a       587     0    12     1    37
 -3.0238424232083690E+02 a       588     0    12     1    38
  4.5340851544934999E+01 a       589     0    12     1    39
 -1.2033543642792241E+01 a       590     0    12     1    40
 -7.1029057593958285E+01 a       591     0    12     1    41
 -6.5436441950807179E+01 a       592     0    12     1    42
 -2.5987517824469236E+01 a       593     0    12     1    43
  6.7126907921837171E+00 a       594     0    12     1    44
 -1.9562675792054087E+01 a       595     0    12     1    45
 -4.8270358959016114E+01 a       596     0    12     1    46
  6.7000356769921353E+01 a       597     0    12     1    47
  4.1624198742923298E+01 a       598     0    12     1    48
 -7.5442438960073005E+01 a       599     0    12     1    49
 -6.4759460474196075E+01 a       600     0    12     1    50
 -6.5020614794770655E+00 a       601     0    13     1     1
 -1.6522464489613157E+02 a       602     0    13     1     2
  1.1429338758423802E+02 a       603     0    13     1     3
  3.5996071434816969E+01 a       604     0    13     1     4
 -2.8055393858454927E+01 a       605     0    13     1     5
  3.6606537396418553E+01 a       606     0    13     1     6
  8.4918534459319321E+00 a       607     0    13     1     7
 -1.6911505419301488E+01 a       608     0    13     1     8
 -1.6686547153135809E+01 a       609     0    13     1     9
 -5.6653835923749409E+02 a       610     0    13     1    10
 -3.9953080880177417E+01 a       611     0    13     1    11
 -2.1945665114204207E+01 a       612     0    13     1    12
  5.7117857281636965E+01 a       613     0    13     1    13
  3.1834524234226254E+01 a       614     0    13     1    14
 -1.3588048370180758E+01 a       615     0    13     1    15
 -5.1507877064408099E+01 a       616     0    13     1    16
  6.3985081423503414E+02 a       617     0    13     1    17
  5.5690856359221797E+01 a       618     0    13     1    18
  7.4274025934652466E-01 a       619     0    13     1    19
  3.0942177850432987E+01 a       620     0    13     1    20
 -4.5596965946060337E+01 a       621     0    13     1    21
  4.7459505938755107E+01 a       622     0    13     1    22
  8.5286360458458901E+01 a       623     0    13     1    23
 -7.1650607385553684E+01 a       624     0    13     1    24
  4.8266018645239177E+02 a       625     0    13     1    25
  1.0717837859764828E+02 a       626     0    13     1    26
 -9.4731892492269800E+00 a       627     0    13     1    27
 -1.0878406056421255E+01 a       628     0    13     1    28
  2.6033398454454954E+01 a       629     0    13     1    29
 -4.7307286173624966E+01 a       630     0    13     1    30
 -8.3551821016751362E+01 a       631     0    13     1    31
  3.5874216716465945E+01 a       632     0    13     1    32
 -2.3401939194916679E+01 a       633     0    13     1    33
  3.8188779853494435E+02 a       634     0    13     1    34
  1.4231520709749621E+01 a       635     0    13     1    35
 -1.7666044134073580E+01 a       636     0    13     1    36
 -1.9643376387342409E-01 a       637     0    13     1    37
  4.7918827590100716E+02 a       638     0    13     1    38
  7.8777148252568963E+01 a       639     0    13     1    39
  6.0402861951262246E+01 a       640     0    13     1    40
  2.2042613804423402E+02 a       641     0    13     1    41
  2.0301923913853190E+02 a       642     0    13     1    42
 -3.5526217498875646E+01 a       643     0    13     1    43
 -6.2741653180953755E+01 a       644     0    13     1    44
  3.9771929806898978E+00 a       645     0    13     1    45
 -2.5077230536057964E+01 a       646     0    13     1    46
 -9.0259702927763158E+01 a       647     0    13     1    47
  6.8364470610593003E+01 a       648     0    13     1    48
  2.3313884531480156E+02 a       649     0    13     1    49
  7.4873154005854062E+01 a       650     0    13     1    50
  8.6910861676490654E+01 a       651     0    14     1     1
 -7.2537697405753505E+01 a       652     0    14     1     2
  2.0649049336730860E+02 a       653     0    14     1     3
 -1.0450296627660720E+02 a       654     0    14     1     4
 -2.5309513135419273E+01 a       655     0    14     1     5
 -9.0513922946987662E+01 a       656     0    14     1     6
  1.2645388307517587E+00 a       657     0    14     1     7
 -4.3528822387455932E+01 a       658     0    14     1     8
  7.5493987837171332E+01 a       659     0    14     1     9
 -1.7288623863059357E+02 a       660     0    14     1    10
 -6.0313159742126942E+01 a       661     0    14     1    11
  3.9948353118187512E+01 a       662     0    14     1    12
 -8.1371555447142914E+00 a       663     0    14     1    13
 -1.6731028328000349E+02 a       664     0    14     1    14
  8.5974058367442822E+01 a       665     0    14     1    15
  1.2172170676724589E+01 a       666     0    14     1    16
  2.4467693149454175E+02 a       667     0    14     1    17
 -1.4372481927363975E+02 a       668     0    14     1    18
  9.5461912755909708E+01 a       669     0    14     1    19
 -5.9063038661687010E+01 a       670     0    14     1    20
 -1.3661504808880829E+02 a       671     0    14     1    21
 -5.6973835982215512E+01 a       672     0    14     1    22
 -8.9067733930814583E+01 a       673     0    14     1    23
 -2.0229261331657529E+01 a       674     0    14     1    24
  4.6057153394561249E+02 a       675     0    14     1    25
  7.2580728614433937E+01 a       676     0    14     1    26
  1.4448207364558482E+02 a       677     0    14     1    27
  4.5942576423217886E+01 a       678     0    14     1    28
 -4.4761906015380553E+01 a       679     0    14     1    29
 -8.5636684357059121E+00 a       680     0    14     1    30
 -1.3405475983014513E+01 a       681     0    14     1    31
 -8.9330595057317890E+00 a       682     0    14     1    32
 -2.3343200781242950E+02 a       683     0    14     1    33
  3.9164061670598852E+02 a       684     0    14     1    34
 -3.3311056382004416E+01 a       685     0    14     1    35
  1.0113903858852378E+01 a       686     0    14     1    36
  4.6383138269288118E+00 a       687     0    14     1    37
  1.9765939611502424E+02 a       688     0    14     1    38
 -1.1403433876629830E+02 a       689     0    14     1    39
  5.7340471737389964E-01 a       690     0    14     1    40
  5.1146417270642317E+01 a       691     0    14     1    41
  1.7405953244679189E+01 a       692     0    14     1    42
  5.4232929323425580E+01 a       693     0    14     1    43
  9.5335790731174853E+01 a       694     0    14     1    44
  1.0751655506533558E+02 a       695     0    14     1    45
 -6.5468246061654270E+01 a       696     0    14     1    46
 -1.3100946491646653E+02 a       697     0    14     1    47
 -1.1039345544306487E+02 a       698     0    14     1    48
 -6.5856769115994013E+01 a       699     0    14     1    49
  2.1646960360236955E+02 a       700     0    14     1    50
 -5.2625321552871810E+01 a       701     0    15     1     1
  9.9627972991656847E+01 a       702     0    15     1     2
  1.5517424656021228E+02 a       703     0    15     1     3
 -8.6651054752539750E+01 a       704     0    15     1     4
 -7.4715610723008524E+01 a       705     0    15     1     5
 -3.9378354951333549E+01 a       706     0    15     1     6
 -5.8587432434619791E+00 a       707     0    15     1     7
 -6.7260303397948690E+01 a       708     0    15     1     8
 -4.9604696939820776E+01 a       709     0    15     1     9
 -2.8459057339320282E+01 a       710     0    15     1    10
  4.6267576188129347E+01 a       711     0    15     1    11
  5.0817792984877940E+01 a       712     0    15     1    12
 -8.5228368057379654E+01 a       713     0    15     1    13
 -1.6213810315441094E+02 a       714     0    15     1    14
  7.3895857771869728E+01 a       715     0    15     1    15
  6.1505742974974723E+01 a       716     0    15     1    16
 -9.0629071218521020E+01 a       717     0    15     1    17
 -1.2470622655836982E+02 a       718     0    15     1    18
  1.1071122186308804E+02 a       719     0    15     1    19
 -9.1484241277054167E+01 a       720     0    15     1    20
 -1.1970083960638328E+02 a       721     0    15     1    21
 -4.3827437140063871E+01 a       722     0    15     1    22
 -1.2138918239099273E+02 a       723     0    15     1    23
  1.8685406800427079E-01 a       724     0    15     1    24
  1.0096772457985546E+01 a       725     0    15     1    25
 -3.2747834090659609E+01 a       726     0    15     1    26
  1.6003448322698378E+02 a       727     0    15     1    27
  4.8390040269004366E+01 a       728     0    15     1    28
  3.6245073119793105E+01 a       729     0    15     1    29
  6.5076748216874421E+01 a       730     0    15     1    30
  9.8649641506276300E+00 a       731     0    15     1    31
 -1.4100625144582116E+02 a       732     0    15     1    32
 -2.1068111253795767E+01 a       733     0    15     1    33
  9.2724915708433869E+01 a       734     0    15     1    34
 -9.1126525607558118E-01 a       735     0    15     1    35
  8.3699760136961061E+01 a       736     0    15     1    36
  1.4221752268191029E+01 a       737     0    15     1    37
  1.0025936633535905E+02 a       738     0    15     1    38
 -1.3004146963508504E+02 a       739     0    15     1    39
 -4.2382352204540140E+01 a       740     0    15     1    40
 -3.2136707379386905E+01 a       741     0    15     1    41
 -1.2630720132183299E+02 a       742     0    15     1    42
  1.3240353520284887E+02 a       743     0    15     1    43
 -2.1224803148614491E+01 a       744     0    15     1    44
  1.7463437538053274E+01 a       745     0    15     1    45
  1.9498086702990454E+02 a       746     0    15     1    46
  4.1684086906349719E+01 a       747     0    15     1    47
 -1.3149814153261417E+02 a       748     0    15     1    48
 -1.4298650072107517E+02 a       749     0    15     1    49
 -1.0853014633317417E+02 a       750     0    15     1    50
 -4.3781316556046185E+01 a       751     0    16     1     1
  3.1149023198995547E+01 a       752     0    16     1     2
  4.1776862037229684E+01 a       753     0    16     1     3
  1.4187336124103183E+00 a       754     0    16     1     4
 -3.3634917026664873E+01 a       755     0    16     1     5
 -1.1748979625815071E+01 a       756     0    16     1     6
 -4.2786988291862837E-01 a       757     0    16     1     7
 -3.0025634229975214E+01 a       758     0    16     1     8
 -4.6796871897203275E+01 a       759     0    16     1     9
 -6.5463327600583028E+01 a       760     0    16     1    10
  3.7904295001633379E+01 a       761     0    16     1    11
  1.2614106114718904E+01 a       762     0    16     1    12
 -2.3757049688231742E+01 a       763     0    16     1    13
 -1.0758910678180499E+01 a       764     0    16     1    14
  2.2247875112413645E+01 a       765     0    16     1    15
  1.9905708734262461E+01 a       766     0    16     1    16
  7.9867773623716420E+00 a       767     0    16     1    17
 -1.9223663206685604E+01 a       768     0    16     1    18
  2.2194007739739821E+01 a       769     0    16     1    19
 -7.1869241365448024E+00 a       770     0    16     1    20
 -2.9857104806723573E+01 a       771     0    16     1    21
 -2.3331951845354655E+00 a       772     0    16     1    22
 -8.4695096112837334E+00 a       773     0    16     1    23
  1.7780983761445619E+00 a       774     0    16     1    24
 -4.0055938993740028E+01 a       775     0    16     1    25
 -2.1729999154774475E+01 a       776     0    16     1    26
  3.4692326796323030E+01 a       777     0    16     1    27
  5.9254392996611829E+00 a       778     0    16     1    28
  9.8623649034892907E+01 a       779     0    16     1    29
  2.1434608274726848E+01 a       780     0    16     1    30
 -2.1164785491847645E+01 a       781     0    16     1    31
 -5.4823656468449755E+01 a       782     0    16     1    32
  5.1883399910192423E+01 a       783     0    16     1    33
  4.4782139285132967E+00 a       784     0    16     1    34
  1.7565580421367482E+01 a       785     0    16     1    35
  3.8239366642343384E+01 a       786     0    16     1    36
  4.8142068533340501E+00 a       787     0    16     1    37
  6.6477679761788224E+01 a       788     0    16     1    38
 -9.6040402176902369E+00 a       789     0    16     1    39
 -9.8410467323879089E+00 a       790     0    16     1    40
  1.1954488871792154E+01 a       791     0    16     1    41
 -2.9063026276567037E+01 a       792     0    16     1    42
  2.6746608055083630E+01 a       793     0    16     1    43
 -4.2137922878159117E+01 a       794     0    16     1    44
 -1.0200902077664471E+01 a       795     0    16     1    45
  9.0466524684445460E+01 a       796     0    16     1    46
  3.2709525378277291E+01 a       797     0    16     1    47
 -2.4330552214125106E+01 a       798     0    16     1    48
 -3.2785048796484579E+00 a       799     0    16     1    49
 -9.9853996006468591E+01 a       800     0    16     1    50
  1.7100714248992787E+01 a       801     0    17     1     1
 -9.5602533302696511E+00 a       802     0    17     1     2
 -1.6621309689696510E+01 a       803     0    17     1     3
  4.4950225145159690E+00 a       804     0    17     1     4
  9.6713151511409166E+00 a       805     0    17     1     5
 -2.1844664097170277E+01 a       806     0    17     1     6
 -2.3465572737778770E+00 a       807     0    17     1     7
  6.1818036489594075E+00 a       808     0    17     1     8
  8.5438974613324010E+00 a       809     0    17     1     9
  1.8483781478822596E+01 a       810     0    17     1    10
 -7.9775348552991812E+00 a       811     0    17     1    11
 -1.1226018985280490E+01 a       812     0    17     1    12
  4.4642270739432801E+00 a       813     0    17     1    13
  1.1106273992718792E+01 a       814     0    17     1    14
  1.2018515484613288E+00 a       815     0    17     1    15
 -3.3960187191967983E+00 a       816     0    17     1    16
 -5.1759148873617622E-01 a       817     0    17     1    17
 -3.4120424225838764E+00 a       818     0    17     1    18
 -1.3296279113702390E+01 a       819     0    17     1    19
  1.7009415160941959E+01 a       820     0    17     1    20
  8.5099716023801566E+00 a       821     0    17     1    21
 -6.4344505104433996E+00 a       822     0    17     1    22
  1.2427486744231121E+01 a       823     0    17     1    23
 -5.7530681882110351E+00 a       824     0    17     1    24
  3.5041626558349983E+00 a       825     0    17     1    25
  4.0845992879242159E+00 a       826     0    17     1    26
 -1.1375883564331644E+01 a       827     0    17     1    27
 -3.9759171728603047E+00 a       828     0    17     1    28
  4.5173385393584757E+00 a       829     0    17     1    29
 -7.1393970330207486E+00 a       830     0    17     1    30
  5.8764625801421895E+00 a       831     0    17     1    31
  2.0162263112095726E+01 a       832     0    17     1    32
 -9.8202966902071314E+00 a       833     0    17     1    33
 -5.5847863034035266E+00 a       834     0    17     1    34
 -7.2562717589256620E-01 a       835     0    17     1    35
 -8.8476981518139830E+00 a       836     0    17     1    36
  1.3557787891461437E+00 a       837     0    17     1    37
 -2.5331457216610715E+01 a       838     0    17     1    38
  1.4505128538630458E+01 a       839     0    17     1    39
 -4.9853372168546901E+00 a       840     0    17     1    40
  2.0957631800878632E-01 a       841     0    17     1    41
  8.1606064627081416E+00 a       842     0    17     1    42
 -2.9221179795048371E+01 a       843     0    17     1    43
  1.7611183002709254E+01 a       844     0    17     1    44
 -1.0515350009215352E+00 a       845     0    17     1    45
 -4.5823492521183411E+01 a       846     0    17     1    46
 -1.3118889259552910E+01 a       847     0    17     1    47
  5.6958052828442884E+00 a       848     0    17     1    48
  3.2916009075001340E+00 a       849     0    17     1    49
  2.1871487880062141E+01 a       850     0    17     1    50
  2.3312835469920592E+00 a       851     0    18     1     1
 -4.7913845229295360E+00 a       852     0    18     1     2
 -7.2882997520876946E+00 a       853     0    18     1     3
  4.6097373564423254E+00 a       854     0    18     1     4
  5.5562739447171676E+00 a       855     0    18     1     5
  1.0138730408469302E+01 a       856     0    18     1     6
  1.6635887106148683E-01 a       857     0    18     1     7
  3.9245971376797573E+00 a       858     0    18     1     8
  3.2301101225131017E+00 a       859     0    18     1     9
  2.4829183538387771E+00 a       860     0    18     1    10
 -3.7177516635624781E+00 a       861     0    18     1    11
 -4.2974516158088436E-02 a       862     0    18     1    12
  6.2059257301560402E+00 a       863     0    18     1    13
  5.7515785977473284E+00 a       864     0    18     1    14
 -6.3341765932922112E+00 a       865     0    18     1    15
 -4.4767669995280173E+00 a       866     0    18     1    16
  1.3130567264733455E+00 a       867     0    18     1    17
  7.5397956374208430E+00 a       868     0    18     1    18
 -2.9039572667619376E+00 a       869     0    18     1    19
 -2.3780938219995093E-01 a       870     0    18     1    20
  6.2428938745046594E+00 a       871     0    18     1    21
  5.1731955462890262E+00 a       872     0    18     1    22
  2.8531041704022044E+00 a       873     0    18     1    23
  1.3520688468866378E+00 a       874     0    18     1    24
 -1.0589582574534042E+00 a       875     0    18     1    25
  2.6818745877161811E+00 a       876     0    18     1    26
 -8.4352746389843105E+00 a       877     0    18     1    27
 -1.7163417417271121E+00 a       878     0    18     1    28
 -1.2215153894850669E+01 a       879     0    18     1    29
 -4.6234650075022508E+00 a       880     0    18     1    30
  3.4472823408719799E-01 a       881     0    18     1    31
  5.8606684019158823E+00 a       882     0    18     1    32
  7.6249066813138844E-01 a       883     0    18     1    33
 -5.4718552200617721E+00 a       884     0    18     1    34
 -2.2519485510442698E+00 a       885     0    18     1    35
 -4.7612628464410829E+00 a       886     0    18     1    36
 -2.3975764906077184E+00 a       887     0    18     1    37
 -3.8362450558508252E+00 a       888     0    18     1    38
  2.4997379109794422E+00 a       889     0    18     1    39
  6.8032560628803251E+00 a       890     0    18     1    40
 -2.5203199331929232E-01 a       891     0    18     1    41
  5.8266284100707333E+00 a       892     0    18     1    42
 -1.0813391782118953E-01 a       893     0    18     1    43
 -2.2734034644786800E+00 a       894     0    18     1    44
  1.9205202903471623E+00 a       895     0    18     1    45
 -4.0353990374305262E+00 a       896     0    18     1    46
 -2.7210094764249173E+00 a       897     0    18     1    47
  7.6630595544250282E+00 a       898     0    18     1    48
  6.3617789566699434E+00 a       899     0    18     1    49
  5.8505582554364040E+00 a       900     0    18     1    50
 -5.7877308813687016E+01 a       901     0    19     1     1
 -4.0321532853814688E+02 a       902     0    19     1     2
  2.2882748989291699E+02 a       903     0    19     1     3
 -4.9343519179062611E+01 a       904     0    19     1     4
 -8.3898591745411125E+01 a       905     0    19     1     5
  8.5946837352136129E+01 a       906     0    19     1     6
 -3.0572718216559127E+00 a       907     0    19     1     7
  1.4810410297994535E+01 a       908     0    19     1     8
  1.2607845412171929E+02 a       909     0    19     1     9
  3.8935778190479402E+02 a       910     0    19     1    10
  1.9317648491010942E+02 a       911     0    19     1    11
 -3.4201978175374713E+01 a       912     0    19     1    12
  2.0878454110950024E+01 a       913     0    19     1    13
  2.7806954897598723E+02 a       914     0    19     1    14
 -1.8946111886258592E+02 a       915     0    19     1    15
  9.8963973638162788E+00 a       916     0    19     1    16
  6.1860914601873551E+00 a       917     0    19     1    17
  5.1943128694527054E+01 a       918     0    19     1    18
  5.9322556528994589E+01 a       919     0    19     1    19
  2.5176849548334108E+01 a       920     0    19     1    20
 -6.9608652210556372E+01 a       921     0    19     1    21
  4.9500179106402349E+01 a       922     0    19     1    22
  5.6015670089648467E+01 a       923     0    19     1    23
 -6.9435085386532354E+00 a       924     0    19     1    24
  4.1548884257267730E+01 a       925     0    19     1    25
 -1.3591357116008393E+01 a       926     0    19     1    26
 -6.4941003730292710E+00 a       927     0    19     1    27
 -4.6785885864339264E+01 a       928     0    19     1    28
 -4.6486923262892148E+01 a       929     0    19     1    29
 -2.7733127279738881E+00 a       930     0    19     1    30
 -4.3322479832299246E+02 a       931     0    19     1    31
 -1.0225407049251024E+02 a       932     0    19     1    32
  8.9680376322856674E+01 a       933     0    19     1    33
  3.1550414496400379E+02 a       934     0    19     1    34
  1.4397150625684691E+02 a       935     0    19     1    35
 -2.8727975359633859E+02 a       936     0    19     1    36
 -5.1193754392616356E+01 a       937     0    19     1    37
 -1.0350697362465446E+02 a       938     0    19     1    38
 -2.1648315284075315E+02 a       939     0    19     1    39
  1.1216322065797809E+02 a       940     0    19     1    40
 -2.9817836072619019E+02 a       941     0    19     1    41
  2.4467614549174823E+02 a       942     0    19     1    42
 -1.8763515389402105E+01 a       943     0    19     1    43
 -2.3159587283619487E+01 a       944     0    19     1    44
 -4.8410432165304286E+01 a       945     0    19     1    45
  1.4678720221484070E+02 a       946     0    19     1    46
 -6.4880883169187001E+01 a       947     0    19     1    47
 -5.7686909765062808E+01 a       948     0    19     1    48
 -5.0423462606070466E+01 a       949     0    19     1    49
  4.1442195909009392E+01 a       950     0    19     1    50
  5.6599646279554117E+00 a       951     0    20     1     1
 -3.9749056666993658E+02 a       952     0    20     1     2
 -1.4018893537903423E+01 a       953     0    20     1     3
 -9.9990960146174757E+01 a       954     0    20     1     4
  3.2260506318701644E+01 a       955     0    20     1     5
 -2.2056165729083979E+01 a       956     0    20     1     6
  8.8575415463151884E+01 a       957     0    20     1     7
 -1.6706534914411651E+02 a       958     0    20     1     8
  9.7102433061990368E+01 a       959     0    20     1     9
  3.0231760553522219E+02 a       960     0    20     1    10
 -1.4832751268971194E+02 a       961     0    20     1    11
 -1.0310305504520920E+02 a       962     0    20     1    12
 -8.5193661341066601E+01 a       963     0    20     1    13
 -1.4423586332861346E+01 a       964     0    20     1    14
 -1.3706822067199093E+02 a       965     0    20     1    15
 -1.8561278623999048E+01 a       966     0    20     1    16
  8.4228203368006533E+01 a       967     0    20     1    17
 -1.5392794133921663E+02 a       968     0    20     1    18
  8.4391600388312597E+01 a       969     0    20     1    19
 -3.2729895651534918E+02 a       970     0    20     1    20
  2.5597312576539537E+02 a       971     0    20     1    21
 -1.4048430541422934E+02 a       972     0    20     1    22
 -2.5719970423529873E+02 a       973     0    20     1    23
  2.8265160602655612E+01 a       974     0    20     1    24
 -2.1022474418119316E+01 a       975     0    20     1    25
  2.6061286618307173E+02 a       976     0    20     1    26
 -1.5733236228364581E+02 a       977     0    20     1    27
  9.6735561469190667E+00 a       978     0    20     1    28
 -3.6412977401600997E+01 a       979     0    20     1    29
  2.2056599522808290E+02 a       980     0    20     1    30
 -1.1461435039171619E+02 a       981     0    20     1    31
 -8.5422854098033227E+01 a       982     0    20     1    32
 -9.5666996595537682E+01 a       983     0    20     1    33
  3.2546765473569963E+02 a       984     0    20     1    34
  2.7403122977200990E+01 a       985     0    20     1    35
 -3.5141433775055724E+01 a       986     0    20     1    36
 -4.3634556900437794E+01 a       987     0    20     1    37
 -1.6910944934800182E+02 a       988     0    20     1    38
 -1.2859806019662744E+02 a       989     0    20     1    39
  7.0637656644375284E+01 a       990     0    20     1    40
 -4.3665845740043187E+02 a       991     0    20     1    41
  2.1838907803376742E+02 a       992     0    20     1    42
  4.6521047205615474E+01 a       993     0    20     1    43
 -8.6344107738140607E+01 a       994     0    20     1    44
  1.6776799472966078E+02 a       995     0    20     1    45
 -7.3039619351589053E+01 a       996     0    20     1    46
 -3.5505707991587833E+01 a       997     0    20     1    47
  1.3044206551076439E+01 a       998     0    20     1    48
 -1.6962273720289352E+02 a       999     0    20     1    49
  1.5338198274068625E+02 a      1000     0    20     1    50
  2.5994428755307723E+01 a      1001     0    21     1     1
 -1.2303385172714620E+01 a      1002     0    21     1     2
 -1.9279571304760856E+02 a      1003     0    21     1     3
  3.4360378112133311E+01 a      1004     0    21     1     4
  1.9417626020480853E+01 a      1005     0    21     1     5
  4.4046046973340935E+01 a      1006     0    21     1     6
  1.1643561370915144E+02 a      1007     0    21     1     7
 -1.2108925164393722E+02 a      1008     0    21     1     8
 -1.2366748849149715E+02 a      1009     0    21     1     9
 -1.4960546698234452E+02 a      1010     0    21     1    10
  1.8297352187965650E+01 a      1011     0    21     1    11
  1.9304123671555065E+01 a      1012     0    21     1    12
 -1.3277216381690192E+02 a      1013     0    21     1    13
 -1.2468948839381247E+02 a      1014     0    21     1    14
  3.1731991735102980E+02 a      1015     0    21     1    15
 -1.4370924015104723E+02 a      1016     0    21     1    16
 -5.3142667563149608E+00 a      1017     0    21     1    17
  3.1187483420300271E+01 a      1018     0    21     1    18
 -3.0415289281153741E+02 a      1019     0    21     1    19
  1.2461306473774034E+01 a      1020     0    21     1    20
 -9.8340205296191343E+01 a      1021     0    21     1    21
 -4.8153530357869649E+01 a      1022     0    21     1    22
 -1.6187736551180700E+02 a      1023     0    21     1    23
  4.4137318587072485E+01 a      1024     0    21     1    24
 -5.7039543676058862E+01 a      1025     0    21     1    25
 -4.1538047271790413E+02 a      1026     0    21     1    26
  9.3916059251129127E+01 a      1027     0    21     1    27
  6.0888672220391065E+01 a      1028     0    21     1    28
  1.3667679514239248E+01 a      1029     0    21     1    29
  7.2895904061162867E+01 a      1030     0    21     1    30
  4.3471999165166160E+01 a      1031     0    21     1    31
  2.8380367711287761E+01 a      1032     0    21     1    32
 -1.3284962452949307E+02 a      1033     0    21     1    33
 -9.0228205492388213E+01 a      1034     0    21     1    34
 -1.3251904026856687E+02 a      1035     0    21     1    35
 -4.2439058524765905E+01 a      1036     0    21     1    36
  1.2521593366774314E+02 a      1037     0    21     1    37
  2.1293320182000535E+01 a      1038     0    21     1    38
 -7.0090524268609400E+00 a      1039     0    21     1    39
 -1.6701396255558151E+02 a      1040     0    21     1    40
  1.0174350459740759E+02 a      1041     0    21     1    41
  5.7790969687882388E+01 a      1042     0    21     1    42
  5.8092014236773977E+01 a      1043     0    21     1    43
  2.1815895755193139E+02 a      1044     0    21     1    44
 -2.5951973134273000E+01 a      1045     0    21     1    45
 -1.6007289433158252E+02 a      1046     0    21     1    46
  1.8022364400041428E+00 a      1047     0    21     1    47
 -9.1471843925951816E+01 a      1048     0    21     1    48
  1.9639095746722941E+02 a      1049     0    21     1    49
 -1.1881729596067454E+02 a      1050     0    21     1    50
 -1.0677415526224803E+02 a      1051     0    22     1     1
 -7.3388630847011984E+02 a      1052     0    22     1     2
  4.0868070097031148E+02 a      1053     0    22     1     3
  1.3030083743863341E+02 a      1054     0    22     1     4
  4.5144029835023424E+01 a      1055     0    22     1     5
  3.1592079581127170E+01 a      1056     0    22     1     6
  1.1563455082476531E+02 a      1057     0    22     1     7
  1.7216756262731860E+02 a      1058     0    22     1     8
 -2.6416430761641855E+01 a      1059     0    22     1     9
  4.9290906046051748E+02 a      1060     0    22     1    10
  1.9062949164402988E+02 a      1061     0    22     1    11
 -3.3715825373964805E+01 a      1062     0    22     1    12
  1.3584309355431571E+01 a      1063     0    22     1    13
 -4.0257891233702743E+01 a      1064     0    22     1    14
  3.7992699303120833E+02 a      1065     0    22     1    15
  8.2384522448903255E+01 a      1066     0    22     1    16
  4.6639545141609347E+02 a      1067     0    22     1    17
 -1.2529275331083831E+01 a      1068     0    22     1    18
  4.9483705241045598E+01 a      1069     0    22     1    19
 -4.6813163008078490E+01 a      1070     0    22     1    20
 -2.3369205981617959E+01 a      1071     0    22     1    21
  5.2939579842936311E+01 a      1072     0    22     1    22
 -2.1340065769251535E+02 a      1073     0    22     1    23
  1.2176122564416124E+02 a      1074     0    22     1    24
  1.6425088790607197E+02 a      1075     0    22     1    25
 -2.1774108141728544E+02 a      1076     0    22     1    26
 -1.5997108304289540E+02 a      1077     0    22     1    27
 -1.2025501226762647E+02 a      1078     0    22     1    28
 -4.1794522065336501E+00 a      1079     0    22     1    29
  8.1942965718857739E+00 a      1080     0    22     1    30
 -2.4795438754748108E+02 a      1081     0    22     1    31
  7.7941074179183998E+00 a      1082     0    22     1    32
 -2.3253789875821557E+01 a      1083     0    22     1    33
  7.3879537181420432E+01 a      1084     0    22     1    34
 -1.5663276705330765E+02 a      1085     0    22     1    35
 -1.5856861101312202E+02 a      1086     0    22     1    36
  2.5449961575573649E+01 a      1087     0    22     1    37
  1.2382720847899165E+02 a      1088     0    22     1    38
  7.4647684306014369E+01 a      1089     0    22     1    39
  1.4120562508686815E+01 a      1090     0    22     1    40
 -6.3402596122740121E+01 a      1091     0    22     1    41
  9.4845968081608145E+00 a      1092     0    22     1    42
  1.1296636122362681E+02 a      1093     0    22     1    43
 -7.1842346315422631E+01 a      1094     0    22     1    44
  2.0294234103423758E+01 a      1095     0    22     1    45
 -1.2048326578257434E+02 a      1096     0    22     1    46
  8.1685624605359664E+01 a      1097     0    22     1    47
 -1.1591983946594254E+02 a      1098     0    22     1    48
  2.1904955621909141E+02 a      1099     0    22     1    49
  9.1492348254085883E+01 a      1100     0    22     1    50
 -5.9397063556531599E+01 a      1101     0    23     1     1
  5.8610073317029980E+02 a      1102     0    23     1     2
 -6.2468422411875459E+01 a      1103     0    23     1     3
  1.1728400119096929E+02 a      1104     0    23     1     4
  1.4809072236107903E+02 a      1105     0    23     1     5
 -9.6301037305855530E+01 a      1106     0    23     1     6
 -3.6258451938014339E+01 a      1107     0    23     1     7
  2.2367706594095193E+02 a      1108     0    23     1     8
 -2.0575114409683437E+02 a      1109     0    23     1     9
 -3.5862272030103571E+02 a      1110     0    23     1    10
 -1.3050683032366808E+02 a      1111     0    23     1    11
 -1.7608115145350578E+01 a      1112     0    23     1    12
  2.8468586550600058E+01 a      1113     0    23     1    13
 -1.9501394803651735E+02 a      1114     0    23     1    14
  1.5519802843716454E+02 a      1115     0    23     1    15
  7.6399661849935498E+01 a      1116     0    23     1    16
  1.2504369558489238E+02 a      1117     0    23     1    17
 -8.4439636830177051E+01 a      1118     0    23     1    18
  1.1990066531067727E+02 a      1119     0    23     1    19
  1.4420893910038959E+01 a      1120     0    23     1    20
  6.3302367923161135E+01 a      1121     0    23     1    21
  4.0768723644649043E+01 a      1122     0    23     1    22
  1.9910182441319262E+02 a      1123     0    23     1    23
 -3.3764992803502153E+01 a      1124     0    23     1    24
  7.8077113621859819E+00 a      1125     0    23     1    25
  3.1179791949356263E+02 a      1126     0    23     1    26
  5.3894631412860704E+01 a      1127     0    23     1    27
 -1.1646930159208804E+02 a      1128     0    23     1    28
 -4.4465827768938269E+01 a      1129     0    23     1    29
 -1.0944607567740520E+02 a      1130     0    23     1    30
  6.6293244353420152E+02 a      1131     0    23     1    31
  1.3220835699047015E+02 a      1132     0    23     1    32
 -6.0479174477714807E+01 a      1133     0    23     1    33
 -3.9482186554087468E+02 a      1134     0    23     1    34
 -1.6890179560723817E+02 a      1135     0    23     1    35
  2.7422954416334642E+02 a      1136     0    23     1    36
  5.7739683082365019E+01 a      1137     0    23     1    37
  4.0872762577966199E+01 a      1138     0    23     1    38
  2.1374802561735265E+02 a      1139     0    23     1    39
  3.1108827191748851E+01 a      1140     0    23     1    40
  3.9448730334118267E+02 a      1141     0    23     1    41
 -2.3200109300568326E+02 a      1142     0    23     1    42
 -6.1343791869845177E+01 a      1143     0    23     1    43
 -9.5960467638000722E+01 a      1144     0    23     1    44
  4.9846469435639676E+01 a      1145     0    23     1    45
 -9.2477442249263177E+01 a      1146     0    23     1    46
  4.1311305987785133E+01 a      1147     0    23     1    47
  8.2437725826448016E+00 a      1148     0    23     1    48
 -4.5389156432709669E+01 a      1149     0    23     1    49
 -2.9298717869357194E+01 a      1150     0    23     1    50
  3.1272583780388644E+01 a      1151     0    24     1     1
  5.9245558126883907E+02 a      1152     0    24     1     2
 -2.7005208409902986E+02 a      1153     0    24     1     3
 -1.0517526332122425E+02 a      1154     0    24     1     4
 -6.2147033692247156E+01 a      1155     0    24     1     5
 -2.8915717649548377E+01 a      1156     0    24     1     6
  4.8424094394860660E+01 a      1157     0    24     1     7
 -8.1219493101121088E+01 a      1158     0    24     1     8
 -1.2583726857047679E+01 a      1159     0    24     1     9
 -3.6362199123529990E+02 a      1160     0    24     1    10
 -1.1631825620626138E+02 a      1161     0    24     1    11
 -4.0559894730812879E+01 a      1162     0    24     1    12
 -4.3790164075938677E+01 a      1163     0    24     1    13
  5.3224598406452159E+01 a      1164     0    24     1    14
 -1.1078273602336998E+02 a      1165     0    24     1    15
 -4.9724810155390941E+01 a      1166     0    24     1    16
 -2.8587720949266492E+02 a      1167     0    24     1    17
  3.4447388145944778E+01 a      1168     0    24     1    18
 -1.3901058609937192E+02 a      1169     0    24     1    19
 -2.7312817325996321E+00 a      1170     0    24     1    20
 -1.0771146389112374E+02 a      1171     0    24     1    21
 -8.5645096644841018E+01 a      1172     0    24     1    22
  2.0437939506518688E+02 a      1173     0    24     1    23
 -1.0503765424048785E+02 a      1174     0    24     1    24
 -4.5735727768072849E+01 a      1175     0    24     1    25
  8.8691792509947021E+01 a      1176     0    24     1    26
  1.3705625303619416E+02 a      1177     0    24     1    27
 -3.8731010024824791E+01 a      1178     0    24     1    28
 -5.8232536232624819E+00 a      1179     0    24     1    29
  5.0367491608800528E+01 a      1180     0    24     1    30
  1.9034998409331578E+02 a      1181     0    24     1    31
  9.3830924673175886E+01 a      1182     0    24     1    32
 -7.0030392127975361E+01 a      1183     0    24     1    33
 -2.8566738958379625E+02 a      1184     0    24     1    34
  5.6785688692794238E+00 a      1185     0    24     1    35
  1.4725735953514521E+02 a      1186     0    24     1    36
  2.6977358795550973E+01 a      1187     0    24     1    37
 -1.2044875492214997E+02 a      1188     0    24     1    38
 -2.5561842448353403E+01 a      1189     0    24     1    39
 -1.1700744586109208E+01 a      1190     0    24     1    40
  2.0667097473102919E+02 a      1191     0    24     1    41
 -6.2684857677040121E+01 a      1192     0    24     1    42
 -2.2752426703809494E+01 a      1193     0    24     1    43
  1.6523647791745015E+02 a      1194     0    24     1    44
 -1.5821851169994185E+01 a      1195     0    24     1    45
  1.2370143123895044E+01 a      1196     0    24     1    46
 -4.0624383090301585E+01 a      1197     0    24     1    47
 -1.7365860120672032E+00 a      1198     0    24     1    48
 -6.0579436527140089E+01 a      1199     0    24     1    49
 -1.1812398954564604E+02 a      1200     0    24     1    50
 -9.8051336442967099E+00 a      1201     0    25     1     1
 -1.8345490764155489E+01 a      1202     0    25     1     2
  1.8168307988819211E+02 a      1203     0    25     1     3
 -7.3667007425130336E+01 a      1204     0    25     1     4
 -2.2020907424316231E+01 a      1205     0    25     1     5
 -5.8469875456763788E+01 a      1206     0    25     1     6
 -1.3880681773050313E+02 a      1207     0    25     1     7
  7.2747353947118171E+01 a      1208     0    25     1     8
  1.5276798428209125E+02 a      1209     0    25     1     9
  1.5492597915433416E+02 a      1210     0    25     1    10
 -6.9724247701228080E+01 a      1211     0    25     1    11
 -1.7193117297231264E+00 a      1212     0    25     1    12
  1.2683092517072235E+02 a      1213     0    25     1    13
  1.0988975977578090E+02 a      1214     0    25     1    14
 -3.7719227022668360E+02 a      1215     0    25     1    15
  1.2292875843440535E+02 a      1216     0    25     1    16
 -2.2291733418742616E+01 a      1217     0    25     1    17
 -1.0938508109716475E+01 a      1218     0    25     1    18
  2.9816470601455927E+02 a      1219     0    25     1    19
 -1.6683127455218486E+01 a      1220     0    25     1    20
  1.5124401022711388E+02 a      1221     0    25     1    21
  8.3069795483177238E+00 a      1222     0    25     1    22
  1.1218031790084943E+02 a      1223     0    25     1    23
 -3.4284199330635282E+01 a      1224     0    25     1    24
  5.4450734534290405E+01 a      1225     0    25     1    25
  4.5388475091011674E+02 a      1226     0    25     1    26
 -1.2185094825969446E+02 a      1227     0    25     1    27
  6.7648906668493813E+00 a      1228     0    25     1    28
  7.0458789053067434E+01 a      1229     0    25     1    29
 -3.5122043255980905E+01 a      1230     0    25     1    30
 -7.8753561648685832E+01 a      1231     0    25     1    31
 -3.7365721117587924E+01 a      1232     0    25     1    32
  1.1591586420306770E+02 a      1233     0    25     1    33
  1.0383360068576219E+02 a      1234     0    25     1    34
  1.5086807234468009E+02 a      1235     0    25     1    35
  8.2004648402993055E+01 a      1236     0    25     1    36
 -1.3035180366096245E+02 a      1237     0    25     1    37
 -1.7126729493747838E+01 a      1238     0    25     1    38
  3.2035388272417435E+01 a      1239     0    25     1    39
  1.2076676085156576E+02 a      1240     0    25     1    40
 -1.1605279087094435E+02 a      1241     0    25     1    41
 -9.4189480498076648E+01 a      1242     0    25     1    42
 -4.6703510950353888E+01 a      1243     0    25     1    43
 -1.8435138070859384E+02 a      1244     0    25     1    44
  5.1520777123702828E+01 a      1245     0    25     1    45
  1.6071768287434483E+02 a      1246     0    25     1    46
  4.7005604941598493E+00 a      1247     0    25     1    47
  1.0327788151983370E+02 a      1248     0    25     1    48
 -2.1206640084147656E+02 a      1249     0    25     1    49
  1.4710639293338787E+02 a      1250     0    25     1    50
  7.3070605715993608E+01 a      1251     0    26     1     1
  8.1032653460970118E+02 a      1252     0    26     1     2
 -3.2189919136085780E+02 a      1253     0    26     1     3
  2.2102058933833973E+01 a      1254     0    26     1     4
 -9.6543200036827727E+01 a      1255     0    26     1     5
  1.6152162038047781E+01 a      1256     0    26     1     6
 -1.1819510813591842E+01 a      1257     0    26     1     7
  5.0002166067857267E+01 a      1258     0    26     1     8
 -2.5563596502939625E+01 a      1259     0    26     1     9
 -5.5130542559044761E+02 a      1260     0    26     1    10
  5.2040816115084617E+01 a      1261     0    26     1    11
  1.7202774220247534E+01 a      1262     0    26     1    12
  4.2311207820112806E+01 a      1263     0    26     1    13
  7.2444336477627488E+01 a      1264     0    26     1    14
 -2.5107303265726301E+02 a      1265     0    26     1    15
 -7.2774624359796194E+00 a      1266     0    26     1    16
 -3.9877679992362840E+02 a      1267     0    26     1    17
  2.2277645914790085E+02 a      1268     0    26     1    18
 -1.0003614612464436E+02 a      1269     0    26     1    19
  1.4262201973024312E+02 a      1270     0    26     1    20
 -1.6249186252016452E+02 a      1271     0    26     1    21
 -1.2737017775083620E+01 a      1272     0    26     1    22
  4.0929575841370672E+02 a      1273     0    26     1    23
 -1.1860417077783016E+02 a      1274     0    26     1    24
 -1.6259286640443568E+02 a      1275     0    26     1    25
  4.1488663892466839E+01 a      1276     0    26     1    26
  2.1694351056736259E+01 a      1277     0    26     1    27
 -1.4658585211781844E+01 a      1278     0    26     1    28
  6.5448055944901114E+01 a      1279     0    26     1    29
 -1.1244052965944074E+02 a      1280     0    26     1    30
  3.8291618040098604E+02 a      1281     0    26     1    31
  1.2448113750151138E+02 a      1282     0    26     1    32
  1.3829053404840536E+02 a      1283     0    26     1    33
 -1.2986051455632378E+02 a      1284     0    26     1    34
  7.0883757515121331E+01 a      1285     0    26     1    35
  4.2221686040870956E+01 a      1286     0    26     1    36
 -6.3548562957490233E+01 a      1287     0    26     1    37
 -3.0780960062719970E+01 a      1288     0    26     1    38
 -1.3672701962343442E+01 a      1289     0    26     1    39
 -4.7128615156969651E+01 a      1290     0    26     1    40
  2.1656310504407773E+02 a      1291     0    26     1    41
  1.9506558453820208E+01 a      1292     0    26     1    42
  2.6083981978884488E+01 a      1293     0    26     1    43
  1.3013708032395712E+02 a      1294     0    26     1    44
 -1.7156127364579424E+02 a      1295     0    26     1    45
  1.1475351600550442E+02 a      1296     0    26     1    46
  1.0974920002065137E+02 a      1297     0    26     1    47
  4.1406269376374560E+01 a      1298     0    26     1    48
 -1.2581388593617453E+02 a      1299     0    26     1    49
 -1.5441141629447637E+02 a      1300     0    26     1    50
 -9.1177447971558323E+01 a      1301     0    27     1     1
 -4.5676241640629769E+02 a      1302     0    27     1     2
 -1.2101861316768311E+01 a      1303     0    27     1     3
 -1.8923665435000441E+01 a      1304     0    27     1     4
 -2.4383897012937798E+01 a      1305     0    27     1     5
 -8.6082043051284813E+01 a      1306     0    27     1     6
  1.0430606615651268E+02 a      1307     0    27     1     7
  7.4969077818248337E+01 a      1308     0    27     1     8
  1.5777113089674467E+02 a      1309     0    27     1     9
  4.8470639130211723E+01 a      1310     0    27     1    10
  8.9047723904143240E+01 a      1311     0    27     1    11
  2.9288311075451974E+00 a      1312     0    27     1    12
  3.3222931396058854E+01 a      1313     0    27     1    13
 -1.5407996276352287E+02 a      1314     0    27     1    14
 -4.2809030210940413E+01 a      1315     0    27     1    15
 -3.0099249497590066E+01 a      1316     0    27     1    16
  9.8345867723939421E+01 a      1317     0    27     1    17
 -3.2211423243775975E+01 a      1318     0    27     1    18
  6.0271060968310096E+01 a      1319     0    27     1    19
 -1.9557926957503238E+02 a      1320     0    27     1    20
  1.7333484572029425E+02 a      1321     0    27     1    21
  1.3413722652157023E+02 a      1322     0    27     1    22
 -1.9280065721463200E+02 a      1323     0    27     1    23
 -9.0957653323456029E+01 a      1324     0    27     1    24
  3.7545453112568879E+01 a      1325     0    27     1    25
  2.2304685379064519E+01 a      1326     0    27     1    26
 -7.2432621406162241E+01 a      1327     0    27     1    27
  1.0482273600530352E+01 a      1328     0    27     1    28
  6.7811082544313294E+01 a      1329     0    27     1    29
  3.7267066415784633E+00 a      1330     0    27     1    30
 -2.3242633476857517E+02 a      1331     0    27     1    31
 -2.0561437109136214E+01 a      1332     0    27     1    32
  6.4735629075317320E+01 a      1333     0    27     1    33
  1.8118795067978664E+02 a      1334     0    27     1    34
  4.0703105311317863E+01 a      1335     0    27     1    35
 -1.3811885870328751E+02 a      1336     0    27     1    36
 -9.7102253320140250E+01 a      1337     0    27     1    37
 -2.0751671613729997E+01 a      1338     0    27     1    38
  8.3347673259611156E+01 a      1339     0    27     1    39
  2.7847548527946664E+01 a      1340     0    27     1    40
 -2.3007202069711633E+02 a      1341     0    27     1    41
 -3.7321327484093800E+01 a      1342     0    27     1    42
  1.0916751298537045E+02 a      1343     0    27     1    43
 -3.4483210549273963E+01 a      1344     0    27     1    44
  4.8159064060987433E+01 a      1345     0    27     1    45
  1.4829577080606271E+01 a      1346     0    27     1    46
  1.3227154669313751E+02 a      1347     0    27     1    47
  1.3504877891227113E+02 a      1348     0    27     1    48
  3.5724704371520801E+01 a      1349     0    27     1    49
  1.0085178889235610E+02 a      1350     0    27     1    50
 -6.3021704971254010E+01 a      1351     0    28     1     1
 -3.9612315839114096E+01 a      1352     0    28     1     2
 -3.3245370840763876E+01 a      1353     0    28     1     3
 -8.5305047906145759E+01 a      1354     0    28     1     4
 -6.0210881134476089E+01 a      1355     0    28     1     5
 -4.0826406058822741E+01 a      1356     0    28     1     6
  5.1936400529253937E+01 a      1357     0    28     1     7
  2.7830194426953526E+01 a      1358     0    28     1     8
  8.6672855879921926E+01 a      1359     0    28     1     9
 -9.4628855875788801E+01 a      1360     0    28     1    10
  4.6301412257188979E+01 a      1361     0    28     1    11
  3.4702966745093455E+00 a      1362     0    28     1    12
  1.2230399826523932E+01 a      1363     0    28     1    13
  2.6815502674675749E+01 a      1364     0    28     1    14
 -2.5416676001933276E+01 a      1365     0    28     1    15
 -3.3170471908081346E+01 a      1366     0    28     1    16
 -4.9800880328270139E+01 a      1367     0    28     1    17
  4.2536752095905337E+00 a      1368     0    28     1    18
 -5.2196316146719205E+01 a      1369     0    28     1    19
 -4.8355167247965184E+01 a      1370     0    28     1    20
 -3.7891634948147988E+01 a      1371     0    28     1    21
  5.8916323910849371E+01 a      1372     0    28     1    22
  2.2455838307727063E+01 a      1373     0    28     1    23
 -1.0618562673977047E+02 a      1374     0    28     1    24
  7.6535129880607926E+01 a      1375     0    28     1    25
 -2.8177403059994578E+01 a      1376     0    28     1    26
  1.0253679927768009E+02 a      1377     0    28     1    27
 -3.1739924154715926E+01 a      1378     0    28     1    28
  2.3029423346388128E+01 a      1379     0    28     1    29
  5.3360483400837806E+00 a      1380     0    28     1    30
 -1.6488120872541992E+02 a      1381     0    28     1    31
  1.0025651507308284E+01 a      1382     0    28     1    32
 -4.7959722267044141E-01 a      1383     0    28     1    33
 -9.5190887318147688E+01 a      1384     0    28     1    34
  2.3648049377956131E+01 a      1385     0    28     1    35
 -3.4591334091124239E+01 a      1386     0    28     1    36
 -1.1850968693011838E+01 a      1387     0    28     1    37
 -3.3077136356732758E+01 a      1388     0    28     1    38
  2.4392796158560593E+01 a      1389     0    28     1    39
  3.7534753220231345E+01 a      1390     0    28     1    40
  3.3922234663838232E+01 a      1391     0    28     1    41
 -9.7332956368746991E+01 a      1392     0    28     1    42
  1.4668981255080030E+01 a      1393     0    28     1    43
  6.3665219451391607E+01 a      1394     0    28     1    44
 -7.7648129622725106E+00 a      1395     0    28     1    45
  4.8210899655066243E+01 a      1396     0    28     1    46
  2.4480973429661708E+00 a      1397     0    28     1    47
  4.8960550615053435E+01 a      1398     0    28     1    48
  5.1676444713059794E+01 a      1399     0    28     1    49
 -1.6122106969958633E+01 a      1400     0    28     1    50
  4.2051041093106187E+00 a      1401     0    29     1     1
  1.9850260291316641E+02 a      1402     0    29     1     2
 -2.5127169444699001E+02 a      1403     0    29     1     3
  3.5294916989593382E+01 a      1404     0    29     1     4
  4.7107147843399183E+01 a      1405     0    29     1     5
 -1.0649432782807025E+02 a      1406     0    29     1     6
  4.4498407509613482E+00 a      1407     0    29     1     7
  1.9460461990052377E+01 a      1408     0    29     1     8
  5.7505020498872224E+00 a      1409     0    29     1     9
 -2.8523590831031424E+02 a      1410     0    29     1    10
 -8.0746918159938232E+01 a      1411     0    29     1    11
  3.9294238252589430E+01 a      1412     0    29     1    12
  2.7264333857727156E+01 a      1413     0    29     1    13
 -2.4538885772714397E+02 a      1414     0    29     1    14
 -3.0534030771345559E+01 a      1415     0    29     1    15
 -1.2125282600136408E+01 a      1416     0    29     1    16
 -1.0256748466575482E+02 a      1417     0    29     1    17
 -1.9329561791183806E+01 a      1418     0    29     1    18
  3.6421029393011423E+01 a      1419     0    29     1    19
 -6.6206002176127399E+01 a      1420     0    29     1    20
  1.6531378207806594E+02 a      1421     0    29     1    21
  7.8449977785560847E+01 a      1422     0    29     1    22
 -5.7703911194366704E+01 a      1423     0    29     1    23
 -7.3140156829538768E+01 a      1424     0    29     1    24
 -9.3612414125000910E+01 a      1425     0    29     1    25
  1.0910133655958302E+02 a      1426     0    29     1    26
 -6.3206604857845960E-01 a      1427     0    29     1    27
  6.2913521793104820E+01 a      1428     0    29     1    28
  5.3415528868376619E+01 a      1429     0    29     1    29
 -5.5970571383768892E+01 a      1430     0    29     1    30
  2.5174042788150948E+02 a      1431     0    29     1    31
  5.6909813006937149E+01 a      1432     0    29     1    32
  2.7397955029966713E+01 a      1433     0    29     1    33
 -6.5088346158175909E+01 a      1434     0    29     1    34
 -6.5534311101781739E+00 a      1435     0    29     1    35
  1.1056132817835609E+02 a      1436     0    29     1    36
 -6.0661162523983712E+01 a      1437     0    29     1    37
  1.6227421821156277E+01 a      1438     0    29     1    38
  1.5914409241109189E+02 a      1439     0    29     1    39
 -5.5125582165388835E+01 a      1440     0    29     1    40
  3.8715056928527311E+01 a      1441     0    29     1    41
 -1.4293317872945963E+02 a      1442     0    29     1    42
  3.6549224017864681E+01 a      1443     0    29     1    43
 -3.7237709333013704E+01 a      1444     0    29     1    44
  2.4277398159793698E+01 a      1445     0    29     1    45
 -3.7869231906592113E+01 a      1446     0    29     1    46
  1.2683527169408369E+02 a      1447     0    29     1    47
  1.6032593321337657E+02 a      1448     0    29     1    48
 -1.3763223467371743E+01 a      1449     0    29     1    49
  1.2858030374541464E+01 a      1450     0    29     1    50
 -1.9610563786946251E+01 a      1451     0    30     1     1
  3.4314026691938341E+02 a      1452     0    30     1     2
 -1.2541879077925842E+02 a      1453     0    30     1     3
 -8.8413646075194720E+01 a      1454     0    30     1     4
 -4.5717403484986747E+01 a      1455     0    30     1     5
 -3.2794591736785009E+01 a      1456     0    30     1     6
 -3.5795462111094150E+00 a      1457     0    30     1     7
 -6.3159762929037928E+00 a      1458     0    30     1     8
  7.0853825678005649E+00 a      1459     0    30     1     9
 -2.6522447751976841E+02 a      1460     0    30     1    10
 -3.0561049475361663E+01 a      1461     0    30     1    11
  1.5538651974187879E+01 a      1462     0    30     1    12
  3.3473421878271385E+00 a      1463     0    30     1    13
  5.3243002692347254E+01 a      1464     0    30     1    14
 -1.8398115948469929E+01 a      1465     0    30     1    15
 -2.8956990446369673E+01 a      1466     0    30     1    16
 -1.7545508877023076E+02 a      1467     0    30     1    17
  2.2489715041339334E+01 a      1468     0    30     1    18
 -9.9100378535904269E+01 a      1469     0    30     1    19
  4.7855787026616476E+01 a      1470     0    30     1    20
 -1.0826250716219340E+02 a      1471     0    30     1    21
  1.4781250000768587E+01 a      1472     0    30     1    22
  1.4964595865383308E+02 a      1473     0    30     1    23
 -1.0454672609787205E+02 a      1474     0    30     1    24
  3.7628543273722862E+01 a      1475     0    30     1    25
 -1.2212534726283089E+01 a      1476     0    30     1    26
  1.8643662472287664E+02 a      1477     0    30     1    27
 -2.6588667198402145E+01 a      1478     0    30     1    28
  3.9517184404186336E+00 a      1479     0    30     1    29
 -1.8055275200810847E+01 a      1480     0    30     1    30
  2.7440266116788674E+01 a      1481     0    30     1    31
  5.1059302701729798E+01 a      1482     0    30     1    32
 -3.7619362778187579E+01 a      1483     0    30     1    33
 -2.7415963455001065E+02 a      1484     0    30     1    34
  2.3704389143370159E+00 a      1485     0    30     1    35
  9.2324449373882359E+01 a      1486     0    30     1    36
  2.9529719813342869E+01 a      1487     0    30     1    37
 -2.4278993837952989E+01 a      1488     0    30     1    38
  3.1094361238912970E+01 a      1489     0    30     1    39
  1.0282933181995441E+01 a      1490     0    30     1    40
  2.2793383875035761E+02 a      1491     0    30     1    41
 -1.5949820952769841E+02 a      1492     0    30     1    42
 -4.0970951757247065E+01 a      1493     0    30     1    43
  9.9980571150558376E+01 a      1494     0    30     1    44
 -3.0805513720147790E+01 a      1495     0    30     1    45
  4.0827825056932902E+01 a      1496     0    30     1    46
 -4.0538321886781695E+01 a      1497     0    30     1    47
  2.6017114513859255E+01 a      1498     0    30     1    48
  3.6992201793533653E+01 a      1499     0    30     1    49
 -8.7151613582064385E+01 a      1500     0    30     1    50
  3.3733323315643069E+01 a      1501     0    31     1     1
  2.7271260197288166E+02 a      1502     0    31     1     2
  2.7334573908882458E+01 a      1503     0    31     1     3
  1.5109424741447315E+01 a      1504     0    31     1     4
  4.9331516385362178E+01 a      1505     0    31     1     5
  4.5464463684117611E+01 a      1506     0    31     1     6
  4.3939331055489506E+00 a      1507     0    31     1     7
  6.0551063698326764E+01 a      1508     0    31     1     8
 -1.3108704074064931E+02 a      1509     0    31     1     9
 -1.8810561115008107E+02 a      1510     0    31     1    10
  9.3455453797804946E+00 a      1511     0    31     1    11
 -3.6300429671973376E+01 a      1512     0    31     1    12
 -2.4694849566059858E+01 a      1513     0    31     1    13
 -5.4614627725130980E+01 a      1514     0    31     1    14
  6.8646404683513708E+01 a      1515     0    31     1    15
  1.1430048762280332E+01 a      1516     0    31     1    16
  9.8780083799094328E+01 a      1517     0    31     1    17
  4.6473176654140666E+01 a      1518     0    31     1    18
  3.1420079577011877E+00 a      1519     0    31     1    19
 -7.4017519489069166E+00 a      1520     0    31     1    20
 -9.7465075833011326E+01 a      1521     0    31     1    21
 -1.0029336934219992E+02 a      1522     0    31     1    22
  1.1997740524038674E+02 a      1523     0    31     1    23
  8.6181700686595430E+00 a      1524     0    31     1    24
  3.2500539628788779E+01 a      1525     0    31     1    25
 -1.5754393922813370E-01 a      1526     0    31     1    26
 -9.9317688909250830E+00 a      1527     0    31     1    27
 -8.5820106353868795E+01 a      1528     0    31     1    28
 -3.5466345741395262E+00 a      1529     0    31     1    29
  3.2244090945281542E+01 a      1530     0    31     1    30
  3.8496339448223063E+02 a      1531     0    31     1    31
  8.2863894381603075E+01 a      1532     0    31     1    32
 -2.6581864419901599E+01 a      1533     0    31     1    33
 -1.2152312746383241E+02 a      1534     0    31     1    34
 -1.1915189408979219E+02 a      1535     0    31     1    35
  1.7357139786860984E+01 a      1536     0    31     1    36
  4.2027772203473631E+01 a      1537     0    31     1    37
  8.9631068033199043E+01 a      1538     0    31     1    38
 -5.3283539808893741E+00 a      1539     0    31     1    39
  2.0560654849684752E+01 a      1540     0    31     1    40
  2.8010646361114510E+02 a      1541     0    31     1    41
  2.5300706732867926E+01 a      1542     0    31     1    42
  2.1751340637366187E+01 a      1543     0    31     1    43
  3.3940947974940933E+01 a      1544     0    31     1    44
  1.1865521796753944E+01 a      1545     0    31     1    45
  8.2841132052002102E+00 a      1546     0    31     1    46
 -3.5405467856669489E+01 a      1547     0    31     1    47
 -9.2690680536459169E+01 a      1548     0    31     1    48
 -6.3703924883164674E+01 a      1549     0    31     1    49
 -6.9377010128615055E+01 a      1550     0    31     1    50
 -2.4091357735285954E+00 a      1551     0    32     1     1
  2.9454526869089995E+02 a      1552     0    32     1     2
  2.0722029905947664E+01 a      1553     0    32     1     3
  9.6896632891645908E+01 a      1554     0    32     1     4
  9.1344894562677851E+01 a      1555     0    32     1     5
  2.5139022373798326E+01 a      1556     0    32     1     6
 -7.5902325245433047E+01 a      1557     0    32     1     7
  1.8134563984987668E+02 a      1558     0    32     1     8
 -1.7043019094997140E+02 a      1559     0    32     1     9
 -2.2210044174252661E+02 a      1560     0    32     1    10
  6.3644224571453819E+01 a      1561     0    32     1    11
  2.4001666991831453E+01 a      1562     0    32     1    12
  3.0862545013891804E+01 a      1563     0    32     1    13
 -1.0920141701095159E+02 a      1564     0    32     1    14
  9.9731983271789389E+01 a      1565     0    32     1    15
  3.4300526752818612E+01 a      1566     0    32     1    16
  1.0308439027108007E+02 a      1567     0    32     1    17
  2.8781303018367137E+01 a      1568     0    32     1    18
  6.6386951161572242E+01 a      1569     0    32     1    19
  6.1693328089789503E+01 a      1570     0    32     1    20
 -2.9288670847564447E+01 a      1571     0    32     1    21
  4.4132144514522224E+01 a      1572     0    32     1    22
  1.5604581065134306E+02 a      1573     0    32     1    23
 -2.4857978704882937E+00 a      1574     0    32     1    24
 -8.1321903692598081E+00 a      1575     0    32     1    25
  1.3639077866784472E+01 a      1576     0    32     1    26
  1.7646973892154548E+01 a      1577     0    32     1    27
 -6.7571049398549221E+01 a      1578     0    32     1    28
 -9.5253432008850538E+00 a      1579     0    32     1    29
 -1.1918833304452525E+02 a      1580     0    32     1    30
  4.3631872399406876E+02 a      1581     0    32     1    31
  5.3667870995967768E+01 a      1582     0    32     1    32
  4.0741251302235959E+01 a      1583     0    32     1    33
 -9.4438754904610732E+01 a      1584     0    32     1    34
 -9.7642360951477457E+01 a      1585     0    32     1    35
  1.8542048038179267E+01 a      1586     0    32     1    36
  4.9020914664991686E+01 a      1587     0    32     1    37
  1.3163059660346801E+02 a      1588     0    32     1    38
  7.5921366014369681E+01 a      1589     0    32     1    39
  4.5790445187982378E+01 a      1590     0    32     1    40
  2.7183079936908996E+02 a      1591     0    32     1    41
 -5.9225352524281249E+01 a      1592     0    32     1    42
 -2.1096479777060956E+01 a      1593     0    32     1    43
 -6.5139664658770059E+01 a      1594     0    32     1    44
 -1.3452366646532090E+01 a      1595     0    32     1    45
  1.8730050528098875E+01 a      1596     0    32     1    46
  2.0123757850336425E+01 a      1597     0    32     1    47
 -3.3208168074794642E+01 a      1598     0    32     1    48
 -3.8995908284957189E+01 a      1599     0    32     1    49
 -5.0846774264786411E+01 a      1600     0    32     1    50
  1.1281343551192568E+02 a      1601     0    33     1     1
  1.5016232731871315E+02 a      1602     0    33     1     2
 -9.7157356534670114E+01 a      1603     0    33     1     3
 -1.4266964489464814E+02 a      1604     0    33     1     4
 -2.9170570272126493E+01 a      1605     0    33     1     5
  6.2405714134761325E+00 a      1606     0    33     1     6
 -6.6754863208259593E+01 a      1607     0    33     1     7
 -3.0434611452052860E+02 a      1608     0    33     1     8
  2.7211625263731555E+01 a      1609     0    33     1     9
 -9.1143763038227604E+01 a      1610     0    33     1    10
 -2.0049119002819347E+02 a      1611     0    33     1    11
  2.7045527018809317E+01 a      1612     0    33     1    12
 -5.3761465755477431E+01 a      1613     0    33     1    13
  4.1094475515725136E+01 a      1614     0    33     1    14
 -3.1740998529772668E+01 a      1615     0    33     1    15
 -3.6312902317040319E+01 a      1616     0    33     1    16
 -1.6748238923195740E+02 a      1617     0    33     1    17
 -6.5636062375856037E+00 a      1618     0    33     1    18
 -1.0822244095597546E+02 a      1619     0    33     1    19
  6.1545040262780347E+01 a      1620     0    33     1    20
 -8.5447479635626081E+01 a      1621     0    33     1    21
 -1.4863946404965819E+02 a      1622     0    33     1    22
 -9.1310469470892897E+01 a      1623     0    33     1    23
