################################################################################
# Neural network connection values (weights and biases).
################################################################################
# Col  Name       Description
################################################################################
# 1    connection Neural network connection value.
# 2    t          Connection type (a = weight, b = bias).
# 3    index      Index enumerating weights.
# 4    l_s        Starting point layer (end point layer for biases).
# 5    n_s        Starting point neuron in starting layer (end point neuron for biases).
# 6    l_e        End point layer.
# 7    n_e        End point neuron in end layer.
################################################################################
#                      1 2         3     4     5     6     7
#             connection t     index   l_s   n_s   l_e   n_e
############################################################
 -7.7313853955063351E+01 a         1     0     1     1     1
  6.8362460047325840E+01 a         2     0     1     1     2
 -5.2103550483716575E+01 a         3     0     1     1     3
 -5.0356302753742547E+01 a         4     0     1     1     4
 -4.1332288093223809E+01 a         5     0     1     1     5
 -3.7564013795903484E+00 a         6     0     1     1     6
  1.8769002744722048E+00 a         7     0     1     1     7
 -7.5024209043308232E+01 a         8     0     1     1     8
  1.1880688907930406E+01 a         9     0     1     1     9
 -3.2126543147491049E+01 a        10     0     1     1    10
 -2.2961300118588319E+01 a        11     0     1     1    11
 -6.2728565001667207E+01 a        12     0     1     1    12
  2.9112613933216238E+00 a        13     0     1     1    13
  3.1375463608670152E+01 a        14     0     1     1    14
 -1.0304490501710987E+01 a        15     0     1     1    15
  1.3602131788748602E+02 a        16     0     1     1    16
  3.4296384556484128E+01 a        17     0     1     1    17
 -1.6039987318385958E+01 a        18     0     1     1    18
 -1.8109115627257932E+01 a        19     0     1     1    19
  3.5127468503231121E+01 a        20     0     1     1    20
  1.3385734964418706E+01 a        21     0     1     1    21
 -2.6886794793721709E+01 a        22     0     1     1    22
  1.3504014715943628E+01 a        23     0     1     1    23
  1.0445405126800162E+01 a        24     0     1     1    24
 -2.3416545404454961E+01 a        25     0     1     1    25
 -1.0682180296321452E+02 a        26     0     1     1    26
  2.1594349130803568E+01 a        27     0     1     1    27
  2.2371308664463243E+02 a        28     0     1     1    28
 -4.3232371143185240E+01 a        29     0     1     1    29
 -1.1183111015080458E+01 a        30     0     1     1    30
 -7.6730823232813435E+01 a        31     0     1     1    31
  3.4929239710829805E+01 a        32     0     1     1    32
  7.8545528383386653E+01 a        33     0     1     1    33
 -4.8351028409706061E+01 a        34     0     1     1    34
  6.7347975043520734E+00 a        35     0     1     1    35
 -2.6426105797591735E+01 a        36     0     1     1    36
  3.7337016273220818E+00 a        37     0     1     1    37
 -1.1177700772043830E+01 a        38     0     1     1    38
  3.0287387960140165E+01 a        39     0     1     1    39
  3.5067100083233875E+01 a        40     0     1     1    40
 -4.7248406256118933E+00 a        41     0     1     1    41
  1.8234578736700533E+02 a        42     0     1     1    42
  1.6588594410630066E+01 a        43     0     1     1    43
 -6.8581732544887686E+01 a        44     0     1     1    44
  6.0515140991106840E+01 a        45     0     1     1    45
 -1.9650992097502115E+01 a        46     0     1     1    46
  3.5991005294756314E+02 a        47     0     1     1    47
  5.9254007651056718E+01 a        48     0     1     1    48
 -5.7238859506150177E+01 a        49     0     1     1    49
 -8.3309093673110226E+00 a        50     0     1     1    50
 -6.6097502178590105E+01 a        51     0     2     1     1
  5.6059771349574568E+01 a        52     0     2     1     2
 -4.6643488149316909E+01 a        53     0     2     1     3
 -5.5953245091223792E+01 a        54     0     2     1     4
 -3.3919255859778495E+01 a        55     0     2     1     5
 -3.7207602025469027E+00 a        56     0     2     1     6
  1.2420246738316199E+00 a        57     0     2     1     7
 -5.8628422010891235E+01 a        58     0     2     1     8
  1.6617259726885500E+01 a        59     0     2     1     9
 -2.6453410238937714E+01 a        60     0     2     1    10
 -1.8828807003541431E+01 a        61     0     2     1    11
 -5.4215036850087230E+01 a        62     0     2     1    12
  2.6343623885903562E+00 a        63     0     2     1    13
  3.2455394904297904E+01 a        64     0     2     1    14
 -2.7429205730731980E+00 a        65     0     2     1    15
  1.2528664043977336E+02 a        66     0     2     1    16
  3.5588294734559440E+01 a        67     0     2     1    17
 -1.6872726918058728E+01 a        68     0     2     1    18
 -1.9247873391600379E+01 a        69     0     2     1    19
  3.0723387076132404E+01 a        70     0     2     1    20
  1.2929299492261913E+01 a        71     0     2     1    21
 -2.2429704823860622E+01 a        72     0     2     1    22
  1.6193946175021473E+01 a        73     0     2     1    23
  9.5502859888403098E+00 a        74     0     2     1    24
 -2.4139580859997487E+01 a        75     0     2     1    25
 -8.9329565120857254E+01 a        76     0     2     1    26
  2.2162734976882039E+01 a        77     0     2     1    27
  1.9155452408648461E+02 a        78     0     2     1    28
 -3.8224233202809145E+01 a        79     0     2     1    29
 -7.2075114270084351E+00 a        80     0     2     1    30
 -7.1467533226094730E+01 a        81     0     2     1    31
  2.8862850138545639E+01 a        82     0     2     1    32
  7.1917842034181945E+01 a        83     0     2     1    33
 -4.9281687632919386E+01 a        84     0     2     1    34
 -1.6695104089495114E-01 a        85     0     2     1    35
 -2.0963219948036812E+01 a        86     0     2     1    36
  1.8833560182179234E+00 a        87     0     2     1    37
  4.9995894863338242E+00 a        88     0     2     1    38
  3.1053485427882293E+01 a        89     0     2     1    39
  3.3455016503520000E+01 a        90     0     2     1    40
 -4.8257358570624893E+00 a        91     0     2     1    41
  1.6145253929807788E+02 a        92     0     2     1    42
  1.1290787804257716E+01 a        93     0     2     1    43
 -5.4340166456718464E+01 a        94     0     2     1    44
  5.5458096976669403E+01 a        95     0     2     1    45
 -1.0130494858138503E+01 a        96     0     2     1    46
  3.2167099566700301E+02 a        97     0     2     1    47
  5.6291011777609619E+01 a        98     0     2     1    48
 -4.9167933709313331E+01 a        99     0     2     1    49
 -1.2133392113843231E+00 a       100     0     2     1    50
 -8.8579272248771460E+01 a       101     0     3     1     1
  9.1122205643128680E+01 a       102     0     3     1     2
 -4.8520524656412647E+01 a       103     0     3     1     3
 -8.3859623386341298E+00 a       104     0     3     1     4
 -4.8627354272872054E+01 a       105     0     3     1     5
 -2.0128952356997662E+00 a       106     0     3     1     6
  2.8226155138105984E+00 a       107     0     3     1     7
 -1.0569077009410604E+02 a       108     0     3     1     8
 -1.5345400155254772E+01 a       109     0     3     1     9
 -4.0824457904716944E+01 a       110     0     3     1    10
 -1.7900428909860160E+01 a       111     0     3     1    11
 -7.0754589255028080E+01 a       112     0     3     1    12
  3.7138997749220310E+00 a       113     0     3     1    13
  1.2958699851558679E+01 a       114     0     3     1    14
 -3.5636416260134141E+01 a       115     0     3     1    15
  1.2532499190362907E+02 a       116     0     3     1    16
  1.6922077727443661E+01 a       117     0     3     1    17
 -5.5591988879395142E+00 a       118     0     3     1    18
 -8.5511941092085504E+00 a       119     0     3     1    19
  3.4836925999880933E+01 a       120     0     3     1    20
  4.3195291818290364E+00 a       121     0     3     1    21
 -3.5332620478438329E+01 a       122     0     3     1    22
 -1.7945052922110578E+00 a       123     0     3     1    23
  8.3357718149257192E+00 a       124     0     3     1    24
 -1.6936614431982960E+01 a       125     0     3     1    25
 -1.3282063506239354E+02 a       126     0     3     1    26
  1.0941821802963632E+01 a       127     0     3     1    27
  2.6298514413908521E+02 a       128     0     3     1    28
 -4.7844374873168022E+01 a       129     0     3     1    29
 -2.5476470432595843E+01 a       130     0     3     1    30
 -6.2748876691189203E+01 a       131     0     3     1    31
  4.5621743417848776E+01 a       132     0     3     1    32
  7.5447738575897944E+01 a       133     0     3     1    33
 -2.6427842563186626E+01 a       134     0     3     1    34
  3.1726760638460824E+01 a       135     0     3     1    35
 -3.2198869989792790E+01 a       136     0     3     1    36
  1.0356852490806714E+01 a       137     0     3     1    37
 -6.7829446171681894E+01 a       138     0     3     1    38
  1.7781912465450883E+01 a       139     0     3     1    39
  2.4933977155173586E+01 a       140     0     3     1    40
  1.9036626970733790E+00 a       141     0     3     1    41
  1.9377573362673454E+02 a       142     0     3     1    42
  2.8862580991233621E+01 a       143     0     3     1    43
 -9.2565017406722447E+01 a       144     0     3     1    44
  5.6042085577734284E+01 a       145     0     3     1    45
 -5.0475280231150521E+01 a       146     0     3     1    46
  3.6243924335404103E+02 a       147     0     3     1    47
  4.8820313537230398E+01 a       148     0     3     1    48
 -6.1121432914518152E+01 a       149     0     3     1    49
 -3.3281929998736828E+01 a       150     0     3     1    50
  1.6976123439027322E+01 a       151     0     4     1     1
 -1.7885415210565796E+01 a       152     0     4     1     2
  6.2133199522736646E+00 a       153     0     4     1     3
 -5.4502694833751292E+01 a       154     0     4     1     4
  2.0538797911378438E+01 a       155     0     4     1     5
 -5.8895316512823435E+00 a       156     0     4     1     6
 -2.8939229301522462E+00 a       157     0     4     1     7
  4.7684181185072461E+01 a       158     0     4     1     8
  2.9902012293613744E+01 a       159     0     4     1     9
  1.0898164000723968E+01 a       160     0     4     1    10
  3.9979224779903412E+01 a       161     0     4     1    11
  9.2220031891724332E+00 a       162     0     4     1    12
 -1.5934967937824049E+00 a       163     0     4     1    13
  2.1807725348838296E+01 a       164     0     4     1    14
  3.5093603174995408E+01 a       165     0     4     1    15
  2.0379053649304161E+01 a       166     0     4     1    16
  2.6187076103733840E+01 a       167     0     4     1    17
 -1.3333889631428796E+01 a       168     0     4     1    18
 -1.7022336798921785E+01 a       169     0     4     1    19
 -8.3714021705961557E+00 a       170     0     4     1    20
 -2.0571302922189276E+00 a       171     0     4     1    21
  3.8811041948446330E+00 a       172     0     4     1    22
  2.2221207466602298E+01 a       173     0     4     1    23
 -1.3084566807625995E+00 a       174     0     4     1    24
 -2.2423133493130095E+01 a       175     0     4     1    25
  3.2068196636802256E+01 a       176     0     4     1    26
  1.4421990077546651E+01 a       177     0     4     1    27
 -3.2113894902224565E+01 a       178     0     4     1    28
 -1.2645142496797663E+00 a       179     0     4     1    29
  1.2051881277260746E+01 a       180     0     4     1    30
 -1.0951140401878600E+01 a       181     0     4     1    31
 -1.0711495088021600E+01 a       182     0     4     1    32
  1.5744980855007261E+01 a       183     0     4     1    33
 -2.9179174226463960E+01 a       184     0     4     1    34
 -3.1586418429291406E+01 a       185     0     4     1    35
  1.8012925412533306E+01 a       186     0     4     1    36
 -6.8851102516878013E+00 a       187     0     4     1    37
  7.4606797353210553E+01 a       188     0     4     1    38
  2.4082196920810574E+01 a       189     0     4     1    39
  3.8257002801538040E+00 a       190     0     4     1    40
  9.0389384031649449E+00 a       191     0     4     1    41
  2.4235672477120422E+00 a       192     0     4     1    42
 -1.9258150977353072E+01 a       193     0     4     1    43
  3.8865199944027225E+01 a       194     0     4     1    44
  1.1219374781465937E+01 a       195     0     4     1    45
  3.5901728757498894E+01 a       196     0     4     1    46
  1.0335068416987385E+01 a       197     0     4     1    47
  2.0552158558884958E+01 a       198     0     4     1    48
  1.2696423989946844E+01 a       199     0     4     1    49
  2.7740005094354999E+01 a       200     0     4     1    50
 -1.1437007478844414E+02 a       201     0     5     1     1
  1.2068515643815937E+02 a       202     0     5     1     2
 -6.1024291106438916E+01 a       203     0     5     1     3
  4.8465535406305712E+01 a       204     0     5     1     4
 -7.5036070304729179E+01 a       205     0     5     1     5
  2.4820475694206459E+00 a       206     0     5     1     6
  4.8817567369989225E+00 a       207     0     5     1     7
 -1.6870694593484939E+02 a       208     0     5     1     8
 -5.3515499865892856E+01 a       209     0     5     1     9
 -5.6635565821439954E+01 a       210     0     5     1    10
 -6.9825858335136658E+01 a       211     0     5     1    11
 -9.0154941172752075E+01 a       212     0     5     1    12
  6.0387686706606427E+00 a       213     0     5     1    13
 -1.3809460794089686E+01 a       214     0     5     1    14
 -7.5112670296078804E+01 a       215     0     5     1    15
  1.2709525072922349E+02 a       216     0     5     1    16
 -6.5724206762598696E+00 a       217     0     5     1    17
  8.4043603838421692E+00 a       218     0     5     1    18
  7.1761505762057940E+00 a       219     0     5     1    19
  4.9555310484368732E+01 a       220     0     5     1    20
  1.0948813275722207E+01 a       221     0     5     1    21
 -4.5158662821782841E+01 a       222     0     5     1    22
 -3.0548831761934956E+01 a       223     0     5     1    23
  9.5554852052361312E+00 a       224     0     5     1    24
 -7.1617438480583147E+00 a       225     0     5     1    25
 -1.8419387822463474E+02 a       226     0     5     1    26
 -2.1508031509822967E+00 a       227     0     5     1    27
  3.2439878548664376E+02 a       228     0     5     1    28
 -5.7675500069677419E+01 a       229     0     5     1    29
 -4.8238236359823567E+01 a       230     0     5     1    30
 -5.9465060315963328E+01 a       231     0     5     1    31
  6.1745866226061779E+01 a       232     0     5     1    32
  6.7432033283615894E+01 a       233     0     5     1    33
 -7.6142581747622584E-01 a       234     0     5     1    34
  7.0764983784238780E+01 a       235     0     5     1    35
 -4.9796063192399764E+01 a       236     0     5     1    36
  2.0835901009719532E+01 a       237     0     5     1    37
 -1.5368572439908837E+02 a       238     0     5     1    38
 -2.7703791856069065E-01 a       239     0     5     1    39
  1.9626596931651953E+01 a       240     0     5     1    40
 -9.1657353219208790E+00 a       241     0     5     1    41
  2.0931340407217729E+02 a       242     0     5     1    42
  4.7987312434608903E+01 a       243     0     5     1    43
 -1.4194888634476615E+02 a       244     0     5     1    44
  4.9214356561243697E+01 a       245     0     5     1    45
 -9.2457519403427384E+01 a       246     0     5     1    46
  3.8566035532496619E+02 a       247     0     5     1    47
  3.6695199381178718E+01 a       248     0     5     1    48
 -8.2328081197429029E+01 a       249     0     5     1    49
 -6.6703264395569576E+01 a       250     0     5     1    50
  1.3905940609545283E+02 a       251     0     6     1     1
 -1.2895043737340453E+02 a       252     0     6     1     2
  8.2552076648295113E+01 a       253     0     6     1     3
 -5.1942721249770962E+01 a       254     0     6     1     4
  1.0112390230713497E+02 a       255     0     6     1     5
 -7.9546738339164582E+00 a       256     0     6     1     6
 -1.0756790434694913E+01 a       257     0     6     1     7
  2.0502574340344600E+02 a       258     0     6     1     8
  4.8176722282798018E+01 a       259     0     6     1     9
  6.5980303523015351E+01 a       260     0     6     1    10
  1.2466622406662401E+02 a       261     0     6     1    11
  1.0564162533100824E+02 a       262     0     6     1    12
 -5.1691356673890718E+00 a       263     0     6     1    13
  4.7787448770157175E+00 a       264     0     6     1    14
  8.9297837835009432E+01 a       265     0     6     1    15
 -1.3667879461950568E+02 a       266     0     6     1    16
  7.7643535809775415E+00 a       267     0     6     1    17
 -6.0632270449519003E+00 a       268     0     6     1    18
 -1.1185834180413485E+01 a       269     0     6     1    19
 -6.4538298498636337E+01 a       270     0     6     1    20
 -2.1820675834588798E+01 a       271     0     6     1    21
  5.0367216986894576E+01 a       272     0     6     1    22
  2.8893897616814982E+01 a       273     0     6     1    23
 -1.8879164683913991E+01 a       274     0     6     1    24
 -1.6022755370468584E+01 a       275     0     6     1    25
  2.2016995127615684E+02 a       276     0     6     1    26
  1.2166003175387883E+00 a       277     0     6     1    27
 -3.5635187787859178E+02 a       278     0     6     1    28
  5.5584599845737330E+01 a       279     0     6     1    29
  4.2114862708872437E+01 a       280     0     6     1    30
  8.1079610131119168E+01 a       281     0     6     1    31
 -7.1456024835352068E+01 a       282     0     6     1    32
 -6.6434325529203903E+01 a       283     0     6     1    33
  3.9796925566440788E-01 a       284     0     6     1    34
 -7.8928570584895340E+01 a       285     0     6     1    35
  7.0588832072612064E+01 a       286     0     6     1    36
 -2.0627405790258155E+01 a       287     0     6     1    37
  1.7150098214838246E+02 a       288     0     6     1    38
  1.1848029856999297E+01 a       289     0     6     1    39
 -4.2340664419248824E+01 a       290     0     6     1    40
  3.0656119205655180E+01 a       291     0     6     1    41
 -2.3526624079186578E+02 a       292     0     6     1    42
 -6.2717588501873848E+01 a       293     0     6     1    43
  1.7226739955458515E+02 a       294     0     6     1    44
 -5.5454799630988340E+01 a       295     0     6     1    45
  1.0473730888945039E+02 a       296     0     6     1    46
 -4.4506978334834974E+02 a       297     0     6     1    47
 -2.9397910626546427E+01 a       298     0     6     1    48
  1.0312692237377516E+02 a       299     0     6     1    49
  6.9566493832533183E+01 a       300     0     6     1    50
 -8.6834446589957949E+01 a       301     0     7     1     1
  1.0309368699125834E+02 a       302     0     7     1     2
 -5.0198177193532985E+01 a       303     0     7     1     3
  8.5441751724252271E+01 a       304     0     7     1     4
 -7.4483019744373067E+01 a       305     0     7     1     5
  5.5393162143607020E+00 a       306     0     7     1     6
  9.5877387124466029E+00 a       307     0     7     1     7
 -1.6762089271952769E+02 a       308     0     7     1     8
 -7.1279180996731128E+01 a       309     0     7     1     9
 -4.8692439263868202E+01 a       310     0     7     1    10
 -1.1642005284562757E+02 a       311     0     7     1    11
 -7.8509300132060574E+01 a       312     0     7     1    12
  1.1300549988695858E+00 a       313     0     7     1    13
 -3.7766839547653980E+01 a       314     0     7     1    14
 -7.8943506975589600E+01 a       315     0     7     1    15
  8.5682845413553522E+01 a       316     0     7     1    16
 -1.7665903218183672E+01 a       317     0     7     1    17
  1.7623916264388974E+01 a       318     0     7     1    18
  1.6484293976074483E+01 a       319     0     7     1    19
  4.3940454307101874E+01 a       320     0     7     1    20
  1.5409288652211844E+01 a       321     0     7     1    21
 -5.0366958984757296E+01 a       322     0     7     1    22
 -4.8967723325880236E+01 a       323     0     7     1    23
  1.0956557203065062E+01 a       324     0     7     1    24
 -6.8151431359026633E+00 a       325     0     7     1    25
 -1.8338191133530324E+02 a       326     0     7     1    26
 -1.2090373733106171E+01 a       327     0     7     1    27
  2.2657536137662444E+02 a       328     0     7     1    28
 -5.2379355102941972E+01 a       329     0     7     1    29
 -5.9843192318882068E+01 a       330     0     7     1    30
 -3.9323000853788834E+01 a       331     0     7     1    31
  5.5501125023836018E+01 a       332     0     7     1    32
  2.4312998035160025E+01 a       333     0     7     1    33
  2.3824324109937038E+01 a       334     0     7     1    34
  8.5771109407986557E+01 a       335     0     7     1    35
 -3.6435437848721392E+01 a       336     0     7     1    36
  2.8071640461337104E+01 a       337     0     7     1    37
 -1.6654494700490113E+02 a       338     0     7     1    38
 -1.1110876685639299E+01 a       339     0     7     1    39
  1.0419305404576598E+01 a       340     0     7     1    40
 -2.8418927582181375E+01 a       341     0     7     1    41
  1.3614930866645037E+02 a       342     0     7     1    42
  3.8316020061342655E+01 a       343     0     7     1    43
 -1.2366854599987482E+02 a       344     0     7     1    44
  1.9723405839308793E+01 a       345     0     7     1    45
 -9.7010955237366659E+01 a       346     0     7     1    46
  2.2395364361457567E+02 a       347     0     7     1    47
  1.6942955303002143E+00 a       348     0     7     1    48
 -7.0658721326452209E+01 a       349     0     7     1    49
 -6.7545479727505651E+01 a       350     0     7     1    50
  1.8377387937336920E+02 a       351     0     8     1     1
 -1.8824339687615495E+02 a       352     0     8     1     2
  1.0642142011686093E+02 a       353     0     8     1     3
 -4.8110524381303698E+01 a       354     0     8     1     4
  1.2932171450105247E+02 a       355     0     8     1     5
 -5.1373254531816013E+00 a       356     0     8     1     6
 -2.1077104327785545E+01 a       357     0     8     1     7
  2.6761178183966643E+02 a       358     0     8     1     8
  5.2447284550564746E+01 a       359     0     8     1     9
  9.1327947370491216E+01 a       360     0     8     1    10
  1.2791038131709240E+02 a       361     0     8     1    11
  1.5322399357968112E+02 a       362     0     8     1    12
  2.6335595730782351E+00 a       363     0     8     1    13
 -6.0367632342931250E+00 a       364     0     8     1    14
  1.0463006725245994E+02 a       365     0     8     1    15
 -2.0568030091558327E+02 a       366     0     8     1    16
 -1.5456488915077019E+01 a       367     0     8     1    17
  8.8499952345454033E-02 a       368     0     8     1    18
  4.6816150743951290E-01 a       369     0     8     1    19
 -7.5552217682792715E+01 a       370     0     8     1    20
 -1.3107126543730505E+01 a       371     0     8     1    21
  9.3922343037725838E+01 a       372     0     8     1    22
  2.1210247876838867E+01 a       373     0     8     1    23
 -3.1217317686080090E+01 a       374     0     8     1    24
 -1.1764764758358195E+00 a       375     0     8     1    25
  3.2866129259770611E+02 a       376     0     8     1    26
 -9.5550973787853746E+00 a       377     0     8     1    27
 -4.8067198614040183E+02 a       378     0     8     1    28
  8.7669539119741785E+01 a       379     0     8     1    29
  5.9305500584653181E+01 a       380     0     8     1    30
  1.2392896989777485E+02 a       381     0     8     1    31
 -1.0328359998894479E+02 a       382     0     8     1    32
 -1.0328352186692040E+02 a       383     0     8     1    33
  1.4075202559226907E+01 a       384     0     8     1    34
 -1.0211350445553869E+02 a       385     0     8     1    35
  7.6353689803999956E+01 a       386     0     8     1    36
 -3.1447689595264176E+01 a       387     0     8     1    37
  1.9542969090796694E+02 a       388     0     8     1    38
 -3.0452172813337635E+00 a       389     0     8     1    39
 -6.5702638827131423E+01 a       390     0     8     1    40
  3.4060229346855124E+01 a       391     0     8     1    41
 -3.5717298335247511E+02 a       392     0     8     1    42
 -7.2276892849239957E+01 a       393     0     8     1    43
  2.1145786198290037E+02 a       394     0     8     1    44
 -8.9083351292504403E+01 a       395     0     8     1    45
  1.4059192706523601E+02 a       396     0     8     1    46
 -6.3051816350534477E+02 a       397     0     8     1    47
 -4.1700992983499631E+01 a       398     0     8     1    48
  1.3275539936971239E+02 a       399     0     8     1    49
  8.3117754273033114E+01 a       400     0     8     1    50
  1.3761719413513615E+02 a       401     0     9     1     1
 -3.6927890378880619E+01 a       402     0     9     1     2
  9.3798644532705111E+01 a       403     0     9     1     3
  1.1531108664451104E+02 a       404     0     9     1     4
  6.4373412080741105E+01 a       405     0     9     1     5
 -5.6922286782784344E+00 a       406     0     9     1     6
  2.1825833631290926E+01 a       407     0     9     1     7
  7.6813536326658621E+01 a       408     0     9     1     8
 -5.2877962989319684E+01 a       409     0     9     1     9
  3.4612792616290236E+01 a       410     0     9     1    10
  6.7320210330515138E+01 a       411     0     9     1    11
  5.5110508285713394E+01 a       412     0     9     1    12
 -3.3263508160601113E+01 a       413     0     9     1    13
 -7.3938576194660541E+01 a       414     0     9     1    14
  1.6255168813840413E+01 a       415     0     9     1    15
 -1.7523242599878807E+02 a       416     0     9     1    16
 -1.3847913226144637E+01 a       417     0     9     1    17
  2.5883833685482848E+01 a       418     0     9     1    18
  9.7116109030150870E+00 a       419     0     9     1    19
 -7.9920855585141382E+01 a       420     0     9     1    20
 -6.2292661231851454E+01 a       421     0     9     1    21
 -5.1675535618669720E+01 a       422     0     9     1    22
 -2.6980774525637056E+01 a       423     0     9     1    23
  7.8418473802161881E-02 a       424     0     9     1    24
 -3.1892953124707468E+01 a       425     0     9     1    25
  1.1713665151852842E+01 a       426     0     9     1    26
 -2.6470740114584125E+01 a       427     0     9     1    27
 -3.7108845113517884E+02 a       428     0     9     1    28
  1.1446863918395161E+01 a       429     0     9     1    29
 -3.9595712829762576E+01 a       430     0     9     1    30
  1.0376186972117962E+02 a       431     0     9     1    31
 -2.0165951168542971E+01 a       432     0     9     1    32
 -1.2418617797615120E+02 a       433     0     9     1    33
  8.8430263011700035E+01 a       434     0     9     1    34
  3.7286703985725289E+01 a       435     0     9     1    35
  1.0099310978835098E+02 a       436     0     9     1    36
  2.7409901380846193E+01 a       437     0     9     1    37
  7.3031138989106674E+00 a       438     0     9     1    38
 -1.1045303290048631E+01 a       439     0     9     1    39
 -5.7257656384649714E+01 a       440     0     9     1    40
  3.7986928963273905E+00 a       441     0     9     1    41
 -2.1837011548235660E+02 a       442     0     9     1    42
 -5.7900217588725411E+01 a       443     0     9     1    43
  1.3872109237508764E+02 a       444     0     9     1    44
 -8.8705917682755725E+01 a       445     0     9     1    45
 -2.0653251879487087E+01 a       446     0     9     1    46
 -6.0870453486133317E+02 a       447     0     9     1    47
 -1.2987362922744811E+02 a       448     0     9     1    48
  9.5052425168237747E+01 a       449     0     9     1    49
  3.9176444710997091E+00 a       450     0     9     1    50
  5.1303600788098123E+01 a       451     0    10     1     1
 -1.4069021511610120E+02 a       452     0    10     1     2
  4.9448346778276884E+00 a       453     0    10     1     3
 -4.3862804057153724E+01 a       454     0    10     1     4
  2.7309439928620534E+01 a       455     0    10     1     5
  1.0131895477615155E+01 a       456     0    10     1     6
 -3.3034676148766046E+01 a       457     0    10     1     7
  1.0324226072688782E+02 a       458     0    10     1     8
  2.8872961244365975E+01 a       459     0    10     1     9
  4.5835732924396098E+01 a       460     0    10     1    10
 -1.0153830431451445E+02 a       461     0    10     1    11
  8.2982804005396702E+01 a       462     0    10     1    12
  3.0472699386793298E+01 a       463     0    10     1    13
 -2.9154317920786879E+00 a       464     0    10     1    14
  3.5695527242932222E+01 a       465     0    10     1    15
 -6.4896466471266109E+01 a       466     0    10     1    16
 -3.9365662737120104E+01 a       467     0    10     1    17
  4.0126256926545132E+00 a       468     0    10     1    18
  1.9210264177097908E+01 a       469     0    10     1    19
  2.5092246557086309E+01 a       470     0    10     1    20
  7.5895901495316949E+01 a       471     0    10     1    21
  1.1955864218665931E+02 a       472     0    10     1    22
 -1.9091109352469477E+01 a       473     0    10     1    23
 -2.6936926790628981E+01 a       474     0    10     1    24
  2.7714340273116452E+01 a       475     0    10     1    25
  2.3771860675972718E+02 a       476     0    10     1    26
 -1.0654217189356402E+01 a       477     0    10     1    27
 -1.7426594876130835E+02 a       478     0    10     1    28
  6.0550082318255221E+01 a       479     0    10     1    29
  4.4563859269514346E+01 a       480     0    10     1    30
  4.2144481198267535E+01 a       481     0    10     1    31
 -6.9321866769182265E+01 a       482     0    10     1    32
 -4.9139556917746816E+01 a       483     0    10     1    33
 -1.5759303096442572E+01 a       484     0    10     1    34
 -6.4847865107667076E+01 a       485     0    10     1    35
 -2.2964275174492702E+01 a       486     0    10     1    36
 -3.2567830485636833E+01 a       487     0    10     1    37
  6.6849006979324741E+01 a       488     0    10     1    38
 -2.1436068821663447E+01 a       489     0    10     1    39
 -2.6215561035802875E+01 a       490     0    10     1    40
 -2.1966488582466631E+01 a       491     0    10     1    41
 -2.2595102488770669E+02 a       492     0    10     1    42
 -9.6428741538233034E+00 a       493     0    10     1    43
  3.5043643966912079E+01 a       494     0    10     1    44
 -5.1508583249504120E+01 a       495     0    10     1    45
  1.0258416734294784E+02 a       496     0    10     1    46
 -2.2004589204956150E+02 a       497     0    10     1    47
  2.8520010757049455E+01 a       498     0    10     1    48
  2.1841024289405055E+01 a       499     0    10     1    49
  3.6799760075029781E+01 a       500     0    10     1    50
  7.2381774037944481E+01 a       501     0    11     1     1
 -1.5746500702485733E+02 a       502     0    11     1     2
 -1.0678489252948726E+01 a       503     0    11     1     3
 -7.5060631613306398E+01 a       504     0    11     1     4
  2.7754134751253627E+01 a       505     0    11     1     5
  1.4219560996304811E+01 a       506     0    11     1     6
 -4.4762902600278238E+01 a       507     0    11     1     7
  1.3809980124226192E+02 a       508     0    11     1     8
  4.8594299155231013E+01 a       509     0    11     1     9
  6.3653140265231244E+01 a       510     0    11     1    10
 -1.6272157508280685E+02 a       511     0    11     1    11
  1.0943313448242178E+02 a       512     0    11     1    12
  4.1109339473809953E+01 a       513     0    11     1    13
  2.2436049209363658E+00 a       514     0    11     1    14
  5.9740341488917686E+01 a       515     0    11     1    15
 -6.9235721787161708E+01 a       516     0    11     1    16
 -4.8339199685487202E+01 a       517     0    11     1    17
 -3.3245908965844895E+00 a       518     0    11     1    18
  3.5200778439908795E+01 a       519     0    11     1    19
  2.3642099674908589E+01 a       520     0    11     1    20
  8.8619545739826918E+01 a       521     0    11     1    21
  1.7328315088007318E+02 a       522     0    11     1    22
 -2.9102956351864151E+01 a       523     0    11     1    23
 -2.4201272862435392E+01 a       524     0    11     1    24
  4.1093442853361495E+01 a       525     0    11     1    25
  2.9703723054401149E+02 a       526     0    11     1    26
 -1.4981792904061944E+01 a       527     0    11     1    27
 -2.2920145995744210E+02 a       528     0    11     1    28
  7.7478162554696695E+01 a       529     0    11     1    29
  5.8919373749473600E+01 a       530     0    11     1    30
  3.6463907647390833E+01 a       531     0    11     1    31
 -9.0879328195790492E+01 a       532     0    11     1    32
 -6.2352914223211528E+01 a       533     0    11     1    33
 -2.1629794090377779E+01 a       534     0    11     1    34
 -9.6471726373690458E+01 a       535     0    11     1    35
 -3.7408586509053137E+01 a       536     0    11     1    36
 -3.6636159465553554E+01 a       537     0    11     1    37
  8.6321786100649135E+01 a       538     0    11     1    38
 -1.7975947895901793E+01 a       539     0    11     1    39
 -3.4624135294600656E+01 a       540     0    11     1    40
 -4.4854227810046389E+01 a       541     0    11     1    41
 -2.5825121294724715E+02 a       542     0    11     1    42
 -2.0699721178926978E+01 a       543     0    11     1    43
  5.5339983858962214E+01 a       544     0    11     1    44
 -5.8209736459274943E+01 a       545     0    11     1    45
  1.4927264734611418E+02 a       546     0    11     1    46
 -2.4816747133473800E+02 a       547     0    11     1    47
  3.1439504581151837E+01 a       548     0    11     1    48
  1.1451610395230976E+01 a       549     0    11     1    49
  6.3593511826325283E+01 a       550     0    11     1    50
  3.8537052728355725E+01 a       551     0    12     1     1
 -1.0658555909505225E+02 a       552     0    12     1     2
  3.5365984580396628E+01 a       553     0    12     1     3
  2.3525719342488256E+00 a       554     0    12     1     4
  4.1347357079500505E+01 a       555     0    12     1     5
  2.2899551821452877E+00 a       556     0    12     1     6
 -2.2553706046442169E+01 a       557     0    12     1     7
  7.8589286505264610E+01 a       558     0    12     1     8
 -6.1168317882920920E-01 a       559     0    12     1     9
  2.8031930410025129E+01 a       560     0    12     1    10
  2.2956070992651281E+01 a       561     0    12     1    11
  6.4887068158385404E+01 a       562     0    12     1    12
  1.9797294673211915E+01 a       563     0    12     1    13
 -1.3371544575283718E+01 a       564     0    12     1    14
  6.0650537680810519E+00 a       565     0    12     1    15
 -8.3580069644330550E+01 a       566     0    12     1    16
 -4.0717797825082222E+01 a       567     0    12     1    17
  1.5657194739584986E+01 a       568     0    12     1    18
  5.8017520777870200E+00 a       569     0    12     1    19
  9.8245278232197215E+00 a       570     0    12     1    20
  3.7449938090061664E+01 a       571     0    12     1    21
  6.8608731883719315E+01 a       572     0    12     1    22
 -8.1575056273408482E+00 a       573     0    12     1    23
 -3.1381110590991675E+01 a       574     0    12     1    24
  1.8516739962917743E+01 a       575     0    12     1    25
  1.8485651921520517E+02 a       576     0    12     1    26
 -1.1706880010954061E+01 a       577     0    12     1    27
 -1.1156871160252187E+02 a       578     0    12     1    28
  4.7566276502113681E+01 a       579     0    12     1    29
  3.0715182995421184E+01 a       580     0    12     1    30
  6.6157847322479384E+01 a       581     0    12     1    31
 -4.5052053263330251E+01 a       582     0    12     1    32
 -3.0696304092139155E+01 a       583     0    12     1    33
  2.9382089396871613E+00 a       584     0    12     1    34
 -3.2365202196251836E+01 a       585     0    12     1    35
 -6.3769722845764498E+00 a       586     0    12     1    36
 -2.8687686550916265E+01 a       587     0    12     1    37
  2.9036636657909089E+01 a       588     0    12     1    38
 -2.8529605513229193E+01 a       589     0    12     1    39
 -3.2990407792579006E+01 a       590     0    12     1    40
  2.2327684122881656E+01 a       591     0    12     1    41
 -1.8194147505988875E+02 a       592     0    12     1    42
  3.1309270316058391E+00 a       593     0    12     1    43
  2.2647738899349999E+01 a       594     0    12     1    44
 -4.4814565080791262E+01 a       595     0    12     1    45
  4.5121520117162518E+01 a       596     0    12     1    46
 -2.0138364173235729E+02 a       597     0    12     1    47
  1.6545723888840907E+01 a       598     0    12     1    48
  4.2992761550534055E+01 a       599     0    12     1    49
  1.0193164384345403E+00 a       600     0    12     1    50
 -6.2704866012515147E+01 a       601     0    13     1     1
  1.5492365188736275E+02 a       602     0    13     1     2
 -5.5171960836949815E+01 a       603     0    13     1     3
 -1.4497541615041499E+02 a       604     0    13     1     4
  1.5784332196011785E+01 a       605     0    13     1     5
 -1.2107009139790184E+01 a       606     0    13     1     6
 -5.1653810190306089E+01 a       607     0    13     1     7
  6.6843198574901635E+01 a       608     0    13     1     8
  6.6422942648468705E+01 a       609     0    13     1     9
 -2.5705139937380554E+00 a       610     0    13     1    10
  2.1396512399475554E+02 a       611     0    13     1    11
  2.4856542942858507E+01 a       612     0    13     1    12
  5.0116881865684597E+01 a       613     0    13     1    13
  7.5880112640033360E+01 a       614     0    13     1    14
  3.3504924486598313E+01 a       615     0    13     1    15
  1.0668687431302732E+02 a       616     0    13     1    16
 -2.1235444724252286E+01 a       617     0    13     1    17
 -3.4954588468055519E+01 a       618     0    13     1    18
  2.3446373157604175E+01 a       619     0    13     1    19
 -3.5585792038694002E+01 a       620     0    13     1    20
 -9.0534866179952147E+01 a       621     0    13     1    21
  1.6071591088582301E+02 a       622     0    13     1    22
  3.6888716876155065E+01 a       623     0    13     1    23
  3.8939161722589679E+00 a       624     0    13     1    24
  5.3720619639754304E+01 a       625     0    13     1    25
  9.5815080827422975E+01 a       626     0    13     1    26
 -2.0329475682529949E-02 a       627     0    13     1    27
  3.7312509195769769E+02 a       628     0    13     1    28
  1.5240693015412727E+01 a       629     0    13     1    29
  6.3511173879067840E+01 a       630     0    13     1    30
 -4.6263744570359435E+01 a       631     0    13     1    31
  5.3564382897827834E-01 a       632     0    13     1    32
  1.6320657475420441E+02 a       633     0    13     1    33
 -4.9754340238143719E+01 a       634     0    13     1    34
 -1.0672927241247606E+02 a       635     0    13     1    35
 -1.1125740213191678E+02 a       636     0    13     1    36
 -3.3126728125026794E+01 a       637     0    13     1    37
 -3.2400415934412024E+01 a       638     0    13     1    38
  3.4595765274454415E+01 a       639     0    13     1    39
 -3.5964777464750462E+01 a       640     0    13     1    40
  8.0935445269774931E+01 a       641     0    13     1    41
  3.3764682833249088E+02 a       642     0    13     1    42
  2.9984732379166292E+01 a       643     0    13     1    43
 -2.9238890225724194E+01 a       644     0    13     1    44
  1.1668474824608870E+02 a       645     0    13     1    45
  7.5635341214937526E+01 a       646     0    13     1    46
  6.4909799541022232E+02 a       647     0    13     1    47
  1.1063426913919028E+02 a       648     0    13     1    48
 -6.5240424376014204E+01 a       649     0    13     1    49
  2.0780250000195394E+01 a       650     0    13     1    50
 -2.6983476939984911E+01 a       651     0    14     1     1
  2.2057344587647040E+02 a       652     0    14     1     2
 -3.9516117405977766E+01 a       653     0    14     1     3
  1.5083973197162950E+02 a       654     0    14     1     4
 -6.9920291251157181E+01 a       655     0    14     1     5
 -1.1768947939742988E+01 a       656     0    14     1     6
 -2.4061337309759963E+01 a       657     0    14     1     7
 -1.2661951205142046E+02 a       658     0    14     1     8
 -1.1003773110798998E+02 a       659     0    14     1     9
 -4.2950619089981558E+01 a       660     0    14     1    10
 -6.8108024399847565E+01 a       661     0    14     1    11
 -8.2213310453853949E-01 a       662     0    14     1    12
  1.0702490170602239E+01 a       663     0    14     1    13
 -8.2526648699196599E+01 a       664     0    14     1    14
 -1.1860066356382160E+02 a       665     0    14     1    15
 -2.6569186543800356E+01 a       666     0    14     1    16
 -1.0603063944573114E+02 a       667     0    14     1    17
  4.9779004749070531E+01 a       668     0    14     1    18
  3.3163955326967979E+01 a       669     0    14     1    19
 -3.7088039945767825E+01 a       670     0    14     1    20
 -9.5869614967149019E+01 a       671     0    14     1    21
  5.4628784328706224E+01 a       672     0    14     1    22
 -6.7156560729605872E+01 a       673     0    14     1    23
  4.5707288126201938E+01 a       674     0    14     1    24
  3.8109505781606316E+01 a       675     0    14     1    25
 -1.4441714394190129E+02 a       676     0    14     1    26
 -5.5383581784535977E+01 a       677     0    14     1    27
  1.5143501589065147E+02 a       678     0    14     1    28
 -4.6786553864519842E+00 a       679     0    14     1    29
 -2.0537343250945153E+01 a       680     0    14     1    30
  7.3595354538313824E+00 a       681     0    14     1    31
  4.7176139215951274E+01 a       682     0    14     1    32
 -3.6219283847476774E+01 a       683     0    14     1    33
  7.6767719881641099E+01 a       684     0    14     1    34
  7.1191953847940638E+01 a       685     0    14     1    35
 -1.0103110016909962E+02 a       686     0    14     1    36
 -5.5831887441202328E+00 a       687     0    14     1    37
 -2.5297789041106023E+02 a       688     0    14     1    38
 -5.3624822401291674E+01 a       689     0    14     1    39
 -4.0373018823973815E+01 a       690     0    14     1    40
 -2.7223205830834043E+01 a       691     0    14     1    41
  2.0108303374220816E+02 a       692     0    14     1    42
  5.9995398941658280E+01 a       693     0    14     1    43
 -7.4235622242941176E+01 a       694     0    14     1    44
 -1.3425344774531833E+01 a       695     0    14     1    45
 -9.7106871213182572E+01 a       696     0    14     1    46
  1.3269402870981858E+02 a       697     0    14     1    47
 -1.1241553172234562E+02 a       698     0    14     1    48
 -5.6259438153312765E+01 a       699     0    14     1    49
 -7.9635375850256210E+01 a       700     0    14     1    50
 -9.5406983057877042E+01 a       701     0    15     1     1
 -9.4727176553630237E+00 a       702     0    15     1     2
  3.8329999230255730E+01 a       703     0    15     1     3
  1.3921938304377426E+02 a       704     0    15     1     4
 -7.6717303484447427E+01 a       705     0    15     1     5
  1.1021061606657000E+01 a       706     0    15     1     6
  1.4178403504937495E+02 a       707     0    15     1     7
 -2.4509476963049983E+02 a       708     0    15     1     8
 -3.5243135052887489E+01 a       709     0    15     1     9
 -9.5870901293906840E+01 a       710     0    15     1    10
 -4.1895383830126448E+01 a       711     0    15     1    11
 -2.0500437192218942E+02 a       712     0    15     1    12
 -1.1154873964710615E+02 a       713     0    15     1    13
  1.7406742800582908E+01 a       714     0    15     1    14
 -6.1998905538468165E+01 a       715     0    15     1    15
  2.1901546072601700E+01 a       716     0    15     1    16
  1.4871996571061143E+02 a       717     0    15     1    17
 -6.6425411770602560E-01 a       718     0    15     1    18
 -7.5923937738590993E+01 a       719     0    15     1    19
  3.6411907554168643E+01 a       720     0    15     1    20
  2.3653297767674321E+01 a       721     0    15     1    21
 -4.0122714687394370E+02 a       722     0    15     1    22
  6.3752144543203315E+01 a       723     0    15     1    23
  3.3486639209208718E+01 a       724     0    15     1    24
 -1.1817146050480583E+01 a       725     0    15     1    25
 -4.5803199489480778E+02 a       726     0    15     1    26
  5.3281050533425763E+01 a       727     0    15     1    27
 -4.2269061221271809E+00 a       728     0    15     1    28
 -1.0550682223784339E+02 a       729     0    15     1    29
 -9.7634801034100875E+01 a       730     0    15     1    30
 -7.6357437244973823E+01 a       731     0    15     1    31
  1.2143800230602328E+02 a       732     0    15     1    32
 -4.5138998680192877E+01 a       733     0    15     1    33
  3.7318033347784748E+01 a       734     0    15     1    34
  1.9901941416380694E+02 a       735     0    15     1    35
  8.7819228790085035E+01 a       736     0    15     1    36
  6.2722664192683006E+01 a       737     0    15     1    37
 -6.1075803851966732E+00 a       738     0    15     1    38
 -1.4517120990215870E+01 a       739     0    15     1    39
  1.6474044945955657E+02 a       740     0    15     1    40
 -3.3482156103214720E+01 a       741     0    15     1    41
  4.5547089496068800E+01 a       742     0    15     1    42
  4.1132225330800818E+00 a       743     0    15     1    43
 -8.0804853053298615E+01 a       744     0    15     1    44
  1.3935176046946161E+01 a       745     0    15     1    45
 -2.4338132042887449E+02 a       746     0    15     1    46
 -1.0403841466594349E+02 a       747     0    15     1    47
 -9.8640526765532627E+01 a       748     0    15     1    48
  1.6757404515819466E+01 a       749     0    15     1    49
 -6.3153659847095945E+01 a       750     0    15     1    50
 -3.8459724376996071E+01 a       751     0    16     1     1
 -3.4349008513749368E+01 a       752     0    16     1     2
  9.5289035326202072E+00 a       753     0    16     1     3
 -3.0271183435375639E+00 a       754     0    16     1     4
 -1.3138373649524869E+01 a       755     0    16     1     5
  1.4830143232237676E+01 a       756     0    16     1     6
  5.7873976983428342E+01 a       757     0    16     1     7
 -7.0572740112960574E+01 a       758     0    16     1     8
  3.2922259730312831E+01 a       759     0    16     1     9
 -1.9933365369352238E+01 a       760     0    16     1    10
  3.0070946527628585E+01 a       761     0    16     1    11
 -9.0402069923466783E+01 a       762     0    16     1    12
 -4.4438980387393087E+01 a       763     0    16     1    13
  4.0658332417922708E+01 a       764     0    16     1    14
  9.9988621309757360E+00 a       765     0    16     1    15
  4.5082592554649359E+01 a       766     0    16     1    16
  9.6497134674749233E+01 a       767     0    16     1    17
 -2.6212455347829838E+01 a       768     0    16     1    18
 -2.5274339201510248E+01 a       769     0    16     1    19
  2.0132042858754133E+01 a       770     0    16     1    20
  1.3675645621358482E+01 a       771     0    16     1    21
 -1.8011255146303546E+02 a       772     0    16     1    22
  4.5148438637171104E+01 a       773     0    16     1    23
  4.9158954140497597E+00 a       774     0    16     1    24
 -3.0665745010610635E+01 a       775     0    16     1    25
 -1.9145395576832283E+02 a       776     0    16     1    26
  3.9116474984708361E+01 a       777     0    16     1    27
  1.0990869031130270E+01 a       778     0    16     1    28
 -4.7409367262000380E+01 a       779     0    16     1    29
 -3.8072492522008048E+01 a       780     0    16     1    30
 -4.3718526406116553E+01 a       781     0    16     1    31
  3.9758212996213096E+01 a       782     0    16     1    32
  2.3959479080287146E+01 a       783     0    16     1    33
 -8.1931661729721057E+00 a       784     0    16     1    34
  4.9365620381882621E+01 a       785     0    16     1    35
  1.0694757677038321E+02 a       786     0    16     1    36
  5.1810057800838635E+01 a       787     0    16     1    37
  6.5459399782239799E+01 a       788     0    16     1    38
  2.7849044681377769E+01 a       789     0    16     1    39
  7.4773923200645498E+01 a       790     0    16     1    40
 -4.5201781397258189E+00 a       791     0    16     1    41
  2.1189183616281781E+01 a       792     0    16     1    42
 -1.3925165289459336E+01 a       793     0    16     1    43
 -1.4370155422195808E+01 a       794     0    16     1    44
  2.9579122519251921E+01 a       795     0    16     1    45
 -6.3217152584911403E+01 a       796     0    16     1    46
  9.8189139243592258E+00 a       797     0    16     1    47
  3.8278763347981744E+00 a       798     0    16     1    48
  8.3599247145481304E+00 a       799     0    16     1    49
  7.1635620787806946E+00 a       800     0    16     1    50
  1.3677689937531472E+01 a       801     0    17     1     1
  8.2213977014417701E+00 a       802     0    17     1     2
 -1.1680210359858727E+01 a       803     0    17     1     3
 -2.4990521395905980E+00 a       804     0    17     1     4
  4.3850903960656584E+00 a       805     0    17     1     5
  3.4504925966821616E+00 a       806     0    17     1     6
 -2.3136506318942793E+01 a       807     0    17     1     7
  1.7920418244432074E+01 a       808     0    17     1     8
  7.7982842224104143E-01 a       809     0    17     1     9
  1.6883601825884707E+01 a       810     0    17     1    10
 -3.2155482487667002E+00 a       811     0    17     1    11
  3.2442218957083384E+01 a       812     0    17     1    12
  1.9666245539012564E+01 a       813     0    17     1    13
 -1.6379130653952085E+01 a       814     0    17     1    14
 -6.9017211584835021E+00 a       815     0    17     1    15
 -6.1553872437585575E+00 a       816     0    17     1    16
 -2.6169661738013222E+01 a       817     0    17     1    17
 -6.2169188455755686E-01 a       818     0    17     1    18
  1.0252915350421953E+01 a       819     0    17     1    19
 -4.6633065974607337E+00 a       820     0    17     1    20
 -1.2544144342910215E+01 a       821     0    17     1    21
  5.6993056317949879E+01 a       822     0    17     1    22
 -1.4496527584094931E+01 a       823     0    17     1    23
  5.8952902983143041E-01 a       824     0    17     1    24
 -1.0506556959104222E+01 a       825     0    17     1    25
  3.4865715973463082E+01 a       826     0    17     1    26
 -1.4991377661813498E+01 a       827     0    17     1    27
 -3.3552396007737220E+00 a       828     0    17     1    28
  1.5495863159413787E+01 a       829     0    17     1    29
  1.1680638240326552E+01 a       830     0    17     1    30
  1.7025592139270337E+01 a       831     0    17     1    31
 -1.4864211699309498E+01 a       832     0    17     1    32
  2.3732134292416593E+00 a       833     0    17     1    33
 -1.5946745785898595E+00 a       834     0    17     1    34
 -2.2423065439516446E+01 a       835     0    17     1    35
  2.0490053264820808E+01 a       836     0    17     1    36
  4.1917977467552330E+00 a       837     0    17     1    37
 -1.1763797185091251E+01 a       838     0    17     1    38
 -3.7773377373824117E+00 a       839     0    17     1    39
 -2.2546738018273469E+01 a       840     0    17     1    40
 -5.3373097721638487E+00 a       841     0    17     1    41
 -9.1621577796014257E+00 a       842     0    17     1    42
  6.2603171770456116E+00 a       843     0    17     1    43
  6.2308772280257232E+00 a       844     0    17     1    44
 -7.6662446296552140E+00 a       845     0    17     1    45
  2.6955856698121149E+01 a       846     0    17     1    46
 -3.6291288193216467E+00 a       847     0    17     1    47
 -1.1747379491073056E+00 a       848     0    17     1    48
 -4.4469737299897272E+00 a       849     0    17     1    49
  3.6666181614594144E+00 a       850     0    17     1    50
  3.8680140485008376E+00 a       851     0    18     1     1
 -1.7483498573830775E-01 a       852     0    18     1     2
  7.5482111133853469E-01 a       853     0    18     1     3
 -5.4487977233144305E+00 a       854     0    18     1     4
  3.5213785988701134E+00 a       855     0    18     1     5
 -2.6528125384455943E+00 a       856     0    18     1     6
 -4.2109600583579958E+00 a       857     0    18     1     7
  1.4415374349015611E+01 a       858     0    18     1     8
 -1.3669577954139283E+00 a       859     0    18     1     9
  1.5183837035094365E+00 a       860     0    18     1    10
 -8.1492803984566275E-01 a       861     0    18     1    11
  1.0151406166251885E+01 a       862     0    18     1    12
  5.5463328123008706E+00 a       863     0    18     1    13
 -1.1080907764711814E+00 a       864     0    18     1    14
  6.0679591753215032E+00 a       865     0    18     1    15
 -5.1423052592831828E+00 a       866     0    18     1    16
 -8.5728018102327983E+00 a       867     0    18     1    17
  2.6557572695876051E+00 a       868     0    18     1    18
  3.2013583667823533E+00 a       869     0    18     1    19
 -2.2603717955897662E+00 a       870     0    18     1    20
  1.4676310392284091E+00 a       871     0    18     1    21
  2.3271189547128788E+01 a       872     0    18     1    22
 -2.8803304017983371E+00 a       873     0    18     1    23
 -1.7273289216072187E+00 a       874     0    18     1    24
  6.3505494310618333E+00 a       875     0    18     1    25
  3.3360036256789733E+01 a       876     0    18     1    26
 -2.8678050352128626E+00 a       877     0    18     1    27
 -7.0098774668056019E-01 a       878     0    18     1    28
  5.6138695385392685E+00 a       879     0    18     1    29
  6.6085936826317280E+00 a       880     0    18     1    30
  3.7372177556696338E+00 a       881     0    18     1    31
 -5.5809822223983012E+00 a       882     0    18     1    32
 -1.3294959673641473E+00 a       883     0    18     1    33
  2.7335919466424963E-01 a       884     0    18     1    34
 -8.4237000075733270E+00 a       885     0    18     1    35
 -2.0636633328396350E+01 a       886     0    18     1    36
 -9.0461200007893563E+00 a       887     0    18     1    37
 -4.0369244624875353E+00 a       888     0    18     1    38
 -2.5494545757314118E+00 a       889     0    18     1    39
 -8.1353662648063541E+00 a       890     0    18     1    40
  3.0655745125897567E+00 a       891     0    18     1    41
 -4.2880975391197156E+00 a       892     0    18     1    42
 -9.7892213677553341E-01 a       893     0    18     1    43
  3.7449653428085528E+00 a       894     0    18     1    44
 -1.0847263796255320E+00 a       895     0    18     1    45
  1.0907051309697611E+01 a       896     0    18     1    46
  4.2897948792537886E+00 a       897     0    18     1    47
  4.7062847109394133E+00 a       898     0    18     1    48
 -1.1131946209192105E+00 a       899     0    18     1    49
  9.2051278751981147E-01 a       900     0    18     1    50
  5.0069319956393583E+00 a       901     0    19     1     1
  4.0805392322003894E+02 a       902     0    19     1     2
  5.7544502229834571E+01 a       903     0    19     1     3
 -9.2671721835468489E+01 a       904     0    19     1     4
  1.2530847719422509E+02 a       905     0    19     1     5
  1.0366856136820218E+01 a       906     0    19     1     6
 -6.5142623252694165E+01 a       907     0    19     1     7
  1.6180221600634044E+02 a       908     0    19     1     8
  8.1950888176353573E+01 a       909     0    19     1     9
  6.7206397318732172E+01 a       910     0    19     1    10
 -2.3472407754763328E+01 a       911     0    19     1    11
 -6.6668825609555626E+01 a       912     0    19     1    12
 -5.3892498232547020E+01 a       913     0    19     1    13
 -7.2243301298864594E+01 a       914     0    19     1    14
  2.1003456633334356E+00 a       915     0    19     1    15
  8.1664009546687836E+01 a       916     0    19     1    16
  1.0023067606407557E+02 a       917     0    19     1    17
 -5.1032563819765606E+01 a       918     0    19     1    18
  3.0017982048127863E+01 a       919     0    19     1    19
 -3.2274109211270292E+02 a       920     0    19     1    20
 -2.3842259255275792E+02 a       921     0    19     1    21
 -8.9756117430261213E+01 a       922     0    19     1    22
  1.1475769448820597E+02 a       923     0    19     1    23
  2.1034059606610535E+02 a       924     0    19     1    24
  1.1884486718790805E+01 a       925     0    19     1    25
  1.0547729506987518E+02 a       926     0    19     1    26
  5.7137371890130382E+01 a       927     0    19     1    27
 -1.5274867415998312E+02 a       928     0    19     1    28
 -2.2337985481459324E+00 a       929     0    19     1    29
  1.5359230208217436E+01 a       930     0    19     1    30
 -2.9425650603983858E+01 a       931     0    19     1    31
 -1.9429134610074261E+01 a       932     0    19     1    32
 -2.1897547422138473E+02 a       933     0    19     1    33
  6.1330678962136126E+01 a       934     0    19     1    34
 -2.9030227639733102E+01 a       935     0    19     1    35
 -2.1476575222301190E+02 a       936     0    19     1    36
 -2.2701373918151823E+01 a       937     0    19     1    37
  5.1643820584712088E+01 a       938     0    19     1    38
  8.1852053969962970E+00 a       939     0    19     1    39
 -8.5457114137241049E+01 a       940     0    19     1    40
  9.6553142788536050E+01 a       941     0    19     1    41
  3.5986002372202694E+02 a       942     0    19     1    42
  9.3469790426136967E+01 a       943     0    19     1    43
  3.8505227153566068E+01 a       944     0    19     1    44
 -3.2047624216542793E+01 a       945     0    19     1    45
 -7.1719298175052968E+00 a       946     0    19     1    46
  6.7498655909662890E+00 a       947     0    19     1    47
 -2.4682000685408539E+02 a       948     0    19     1    48
 -4.2801203676668152E+01 a       949     0    19     1    49
  6.5441752585469857E+01 a       950     0    19     1    50
  8.4944648710412366E+01 a       951     0    20     1     1
  5.6590708910716700E+01 a       952     0    20     1     2
 -2.0115712993419064E+02 a       953     0    20     1     3
 -6.1753626428619832E+01 a       954     0    20     1     4
 -2.0702164774295738E+02 a       955     0    20     1     5
  8.4856199501539479E+01 a       956     0    20     1     6
  2.9024430458587314E+00 a       957     0    20     1     7
  1.0058442785555449E+02 a       958     0    20     1     8
  5.6948313373008688E+01 a       959     0    20     1     9
 -6.2731668263751097E+01 a       960     0    20     1    10
  1.1015036327139164E+02 a       961     0    20     1    11
 -4.8893408759897001E+00 a       962     0    20     1    12
 -1.9973423469052736E+00 a       963     0    20     1    13
  3.8292204163297443E+00 a       964     0    20     1    14
  7.4931258256808832E+01 a       965     0    20     1    15
  4.4223110926791726E+01 a       966     0    20     1    16
 -2.7932677603178291E+01 a       967     0    20     1    17
 -2.2043536702200916E+02 a       968     0    20     1    18
 -9.2439606739109887E+00 a       969     0    20     1    19
 -2.7862787524702100E+02 a       970     0    20     1    20
 -1.1672962839345719E+02 a       971     0    20     1    21
  4.6171698702269275E+01 a       972     0    20     1    22
 -4.6886745784851350E+01 a       973     0    20     1    23
 -2.4513781113059682E+01 a       974     0    20     1    24
  1.3313112880506184E+01 a       975     0    20     1    25
 -7.4462565678182955E+01 a       976     0    20     1    26
 -1.1491315865267347E+02 a       977     0    20     1    27
  1.8184123009267688E+02 a       978     0    20     1    28
 -2.8868618137256448E+01 a       979     0    20     1    29
  4.5535416689041917E+01 a       980     0    20     1    30
  2.1214635713419142E+01 a       981     0    20     1    31
  2.7449785251800453E+01 a       982     0    20     1    32
 -2.4238160441109318E+02 a       983     0    20     1    33
 -1.5035630426093249E+01 a       984     0    20     1    34
  1.7989366411254579E+01 a       985     0    20     1    35
 -1.2514105218731648E+02 a       986     0    20     1    36
 -3.6228771755479009E+01 a       987     0    20     1    37
  2.6823086050378798E+01 a       988     0    20     1    38
  7.2022142054072219E+01 a       989     0    20     1    39
 -1.5476686468836331E+02 a       990     0    20     1    40
 -2.5526836174111074E+02 a       991     0    20     1    41
  2.7894520427682926E+02 a       992     0    20     1    42
 -3.0392665803287912E+02 a       993     0    20     1    43
 -3.3992427253054089E+01 a       994     0    20     1    44
  1.1970362494111777E+02 a       995     0    20     1    45
 -5.3151636453310289E+01 a       996     0    20     1    46
  4.2931881415310471E+01 a       997     0    20     1    47
  1.4618762777119766E+01 a       998     0    20     1    48
 -1.5193148198451962E+02 a       999     0    20     1    49
  6.1067852273179938E+01 a      1000     0    20     1    50
  1.4418382370102337E+01 a      1001     0    21     1     1
 -2.8260919891067303E+01 a      1002     0    21     1     2
  6.0094953427273687E+01 a      1003     0    21     1     3
  1.5552549489173877E+01 a      1004     0    21     1     4
 -2.0875504096464172E+02 a      1005     0    21     1     5
 -2.0351128400589275E+02 a      1006     0    21     1     6
  8.3606801393241312E+01 a      1007     0    21     1     7
  5.9141895918225771E+00 a      1008     0    21     1     8
  9.8198718539364720E+01 a      1009     0    21     1     9
  5.3622518789178031E+01 a      1010     0    21     1    10
 -1.5207071564243419E+01 a      1011     0    21     1    11
  1.7802567174639019E+01 a      1012     0    21     1    12
 -4.4332330280903392E+01 a      1013     0    21     1    13
  2.8255588944214786E+01 a      1014     0    21     1    14
  9.9432451781845437E+00 a      1015     0    21     1    15
  1.2667444846509694E+02 a      1016     0    21     1    16
 -2.1490358771464745E+01 a      1017     0    21     1    17
  1.0554878144387811E+02 a      1018     0    21     1    18
 -4.9838589021633952E+00 a      1019     0    21     1    19
 -1.4492688093965515E+02 a      1020     0    21     1    20
  1.0089456848792541E+02 a      1021     0    21     1    21
  4.7042861754218613E+01 a      1022     0    21     1    22
 -8.4155440836822109E+01 a      1023     0    21     1    23
 -2.6628231712679303E+02 a      1024     0    21     1    24
  8.7802747807202095E+01 a      1025     0    21     1    25
  7.3627951754549855E+01 a      1026     0    21     1    26
 -4.0566423264895207E+01 a      1027     0    21     1    27
  1.8691709730801088E+02 a      1028     0    21     1    28
  7.5143969327811917E+01 a      1029     0    21     1    29
  3.2245139762082296E+01 a      1030     0    21     1    30
  6.4254682100921743E+00 a      1031     0    21     1    31
 -1.7031310309405796E+02 a      1032     0    21     1    32
 -2.0343931484140196E-01 a      1033     0    21     1    33
  1.0954551281194503E+01 a      1034     0    21     1    34
 -1.0710435952060575E+02 a      1035     0    21     1    35
 -5.3366206740418768E+01 a      1036     0    21     1    36
 -2.5093260490597174E+01 a      1037     0    21     1    37
  4.8011356763158084E+01 a      1038     0    21     1    38
 -1.1067973059558912E+02 a      1039     0    21     1    39
  1.6471848283844989E+02 a      1040     0    21     1    40
 -2.6315062779242798E+01 a      1041     0    21     1    41
  2.3348190684133051E+01 a      1042     0    21     1    42
  2.0208854032883053E+01 a      1043     0    21     1    43
  6.0456551241461263E+00 a      1044     0    21     1    44
  1.0228612558587794E+02 a      1045     0    21     1    45
  1.5879049404548476E+02 a      1046     0    21     1    46
  1.7804410124645486E+01 a      1047     0    21     1    47
  4.2123747361348464E+01 a      1048     0    21     1    48
  6.3615532633273283E+01 a      1049     0    21     1    49
  1.5822661027418837E+02 a      1050     0    21     1    50
 -1.7177454713472400E+02 a      1051     0    22     1     1
 -2.3215171439935574E+02 a      1052     0    22     1     2
 -1.3613454307382028E+02 a      1053     0    22     1     3
  8.1645897384103037E+01 a      1054     0    22     1     4
  8.5975154170649702E+01 a      1055     0    22     1     5
 -1.1249594383626828E+02 a      1056     0    22     1     6
 -8.6008506547525457E+01 a      1057     0    22     1     7
 -8.6127827471312983E+01 a      1058     0    22     1     8
 -3.3394274250490433E+01 a      1059     0    22     1     9
  2.3969871911986252E+02 a      1060     0    22     1    10
 -2.5904883614956594E+02 a      1061     0    22     1    11
  4.5102269598313207E+01 a      1062     0    22     1    12
 -4.0081486018750496E+01 a      1063     0    22     1    13
  4.5981188836262334E+01 a      1064     0    22     1    14
  1.2930752751786008E+02 a      1065     0    22     1    15
 -3.2068048385332396E+01 a      1066     0    22     1    16
 -3.4912013948129385E+01 a      1067     0    22     1    17
 -3.1610493214169217E+01 a      1068     0    22     1    18
 -1.0942916186216360E+01 a      1069     0    22     1    19
  1.7298910850255865E+02 a      1070     0    22     1    20
  1.4467902482229707E+02 a      1071     0    22     1    21
 -3.3202121897791322E+01 a      1072     0    22     1    22
 -6.1028138329021559E+01 a      1073     0    22     1    23
 -1.2678620378404172E+02 a      1074     0    22     1    24
  2.0713607161001693E+01 a      1075     0    22     1    25
  7.9194722589075965E+01 a      1076     0    22     1    26
 -1.4445851070300511E+01 a      1077     0    22     1    27
 -9.7180867038391440E+01 a      1078     0    22     1    28
  2.6372315494806532E+01 a      1079     0    22     1    29
  2.2955544982432521E+01 a      1080     0    22     1    30
 -9.1677449134386549E+01 a      1081     0    22     1    31
  6.2929081138497438E+01 a      1082     0    22     1    32
  1.7278519976040656E+02 a      1083     0    22     1    33
 -2.4966688899551013E+01 a      1084     0    22     1    34
 -5.3661559062629124E+01 a      1085     0    22     1    35
 -1.7487174188059910E+02 a      1086     0    22     1    36
  7.2031699421563175E+01 a      1087     0    22     1    37
  1.7276312638351024E+02 a      1088     0    22     1    38
  1.4977821192846770E+02 a      1089     0    22     1    39
 -1.6282157896520790E+01 a      1090     0    22     1    40
 -3.3796306250871703E+02 a      1091     0    22     1    41
 -3.7756352058138299E+02 a      1092     0    22     1    42
 -1.1179292786864427E+02 a      1093     0    22     1    43
  6.4721230856123441E+01 a      1094     0    22     1    44
 -4.4266790124582968E+01 a      1095     0    22     1    45
  1.3846997505736232E+02 a      1096     0    22     1    46
 -5.6135699287328248E+02 a      1097     0    22     1    47
  2.3524735594658117E+02 a      1098     0    22     1    48
 -1.1430120370196313E+02 a      1099     0    22     1    49
  8.0270176815849808E+01 a      1100     0    22     1    50
 -1.3876095390106721E+02 a      1101     0    23     1     1
 -4.9333381667009058E+02 a      1102     0    23     1     2
 -1.3965508450173084E+02 a      1103     0    23     1     3
  1.4694632252644899E+02 a      1104     0    23     1     4
 -3.5264413106352471E+01 a      1105     0    23     1     5
  1.0933815234393808E+01 a      1106     0    23     1     6
  6.8180462248968510E+01 a      1107     0    23     1     7
 -2.5098490196067360E+02 a      1108     0    23     1     8
 -1.4869812884962920E+02 a      1109     0    23     1     9
 -5.6328146793429219E+01 a      1110     0    23     1    10
  1.7959818491887479E+01 a      1111     0    23     1    11
  1.3176859771760004E+02 a      1112     0    23     1    12
  5.2269115630188672E+01 a      1113     0    23     1    13
  8.3053181167112669E+01 a      1114     0    23     1    14
 -1.5300702924079493E+01 a      1115     0    23     1    15
 -1.4651280006172686E+02 a      1116     0    23     1    16
 -1.3661278529745968E+02 a      1117     0    23     1    17
 -4.2201756262623835E+00 a      1118     0    23     1    18
  2.9754021894927374E+00 a      1119     0    23     1    19
  6.1122508294358943E+02 a      1120     0    23     1    20
  3.2892044815768440E+02 a      1121     0    23     1    21
  1.2688681041196996E+02 a      1122     0    23     1    22
 -7.5003012446820648E+01 a      1123     0    23     1    23
 -8.9790880110143434E+01 a      1124     0    23     1    24
 -2.8957864858785360E+01 a      1125     0    23     1    25
 -4.1891059228836554E+01 a      1126     0    23     1    26
 -2.3094257733971894E+01 a      1127     0    23     1    27
 -9.3000633934743711E+00 a      1128     0    23     1    28
 -4.7042556488060939E+01 a      1129     0    23     1    29
 -6.0790241492265174E+01 a      1130     0    23     1    30
 -3.1132497213611348E+01 a      1131     0    23     1    31
  1.6260477646604917E+02 a      1132     0    23     1    32
  3.5778249192238718E+02 a      1133     0    23     1    33
 -4.7896726533311579E+01 a      1134     0    23     1    34
  8.9435919114700596E+01 a      1135     0    23     1    35
  1.1920719537126291E+02 a      1136     0    23     1    36
 -2.3323087802620893E+01 a      1137     0    23     1    37
 -7.3046931184069180E+01 a      1138     0    23     1    38
  6.7060282377611571E+01 a      1139     0    23     1    39
  2.6750412444173776E+01 a      1140     0    23     1    40
 -1.1129661177830739E+02 a      1141     0    23     1    41
 -5.1921517174625797E+02 a      1142     0    23     1    42
 -2.4832201588941018E+01 a      1143     0    23     1    43
 -5.4301460004456764E+01 a      1144     0    23     1    44
  7.7886156453249566E-01 a      1145     0    23     1    45
  2.9488982636914006E+01 a      1146     0    23     1    46
 -5.7202661676746203E+01 a      1147     0    23     1    47
  3.5854434449421694E+02 a      1148     0    23     1    48
  1.1769871882311682E+01 a      1149     0    23     1    49
 -1.7726237126030111E+02 a      1150     0    23     1    50
  1.3946028206866200E+02 a      1151     0    24     1     1
  4.5255990267552892E-01 a      1152     0    24     1     2
 -1.6310166416615036E+01 a      1153     0    24     1     3
 -2.1977616819339794E+01 a      1154     0    24     1     4
 -3.9415751490910225E+01 a      1155     0    24     1     5
  4.8380085404826545E+01 a      1156     0    24     1     6
  4.4610690573103341E+01 a      1157     0    24     1     7
 -8.7830096490953935E+01 a      1158     0    24     1     8
  2.1715222674522639E+01 a      1159     0    24     1     9
 -1.2725874544420583E+02 a      1160     0    24     1    10
  1.2222925055805522E+01 a      1161     0    24     1    11
  4.6596344924980059E+01 a      1162     0    24     1    12
  2.4258406811321400E+01 a      1163     0    24     1    13
 -3.2578175450968033E+01 a      1164     0    24     1    14
 -1.6144123435941654E+02 a      1165     0    24     1    15
 -2.2235046607581840E+01 a      1166     0    24     1    16
 -5.2553646240824698E+01 a      1167     0    24     1    17
  2.5839945975674670E+01 a      1168     0    24     1    18
 -2.4694211883272679E-01 a      1169     0    24     1    19
 -1.3682919625258087E+01 a      1170     0    24     1    20
 -2.7805285800816101E+01 a      1171     0    24     1    21
  7.0705543315226478E+01 a      1172     0    24     1    22
  6.7482949177470246E+00 a      1173     0    24     1    23
  8.1154063016272374E+01 a      1174     0    24     1    24
 -7.2699473488512272E+00 a      1175     0    24     1    25
  1.0244964381541955E+01 a      1176     0    24     1    26
 -2.6219855626278221E+01 a      1177     0    24     1    27
 -1.1537852894532224E+02 a      1178     0    24     1    28
  2.6536930694106928E+01 a      1179     0    24     1    29
 -2.1783515458744567E+01 a      1180     0    24     1    30
  7.0334561561937861E+01 a      1181     0    24     1    31
 -5.3774184728520176E+01 a      1182     0    24     1    32
 -1.0610164113922939E+02 a      1183     0    24     1    33
 -3.9190651162252180E+01 a      1184     0    24     1    34
  1.1889183762606278E+01 a      1185     0    24     1    35
  1.7542432623699071E+02 a      1186     0    24     1    36
 -2.0327844376758581E+01 a      1187     0    24     1    37
 -7.2783176224804777E+01 a      1188     0    24     1    38
 -1.5611436890662719E+02 a      1189     0    24     1    39
  6.1695739009515904E+01 a      1190     0    24     1    40
  2.5142660522949754E+02 a      1191     0    24     1    41
  3.2286601230158162E+01 a      1192     0    24     1    42
  2.6057846469711245E+02 a      1193     0    24     1    43
 -8.6383879728705949E+01 a      1194     0    24     1    44
 -3.9477736730900432E+01 a      1195     0    24     1    45
 -6.0357889756952964E+01 a      1196     0    24     1    46
  2.5355541202131744E+02 a      1197     0    24     1    47
 -1.9560709904596516E+02 a      1198     0    24     1    48
  1.2241295993892987E+02 a      1199     0    24     1    49
 -7.7284859182393220E+01 a      1200     0    24     1    50
  3.0118991980136666E+01 a      1201     0    25     1     1
  2.2073333118070270E+01 a      1202     0    25     1     2
 -7.3565491246149890E+01 a      1203     0    25     1     3
 -1.8976830030291779E+01 a      1204     0    25     1     4
  1.9024670613425826E+02 a      1205     0    25     1     5
  2.1721765225899202E+02 a      1206     0    25     1     6
 -1.0346724198341479E+02 a      1207     0    25     1     7
  9.0000430931900810E-01 a      1208     0    25     1     8
 -6.3646658591194189E+01 a      1209     0    25     1     9
 -7.0805649649822172E+01 a      1210     0    25     1    10
  8.8456332571327039E+00 a      1211     0    25     1    11
 -3.9743439363398672E+01 a      1212     0    25     1    12
  5.8065529009295616E+01 a      1213     0    25     1    13
 -2.7152847435481895E+01 a      1214     0    25     1    14
 -2.8377136439766639E+00 a      1215     0    25     1    15
 -1.4083639501691175E+02 a      1216     0    25     1    16
  2.4854927526222529E+01 a      1217     0    25     1    17
 -1.1292875622776401E+02 a      1218     0    25     1    18
  3.2658828267661546E+00 a      1219     0    25     1    19
  1.1980408513736421E+02 a      1220     0    25     1    20
 -1.1036001037517416E+02 a      1221     0    25     1    21
 -6.0075477992062474E+01 a      1222     0    25     1    22
  7.4996213106151046E+01 a      1223     0    25     1    23
  2.8236401502005316E+02 a      1224     0    25     1    24
 -7.0052568511704820E+01 a      1225     0    25     1    25
 -1.0974804242459045E+02 a      1226     0    25     1    26
  2.6682434721838948E+01 a      1227     0    25     1    27
 -1.7019673813840950E+02 a      1228     0    25     1    28
 -7.1772689639664989E+01 a      1229     0    25     1    29
 -1.3057913854275444E+01 a      1230     0    25     1    30
  6.6150958295227760E+00 a      1231     0    25     1    31
  1.7475409763414365E+02 a      1232     0    25     1    32
 -3.2035289963066170E+01 a      1233     0    25     1    33
 -7.8840343383976084E+00 a      1234     0    25     1    34
  1.1697557182867095E+02 a      1235     0    25     1    35
  9.0535848957289218E+01 a      1236     0    25     1    36
  4.7859009238195306E+01 a      1237     0    25     1    37
 -5.8020250991193969E+01 a      1238     0    25     1    38
  1.0209454963617951E+02 a      1239     0    25     1    39
 -1.7474852576449436E+02 a      1240     0    25     1    40
  2.4702491855714957E+01 a      1241     0    25     1    41
 -1.5208619646061749E+01 a      1242     0    25     1    42
 -5.4676957494736783E+01 a      1243     0    25     1    43
 -1.1282975959565194E+01 a      1244     0    25     1    44
 -1.1573286333722974E+02 a      1245     0    25     1    45
 -1.9214818383991033E+02 a      1246     0    25     1    46
 -1.5120533885911030E+01 a      1247     0    25     1    47
 -5.2048804366815936E+01 a      1248     0    25     1    48
 -7.8713719237623451E+01 a      1249     0    25     1    49
 -1.5870781394808716E+02 a      1250     0    25     1    50
  3.0215873905698839E+01 a      1251     0    26     1     1
  3.7640405439647714E+02 a      1252     0    26     1     2
  1.9612541122558821E+02 a      1253     0    26     1     3
 -5.4777657246207418E+01 a      1254     0    26     1     4
  1.8577392661194341E+02 a      1255     0    26     1     5
 -4.8875716910402353E+01 a      1256     0    26     1     6
 -5.1978448041840679E+01 a      1257     0    26     1     7
  7.3178191824972984E+01 a      1258     0    26     1     8
  6.6244260438703705E+01 a      1259     0    26     1     9
 -1.7924363818725886E+00 a      1260     0    26     1    10
  2.8156426634490850E+02 a      1261     0    26     1    11
 -9.6767000610890832E+01 a      1262     0    26     1    12
  1.5729604791148359E+01 a      1263     0    26     1    13
 -3.8844436035633585E+01 a      1264     0    26     1    14
 -1.4775886104551500E+02 a      1265     0    26     1    15
  7.3682830905584410E+01 a      1266     0    26     1    16
  4.7626756894732225E+01 a      1267     0    26     1    17
  1.1458877960614400E+02 a      1268     0    26     1    18
  7.0974788804838855E+00 a      1269     0    26     1    19
 -2.2427831737998901E+01 a      1270     0    26     1    20
 -1.5946272665173967E+02 a      1271     0    26     1    21
 -4.1087186547017168E+01 a      1272     0    26     1    22
  8.6529784796719412E+01 a      1273     0    26     1    23
  1.6280225474846031E+00 a      1274     0    26     1    24
 -5.0876801274027859E+00 a      1275     0    26     1    25
 -6.5287575348500271E+00 a      1276     0    26     1    26
  6.6750867843779261E+01 a      1277     0    26     1    27
  3.1915293587320541E+01 a      1278     0    26     1    28
  3.4924972058955781E+01 a      1279     0    26     1    29
 -1.2826449362330964E+01 a      1280     0    26     1    30
  3.7758702255611098E+01 a      1281     0    26     1    31
 -7.5252247204603577E+01 a      1282     0    26     1    32
  1.2057960775057040E+02 a      1283     0    26     1    33
 -1.9975211807588146E+01 a      1284     0    26     1    34
 -2.1329951801024311E+01 a      1285     0    26     1    35
  1.7925527724514527E+02 a      1286     0    26     1    36
  6.8559041917994890E+01 a      1287     0    26     1    37
 -8.2381237933051736E+01 a      1288     0    26     1    38
 -9.4489003787751983E+01 a      1289     0    26     1    39
  1.9470276670471147E+01 a      1290     0    26     1    40
  3.7368328497687293E+02 a      1291     0    26     1    41
  3.3446835630104960E+02 a      1292     0    26     1    42
  2.7447062141919196E+02 a      1293     0    26     1    43
 -2.6582779346658668E+01 a      1294     0    26     1    44
 -7.8599586974026554E+00 a      1295     0    26     1    45
 -5.2851699052239979E+01 a      1296     0    26     1    46
  5.2569436645087421E+02 a      1297     0    26     1    47
 -1.5783928496394668E+02 a      1298     0    26     1    48
  1.9391757901073746E+02 a      1299     0    26     1    49
 -8.4646390132634195E+01 a      1300     0    26     1    50
 -5.4098218136967809E+01 a      1301     0    27     1     1
 -1.1241438141490053E+02 a      1302     0    27     1     2
 -5.0334871414288962E+00 a      1303     0    27     1     3
 -6.4526543893333553E+01 a      1304     0    27     1     4
 -3.9626765547799415E+01 a      1305     0    27     1     5
 -6.3488449089164209E+00 a      1306     0    27     1     6
  6.1323043604364912E+01 a      1307     0    27     1     7
  6.5239142732911588E+01 a      1308     0    27     1     8
  4.2160176574215598E+00 a      1309     0    27     1     9
  1.3214721266604360E+02 a      1310     0    27     1    10
 -1.8278263285514910E+02 a      1311     0    27     1    11
  2.3308172301539681E+01 a      1312     0    27     1    12
  6.7356941215346737E+01 a      1313     0    27     1    13
 -1.3417979463036483E+01 a      1314     0    27     1    14
  1.0720003292018329E+02 a      1315     0    27     1    15
  9.1893361442087667E+00 a      1316     0    27     1    16
  8.9448469032763782E+01 a      1317     0    27     1    17
  1.1817196836086014E+01 a      1318     0    27     1    18
 -2.2454904228712032E+01 a      1319     0    27     1    19
 -9.2887711635884429E+00 a      1320     0    27     1    20
  1.2479706320079934E+02 a      1321     0    27     1    21
  2.4559388781036869E+01 a      1322     0    27     1    22
  2.3776299737145276E+01 a      1323     0    27     1    23
 -1.3354072502924978E+02 a      1324     0    27     1    24
  2.1509005072325262E+01 a      1325     0    27     1    25
  1.1666897806895817E+02 a      1326     0    27     1    26
  1.0152592293427786E+02 a      1327     0    27     1    27
  1.2331780878097618E+02 a      1328     0    27     1    28
  8.5839926838276483E+01 a      1329     0    27     1    29
  4.3425048443090269E+01 a      1330     0    27     1    30
  1.7719000039872495E+02 a      1331     0    27     1    31
 -4.9490302651457696E+01 a      1332     0    27     1    32
  4.4853777476890535E+01 a      1333     0    27     1    33
  1.2930073330375667E+01 a      1334     0    27     1    34
  2.8119691709122034E+01 a      1335     0    27     1    35
 -9.7870764971556511E+01 a      1336     0    27     1    36
  7.5850284361633724E+00 a      1337     0    27     1    37
  1.1091282058588915E+02 a      1338     0    27     1    38
 -8.3915526501519338E+01 a      1339     0    27     1    39
  5.5445280171693469E+01 a      1340     0    27     1    40
 -1.2610797267816085E+02 a      1341     0    27     1    41
 -6.1517010577481926E+01 a      1342     0    27     1    42
 -1.6747609454165166E+02 a      1343     0    27     1    43
  5.6107294881437021E+01 a      1344     0    27     1    44
 -3.6967080331228736E+01 a      1345     0    27     1    45
 -1.1318205109206232E+02 a      1346     0    27     1    46
 -1.8564896647366919E+02 a      1347     0    27     1    47
 -3.6400311734693361E+01 a      1348     0    27     1    48
  1.0635843529054064E+02 a      1349     0    27     1    49
  1.1938268788595965E+00 a      1350     0    27     1    50
  4.0784445375265165E+01 a      1351     0    28     1     1
 -1.4283183114883008E+02 a      1352     0    28     1     2
  1.1164474379705398E+01 a      1353     0    28     1     3
 -1.7179470035262128E+01 a      1354     0    28     1     4
 -1.4584644540490312E+00 a      1355     0    28     1     5
  3.0343201693125543E+01 a      1356     0    28     1     6
  7.0006538875568197E+01 a      1357     0    28     1     7
 -8.4935159584579068E+01 a      1358     0    28     1     8
 -2.4149386845242780E+01 a      1359     0    28     1     9
 -1.6337046321836628E+01 a      1360     0    28     1    10
 -1.8530264569440394E+02 a      1361     0    28     1    11
  7.0828653558343177E+01 a      1362     0    28     1    12
  3.9054136762540658E+01 a      1363     0    28     1    13
 -3.3297868797832727E+01 a      1364     0    28     1    14
 -6.1668581913742742E+01 a      1365     0    28     1    15
 -5.0399345525830412E+01 a      1366     0    28     1    16
  5.8415751890331071E+00 a      1367     0    28     1    17
  5.6944034584517865E+01 a      1368     0    28     1    18
 -5.8907667916532747E+00 a      1369     0    28     1    19
  3.6559631608549907E+01 a      1370     0    28     1    20
  8.4997049805533479E+01 a      1371     0    28     1    21
  4.4196703217344066E+01 a      1372     0    28     1    22
  2.4335623698247332E+01 a      1373     0    28     1    23
  5.6899024276376387E+01 a      1374     0    28     1    24
 -4.1419110660941261E+00 a      1375     0    28     1    25
  9.2600813757910885E+01 a      1376     0    28     1    26
  4.9831525984905255E+01 a      1377     0    28     1    27
 -1.2109718363602258E+02 a      1378     0    28     1    28
  5.0656212803810114E+01 a      1379     0    28     1    29
 -1.0835063270489474E+01 a      1380     0    28     1    30
  1.1106707958385054E+02 a      1381     0    28     1    31
 -4.1971755822064289E+01 a      1382     0    28     1    32
 -2.3770992330168859E+01 a      1383     0    28     1    33
 -1.8091062345138675E+00 a      1384     0    28     1    34
  1.8535784473388649E+01 a      1385     0    28     1    35
  4.9651128246002685E+01 a      1386     0    28     1    36
 -2.7199516884505979E+01 a      1387     0    28     1    37
  3.2122165975370716E+00 a      1388     0    28     1    38
 -1.5082626882417773E+02 a      1389     0    28     1    39
  1.1026229826457904E+02 a      1390     0    28     1    40
  1.5769791881419579E+02 a      1391     0    28     1    41
 -1.7009496041297609E+02 a      1392     0    28     1    42
  1.8156314201896981E+02 a      1393     0    28     1    43
 -1.6542850826079047E+01 a      1394     0    28     1    44
 -8.8893210160516020E+01 a      1395     0    28     1    45
 -6.7607690748221557E+01 a      1396     0    28     1    46
 -5.9303678871001331E+01 a      1397     0    28     1    47
 -1.5709077416578032E+02 a      1398     0    28     1    48
  1.2133594843056709E+02 a      1399     0    28     1    49
 -5.2398548749987228E+01 a      1400     0    28     1    50
 -2.3056576864241745E+01 a      1401     0    29     1     1
 -1.1434802961951827E+02 a      1402     0    29     1     2
  1.0271187159155582E+02 a      1403     0    29     1     3
 -3.3249276161976553E+01 a      1404     0    29     1     4
 -1.0765125621821808E+02 a      1405     0    29     1     5
  9.8343399172546442E-01 a      1406     0    29     1     6
  4.9337627404536029E+01 a      1407     0    29     1     7
  7.3658625535336625E+01 a      1408     0    29     1     8
 -3.6617260976584518E+01 a      1409     0    29     1     9
  3.0147211990188882E+01 a      1410     0    29     1    10
  1.2222607331823296E+02 a      1411     0    29     1    11
 -4.4714617453165658E+01 a      1412     0    29     1    12
  7.4955296012530411E+01 a      1413     0    29     1    13
  3.2732467533106757E+01 a      1414     0    29     1    14
  6.9277926585290146E+01 a      1415     0    29     1    15
 -5.7882304619058855E+00 a      1416     0    29     1    16
  3.6044247467735467E+01 a      1417     0    29     1    17
  3.3651747457763229E+01 a      1418     0    29     1    18
 -1.7605145737318374E+01 a      1419     0    29     1    19
  8.8556597401446496E+01 a      1420     0    29     1    20
  1.0399426017805965E+02 a      1421     0    29     1    21
  9.1423323575629087E+00 a      1422     0    29     1    22
 -1.5981718187175609E+01 a      1423     0    29     1    23
 -2.0889632582134720E+02 a      1424     0    29     1    24
  5.0982156061673090E+00 a      1425     0    29     1    25
 -7.6953185822401039E+01 a      1426     0    29     1    26
  7.6388628302135970E+01 a      1427     0    29     1    27
  2.9987418049669623E+02 a      1428     0    29     1    28
  4.3371683961565857E+01 a      1429     0    29     1    29
  2.1605470083041489E+01 a      1430     0    29     1    30
  1.3520897492226590E+02 a      1431     0    29     1    31
 -2.4416051374475234E+01 a      1432     0    29     1    32
  1.9712789042359623E+02 a      1433     0    29     1    33
  3.1780277065972991E+00 a      1434     0    29     1    34
  4.7218359700613334E+01 a      1435     0    29     1    35
  1.0190529020678777E+02 a      1436     0    29     1    36
  3.2994991422435447E+01 a      1437     0    29     1    37
 -1.2733435920511090E+01 a      1438     0    29     1    38
 -2.7091483173628319E+01 a      1439     0    29     1    39
  3.2020583670653053E+01 a      1440     0    29     1    40
 -3.2841096247074354E+01 a      1441     0    29     1    41
  5.9320174323048365E+00 a      1442     0    29     1    42
 -2.0078731914755340E+02 a      1443     0    29     1    43
  2.8647591053785469E+01 a      1444     0    29     1    44
  6.6104044726656866E+01 a      1445     0    29     1    45
 -1.0991187829664581E+02 a      1446     0    29     1    46
  1.0745263322882839E+02 a      1447     0    29     1    47
  9.8939722601841197E+01 a      1448     0    29     1    48
  1.1204707017030056E+02 a      1449     0    29     1    49
 -3.6992660233152655E+01 a      1450     0    29     1    50
  7.4484672570882950E+01 a      1451     0    30     1     1
 -1.5220069810105787E+02 a      1452     0    30     1     2
  4.1370252540437995E+01 a      1453     0    30     1     3
  3.0620766101009007E+00 a      1454     0    30     1     4
 -6.9149493365130121E+00 a      1455     0    30     1     5
  4.2450015814927468E+01 a      1456     0    30     1     6
  6.9631225893426347E+01 a      1457     0    30     1     7
 -1.2578384948312501E+02 a      1458     0    30     1     8
 -4.1633645583883585E+01 a      1459     0    30     1     9
 -8.2667400090285938E+01 a      1460     0    30     1    10
 -1.1397705661814049E+02 a      1461     0    30     1    11
  6.8124028313436909E+01 a      1462     0    30     1    12
  3.2636960081277309E+01 a      1463     0    30     1    13
 -2.8505158702927243E+01 a      1464     0    30     1    14
 -1.1824269530734387E+02 a      1465     0    30     1    15
 -7.0778813820683908E+01 a      1466     0    30     1    16
 -3.0324475655896048E+01 a      1467     0    30     1    17
  7.4560296883744414E+01 a      1468     0    30     1    18
  2.4660436173774065E-02 a      1469     0    30     1    19
  7.3043913959214805E+01 a      1470     0    30     1    20
  6.8899320695798806E+01 a      1471     0    30     1    21
  4.6306158790890663E+01 a      1472     0    30     1    22
  1.5117517174092155E+01 a      1473     0    30     1    23
  9.3128795682041329E+01 a      1474     0    30     1    24
 -1.5249475239804264E+01 a      1475     0    30     1    25
  4.0049011509012047E+01 a      1476     0    30     1    26
  2.8846822472260616E+01 a      1477     0    30     1    27
 -1.4861030939870082E+02 a      1478     0    30     1    28
  3.0212263523182440E+01 a      1479     0    30     1    29
 -3.1515666480975284E+01 a      1480     0    30     1    30
  8.2416868329767269E+01 a      1481     0    30     1    31
 -3.3850377878245887E+01 a      1482     0    30     1    32
 -7.0105676199849993E+00 a      1483     0    30     1    33
 -8.8017251402232795E+00 a      1484     0    30     1    34
  2.0691171674519477E+01 a      1485     0    30     1    35
  1.3877658510984031E+02 a      1486     0    30     1    36
 -3.1264800548926583E+01 a      1487     0    30     1    37
 -5.7087392017608892E+01 a      1488     0    30     1    38
 -1.5652165942619615E+02 a      1489     0    30     1    39
  1.1994075112535224E+02 a      1490     0    30     1    40
  2.6076421137951064E+02 a      1491     0    30     1    41
 -1.8517759921375097E+02 a      1492     0    30     1    42
  2.7245059399386417E+02 a      1493     0    30     1    43
 -4.3608960826835116E+01 a      1494     0    30     1    44
 -7.9049614362453113E+01 a      1495     0    30     1    45
 -5.3884177783247388E+01 a      1496     0    30     1    46
  4.5656387057074554E+01 a      1497     0    30     1    47
 -1.5950517156985768E+02 a      1498     0    30     1    48
  1.2720232987033947E+02 a      1499     0    30     1    49
 -7.6496158778723327E+01 a      1500     0    30     1    50
 -1.2832252956616270E+02 a      1501     0    31     1     1
  1.9473686925253401E+02 a      1502     0    31     1     2
 -9.5503590464675767E+01 a      1503     0    31     1     3
  6.6028098186197923E+01 a      1504     0    31     1     4
  2.0019665501345941E+02 a      1505     0    31     1     5
 -5.4823314420872855E+01 a      1506     0    31     1     6
 -2.4975927768174024E+01 a      1507     0    31     1     7
 -5.4343866738957168E+01 a      1508     0    31     1     8
  5.3105091867978501E+01 a      1509     0    31     1     9
  1.3410461629144397E+00 a      1510     0    31     1    10
  2.9732565645921972E+02 a      1511     0    31     1    11
  7.5780127849549190E+00 a      1512     0    31     1    12
 -3.0139170737262475E+01 a      1513     0    31     1    13
  1.6981697574116115E+01 a      1514     0    31     1    14
 -3.2739122819281270E+01 a      1515     0    31     1    15
  4.8578356862050882E+01 a      1516     0    31     1    16
 -1.2125165997241385E+01 a      1517     0    31     1    17
  8.0098604525946318E+00 a      1518     0    31     1    18
  5.6481612840850559E+00 a      1519     0    31     1    19
  1.1370973084518722E+02 a      1520     0    31     1    20
 -4.6608510516592546E+01 a      1521     0    31     1    21
  2.7851034533961364E+01 a      1522     0    31     1    22
  2.3012621018498916E+01 a      1523     0    31     1    23
 -1.1540077610007646E+01 a      1524     0    31     1    24
  4.3771708260285376E+00 a      1525     0    31     1    25
  3.0424150006393475E+01 a      1526     0    31     1    26
 -4.3017531451155619E+01 a      1527     0    31     1    27
 -4.9897764294871408E+01 a      1528     0    31     1    28
 -3.9938166435370682E+01 a      1529     0    31     1    29
 -1.9628491495810213E+01 a      1530     0    31     1    30
 -7.4134994851155852E+01 a      1531     0    31     1    31
  6.0784825046548590E+01 a      1532     0    31     1    32
  7.0370666093607255E+01 a      1533     0    31     1    33
 -2.3849288215521053E+01 a      1534     0    31     1    34
 -4.4832650258027293E+01 a      1535     0    31     1    35
 -6.3366292168321756E+01 a      1536     0    31     1    36
  2.2280613941007816E+00 a      1537     0    31     1    37
 -5.5602024860103533E+01 a      1538     0    31     1    38
  4.3830699023250681E+01 a      1539     0    31     1    39
 -9.0924445698045218E+01 a      1540     0    31     1    40
  2.9076006078383578E+00 a      1541     0    31     1    41
  7.3064340547407994E+01 a      1542     0    31     1    42
  4.4371278742454059E+01 a      1543     0    31     1    43
 -2.6387285225961705E+01 a      1544     0    31     1    44
  7.4852808876195134E+00 a      1545     0    31     1    45
  8.2723561348148522E+01 a      1546     0    31     1    46
  1.7633220344693174E+02 a      1547     0    31     1    47
  1.4633130535795655E+02 a      1548     0    31     1    48
 -7.1198522885107138E+01 a      1549     0    31     1    49
 -2.8305215196562671E+01 a      1550     0    31     1    50
 -1.6066043367032674E+02 a      1551     0    32     1     1
  6.9889588784364136E+01 a      1552     0    32     1     2
  5.9706363922572450E+01 a      1553     0    32     1     3
  5.3139631665888636E+01 a      1554     0    32     1     4
  1.4034165002159077E+02 a      1555     0    32     1     5
 -5.6133952445986679E+01 a      1556     0    32     1     6
  1.3866533194882312E+01 a      1557     0    32     1     7
 -7.3666067048023676E+00 a      1558     0    32     1     8
 -2.2437786940089577E+01 a      1559     0    32     1     9
  2.2980365923447639E+01 a      1560     0    32     1    10
  2.2916956781127826E+02 a      1561     0    32     1    11
 -1.1538566695239316E+01 a      1562     0    32     1    12
 -2.3637450028140381E+00 a      1563     0    32     1    13
  2.2690333398449738E+01 a      1564     0    32     1    14
  2.2095723737631243E+01 a      1565     0    32     1    15
  2.2194570315749402E+01 a      1566     0    32     1    16
  2.7363533182781850E+01 a      1567     0    32     1    17
  4.4239771413375770E+01 a      1568     0    32     1    18
  9.9289522896956175E+00 a      1569     0    32     1    19
  1.8736184183579184E+02 a      1570     0    32     1    20
  4.9560481485918046E+01 a      1571     0    32     1    21
 -1.0071978781063720E+00 a      1572     0    32     1    22
  3.2423155735422085E+01 a      1573     0    32     1    23
 -5.0472563673755715E+01 a      1574     0    32     1    24
 -9.9776852510251270E+00 a      1575     0    32     1    25
  5.1397939101924095E+00 a      1576     0    32     1    26
  3.2844186824025378E+01 a      1577     0    32     1    27
  6.3334563749714150E+01 a      1578     0    32     1    28
 -4.1277241920291260E+01 a      1579     0    32     1    29
 -2.5912942031922174E+01 a      1580     0    32     1    30
 -4.6471047604638237E+01 a      1581     0    32     1    31
  6.1937030128023224E+01 a      1582     0    32     1    32
  2.0833397904089384E+02 a      1583     0    32     1    33
  1.5978368052499492E+01 a      1584     0    32     1    34
 -3.7514089693914339E+00 a      1585     0    32     1    35
 -4.9921291628906538E+01 a      1586     0    32     1    36
 -1.3394168335474227E+01 a      1587     0    32     1    37
 -4.5382218071546774E+01 a      1588     0    32     1    38
  5.4214939992384195E+01 a      1589     0    32     1    39
 -2.2842793562576336E+01 a      1590     0    32     1    40
  1.8389015834681341E+01 a      1591     0    32     1    41
 -1.3384497703998631E+01 a      1592     0    32     1    42
 -3.1674327520674513E+01 a      1593     0    32     1    43
  2.5606620294451822E+01 a      1594     0    32     1    44
  3.2433740595953203E+01 a      1595     0    32     1    45
  4.9411113607517883E+01 a      1596     0    32     1    46
  1.0929813959534376E+02 a      1597     0    32     1    47
  1.8294993524186131E+02 a      1598     0    32     1    48
 -1.3516248332625882E+01 a      1599     0    32     1    49
 -3.9429681838360224E+01 a      1600     0    32     1    50
  2.4030159321712105E+02 a      1601     0    33     1     1
 -5.5828852391844940E+01 a      1602     0    33     1     2
 -2.3353761471513096E+01 a      1603     0    33     1     3
  4.9560994117712633E+00 a      1604     0    33     1     4
 -1.4394805367422447E+02 a      1605     0    33     1     5
  1.2548319785519554E+02 a      1606     0    33     1     6
 -2.3822294538825162E+00 a      1607     0    33     1     7
 -9.1506651576740850E+01 a      1608     0    33     1     8
 -3.9047640878630649E+00 a      1609     0    33     1     9
 -1.9105966579192648E+02 a      1610     0    33     1    10
 -4.3094633729884301E+01 a      1611     0    33     1    11
 -6.2518356440452836E+00 a      1612     0    33     1    12
 -2.7052433500830162E+01 a      1613     0    33     1    13
 -8.6222205128655336E+00 a      1614     0    33     1    14
 -9.9519406334970853E+01 a      1615     0    33     1    15
 -5.8416142070599719E+01 a      1616     0    33     1    16
 -8.4713028207889963E+01 a      1617     0    33     1    17
 -8.1573147464934408E+00 a      1618     0    33     1    18
 -2.3841334279688033E+00 a      1619     0    33     1    19
 -2.0928641917937784E+02 a      1620     0    33     1    20
 -1.1342478255422132E+02 a      1621     0    33     1    21
 -2.4229682987387633E+01 a      1622     0    33     1    22
 -5.6967684205544522E+01 a      1623     0    33     1    23
