################################################################################
# Neural network connection values (weights and biases).
################################################################################
# Col  Name       Description
################################################################################
# 1    connection Neural network connection value.
# 2    t          Connection type (a = weight, b = bias).
# 3    index      Index enumerating weights.
# 4    l_s        Starting point layer (end point layer for biases).
# 5    n_s        Starting point neuron in starting layer (end point neuron for biases).
# 6    l_e        End point layer.
# 7    n_e        End point neuron in end layer.
################################################################################
#                      1 2         3     4     5     6     7
#             connection t     index   l_s   n_s   l_e   n_e
############################################################
  1.3934549787587395E+01 a         1     0     1     1     1
 -1.4382215294537936E+01 a         2     0     1     1     2
 -2.1658928686250798E+00 a         3     0     1     1     3
 -1.1379645293270562E+01 a         4     0     1     1     4
  1.1813954448047235E+00 a         5     0     1     1     5
  6.1001937715225640E-01 a         6     0     1     1     6
 -7.0139735268231540E+00 a         7     0     1     1     7
 -1.9907062485223161E+01 a         8     0     1     1     8
 -1.1546377880079470E+01 a         9     0     1     1     9
  2.7822357218549003E+00 a        10     0     1     1    10
  2.5649895279500718E+00 a        11     0     1     1    11
  4.0045326282401188E+00 a        12     0     1     1    12
  1.1324233148658016E+00 a        13     0     1     1    13
 -8.1713477742006435E-02 a        14     0     1     1    14
  1.8990430828911478E+01 a        15     0     1     1    15
 -5.7923392568130074E+00 a        16     0     1     1    16
 -3.9160842734655614E+00 a        17     0     1     1    17
 -2.6380051231788202E+00 a        18     0     1     1    18
 -4.2426417802931962E+00 a        19     0     1     1    19
  1.2875095413005289E+00 a        20     0     1     1    20
 -3.9438665393316596E+00 a        21     0     1     1    21
 -2.8687389155176768E+00 a        22     0     1     1    22
 -2.8753454562521354E+00 a        23     0     1     1    23
  2.4405825805828889E+00 a        24     0     1     1    24
 -3.5762807994817032E+00 a        25     0     1     1    25
  2.8401490350962217E+00 a        26     0     1     1    26
  5.8583243147124771E+00 a        27     0     1     1    27
  1.6485656842540006E+00 a        28     0     1     1    28
 -2.9871004599890445E+00 a        29     0     1     1    29
 -4.2100787302896819E-01 a        30     0     1     1    30
  5.5393794076172940E+00 a        31     0     1     1    31
  2.8025901284286943E+00 a        32     0     1     1    32
 -6.5739122969220709E+00 a        33     0     1     1    33
 -1.0864093159776451E+00 a        34     0     1     1    34
 -3.2513995717851394E+01 a        35     0     1     1    35
  3.2383182990629238E+00 a        36     0     1     1    36
 -1.6190066474115323E+01 a        37     0     1     1    37
  1.7429400569945198E+01 a        38     0     1     1    38
  6.3293436830646783E+00 a        39     0     1     1    39
  5.0431851038606608E+00 a        40     0     1     1    40
  5.5985082650704641E+00 a        41     0     1     1    41
  3.9077795612883848E+00 a        42     0     1     1    42
 -2.5452575659207057E+00 a        43     0     1     1    43
  8.0957509222584179E+01 a        44     0     1     1    44
  2.9707146292380000E+00 a        45     0     1     1    45
  3.0445046599096823E+00 a        46     0     1     1    46
 -5.3650718813739182E+00 a        47     0     1     1    47
  8.4836721211326651E+00 a        48     0     1     1    48
  8.8025382849840881E+00 a        49     0     1     1    49
 -1.6034268611549400E+00 a        50     0     1     1    50
  1.4600011029339933E+01 a        51     0     2     1     1
 -1.5681048988890883E+01 a        52     0     2     1     2
 -1.3028450364455517E+00 a        53     0     2     1     3
 -7.8418610290072230E+00 a        54     0     2     1     4
  1.3403057873761779E+00 a        55     0     2     1     5
  5.3431012089365637E-01 a        56     0     2     1     6
 -7.7907070337802677E+00 a        57     0     2     1     7
 -1.9338352895932932E+01 a        58     0     2     1     8
 -1.2833429509271607E+01 a        59     0     2     1     9
  2.8140494779047174E+00 a        60     0     2     1    10
  9.7330815368737644E-01 a        61     0     2     1    11
  2.5839257348894593E+00 a        62     0     2     1    12
  2.6527209836051302E+00 a        63     0     2     1    13
  1.8798085596379588E+00 a        64     0     2     1    14
  1.7490706920784376E+01 a        65     0     2     1    15
 -5.7523342666644153E+00 a        66     0     2     1    16
 -5.0909456363317656E+00 a        67     0     2     1    17
 -1.3647906541570183E+00 a        68     0     2     1    18
 -4.0397793496468948E+00 a        69     0     2     1    19
  2.4548256382200235E+00 a        70     0     2     1    20
 -3.8060708171650286E+00 a        71     0     2     1    21
 -3.2175282980968656E+00 a        72     0     2     1    22
 -2.1228042220648913E+00 a        73     0     2     1    23
  1.7030348147435594E+00 a        74     0     2     1    24
 -2.1173237368700573E+00 a        75     0     2     1    25
  5.8412108095730231E+00 a        76     0     2     1    26
  7.1747449500582983E+00 a        77     0     2     1    27
  1.7918411520462588E-01 a        78     0     2     1    28
 -9.3393795521255729E-01 a        79     0     2     1    29
 -1.1200056199840664E+00 a        80     0     2     1    30
  4.7520676617133502E+00 a        81     0     2     1    31
  4.7505023203118846E+00 a        82     0     2     1    32
 -6.6202111603706824E+00 a        83     0     2     1    33
 -2.2055485188006663E+00 a        84     0     2     1    34
 -2.4917077078086578E+01 a        85     0     2     1    35
  2.9355394981026413E+00 a        86     0     2     1    36
 -1.4737586471437035E+01 a        87     0     2     1    37
  1.6759122205615807E+01 a        88     0     2     1    38
  6.2741765281582289E+00 a        89     0     2     1    39
  4.6321328010821086E+00 a        90     0     2     1    40
  6.2741222562216592E+00 a        91     0     2     1    41
  4.8915152693419701E+00 a        92     0     2     1    42
 -3.4223008297663884E+00 a        93     0     2     1    43
  6.8398929551511074E+01 a        94     0     2     1    44
  3.2153682358055824E+00 a        95     0     2     1    45
  4.2471021155037665E+00 a        96     0     2     1    46
 -6.2462789924736111E+00 a        97     0     2     1    47
  8.0244630379325486E+00 a        98     0     2     1    48
  9.7257655120308169E+00 a        99     0     2     1    49
 -1.6964663865449578E+00 a       100     0     2     1    50
  6.9304512018133035E+00 a       101     0     3     1     1
 -3.9845915584834870E+00 a       102     0     3     1     2
 -4.0796606799690540E+00 a       103     0     3     1     3
 -1.8384466318000300E+01 a       104     0     3     1     4
  2.9992032322768136E-01 a       105     0     3     1     5
  2.0729601145108005E+00 a       106     0     3     1     6
 -1.4188203100840160E+00 a       107     0     3     1     7
 -1.5394243471840923E+01 a       108     0     3     1     8
 -2.1727592252790062E+00 a       109     0     3     1     9
  4.0960478362411606E-01 a       110     0     3     1    10
  6.7809547814405171E+00 a       111     0     3     1    11
  1.0279423293453370E+01 a       112     0     3     1    12
 -7.2212679559528006E+00 a       113     0     3     1    13
 -8.5976177389244928E+00 a       114     0     3     1    14
  1.7423443354398710E+01 a       115     0     3     1    15
 -4.4932991369833042E+00 a       116     0     3     1    16
  2.2927981348164721E+00 a       117     0     3     1    17
 -5.4572963460980990E+00 a       118     0     3     1    18
 -3.2841988180777606E+00 a       119     0     3     1    19
 -3.2104170576605662E+00 a       120     0     3     1    20
 -4.4043313677540938E+00 a       121     0     3     1    21
 -1.7655248912084922E+00 a       122     0     3     1    22
 -4.2888602652034296E+00 a       123     0     3     1    23
  4.5228075895176474E+00 a       124     0     3     1    24
 -6.5596221052400443E+00 a       125     0     3     1    25
 -8.6562238194658931E+00 a       126     0     3     1    26
 -3.1660768084727392E-01 a       127     0     3     1    27
  7.4610549522884693E+00 a       128     0     3     1    28
 -1.0171424750904038E+01 a       129     0     3     1    29
  3.5231063452832929E+00 a       130     0     3     1    30
  6.4702449586569655E+00 a       131     0     3     1    31
 -4.3502612434822678E+00 a       132     0     3     1    32
 -3.4457445863399503E+00 a       133     0     3     1    33
  4.0488395973357791E+00 a       134     0     3     1    34
 -4.9434799128091861E+01 a       135     0     3     1    35
  3.5664082789027240E+00 a       136     0     3     1    36
 -1.7321195568877929E+01 a       137     0     3     1    37
  1.3890195510112324E+01 a       138     0     3     1    38
  4.0159050928680404E+00 a       139     0     3     1    39
  2.3516939309405998E+00 a       140     0     3     1    40
  2.3987417114242926E+00 a       141     0     3     1    41
 -1.5292792056967714E+00 a       142     0     3     1    42
  4.2169660184268720E-01 a       143     0     3     1    43
  9.8669810966150152E+01 a       144     0     3     1    44
  2.2493116435917275E+00 a       145     0     3     1    45
 -1.6589632827723904E+00 a       146     0     3     1    46
  1.0024187654488295E+00 a       147     0     3     1    47
  7.5180957173738614E+00 a       148     0     3     1    48
  5.0488078643635104E-01 a       149     0     3     1    49
  7.5594500433330525E-01 a       150     0     3     1    50
  1.2284947665542818E+01 a       151     0     4     1     1
 -1.6406198105642662E+01 a       152     0     4     1     2
  2.7041507879366700E+00 a       153     0     4     1     3
  1.2462560852401179E+01 a       154     0     4     1     4
  1.3422793467850227E+00 a       155     0     4     1     5
 -1.3391700739742338E+00 a       156     0     4     1     6
 -9.0810109583663792E+00 a       157     0     4     1     7
 -8.4358217899073029E+00 a       158     0     4     1     8
 -1.3984038766609331E+01 a       159     0     4     1     9
  1.0635434396686487E+00 a       160     0     4     1    10
 -5.4234574060740339E+00 a       161     0     4     1    11
 -6.3286430287723068E+00 a       162     0     4     1    12
  8.0433233197051504E+00 a       163     0     4     1    13
  9.8854230573155384E+00 a       164     0     4     1    14
  3.4458696274735154E+00 a       165     0     4     1    15
 -1.5975679643795044E+00 a       166     0     4     1    16
 -1.0514586384711865E+01 a       167     0     4     1    17
  2.9827805158163181E+00 a       168     0     4     1    18
 -1.8318754612347907E+00 a       169     0     4     1    19
  6.5378790208396502E+00 a       170     0     4     1    20
  7.5146615739569989E-01 a       171     0     4     1    21
 -2.9847802724604251E+00 a       172     0     4     1    22
  1.7035217053160949E+00 a       173     0     4     1    23
 -3.2127793764446461E-01 a       174     0     4     1    24
  4.2697312020713873E+00 a       175     0     4     1    25
  1.7218847191605832E+01 a       176     0     4     1    26
  9.5740842513349858E+00 a       177     0     4     1    27
 -6.8088337481885715E+00 a       178     0     4     1    28
  1.0001102093948107E+01 a       179     0     4     1    29
 -3.4587361555867506E+00 a       180     0     4     1    30
 -6.1170347410183089E-02 a       181     0     4     1    31
  1.0131000686924368E+01 a       182     0     4     1    32
 -6.2179176682884609E+00 a       183     0     4     1    33
 -6.1611508495637954E+00 a       184     0     4     1    34
  1.7856882947264982E+01 a       185     0     4     1    35
  8.6892266232230486E-01 a       186     0     4     1    36
  3.6535054309412351E-01 a       187     0     4     1    37
  7.7928127195915087E+00 a       188     0     4     1    38
  4.2017004764700827E+00 a       189     0     4     1    39
  1.5247335402790463E+00 a       190     0     4     1    40
  5.6894670861716268E+00 a       191     0     4     1    41
  7.5423390374987704E+00 a       192     0     4     1    42
 -8.3879730496772265E+00 a       193     0     4     1    43
 -1.4289210164087919E+01 a       194     0     4     1    44
  3.6724457215847122E+00 a       195     0     4     1    45
  5.8088232913611986E+00 a       196     0     4     1    46
 -1.0154745672886012E+01 a       197     0     4     1    47
  4.2046523874844421E+00 a       198     0     4     1    48
  1.1892307497296473E+01 a       199     0     4     1    49
 -1.4042934829159281E+00 a       200     0     4     1    50
 -3.1899346936760677E+00 a       201     0     5     1     1
  1.0766560775885530E+01 a       202     0     5     1     2
 -7.0517964386693537E+00 a       203     0     5     1     3
 -3.0699374340384022E+01 a       204     0     5     1     4
 -3.4923341238352013E-01 a       205     0     5     1     5
  4.9051558488274338E+00 a       206     0     5     1     6
  6.5632914546295575E+00 a       207     0     5     1     7
 -9.6919340848165003E+00 a       208     0     5     1     8
  1.1243973216815869E+01 a       209     0     5     1     9
 -1.3237408920311859E+00 a       210     0     5     1    10
  1.3461280705236282E+01 a       211     0     5     1    11
  1.8107653936154978E+01 a       212     0     5     1    12
 -1.6248269733881116E+01 a       213     0     5     1    13
 -2.0292563593611028E+01 a       214     0     5     1    14
  1.6251178907828749E+01 a       215     0     5     1    15
 -3.1064721998508964E+00 a       216     0     5     1    16
  1.1458976828314531E+01 a       217     0     5     1    17
 -1.0429290662037662E+01 a       218     0     5     1    18
 -1.4960929308101172E+00 a       219     0     5     1    19
 -9.7357450762069462E+00 a       220     0     5     1    20
 -4.3602775729070782E+00 a       221     0     5     1    21
 -4.3171841157044200E-01 a       222     0     5     1    22
 -7.0663207611807080E+00 a       223     0     5     1    23
  5.7311991321941642E+00 a       224     0     5     1    24
 -1.1096028236992604E+01 a       225     0     5     1    25
 -2.9572875569986770E+01 a       226     0     5     1    26
 -9.3912854081497592E+00 a       227     0     5     1    27
  1.6561308556099181E+01 a       228     0     5     1    28
 -2.2541732335492274E+01 a       229     0     5     1    29
  8.7516802860787024E+00 a       230     0     5     1    30
  9.2529045588695666E+00 a       231     0     5     1    31
 -1.5648942284201887E+01 a       232     0     5     1    32
  1.0152881754138474E+00 a       233     0     5     1    33
  1.2040752171109048E+01 a       234     0     5     1    34
 -7.2890738956120146E+01 a       235     0     5     1    35
  3.4013172715006408E+00 a       236     0     5     1    36
 -1.9637116257289311E+01 a       237     0     5     1    37
  8.5853813497008176E+00 a       238     0     5     1    38
  3.2600633784450606E-01 a       239     0     5     1    39
  7.8253525421301529E-01 a       240     0     5     1    40
 -2.3668491357258432E+00 a       241     0     5     1    41
 -9.3348645160621277E+00 a       242     0     5     1    42
  6.3654396663905111E+00 a       243     0     5     1    43
  1.2153152583388290E+02 a       244     0     5     1    44
 -6.1714832377615059E-01 a       245     0     5     1    45
 -8.2202868144922476E+00 a       246     0     5     1    46
  1.0029137481814708E+01 a       247     0     5     1    47
  6.1965847775618483E+00 a       248     0     5     1    48
 -1.0839259133133959E+01 a       249     0     5     1    49
  4.2069932811373363E+00 a       250     0     5     1    50
  7.7216974770223006E+00 a       251     0     6     1     1
 -1.5489514047720885E+01 a       252     0     6     1     2
  8.5310542189322263E+00 a       253     0     6     1     3
  4.0947110409247465E+01 a       254     0     6     1     4
  1.3858064132679833E+00 a       255     0     6     1     5
 -4.1884683522306370E+00 a       256     0     6     1     6
 -9.2504736567947781E+00 a       257     0     6     1     7
  7.3083036240826207E+00 a       258     0     6     1     8
 -1.4629514792591541E+01 a       259     0     6     1     9
 -2.6065212535301043E+00 a       260     0     6     1    10
 -1.5463683414088788E+01 a       261     0     6     1    11
 -1.8859615510469457E+01 a       262     0     6     1    12
  1.5284956795886119E+01 a       263     0     6     1    13
  2.0559516485125265E+01 a       264     0     6     1    14
 -1.6537312562163091E+01 a       265     0     6     1    15
  4.3615018150978244E+00 a       266     0     6     1    16
 -1.7274543328710894E+01 a       267     0     6     1    17
  9.8831445897814056E+00 a       268     0     6     1    18
  2.0623012176431037E+00 a       269     0     6     1    19
  1.1614201962796454E+01 a       270     0     6     1    20
  6.9587052199483947E+00 a       271     0     6     1    21
 -2.7409245113997116E+00 a       272     0     6     1    22
  7.4373111873972899E+00 a       273     0     6     1    23
 -4.6820855337497909E+00 a       274     0     6     1    24
  1.4644279159945365E+01 a       275     0     6     1    25
  3.2876899276723670E+01 a       276     0     6     1    26
  1.2972624594125486E+01 a       277     0     6     1    27
 -1.7185465657920965E+01 a       278     0     6     1    28
  2.5574952105577434E+01 a       279     0     6     1    29
 -7.6270241267908547E+00 a       280     0     6     1    30
 -7.2983867299601037E+00 a       281     0     6     1    31
  1.8303552927658327E+01 a       282     0     6     1    32
 -4.6287384999713135E+00 a       283     0     6     1    33
 -1.1900540075676441E+01 a       284     0     6     1    34
  7.8133353615066270E+01 a       285     0     6     1    35
 -1.3572606447017195E+00 a       286     0     6     1    36
  2.0745317720723037E+01 a       287     0     6     1    37
 -6.4190285375088116E+00 a       288     0     6     1    38
  1.3499788650270252E+00 a       289     0     6     1    39
 -3.2152835206906052E+00 a       290     0     6     1    40
  4.6384548635244096E+00 a       291     0     6     1    41
  1.0400527386030971E+01 a       292     0     6     1    42
 -1.4539256698680816E+01 a       293     0     6     1    43
 -1.2932306077723257E+02 a       294     0     6     1    44
  3.6881717237356431E+00 a       295     0     6     1    45
  8.1987513921413466E+00 a       296     0     6     1    46
 -1.5588499958741705E+01 a       297     0     6     1    47
 -2.5281862185350241E+00 a       298     0     6     1    48
  1.5055537229313650E+01 a       299     0     6     1    49
 -9.4039547317898220E-01 a       300     0     6     1    50
 -7.7081824901466112E+00 a       301     0     7     1     1
  1.8536733036937360E+01 a       302     0     7     1     2
 -7.8383069788426614E+00 a       303     0     7     1     3
 -2.6178140928849569E+01 a       304     0     7     1     4
 -1.4323425150481544E+00 a       305     0     7     1     5
  7.2967691998688879E+00 a       306     0     7     1     6
  9.8941801017367315E+00 a       307     0     7     1     7
  5.9888492027901596E-01 a       308     0     7     1     8
  1.8528315775351327E+01 a       309     0     7     1     9
 -3.6150738570170865E-01 a       310     0     7     1    10
  1.4234572336604495E+01 a       311     0     7     1    11
  1.8362026014070807E+01 a       312     0     7     1    12
 -1.5021599683714374E+01 a       313     0     7     1    13
 -2.3678914582834565E+01 a       314     0     7     1    14
  6.8512896105487782E+00 a       315     0     7     1    15
 -4.4967646900255615E-01 a       316     0     7     1    16
  1.5000598003381770E+01 a       317     0     7     1    17
 -1.1988335698275190E+01 a       318     0     7     1    18
  1.0537013683016645E+00 a       319     0     7     1    19
 -1.0119957695694881E+01 a       320     0     7     1    20
 -2.4493740709917780E+00 a       321     0     7     1    21
  9.0784005682135083E-01 a       322     0     7     1    22
 -7.6498766416608452E+00 a       323     0     7     1    23
  5.3394620251893254E+00 a       324     0     7     1    24
 -1.1671360634672734E+01 a       325     0     7     1    25
 -3.7918802076057929E+01 a       326     0     7     1    26
 -1.3320276834684931E+01 a       327     0     7     1    27
  1.8678184490005389E+01 a       328     0     7     1    28
 -2.6134111375514738E+01 a       329     0     7     1    29
  1.0611934847213909E+01 a       330     0     7     1    30
  9.2100308228293333E+00 a       331     0     7     1    31
 -1.9561400069904384E+01 a       332     0     7     1    32
  3.3014858018693616E+00 a       333     0     7     1    33
  1.5240352990869047E+01 a       334     0     7     1    34
 -5.9015422439015538E+01 a       335     0     7     1    35
  9.9374317282775937E-01 a       336     0     7     1    36
 -1.2191653637682810E+01 a       337     0     7     1    37
  1.5486035867875370E+00 a       338     0     7     1    38
 -3.4070243528186603E+00 a       339     0     7     1    39
 -5.8696596309469884E-01 a       340     0     7     1    40
 -4.1516929081839926E+00 a       341     0     7     1    41
 -1.3019025048480238E+01 a       342     0     7     1    42
  5.2251701593396334E+00 a       343     0     7     1    43
  7.5636331922304336E+01 a       344     0     7     1    44
 -2.1449854440836709E+00 a       345     0     7     1    45
 -1.0066596522966414E+01 a       346     0     7     1    46
  1.2764451950887510E+01 a       347     0     7     1    47
  3.9402788043727632E+00 a       348     0     7     1    48
 -1.7070068275976499E+01 a       349     0     7     1    49
  7.6379794455307026E+00 a       350     0     7     1    50
 -1.8358218282806441E-01 a       351     0     8     1     1
 -1.0792732747844255E+01 a       352     0     8     1     2
  1.2862810387112660E+01 a       353     0     8     1     3
  4.8674574813866663E+01 a       354     0     8     1     4
  2.8602361203195419E+00 a       355     0     8     1     5
 -5.6916850942972221E+00 a       356     0     8     1     6
 -5.4974742983329961E+00 a       357     0     8     1     7
  1.4962135782992002E+01 a       358     0     8     1     8
 -1.2385167232525236E+01 a       359     0     8     1     9
 -5.5573126762299703E+00 a       360     0     8     1    10
 -1.8935034159199077E+01 a       361     0     8     1    11
 -2.3697326250096509E+01 a       362     0     8     1    12
  1.7210280563040698E+01 a       363     0     8     1    13
  2.4382632844053987E+01 a       364     0     8     1    14
 -2.3520372996516929E+01 a       365     0     8     1    15
  6.4192136760604717E+00 a       366     0     8     1    16
 -2.0378940036773709E+01 a       367     0     8     1    17
  1.3670791239760367E+01 a       368     0     8     1    18
  4.9483549622192671E+00 a       369     0     8     1    19
  1.1669723034238030E+01 a       370     0     8     1    20
  1.0536255781070675E+01 a       371     0     8     1    21
 -2.0289593574750553E+00 a       372     0     8     1    22
  1.1705228378142552E+01 a       373     0     8     1    23
 -8.4776462235376080E+00 a       374     0     8     1    24
  2.0785575109000408E+01 a       375     0     8     1    25
  3.4769522217225479E+01 a       376     0     8     1    26
  1.2133150798912855E+01 a       377     0     8     1    27
 -2.1014562580557794E+01 a       378     0     8     1    28
  3.1453525978102171E+01 a       379     0     8     1    29
 -9.1807193733976415E+00 a       380     0     8     1    30
 -1.0689861009555834E+01 a       381     0     8     1    31
  2.0753058483927994E+01 a       382     0     8     1    32
 -1.6809348816111152E+00 a       383     0     8     1    33
 -1.3546038877510744E+01 a       384     0     8     1    34
  1.0009567326037393E+02 a       385     0     8     1    35
 -2.2236837404574610E+00 a       386     0     8     1    36
  2.7796285506723251E+01 a       387     0     8     1    37
 -1.6870653925559928E+01 a       388     0     8     1    38
 -1.1418593343508254E+00 a       389     0     8     1    39
 -3.6710842663202361E+00 a       390     0     8     1    40
  3.4840041814356115E+00 a       391     0     8     1    41
  1.0525755571258074E+01 a       392     0     8     1    42
 -1.1817519451258782E+01 a       393     0     8     1    43
 -1.6476373771408774E+02 a       394     0     8     1    44
  1.7823726790697692E+00 a       395     0     8     1    45
  6.6354940177253363E+00 a       396     0     8     1    46
 -1.4781778885849846E+01 a       397     0     8     1    47
 -7.7133182376907365E+00 a       398     0     8     1    48
  1.5283958563107038E+01 a       399     0     8     1    49
 -9.5866006937624804E-01 a       400     0     8     1    50
 -3.1554339904670057E+00 a       401     0     9     1     1
  1.4109493387979617E+01 a       402     0     9     1     2
 -3.5115741948967973E+00 a       403     0     9     1     3
  3.1220014466735194E+01 a       404     0     9     1     4
 -6.0133421040269823E+00 a       405     0     9     1     5
  6.9077782310453193E+00 a       406     0     9     1     6
  2.4065193929292392E+00 a       407     0     9     1     7
  2.8899376370020594E+01 a       408     0     9     1     8
  1.7102819010649455E+01 a       409     0     9     1     9
 -2.0076784662293941E+00 a       410     0     9     1    10
 -4.1914880547446326E-01 a       411     0     9     1    11
 -2.1413475075724953E-01 a       412     0     9     1    12
 -2.6750108951858871E+00 a       413     0     9     1    13
 -9.0686420182338434E+00 a       414     0     9     1    14
 -3.4075668787149503E+01 a       415     0     9     1    15
  1.0456128116726775E+01 a       416     0     9     1    16
  7.5643509370216275E+00 a       417     0     9     1    17
 -5.3424572875835157E+00 a       418     0     9     1    18
  5.5802822442817517E+00 a       419     0     9     1    19
  2.8456694595290841E+00 a       420     0     9     1    20
  5.4207015412159292E+00 a       421     0     9     1    21
  6.2138008591145810E-01 a       422     0     9     1    22
 -3.5728124385534703E+00 a       423     0     9     1    23
  5.5123336751215639E+00 a       424     0     9     1    24
 -1.4466248097559917E+00 a       425     0     9     1    25
 -9.8242533553646076E+00 a       426     0     9     1    26
 -7.2225204337334121E+00 a       427     0     9     1    27
  5.3232304578704266E+00 a       428     0     9     1    28
 -4.2992508230603654E+00 a       429     0     9     1    29
  7.2101177005165651E+00 a       430     0     9     1    30
  1.2762214284528262E+00 a       431     0     9     1    31
 -7.7060276708566491E+00 a       432     0     9     1    32
  1.5769388032549141E+00 a       433     0     9     1    33
  8.3031021905442017E+00 a       434     0     9     1    34
  4.6625309480791501E+01 a       435     0     9     1    35
 -4.9465022548328630E+00 a       436     0     9     1    36
  2.9015144210890693E+01 a       437     0     9     1    37
 -1.4041888531067105E+01 a       438     0     9     1    38
 -8.3664899539337565E+00 a       439     0     9     1    39
 -1.4873700419571302E+01 a       440     0     9     1    40
 -3.3676625828413171E+00 a       441     0     9     1    41
 -8.3469937215349148E+00 a       442     0     9     1    42
 -1.7944639945701393E+01 a       443     0     9     1    43
 -1.5817557786264572E+02 a       444     0     9     1    44
  3.1644362860119237E+00 a       445     0     9     1    45
 -2.5539964087043834E+00 a       446     0     9     1    46
  5.5068722765561529E-01 a       447     0     9     1    47
 -7.6410589378173877E-01 a       448     0     9     1    48
 -1.7178852231302301E+01 a       449     0     9     1    49
  1.1813540115894053E+01 a       450     0     9     1    50
 -1.1549412310238665E+01 a       451     0    10     1     1
  1.3300138663955958E+00 a       452     0    10     1     2
  1.1217493830772847E+01 a       453     0    10     1     3
  1.1029057246475114E+01 a       454     0    10     1     4
  6.8946410413221590E+00 a       455     0    10     1     5
 -4.5440435045096157E+00 a       456     0    10     1     6
  4.3017961892418644E+00 a       457     0    10     1     7
  4.8471566477210555E+00 a       458     0    10     1     8
 -5.4754164669400174E+00 a       459     0    10     1     9
 -3.4893439442797969E+00 a       460     0    10     1    10
 -8.9142719215446515E+00 a       461     0    10     1    11
 -1.2880594833588832E+01 a       462     0    10     1    12
  1.3506296186616735E+01 a       463     0    10     1    13
  1.2850936632628130E+01 a       464     0    10     1    14
 -1.9120081075870219E+00 a       465     0    10     1    15
  4.1213131127071395E-01 a       466     0    10     1    16
 -1.3394739669801707E+01 a       467     0    10     1    17
  9.3737060373240322E+00 a       468     0    10     1    18
  4.4825737801801706E+00 a       469     0    10     1    19
  2.3261594468917171E+00 a       470     0    10     1    20
  7.8144164518354238E+00 a       471     0    10     1    21
 -8.0786239915743463E-01 a       472     0    10     1    22
  9.9752246828212243E+00 a       473     0    10     1    23
 -1.2219856527150920E+01 a       474     0    10     1    24
  1.5480442835252459E+01 a       475     0    10     1    25
  5.1982828804739754E+00 a       476     0    10     1    26
  4.5597882124050146E+00 a       477     0    10     1    27
 -1.1522344655921387E+01 a       478     0    10     1    28
  1.4099302787472800E+01 a       479     0    10     1    29
 -6.0283094938226638E+00 a       480     0    10     1    30
 -6.3658322768475797E+00 a       481     0    10     1    31
  1.0026602113846943E+01 a       482     0    10     1    32
  2.1652202968461114E+00 a       483     0    10     1    33
 -7.1957136965463082E+00 a       484     0    10     1    34
  4.4164348353401536E+01 a       485     0    10     1    35
 -2.9129210626676971E-01 a       486     0    10     1    36
  4.3537448081637891E+00 a       487     0    10     1    37
 -1.5305568555591371E+01 a       488     0    10     1    38
 -1.4257619473471876E+00 a       489     0    10     1    39
  8.5312092371647292E+00 a       490     0    10     1    40
  1.2773263190453146E+00 a       491     0    10     1    41
  4.1685132345830187E+00 a       492     0    10     1    42
  7.9723915886228225E+00 a       493     0    10     1    43
 -4.3441035369043327E+01 a       494     0    10     1    44
 -4.7801043913251506E+00 a       495     0    10     1    45
 -6.8801356589199558E-01 a       496     0    10     1    46
 -2.4259374155652171E+00 a       497     0    10     1    47
 -8.7718158554524379E+00 a       498     0    10     1    48
  1.1617638052753335E+01 a       499     0    10     1    49
 -2.4297160897404373E+00 a       500     0    10     1    50
 -1.5677724044017637E+01 a       501     0    11     1     1
  3.3307445759783092E+00 a       502     0    11     1     2
  1.6299479297058614E+01 a       503     0    11     1     3
  1.9022283811833553E+01 a       504     0    11     1     4
  1.1304566758425100E+01 a       505     0    11     1     5
 -4.5527745436359579E+00 a       506     0    11     1     6
  6.2017405678204325E+00 a       507     0    11     1     7
  9.6840344362597044E+00 a       508     0    11     1     8
 -3.9972371663028294E+00 a       509     0    11     1     9
 -1.7360352301082882E+00 a       510     0    11     1    10
 -1.5599805297635230E+01 a       511     0    11     1    11
 -2.1009916428339320E+01 a       512     0    11     1    12
  2.0469862562212114E+01 a       513     0    11     1    13
  1.9202919915310993E+01 a       514     0    11     1    14
 -1.0883517820125577E+00 a       515     0    11     1    15
  2.6247653841480538E+00 a       516     0    11     1    16
 -2.0322353240298114E+01 a       517     0    11     1    17
  1.5607447202406203E+01 a       518     0    11     1    18
  9.2225039447265367E+00 a       519     0    11     1    19
  2.2998348593508395E+00 a       520     0    11     1    20
  1.1158598735653609E+01 a       521     0    11     1    21
  6.3471524043090988E-01 a       522     0    11     1    22
  1.3707126318607219E+01 a       523     0    11     1    23
 -2.2663925668855835E+01 a       524     0    11     1    24
  2.4356663387315869E+01 a       525     0    11     1    25
  1.0823555635736772E+01 a       526     0    11     1    26
  5.6666716863318234E+00 a       527     0    11     1    27
 -1.7583350947408643E+01 a       528     0    11     1    28
  2.1387469308475595E+01 a       529     0    11     1    29
 -1.1700747782896782E+01 a       530     0    11     1    30
 -1.1884019293125705E+01 a       531     0    11     1    31
  1.6775168144994570E+01 a       532     0    11     1    32
  1.5521730639116593E+00 a       533     0    11     1    33
 -1.3304564653528288E+01 a       534     0    11     1    34
  6.3330353912598802E+01 a       535     0    11     1    35
 -1.9865365360915439E+00 a       536     0    11     1    36
  4.7255106070281618E+00 a       537     0    11     1    37
 -2.5949137561528033E+01 a       538     0    11     1    38
 -7.2085853766482328E+00 a       539     0    11     1    39
  1.2401129838049190E+01 a       540     0    11     1    40
  4.6969167367514668E+00 a       541     0    11     1    41
  4.2824001682130026E+00 a       542     0    11     1    42
  1.2876612531696278E+01 a       543     0    11     1    43
 -6.4766269825621180E+01 a       544     0    11     1    44
 -1.1477219019686892E+01 a       545     0    11     1    45
 -2.2642049559228772E-01 a       546     0    11     1    46
 -3.9432250177246186E+00 a       547     0    11     1    47
 -1.5391145177729188E+01 a       548     0    11     1    48
  1.3837170142156921E+01 a       549     0    11     1    49
 -3.5786103528545494E+00 a       550     0    11     1    50
 -1.0490765459965516E+01 a       551     0    12     1     1
  2.1073915178512768E+00 a       552     0    12     1     2
  5.2201182244562307E+00 a       553     0    12     1     3
  2.1429494280783792E+00 a       554     0    12     1     4
  1.5065959351010427E+00 a       555     0    12     1     5
 -5.1865180581546744E+00 a       556     0    12     1     6
  5.0225930067041320E+00 a       557     0    12     1     7
  1.7202254866008526E+00 a       558     0    12     1     8
 -3.0334018540650067E+00 a       559     0    12     1     9
 -8.1056367025297220E+00 a       560     0    12     1    10
 -1.6845994902616894E+00 a       561     0    12     1    11
 -3.1056410721438330E+00 a       562     0    12     1    12
 -5.6042327312306750E-01 a       563     0    12     1    13
  3.9702577718858576E+00 a       564     0    12     1    14
 -5.2201438209813187E+00 a       565     0    12     1    15
 -1.1366114084174537E+00 a       566     0    12     1    16
 -5.1771006857277424E+00 a       567     0    12     1    17
  2.6547240451524230E+00 a       568     0    12     1    18
  7.2707628435473029E-02 a       569     0    12     1    19
  5.5003615068900635E-01 a       570     0    12     1    20
  4.2257053920312870E+00 a       571     0    12     1    21
 -1.9143876640348270E+00 a       572     0    12     1    22
  6.6537008695811837E+00 a       573     0    12     1    23
  5.6034261179775935E-01 a       574     0    12     1    24
  6.7191541800295536E+00 a       575     0    12     1    25
  7.9349041949775512E-01 a       576     0    12     1    26
  1.4322333575739701E+00 a       577     0    12     1    27
 -3.3420664805277576E+00 a       578     0    12     1    28
  6.4670750086429107E+00 a       579     0    12     1    29
  8.6456575511810485E-01 a       580     0    12     1    30
 -9.4700096911532339E-01 a       581     0    12     1    31
  1.4489791634984028E+00 a       582     0    12     1    32
  4.4803148940596023E+00 a       583     0    12     1    33
 -1.9818650604164068E-01 a       584     0    12     1    34
  1.7509572275251990E+01 a       585     0    12     1    35
  1.9431204866357241E+00 a       586     0    12     1    36
  4.9252829786101193E+00 a       587     0    12     1    37
 -6.5812003935742140E+00 a       588     0    12     1    38
  3.6522484381848321E+00 a       589     0    12     1    39
  3.6031457644042159E-01 a       590     0    12     1    40
 -4.1283531650262555E+00 a       591     0    12     1    41
  2.6321652334043564E+00 a       592     0    12     1    42
  3.3931420514342578E+00 a       593     0    12     1    43
 -1.2952112934617968E+01 a       594     0    12     1    44
  1.6713260353665891E+00 a       595     0    12     1    45
 -3.6568526122078020E+00 a       596     0    12     1    46
 -5.4070880217348967E-02 a       597     0    12     1    47
 -2.0035904451722897E+00 a       598     0    12     1    48
  6.3561427518444047E+00 a       599     0    12     1    49
 -2.8409744223791700E-01 a       600     0    12     1    50
 -6.1081654467514523E+00 a       601     0    13     1     1
 -3.7311364488789289E+00 a       602     0    13     1     2
  1.4532725313375812E+01 a       603     0    13     1     3
 -3.1915787823477064E+00 a       604     0    13     1     4
  1.1519371784198304E+01 a       605     0    13     1     5
 -7.1567679904928996E+00 a       606     0    13     1     6
  6.1237682895418981E+00 a       607     0    13     1     7
 -1.4624391315060386E+01 a       608     0    13     1     8
 -1.5208553217766014E+00 a       609     0    13     1     9
 -6.6494621296016225E+00 a       610     0    13     1    10
 -1.4278515654657905E+01 a       611     0    13     1    11
 -1.0682691653975731E+01 a       612     0    13     1    12
 -1.1957960179900178E+01 a       613     0    13     1    13
  1.4320895086641999E+01 a       614     0    13     1    14
  2.8490498103213792E+01 a       615     0    13     1    15
  1.2449815587463908E+00 a       616     0    13     1    16
 -2.0316182006666491E+01 a       617     0    13     1    17
  1.8201838285295317E+01 a       618     0    13     1    18
  4.9197918800705596E+00 a       619     0    13     1    19
 -7.2576328149403375E+00 a       620     0    13     1    20
  3.2624536308686292E+00 a       621     0    13     1    21
  2.0836099489600346E+00 a       622     0    13     1    22
  9.7092380126018405E+00 a       623     0    13     1    23
 -2.0274831073042076E+01 a       624     0    13     1    24
  1.9788405634579952E+01 a       625     0    13     1    25
  3.7054318091254949E+01 a       626     0    13     1    26
  5.6662035030002489E+00 a       627     0    13     1    27
 -1.2443499052494687E+01 a       628     0    13     1    28
  2.3866159626604269E+01 a       629     0    13     1    29
 -1.6798603214452285E+01 a       630     0    13     1    30
 -1.4382553133722103E+01 a       631     0    13     1    31
  1.8420566158623430E+01 a       632     0    13     1    32
 -2.4386460979687747E+00 a       633     0    13     1    33
 -2.0064683676282883E+01 a       634     0    13     1    34
 -3.4654970985292877E+01 a       635     0    13     1    35
  6.1783903320102427E+00 a       636     0    13     1    36
 -2.3820312315911416E+01 a       637     0    13     1    37
 -1.0146460254807501E+01 a       638     0    13     1    38
 -2.2560105077348069E+00 a       639     0    13     1    39
  5.3892666846276427E+00 a       640     0    13     1    40
  9.0730624846458188E+00 a       641     0    13     1    41
  5.6147516396222086E+00 a       642     0    13     1    42
  1.9457674673407105E+01 a       643     0    13     1    43
  1.4034004595845190E+02 a       644     0    13     1    44
 -1.1921143999783352E+01 a       645     0    13     1    45
 -1.5562732229855676E+00 a       646     0    13     1    46
 -3.1111798209551100E+00 a       647     0    13     1    47
 -1.2317102209614021E+01 a       648     0    13     1    48
  1.4837315587203058E+01 a       649     0    13     1    49
 -9.8352790489826791E+00 a       650     0    13     1    50
 -3.6591444701998732E+01 a       651     0    14     1     1
  3.5432046686989018E+01 a       652     0    14     1     2
 -7.7568089374041156E+00 a       653     0    14     1     3
 -3.0059364925952341E+01 a       654     0    14     1     4
 -6.1384690846083876E+00 a       655     0    14     1     5
  2.5170796828610791E+00 a       656     0    14     1     6
  2.8557908524753241E+01 a       657     0    14     1     7
  1.5406266013659103E+01 a       658     0    14     1     8
  3.4495251656128488E+01 a       659     0    14     1     9
 -5.4738690600744748E+00 a       660     0    14     1    10
  1.9419444990968557E+01 a       661     0    14     1    11
  1.9413191177567402E+01 a       662     0    14     1    12
 -3.3709991715483817E+01 a       663     0    14     1    13
 -2.6816782597093827E+01 a       664     0    14     1    14
 -2.0998711009106707E+01 a       665     0    14     1    15
 -4.4370185365382335E+00 a       666     0    14     1    16
  2.1810392823567323E+01 a       667     0    14     1    17
 -1.3260125982769956E+01 a       668     0    14     1    18
 -1.5505339685926042E-01 a       669     0    14     1    19
 -1.5426526253571947E+01 a       670     0    14     1    20
  3.9574673491698888E+00 a       671     0    14     1    21
  1.9854755346111241E+00 a       672     0    14     1    22
 -2.1437440251643620E+00 a       673     0    14     1    23
  1.6268582122529363E+01 a       674     0    14     1    24
 -1.5761411902300068E+01 a       675     0    14     1    25
 -4.3566933504498387E+01 a       676     0    14     1    26
 -2.2606922112507629E+01 a       677     0    14     1    27
  2.7617952621520335E+01 a       678     0    14     1    28
 -3.0918543180349715E+01 a       679     0    14     1    29
  2.0078570294006674E+01 a       680     0    14     1    30
  1.2150240076618235E+01 a       681     0    14     1    31
 -3.0805971668115337E+01 a       682     0    14     1    32
  1.4273915523724860E+01 a       683     0    14     1    33
  2.8036534495024917E+01 a       684     0    14     1    34
 -4.2124920947505721E+01 a       685     0    14     1    35
  1.9566793914555796E+00 a       686     0    14     1    36
  7.6776560756216741E+00 a       687     0    14     1    37
 -1.3579821582481445E+01 a       688     0    14     1    38
 -2.1202144990296132E-01 a       689     0    14     1    39
 -1.3035741466711874E+01 a       690     0    14     1    40
 -1.5976739164825059E+01 a       691     0    14     1    41
 -1.4940922802503081E+01 a       692     0    14     1    42
  7.6928801209547233E+00 a       693     0    14     1    43
  1.1690416529071451E+01 a       694     0    14     1    44
 -1.9205310333986148E+00 a       695     0    14     1    45
 -2.3115066915396241E+01 a       696     0    14     1    46
  2.1087000372656508E+01 a       697     0    14     1    47
  2.1654776674335752E+00 a       698     0    14     1    48
 -2.4078122692039347E+01 a       699     0    14     1    49
  1.1800644963027500E+01 a       700     0    14     1    50
  3.4833808925899781E+01 a       701     0    15     1     1
  4.0985175631342541E+00 a       702     0    15     1     2
 -2.5844273690526993E+01 a       703     0    15     1     3
 -3.4947359440683321E+01 a       704     0    15     1     4
 -2.0967947160675269E+01 a       705     0    15     1     5
  1.2288425049276039E+00 a       706     0    15     1     6
 -2.0230925890911141E+01 a       707     0    15     1     7
  1.4443988757455424E+00 a       708     0    15     1     8
  2.8980662760548421E+00 a       709     0    15     1     9
  2.6253300781777956E+01 a       710     0    15     1    10
  1.7327694607990523E+01 a       711     0    15     1    11
  2.4961673285023142E+01 a       712     0    15     1    12
  3.8924129472336588E+00 a       713     0    15     1    13
 -2.5688039572599504E+01 a       714     0    15     1    14
 -1.2835994329368363E+01 a       715     0    15     1    15
 -1.9288708498516454E+00 a       716     0    15     1    16
  4.5671157134973043E+01 a       717     0    15     1    17
 -2.0627719703101139E+01 a       718     0    15     1    18
 -1.5590471393925338E+01 a       719     0    15     1    19
  7.9444099732016307E+00 a       720     0    15     1    20
 -2.9432644598246988E+01 a       721     0    15     1    21
  8.9842770203943072E+00 a       722     0    15     1    22
 -2.9067698103735282E+01 a       723     0    15     1    23
  2.3454919416227575E+01 a       724     0    15     1    24
 -4.8840431808905073E+01 a       725     0    15     1    25
 -2.7512304180076598E+01 a       726     0    15     1    26
 -1.2593450882661791E+01 a       727     0    15     1    27
  1.2068377470032331E+01 a       728     0    15     1    28
 -3.2408237075201292E+01 a       729     0    15     1    29
  8.1440292041749238E+00 a       730     0    15     1    30
  5.0041693612788096E+00 a       731     0    15     1    31
 -2.6106152386084410E+01 a       732     0    15     1    32
  9.4826679024575888E+00 a       733     0    15     1    33
  2.8084376769840511E+00 a       734     0    15     1    34
 -5.0366491478873485E+01 a       735     0    15     1    35
 -8.0947240164046299E+00 a       736     0    15     1    36
  3.0598353473567470E+00 a       737     0    15     1    37
  3.8387229589572300E+01 a       738     0    15     1    38
  1.0099880654501225E+01 a       739     0    15     1    39
 -5.5237046890312218E+00 a       740     0    15     1    40
 -1.1633629369272988E+01 a       741     0    15     1    41
 -4.7057637469806419E+00 a       742     0    15     1    42
 -5.8134033504395912E+00 a       743     0    15     1    43
 -2.1596857549838987E+01 a       744     0    15     1    44
  1.7969615393599032E+01 a       745     0    15     1    45
  2.0048510641045905E+01 a       746     0    15     1    46
  2.1729363381292480E+01 a       747     0    15     1    47
  5.6948828624433752E+00 a       748     0    15     1    48
 -3.5301714025120887E+01 a       749     0    15     1    49
 -6.4325070939328928E+00 a       750     0    15     1    50
  2.1791853327806230E+01 a       751     0    16     1     1
 -1.0993859211405525E+01 a       752     0    16     1     2
 -1.1558285512916759E+01 a       753     0    16     1     3
 -5.3585357998918848E-01 a       754     0    16     1     4
 -4.9682645071237532E+00 a       755     0    16     1     5
  5.7580298189473309E+00 a       756     0    16     1     6
 -1.7514309480147194E+01 a       757     0    16     1     7
 -3.1487289206154419E+00 a       758     0    16     1     8
 -5.3456939439197155E+00 a       759     0    16     1     9
  1.0515024432272289E+01 a       760     0    16     1    10
  2.1656510151821906E+00 a       761     0    16     1    11
  4.7105401014313575E+00 a       762     0    16     1    12
  8.2962178699255453E+00 a       763     0    16     1    13
  3.3804421714245331E-01 a       764     0    16     1    14
  9.0723573971525084E+00 a       765     0    16     1    15
  3.6540336777637386E+00 a       766     0    16     1    16
  1.7086470303763505E+01 a       767     0    16     1    17
 -4.4141612503028886E+00 a       768     0    16     1    18
 -7.1578328678553449E+00 a       769     0    16     1    19
  1.2138865102654903E+00 a       770     0    16     1    20
 -1.1373944800069562E+01 a       771     0    16     1    21
  4.2351246048915296E+00 a       772     0    16     1    22
 -9.0024149980772599E+00 a       773     0    16     1    23
  3.2803368377600735E+00 a       774     0    16     1    24
 -1.3121798792541998E+01 a       775     0    16     1    25
  5.6208487751201908E+00 a       776     0    16     1    26
 -1.2028345262109301E+00 a       777     0    16     1    27
 -5.8312420018815792E-01 a       778     0    16     1    28
 -6.4527097472202231E+00 a       779     0    16     1    29
 -4.8638988080238530E+00 a       780     0    16     1    30
 -4.6379423058020794E+00 a       781     0    16     1    31
  1.0637413568735716E+00 a       782     0    16     1    32
 -8.0410179577256944E+00 a       783     0    16     1    33
 -7.1336758718432747E-01 a       784     0    16     1    34
 -1.2701697605278943E+01 a       785     0    16     1    35
 -6.8546803287895024E+00 a       786     0    16     1    36
 -1.3910536267011768E+00 a       787     0    16     1    37
  1.7762433076081457E+01 a       788     0    16     1    38
 -2.2016401097429381E+00 a       789     0    16     1    39
 -3.1896249679844357E-01 a       790     0    16     1    40
  2.2102048776545740E+00 a       791     0    16     1    41
  2.3215942644920431E+00 a       792     0    16     1    42
 -3.0215459357142249E+00 a       793     0    16     1    43
  6.5203157250033632E+00 a       794     0    16     1    44
 -4.6677256644638399E-01 a       795     0    16     1    45
  1.2562150431218521E+01 a       796     0    16     1    46
 -2.6822465554202917E+00 a       797     0    16     1    47
  6.1434133948809322E+00 a       798     0    16     1    48
 -9.3649501633049059E+00 a       799     0    16     1    49
 -7.0207727107669475E+00 a       800     0    16     1    50
 -1.0823001126797275E+01 a       801     0    17     1     1
  6.4715601015717594E-01 a       802     0    17     1     2
 -9.6302408653921545E-01 a       803     0    17     1     3
  6.0205197543350364E+00 a       804     0    17     1     4
  1.6065950202988224E+00 a       805     0    17     1     5
  4.0335499521371254E+00 a       806     0    17     1     6
  3.6655096102709490E+00 a       807     0    17     1     7
 -7.4315927346803992E-02 a       808     0    17     1     8
  1.0680477241939590E+00 a       809     0    17     1     9
 -6.4747311595841115E+00 a       810     0    17     1    10
  3.3445388414804209E+00 a       811     0    17     1    11
 -5.5168104772597815E-01 a       812     0    17     1    12
 -3.9031503483653136E+00 a       813     0    17     1    13
  5.2644689111762979E+00 a       814     0    17     1    14
  2.7920017617491815E+00 a       815     0    17     1    15
  6.9908166719084830E-01 a       816     0    17     1    16
  2.1725574514466341E+00 a       817     0    17     1    17
  2.1571337208508981E+00 a       818     0    17     1    18
  2.1453436858461550E+00 a       819     0    17     1    19
 -5.2265387936976957E+00 a       820     0    17     1    20
  4.5170849646098636E+00 a       821     0    17     1    21
 -1.9019997440489484E+00 a       822     0    17     1    22
  4.0411942449733100E+00 a       823     0    17     1    23
 -9.4411152383530067E-02 a       824     0    17     1    24
  3.3934541117028272E+00 a       825     0    17     1    25
 -3.4589569704207235E-01 a       826     0    17     1    26
 -2.0049718227965219E+00 a       827     0    17     1    27
  3.7770002341212736E+00 a       828     0    17     1    28
 -8.9596119467101054E-02 a       829     0    17     1    29
  1.6589610372958870E+00 a       830     0    17     1    30
 -6.8473696999869138E-01 a       831     0    17     1    31
  1.1355586043894108E+00 a       832     0    17     1    32
 -3.9143783195249053E+00 a       833     0    17     1    33
  8.0604828572175293E+00 a       834     0    17     1    34
  6.1861037584269445E+00 a       835     0    17     1    35
 -5.2840992456432734E-01 a       836     0    17     1    36
  4.8963445519853837E+00 a       837     0    17     1    37
 -8.0063772724352988E-01 a       838     0    17     1    38
 -3.4491207092333127E+00 a       839     0    17     1    39
 -1.8876544986304062E+00 a       840     0    17     1    40
 -1.5464081621852266E+00 a       841     0    17     1    41
  4.7903063775579385E-01 a       842     0    17     1    42
 -3.0642174601006850E-02 a       843     0    17     1    43
 -2.1891680859590950E+00 a       844     0    17     1    44
 -6.7923506394762336E+00 a       845     0    17     1    45
 -6.0741878579607027E+00 a       846     0    17     1    46
 -2.1833384764511088E+00 a       847     0    17     1    47
  5.7282594633516366E+00 a       848     0    17     1    48
  3.0360820328854082E-01 a       849     0    17     1    49
  3.7424295550646351E+00 a       850     0    17     1    50
 -5.7056059504254841E-01 a       851     0    18     1     1
  1.0203348807025916E+00 a       852     0    18     1     2
  2.6062967408730984E+00 a       853     0    18     1     3
  6.4369263862660886E-01 a       854     0    18     1     4
  1.3886489810608869E+00 a       855     0    18     1     5
 -1.7466149296695630E+00 a       856     0    18     1     6
  1.2528338699762853E+00 a       857     0    18     1     7
 -1.9058716115359589E-01 a       858     0    18     1     8
 -2.5520031814319305E-01 a       859     0    18     1     9
 -4.4749506265920819E-01 a       860     0    18     1    10
 -2.1518530627242889E+00 a       861     0    18     1    11
 -1.1414428061966402E+00 a       862     0    18     1    12
  1.7718938967953277E-01 a       863     0    18     1    13
  5.2117909829259490E-01 a       864     0    18     1    14
 -5.0032413011503463E-01 a       865     0    18     1    15
 -3.2460690337408366E-01 a       866     0    18     1    16
 -4.3032831863632923E+00 a       867     0    18     1    17
  1.5840337918481349E+00 a       868     0    18     1    18
  9.1458098325045434E-01 a       869     0    18     1    19
  1.0524003096608332E+00 a       870     0    18     1    20
  4.9170578804413373E-01 a       871     0    18     1    21
 -4.2770398422217587E-01 a       872     0    18     1    22
  1.1023035049308991E+00 a       873     0    18     1    23
 -1.8276140266771899E+00 a       874     0    18     1    24
  2.6373459566959050E+00 a       875     0    18     1    25
  9.9785990684012638E-01 a       876     0    18     1    26
  1.2409015084858812E+00 a       877     0    18     1    27
 -2.3761570527036135E+00 a       878     0    18     1    28
  2.6901404930982586E+00 a       879     0    18     1    29
 -9.0821522052487635E-01 a       880     0    18     1    30
 -6.6212331605072972E-01 a       881     0    18     1    31
  1.1746963554307039E+00 a       882     0    18     1    32
  1.3656784892068503E+00 a       883     0    18     1    33
 -2.0996476200841871E+00 a       884     0    18     1    34
  1.7944407522042822E+00 a       885     0    18     1    35
  1.2630323703251520E+00 a       886     0    18     1    36
 -1.0381527011239282E+00 a       887     0    18     1    37
 -1.8770907044431202E+00 a       888     0    18     1    38
  1.4956695112829483E+00 a       889     0    18     1    39
  8.4528569151950794E-01 a       890     0    18     1    40
  5.7592282018259466E-01 a       891     0    18     1    41
  7.4919459293560220E-01 a       892     0    18     1    42
  6.2212349089964525E-01 a       893     0    18     1    43
  3.5993459941746403E-01 a       894     0    18     1    44
  4.7520757841519096E-01 a       895     0    18     1    45
 -2.2426605902451968E-01 a       896     0    18     1    46
  1.0998513225532938E+00 a       897     0    18     1    47
 -2.4463431017050028E+00 a       898     0    18     1    48
  2.0575138235860955E+00 a       899     0    18     1    49
  3.1790232368535265E-01 a       900     0    18     1    50
 -1.4913553701974342E+01 a       901     0    19     1     1
 -1.4500339954222566E+01 a       902     0    19     1     2
 -1.8695290110394271E+01 a       903     0    19     1     3
 -1.5746859247899948E+01 a       904     0    19     1     4
 -3.0243851014396732E+01 a       905     0    19     1     5
 -1.4318868587317338E+01 a       906     0    19     1     6
  2.5396114875562912E+00 a       907     0    19     1     7
 -1.6931813924769937E-01 a       908     0    19     1     8
 -4.5011180849456496E+00 a       909     0    19     1     9
 -1.6189966549505254E+01 a       910     0    19     1    10
 -5.4439319883218680E+00 a       911     0    19     1    11
  1.0536770262652148E+01 a       912     0    19     1    12
  3.7936071263782649E+00 a       913     0    19     1    13
  1.5479064082391403E+01 a       914     0    19     1    14
  4.6824022622428849E+00 a       915     0    19     1    15
 -5.4650518357682532E-01 a       916     0    19     1    16
  1.1115810937449432E+01 a       917     0    19     1    17
  8.1824831749245490E+00 a       918     0    19     1    18
 -1.0338965181957423E+01 a       919     0    19     1    19
  1.2896803428131871E+00 a       920     0    19     1    20
  6.0508905411238079E+00 a       921     0    19     1    21
  1.3051171650540521E+01 a       922     0    19     1    22
 -6.8439214379829316E+00 a       923     0    19     1    23
 -1.2496888683857790E+01 a       924     0    19     1    24
  1.2896490206936578E+01 a       925     0    19     1    25
  2.4691001032146382E+01 a       926     0    19     1    26
  5.4752257655097312E+00 a       927     0    19     1    27
  1.4015906768996356E+01 a       928     0    19     1    28
 -4.1505091394726157E-01 a       929     0    19     1    29
 -3.7878269214013107E+00 a       930     0    19     1    30
 -9.5389293893426910E+00 a       931     0    19     1    31
 -5.9549444812839312E+00 a       932     0    19     1    32
 -1.5835022463971949E+01 a       933     0    19     1    33
  7.4409183665875966E-01 a       934     0    19     1    34
 -2.0599548488712060E+01 a       935     0    19     1    35
 -6.6831133854847125E-01 a       936     0    19     1    36
  2.6477969306377965E+01 a       937     0    19     1    37
  4.8812451463128896E+00 a       938     0    19     1    38
  1.6938480308185273E+01 a       939     0    19     1    39
  6.2073436972000673E+00 a       940     0    19     1    40
 -5.2819952486308999E+01 a       941     0    19     1    41
  4.1539014625319676E-01 a       942     0    19     1    42
 -1.1543301328021059E+01 a       943     0    19     1    43
 -2.0767181327933093E+00 a       944     0    19     1    44
  3.4510407211722494E+00 a       945     0    19     1    45
 -1.3853404623231645E+01 a       946     0    19     1    46
 -1.0537021939677324E-01 a       947     0    19     1    47
  2.1713670035467512E+01 a       948     0    19     1    48
 -2.7912707192878177E+01 a       949     0    19     1    49
  1.1407061271484395E+01 a       950     0    19     1    50
 -1.8775014200054958E+01 a       951     0    20     1     1
  3.2187711283595341E+01 a       952     0    20     1     2
 -5.6094765451516642E+00 a       953     0    20     1     3
 -8.9452611664329460E+00 a       954     0    20     1     4
 -1.3142533472659772E+00 a       955     0    20     1     5
 -1.0696011016657158E+01 a       956     0    20     1     6
  1.0133147994572559E+01 a       957     0    20     1     7
  3.5711093737819070E+01 a       958     0    20     1     8
 -1.9972382699825022E+01 a       959     0    20     1     9
  1.4528284270763367E+01 a       960     0    20     1    10
  2.5518983722342284E+01 a       961     0    20     1    11
 -1.5680225770343610E+00 a       962     0    20     1    12
  5.1975490705252248E+01 a       963     0    20     1    13
 -1.2585427175787075E+01 a       964     0    20     1    14
 -7.5781161799274859E+00 a       965     0    20     1    15
  9.5040498121683115E+00 a       966     0    20     1    16
 -6.7132276572400249E+00 a       967     0    20     1    17
 -5.6052698657303139E+00 a       968     0    20     1    18
  1.2872656000450169E+00 a       969     0    20     1    19
  1.9701376661419687E+01 a       970     0    20     1    20
 -1.0987323799621246E+01 a       971     0    20     1    21
 -9.8678703435251478E+00 a       972     0    20     1    22
 -1.1747012488474802E+01 a       973     0    20     1    23
 -2.0033086353841418E+00 a       974     0    20     1    24
  1.8385257851370906E+01 a       975     0    20     1    25
 -3.6850146753649511E+01 a       976     0    20     1    26
  1.2246167683365455E+01 a       977     0    20     1    27
  2.0443381753386664E+01 a       978     0    20     1    28
 -9.0112600543791075E+00 a       979     0    20     1    29
 -1.2528897916836950E+01 a       980     0    20     1    30
  2.0518169695244399E+01 a       981     0    20     1    31
  1.1776679174717012E+01 a       982     0    20     1    32
  3.5248315365129272E+01 a       983     0    20     1    33
 -1.1128855408393328E+01 a       984     0    20     1    34
  2.2441207295453944E+00 a       985     0    20     1    35
  1.6928562466150554E+00 a       986     0    20     1    36
  8.9157621265389650E+00 a       987     0    20     1    37
 -1.5182309580010475E+01 a       988     0    20     1    38
  2.2274516442260328E+00 a       989     0    20     1    39
 -3.2093842883882693E+00 a       990     0    20     1    40
 -1.2316448849125411E+01 a       991     0    20     1    41
  2.0421369319161858E+01 a       992     0    20     1    42
  1.7701024971690146E+01 a       993     0    20     1    43
  6.7243953580392835E-01 a       994     0    20     1    44
 -2.0493032749555347E+01 a       995     0    20     1    45
  5.0684453616212100E+00 a       996     0    20     1    46
  1.8578033230461831E+01 a       997     0    20     1    47
 -9.4870615721371110E-01 a       998     0    20     1    48
  2.9057589577947964E+00 a       999     0    20     1    49
  1.4889784270055458E+01 a      1000     0    20     1    50
  7.2228611773080909E+00 a      1001     0    21     1     1
 -6.2210585981057749E+00 a      1002     0    21     1     2
  2.1777066661102669E+01 a      1003     0    21     1     3
  1.0954683462208765E+01 a      1004     0    21     1     4
 -9.2148425527964459E+00 a      1005     0    21     1     5
  7.8059813435643717E+00 a      1006     0    21     1     6
  1.3781286439298988E+01 a      1007     0    21     1     7
 -3.7134384799424112E+01 a      1008     0    21     1     8
  2.2193113553459742E+01 a      1009     0    21     1     9
  5.2845447684812029E+01 a      1010     0    21     1    10
  1.7388172400007328E+01 a      1011     0    21     1    11
 -1.6771645709981659E+01 a      1012     0    21     1    12
 -5.3569637788293477E+01 a      1013     0    21     1    13
 -2.4001628590721566E+01 a      1014     0    21     1    14
 -4.6265987756944405E+01 a      1015     0    21     1    15
 -1.1781826717503341E-01 a      1016     0    21     1    16
 -7.7242597956281323E+00 a      1017     0    21     1    17
  2.5321968304186548E-01 a      1018     0    21     1    18
  6.4449113530793785E+00 a      1019     0    21     1    19
 -1.2839163281372988E+01 a      1020     0    21     1    20
  2.8318388066579741E+00 a      1021     0    21     1    21
 -6.2117093808129056E+00 a      1022     0    21     1    22
 -3.6972809659648211E+00 a      1023     0    21     1    23
  1.5327789171415047E+01 a      1024     0    21     1    24
  9.1036293047719763E-01 a      1025     0    21     1    25
  3.7153220700776792E+01 a      1026     0    21     1    26
 -1.5872438830534033E+01 a      1027     0    21     1    27
 -1.3120765763879820E+01 a      1028     0    21     1    28
  1.4317763510511055E+01 a      1029     0    21     1    29
 -4.9958649216058513E+00 a      1030     0    21     1    30
  3.2585615506229445E+01 a      1031     0    21     1    31
  1.9855627967943828E+01 a      1032     0    21     1    32
 -5.3413603484005634E+00 a      1033     0    21     1    33
  2.7437187803179938E+01 a      1034     0    21     1    34
  1.3772352382869501E+01 a      1035     0    21     1    35
  6.8146471213824498E+00 a      1036     0    21     1    36
 -1.2316203075060798E+01 a      1037     0    21     1    37
 -5.0271164496873581E+01 a      1038     0    21     1    38
 -5.4242416369154132E+00 a      1039     0    21     1    39
 -1.4369813296055034E+01 a      1040     0    21     1    40
  1.2868348342539239E+01 a      1041     0    21     1    41
  4.1062714295795395E+00 a      1042     0    21     1    42
  5.1066812804956845E+00 a      1043     0    21     1    43
 -9.2745645632732643E-01 a      1044     0    21     1    44
 -1.7436973001987011E-01 a      1045     0    21     1    45
  3.4758123099767005E+01 a      1046     0    21     1    46
 -1.4055700808569753E+01 a      1047     0    21     1    47
  8.6343792285317935E+00 a      1048     0    21     1    48
  3.5565212886261421E+01 a      1049     0    21     1    49
 -1.6788527515215868E+01 a      1050     0    21     1    50
 -1.2500561807260503E+01 a      1051     0    22     1     1
 -3.5448097656835188E+01 a      1052     0    22     1     2
  3.6492774800594132E+00 a      1053     0    22     1     3
  8.9387009687506573E+00 a      1054     0    22     1     4
 -1.3500331259464890E+01 a      1055     0    22     1     5
  2.3894011912018271E+01 a      1056     0    22     1     6
 -2.5478775316047486E+01 a      1057     0    22     1     7
 -3.5857983407327744E+01 a      1058     0    22     1     8
 -2.1047021211406921E+01 a      1059     0    22     1     9
  2.8028443442561745E+01 a      1060     0    22     1    10
 -9.4751041913510061E+00 a      1061     0    22     1    11
 -2.3470754586672388E+01 a      1062     0    22     1    12
  2.4225918667672317E+01 a      1063     0    22     1    13
  1.0542304760624145E+01 a      1064     0    22     1    14
 -1.6850061305884100E+01 a      1065     0    22     1    15
 -8.2931580878412845E+00 a      1066     0    22     1    16
 -8.9333152055962177E+00 a      1067     0    22     1    17
  1.0199449302435820E+01 a      1068     0    22     1    18
  7.6413072521148599E+00 a      1069     0    22     1    19
 -1.1647789913162592E+01 a      1070     0    22     1    20
 -4.9903482729249680E+00 a      1071     0    22     1    21
 -1.7798922272512158E+01 a      1072     0    22     1    22
 -1.4601458209904102E+01 a      1073     0    22     1    23
  1.6131376332856920E+01 a      1074     0    22     1    24
 -9.1785804592288756E+00 a      1075     0    22     1    25
 -2.0114860138083554E+01 a      1076     0    22     1    26
  7.9255725334660623E+00 a      1077     0    22     1    27
 -3.6192481943133473E+01 a      1078     0    22     1    28
  1.8414082740824746E+00 a      1079     0    22     1    29
 -1.0018791304712412E+01 a      1080     0    22     1    30
  2.4867048860079521E+01 a      1081     0    22     1    31
  1.9080435410975646E+01 a      1082     0    22     1    32
 -1.4821020872026025E+01 a      1083     0    22     1    33
 -2.3846227160093836E+01 a      1084     0    22     1    34
  3.6370121530870342E+01 a      1085     0    22     1    35
 -1.6093607500207927E+01 a      1086     0    22     1    36
  1.4368383260015525E+01 a      1087     0    22     1    37
 -1.1682981583915508E+01 a      1088     0    22     1    38
  1.6159717562302525E+01 a      1089     0    22     1    39
 -1.0515505532453322E+01 a      1090     0    22     1    40
  4.6890021993361998E+01 a      1091     0    22     1    41
 -2.1122664994959543E+01 a      1092     0    22     1    42
 -2.2283218214544913E+01 a      1093     0    22     1    43
  3.2735146930185586E+01 a      1094     0    22     1    44
 -7.4003338797733562E+00 a      1095     0    22     1    45
 -1.0986385631960822E+01 a      1096     0    22     1    46
 -3.4636401088419959E+01 a      1097     0    22     1    47
 -7.1183622884512798E-01 a      1098     0    22     1    48
  7.6971458537422075E+00 a      1099     0    22     1    49
 -2.5500201827585151E+01 a      1100     0    22     1    50
  1.2440339034054961E+01 a      1101     0    23     1     1
 -6.5923269564807374E-01 a      1102     0    23     1     2
 -1.9851057218704224E+01 a      1103     0    23     1     3
  3.5735572746605720E-01 a      1104     0    23     1     4
  2.4954336115654808E+01 a      1105     0    23     1     5
  1.5021736294766846E+01 a      1106     0    23     1     6
 -1.5625809766775342E+01 a      1107     0    23     1     7
  9.5344053361406065E+00 a      1108     0    23     1     8
 -1.0663203511172391E+01 a      1109     0    23     1     9
 -8.1103642506917932E+00 a      1110     0    23     1    10
 -2.4061080306712852E+00 a      1111     0    23     1    11
  2.6848860694440098E+00 a      1112     0    23     1    12
  1.6141492495006016E+01 a      1113     0    23     1    13
 -5.0219081032167434E+00 a      1114     0    23     1    14
  1.9311046189473341E+01 a      1115     0    23     1    15
  5.6785237840437430E+00 a      1116     0    23     1    16
 -1.0076764013903123E+01 a      1117     0    23     1    17
 -7.2509287568886629E+00 a      1118     0    23     1    18
 -4.4181498968749375E+00 a      1119     0    23     1    19
  8.9944545344096820E+00 a      1120     0    23     1    20
 -2.0155812886504068E+00 a      1121     0    23     1    21
  1.4098322583337026E+00 a      1122     0    23     1    22
 -1.4841704457150644E+01 a      1123     0    23     1    23
 -2.6384702527370660E+01 a      1124     0    23     1    24
 -2.4884525120542385E+01 a      1125     0    23     1    25
 -3.7562644822469281E+01 a      1126     0    23     1    26
 -7.0755175821463627E+00 a      1127     0    23     1    27
 -6.8989240348776448E-01 a      1128     0    23     1    28
  8.2204486507724557E+00 a      1129     0    23     1    29
 -9.7723284031389834E-01 a      1130     0    23     1    30
 -1.0773811903659258E+01 a      1131     0    23     1    31
 -5.2151158116506648E+00 a      1132     0    23     1    32
  1.1145061942270390E+01 a      1133     0    23     1    33
 -7.1753719422726343E+00 a      1134     0    23     1    34
  1.8713000559709840E+01 a      1135     0    23     1    35
  3.5292673993958044E+00 a      1136     0    23     1    36
 -1.9291503267406707E+01 a      1137     0    23     1    37
 -2.7564713549462286E-04 a      1138     0    23     1    38
 -1.0902335389446243E+00 a      1139     0    23     1    39
 -2.2362386687677294E+00 a      1140     0    23     1    40
  4.2801247091893998E+01 a      1141     0    23     1    41
 -6.3768719258825932E+00 a      1142     0    23     1    42
 -1.9065142733203251E+00 a      1143     0    23     1    43
  6.1345786426295081E+00 a      1144     0    23     1    44
 -1.4045870645763097E+01 a      1145     0    23     1    45
 -2.1294140823296672E+01 a      1146     0    23     1    46
 -1.3009021862756610E+01 a      1147     0    23     1    47
 -2.5373706989327843E+01 a      1148     0    23     1    48
 -7.4378458968192405E+00 a      1149     0    23     1    49
  5.7343927976263167E+00 a      1150     0    23     1    50
  1.3858672684975634E+01 a      1151     0    24     1     1
  1.6748186965481828E+01 a      1152     0    24     1     2
 -6.5649462131086551E+00 a      1153     0    24     1     3
 -1.3024873220834110E+01 a      1154     0    24     1     4
  6.7445803726288469E+00 a      1155     0    24     1     5
 -3.8214562317808327E+00 a      1156     0    24     1     6
  1.4943162913608084E+01 a      1157     0    24     1     7
  1.8087706639146255E+01 a      1158     0    24     1     8
  2.3388560752573529E+01 a      1159     0    24     1     9
 -1.0574165760791924E+01 a      1160     0    24     1    10
  1.4480802882441832E+01 a      1161     0    24     1    11
  1.6420821161420214E+01 a      1162     0    24     1    12
 -3.7564625995830660E+01 a      1163     0    24     1    13
 -2.2045611996265364E+01 a      1164     0    24     1    14
  1.7024464385570056E+01 a      1165     0    24     1    15
  1.5122921904071958E+01 a      1166     0    24     1    16
 -2.8854166778132789E-01 a      1167     0    24     1    17
 -1.5278737671728447E+01 a      1168     0    24     1    18
 -4.9446974462337581E+00 a      1169     0    24     1    19
  1.5399895884772819E+01 a      1170     0    24     1    20
  1.9102594815543519E+00 a      1171     0    24     1    21
 -1.3354659154437918E+00 a      1172     0    24     1    22
 -4.0142423769524127E+00 a      1173     0    24     1    23
 -5.8235979376158475E+00 a      1174     0    24     1    24
 -6.0672828192659107E+00 a      1175     0    24     1    25
  2.7503409732504139E+01 a      1176     0    24     1    26
 -2.0748490266544028E+01 a      1177     0    24     1    27
  2.4317331568239510E+01 a      1178     0    24     1    28
  4.0796734871222942E+00 a      1179     0    24     1    29
  3.8594795316697367E-01 a      1180     0    24     1    30
 -2.2020303450050571E+00 a      1181     0    24     1    31
 -7.0557570608108895E+00 a      1182     0    24     1    32
  8.9484199407746630E+00 a      1183     0    24     1    33
  7.2485572503962628E+00 a      1184     0    24     1    34
 -2.0336094777554397E+01 a      1185     0    24     1    35
  1.0097657842448420E+01 a      1186     0    24     1    36
 -1.8296047672522018E+01 a      1187     0    24     1    37
 -6.6239212224016377E+00 a      1188     0    24     1    38
 -1.2483243184721745E+01 a      1189     0    24     1    39
  5.2373841039066971E+00 a      1190     0    24     1    40
 -1.5768070241929488E+01 a      1191     0    24     1    41
  1.4760193982048062E+01 a      1192     0    24     1    42
  2.2163034527698223E+01 a      1193     0    24     1    43
 -1.5816919326583426E+01 a      1194     0    24     1    44
  4.7280172691586297E-01 a      1195     0    24     1    45
 -6.3565150833207751E-01 a      1196     0    24     1    46
  1.0416733826880463E+01 a      1197     0    24     1    47
 -9.8351829203149901E+00 a      1198     0    24     1    48
 -2.5592122279106111E-01 a      1199     0    24     1    49
  1.1316475315709187E+01 a      1200     0    24     1    50
 -7.3751275894629780E+00 a      1201     0    25     1     1
  1.4637852877600803E+01 a      1202     0    25     1     2
  2.3918583714969430E-01 a      1203     0    25     1     3
 -6.9276048229786236E-01 a      1204     0    25     1     4
  1.1572239211281929E+01 a      1205     0    25     1     5
 -1.6205917908189587E+01 a      1206     0    25     1     6
 -1.2241538169176190E+01 a      1207     0    25     1     7
  4.5166072892955782E+01 a      1208     0    25     1     8
 -2.4881389632003010E+01 a      1209     0    25     1     9
 -4.4879292563138534E+01 a      1210     0    25     1    10
 -9.1542295309528452E+00 a      1211     0    25     1    11
  5.5865372789131076E+00 a      1212     0    25     1    12
  6.0306539217399568E+01 a      1213     0    25     1    13
  2.1525220561194086E+01 a      1214     0    25     1    14
  4.9186680586707929E+01 a      1215     0    25     1    15
 -4.0246739099200228E+00 a      1216     0    25     1    16
  8.6474364885311807E+00 a      1217     0    25     1    17
 -2.1247818849487432E+00 a      1218     0    25     1    18
 -1.9738188083115231E+00 a      1219     0    25     1    19
  8.6591515352486592E+00 a      1220     0    25     1    20
 -1.8053336852329000E+01 a      1221     0    25     1    21
  4.0051219206962667E+00 a      1222     0    25     1    22
  9.9720989533955979E+00 a      1223     0    25     1    23
 -9.7598681026939840E+00 a      1224     0    25     1    24
 -3.5982025798552439E+00 a      1225     0    25     1    25
 -4.6051342264385902E+01 a      1226     0    25     1    26
  2.2544403706036722E+01 a      1227     0    25     1    27
  1.2485001594613978E+01 a      1228     0    25     1    28
 -2.2918074779093146E+01 a      1229     0    25     1    29
 -6.0318505901805128E+00 a      1230     0    25     1    30
 -2.7957343682959916E+01 a      1231     0    25     1    31
 -2.0529547461847169E+01 a      1232     0    25     1    32
  1.0022119796358433E+00 a      1233     0    25     1    33
 -2.0709178531447719E+01 a      1234     0    25     1    34
 -1.0972762413726914E+01 a      1235     0    25     1    35
 -8.3128677902754049E+00 a      1236     0    25     1    36
  6.7888637833288881E+00 a      1237     0    25     1    37
  6.2911542971854793E+01 a      1238     0    25     1    38
  2.2313420481622925E+00 a      1239     0    25     1    39
  1.5082393228477203E+01 a      1240     0    25     1    40
 -1.4699326434386830E+01 a      1241     0    25     1    41
 -1.1568183357999957E+00 a      1242     0    25     1    42
  1.7775233853015875E+00 a      1243     0    25     1    43
  1.8520107032936728E+00 a      1244     0    25     1    44
  1.1284186561030056E+01 a      1245     0    25     1    45
 -3.0367601566548622E+01 a      1246     0    25     1    46
  3.5421040801361798E+01 a      1247     0    25     1    47
 -2.9030664518309335E+00 a      1248     0    25     1    48
 -1.6372637321656047E+01 a      1249     0    25     1    49
  7.5355600965383402E+00 a      1250     0    25     1    50
  2.9327127312496284E+00 a      1251     0    26     1     1
 -7.4857647895817658E+00 a      1252     0    26     1     2
  8.6899864963512918E+00 a      1253     0    26     1     3
  2.1517394280176312E+00 a      1254     0    26     1     4
 -1.1086764933109428E+01 a      1255     0    26     1     5
 -1.6372971346943782E+01 a      1256     0    26     1     6
  1.1095492407861553E+01 a      1257     0    26     1     7
  2.7389643011975982E+00 a      1258     0    26     1     8
  2.9262839346648676E+01 a      1259     0    26     1     9
 -4.0068225328686729E+01 a      1260     0    26     1    10
 -1.5812210898376970E+01 a      1261     0    26     1    11
  1.2190298282306612E+01 a      1262     0    26     1    12
 -5.0140281365220105E+01 a      1263     0    26     1    13
  1.7220538014032524E+01 a      1264     0    26     1    14
  1.6765561139072830E+01 a      1265     0    26     1    15
  5.0714965936915863E+00 a      1266     0    26     1    16
  1.5356431172315107E+01 a      1267     0    26     1    17
 -4.0932247396317106E-01 a      1268     0    26     1    18
 -2.7106929385063534E+00 a      1269     0    26     1    19
 -8.1179714680034909E+00 a      1270     0    26     1    20
  8.7099433042405625E+00 a      1271     0    26     1    21
  9.7735274883002732E-01 a      1272     0    26     1    22
  2.3575572838639950E+01 a      1273     0    26     1    23
  1.0870575927528431E+01 a      1274     0    26     1    24
 -2.4422242505964014E+00 a      1275     0    26     1    25
  5.6011958907005607E+01 a      1276     0    26     1    26
 -1.6728051381288466E+01 a      1277     0    26     1    27
  8.2793832610455453E+00 a      1278     0    26     1    28
 -9.9307064249918064E-01 a      1279     0    26     1    29
  8.0759265479178790E+00 a      1280     0    26     1    30
 -1.8633997911104498E+01 a      1281     0    26     1    31
 -1.3354156984768775E+01 a      1282     0    26     1    32
 -3.0685554757617894E+01 a      1283     0    26     1    33
 -1.1118321738246087E-01 a      1284     0    26     1    34
 -3.1182220677675261E+01 a      1285     0    26     1    35
  4.2132332550114411E+00 a      1286     0    26     1    36
  1.8529818848296538E+00 a      1287     0    26     1    37
  2.2682686400771779E+01 a      1288     0    26     1    38
 -5.5661654489812618E+00 a      1289     0    26     1    39
  7.8797617927527313E+00 a      1290     0    26     1    40
 -3.9580736292936663E+01 a      1291     0    26     1    41
 -3.1167425562701583E+00 a      1292     0    26     1    42
 -6.2227434892370603E-01 a      1293     0    26     1    43
 -2.9115946646703311E+01 a      1294     0    26     1    44
  2.3507531730750550E+01 a      1295     0    26     1    45
 -2.8882739898347691E+00 a      1296     0    26     1    46
  7.3696959727161122E+00 a      1297     0    26     1    47
  1.1811814518109514E+01 a      1298     0    26     1    48
 -1.3771699579304357E+01 a      1299     0    26     1    49
 -6.8199935035551418E+00 a      1300     0    26     1    50
 -1.1747672604060288E+01 a      1301     0    27     1     1
  3.1907807350563377E+00 a      1302     0    27     1     2
  4.4544219285159485E+00 a      1303     0    27     1     3
 -6.7222242975181095E+00 a      1304     0    27     1     4
 -2.9776324418973431E+01 a      1305     0    27     1     5
 -5.8611840209379800E+00 a      1306     0    27     1     6
 -2.6280010693946370E+00 a      1307     0    27     1     7
  1.0189613213414217E+01 a      1308     0    27     1     8
  1.6064711012661028E+00 a      1309     0    27     1     9
 -1.7789664169570273E+01 a      1310     0    27     1    10
 -1.1634738132571044E+01 a      1311     0    27     1    11
  3.0509295370584397E+01 a      1312     0    27     1    12
  1.4919734457604772E+01 a      1313     0    27     1    13
  2.0625049343702084E+01 a      1314     0    27     1    14
 -1.2943737476461086E+01 a      1315     0    27     1    15
 -1.0835328871452066E+00 a      1316     0    27     1    16
  8.9368207661977923E+00 a      1317     0    27     1    17
 -8.9372491302603105E+00 a      1318     0    27     1    18
  3.2756943171228530E+00 a      1319     0    27     1    19
  3.7843724438547142E+00 a      1320     0    27     1    20
 -1.5958516527168937E+01 a      1321     0    27     1    21
  4.8144455597089992E+00 a      1322     0    27     1    22
 -1.4244423019203035E+01 a      1323     0    27     1    23
 -1.1611038926298839E+01 a      1324     0    27     1    24
  1.5500267879941728E+01 a      1325     0    27     1    25
 -2.8694398985830116E+01 a      1326     0    27     1    26
 -9.8525793437609863E+00 a      1327     0    27     1    27
 -2.0393300326709202E+01 a      1328     0    27     1    28
 -1.9588199287981077E+01 a      1329     0    27     1    29
  2.4949743029327816E+00 a      1330     0    27     1    30
  8.4490836690647093E+00 a      1331     0    27     1    31
  7.1772588423223098E+00 a      1332     0    27     1    32
 -7.3541850425095365E+00 a      1333     0    27     1    33
  2.7895709840725162E+00 a      1334     0    27     1    34
  1.1829998423123131E+01 a      1335     0    27     1    35
 -1.2746229054576890E+01 a      1336     0    27     1    36
  3.3108802102938562E+00 a      1337     0    27     1    37
  1.3587498398956940E+01 a      1338     0    27     1    38
  2.7954539594730363E+01 a      1339     0    27     1    39
  6.5171136228269271E+00 a      1340     0    27     1    40
 -3.1377905546943936E+01 a      1341     0    27     1    41
 -1.9500967415752375E+00 a      1342     0    27     1    42
 -9.9723060155993597E+00 a      1343     0    27     1    43
 -2.0718072916447556E+00 a      1344     0    27     1    44
  1.0400712498505946E+01 a      1345     0    27     1    45
  1.6537173137143860E+01 a      1346     0    27     1    46
  2.4931656647518942E+01 a      1347     0    27     1    47
 -1.0972337517511789E+01 a      1348     0    27     1    48
  2.3438538375638693E+01 a      1349     0    27     1    49
 -5.3615510001117785E+00 a      1350     0    27     1    50
  7.2805008554276851E+00 a      1351     0    28     1     1
  2.9476647947702537E+00 a      1352     0    28     1     2
 -7.5111519303479790E+00 a      1353     0    28     1     3
 -1.5577316105505522E+01 a      1354     0    28     1     4
 -1.4594112091103625E+01 a      1355     0    28     1     5
  6.2458946993233977E-01 a      1356     0    28     1     6
  3.7029588553947770E+00 a      1357     0    28     1     7
  6.3519512440105981E+00 a      1358     0    28     1     8
  1.5136908789540595E+01 a      1359     0    28     1     9
 -1.4958633129916738E+01 a      1360     0    28     1    10
  1.7519185499566012E-01 a      1361     0    28     1    11
  2.9189419332042657E+01 a      1362     0    28     1    12
 -1.9477713137647370E+01 a      1363     0    28     1    13
 -2.2268665235377405E+00 a      1364     0    28     1    14
  7.5906857294241119E+00 a      1365     0    28     1    15
  4.5702395760224732E+00 a      1366     0    28     1    16
  5.0691930608606519E+00 a      1367     0    28     1    17
 -1.2353804038700678E+01 a      1368     0    28     1    18
 -1.8888934409059432E+00 a      1369     0    28     1    19
  1.1095717913710438E+01 a      1370     0    28     1    20
 -8.7294573997388394E+00 a      1371     0    28     1    21
  5.7485257037703565E+00 a      1372     0    28     1    22
 -1.5042240085069121E+01 a      1373     0    28     1    23
 -1.2814925581788367E+01 a      1374     0    28     1    24
  3.7881811218173556E+00 a      1375     0    28     1    25
  6.2986176693611098E+00 a      1376     0    28     1    26
 -1.5077937145415682E+01 a      1377     0    28     1    27
  4.8340508381063885E-01 a      1378     0    28     1    28
 -6.4331925878486391E+00 a      1379     0    28     1    29
  1.4942334914904212E+00 a      1380     0    28     1    30
 -2.1111223961961127E+00 a      1381     0    28     1    31
 -3.1058776021962249E+00 a      1382     0    28     1    32
 -3.8023301698890135E+00 a      1383     0    28     1    33
  9.6342834242678297E+00 a      1384     0    28     1    34
 -4.2501000694304265E+00 a      1385     0    28     1    35
 -3.3098395643238483E+00 a      1386     0    28     1    36
 -8.1251856381382677E+00 a      1387     0    28     1    37
  7.8673762108357481E+00 a      1388     0    28     1    38
  1.0348735553282843E+01 a      1389     0    28     1    39
  1.0287676276896285E+01 a      1390     0    28     1    40
 -2.7166740767723194E+01 a      1391     0    28     1    41
  4.9268040362814167E+00 a      1392     0    28     1    42
  3.6028900974724372E+00 a      1393     0    28     1    43
 -6.4288303805743539E+00 a      1394     0    28     1    44
  7.8525506631361299E+00 a      1395     0    28     1    45
  6.7229645896558461E+00 a      1396     0    28     1    46
  1.6029165945574469E+01 a      1397     0    28     1    47
 -1.2950152707561097E+01 a      1398     0    28     1    48
  1.1843984713223415E+01 a      1399     0    28     1    49
  6.1127875668757508E+00 a      1400     0    28     1    50
  9.1376625899260033E-01 a      1401     0    29     1     1
  1.2239985237786806E+01 a      1402     0    29     1     2
  6.9396474479139947E+00 a      1403     0    29     1     3
  2.5342746050160856E+00 a      1404     0    29     1     4
  5.1834240045908251E+00 a      1405     0    29     1     5
 -3.2222293349956983E+00 a      1406     0    29     1     6
  9.9981146809569377E-01 a      1407     0    29     1     7
  8.6433500933617022E+00 a      1408     0    29     1     8
  8.8614857202798092E+00 a      1409     0    29     1     9
 -1.2135849032870910E+01 a      1410     0    29     1    10
 -1.2417587001627080E+01 a      1411     0    29     1    11
  1.5464118168700294E+01 a      1412     0    29     1    12
  6.3246598305587975E-01 a      1413     0    29     1    13
  1.2971479639938712E+01 a      1414     0    29     1    14
 -8.9475427708760940E+00 a      1415     0    29     1    15
  2.2051601786641291E+00 a      1416     0    29     1    16
  4.1823183866689382E+00 a      1417     0    29     1    17
 -9.8013778593794054E+00 a      1418     0    29     1    18
  1.3834079637019636E+00 a      1419     0    29     1    19
 -3.3994536549494074E+00 a      1420     0    29     1    20
 -5.1544161866504883E+00 a      1421     0    29     1    21
  2.5050133285197562E+00 a      1422     0    29     1    22
  6.0314682205062429E+00 a      1423     0    29     1    23
 -1.1339386634251611E+01 a      1424     0    29     1    24
 -1.5065321809652066E+00 a      1425     0    29     1    25
 -2.7308121035285826E+01 a      1426     0    29     1    26
 -1.4080818266521689E+01 a      1427     0    29     1    27
 -1.3105270990960422E+01 a      1428     0    29     1    28
 -7.0868971156831906E+00 a      1429     0    29     1    29
  9.0455546980810535E+00 a      1430     0    29     1    30
 -1.8313483070012584E+00 a      1431     0    29     1    31
  9.5672715021479526E-01 a      1432     0    29     1    32
  7.9925932420991208E-01 a      1433     0    29     1    33
  2.4397020762349624E+00 a      1434     0    29     1    34
  8.5021805536498576E+00 a      1435     0    29     1    35
 -1.0807463820259500E+00 a      1436     0    29     1    36
 -1.2513380835395209E+01 a      1437     0    29     1    37
  6.1428579062476034E+00 a      1438     0    29     1    38
  2.9779817404132056E+00 a      1439     0    29     1    39
 -4.6885735495210074E-01 a      1440     0    29     1    40
  7.8247415082630818E+00 a      1441     0    29     1    41
 -1.9051538814756583E+00 a      1442     0    29     1    42
 -4.1099946496929451E+00 a      1443     0    29     1    43
 -9.0796946328149719E+00 a      1444     0    29     1    44
  6.5554256414586565E-01 a      1445     0    29     1    45
  1.6098480799922719E+01 a      1446     0    29     1    46
  1.2254070020186452E+01 a      1447     0    29     1    47
 -1.4612816429058455E+01 a      1448     0    29     1    48
  1.2302973582401146E+01 a      1449     0    29     1    49
 -4.3869772584813980E+00 a      1450     0    29     1    50
  1.6937334242671930E+01 a      1451     0    30     1     1
  6.4056858935446197E+00 a      1452     0    30     1     2
 -9.5765555282175399E+00 a      1453     0    30     1     3
 -1.4046261086475027E+01 a      1454     0    30     1     4
  4.0420132705758380E+00 a      1455     0    30     1     5
  3.4853289079171765E+00 a      1456     0    30     1     6
  6.7533324280358311E+00 a      1457     0    30     1     7
  4.5449780564152400E+00 a      1458     0    30     1     8
  2.0841340100844342E+01 a      1459     0    30     1     9
 -1.0973070297599815E+01 a      1460     0    30     1    10
  3.5316935043442848E+00 a      1461     0    30     1    11
  2.1280773343582283E+01 a      1462     0    30     1    12
 -3.3825274564776926E+01 a      1463     0    30     1    13
 -1.1427756783822957E+01 a      1464     0    30     1    14
  1.4378653852212436E+01 a      1465     0    30     1    15
  6.8989603499936383E+00 a      1466     0    30     1    16
  1.6853392183409730E+00 a      1467     0    30     1    17
 -1.2474035306514425E+01 a      1468     0    30     1    18
 -3.8830628158088611E+00 a      1469     0    30     1    19
  9.7869305359362571E+00 a      1470     0    30     1    20
 -1.8531083222381546E+00 a      1471     0    30     1    21
  4.4012905854620694E+00 a      1472     0    30     1    22
 -6.5577550598249887E+00 a      1473     0    30     1    23
 -1.2585695806304479E+01 a      1474     0    30     1    24
 -6.3093426200993878E+00 a      1475     0    30     1    25
  1.6500525861902268E+01 a      1476     0    30     1    26
 -1.6718864365785375E+01 a      1477     0    30     1    27
  8.8753658649524230E+00 a      1478     0    30     1    28
  2.8053259402324500E+00 a      1479     0    30     1    29
  3.7495511310195595E+00 a      1480     0    30     1    30
 -8.5544998994005681E+00 a      1481     0    30     1    31
 -8.2101418310240568E+00 a      1482     0    30     1    32
  5.0080750686347009E-01 a      1483     0    30     1    33
  1.1061446753104413E+01 a      1484     0    30     1    34
 -1.0360494464974417E+01 a      1485     0    30     1    35
  4.0491906430290889E+00 a      1486     0    30     1    36
 -1.6983397678678301E+01 a      1487     0    30     1    37
  2.5068562780836872E+00 a      1488     0    30     1    38
 -4.4421604332798843E+00 a      1489     0    30     1    39
  7.6867411331593711E+00 a      1490     0    30     1    40
 -9.3234608401386918E+00 a      1491     0    30     1    41
  6.2804733106831687E+00 a      1492     0    30     1    42
  9.9946724928430353E+00 a      1493     0    30     1    43
 -9.6797381183839892E+00 a      1494     0    30     1    44
  3.0138712490173338E+00 a      1495     0    30     1    45
  2.8634605699236642E+00 a      1496     0    30     1    46
  7.3451287332186279E+00 a      1497     0    30     1    47
 -1.3984481496566447E+01 a      1498     0    30     1    48
  3.4176951096467807E+00 a      1499     0    30     1    49
  9.5422492659293603E+00 a      1500     0    30     1    50
  6.2503455289949263E+00 a      1501     0    31     1     1
 -7.1011734544594027E+00 a      1502     0    31     1     2
  1.1839548517539766E+01 a      1503     0    31     1     3
  1.0629675931541211E+01 a      1504     0    31     1     4
 -4.1565848595827823E+00 a      1505     0    31     1     5
 -1.7892747391294426E+00 a      1506     0    31     1     6
 -8.8129486244913557E-01 a      1507     0    31     1     7
  3.2031694049772952E+00 a      1508     0    31     1     8
 -4.9920509225103746E+00 a      1509     0    31     1     9
  5.6337376141800872E+00 a      1510     0    31     1    10
  9.6753474086584426E+00 a      1511     0    31     1    11
 -1.7548000963454168E+01 a      1512     0    31     1    12
 -3.8603572089975322E+00 a      1513     0    31     1    13
 -2.0090604064159024E+01 a      1514     0    31     1    14
  6.1238532578924305E+00 a      1515     0    31     1    15
 -2.2001962910964870E+00 a      1516     0    31     1    16
 -1.3753434553671019E+01 a      1517     0    31     1    17
  2.4511165679195948E+00 a      1518     0    31     1    18
  1.6158580392315507E+00 a      1519     0    31     1    19
  2.6917197848136754E+00 a      1520     0    31     1    20
  7.5462723836214769E+00 a      1521     0    31     1    21
 -4.5361979145575555E+00 a      1522     0    31     1    22
 -1.0206313986965496E+00 a      1523     0    31     1    23
  2.2809539390220678E+01 a      1524     0    31     1    24
 -6.1999154098941456E-01 a      1525     0    31     1    25
  2.8942727773719966E+01 a      1526     0    31     1    26
  1.3660303286005451E+01 a      1527     0    31     1    27
  8.1425023774193956E+00 a      1528     0    31     1    28
  4.3051228189650974E+00 a      1529     0    31     1    29
 -3.4093115422724467E+00 a      1530     0    31     1    30
  1.1216930597501060E+01 a      1531     0    31     1    31
  3.6677124334736861E+00 a      1532     0    31     1    32
 -8.0285765653460206E-01 a      1533     0    31     1    33
 -4.7618029494825342E-01 a      1534     0    31     1    34
 -4.9643363613831406E+00 a      1535     0    31     1    35
 -6.4071699147562555E-01 a      1536     0    31     1    36
  4.0694994506397764E-01 a      1537     0    31     1    37
 -1.0575911746230865E+01 a      1538     0    31     1    38
 -8.7330208587560083E+00 a      1539     0    31     1    39
 -3.1250259860037608E+00 a      1540     0    31     1    40
  1.0188155849513123E+01 a      1541     0    31     1    41
  6.0519078917955382E-01 a      1542     0    31     1    42
  8.1371229673460039E+00 a      1543     0    31     1    43
  5.6578207477013196E+00 a      1544     0    31     1    44
  8.5133177155053641E+00 a      1545     0    31     1    45
 -1.8759239238780243E+01 a      1546     0    31     1    46
 -8.0834528651172128E+00 a      1547     0    31     1    47
  1.1557022805839539E+01 a      1548     0    31     1    48
  4.0010238771587296E+00 a      1549     0    31     1    49
 -9.8440057895610096E+00 a      1550     0    31     1    50
  7.0797669728459658E+00 a      1551     0    32     1     1
 -1.8411223880133246E+01 a      1552     0    32     1     2
 -3.6231567292497919E+00 a      1553     0    32     1     3
  1.1781719222049050E+01 a      1554     0    32     1     4
 -7.7160822979203103E-01 a      1555     0    32     1     5
  4.9959353296491598E+00 a      1556     0    32     1     6
 -7.9505701573208700E+00 a      1557     0    32     1     7
 -1.1780242279077310E+01 a      1558     0    32     1     8
 -6.7878980058339247E+00 a      1559     0    32     1     9
 -7.5041477162406185E+00 a      1560     0    32     1    10
 -8.6347431362671081E+00 a      1561     0    32     1    11
 -9.2299317812478723E+00 a      1562     0    32     1    12
 -1.6605705444263161E-01 a      1563     0    32     1    13
  5.6274820969543420E+00 a      1564     0    32     1    14
  2.3695384364256142E+00 a      1565     0    32     1    15
 -6.8986423652807192E+00 a      1566     0    32     1    16
 -6.5119920426259190E+00 a      1567     0    32     1    17
  1.0609446325599707E+01 a      1568     0    32     1    18
  1.8231066313849176E+00 a      1569     0    32     1    19
 -6.1364574696372252E+00 a      1570     0    32     1    20
  5.9332100439667439E+00 a      1571     0    32     1    21
  3.2452274380393660E+00 a      1572     0    32     1    22
  1.2297385130018670E+00 a      1573     0    32     1    23
  3.6837652287297633E+00 a      1574     0    32     1    24
 -2.2813005136833531E+00 a      1575     0    32     1    25
  1.1929934987157695E+01 a      1576     0    32     1    26
  1.3221058293464891E+01 a      1577     0    32     1    27
 -8.0268325962691875E+00 a      1578     0    32     1    28
  8.2820176448372127E+00 a      1579     0    32     1    29
  2.9870488570695342E+00 a      1580     0    32     1    30
 -9.3539723905709966E+00 a      1581     0    32     1    31
 -1.2539136479431925E+00 a      1582     0    32     1    32
 -1.1854960207702836E+01 a      1583     0    32     1    33
  1.2140948730684220E+00 a      1584     0    32     1    34
  3.5677687472256414E+00 a      1585     0    32     1    35
  4.9413079939979593E-01 a      1586     0    32     1    36
  4.7886753252600629E+00 a      1587     0    32     1    37
  1.6084182407903045E+00 a      1588     0    32     1    38
  1.8373955762636036E+00 a      1589     0    32     1    39
 -3.2539393566916841E+00 a      1590     0    32     1    40
  1.0106537040084502E+01 a      1591     0    32     1    41
 -1.1459460402314871E+01 a      1592     0    32     1    42
 -1.2176651001135035E+01 a      1593     0    32     1    43
  2.4931787188749288E+00 a      1594     0    32     1    44
  4.7718652601500429E+00 a      1595     0    32     1    45
 -1.1105425219876976E+01 a      1596     0    32     1    46
 -1.7197032398368954E+01 a      1597     0    32     1    47
  4.5469737438972455E+00 a      1598     0    32     1    48
 -6.6238528953523783E+00 a      1599     0    32     1    49
 -3.8382056472265500E+00 a      1600     0    32     1    50
  1.3794137338313616E+01 a      1601     0    33     1     1
  2.5195198523539421E+01 a      1602     0    33     1     2
  1.6972004934063385E+01 a      1603     0    33     1     3
 -1.8476844494419900E+00 a      1604     0    33     1     4
  2.4891273936878839E+01 a      1605     0    33     1     5
 -4.7335525112739658E+00 a      1606     0    33     1     6
  1.3204725619910072E+01 a      1607     0    33     1     7
  8.9629258766291890E+00 a      1608     0    33     1     8
  1.0863171128770096E+01 a      1609     0    33     1     9
  2.2260488350248455E+01 a      1610     0    33     1    10
  1.5650929694947031E+01 a      1611     0    33     1    11
 -1.1619629245981370E+01 a      1612     0    33     1    12
 -1.5221278523293977E+01 a      1613     0    33     1    13
 -2.9712857629630481E+01 a      1614     0    33     1    14
  2.8311408954631467E-01 a      1615     0    33     1    15
  1.9944618415821855E+00 a      1616     0    33     1    16
 -7.6490702371968222E+00 a      1617     0    33     1    17
 -1.0478939818131643E+01 a      1618     0    33     1    18
 -9.1654636883565221E-01 a      1619     0    33     1    19
  1.8547681182955602E+00 a      1620     0    33     1    20
  6.9008152623226353E+00 a      1621     0    33     1    21
 -2.2468431511455762E+00 a      1622     0    33     1    22
  1.6205264018224820E+01 a      1623     0    33     1    23
