################################################################################
# Neural network connection values (weights and biases).
################################################################################
# Col  Name       Description
################################################################################
# 1    connection Neural network connection value.
# 2    t          Connection type (a = weight, b = bias).
# 3    index      Index enumerating weights.
# 4    l_s        Starting point layer (end point layer for biases).
# 5    n_s        Starting point neuron in starting layer (end point neuron for biases).
# 6    l_e        End point layer.
# 7    n_e        End point neuron in end layer.
################################################################################
#                      1 2         3     4     5     6     7
#             connection t     index   l_s   n_s   l_e   n_e
############################################################
  1.2555785642977124E+01 a         1     0     1     1     1
  1.0147523347390498E+01 a         2     0     1     1     2
  2.8781455157089755E+00 a         3     0     1     1     3
  5.2285229745137558E+00 a         4     0     1     1     4
  4.5997815661567962E+01 a         5     0     1     1     5
 -9.0378288807298972E+00 a         6     0     1     1     6
 -1.1803643983190838E+01 a         7     0     1     1     7
  2.1137783377331228E+01 a         8     0     1     1     8
  1.6036235819061084E+00 a         9     0     1     1     9
 -1.4623638193386267E+01 a        10     0     1     1    10
  5.4435709406711696E-01 a        11     0     1     1    11
  4.6084710859598417E+00 a        12     0     1     1    12
 -8.1752064546710521E+00 a        13     0     1     1    13
 -1.7310980419603595E+01 a        14     0     1     1    14
  1.1461424388639257E+01 a        15     0     1     1    15
  1.3985029740393786E+01 a        16     0     1     1    16
  6.7513134315051415E+00 a        17     0     1     1    17
 -1.3365720421732841E-01 a        18     0     1     1    18
 -1.6745834469777747E+00 a        19     0     1     1    19
  4.8011991300039201E+00 a        20     0     1     1    20
  9.9242346446353466E+01 a        21     0     1     1    21
  1.4713717345748119E+01 a        22     0     1     1    22
  3.9502825320723969E+00 a        23     0     1     1    23
 -5.1597641855247197E+01 a        24     0     1     1    24
  3.1609983543958549E+01 a        25     0     1     1    25
  5.8692833185495283E+00 a        26     0     1     1    26
  1.3864629447215433E+01 a        27     0     1     1    27
 -7.1712344924592477E+00 a        28     0     1     1    28
 -1.1701706630804743E+01 a        29     0     1     1    29
  6.9800184568927834E+00 a        30     0     1     1    30
 -2.2057402406789239E+00 a        31     0     1     1    31
  1.9652240978182009E-01 a        32     0     1     1    32
 -7.3398107862912418E+00 a        33     0     1     1    33
 -3.4223896982353486E+00 a        34     0     1     1    34
 -1.7430771243651876E+01 a        35     0     1     1    35
  2.7714655749674000E+00 a        36     0     1     1    36
 -3.1945821835158843E+00 a        37     0     1     1    37
  3.9749613072590271E+00 a        38     0     1     1    38
 -3.0858306858376547E+00 a        39     0     1     1    39
 -8.0106155794831082E+01 a        40     0     1     1    40
 -6.2475329424473527E+00 a        41     0     1     1    41
 -1.1253560837437171E+00 a        42     0     1     1    42
  1.1293349289404413E+01 a        43     0     1     1    43
  5.2802595884745624E+00 a        44     0     1     1    44
  9.1019880751220725E+00 a        45     0     1     1    45
 -3.6397701167837915E+00 a        46     0     1     1    46
  5.6139210230251440E+00 a        47     0     1     1    47
  7.5300956366794036E+00 a        48     0     1     1    48
 -7.7266002790797321E+00 a        49     0     1     1    49
 -1.2481182895510782E+01 a        50     0     1     1    50
  1.2755336987344428E+01 a        51     0     2     1     1
  8.8521123443706138E+00 a        52     0     2     1     2
  2.8907232482060357E+00 a        53     0     2     1     3
  6.1339913204893231E+00 a        54     0     2     1     4
  4.2603067682815393E+01 a        55     0     2     1     5
 -8.2226253346680043E+00 a        56     0     2     1     6
 -1.0142981322416375E+01 a        57     0     2     1     7
  2.0398660842582149E+01 a        58     0     2     1     8
  1.9390732341066665E+00 a        59     0     2     1     9
 -1.5457594670614853E+01 a        60     0     2     1    10
  4.1676175982163138E-01 a        61     0     2     1    11
  5.6684233844244138E+00 a        62     0     2     1    12
 -9.2837975145805309E+00 a        63     0     2     1    13
 -1.8124832739437799E+01 a        64     0     2     1    14
  1.0108654635447060E+01 a        65     0     2     1    15
  1.5644686445966508E+01 a        66     0     2     1    16
  6.2344578852294203E+00 a        67     0     2     1    17
  7.5953960071927173E-01 a        68     0     2     1    18
  6.9298808669327999E-02 a        69     0     2     1    19
  4.5009200429868477E+00 a        70     0     2     1    20
  8.6812350576260030E+01 a        71     0     2     1    21
  1.4940768582157155E+01 a        72     0     2     1    22
  3.8610489299647393E+00 a        73     0     2     1    23
 -4.3300583025663464E+01 a        74     0     2     1    24
  2.6048924618793436E+01 a        75     0     2     1    25
  6.2931859967189210E+00 a        76     0     2     1    26
  1.4375743288045275E+01 a        77     0     2     1    27
 -6.1484558278696042E+00 a        78     0     2     1    28
 -9.9738802557020847E+00 a        79     0     2     1    29
  7.5816451591173113E+00 a        80     0     2     1    30
 -2.0381433447903818E+00 a        81     0     2     1    31
 -8.8375239213457879E-01 a        82     0     2     1    32
 -7.7385244926302246E+00 a        83     0     2     1    33
 -3.3713304468049388E+00 a        84     0     2     1    34
 -1.4422958875586842E+01 a        85     0     2     1    35
  3.6502480161185726E+00 a        86     0     2     1    36
 -4.0766479241867124E+00 a        87     0     2     1    37
  4.4484179017442154E+00 a        88     0     2     1    38
 -3.2479792224632460E+00 a        89     0     2     1    39
 -7.4610115841825305E+01 a        90     0     2     1    40
 -5.1438828689269203E+00 a        91     0     2     1    41
 -1.7441682443298034E+00 a        92     0     2     1    42
  1.0568351094563747E+01 a        93     0     2     1    43
  3.8785792834594326E+00 a        94     0     2     1    44
  1.0235779669252793E+01 a        95     0     2     1    45
 -2.2330456333741306E+00 a        96     0     2     1    46
  5.9213858835902347E+00 a        97     0     2     1    47
  8.5990996917874405E+00 a        98     0     2     1    48
 -6.8040700920083719E+00 a        99     0     2     1    49
 -1.3469486618265995E+01 a       100     0     2     1    50
  6.7904314444048168E+00 a       101     0     3     1     1
  8.6214310378843138E+00 a       102     0     3     1     2
  3.1164037057776421E+00 a       103     0     3     1     3
 -6.8920183330708884E-01 a       104     0     3     1     4
  3.9101111728853510E+01 a       105     0     3     1     5
 -7.8119741843979984E+00 a       106     0     3     1     6
 -1.1499295369782130E+01 a       107     0     3     1     7
  1.5773650249730984E+01 a       108     0     3     1     8
  8.6604969662606268E-01 a       109     0     3     1     9
 -7.7938501313068889E+00 a       110     0     3     1    10
  1.0870915365254950E+00 a       111     0     3     1    11
 -1.2609580403513723E+00 a       112     0     3     1    12
  9.6702062288388591E-01 a       113     0     3     1    13
 -9.3573844934580972E+00 a       114     0     3     1    14
  1.0405537570328400E+01 a       115     0     3     1    15
  2.0107526877983153E+00 a       116     0     3     1    16
  7.4142421266964424E+00 a       117     0     3     1    17
 -5.0661454653546292E+00 a       118     0     3     1    18
 -5.6425157094328222E+00 a       119     0     3     1    19
  6.1218665928507114E+00 a       120     0     3     1    20
  1.0555249953103299E+02 a       121     0     3     1    21
  1.0412666487134667E+01 a       122     0     3     1    22
  2.5508453288663833E+00 a       123     0     3     1    23
 -6.0558907838457699E+01 a       124     0     3     1    24
  3.9875069158821375E+01 a       125     0     3     1    25
  1.9085971430277413E+00 a       126     0     3     1    26
  6.8540304772841365E+00 a       127     0     3     1    27
 -8.5207187847627051E+00 a       128     0     3     1    28
 -1.3694402499965785E+01 a       129     0     3     1    29
  3.0439980956250632E+00 a       130     0     3     1    30
 -1.0225987478511598E+00 a       131     0     3     1    31
  6.1204293257753051E+00 a       132     0     3     1    32
 -4.0608663606543054E+00 a       133     0     3     1    33
 -3.3302901839018371E+00 a       134     0     3     1    34
 -2.0203752094617013E+01 a       135     0     3     1    35
  7.1411506671915882E-04 a       136     0     3     1    36
  8.4066972698083520E-01 a       137     0     3     1    37
  9.6848532969812950E-01 a       138     0     3     1    38
 -1.8158482960279196E+00 a       139     0     3     1    39
 -6.7540382775389588E+01 a       140     0     3     1    40
 -5.9176411576964059E+00 a       141     0     3     1    41
 -4.2270246467335217E-02 a       142     0     3     1    42
  1.0116846042880775E+01 a       143     0     3     1    43
  9.1117567756682778E+00 a       144     0     3     1    44
  3.2209909677985240E+00 a       145     0     3     1    45
 -5.9614984562481625E+00 a       146     0     3     1    46
  4.0340416926856566E+00 a       147     0     3     1    47
  2.7477239622825231E+00 a       148     0     3     1    48
 -9.8230354829221174E+00 a       149     0     3     1    49
 -5.4146314029957656E+00 a       150     0     3     1    50
  7.9876000242551148E+00 a       151     0     4     1     1
 -1.7291433418127173E+00 a       152     0     4     1     2
 -3.3454300639454271E-01 a       153     0     4     1     3
  7.1403445235715308E+00 a       154     0     4     1     4
  8.4895252365574958E+00 a       155     0     4     1     5
  1.8639439709722840E+00 a       156     0     4     1     6
  8.1652851849891039E-01 a       157     0     4     1     7
  7.0674743360009886E+00 a       158     0     4     1     8
  1.7282635914676820E+00 a       159     0     4     1     9
 -1.4368786645822798E+01 a       160     0     4     1    10
 -1.5534587646295190E+00 a       161     0     4     1    11
  8.8384382474645840E+00 a       162     0     4     1    12
 -1.2753807139644611E+01 a       163     0     4     1    13
 -1.6810190827213205E+01 a       164     0     4     1    14
 -7.9245362394108010E-01 a       165     0     4     1    15
  1.7501013441833269E+01 a       166     0     4     1    16
 -9.4188372275031085E-01 a       167     0     4     1    17
  5.4124957776568801E+00 a       168     0     4     1    18
  7.0401613118757052E+00 a       169     0     4     1    19
  4.5426835951390387E-01 a       170     0     4     1    20
 -1.3559038242973918E+01 a       171     0     4     1    21
  9.5787969439752576E+00 a       172     0     4     1    22
  2.3401949582341341E+00 a       173     0     4     1    23
  1.4336914423825656E+01 a       174     0     4     1    24
 -1.4106629412528159E+01 a       175     0     4     1    25
  6.0970475156617150E+00 a       176     0     4     1    26
  1.2269142813151960E+01 a       177     0     4     1    27
  2.3278947811497903E+00 a       178     0     4     1    28
  5.4400151896196709E+00 a       179     0     4     1    29
  8.5569142671301517E+00 a       180     0     4     1    30
 -1.3878950958482097E+00 a       181     0     4     1    31
 -7.1890520398295390E+00 a       182     0     4     1    32
 -3.9767801081896503E+00 a       183     0     4     1    33
 -3.0870680055648210E+00 a       184     0     4     1    34
  3.9315697040999757E+00 a       185     0     4     1    35
  5.0593961640207263E+00 a       186     0     4     1    36
 -7.4250609573443862E+00 a       187     0     4     1    37
  5.7555971886237725E+00 a       188     0     4     1    38
 -3.7437940594572980E+00 a       189     0     4     1    39
 -1.2959070267411306E+01 a       190     0     4     1    40
  3.4763787281977661E+00 a       191     0     4     1    41
 -3.7854737216764054E+00 a       192     0     4     1    42
  1.1200101819368300E+00 a       193     0     4     1    43
 -4.6334638211619463E+00 a       194     0     4     1    44
  1.0912500378148584E+01 a       195     0     4     1    45
  3.3104642350941202E+00 a       196     0     4     1    46
  7.5082663543651371E+00 a       197     0     4     1    47
  9.3964935186103009E+00 a       198     0     4     1    48
  1.3996374937391141E-02 a       199     0     4     1    49
 -1.1463994407068888E+01 a       200     0     4     1    50
 -8.4041447798213675E-01 a       201     0     5     1     1
  8.7996113813638281E+00 a       202     0     5     1     2
  3.2745862713480096E+00 a       203     0     5     1     3
 -9.2698806806935057E+00 a       204     0     5     1     4
  3.4481980039958145E+01 a       205     0     5     1     5
 -8.1829488889019295E+00 a       206     0     5     1     6
 -1.3444954352629212E+01 a       207     0     5     1     7
  1.1180032215797990E+01 a       208     0     5     1     8
 -1.3294069424708526E+00 a       209     0     5     1     9
  2.4201443453495020E+00 a       210     0     5     1    10
  2.3539357678627657E+00 a       211     0     5     1    11
 -9.7144788523268826E+00 a       212     0     5     1    12
  1.4339947655883607E+01 a       213     0     5     1    13
  2.8642170750231570E+00 a       214     0     5     1    14
  1.1662758404661190E+01 a       215     0     5     1    15
 -1.5166844300322476E+01 a       216     0     5     1    16
  8.9501476870015733E+00 a       217     0     5     1    17
 -1.2379595698642840E+01 a       218     0     5     1    18
 -1.3379471335913982E+01 a       219     0     5     1    19
  7.0251111508831805E+00 a       220     0     5     1    20
  1.3294580243820519E+02 a       221     0     5     1    21
  3.5851576043283511E+00 a       222     0     5     1    22
  1.2726196802437015E+00 a       223     0     5     1    23
 -8.2702739777739197E+01 a       224     0     5     1    24
  5.9323664948568030E+01 a       225     0     5     1    25
 -2.5292662282395284E+00 a       226     0     5     1    26
 -2.1156735483300664E+00 a       227     0     5     1    27
 -1.2152368500291342E+01 a       228     0     5     1    28
 -1.8672524040202461E+01 a       229     0     5     1    29
 -2.3561892179220143E+00 a       230     0     5     1    30
  3.9676362975206819E-01 a       231     0     5     1    31
  1.6710379864683812E+01 a       232     0     5     1    32
  4.4614259446143101E-01 a       233     0     5     1    33
 -2.0829426917291594E+00 a       234     0     5     1    34
 -2.7899916177423375E+01 a       235     0     5     1    35
 -4.8719483337235330E+00 a       236     0     5     1    36
  7.1973853061855744E+00 a       237     0     5     1    37
 -3.9963880698774004E+00 a       238     0     5     1    38
  2.3791172604978914E-01 a       239     0     5     1    39
 -6.0641282603468760E+01 a       240     0     5     1    40
 -7.8709389048468337E+00 a       241     0     5     1    41
  2.4785265264399508E+00 a       242     0     5     1    42
  9.8592237543166075E+00 a       243     0     5     1    43
  1.6309769020044701E+01 a       244     0     5     1    44
 -6.2786365526406209E+00 a       245     0     5     1    45
 -1.0066599026003294E+01 a       246     0     5     1    46
  1.2889672868557909E+00 a       247     0     5     1    47
 -5.2326242874536977E+00 a       248     0     5     1    48
 -1.2271571279141110E+01 a       249     0     5     1    49
  4.8607369470366990E+00 a       250     0     5     1    50
  3.7468788729553698E-01 a       251     0     6     1     1
 -1.6502387135218907E+01 a       252     0     6     1     2
 -4.4161540276499931E+00 a       253     0     6     1     3
  8.3585549466272973E+00 a       254     0     6     1     4
 -4.3250529881475785E+01 a       255     0     6     1     5
  1.6229323309985435E+01 a       256     0     6     1     6
  1.6738931683329142E+01 a       257     0     6     1     7
 -1.2427654102632744E+01 a       258     0     6     1     8
  7.7814190297164562E-02 a       259     0     6     1     9
 -1.0748270640779976E+01 a       260     0     6     1    10
 -3.5955595408828787E+00 a       261     0     6     1    11
  1.2370834091248476E+01 a       262     0     6     1    12
 -1.5629369198939305E+01 a       263     0     6     1    13
 -1.3872514110826421E+01 a       264     0     6     1    14
 -1.5731287907247676E+01 a       265     0     6     1    15
  1.7717052289420430E+01 a       266     0     6     1    16
 -1.0205903460056506E+01 a       267     0     6     1    17
  1.2645588574554166E+01 a       268     0     6     1    18
  1.7224181638400793E+01 a       269     0     6     1    19
 -5.1296701519838566E+00 a       270     0     6     1    20
 -1.6107607369760669E+02 a       271     0     6     1    21
  1.3708338277673637E+00 a       272     0     6     1    22
  7.6521150706747099E-01 a       273     0     6     1    23
  9.9088098744814360E+01 a       274     0     6     1    24
 -7.2252250697937555E+01 a       275     0     6     1    25
  5.3674277327465001E+00 a       276     0     6     1    26
  8.4664324449468538E+00 a       277     0     6     1    27
  1.3899304994102984E+01 a       278     0     6     1    28
  2.6871851594844475E+01 a       279     0     6     1    29
  9.0808370139319887E+00 a       280     0     6     1    30
 -1.1823260584498287E+00 a       281     0     6     1    31
 -1.5858700231438714E+01 a       282     0     6     1    32
  1.6842558917529673E+00 a       283     0     6     1    33
 -2.0462792534927208E+00 a       284     0     6     1    34
  3.1447131895974756E+01 a       285     0     6     1    35
  6.8039921695663033E+00 a       286     0     6     1    36
 -1.1309763805769107E+01 a       287     0     6     1    37
  7.5846926119401665E+00 a       288     0     6     1    38
 -3.9003204725796716E+00 a       289     0     6     1    39
  7.8093926210785099E+01 a       290     0     6     1    40
  1.5667145334101660E+01 a       291     0     6     1    41
 -6.4542813575706006E+00 a       292     0     6     1    42
 -1.3355254742100522E+01 a       293     0     6     1    43
 -1.7101953576976644E+01 a       294     0     6     1    44
  1.0722458427779696E+01 a       295     0     6     1    45
  1.1884230580671552E+01 a       296     0     6     1    46
  8.4805312961020078E+00 a       297     0     6     1    47
  1.0449564976364760E+01 a       298     0     6     1    48
  1.1535341669299045E+01 a       299     0     6     1    49
 -7.3592325003083827E+00 a       300     0     6     1    50
 -6.2498732788940972E+00 a       301     0     7     1     1
  1.9626673421733143E+00 a       302     0     7     1     2
  2.6346388539908712E+00 a       303     0     7     1     3
 -1.4038489779593128E+01 a       304     0     7     1     4
  1.7154555429020128E+01 a       305     0     7     1     5
 -2.7023294768556361E+00 a       306     0     7     1     6
 -8.5659246454670175E+00 a       307     0     7     1     7
  2.3692157343792148E+00 a       308     0     7     1     8
 -1.8961771854333476E+00 a       309     0     7     1     9
  9.4172082051374844E+00 a       310     0     7     1    10
  9.0134539380589196E-01 a       311     0     7     1    11
 -1.1394208916191054E+01 a       312     0     7     1    12
  1.9609007082241327E+01 a       313     0     7     1    13
  1.1260567054915061E+01 a       314     0     7     1    14
  6.5714740472330284E+00 a       315     0     7     1    15
 -2.2627233847276511E+01 a       316     0     7     1    16
  5.0660971311963365E+00 a       317     0     7     1    17
 -1.5136729854220770E+01 a       318     0     7     1    18
 -1.4610741340886271E+01 a       319     0     7     1    19
  5.7571818869355464E+00 a       320     0     7     1    20
  1.0635551563582203E+02 a       321     0     7     1    21
 -3.2713634741881141E+00 a       322     0     7     1    22
 -3.9282027652632057E-01 a       323     0     7     1    23
 -6.9489817550935371E+01 a       324     0     7     1    24
  5.4770039973045996E+01 a       325     0     7     1    25
 -4.3750325997096509E+00 a       326     0     7     1    26
 -9.2218401024925516E+00 a       327     0     7     1    27
 -9.8453411580582895E+00 a       328     0     7     1    28
 -1.4424128514788956E+01 a       329     0     7     1    29
 -3.2054111903536597E+00 a       330     0     7     1    30
  3.3568646097470829E+00 a       331     0     7     1    31
  2.1585265262531440E+01 a       332     0     7     1    32
  3.9556225129967726E+00 a       333     0     7     1    33
 -1.3573263873720351E+00 a       334     0     7     1    34
 -2.5513955806208010E+01 a       335     0     7     1    35
 -7.2680505456551545E+00 a       336     0     7     1    36
  9.0961327310215534E+00 a       337     0     7     1    37
 -7.2927162631607256E+00 a       338     0     7     1    38
  1.5087265958564475E+00 a       339     0     7     1    39
 -2.9602539504897997E+01 a       340     0     7     1    40
 -3.7336458120087270E+00 a       341     0     7     1    41
  1.6043502867049131E+00 a       342     0     7     1    42
  6.9826590395981665E+00 a       343     0     7     1    43
  1.7092253385634098E+01 a       344     0     7     1    44
 -1.2332923227528875E+01 a       345     0     7     1    45
 -9.2775290357557019E+00 a       346     0     7     1    46
  1.3521505416080151E+00 a       347     0     7     1    47
 -9.9857917804708389E+00 a       348     0     7     1    48
 -1.2217253825101450E+01 a       349     0     7     1    49
  1.0808734562474891E+01 a       350     0     7     1    50
 -7.0685812694761667E+00 a       351     0     8     1     1
 -1.9065515139901802E+01 a       352     0     8     1     2
 -7.0830250129754848E+00 a       353     0     8     1     3
  7.6618814391025598E+00 a       354     0     8     1     4
 -6.7399145544910070E+01 a       355     0     8     1     5
  1.8320300232405973E+01 a       356     0     8     1     6
  2.1411598692196385E+01 a       357     0     8     1     7
 -2.2086678545963494E+01 a       358     0     8     1     8
 -3.6593011380833302E+00 a       359     0     8     1     9
 -5.8656488292020921E+00 a       360     0     8     1    10
 -2.4080415537137836E+00 a       361     0     8     1    11
  1.0669110090763509E+01 a       362     0     8     1    12
 -1.2200690628178601E+01 a       363     0     8     1    13
 -8.3558758390472256E+00 a       364     0     8     1    14
 -1.9560841524533039E+01 a       365     0     8     1    15
  1.1688667474005745E+01 a       366     0     8     1    16
 -1.2260712621560870E+01 a       367     0     8     1    17
  1.5161251129010502E+01 a       368     0     8     1    18
  1.9301638333293369E+01 a       369     0     8     1    19
 -9.9586744178268773E+00 a       370     0     8     1    20
 -2.1563935957237490E+02 a       371     0     8     1    21
 -5.4940362148647015E+00 a       372     0     8     1    22
  4.1136334775432694E-02 a       373     0     8     1    23
  1.3022358322367123E+02 a       374     0     8     1    24
 -9.2210919719244771E+01 a       375     0     8     1    25
  3.7877459077877709E+00 a       376     0     8     1    26
  5.2068738758338657E+00 a       377     0     8     1    27
  1.6643061120320876E+01 a       378     0     8     1    28
  3.2398135398244563E+01 a       379     0     8     1    29
  4.3169230412016875E+00 a       380     0     8     1    30
 -2.4980954136850273E+00 a       381     0     8     1    31
 -1.8588990841585662E+01 a       382     0     8     1    32
  6.0358009588892250E+00 a       383     0     8     1    33
  5.3413794678035631E-01 a       384     0     8     1    34
  4.4163795267861026E+01 a       385     0     8     1    35
  5.0815947396551939E+00 a       386     0     8     1    36
 -1.1446946206289219E+01 a       387     0     8     1    37
  8.5303840757868734E+00 a       388     0     8     1    38
 -3.0171261463556975E+00 a       389     0     8     1    39
  1.1541086846587704E+02 a       390     0     8     1    40
  1.9198071930621897E+01 a       391     0     8     1    41
 -4.0073648093336143E+00 a       392     0     8     1    42
 -2.2692281116477382E+01 a       393     0     8     1    43
 -2.1752142424663248E+01 a       394     0     8     1    44
  8.4034255965969660E+00 a       395     0     8     1    45
  1.5101286033152391E+01 a       396     0     8     1    46
  7.4445181511854361E+00 a       397     0     8     1    47
  8.1953624600151720E+00 a       398     0     8     1    48
  1.9992192171517168E+01 a       399     0     8     1    49
 -8.8915025035287268E-02 a       400     0     8     1    50
 -1.1936188757703219E+01 a       401     0     9     1     1
 -3.6749187448838313E+01 a       402     0     9     1     2
 -3.7976895687542780E+00 a       403     0     9     1     3
 -1.3291519568673143E+01 a       404     0     9     1     4
 -6.6301248098064633E+01 a       405     0     9     1     5
  3.3527232462689497E+01 a       406     0     9     1     6
  2.3880176995415411E+01 a       407     0     9     1     7
 -3.0728382482399446E+01 a       408     0     9     1     8
  5.7383737772408692E+00 a       409     0     9     1     9
  1.0167733010359358E+01 a       410     0     9     1    10
 -8.1644297252357223E+00 a       411     0     9     1    11
  1.1157206477436405E+00 a       412     0     9     1    12
  7.2177810131352622E+00 a       413     0     9     1    13
  1.2183479710189099E+01 a       414     0     9     1    14
 -2.7601336196911305E+01 a       415     0     9     1    15
 -1.1121594024815113E+01 a       416     0     9     1    16
 -1.9526067994058870E+01 a       417     0     9     1    17
 -7.0267726905643402E+00 a       418     0     9     1    18
  6.5296827356660083E+00 a       419     0     9     1    19
  2.3534850081935375E+00 a       420     0     9     1    20
 -1.5536566295302768E+02 a       421     0     9     1    21
 -1.2369354683241092E+01 a       422     0     9     1    22
 -5.0009206662666488E+00 a       423     0     9     1    23
  7.9320948975502148E+01 a       424     0     9     1    24
 -4.8196041687267837E+01 a       425     0     9     1    25
 -4.3818210293002524E+00 a       426     0     9     1    26
 -1.7111402832265011E+01 a       427     0     9     1    27
  1.5131851628636165E+01 a       428     0     9     1    28
  3.1392442249713888E+01 a       429     0     9     1    29
  1.0443742364658913E+01 a       430     0     9     1    30
  9.4664786370494571E+00 a       431     0     9     1    31
  1.1287669642304753E+01 a       432     0     9     1    32
  1.1278271549271334E+01 a       433     0     9     1    33
 -4.8138074479087383E+00 a       434     0     9     1    34
  1.4428656802369421E+01 a       435     0     9     1    35
 -9.4928070537252318E-01 a       436     0     9     1    36
 -1.0437766827325505E+00 a       437     0     9     1    37
 -7.8536224779928228E+00 a       438     0     9     1    38
  1.5072904134790437E+00 a       439     0     9     1    39
  1.3644269768685885E+02 a       440     0     9     1    40
  2.3142625397316113E+01 a       441     0     9     1    41
 -1.1624788752979278E+01 a       442     0     9     1    42
 -6.9428523717995621E+00 a       443     0     9     1    43
 -2.0086713022427736E+00 a       444     0     9     1    44
 -1.0629695671334092E+01 a       445     0     9     1    45
  4.5837590419724723E+00 a       446     0     9     1    46
  8.7772294618573987E+00 a       447     0     9     1    47
 -6.5624241650921524E+00 a       448     0     9     1    48
 -5.9243546735210417E+00 a       449     0     9     1    49
  8.9201685963996145E+00 a       450     0     9     1    50
 -1.0471851088709251E+01 a       451     0    10     1     1
  6.5196605906777618E+00 a       452     0    10     1     2
 -3.5553210562123256E+00 a       453     0    10     1     3
  2.5926601646875955E+00 a       454     0    10     1     4
 -2.8462877674350480E+01 a       455     0    10     1     5
 -5.7066838056321956E+00 a       456     0    10     1     6
  1.5149775849136755E+00 a       457     0    10     1     7
 -6.3193009227405108E+00 a       458     0    10     1     8
 -1.3548973646119197E+01 a       459     0    10     1     9
  1.2921538911561710E+00 a       460     0    10     1    10
  4.6650728767423022E+00 a       461     0    10     1    11
 -1.0113618629134153E+00 a       462     0    10     1    12
  3.5778976399807187E+00 a       463     0    10     1    13
 -5.8174977064406741E-01 a       464     0    10     1    14
  2.4393981613608209E+00 a       465     0    10     1    15
 -6.3085634213096400E+00 a       466     0    10     1    16
  3.4504990394524744E+00 a       467     0    10     1    17
  8.3783762837053217E+00 a       468     0    10     1    18
  1.7974067420807018E+00 a       469     0    10     1    19
 -1.1702523322356445E+01 a       470     0    10     1    20
 -5.5160084042835521E+01 a       471     0    10     1    21
 -7.3280730786795605E+00 a       472     0    10     1    22
  2.4800158260063796E+00 a       473     0    10     1    23
  3.7866067591778368E+01 a       474     0    10     1    24
 -2.3415569089859378E+01 a       475     0    10     1    25
  2.7409955966413997E+00 a       476     0    10     1    26
  5.3020075273186498E+00 a       477     0    10     1    27
  1.7676564194413980E-02 a       478     0    10     1    28
  2.1089099666836519E+00 a       479     0    10     1    29
 -9.4667395278072881E+00 a       480     0    10     1    30
 -6.5588628094051185E+00 a       481     0    10     1    31
 -6.9726201514376749E+00 a       482     0    10     1    32
  5.3178353122319457E+00 a       483     0    10     1    33
  5.9441204679126320E+00 a       484     0    10     1    34
  2.0383924199852615E+01 a       485     0    10     1    35
 -2.5905072648341787E+00 a       486     0    10     1    36
 -2.0157495091908504E+00 a       487     0    10     1    37
  6.4309923190166556E+00 a       488     0    10     1    38
 -1.6248384834951279E+00 a       489     0    10     1    39
  2.5798182636696257E+01 a       490     0    10     1    40
  2.1051659440974548E+00 a       491     0    10     1    41
  8.2103864744894199E+00 a       492     0    10     1    42
 -1.9017945562594772E+01 a       493     0    10     1    43
 -8.1575448202849152E+00 a       494     0    10     1    44
  1.5302647039833697E+00 a       495     0    10     1    45
  6.5942468070820173E+00 a       496     0    10     1    46
  8.9147730244810353E-01 a       497     0    10     1    47
  4.3363198123687097E-01 a       498     0    10     1    48
  2.0396889252421104E+01 a       499     0    10     1    49
  9.9473983902415153E+00 a       500     0    10     1    50
 -1.3213080481486953E+01 a       501     0    11     1     1
  7.3924017931039963E+00 a       502     0    11     1     2
 -7.2794289803685635E+00 a       503     0    11     1     3
  4.4991859901191456E+00 a       504     0    11     1     4
 -2.9471256867796424E+01 a       505     0    11     1     5
 -1.1312628604052998E+01 a       506     0    11     1     6
  3.3927786462616440E+00 a       507     0    11     1     7
 -6.8784135924664307E+00 a       508     0    11     1     8
 -1.6456070094864021E+01 a       509     0    11     1     9
  8.6690273923758596E+00 a       510     0    11     1    10
  3.9456345709886764E+00 a       511     0    11     1    11
  2.9658624694502467E-01 a       512     0    11     1    12
  9.4069467038210217E-02 a       513     0    11     1    13
  1.2105802190251742E+01 a       514     0    11     1    14
  5.7752079666423990E+00 a       515     0    11     1    15
 -5.1615703110236630E+00 a       516     0    11     1    16
  1.5795133053779348E-01 a       517     0    11     1    17
  1.1237745874648777E+01 a       518     0    11     1    18
  4.3764470096018044E+00 a       519     0    11     1    19
 -2.2399336455311506E+01 a       520     0    11     1    20
 -5.5334150739724194E+01 a       521     0    11     1    21
 -1.0341818204870531E+01 a       522     0    11     1    22
  2.7727652134506187E+00 a       523     0    11     1    23
  4.7056203841925139E+01 a       524     0    11     1    24
 -2.5573557152764458E+01 a       525     0    11     1    25
  1.7843814023089068E+00 a       526     0    11     1    26
  5.5622810826098181E+00 a       527     0    11     1    27
  8.8738314117400818E-01 a       528     0    11     1    28
 -2.8807357346879732E+00 a       529     0    11     1    29
 -1.3781312250987767E+01 a       530     0    11     1    30
 -5.3918226729664775E+00 a       531     0    11     1    31
 -9.2000479505379662E+00 a       532     0    11     1    32
  8.0318316454786540E+00 a       533     0    11     1    33
  1.3696812501667312E+01 a       534     0    11     1    34
  2.7498599521733418E+01 a       535     0    11     1    35
 -3.4582276530122913E+00 a       536     0    11     1    36
 -1.2211020196813480E+00 a       537     0    11     1    37
  7.2695086942494891E+00 a       538     0    11     1    38
  2.1921693373144171E+00 a       539     0    11     1    39
  1.3774938955642664E+01 a       540     0    11     1    40
  8.2411796865754461E-01 a       541     0    11     1    41
  1.2980865339664170E+01 a       542     0    11     1    42
 -2.1943454290537417E+01 a       543     0    11     1    43
 -1.4488646088812128E+01 a       544     0    11     1    44
 -2.5514826355567397E+00 a       545     0    11     1    45
  8.0513776632645886E+00 a       546     0    11     1    46
  1.0134064460258634E+00 a       547     0    11     1    47
 -4.1434019547833776E+00 a       548     0    11     1    48
  3.1398340996477625E+01 a       549     0    11     1    49
  1.8150036282366866E+01 a       550     0    11     1    50
 -1.1142279148472504E+01 a       551     0    12     1     1
  3.7123394809586934E+00 a       552     0    12     1     2
 -7.8938049862724041E-02 a       553     0    12     1     3
 -8.7697278653625299E-01 a       554     0    12     1     4
 -3.2908148946745570E+01 a       555     0    12     1     5
  1.8194666872301475E+00 a       556     0    12     1     6
  1.1307985792903532E+00 a       557     0    12     1     7
 -9.9304388787049032E+00 a       558     0    12     1     8
 -1.0710971045032814E+01 a       559     0    12     1     9
 -3.9706238623276371E+00 a       560     0    12     1    10
  5.3144951389729931E+00 a       561     0    12     1    11
 -4.9049750334911550E+00 a       562     0    12     1    12
  1.0619566996449633E+01 a       563     0    12     1    13
 -1.1358852543343710E+01 a       564     0    12     1    14
 -3.2151476644918238E+00 a       565     0    12     1    15
 -1.2218161368975320E+01 a       566     0    12     1    16
  6.8663914823579359E+00 a       567     0    12     1    17
  4.2502702697977242E+00 a       568     0    12     1    18
 -1.5269950070771994E+00 a       569     0    12     1    19
  4.7694740440272770E-01 a       570     0    12     1    20
 -6.9576834377697026E+01 a       571     0    12     1    21
 -5.7164628802696615E+00 a       572     0    12     1    22
  1.6086259705770041E+00 a       573     0    12     1    23
  3.3356876439216236E+01 a       574     0    12     1    24
 -2.6625127272211678E+01 a       575     0    12     1    25
  5.8535443518511199E-01 a       576     0    12     1    26
  2.3436782129626921E+00 a       577     0    12     1    27
 -7.1901130638933086E-01 a       578     0    12     1    28
  9.6927487674445931E+00 a       579     0    12     1    29
 -7.4076877654542965E+00 a       580     0    12     1    30
 -7.3068373162318503E+00 a       581     0    12     1    31
 -4.8858680599627702E+00 a       582     0    12     1    32
  3.8125813733664069E+00 a       583     0    12     1    33
 -2.2158382257161908E+00 a       584     0    12     1    34
  1.5304576255738111E+01 a       585     0    12     1    35
 -2.2973479562582351E+00 a       586     0    12     1    36
 -1.8077809979257111E+00 a       587     0    12     1    37
  5.1402458696283597E+00 a       588     0    12     1    38
 -5.4959240994727985E+00 a       589     0    12     1    39
  5.2110484191640737E+01 a       590     0    12     1    40
  4.4315725008022389E+00 a       591     0    12     1    41
  3.1274544487138072E+00 a       592     0    12     1    42
 -1.8849684464246756E+01 a       593     0    12     1    43
 -1.1987228811723296E+00 a       594     0    12     1    44
  3.7781786367071009E+00 a       595     0    12     1    45
  4.0677662660064415E+00 a       596     0    12     1    46
  1.2045146185951720E-01 a       597     0    12     1    47
  4.4824056423210301E+00 a       598     0    12     1    48
  8.9853246215296600E+00 a       599     0    12     1    49
  3.9863597700566733E+00 a       600     0    12     1    50
 -1.7617993791108226E+00 a       601     0    13     1     1
  2.0467227494024744E+01 a       602     0    13     1     2
 -7.6175706238400389E+00 a       603     0    13     1     3
  1.1926263824048663E+01 a       604     0    13     1     4
  5.1573391918902317E+01 a       605     0    13     1     5
 -3.1356867611835050E+01 a       606     0    13     1     6
 -1.3541700130746575E+01 a       607     0    13     1     7
  1.8187238346544618E+01 a       608     0    13     1     8
 -3.9858807258413100E+00 a       609     0    13     1     9
  7.8793183539707172E+00 a       610     0    13     1    10
  5.5395919840408068E+00 a       611     0    13     1    11
 -4.0520504594515385E+00 a       612     0    13     1    12
 -1.1672390347046587E+01 a       613     0    13     1    13
  1.5426853432268761E+01 a       614     0    13     1    14
  2.4799969886036198E+01 a       615     0    13     1    15
  7.9907874408375710E+00 a       616     0    13     1    16
  8.5096762502366445E+00 a       617     0    13     1    17
  1.0235438878897874E+01 a       618     0    13     1    18
  5.8305584346782915E+00 a       619     0    13     1    19
 -2.1906906556175635E+01 a       620     0    13     1    20
  1.0156774888152532E+02 a       621     0    13     1    21
  1.1062681323327789E+01 a       622     0    13     1    22
  4.1190129802218305E+00 a       623     0    13     1    23
 -3.4077776508007901E+01 a       624     0    13     1    24
  1.8495995063428207E+01 a       625     0    13     1    25
 -8.1995653272586662E+00 a       626     0    13     1    26
  1.5967442221167515E+01 a       627     0    13     1    27
 -8.1355614231110405E+00 a       628     0    13     1    28
 -3.2669866341621848E+01 a       629     0    13     1    29
 -1.6587294841640581E+01 a       630     0    13     1    30
 -6.5358844989101552E+00 a       631     0    13     1    31
 -1.8852254175125939E+01 a       632     0    13     1    32
  2.3084440291914192E+00 a       633     0    13     1    33
  1.5447835062870427E+01 a       634     0    13     1    34
  9.6690746847655653E+00 a       635     0    13     1    35
  2.3775079066263993E+00 a       636     0    13     1    36
  7.9126788412977034E-01 a       637     0    13     1    37
  1.0393694436112705E+01 a       638     0    13     1    38
  6.8310919134656576E+00 a       639     0    13     1    39
 -1.2840283852929952E+02 a       640     0    13     1    40
 -1.4782659430668119E+01 a       641     0    13     1    41
  1.7266417086919571E+01 a       642     0    13     1    42
 -4.7257668669503083E-01 a       643     0    13     1    43
 -1.6830066155977740E+01 a       644     0    13     1    44
  4.6703205811204900E-02 a       645     0    13     1    45
 -5.7617568448923286E+00 a       646     0    13     1    46
 -4.2973725295004988E+00 a       647     0    13     1    47
 -3.5193575748710533E+00 a       648     0    13     1    48
  3.0867621161734004E+01 a       649     0    13     1    49
  1.5009870549864523E+01 a       650     0    13     1    50
 -3.8528708396649371E+01 a       651     0    14     1     1
 -2.5017811046078764E-01 a       652     0    14     1     2
  7.5601988336249004E+00 a       653     0    14     1     3
 -2.4369296212526447E+01 a       654     0    14     1     4
 -4.1982248517854304E+00 a       655     0    14     1     5
  4.8721106155893441E+00 a       656     0    14     1     6
 -1.7494106702014655E+01 a       657     0    14     1     7
 -1.8719852088266375E+01 a       658     0    14     1     8
 -1.5779073203592262E+01 a       659     0    14     1     9
  1.3475518197848574E+01 a       660     0    14     1    10
  8.2829708291318482E+00 a       661     0    14     1    11
 -2.4695973352511373E+01 a       662     0    14     1    12
  5.5131441315854623E+01 a       663     0    14     1    13
  4.1814671823981069E+00 a       664     0    14     1    14
 -1.8657838487172012E+00 a       665     0    14     1    15
 -6.2731063618059750E+01 a       666     0    14     1    16
  1.7430194149639505E+01 a       667     0    14     1    17
 -2.4071512642140096E+01 a       668     0    14     1    18
 -3.1081375238472447E+01 a       669     0    14     1    19
  1.3962798464499926E+01 a       670     0    14     1    20
  8.0289827453101850E+01 a       671     0    14     1    21
 -1.9382621133743925E+01 a       672     0    14     1    22
 -3.2493915113516358E+00 a       673     0    14     1    23
 -6.0071326187468124E+01 a       674     0    14     1    24
  3.7582969731493868E+01 a       675     0    14     1    25
 -1.3251658308030599E+01 a       676     0    14     1    26
 -1.4102359155197085E+01 a       677     0    14     1    27
 -1.1780778641539193E+01 a       678     0    14     1    28
 -3.4964555467953993E+00 a       679     0    14     1    29
 -2.6388215138479890E+01 a       680     0    14     1    30
 -6.2931601027524566E+00 a       681     0    14     1    31
  2.4291563650553698E+01 a       682     0    14     1    32
  4.2904396037276280E+00 a       683     0    14     1    33
 -6.9289712967051997E+00 a       684     0    14     1    34
 -1.5075163318853555E+01 a       685     0    14     1    35
 -1.5054411802317997E+01 a       686     0    14     1    36
  1.3245605270977940E+01 a       687     0    14     1    37
 -6.4030066636423104E+00 a       688     0    14     1    38
 -2.6986623761725581E+00 a       689     0    14     1    39
  1.7052941509668385E+00 a       690     0    14     1    40
 -4.1602664054500765E-01 a       691     0    14     1    41
  6.0759649124581809E+00 a       692     0    14     1    42
 -2.0922162851560191E+01 a       693     0    14     1    43
  2.3385882105223562E+01 a       694     0    14     1    44
 -1.5777187742944815E+01 a       695     0    14     1    45
 -1.5601639537838500E+01 a       696     0    14     1    46
 -4.9861635537083737E+00 a       697     0    14     1    47
 -1.2016010321675170E+01 a       698     0    14     1    48
 -8.2406999337735733E+00 a       699     0    14     1    49
  2.2580242695084983E+01 a       700     0    14     1    50
  4.3052267715089435E+01 a       701     0    15     1     1
 -4.9315908149849781E+00 a       702     0    15     1     2
  8.7866514602380832E+00 a       703     0    15     1     3
  8.4803664029364771E+00 a       704     0    15     1     4
  1.5156980897907019E+01 a       705     0    15     1     5
  1.0641929076342441E+01 a       706     0    15     1     6
  1.2697660014076980E+01 a       707     0    15     1     7
  1.0746329717635495E+01 a       708     0    15     1     8
  3.9847615251460027E+01 a       709     0    15     1     9
  1.3592955229659260E+01 a       710     0    15     1    10
 -6.4257925367086806E+00 a       711     0    15     1    11
  1.3531636050637637E+00 a       712     0    15     1    12
 -2.9786517266717478E+01 a       713     0    15     1    13
  1.7181894582795731E+01 a       714     0    15     1    14
 -7.8812865885140715E+00 a       715     0    15     1    15
  3.1042877286599126E+01 a       716     0    15     1    16
 -7.9782576511978531E+00 a       717     0    15     1    17
 -5.4210713621913387E+00 a       718     0    15     1    18
  5.4478823989180547E-01 a       719     0    15     1    19
  2.7099053195468819E+01 a       720     0    15     1    20
  1.5310704917970613E+01 a       721     0    15     1    21
  9.9246083997624512E-01 a       722     0    15     1    22
 -1.3789404084955816E+01 a       723     0    15     1    23
 -3.9645488040529386E+01 a       724     0    15     1    24
  3.5763706525589896E+01 a       725     0    15     1    25
 -5.2866464478349249E+00 a       726     0    15     1    26
 -3.8491298379578673E+01 a       727     0    15     1    27
  1.2245747396743074E+01 a       728     0    15     1    28
  2.1669235309779924E+00 a       729     0    15     1    29
  3.1676721401019673E+01 a       730     0    15     1    30
  2.1760412822698825E+01 a       731     0    15     1    31
  1.3594221129801078E+01 a       732     0    15     1    32
 -1.2661759820640979E+01 a       733     0    15     1    33
 -4.9243612982993437E+00 a       734     0    15     1    34
 -4.2186675715432436E+01 a       735     0    15     1    35
  5.8513230623933330E+00 a       736     0    15     1    36
  5.8855856147603012E+00 a       737     0    15     1    37
 -4.0757963204822516E+01 a       738     0    15     1    38
  6.9562639013970591E+00 a       739     0    15     1    39
  3.6477645530653305E+01 a       740     0    15     1    40
 -1.0390896333986531E+01 a       741     0    15     1    41
 -1.7026674545807190E+01 a       742     0    15     1    42
  4.8977262552355405E+01 a       743     0    15     1    43
  1.4324512722857673E+01 a       744     0    15     1    44
 -4.0561086198163778E+00 a       745     0    15     1    45
 -6.0077146678639588E+00 a       746     0    15     1    46
 -3.2425587603130118E+01 a       747     0    15     1    47
 -1.8894720260972296E-02 a       748     0    15     1    48
 -3.2475710372296952E+01 a       749     0    15     1    49
 -3.1067514162690994E+01 a       750     0    15     1    50
  2.9450061735319039E+01 a       751     0    16     1     1
 -3.6600523190590359E+00 a       752     0    16     1     2
  5.2579576996033395E-01 a       753     0    16     1     3
  9.0565684914870701E+00 a       754     0    16     1     4
  2.1953119484302249E+01 a       755     0    16     1     5
  2.8242900586059023E+00 a       756     0    16     1     6
  1.1045337772937902E+01 a       757     0    16     1     7
  8.6272815693928013E+00 a       758     0    16     1     8
  2.4087931918911146E+01 a       759     0    16     1     9
  5.8114865476489630E+00 a       760     0    16     1    10
 -1.3388938861885121E+01 a       761     0    16     1    11
  1.3818533261635976E+01 a       762     0    16     1    12
 -2.8440994267668700E+01 a       763     0    16     1    13
  1.8228554302016786E+01 a       764     0    16     1    14
 -4.1500971233150867E+00 a       765     0    16     1    15
  3.4861358460485221E+01 a       766     0    16     1    16
 -1.9213859161674634E+01 a       767     0    16     1    17
  2.8711135414055340E+00 a       768     0    16     1    18
  1.1017760643692949E+01 a       769     0    16     1    19
  3.2477764981719393E+00 a       770     0    16     1    20
  1.6135124078295460E+00 a       771     0    16     1    21
  5.0928352718600252E+00 a       772     0    16     1    22
 -3.7224082165581738E+00 a       773     0    16     1    23
 -3.0765261771761772E+00 a       774     0    16     1    24
  8.1726722689662292E+00 a       775     0    16     1    25
  3.9626074323304992E+00 a       776     0    16     1    26
 -9.6095427314829109E+00 a       777     0    16     1    27
  7.3044100472384450E+00 a       778     0    16     1    28
 -3.6905029183617768E+00 a       779     0    16     1    29
  1.5795762921582773E+01 a       780     0    16     1    30
  1.2799081325811535E+01 a       781     0    16     1    31
 -6.0515437618380385E+00 a       782     0    16     1    32
 -7.6179105133240732E+00 a       783     0    16     1    33
  9.9076120774701004E-01 a       784     0    16     1    34
 -1.6490120106961843E+01 a       785     0    16     1    35
  6.8625192876623275E+00 a       786     0    16     1    36
  2.8335006524249060E+00 a       787     0    16     1    37
 -5.5980080526441167E+00 a       788     0    16     1    38
  1.1639821598685717E+01 a       789     0    16     1    39
 -5.3684898548107673E+00 a       790     0    16     1    40
 -1.0690633133872900E+01 a       791     0    16     1    41
 -8.9255038210775073E+00 a       792     0    16     1    42
  3.4371404104597218E+01 a       793     0    16     1    43
 -1.9273194117639048E+00 a       794     0    16     1    44
 -5.2788711525131351E+00 a       795     0    16     1    45
  2.0208049458726651E+00 a       796     0    16     1    46
 -1.0724347257146455E+01 a       797     0    16     1    47
 -7.4329403194924986E+00 a       798     0    16     1    48
 -2.4246590615402027E+01 a       799     0    16     1    49
 -1.6230868682653245E+01 a       800     0    16     1    50
 -1.0700875774481114E+01 a       801     0    17     1     1
 -7.5808838709082915E-01 a       802     0    17     1     2
  7.6624338982717599E-01 a       803     0    17     1     3
 -1.6458751726967440E+00 a       804     0    17     1     4
 -1.0021275046692644E+00 a       805     0    17     1     5
  1.8204892726556083E+00 a       806     0    17     1     6
 -2.1836377428628237E+00 a       807     0    17     1     7
 -5.2387357089107214E+00 a       808     0    17     1     8
 -5.5427398655176523E+00 a       809     0    17     1     9
 -1.0560794531761450E+00 a       810     0    17     1    10
 -1.4997921328603716E+00 a       811     0    17     1    11
 -1.5773878681937231E-01 a       812     0    17     1    12
  9.5216103875234133E+00 a       813     0    17     1    13
 -3.6023600129405220E+00 a       814     0    17     1    14
 -4.8435035357255893E+00 a       815     0    17     1    15
 -1.1533220473074564E+01 a       816     0    17     1    16
 -1.0456362813363456E+00 a       817     0    17     1    17
 -2.7239276668677204E+00 a       818     0    17     1    18
 -2.6975533742381064E+00 a       819     0    17     1    19
 -2.5775440438364643E+00 a       820     0    17     1    20
 -8.5092406615591565E-01 a       821     0    17     1    21
 -2.4468163644398002E+00 a       822     0    17     1    22
  4.2319245587518042E+00 a       823     0    17     1    23
  1.9443273579138665E+00 a       824     0    17     1    24
 -3.1149241323534351E+00 a       825     0    17     1    25
  3.9320294644966576E+00 a       826     0    17     1    26
  1.7908385194555196E+00 a       827     0    17     1    27
 -1.9298128042567770E+00 a       828     0    17     1    28
  4.3767628722291860E+00 a       829     0    17     1    29
 -8.3471343128423818E+00 a       830     0    17     1    30
 -1.0075583365725145E+00 a       831     0    17     1    31
 -3.3834101714915521E+00 a       832     0    17     1    32
 -7.2415887732763995E-01 a       833     0    17     1    33
 -1.0287380853510668E+00 a       834     0    17     1    34
  1.7622223618880264E+00 a       835     0    17     1    35
 -2.6346693937123161E-01 a       836     0    17     1    36
  4.5334096240728945E+00 a       837     0    17     1    37
  1.0100710991724860E+01 a       838     0    17     1    38
  1.5316167002848267E+00 a       839     0    17     1    39
  3.4010771278814396E+00 a       840     0    17     1    40
  1.6490958482260683E+00 a       841     0    17     1    41
 -2.5456066686208212E+00 a       842     0    17     1    42
 -5.1994457738081383E+00 a       843     0    17     1    43
  2.5022337362482339E+00 a       844     0    17     1    44
 -2.8221407592573784E+00 a       845     0    17     1    45
  5.9840020999767229E-01 a       846     0    17     1    46
  2.9052829077518623E+00 a       847     0    17     1    47
 -3.8540292734791528E+00 a       848     0    17     1    48
 -1.0183039296124523E+01 a       849     0    17     1    49
  2.6390603429450952E+00 a       850     0    17     1    50
 -1.9322248106074726E+00 a       851     0    18     1     1
  8.5757034976580482E-01 a       852     0    18     1     2
 -1.1643339692232739E+00 a       853     0    18     1     3
  5.2908426653533250E-02 a       854     0    18     1     4
 -3.2802013519354838E+00 a       855     0    18     1     5
 -1.8395774472886803E+00 a       856     0    18     1     6
 -1.0334332418155203E+00 a       857     0    18     1     7
  1.2348066294866058E+00 a       858     0    18     1     8
 -2.5497687130763018E+00 a       859     0    18     1     9
 -5.4358103642271172E-01 a       860     0    18     1    10
  3.3041151916518525E+00 a       861     0    18     1    11
 -1.9621223116535333E+00 a       862     0    18     1    12
 -2.6558396874992139E-02 a       863     0    18     1    13
 -1.1417197079087791E+00 a       864     0    18     1    14
  1.5679899156644848E+00 a       865     0    18     1    15
 -2.2427923279842283E+00 a       866     0    18     1    16
  3.2591551294997370E+00 a       867     0    18     1    17
  3.2946914236815589E-01 a       868     0    18     1    18
  2.8290454653127894E-01 a       869     0    18     1    19
 -1.2549067925716431E+00 a       870     0    18     1    20
 -6.4161432375837335E-01 a       871     0    18     1    21
  9.2003016525318904E-01 a       872     0    18     1    22
 -9.1223090986970720E-02 a       873     0    18     1    23
  1.4584544864718316E+00 a       874     0    18     1    24
 -1.6834954807909353E+00 a       875     0    18     1    25
 -1.3199121540317362E+00 a       876     0    18     1    26
  6.0811808239963261E-01 a       877     0    18     1    27
 -1.1800290376255389E-01 a       878     0    18     1    28
 -2.6175389571582541E-01 a       879     0    18     1    29
 -3.8225142072610674E-01 a       880     0    18     1    30
 -1.7608698770454392E+00 a       881     0    18     1    31
  4.5177429787877960E-01 a       882     0    18     1    32
  1.5037898366407934E+00 a       883     0    18     1    33
  1.4358573060847590E+00 a       884     0    18     1    34
  2.7759864769578182E+00 a       885     0    18     1    35
  2.9234405614806852E-01 a       886     0    18     1    36
 -9.3507899663208216E-01 a       887     0    18     1    37
 -1.7628462262538107E+00 a       888     0    18     1    38
 -2.1830737355812029E+00 a       889     0    18     1    39
 -1.8847253848352614E+00 a       890     0    18     1    40
  1.4607521650693187E+00 a       891     0    18     1    41
  2.3062236624131143E+00 a       892     0    18     1    42
 -3.9771637870112850E+00 a       893     0    18     1    43
 -1.7198787585659820E+00 a       894     0    18     1    44
  1.1121784811873443E+00 a       895     0    18     1    45
 -1.5149040044084230E-01 a       896     0    18     1    46
  8.2166814463157589E-01 a       897     0    18     1    47
  2.3450935050703792E+00 a       898     0    18     1    48
  7.7725999703195523E+00 a       899     0    18     1    49
  1.8080575859719681E+00 a       900     0    18     1    50
 -1.1207305656991975E+01 a       901     0    19     1     1
 -1.6177676431191969E+01 a       902     0    19     1     2
 -1.4151423320983834E+00 a       903     0    19     1     3
  6.0788991653393492E+00 a       904     0    19     1     4
  4.5890831509267670E+01 a       905     0    19     1     5
 -6.9860711871768510E-01 a       906     0    19     1     6
 -4.9385041782924342E+00 a       907     0    19     1     7
  5.8350863268722781E+00 a       908     0    19     1     8
  1.8244419118148393E+01 a       909     0    19     1     9
 -1.0068352523044515E+01 a       910     0    19     1    10
 -2.5383875352797133E+01 a       911     0    19     1    11
 -8.0736246964876841E+00 a       912     0    19     1    12
 -2.1478193713235608E+01 a       913     0    19     1    13
  9.4572674912149193E+00 a       914     0    19     1    14
 -3.7751606684002375E+01 a       915     0    19     1    15
  2.4663032768845323E+01 a       916     0    19     1    16
 -1.3291073090354955E+00 a       917     0    19     1    17
 -1.2055278922261849E+01 a       918     0    19     1    18
 -2.6692359125427693E+01 a       919     0    19     1    19
 -1.5225213320472868E+01 a       920     0    19     1    20
  2.8709717097632662E+01 a       921     0    19     1    21
 -2.7391892065135494E+01 a       922     0    19     1    22
 -1.9541101405511537E+01 a       923     0    19     1    23
  2.8033957254395357E+01 a       924     0    19     1    24
 -1.8529407420423574E+01 a       925     0    19     1    25
 -8.0083655352638399E+00 a       926     0    19     1    26
  1.6000798840088294E+01 a       927     0    19     1    27
  4.6110785088496179E+01 a       928     0    19     1    28
  3.8438952445048592E+01 a       929     0    19     1    29
 -1.5543813662553635E+01 a       930     0    19     1    30
  8.1328790528060750E+00 a       931     0    19     1    31
  4.7717699718725415E+00 a       932     0    19     1    32
 -1.4315451815490482E+01 a       933     0    19     1    33
  1.5516376596094354E+01 a       934     0    19     1    34
 -2.7785758368041815E+00 a       935     0    19     1    35
 -4.5675088066919667E+00 a       936     0    19     1    36
 -5.4743752150609879E+00 a       937     0    19     1    37
 -2.7214986504384548E+01 a       938     0    19     1    38
  1.9439612346987303E+00 a       939     0    19     1    39
 -7.7605103978332195E+01 a       940     0    19     1    40
  6.0573955396836778E+00 a       941     0    19     1    41
 -7.3744551747904188E+00 a       942     0    19     1    42
 -2.1644597934221701E+00 a       943     0    19     1    43
 -3.5471552344982854E+01 a       944     0    19     1    44
  3.9216170910457362E+00 a       945     0    19     1    45
  2.0718044832767085E+01 a       946     0    19     1    46
 -1.9199997565138169E+01 a       947     0    19     1    47
  2.6377391343301010E+01 a       948     0    19     1    48
  1.6284546260915857E+01 a       949     0    19     1    49
  2.6443087354136008E+00 a       950     0    19     1    50
 -5.4013542132946093E+01 a       951     0    20     1     1
  2.9793252112500666E+00 a       952     0    20     1     2
  2.6897743550960168E+01 a       953     0    20     1     3
  5.0959623269570340E+00 a       954     0    20     1     4
 -3.0228618286913914E+01 a       955     0    20     1     5
  2.3297434820635196E+01 a       956     0    20     1     6
 -2.7149839265060681E+01 a       957     0    20     1     7
  1.0237456709038524E+01 a       958     0    20     1     8
  1.0604191326706134E+00 a       959     0    20     1     9
  1.6544055253967980E+00 a       960     0    20     1    10
  8.0586945274161668E+00 a       961     0    20     1    11
  4.1679988677847845E+01 a       962     0    20     1    12
  1.4621728829924471E+01 a       963     0    20     1    13
  3.0084267178320683E+01 a       964     0    20     1    14
 -1.1368576476200557E+01 a       965     0    20     1    15
  1.8636405213842448E+01 a       966     0    20     1    16
 -1.0082254320269868E+01 a       967     0    20     1    17
  2.1419524045196052E+00 a       968     0    20     1    18
 -7.6964841707694820E-01 a       969     0    20     1    19
 -2.3688230416823721E+01 a       970     0    20     1    20
  3.4188772289828940E+01 a       971     0    20     1    21
 -4.6964241926117296E+01 a       972     0    20     1    22
 -2.2981778085388509E+01 a       973     0    20     1    23
  2.4997129375425196E+01 a       974     0    20     1    24
  4.5310554322310800E+01 a       975     0    20     1    25
  5.8747459284646602E+01 a       976     0    20     1    26
 -1.4830846540624973E+01 a       977     0    20     1    27
  8.1118167750399159E+00 a       978     0    20     1    28
  3.3909951345412878E+01 a       979     0    20     1    29
  1.6203754100706686E+01 a       980     0    20     1    30
  2.7948949062634497E+01 a       981     0    20     1    31
  4.2588391965485449E+01 a       982     0    20     1    32
 -4.0499973366700594E+01 a       983     0    20     1    33
  3.7191603826835809E+01 a       984     0    20     1    34
  1.3962218141568277E+01 a       985     0    20     1    35
 -3.1000648083663123E+01 a       986     0    20     1    36
 -4.5131955467089391E+01 a       987     0    20     1    37
 -2.0931105029072857E+01 a       988     0    20     1    38
 -3.0853874436536759E+00 a       989     0    20     1    39
 -2.9279705723927094E+01 a       990     0    20     1    40
 -8.8458927499737712E+00 a       991     0    20     1    41
 -7.3935520602043079E+00 a       992     0    20     1    42
 -4.4019592428892864E+01 a       993     0    20     1    43
  1.1390611941124796E+01 a       994     0    20     1    44
  4.4901349560710997E+01 a       995     0    20     1    45
  8.4962897584104784E+00 a       996     0    20     1    46
 -1.4289417489376721E+01 a       997     0    20     1    47
 -1.8875469604339351E+01 a       998     0    20     1    48
 -7.8651865973567974E+00 a       999     0    20     1    49
 -4.3083308318553485E+01 a      1000     0    20     1    50
  5.8384987178038934E+01 a      1001     0    21     1     1
  5.8518802318542535E+00 a      1002     0    21     1     2
  2.5456425500572379E+01 a      1003     0    21     1     3
 -2.0270661343606978E+01 a      1004     0    21     1     4
 -1.3842258149752443E+01 a      1005     0    21     1     5
  1.5619983345427894E+01 a      1006     0    21     1     6
  2.6029970421163231E+01 a      1007     0    21     1     7
 -2.4157607176202784E+00 a      1008     0    21     1     8
 -3.1799841043568112E+01 a      1009     0    21     1     9
  2.0656958444742362E+01 a      1010     0    21     1    10
 -3.1902432833453911E+01 a      1011     0    21     1    11
 -5.2649604882237719E+00 a      1012     0    21     1    12
  1.5674738159730570E+00 a      1013     0    21     1    13
  1.2104747876889610E+01 a      1014     0    21     1    14
 -2.9700290568319001E+01 a      1015     0    21     1    15
  3.4981368076549792E+01 a      1016     0    21     1    16
  2.6091109933884207E+00 a      1017     0    21     1    17
 -8.1134248989928111E+00 a      1018     0    21     1    18
  8.9398592510017583E+00 a      1019     0    21     1    19
  9.1824367355798593E+00 a      1020     0    21     1    20
  1.0898037326342632E+01 a      1021     0    21     1    21
 -3.1100293724172881E+00 a      1022     0    21     1    22
  8.6422283521814656E+00 a      1023     0    21     1    23
 -1.9020792393970051E+01 a      1024     0    21     1    24
 -1.9512753500316915E+01 a      1025     0    21     1    25
  7.8808970596870836E+01 a      1026     0    21     1    26
  3.8975588785338005E+01 a      1027     0    21     1    27
 -4.9555639068443483E+01 a      1028     0    21     1    28
 -5.4564822433279154E+01 a      1029     0    21     1    29
  1.9325165976605614E+01 a      1030     0    21     1    30
 -1.4282145372854647E+01 a      1031     0    21     1    31
  1.6626711822278651E+01 a      1032     0    21     1    32
 -3.1436281856997463E+00 a      1033     0    21     1    33
  1.2174767005574280E+01 a      1034     0    21     1    34
  3.5358241958442449E+01 a      1035     0    21     1    35
 -3.8802277876963349E+00 a      1036     0    21     1    36
  1.9077806804776820E+01 a      1037     0    21     1    37
  1.6274327747044087E+01 a      1038     0    21     1    38
  1.4900873330028914E+00 a      1039     0    21     1    39
 -1.9253847633319797E+01 a      1040     0    21     1    40
  2.9036785240005156E+00 a      1041     0    21     1    41
  2.6248314833557934E+01 a      1042     0    21     1    42
  4.0485418490707357E+00 a      1043     0    21     1    43
  1.9613153521288478E+01 a      1044     0    21     1    44
  1.4056027004110609E+00 a      1045     0    21     1    45
  2.1406300306599189E+01 a      1046     0    21     1    46
 -2.6953750394082792E+01 a      1047     0    21     1    47
 -2.0527803198597486E+01 a      1048     0    21     1    48
  6.7449263431384754E-01 a      1049     0    21     1    49
 -4.0661183341716969E+00 a      1050     0    21     1    50
  4.6422340483883055E+01 a      1051     0    22     1     1
  2.1046369355767061E+00 a      1052     0    22     1     2
 -8.5030565864084036E+00 a      1053     0    22     1     3
 -3.7266263806966755E+01 a      1054     0    22     1     4
 -3.7756120417354701E+01 a      1055     0    22     1     5
  2.7073929574015501E+01 a      1056     0    22     1     6
  2.9294140369037112E+01 a      1057     0    22     1     7
 -2.8165365176238399E+01 a      1058     0    22     1     8
  5.1423475361019200E+01 a      1059     0    22     1     9
 -6.9889957716484066E+00 a      1060     0    22     1    10
 -1.0072316588747020E+01 a      1061     0    22     1    11
 -1.7928945340181638E+01 a      1062     0    22     1    12
 -8.2954182528701157E+00 a      1063     0    22     1    13
 -1.2819546873754001E+01 a      1064     0    22     1    14
 -2.8649302384417119E+01 a      1065     0    22     1    15
 -4.9469878786657384E+00 a      1066     0    22     1    16
 -2.2878036410672351E+01 a      1067     0    22     1    17
 -5.6102825216702925E+00 a      1068     0    22     1    18
  2.7007713682006543E+01 a      1069     0    22     1    19
  1.7567193434517975E+01 a      1070     0    22     1    20
 -7.0880304800909627E+01 a      1071     0    22     1    21
  6.9837187894209279E+01 a      1072     0    22     1    22
  2.0903191357909012E+01 a      1073     0    22     1    23
  4.2490556268467763E+01 a      1074     0    22     1    24
 -6.8439861421737291E+01 a      1075     0    22     1    25
 -1.2119764711714007E+01 a      1076     0    22     1    26
  1.0850555998810879E+01 a      1077     0    22     1    27
  1.9676832958146726E+01 a      1078     0    22     1    28
  2.0297164930221516E+01 a      1079     0    22     1    29
  2.5972801540838777E+01 a      1080     0    22     1    30
 -1.7066121456885345E+01 a      1081     0    22     1    31
 -2.4013141956341784E+01 a      1082     0    22     1    32
  2.3491601538738909E+01 a      1083     0    22     1    33
 -2.3449450006140303E+01 a      1084     0    22     1    34
  1.6945491021598816E+01 a      1085     0    22     1    35
  9.0841315864696914E-01 a      1086     0    22     1    36
 -2.5025565630663223E+01 a      1087     0    22     1    37
 -7.0350409412159047E+00 a      1088     0    22     1    38
 -7.8785781132516890E+00 a      1089     0    22     1    39
  7.1602994599100342E+01 a      1090     0    22     1    40
  1.7084872801246014E+01 a      1091     0    22     1    41
 -2.9400607257025470E+01 a      1092     0    22     1    42
  3.3790426286165257E+01 a      1093     0    22     1    43
 -1.2297594747575106E+01 a      1094     0    22     1    44
  3.4725370951090033E+00 a      1095     0    22     1    45
  2.5313060373212256E+01 a      1096     0    22     1    46
 -1.1923220830409205E+01 a      1097     0    22     1    47
  3.6467018993320821E+01 a      1098     0    22     1    48
 -1.5208423183442578E+01 a      1099     0    22     1    49
  1.9935370285539957E+01 a      1100     0    22     1    50
  6.5312996323332708E+00 a      1101     0    23     1     1
  1.2576445126994798E+01 a      1102     0    23     1     2
 -1.8412731586488402E+01 a      1103     0    23     1     3
 -2.5951595385871322E+01 a      1104     0    23     1     4
 -4.2459001118740098E+01 a      1105     0    23     1     5
 -8.8660216854209271E+00 a      1106     0    23     1     6
  1.8398237432544207E+01 a      1107     0    23     1     7
  1.3848297292933692E+01 a      1108     0    23     1     8
  9.1734000025168214E+00 a      1109     0    23     1     9
 -1.3211562195806648E+01 a      1110     0    23     1    10
  4.8341392814651236E+01 a      1111     0    23     1    11
  1.4723664282718646E+01 a      1112     0    23     1    12
  2.6358464275639268E+01 a      1113     0    23     1    13
  7.4412437633510695E+00 a      1114     0    23     1    14
  5.6887350310731549E+01 a      1115     0    23     1    15
  7.8697754241240547E+00 a      1116     0    23     1    16
  1.3821143892920654E+01 a      1117     0    23     1    17
  2.3795080054626201E+01 a      1118     0    23     1    18
  2.3090842060058218E+01 a      1119     0    23     1    19
  2.1421343311452389E+01 a      1120     0    23     1    20
 -5.9368106468731114E+01 a      1121     0    23     1    21
  7.0705756056682247E+01 a      1122     0    23     1    22
  1.2879188488985793E+01 a      1123     0    23     1    23
 -1.0607704991431946E+01 a      1124     0    23     1    24
  1.6963276933874408E+01 a      1125     0    23     1    25
 -5.8732761907489014E+01 a      1126     0    23     1    26
 -3.4482580335525554E+01 a      1127     0    23     1    27
 -4.5152315727126648E+01 a      1128     0    23     1    28
 -1.0660758845949992E+01 a      1129     0    23     1    29
 -3.1338489532083441E-01 a      1130     0    23     1    30
  4.2381131266485292E+00 a      1131     0    23     1    31
 -1.0287875739408719E+01 a      1132     0    23     1    32
  4.0533301022670258E+01 a      1133     0    23     1    33
 -3.4023311859433846E+01 a      1134     0    23     1    34
 -6.8791155077553832E+00 a      1135     0    23     1    35
  2.4337186945580783E+01 a      1136     0    23     1    36
  2.0679999253268381E+01 a      1137     0    23     1    37
  2.7542171307201514E+01 a      1138     0    23     1    38
 -3.6593340534700713E+00 a      1139     0    23     1    39
  1.1293995488846120E+02 a      1140     0    23     1    40
 -1.3671918826217793E+01 a      1141     0    23     1    41
 -4.4036010253023310E+00 a      1142     0    23     1    42
  3.0356988187134267E+01 a      1143     0    23     1    43
  1.3857628903685264E+01 a      1144     0    23     1    44
 -4.4046199546590632E+00 a      1145     0    23     1    45
 -3.0279415273344384E+01 a      1146     0    23     1    46
 -1.0224489942771237E+01 a      1147     0    23     1    47
  4.7749382466745312E+00 a      1148     0    23     1    48
 -3.3770410362683947E+01 a      1149     0    23     1    49
  5.6911232246320875E-01 a      1150     0    23     1    50
 -2.3826632096243276E+01 a      1151     0    24     1     1
  1.9822472278670716E+01 a      1152     0    24     1     2
  1.2995114849219606E+01 a      1153     0    24     1     3
  2.6581544541775099E+01 a      1154     0    24     1     4
  2.5830820215000603E+01 a      1155     0    24     1     5
 -2.6009800667627673E+01 a      1156     0    24     1     6
 -9.4011497469117113E+00 a      1157     0    24     1     7
  2.2890602254541545E+01 a      1158     0    24     1     8
 -1.0177522099352666E+01 a      1159     0    24     1     9
 -5.0086008448490436E+00 a      1160     0    24     1    10
  1.2701827371072939E+01 a      1161     0    24     1    11
  1.8424876516827261E+01 a      1162     0    24     1    12
  1.8281805717314864E+01 a      1163     0    24     1    13
  1.3092891647190893E+01 a      1164     0    24     1    14
  2.3416761941768723E+01 a      1165     0    24     1    15
  8.4308129527035884E+00 a      1166     0    24     1    16
  1.8518925107415100E+01 a      1167     0    24     1    17
  8.3386076621444492E+00 a      1168     0    24     1    18
 -1.2656523229391325E+01 a      1169     0    24     1    19
 -5.2907184961912090E+00 a      1170     0    24     1    20
  7.1193668057288635E+00 a      1171     0    24     1    21
 -2.8913922012081290E+01 a      1172     0    24     1    22
 -4.2687665408001614E+00 a      1173     0    24     1    23
 -3.6717378204756862E+01 a      1174     0    24     1    24
  5.1063141896302746E+01 a      1175     0    24     1    25
  1.1871944252795457E+01 a      1176     0    24     1    26
 -1.1432387867564184E+01 a      1177     0    24     1    27
 -2.5366435771899440E+01 a      1178     0    24     1    28
 -1.6122165668297249E+01 a      1179     0    24     1    29
 -1.3352278780112201E+01 a      1180     0    24     1    30
  3.7479062524707238E+00 a      1181     0    24     1    31
  1.1352705260061439E+01 a      1182     0    24     1    32
 -2.2337085145946993E+01 a      1183     0    24     1    33
  7.4195477486400563E+00 a      1184     0    24     1    34
 -4.6856037333831324E-01 a      1185     0    24     1    35
  7.5406347151235398E+00 a      1186     0    24     1    36
  3.5200223685281977E+00 a      1187     0    24     1    37
  1.8778104998147313E+01 a      1188     0    24     1    38
  3.3895863799074739E+00 a      1189     0    24     1    39
 -1.6779924680847952E+01 a      1190     0    24     1    40
 -1.5108861159676520E+01 a      1191     0    24     1    41
  1.6082733641814080E+01 a      1192     0    24     1    42
 -1.4927942540226997E+01 a      1193     0    24     1    43
  7.3896694407027415E+00 a      1194     0    24     1    44
  1.7776619563357578E+01 a      1195     0    24     1    45
 -3.2532870600155150E+01 a      1196     0    24     1    46
  7.6586969778885050E-01 a      1197     0    24     1    47
 -2.0053177599305691E+01 a      1198     0    24     1    48
 -6.4101802522980718E+00 a      1199     0    24     1    49
 -2.0445441358833360E+01 a      1200     0    24     1    50
 -6.2768401832444177E+01 a      1201     0    25     1     1
 -6.7475359749013295E+00 a      1202     0    25     1     2
 -2.2011107133506364E+01 a      1203     0    25     1     3
  2.8563672840055979E+01 a      1204     0    25     1     4
  7.0730993992320874E+00 a      1205     0    25     1     5
 -1.2185857026952766E+01 a      1206     0    25     1     6
 -3.5847571972946788E+01 a      1207     0    25     1     7
  1.5845666163699799E+00 a      1208     0    25     1     8
  2.5339697694112086E+01 a      1209     0    25     1     9
 -6.0898916932590383E+00 a      1210     0    25     1    10
  2.8116849025465530E+01 a      1211     0    25     1    11
  1.3663227841610022E+01 a      1212     0    25     1    12
 -1.2258032416241138E+00 a      1213     0    25     1    13
 -1.9152324529558587E+01 a      1214     0    25     1    14
  3.2766869271457900E+01 a      1215     0    25     1    15
 -3.5561205725556739E+01 a      1216     0    25     1    16
 -7.8622107730531363E+00 a      1217     0    25     1    17
  1.1170003076186017E+01 a      1218     0    25     1    18
 -7.9877570223383190E+00 a      1219     0    25     1    19
 -1.3530982592516628E+01 a      1220     0    25     1    20
 -1.0033838618621433E+01 a      1221     0    25     1    21
 -5.7853966108638684E+00 a      1222     0    25     1    22
 -1.2802996809375156E+01 a      1223     0    25     1    23
  1.7669597081317381E+01 a      1224     0    25     1    24
  2.8062974068138534E+01 a      1225     0    25     1    25
 -7.0041479978665137E+01 a      1226     0    25     1    26
 -3.9490173961124704E+01 a      1227     0    25     1    27
  4.9444168673056900E+01 a      1228     0    25     1    28
  4.9683838432939183E+01 a      1229     0    25     1    29
 -1.6318688216917860E+01 a      1230     0    25     1    30
  1.7167557379755028E+01 a      1231     0    25     1    31
 -1.2918550472373358E+01 a      1232     0    25     1    32
 -6.0908894063869612E+00 a      1233     0    25     1    33
 -8.5874049008850459E+00 a      1234     0    25     1    34
 -3.7574677996353358E+01 a      1235     0    25     1    35
  4.7714985203052533E+00 a      1236     0    25     1    36
 -2.3727660692521098E+01 a      1237     0    25     1    37
 -1.7921836564231540E+01 a      1238     0    25     1    38
 -8.9983364272071178E+00 a      1239     0    25     1    39
  2.0525018267987758E+01 a      1240     0    25     1    40
  3.2503622865280857E-01 a      1241     0    25     1    41
 -2.9182154493701596E+01 a      1242     0    25     1    42
 -9.6872325099480889E+00 a      1243     0    25     1    43
 -1.0672730287096297E+01 a      1244     0    25     1    44
 -7.9900949341277838E-01 a      1245     0    25     1    45
 -2.4491972082101857E+01 a      1246     0    25     1    46
  4.9944490514182206E+01 a      1247     0    25     1    47
  2.1503509056062029E+00 a      1248     0    25     1    48
 -8.8438993173866687E-01 a      1249     0    25     1    49
  8.9630088397110725E+00 a      1250     0    25     1    50
  2.4316709593468779E+01 a      1251     0    26     1     1
  6.1478831609614897E+00 a      1252     0    26     1     2
  9.1695218086212193E-01 a      1253     0    26     1     3
  3.3196381725642375E+01 a      1254     0    26     1     4
  8.2053611566542557E+01 a      1255     0    26     1     5
 -3.3906150286498502E+01 a      1256     0    26     1     6
 -4.1840805704231316E+00 a      1257     0    26     1     7
  1.0537882274008666E+01 a      1258     0    26     1     8
  2.2590464730967949E-01 a      1259     0    26     1     9
 -1.1357855881149588E+01 a      1260     0    26     1    10
 -8.8100404229398865E+00 a      1261     0    26     1    11
 -1.8972124155721115E+01 a      1262     0    26     1    12
 -1.1126615871881294E+01 a      1263     0    26     1    13
 -1.6907471787887282E+01 a      1264     0    26     1    14
  1.0144140616827773E+01 a      1265     0    26     1    15
 -1.6083189150300676E+01 a      1266     0    26     1    16
  2.1548700733181800E+01 a      1267     0    26     1    17
  1.4699844056570976E+00 a      1268     0    26     1    18
 -2.2906033284390488E+00 a      1269     0    26     1    19
 -2.6066703996231890E+00 a      1270     0    26     1    20
  4.9849730058136259E+01 a      1271     0    26     1    21
 -1.8650384092058021E+00 a      1272     0    26     1    22
  1.2994240208150782E+01 a      1273     0    26     1    23
 -6.4754164125764945E+01 a      1274     0    26     1    24
  6.0996643579823315E+00 a      1275     0    26     1    25
 -1.8425151145236907E+01 a      1276     0    26     1    26
  1.9567988391582105E+01 a      1277     0    26     1    27
  6.3813928111107576E-01 a      1278     0    26     1    28
 -2.2081932044713419E+01 a      1279     0    26     1    29
 -2.4700473301738462E+01 a      1280     0    26     1    30
 -1.8037563600955636E+01 a      1281     0    26     1    31
 -2.5022942840920972E+01 a      1282     0    26     1    32
 -7.6274997279044747E+00 a      1283     0    26     1    33
 -1.0820945780267222E+01 a      1284     0    26     1    34
 -1.5331443611924580E+01 a      1285     0    26     1    35
  1.9492604497923974E+01 a      1286     0    26     1    36
  1.0310548563118889E+01 a      1287     0    26     1    37
  1.6221510911464144E+01 a      1288     0    26     1    38
  2.2625897595607198E+00 a      1289     0    26     1    39
 -8.7366906659860263E+01 a      1290     0    26     1    40
 -1.1119572061728733E+00 a      1291     0    26     1    41
  1.0357433834555966E+01 a      1292     0    26     1    42
  1.3674295866931301E+01 a      1293     0    26     1    43
 -1.5806427494401003E+01 a      1294     0    26     1    44
 -6.1368055443789258E+00 a      1295     0    26     1    45
 -2.2693487752582318E+01 a      1296     0    26     1    46
  2.7563885531377725E+01 a      1297     0    26     1    47
  9.2970554168631097E+00 a      1298     0    26     1    48
  9.4158066681631940E+00 a      1299     0    26     1    49
  1.4548263250352139E+01 a      1300     0    26     1    50
  3.1150629542172602E+01 a      1301     0    27     1     1
  4.1774743740618163E+00 a      1302     0    27     1     2
 -4.0001024129785193E+01 a      1303     0    27     1     3
  2.2358600284642918E+01 a      1304     0    27     1     4
 -2.7153722723306085E+01 a      1305     0    27     1     5
 -1.1284200273963258E+01 a      1306     0    27     1     6
  8.6227549175205276E+00 a      1307     0    27     1     7
 -7.8333938236475200E+00 a      1308     0    27     1     8
  4.1614795773736518E+01 a      1309     0    27     1     9
  1.1933714132894497E+00 a      1310     0    27     1    10
 -9.4584030087793742E+00 a      1311     0    27     1    11
 -4.7367784309417893E+01 a      1312     0    27     1    12
 -1.2211346579077983E+01 a      1313     0    27     1    13
 -2.9756352736701062E+00 a      1314     0    27     1    14
 -3.8054938342740762E+01 a      1315     0    27     1    15
  7.8575501288760146E+00 a      1316     0    27     1    16
 -5.3030492211264004E+00 a      1317     0    27     1    17
  4.6334461866871646E+00 a      1318     0    27     1    18
 -1.2592391513750236E+01 a      1319     0    27     1    19
 -5.8682682235388111E+00 a      1320     0    27     1    20
  2.5023166078754379E+01 a      1321     0    27     1    21
 -1.6928237294120670E+01 a      1322     0    27     1    22
  1.5012254049507046E+01 a      1323     0    27     1    23
 -1.3146133821528139E+01 a      1324     0    27     1    24
 -2.5265688641848147E+01 a      1325     0    27     1    25
 -2.4380081877578701E+00 a      1326     0    27     1    26
 -1.0833880084688879E+01 a      1327     0    27     1    27
  1.7391915402216409E+01 a      1328     0    27     1    28
 -1.1756718892917319E+00 a      1329     0    27     1    29
 -3.8243492855683758E+00 a      1330     0    27     1    30
 -4.4010493666498016E+00 a      1331     0    27     1    31
 -8.0743064412315384E+00 a      1332     0    27     1    32
 -6.2449983508672799E+00 a      1333     0    27     1    33
 -6.0099498010008041E+00 a      1334     0    27     1    34
 -2.8468679697599271E+01 a      1335     0    27     1    35
 -2.2609981588356803E+01 a      1336     0    27     1    36
  8.3091988494223106E+00 a      1337     0    27     1    37
 -5.8034871587862176E+00 a      1338     0    27     1    38
 -9.1302824787763051E+00 a      1339     0    27     1    39
  2.5966830665835239E+01 a      1340     0    27     1    40
  7.5390167962461163E+00 a      1341     0    27     1    41
 -1.2546347187768794E+00 a      1342     0    27     1    42
  9.3848045718171615E+00 a      1343     0    27     1    43
 -9.8528412583672029E+00 a      1344     0    27     1    44
  1.1222345249051521E+01 a      1345     0    27     1    45
  4.3882857778367867E+00 a      1346     0    27     1    46
 -1.6890493343751860E+01 a      1347     0    27     1    47
 -8.5228917114040765E+00 a      1348     0    27     1    48
  2.5662426281439412E+00 a      1349     0    27     1    49
 -1.8744166036650145E+00 a      1350     0    27     1    50
  3.6760710120494964E+00 a      1351     0    28     1     1
  1.2332122483912343E+01 a      1352     0    28     1     2
 -1.8150336555800894E+01 a      1353     0    28     1     3
  1.9168709244994606E+01 a      1354     0    28     1     4
 -3.6519334975989830E+00 a      1355     0    28     1     5
 -2.3072892879427840E+01 a      1356     0    28     1     6
  6.1033793793782554E+00 a      1357     0    28     1     7
  6.5076542353418469E+00 a      1358     0    28     1     8
  1.3953888218714265E+01 a      1359     0    28     1     9
 -2.7245766777959703E+00 a      1360     0    28     1    10
  1.5452901028748793E+00 a      1361     0    28     1    11
 -1.7496709636707493E+01 a      1362     0    28     1    12
  3.4376357236732780E+00 a      1363     0    28     1    13
  3.3403223504084893E+00 a      1364     0    28     1    14
 -3.0294083358313810E+00 a      1365     0    28     1    15
  9.7649267634428725E+00 a      1366     0    28     1    16
  6.3379629730819982E+00 a      1367     0    28     1    17
  4.7266108621213094E+00 a      1368     0    28     1    18
 -2.0046982708826569E+01 a      1369     0    28     1    19
  5.0022211847750109E-01 a      1370     0    28     1    20
 -1.4580036272490323E+01 a      1371     0    28     1    21
 -1.5617797691248235E+01 a      1372     0    28     1    22
  4.4558904990254700E+00 a      1373     0    28     1    23
 -1.4965920897916254E+01 a      1374     0    28     1    24
  7.4308925021282342E+00 a      1375     0    28     1    25
 -9.7762005267906975E+00 a      1376     0    28     1    26
 -1.3763675611798291E+01 a      1377     0    28     1    27
 -7.3152833535819530E+00 a      1378     0    28     1    28
 -1.0392183924943078E+01 a      1379     0    28     1    29
 -9.7951283542410774E+00 a      1380     0    28     1    30
 -1.9541745693856076E+00 a      1381     0    28     1    31
 -9.5511760444940297E-01 a      1382     0    28     1    32
 -4.7862348838121953E+00 a      1383     0    28     1    33
 -4.7526265772897824E+00 a      1384     0    28     1    34
 -1.4190197287991015E+01 a      1385     0    28     1    35
 -8.6177461376129894E-01 a      1386     0    28     1    36
  1.9847435342102084E+01 a      1387     0    28     1    37
  1.0763606771297027E+01 a      1388     0    28     1    38
 -2.3580027392934777E-01 a      1389     0    28     1    39
  3.4253490415184828E+01 a      1390     0    28     1    40
 -4.2011282093025857E+00 a      1391     0    28     1    41
  8.3317897701394568E+00 a      1392     0    28     1    42
  2.4853129543911385E+00 a      1393     0    28     1    43
 -1.7077900080338992E+00 a      1394     0    28     1    44
  5.7981469338961853E+00 a      1395     0    28     1    45
 -1.7310224538410658E+01 a      1396     0    28     1    46
 -1.0668067696567700E+01 a      1397     0    28     1    47
 -1.1676936159832207E+01 a      1398     0    28     1    48
 -2.2754329650310026E+00 a      1399     0    28     1    49
 -6.0359544992419698E+00 a      1400     0    28     1    50
  3.3346458719000040E+01 a      1401     0    29     1     1
  1.2161526145487307E+00 a      1402     0    29     1     2
 -1.9069128029226693E+01 a      1403     0    29     1     3
  2.1167840438913363E+01 a      1404     0    29     1     4
 -2.5423112259674415E+01 a      1405     0    29     1     5
 -8.3561440963089222E+00 a      1406     0    29     1     6
  2.5595891766163588E+00 a      1407     0    29     1     7
 -5.3533973398894688E+00 a      1408     0    29     1     8
 -8.4383665946205717E+00 a      1409     0    29     1     9
 -1.2330728341702006E-01 a      1410     0    29     1    10
  8.6651033574138978E+00 a      1411     0    29     1    11
 -1.7390443723616407E+01 a      1412     0    29     1    12
 -7.3926961372244309E+00 a      1413     0    29     1    13
 -5.9374924807342166E+00 a      1414     0    29     1    14
  6.9928031002027569E-01 a      1415     0    29     1    15
 -7.5462364255458612E+00 a      1416     0    29     1    16
  1.1854640781952865E+01 a      1417     0    29     1    17
  1.8216204465661423E+01 a      1418     0    29     1    18
  8.6065026373523832E+00 a      1419     0    29     1    19
  2.0871715071657246E+00 a      1420     0    29     1    20
  3.7392096637656088E+01 a      1421     0    29     1    21
 -5.9993039176099012E+00 a      1422     0    29     1    22
  1.6885424311822216E+01 a      1423     0    29     1    23
 -3.5003297432523958E+01 a      1424     0    29     1    24
 -7.4981469859061027E+00 a      1425     0    29     1    25
 -1.7721932879462385E+00 a      1426     0    29     1    26
 -1.4785966839636375E+01 a      1427     0    29     1    27
 -1.1454927604080885E+01 a      1428     0    29     1    28
 -1.9315569683528196E+01 a      1429     0    29     1    29
 -7.8096986762132881E+00 a      1430     0    29     1    30
 -3.5341187998863095E+00 a      1431     0    29     1    31
 -5.5573239357706150E+00 a      1432     0    29     1    32
 -7.3303308351918683E-01 a      1433     0    29     1    33
 -6.1878536598413385E+00 a      1434     0    29     1    34
 -2.3465827388335839E+01 a      1435     0    29     1    35
 -8.2564345840187201E+00 a      1436     0    29     1    36
  1.3016896003954955E+01 a      1437     0    29     1    37
  7.5411118496361018E+00 a      1438     0    29     1    38
 -7.9366716013037628E+00 a      1439     0    29     1    39
  1.9999388106297872E+01 a      1440     0    29     1    40
 -5.6585220590799512E-01 a      1441     0    29     1    41
  9.9998216879310160E+00 a      1442     0    29     1    42
  9.8024947619764209E+00 a      1443     0    29     1    43
  6.4669565285893542E+00 a      1444     0    29     1    44
 -4.1370326792891658E+00 a      1445     0    29     1    45
 -7.0116385022066323E+00 a      1446     0    29     1    46
  1.5528622382076993E+01 a      1447     0    29     1    47
 -9.5199896972049007E+00 a      1448     0    29     1    48
  4.2326071838032480E+00 a      1449     0    29     1    49
 -2.1383372494807560E+00 a      1450     0    29     1    50
 -3.8399102752130951E+00 a      1451     0    30     1     1
  1.3927403914128730E+01 a      1452     0    30     1     2
 -6.5872688803431778E+00 a      1453     0    30     1     3
  1.7907811490520416E+01 a      1454     0    30     1     4
  3.2540580767811220E+00 a      1455     0    30     1     5
 -2.5160308326534292E+01 a      1456     0    30     1     6
  3.8102377532542802E+00 a      1457     0    30     1     7
  1.1522266501405726E+01 a      1458     0    30     1     8
 -6.1801197994839816E+00 a      1459     0    30     1     9
 -3.8252905964270183E+00 a      1460     0    30     1    10
  8.6697623323192623E+00 a      1461     0    30     1    11
 -1.7520184334645705E+00 a      1462     0    30     1    12
  9.4648709080992059E+00 a      1463     0    30     1    13
  4.0818449064801765E+00 a      1464     0    30     1    14
  1.5919957358723925E+01 a      1465     0    30     1    15
  6.5936202877390553E+00 a      1466     0    30     1    16
  1.3404501774825171E+01 a      1467     0    30     1    17
  8.1416006089568604E+00 a      1468     0    30     1    18
 -1.6929494496375010E+01 a      1469     0    30     1    19
  3.7954333289254829E+00 a      1470     0    30     1    20
 -2.2876201999880845E+01 a      1471     0    30     1    21
 -1.2947953348939023E+01 a      1472     0    30     1    22
  1.6781835214415790E+00 a      1473     0    30     1    23
 -2.1271529516137186E+01 a      1474     0    30     1    24
  2.0886453618826241E+01 a      1475     0    30     1    25
 -1.1224967389516481E+01 a      1476     0    30     1    26
 -1.5459883537261121E+01 a      1477     0    30     1    27
 -2.1101008193136934E+01 a      1478     0    30     1    28
 -1.7288105563150054E+01 a      1479     0    30     1    29
 -1.2514991069601562E+01 a      1480     0    30     1    30
 -1.3145835617788153E+00 a      1481     0    30     1    31
  1.6050765879370212E+00 a      1482     0    30     1    32
 -3.4825626540305792E+00 a      1483     0    30     1    33
 -4.9697012523954474E+00 a      1484     0    30     1    34
 -8.8407774929775211E+00 a      1485     0    30     1    35
  8.5965575944138735E+00 a      1486     0    30     1    36
  2.4013543447623530E+01 a      1487     0    30     1    37
  1.8981803719087818E+01 a      1488     0    30     1    38
  2.6889206862732271E+00 a      1489     0    30     1    39
  3.5391210659945912E+01 a      1490     0    30     1    40
 -9.3600699588816703E+00 a      1491     0    30     1    41
  1.3450930735995440E+01 a      1492     0    30     1    42
  6.7337320767812703E-01 a      1493     0    30     1    43
  4.1829683648587723E+00 a      1494     0    30     1    44
  5.8219086135847220E-01 a      1495     0    30     1    45
 -2.5972812687908849E+01 a      1496     0    30     1    46
 -1.0591685008872387E+00 a      1497     0    30     1    47
 -1.3160265634772959E+01 a      1498     0    30     1    48
 -2.9829616070628497E+00 a      1499     0    30     1    49
 -7.2792704190025077E+00 a      1500     0    30     1    50
 -1.0718639481336524E+01 a      1501     0    31     1     1
 -7.4835339728302031E-01 a      1502     0    31     1     2
  2.6382945623682867E+00 a      1503     0    31     1     3
 -2.3626065119154759E+01 a      1504     0    31     1     4
  3.3103507559984969E+01 a      1505     0    31     1     5
  3.4406362433542883E+00 a      1506     0    31     1     6
 -2.4274633669648971E+00 a      1507     0    31     1     7
  3.0813202951381102E+00 a      1508     0    31     1     8
  1.3973132836037946E+01 a      1509     0    31     1     9
  7.3354963522582146E+00 a      1510     0    31     1    10
 -4.7576400164314876E+00 a      1511     0    31     1    11
 -4.0829906747393911E+00 a      1512     0    31     1    12
  1.1850039890905739E+01 a      1513     0    31     1    13
 -7.8172857986904711E+00 a      1514     0    31     1    14
  1.5862681394779026E+00 a      1515     0    31     1    15
 -3.6378179242023112E+00 a      1516     0    31     1    16
 -1.5563132410122705E+01 a      1517     0    31     1    17
 -1.6823479657533458E+01 a      1518     0    31     1    18
  1.2308669175320274E+01 a      1519     0    31     1    19
 -2.6732030257169965E+00 a      1520     0    31     1    20
 -1.3969683772291303E+01 a      1521     0    31     1    21
  2.5606715466882079E+01 a      1522     0    31     1    22
 -3.9797742982103204E+00 a      1523     0    31     1    23
  1.5847864160447913E+00 a      1524     0    31     1    24
  1.6557067390906715E+00 a      1525     0    31     1    25
 -1.0010670231796654E+01 a      1526     0    31     1    26
  2.5141639310376238E+01 a      1527     0    31     1    27
  1.9886773501120669E+00 a      1528     0    31     1    28
 -3.4915814986138733E+00 a      1529     0    31     1    29
  4.8895019405087021E+00 a      1530     0    31     1    30
 -1.1179100111318677E+01 a      1531     0    31     1    31
 -1.6562608166038228E+01 a      1532     0    31     1    32
  1.5504463041523827E+01 a      1533     0    31     1    33
 -9.6679970824527963E+00 a      1534     0    31     1    34
  1.5896668501101756E+01 a      1535     0    31     1    35
  1.1443026087735351E+01 a      1536     0    31     1    36
 -1.1675160127603624E+01 a      1537     0    31     1    37
 -1.2954335449908410E-03 a      1538     0    31     1    38
  3.7279584046301313E+00 a      1539     0    31     1    39
 -3.9034350899444732E+01 a      1540     0    31     1    40
  9.0727832249631906E+00 a      1541     0    31     1    41
 -5.9774819820006266E+00 a      1542     0    31     1    42
  3.6779198692148203E+00 a      1543     0    31     1    43
 -4.9325278519008480E+00 a      1544     0    31     1    44
  2.2254612907510003E+00 a      1545     0    31     1    45
  9.5089426829671595E+00 a      1546     0    31     1    46
 -4.2144560877080384E+00 a      1547     0    31     1    47
  2.6376282349224245E+00 a      1548     0    31     1    48
 -1.0858467769699807E+01 a      1549     0    31     1    49
  1.4359044728712808E+01 a      1550     0    31     1    50
  2.0086796176576392E+01 a      1551     0    32     1     1
 -1.0769346561197024E+01 a      1552     0    32     1     2
 -1.5799905613118943E+01 a      1553     0    32     1     3
 -2.0510130906056077E+01 a      1554     0    32     1     4
  1.1607473650605002E+01 a      1555     0    32     1     5
 -6.1796791330190737E-01 a      1556     0    32     1     6
  9.6797870161283193E+00 a      1557     0    32     1     7
 -1.8445418391772090E+00 a      1558     0    32     1     8
  4.5661375473817749E+00 a      1559     0    32     1     9
 -1.4868304033304045E+00 a      1560     0    32     1    10
 -2.9618707644320028E+00 a      1561     0    32     1    11
 -1.8866978560546499E+01 a      1562     0    32     1    12
 -4.6141675737936874E+00 a      1563     0    32     1    13
 -1.1109390162926442E+01 a      1564     0    32     1    14
  3.9148565364989105E+00 a      1565     0    32     1    15
 -1.0822927898947916E+00 a      1566     0    32     1    16
 -5.1134019876768129E+00 a      1567     0    32     1    17
 -7.2325227209854370E+00 a      1568     0    32     1    18
  5.3053583450632820E+00 a      1569     0    32     1    19
  5.4161383409454436E+00 a      1570     0    32     1    20
 -4.1960299010721709E+00 a      1571     0    32     1    21
  3.5133310030826934E+01 a      1572     0    32     1    22
  3.8960141944573974E+00 a      1573     0    32     1    23
 -4.4869266919048761E-01 a      1574     0    32     1    24
 -1.9893135907439824E+01 a      1575     0    32     1    25
 -3.3453235974282620E+01 a      1576     0    32     1    26
  1.2577592023339703E+01 a      1577     0    32     1    27
 -1.4021843567210213E+00 a      1578     0    32     1    28
 -5.7396015178850561E+00 a      1579     0    32     1    29
  7.7430718041473201E-01 a      1580     0    32     1    30
 -8.9830051132168904E+00 a      1581     0    32     1    31
 -1.9042536953369979E+01 a      1582     0    32     1    32
  3.0786063826307167E+01 a      1583     0    32     1    33
 -1.8037775849059845E+01 a      1584     0    32     1    34
 -3.5195590335883580E+00 a      1585     0    32     1    35
  1.0307444901160611E+01 a      1586     0    32     1    36
  2.1404492331770793E+01 a      1587     0    32     1    37
  3.7602206633636999E+00 a      1588     0    32     1    38
  3.3406741466122791E+00 a      1589     0    32     1    39
 -1.4036488620490093E+00 a      1590     0    32     1    40
  5.7772010193431971E+00 a      1591     0    32     1    41
 -4.7009930890630436E+00 a      1592     0    32     1    42
  1.9543148216810078E+01 a      1593     0    32     1    43
 -5.9981261967247308E+00 a      1594     0    32     1    44
 -1.6462640757378910E+01 a      1595     0    32     1    45
  7.9466021988551230E+00 a      1596     0    32     1    46
 -1.6495392320961444E+00 a      1597     0    32     1    47
  1.2444537647619018E+01 a      1598     0    32     1    48
 -2.8946146611209587E+00 a      1599     0    32     1    49
  1.9550116052375074E+01 a      1600     0    32     1    50
 -5.7950429162240454E+01 a      1601     0    33     1     1
  5.8248937919554775E+00 a      1602     0    33     1     2
  4.4750088121066199E+01 a      1603     0    33     1     3
  7.0997641404060259E+00 a      1604     0    33     1     4
 -1.1110998137643554E+01 a      1605     0    33     1     5
  1.2914049095914516E+01 a      1606     0    33     1     6
 -2.7587931517430054E+01 a      1607     0    33     1     7
  4.1194862864433046E-01 a      1608     0    33     1     8
 -6.9734969016425168E+01 a      1609     0    33     1     9
  1.8641422106090445E+01 a      1610     0    33     1    10
  9.6890880985716841E+00 a      1611     0    33     1    11
  5.9316904544259955E+01 a      1612     0    33     1    12
  2.1001522140218100E+01 a      1613     0    33     1    13
  6.9056246391739329E+00 a      1614     0    33     1    14
  2.4852527615479083E+01 a      1615     0    33     1    15
 -1.2449953297738542E+01 a      1616     0    33     1    16
  9.8306022412392013E-01 a      1617     0    33     1    17
  2.5510966539978659E+00 a      1618     0    33     1    18
  1.3258482311761408E+00 a      1619     0    33     1    19
 -3.1179373506244477E+00 a      1620     0    33     1    20
 -2.2632748242904395E+01 a      1621     0    33     1    21
 -5.2041072069295090E+01 a      1622     0    33     1    22
 -2.3788621942954208E+01 a      1623     0    33     1    23
