################################################################################
# Neural network connection values (weights and biases).
################################################################################
# Col  Name       Description
################################################################################
# 1    connection Neural network connection value.
# 2    t          Connection type (a = weight, b = bias).
# 3    index      Index enumerating weights.
# 4    l_s        Starting point layer (end point layer for biases).
# 5    n_s        Starting point neuron in starting layer (end point neuron for biases).
# 6    l_e        End point layer.
# 7    n_e        End point neuron in end layer.
################################################################################
#                      1 2         3     4     5     6     7
#             connection t     index   l_s   n_s   l_e   n_e
############################################################
 -9.8627543345499991E+00 a         1     0     1     1     1
  3.3888131352744879E+00 a         2     0     1     1     2
  2.0064163108306894E+00 a         3     0     1     1     3
  7.0743288850709138E+00 a         4     0     1     1     4
 -7.7120129093189871E-01 a         5     0     1     1     5
  3.2801851096348222E-01 a         6     0     1     1     6
  9.5367053595009521E-01 a         7     0     1     1     7
 -1.9105619029172856E+00 a         8     0     1     1     8
 -3.9092874289984625E+00 a         9     0     1     1     9
 -1.3671576020203868E+00 a        10     0     1     1    10
  3.9392495804263099E+00 a        11     0     1     1    11
  4.1592805169333259E-02 a        12     0     1     1    12
  3.4691302121456848E+00 a        13     0     1     1    13
 -1.7213910508589634E+00 a        14     0     1     1    14
  3.5358184201419012E+00 a        15     0     1     1    15
 -1.4373915571062481E+00 a        16     0     1     1    16
  2.1064098548801771E-01 a        17     0     1     1    17
 -4.9278282633289781E+00 a        18     0     1     1    18
  5.0543924372739344E+00 a        19     0     1     1    19
  1.7589747149941384E+00 a        20     0     1     1    20
  2.4985497113168673E+00 a        21     0     1     1    21
  5.3585319143681787E-01 a        22     0     1     1    22
  9.3841771822545628E+00 a        23     0     1     1    23
  7.6909384363037381E+00 a        24     0     1     1    24
  4.8418648282117935E+00 a        25     0     1     1    25
  4.3590757017168134E+00 a        26     0     1     1    26
  1.7310215069642518E+00 a        27     0     1     1    27
  1.9063214016591097E+00 a        28     0     1     1    28
 -3.8161061664396034E+00 a        29     0     1     1    29
 -2.9122882217676277E-01 a        30     0     1     1    30
  4.1130358450110451E+00 a        31     0     1     1    31
  4.3741980049448630E+00 a        32     0     1     1    32
 -2.1893211609923129E+00 a        33     0     1     1    33
 -4.1134857736817025E+00 a        34     0     1     1    34
 -3.0139017356040827E+00 a        35     0     1     1    35
  2.1361719225927271E+00 a        36     0     1     1    36
  6.4995445341169511E-01 a        37     0     1     1    37
  1.1999262655475109E+00 a        38     0     1     1    38
  5.8880136798830418E-01 a        39     0     1     1    39
  2.9778906982816928E+00 a        40     0     1     1    40
  6.5653987855955203E+00 a        41     0     1     1    41
  8.9763328766247888E-02 a        42     0     1     1    42
  4.8818873771601812E-01 a        43     0     1     1    43
  3.0670298569615544E+00 a        44     0     1     1    44
  2.1692483443348283E+00 a        45     0     1     1    45
 -2.5013611666339042E+00 a        46     0     1     1    46
 -4.5661531797909678E+00 a        47     0     1     1    47
  8.5228776603030099E-01 a        48     0     1     1    48
 -3.2047942000772625E+00 a        49     0     1     1    49
 -2.4831911001997180E+00 a        50     0     1     1    50
 -1.0496868846436193E+01 a        51     0     2     1     1
  3.8495429339411484E+00 a        52     0     2     1     2
  1.7185007619034369E+00 a        53     0     2     1     3
  7.9688978379451241E+00 a        54     0     2     1     4
 -7.2344229887551292E-01 a        55     0     2     1     5
  4.7341439900569027E-01 a        56     0     2     1     6
  4.4203611437608525E-01 a        57     0     2     1     7
 -2.7179252524042385E+00 a        58     0     2     1     8
 -4.5824878993810225E+00 a        59     0     2     1     9
 -1.3811068656324670E+00 a        60     0     2     1    10
  3.7478416887226609E+00 a        61     0     2     1    11
 -6.2109144052840470E-01 a        62     0     2     1    12
  4.1403589257260753E+00 a        63     0     2     1    13
 -1.9532877571581291E+00 a        64     0     2     1    14
  3.6792854905557899E+00 a        65     0     2     1    15
 -1.5144077725672969E+00 a        66     0     2     1    16
  4.8016473199211840E-01 a        67     0     2     1    17
 -5.0536803626752960E+00 a        68     0     2     1    18
  4.6572950362739807E+00 a        69     0     2     1    19
  2.0185283133744267E+00 a        70     0     2     1    20
  2.8934753263384341E+00 a        71     0     2     1    21
  5.2172878637545872E-01 a        72     0     2     1    22
  1.0268685889506825E+01 a        73     0     2     1    23
  8.3713525412577319E+00 a        74     0     2     1    24
  4.5251468030451720E+00 a        75     0     2     1    25
  3.7664310450655107E+00 a        76     0     2     1    26
  1.8963545029745130E+00 a        77     0     2     1    27
  2.2713671902986898E+00 a        78     0     2     1    28
 -4.3276418511052004E+00 a        79     0     2     1    29
 -1.5732095323959971E-01 a        80     0     2     1    30
  4.1086916137420282E+00 a        81     0     2     1    31
  5.4246643033691511E+00 a        82     0     2     1    32
 -2.4681424881810052E+00 a        83     0     2     1    33
 -4.3002779375005860E+00 a        84     0     2     1    34
 -3.1071629312113540E+00 a        85     0     2     1    35
  2.9365159652168802E+00 a        86     0     2     1    36
 -2.9715904571573937E-01 a        87     0     2     1    37
  1.4009889328935712E+00 a        88     0     2     1    38
  2.6287227647782596E-01 a        89     0     2     1    39
  3.6361261828817968E+00 a        90     0     2     1    40
  6.0682932512805952E+00 a        91     0     2     1    41
 -8.3938371697949188E-01 a        92     0     2     1    42
  2.0985270471338655E+00 a        93     0     2     1    43
  3.3430884937959657E+00 a        94     0     2     1    44
  2.3922102453591010E+00 a        95     0     2     1    45
 -2.8935175141216516E+00 a        96     0     2     1    46
 -4.8095441271470536E+00 a        97     0     2     1    47
  8.6837370442187989E-01 a        98     0     2     1    48
 -3.2790258496541203E+00 a        99     0     2     1    49
 -2.9866430730990645E+00 a       100     0     2     1    50
 -3.6646796257144834E+00 a       101     0     3     1     1
  1.4719821188720337E+00 a       102     0     3     1     2
  1.5480125586216769E+00 a       103     0     3     1     3
  2.1686062851707208E+00 a       104     0     3     1     4
 -2.5651001021972348E+00 a       105     0     3     1     5
 -3.9080827865754547E-01 a       106     0     3     1     6
  1.2943943960548563E+00 a       107     0     3     1     7
  2.5661899931984427E+00 a       108     0     3     1     8
 -6.3679603979326904E-01 a       109     0     3     1     9
 -9.9933730332566406E-01 a       110     0     3     1    10
  3.1718031256810186E+00 a       111     0     3     1    11
  1.8097818260304934E+00 a       112     0     3     1    12
 -2.8083255837895837E-01 a       113     0     3     1    13
 -1.2174157764966800E+00 a       114     0     3     1    14
  1.3954218526864772E+00 a       115     0     3     1    15
  5.3216464731303026E-01 a       116     0     3     1    16
 -1.0012649125028557E+00 a       117     0     3     1    17
 -3.0697555277153774E+00 a       118     0     3     1    18
  4.0370703783797826E+00 a       119     0     3     1    19
 -7.7620087785110659E-01 a       120     0     3     1    20
  2.5347907722511112E+00 a       121     0     3     1    21
 -3.3274864555158684E-01 a       122     0     3     1    22
  1.7594751026529114E+00 a       123     0     3     1    23
  1.4100135764691630E+00 a       124     0     3     1    24
  2.1041439265447637E+00 a       125     0     3     1    25
  4.9077400347388362E+00 a       126     0     3     1    26
 -9.6669415919100132E-01 a       127     0     3     1    27
  1.4875565102271742E+00 a       128     0     3     1    28
  9.1550252671792365E-01 a       129     0     3     1    29
 -6.4300682852686031E-01 a       130     0     3     1    30
  2.3282104447877541E+00 a       131     0     3     1    31
 -1.5426403859132123E+00 a       132     0     3     1    32
 -5.1498092206499313E-01 a       133     0     3     1    33
  8.8636593643238182E-01 a       134     0     3     1    34
 -2.0235056322564184E+00 a       135     0     3     1    35
 -9.7728705134033889E-01 a       136     0     3     1    36
  2.9905255809608016E+00 a       137     0     3     1    37
 -8.6216500576961708E-01 a       138     0     3     1    38
  1.6451198887477227E+00 a       139     0     3     1    39
 -6.5599963391419391E-01 a       140     0     3     1    40
  4.6358042966611244E+00 a       141     0     3     1    41
  3.3701870826571882E+00 a       142     0     3     1    42
 -6.0999499495451115E+00 a       143     0     3     1    43
 -5.8032054186079374E-01 a       144     0     3     1    44
  1.7042109388202423E-01 a       145     0     3     1    45
 -1.1478526129653148E+00 a       146     0     3     1    46
 -2.3712621146726520E+00 a       147     0     3     1    47
 -1.4867786835818761E-01 a       148     0     3     1    48
 -1.1420707053671508E+00 a       149     0     3     1    49
  8.7225915300821655E-01 a       150     0     3     1    50
 -9.7838814068457847E+00 a       151     0     4     1     1
  3.8564281041944768E+00 a       152     0     4     1     2
  7.4345997767304861E-01 a       153     0     4     1     3
  6.6011743800650473E+00 a       154     0     4     1     4
  9.9060583101562993E-01 a       155     0     4     1     5
  2.8221618110067898E-01 a       156     0     4     1     6
 -5.6260297593189090E-01 a       157     0     4     1     7
 -3.9400946783126587E+00 a       158     0     4     1     8
 -5.8979820454636238E+00 a       159     0     4     1     9
 -4.2668177076496144E-01 a       160     0     4     1    10
  2.6994165771242877E+00 a       161     0     4     1    11
 -1.6339358696587896E+00 a       162     0     4     1    12
  4.4434257648959754E+00 a       163     0     4     1    13
 -2.1943225638590120E+00 a       164     0     4     1    14
  4.3539215184389084E+00 a       165     0     4     1    15
 -8.9710012072523615E-01 a       166     0     4     1    16
  2.7518620520531729E+00 a       167     0     4     1    17
 -4.5665888785235653E+00 a       168     0     4     1    18
  1.1043531024825681E+00 a       169     0     4     1    19
  4.7076056472408672E+00 a       170     0     4     1    20
  2.2335176233269927E+00 a       171     0     4     1    21
  3.2350881570420259E-01 a       172     0     4     1    22
  1.0955510996222177E+01 a       173     0     4     1    23
  8.1943787459075565E+00 a       174     0     4     1    24
  2.8370082344387035E+00 a       175     0     4     1    25
 -3.9637532611166626E-01 a       176     0     4     1    26
  3.0513768302219013E+00 a       177     0     4     1    27
  1.1067733683877510E+00 a       178     0     4     1    28
 -6.9687823253950194E+00 a       179     0     4     1    29
  7.9673157092539726E-01 a       180     0     4     1    30
  3.8202388263602258E+00 a       181     0     4     1    31
  6.8328135865038000E+00 a       182     0     4     1    32
 -1.4543477633480775E+00 a       183     0     4     1    33
 -4.6967718334254069E+00 a       184     0     4     1    34
 -2.4713502906849252E+00 a       185     0     4     1    35
  3.7174879146642730E+00 a       186     0     4     1    36
 -3.2295120226389407E+00 a       187     0     4     1    37
  9.4355006691324106E-01 a       188     0     4     1    38
 -2.3597062715012416E+00 a       189     0     4     1    39
  3.9045589291083354E+00 a       190     0     4     1    40
  2.3239746347928403E+00 a       191     0     4     1    41
 -4.4235549467666395E+00 a       192     0     4     1    42
  9.8311332237407267E+00 a       193     0     4     1    43
  4.5196236144519979E+00 a       194     0     4     1    44
  2.2517006813931517E+00 a       195     0     4     1    45
 -2.9632700821177149E+00 a       196     0     4     1    46
 -5.1816257696656427E+00 a       197     0     4     1    47
  9.0952395013857967E-01 a       198     0     4     1    48
 -2.5900566081677301E+00 a       199     0     4     1    49
 -4.3692383873908724E+00 a       200     0     4     1    50
  5.5498523735016780E+00 a       201     0     5     1     1
 -1.1303153467611942E+00 a       202     0     5     1     2
  1.2905721687658265E+00 a       203     0     5     1     3
 -5.5810442788128345E+00 a       204     0     5     1     4
 -5.2452722919712178E+00 a       205     0     5     1     5
 -2.0766965503886570E+00 a       206     0     5     1     6
  2.5791343616778097E+00 a       207     0     5     1     7
  9.3867990844938696E+00 a       208     0     5     1     8
  5.5486021498721048E+00 a       209     0     5     1     9
 -6.5425015049512691E-01 a       210     0     5     1    10
  2.9962326733423335E+00 a       211     0     5     1    11
  4.4540651333341215E+00 a       212     0     5     1    12
 -6.2321241247648205E+00 a       213     0     5     1    13
  4.3811757851212918E-01 a       214     0     5     1    14
 -2.5683793668532213E+00 a       215     0     5     1    15
  2.7552747190522955E+00 a       216     0     5     1    16
 -3.1703216394067151E+00 a       217     0     5     1    17
  1.5550704452524375E-01 a       218     0     5     1    18
  3.4863040578127724E+00 a       219     0     5     1    19
 -5.8124980268189637E+00 a       220     0     5     1    20
  2.5897044351294154E+00 a       221     0     5     1    21
 -1.1571159650884435E+00 a       222     0     5     1    22
 -1.0456661285946391E+01 a       223     0     5     1    23
 -7.1148018445153012E+00 a       224     0     5     1    24
 -5.0045918522133470E-01 a       225     0     5     1    25
  6.3305876188009691E+00 a       226     0     5     1    26
 -4.6241512470569130E+00 a       227     0     5     1    27
  6.3985249574376613E-01 a       228     0     5     1    28
  8.6486405781182256E+00 a       229     0     5     1    29
 -1.5322556670453424E+00 a       230     0     5     1    30
 -1.7403113635354017E-01 a       231     0     5     1    31
 -1.1006281213884751E+01 a       232     0     5     1    32
  1.9500134988631765E+00 a       233     0     5     1    33
  7.2671691617386776E+00 a       234     0     5     1    34
 -1.0835331260939105E+00 a       235     0     5     1    35
 -5.4819823837737696E+00 a       236     0     5     1    36
  8.7278970523645505E+00 a       237     0     5     1    37
 -3.6502045757419075E+00 a       238     0     5     1    38
  4.8550485748447052E+00 a       239     0     5     1    39
 -6.5550784941822986E+00 a       240     0     5     1    40
  2.5892928348158954E+00 a       241     0     5     1    41
  9.4999814832971126E+00 a       242     0     5     1    42
 -1.6915503087453200E+01 a       243     0     5     1    43
 -6.2515898789874091E+00 a       244     0     5     1    44
 -2.9973525636662663E+00 a       245     0     5     1    45
  9.2684069296699323E-01 a       246     0     5     1    46
  1.9165881972771381E+00 a       247     0     5     1    47
 -1.1579219657476307E+00 a       248     0     5     1    48
  1.1031649976630391E+00 a       249     0     5     1    49
  6.8822205076279737E+00 a       250     0     5     1    50
 -6.8968642884760234E+00 a       251     0     6     1     1
  3.8452926842483137E+00 a       252     0     6     1     2
 -8.1246504630145577E-01 a       253     0     6     1     3
  4.9192149606060491E+00 a       254     0     6     1     4
  3.0623505977727037E+00 a       255     0     6     1     5
  2.3125786691409111E-01 a       256     0     6     1     6
 -2.4972367124997299E+00 a       257     0     6     1     7
 -5.5978694766516988E+00 a       258     0     6     1     8
 -7.8656482069846003E+00 a       259     0     6     1     9
  8.6702042200805096E-01 a       260     0     6     1    10
  7.9536049374084414E-02 a       261     0     6     1    11
 -3.0745785025988916E+00 a       262     0     6     1    12
  4.0643678421889984E+00 a       263     0     6     1    13
 -2.4826287320258720E+00 a       264     0     6     1    14
  5.0593809614353971E+00 a       265     0     6     1    15
  8.0439163865854690E-01 a       266     0     6     1    16
  4.8239006450134854E+00 a       267     0     6     1    17
 -3.1573696202921524E+00 a       268     0     6     1    18
 -3.5878824007668655E+00 a       269     0     6     1    19
  7.9383149591932494E+00 a       270     0     6     1    20
  1.8654016868592731E+00 a       271     0     6     1    21
  5.4694919100224360E-01 a       272     0     6     1    22
  1.0014170105793996E+01 a       273     0     6     1    23
  7.0102558178451071E+00 a       274     0     6     1    24
 -7.1239722721990839E-01 a       275     0     6     1    25
 -6.6970330469960748E+00 a       276     0     6     1    26
  4.9893136600413825E+00 a       277     0     6     1    27
 -3.2164212481166182E-01 a       278     0     6     1    28
 -1.0073506184051684E+01 a       279     0     6     1    29
  1.9502824699035799E+00 a       280     0     6     1    30
  1.8705409093292826E+00 a       281     0     6     1    31
  8.8151948417413948E+00 a       282     0     6     1    32
  1.3533507225543015E-02 a       283     0     6     1    33
 -5.1347480989925902E+00 a       284     0     6     1    34
 -1.4265032763644159E+00 a       285     0     6     1    35
  4.8694508722028669E+00 a       286     0     6     1    36
 -7.8675761427006492E+00 a       287     0     6     1    37
  5.3424771271498844E-03 a       288     0     6     1    38
 -4.7836446920201547E+00 a       289     0     6     1    39
  4.7275204670474231E+00 a       290     0     6     1    40
 -4.1976519476094305E+00 a       291     0     6     1    41
 -9.8080511889112447E+00 a       292     0     6     1    42
  2.0304091961930073E+01 a       293     0     6     1    43
  5.6742887009931371E+00 a       294     0     6     1    44
  2.5108455805742178E+00 a       295     0     6     1    45
 -3.3189036251174096E+00 a       296     0     6     1    46
 -4.6750056508275160E+00 a       297     0     6     1    47
  2.5847656681314345E-02 a       298     0     6     1    48
 -1.1611061023315470E+00 a       299     0     6     1    49
 -5.2335976586030641E+00 a       300     0     6     1    50
  1.0395942340191556E+01 a       301     0     7     1     1
 -2.1931164653220394E+00 a       302     0     7     1     2
  2.3963513728944617E+00 a       303     0     7     1     3
 -1.0089344927449053E+01 a       304     0     7     1     4
 -7.5939668759730470E+00 a       305     0     7     1     5
 -3.6575688942381297E+00 a       306     0     7     1     6
  2.5427337681971642E+00 a       307     0     7     1     7
  1.4500048723087179E+01 a       308     0     7     1     8
  8.9102590267589523E+00 a       309     0     7     1     9
 -7.0631001777833546E-02 a       310     0     7     1    10
  4.1878557035175632E+00 a       311     0     7     1    11
  4.6057751283840069E+00 a       312     0     7     1    12
 -1.0071928595282470E+01 a       313     0     7     1    13
  1.6003851871358878E+00 a       314     0     7     1    14
 -5.4664286135636466E+00 a       315     0     7     1    15
  3.5934504898408823E+00 a       316     0     7     1    16
 -3.7542623299483089E+00 a       317     0     7     1    17
  2.2784672000944037E+00 a       318     0     7     1    18
  1.0336121005082013E+00 a       319     0     7     1    19
 -9.2537649191804885E+00 a       320     0     7     1    20
  3.4937453634540994E+00 a       321     0     7     1    21
 -1.6556046214780014E+00 a       322     0     7     1    22
 -1.6884645451305136E+01 a       323     0     7     1    23
 -1.0235911375964006E+01 a       324     0     7     1    24
 -1.4091770856276769E+00 a       325     0     7     1    25
  4.6962849822831059E+00 a       326     0     7     1    26
 -8.1282157550873855E+00 a       327     0     7     1    27
  7.3970560414824149E-01 a       328     0     7     1    28
  1.3542192006194917E+01 a       329     0     7     1    29
 -3.1107778915999718E+00 a       330     0     7     1    30
 -1.2571404194567617E+00 a       331     0     7     1    31
 -1.6997239663349053E+01 a       332     0     7     1    32
  4.3497808679172101E+00 a       333     0     7     1    33
  1.1084947195681858E+01 a       334     0     7     1    34
 -2.2829708614021267E+00 a       335     0     7     1    35
 -8.2857380670314615E+00 a       336     0     7     1    36
  1.3407327480809668E+01 a       337     0     7     1    37
 -5.8128444295127633E+00 a       338     0     7     1    38
  5.5913274864281082E+00 a       339     0     7     1    39
 -1.0759958167189811E+01 a       340     0     7     1    40
  1.1916584343719041E+00 a       341     0     7     1    41
  1.3375129550767387E+01 a       342     0     7     1    42
 -2.2893539213280601E+01 a       343     0     7     1    43
 -8.8018736495544569E+00 a       344     0     7     1    44
 -5.6119147818624118E+00 a       345     0     7     1    45
  2.8858385563445230E+00 a       346     0     7     1    46
  5.5884823446784031E+00 a       347     0     7     1    47
  1.0166687842584614E+00 a       348     0     7     1    48
  2.2480143052047183E+00 a       349     0     7     1    49
  1.0335529459499206E+01 a       350     0     7     1    50
 -2.2876693834859338E+00 a       351     0     8     1     1
  2.8864777819149268E+00 a       352     0     8     1     2
 -3.4456241881087775E+00 a       353     0     8     1     3
  1.1600271338028025E+00 a       354     0     8     1     4
  3.4999882564274274E+00 a       355     0     8     1     5
 -2.2245367967483448E-01 a       356     0     8     1     6
 -2.4056666664527047E+00 a       357     0     8     1     7
 -4.9519717667828980E+00 a       358     0     8     1     8
 -7.8342060965902185E+00 a       359     0     8     1     9
  1.7344678097881305E+00 a       360     0     8     1    10
 -2.7671806163317880E+00 a       361     0     8     1    11
 -2.3247638374431427E+00 a       362     0     8     1    12
  1.0156929397987737E+00 a       363     0     8     1    13
 -1.7022054204460084E+00 a       364     0     8     1    14
  4.3697131173864090E+00 a       365     0     8     1    15
  1.3086977596169698E+00 a       366     0     8     1    16
  3.8548261930018635E+00 a       367     0     8     1    17
 -8.9210148125566624E-01 a       368     0     8     1    18
 -5.9742020461500838E+00 a       369     0     8     1    19
  8.3964907895434102E+00 a       370     0     8     1    20
  1.3118973143947839E+00 a       371     0     8     1    21
  4.0176523852988771E-01 a       372     0     8     1    22
  4.6650106769430195E+00 a       373     0     8     1    23
  2.1347726830831668E+00 a       374     0     8     1    24
 -3.2964099388910886E+00 a       375     0     8     1    25
 -8.7080193019229704E+00 a       376     0     8     1    26
  5.9073673532348030E+00 a       377     0     8     1    27
 -2.2690751333941388E+00 a       378     0     8     1    28
 -1.0224219673081485E+01 a       379     0     8     1    29
  3.5676935153428895E+00 a       380     0     8     1    30
 -4.0903453883247337E-01 a       381     0     8     1    31
  8.2187453184450288E+00 a       382     0     8     1    32
  5.0505152854583191E-01 a       383     0     8     1    33
 -4.7660115559796585E+00 a       384     0     8     1    34
  1.6991982423270970E+00 a       385     0     8     1    35
  4.3464778624750320E+00 a       386     0     8     1    36
 -9.1362154525360371E+00 a       387     0     8     1    37
 -6.8279742224029649E-01 a       388     0     8     1    38
 -4.2239004441027683E+00 a       389     0     8     1    39
  4.3715368046697360E+00 a       390     0     8     1    40
 -7.7922892092199820E+00 a       391     0     8     1    41
 -1.1226161727194659E+01 a       392     0     8     1    42
  2.3653305191002190E+01 a       393     0     8     1    43
  3.9749961055429708E+00 a       394     0     8     1    44
  1.8654245368374935E+00 a       395     0     8     1    45
 -3.3274718867785120E+00 a       396     0     8     1    46
 -3.7348051994343603E+00 a       397     0     8     1    47
 -2.3909301267797534E+00 a       398     0     8     1    48
  1.5101588518763404E-01 a       399     0     8     1    49
 -4.1154776611812114E+00 a       400     0     8     1    50
  8.5692151964188934E+00 a       401     0     9     1     1
 -8.3751878396168011E-01 a       402     0     9     1     2
  7.2635980808224696E+00 a       403     0     9     1     3
 -1.0266708266506615E+01 a       404     0     9     1     4
 -6.7970708842253762E+00 a       405     0     9     1     5
 -4.8719097534981062E+00 a       406     0     9     1     6
 -2.2008374304216423E+00 a       407     0     9     1     7
  1.3687575690525939E+01 a       408     0     9     1     8
  6.1125995080639877E+00 a       409     0     9     1     9
  1.1763092553972951E+00 a       410     0     9     1    10
  7.6078568008705618E+00 a       411     0     9     1    11
 -1.9134108407785830E+00 a       412     0     9     1    12
 -5.6080484976595573E+00 a       413     0     9     1    13
 -2.4866119886989069E-01 a       414     0     9     1    14
 -2.4075380398647703E+00 a       415     0     9     1    15
  5.7646288363601386E+00 a       416     0     9     1    16
  5.1708550618013005E+00 a       417     0     9     1    17
  1.6734323842282404E+00 a       418     0     9     1    18
 -8.8258625949237413E+00 a       419     0     9     1    19
 -6.3371878329388851E+00 a       420     0     9     1    20
  4.0813841552523904E+00 a       421     0     9     1    21
 -1.9619063459612842E+00 a       422     0     9     1    22
 -1.0210119747967832E+01 a       423     0     9     1    23
 -2.3969426786747263E+00 a       424     0     9     1    24
 -2.4526499757374891E+00 a       425     0     9     1    25
 -8.3041313497046563E+00 a       426     0     9     1    26
 -9.3198688695178795E+00 a       427     0     9     1    27
  1.7915021708376271E+00 a       428     0     9     1    28
  1.0465213991284605E+01 a       429     0     9     1    29
 -3.5219131173737797E+00 a       430     0     9     1    30
  8.9693713434196332E-01 a       431     0     9     1    31
 -1.6212059495728557E+01 a       432     0     9     1    32
  8.1096627215521497E+00 a       433     0     9     1    33
  1.2194062884156043E+01 a       434     0     9     1    34
 -9.4468960964103719E+00 a       435     0     9     1    35
 -5.2986481267838945E+00 a       436     0     9     1    36
  9.7912532379549990E+00 a       437     0     9     1    37
 -7.7731854689209134E+00 a       438     0     9     1    38
 -2.8104114071475239E+00 a       439     0     9     1    39
 -1.1743390845658993E+01 a       440     0     9     1    40
 -6.8283967981191021E+00 a       441     0     9     1    41
  7.7700422555078763E+00 a       442     0     9     1    42
 -1.1488102617884893E+01 a       443     0     9     1    43
 -4.8842008477113676E+00 a       444     0     9     1    44
 -6.5364296991447901E+00 a       445     0     9     1    45
  4.7160252571361410E+00 a       446     0     9     1    46
  7.6208879447900379E+00 a       447     0     9     1    47
  8.0269816854125828E+00 a       448     0     9     1    48
  3.5090301219569162E+00 a       449     0     9     1    49
  7.5395826586914483E+00 a       450     0     9     1    50
  5.3376884677116134E+00 a       451     0    10     1     1
  6.1916376638467452E-01 a       452     0    10     1     2
 -7.7355362459054540E+00 a       453     0    10     1     3
 -4.4877228680696968E+00 a       454     0    10     1     4
  1.5350556525986514E+00 a       455     0    10     1     5
 -1.0960838560273376E+00 a       456     0    10     1     6
  1.5508189211513848E+00 a       457     0    10     1     7
  4.8331552715708253E-03 a       458     0    10     1     8
 -3.1113697183394948E+00 a       459     0    10     1     9
  1.2539880079707764E+00 a       460     0    10     1    10
 -5.0827132221080689E+00 a       461     0    10     1    11
  3.2330263368294085E+00 a       462     0    10     1    12
 -6.9938335711256503E+00 a       463     0    10     1    13
  6.4065585812027237E-01 a       464     0    10     1    14
 -9.0371852391576357E-01 a       465     0    10     1    15
  1.8062329150191916E-01 a       466     0    10     1    16
 -4.0221079555463142E+00 a       467     0    10     1    17
  2.4262859340152749E+00 a       468     0    10     1    18
 -1.5577489130270310E+00 a       469     0    10     1    19
  3.5836894690979637E+00 a       470     0    10     1    20
  1.6109707297155331E+00 a       471     0    10     1    21
  3.6882425231698107E-01 a       472     0    10     1    22
 -8.2434113521116217E+00 a       473     0    10     1    23
 -8.3146144898483811E+00 a       474     0    10     1    24
 -4.1976386658268394E+00 a       475     0    10     1    25
 -9.0178409367451662E-01 a       476     0    10     1    26
  4.4285666063693183E+00 a       477     0    10     1    27
 -4.3122034926072832E+00 a       478     0    10     1    28
 -3.5428522526638804E+00 a       479     0    10     1    29
  3.4919917098310069E+00 a       480     0    10     1    30
 -4.6476865410812271E+00 a       481     0    10     1    31
  2.9623036935107696E+00 a       482     0    10     1    32
  4.7409602785887361E-01 a       483     0    10     1    33
 -3.1469987098116303E+00 a       484     0    10     1    34
  7.0767437167814631E+00 a       485     0    10     1    35
  2.3074983213318134E-01 a       486     0    10     1    36
 -3.2291491751675188E+00 a       487     0    10     1    37
 -1.0550414307667526E+00 a       488     0    10     1    38
  2.9468878602326551E+00 a       489     0    10     1    39
  1.9686470357070518E+00 a       490     0    10     1    40
 -5.2264506815660843E+00 a       491     0    10     1    41
 -4.7367766556332755E+00 a       492     0    10     1    42
  1.3325034401812811E+01 a       493     0    10     1    43
 -2.5522438317826155E+00 a       494     0    10     1    44
  2.2258942305450993E-01 a       495     0    10     1    45
 -3.0057415821457800E+00 a       496     0    10     1    46
 -2.0505784462810954E+00 a       497     0    10     1    47
 -7.6937548286238773E+00 a       498     0    10     1    48
  4.6200521543100737E-01 a       499     0    10     1    49
  1.4352868369618415E+00 a       500     0    10     1    50
  4.7608178656000266E+00 a       501     0    11     1     1
  1.7669102036305124E+00 a       502     0    11     1     2
 -8.5932914287573645E+00 a       503     0    11     1     3
 -7.4173915405220656E+00 a       504     0    11     1     4
 -3.8519973508707242E-02 a       505     0    11     1     5
 -3.6396811312234725E+00 a       506     0    11     1     6
  3.9453157796362239E+00 a       507     0    11     1     7
  2.7490082540346337E+00 a       508     0    11     1     8
 -1.4617542770007343E+00 a       509     0    11     1     9
 -1.1753680305261688E-02 a       510     0    11     1    10
 -3.7560969672348938E+00 a       511     0    11     1    11
  1.4627124218168874E+00 a       512     0    11     1    12
 -1.2182401434309128E+01 a       513     0    11     1    13
  4.1170628745838593E+00 a       514     0    11     1    14
 -5.1737664751238146E+00 a       515     0    11     1    15
 -5.7262041930280807E+00 a       516     0    11     1    16
 -9.0720584445530985E+00 a       517     0    11     1    17
  7.5354092125555017E+00 a       518     0    11     1    18
 -4.4812647835784780E+00 a       519     0    11     1    19
 -2.0349700721356836E+00 a       520     0    11     1    20
  4.3698486050210290E+00 a       521     0    11     1    21
  2.6187470221019998E-01 a       522     0    11     1    22
 -1.1722418421312106E+01 a       523     0    11     1    23
 -4.7450767563128329E+00 a       524     0    11     1    24
  1.4978424312479177E-01 a       525     0    11     1    25
 -2.1043017490829592E+00 a       526     0    11     1    26
  1.4222711099985554E+00 a       527     0    11     1    27
 -5.8391459087986339E+00 a       528     0    11     1    28
  1.3928018663464690E+00 a       529     0    11     1    29
  1.6877102170999732E+00 a       530     0    11     1    30
 -8.1968783282455693E+00 a       531     0    11     1    31
  2.8551131800145040E+00 a       532     0    11     1    32
  8.4689796094289549E-01 a       533     0    11     1    33
 -8.1609251590908922E+00 a       534     0    11     1    34
  5.5657228853167959E+00 a       535     0    11     1    35
  1.3508491751768179E+00 a       536     0    11     1    36
  2.5761883236447174E+00 a       537     0    11     1    37
 -7.1228910146281310E-01 a       538     0    11     1    38
  5.3980849217889793E+00 a       539     0    11     1    39
  1.6634627356857521E+00 a       540     0    11     1    40
 -3.3654107616817952E+00 a       541     0    11     1    41
 -1.7731183491511537E-01 a       542     0    11     1    42
  9.1168175338725757E+00 a       543     0    11     1    43
 -3.9560724053317782E+00 a       544     0    11     1    44
 -3.0007378360015204E+00 a       545     0    11     1    45
 -1.4410380289803395E+00 a       546     0    11     1    46
  3.0967909279747308E+00 a       547     0    11     1    47
 -2.5104481991572514E+00 a       548     0    11     1    48
 -1.3246875328974008E+00 a       549     0    11     1    49
  3.6821308821832583E+00 a       550     0    11     1    50
  8.3825627176937374E+00 a       551     0    12     1     1
 -8.3953799676375129E-01 a       552     0    12     1     2
 -7.0875191546420417E+00 a       553     0    12     1     3
 -3.1673325895896869E+00 a       554     0    12     1     4
  3.3441909815171256E+00 a       555     0    12     1     5
  1.2465487455006918E+00 a       556     0    12     1     6
 -1.4690867940797971E+00 a       557     0    12     1     7
 -2.5482567130489753E+00 a       558     0    12     1     8
 -3.7123370215712539E+00 a       559     0    12     1     9
  2.4487246020480007E+00 a       560     0    12     1    10
 -8.1432416451715035E+00 a       561     0    12     1    11
  5.2909006591401768E+00 a       562     0    12     1    12
 -2.2131483358033139E+00 a       563     0    12     1    13
 -2.6651706949548783E+00 a       564     0    12     1    14
  3.1394890116247600E+00 a       565     0    12     1    15
  7.1391148352142642E+00 a       566     0    12     1    16
  7.4248314800021797E-01 a       567     0    12     1    17
 -1.9026126018397620E+00 a       568     0    12     1    18
  7.9196385155352456E-01 a       569     0    12     1    19
  9.2964103410275563E+00 a       570     0    12     1    20
 -2.2507458020769997E+00 a       571     0    12     1    21
  1.3251341007183751E-01 a       572     0    12     1    22
 -7.0213449596338284E+00 a       573     0    12     1    23
 -1.4486468660566457E+01 a       574     0    12     1    24
 -1.0394193170754690E+01 a       575     0    12     1    25
 -5.1971224772070634E-01 a       576     0    12     1    26
  6.8458076624207305E+00 a       577     0    12     1    27
 -3.5585800499962970E+00 a       578     0    12     1    28
 -7.9303192022579454E+00 a       579     0    12     1    29
  5.6654495434987231E+00 a       580     0    12     1    30
 -1.8822992612288281E+00 a       581     0    12     1    31
  1.7185588551918454E+00 a       582     0    12     1    32
  4.0642122052479168E-01 a       583     0    12     1    33
  3.1856819940970591E+00 a       584     0    12     1    34
  9.7767979579215964E+00 a       585     0    12     1    35
 -1.8325113423604864E+00 a       586     0    12     1    36
 -9.7578720783618493E+00 a       587     0    12     1    37
 -1.6710660498355987E+00 a       588     0    12     1    38
  3.5712200244195630E-01 a       589     0    12     1    39
  1.4753808227399525E+00 a       590     0    12     1    40
 -8.8067614161420291E+00 a       591     0    12     1    41
 -9.7499812967196426E+00 a       592     0    12     1    42
  1.6593634740138032E+01 a       593     0    12     1    43
 -1.1850673717237641E+00 a       594     0    12     1    44
  3.1662829646715371E+00 a       595     0    12     1    45
 -4.3182542932198693E+00 a       596     0    12     1    46
 -6.3719965479998431E+00 a       597     0    12     1    47
 -1.4216750571167278E+01 a       598     0    12     1    48
  2.9952413391410477E+00 a       599     0    12     1    49
  1.5919575577793718E-01 a       600     0    12     1    50
 -5.3805330024964784E+00 a       601     0    13     1     1
  2.7943059005313455E+00 a       602     0    13     1     2
 -9.3362990091453906E+00 a       603     0    13     1     3
 -2.1988612893808668E-01 a       604     0    13     1     4
  4.1801594644058415E+00 a       605     0    13     1     5
 -1.8281109241221050E+00 a       606     0    13     1     6
  6.0652486485185122E+00 a       607     0    13     1     7
 -6.5555544024629748E+00 a       608     0    13     1     8
 -4.9642493365204370E+00 a       609     0    13     1     9
 -1.3271827693461087E+00 a       610     0    13     1    10
 -4.6367847385425680E+00 a       611     0    13     1    11
  1.0238752201636832E+00 a       612     0    13     1    12
 -5.7199247648613349E+00 a       613     0    13     1    13
  5.0541317174087457E+00 a       614     0    13     1    14
 -2.6323211597223830E+00 a       615     0    13     1    15
 -1.3104333139794839E+01 a       616     0    13     1    16
 -1.2761715088361342E+01 a       617     0    13     1    17
  9.0086098339070713E+00 a       618     0    13     1    18
  3.6423194906681355E-01 a       619     0    13     1    19
 -1.9566243669109549E+00 a       620     0    13     1    20
  2.4438013097413829E+00 a       621     0    13     1    21
 -4.0797312052112167E-01 a       622     0    13     1    22
 -5.7837477721015584E-01 a       623     0    13     1    23
  5.4525453445454879E+00 a       624     0    13     1    24
  5.8491720333647779E+00 a       625     0    13     1    25
  1.9393067230559426E+00 a       626     0    13     1    26
  2.9173972889975937E+00 a       627     0    13     1    27
 -4.5020296502297521E+00 a       628     0    13     1    28
 -4.1075372647498662E+00 a       629     0    13     1    29
  1.1843245302198933E+00 a       630     0    13     1    30
 -8.4234006797756287E+00 a       631     0    13     1    31
  1.3501631652769394E+01 a       632     0    13     1    32
 -3.2863698871757840E+00 a       633     0    13     1    33
 -1.5503436734609332E+01 a       634     0    13     1    34
  6.3601790758330257E+00 a       635     0    13     1    35
  5.6526391108823848E+00 a       636     0    13     1    36
 -2.5456170006312164E+00 a       637     0    13     1    37
  4.6301376864623851E+00 a       638     0    13     1    38
  4.3102547132782911E+00 a       639     0    13     1    39
  9.2999071046763824E+00 a       640     0    13     1    40
  3.1088076791669859E+00 a       641     0    13     1    41
 -1.4278181346320420E+00 a       642     0    13     1    42
  7.9977529061429751E+00 a       643     0    13     1    43
  6.6948348635291643E-01 a       644     0    13     1    44
 -2.6364404623665849E-01 a       645     0    13     1    45
 -1.1105053992395959E+00 a       646     0    13     1    46
  2.1905982665137480E+00 a       647     0    13     1    47
  1.1459751623968006E+00 a       648     0    13     1    48
 -4.5668976548621485E+00 a       649     0    13     1    49
 -2.9670793214611146E+00 a       650     0    13     1    50
  2.9054266482913526E+01 a       651     0    14     1     1
 -8.3482613564564563E+00 a       652     0    14     1     2
 -6.0541315910040217E+00 a       653     0    14     1     3
 -1.6315271302524998E+01 a       654     0    14     1     4
 -3.1145179275915331E+00 a       655     0    14     1     5
  2.5149297404816379E-01 a       656     0    14     1     6
 -6.4161591771152315E-01 a       657     0    14     1     7
  1.1629294600303226E+01 a       658     0    14     1     8
  9.5666833417863675E+00 a       659     0    14     1     9
  2.5360607876357673E+00 a       660     0    14     1    10
 -9.5882929650664916E+00 a       661     0    14     1    11
  1.1756599264717533E+01 a       662     0    14     1    12
 -1.2163616687791230E+01 a       663     0    14     1    13
 -1.3827315587740419E+00 a       664     0    14     1    14
 -5.4196756833462869E+00 a       665     0    14     1    15
  1.5532388997875902E+01 a       666     0    14     1    16
 -1.2446798856385721E+00 a       667     0    14     1    17
 -5.4358401791300848E-01 a       668     0    14     1    18
  2.1035700042699914E+00 a       669     0    14     1    19
  1.8362957371067332E+00 a       670     0    14     1    20
 -4.6966438978155240E+00 a       671     0    14     1    21
 -5.0343743010050034E-02 a       672     0    14     1    22
 -3.0675602692764713E+01 a       673     0    14     1    23
 -3.6795302672050013E+01 a       674     0    14     1    24
 -1.8605000738309510E+01 a       675     0    14     1    25
  6.5134103779906969E+00 a       676     0    14     1    26
  3.2613754016656821E-01 a       677     0    14     1    27
 -4.0562482958408035E+00 a       678     0    14     1    28
  7.9571483696464531E+00 a       679     0    14     1    29
  4.4075211979982765E+00 a       680     0    14     1    30
 -4.1645726215741039E+00 a       681     0    14     1    31
 -1.9821451224566886E+01 a       682     0    14     1    32
  4.4749305816239549E+00 a       683     0    14     1    33
  2.0116877743162533E+01 a       684     0    14     1    34
  1.3733715623933481E+01 a       685     0    14     1    35
 -1.3133709090732806E+01 a       686     0    14     1    36
  1.4364381321303168E+00 a       687     0    14     1    37
 -7.0620233154525529E+00 a       688     0    14     1    38
  6.9606670800524419E+00 a       689     0    14     1    39
 -1.1670178163917976E+01 a       690     0    14     1    40
 -1.1393996171961332E+01 a       691     0    14     1    41
  2.0995049264757215E+00 a       692     0    14     1    42
 -1.0001090769570876E+01 a       693     0    14     1    43
 -1.2910731892888165E+01 a       694     0    14     1    44
 -4.7649064333063285E-01 a       695     0    14     1    45
 -8.7278772873284149E-01 a       696     0    14     1    46
 -2.1888652511278442E-01 a       697     0    14     1    47
 -2.0764209790611226E+01 a       698     0    14     1    48
  8.9935165818463609E+00 a       699     0    14     1    49
  1.3026609090879917E+01 a       700     0    14     1    50
 -1.5458872241238799E+01 a       701     0    15     1     1
 -4.6080289539108223E+00 a       702     0    15     1     2
  6.8249299139013511E+00 a       703     0    15     1     3
  1.6011925953120940E+01 a       704     0    15     1     4
  1.8980471409508109E+01 a       705     0    15     1     5
  7.2755168907635568E+00 a       706     0    15     1     6
 -1.0105720825170264E+01 a       707     0    15     1     7
 -3.0871241070475197E+01 a       708     0    15     1     8
 -5.8376207519983039E+00 a       709     0    15     1     9
  2.7747893780521569E+00 a       710     0    15     1    10
 -5.7227809915477170E+00 a       711     0    15     1    11
 -2.6915325221210091E+00 a       712     0    15     1    12
  3.6044600391370643E+01 a       713     0    15     1    13
 -5.7953227022708207E+00 a       714     0    15     1    14
  2.3519655624532124E+01 a       715     0    15     1    15
 -2.5402275539735455E+00 a       716     0    15     1    16
  1.3221960235271810E+01 a       717     0    15     1    17
  2.6666412057068739E-01 a       718     0    15     1    18
  5.9268037088656254E+00 a       719     0    15     1    19
  1.1155114451178514E+01 a       720     0    15     1    20
 -1.8311742283063552E+01 a       721     0    15     1    21
 -7.1891683965260347E+00 a       722     0    15     1    22
  3.4402616708846629E+01 a       723     0    15     1    23
  2.2066083887900277E+01 a       724     0    15     1    24
 -3.8240474981183770E+00 a       725     0    15     1    25
 -1.1049701461549382E+01 a       726     0    15     1    26
  2.4823922502058977E+00 a       727     0    15     1    27
  7.7750212815683781E+00 a       728     0    15     1    28
 -2.4948158152315294E+01 a       729     0    15     1    29
 -1.4873276118667653E+00 a       730     0    15     1    30
  7.1938956604325748E+00 a       731     0    15     1    31
  1.8222118398590865E+01 a       732     0    15     1    32
 -2.1988372291759464E+00 a       733     0    15     1    33
  2.6719210004605456E+00 a       734     0    15     1    34
 -2.8667608384957566E+00 a       735     0    15     1    35
  7.1985104837367446E+00 a       736     0    15     1    36
 -3.1792824689021895E+01 a       737     0    15     1    37
  7.4342709645585030E+00 a       738     0    15     1    38
 -2.3480825332116986E+01 a       739     0    15     1    39
  1.4056445829750995E+01 a       740     0    15     1    40
 -1.5645249127709508E+00 a       741     0    15     1    41
 -1.7635244044975423E+01 a       742     0    15     1    42
  1.9710349166974421E+01 a       743     0    15     1    43
  1.8944319156217343E+01 a       744     0    15     1    44
  1.0028735818876214E+01 a       745     0    15     1    45
  7.0133752144954062E+00 a       746     0    15     1    46
 -4.3237424568644345E+00 a       747     0    15     1    47
  9.0212832293417318E+00 a       748     0    15     1    48
  1.2705142749521767E+00 a       749     0    15     1    49
 -2.2435911162522828E+01 a       750     0    15     1    50
 -1.9195383382170952E+01 a       751     0    16     1     1
 -7.2528413564707748E+00 a       752     0    16     1     2
  1.9367177694443729E+01 a       753     0    16     1     3
  1.3528257079761582E+01 a       754     0    16     1     4
 -7.0234492856237276E+00 a       755     0    16     1     5
  4.9938132235744026E-01 a       756     0    16     1     6
 -3.0226077360247574E+00 a       757     0    16     1     7
  9.4858120918714528E-01 a       758     0    16     1     8
  1.5240615031788728E+01 a       759     0    16     1     9
 -7.8196959071752987E+00 a       760     0    16     1    10
  1.2021034321370147E+01 a       761     0    16     1    11
 -1.9210284636764470E+01 a       762     0    16     1    12
  1.4520607060662179E+01 a       763     0    16     1    13
  3.7736511118542477E+00 a       764     0    16     1    14
 -1.6023259245072619E+01 a       765     0    16     1    15
 -1.5648377893921745E+01 a       766     0    16     1    16
  5.0474165273800740E+00 a       767     0    16     1    17
 -2.3017087584695184E+00 a       768     0    16     1    18
 -1.7248191351934725E+00 a       769     0    16     1    19
 -1.8697362451204164E+01 a       770     0    16     1    20
 -6.0114965217107450E+00 a       771     0    16     1    21
  6.3995134580703770E+00 a       772     0    16     1    22
  2.7490287986208450E+01 a       773     0    16     1    23
  3.3024014281965606E+01 a       774     0    16     1    24
  2.4081949144146630E+01 a       775     0    16     1    25
  3.2183257154423313E+00 a       776     0    16     1    26
 -1.6426222489709371E+01 a       777     0    16     1    27
  1.5390991638841534E+01 a       778     0    16     1    28
  2.1520773193770346E+01 a       779     0    16     1    29
 -1.3168315442583852E+01 a       780     0    16     1    30
  6.6643613646455053E+00 a       781     0    16     1    31
 -1.7437744919348530E+00 a       782     0    16     1    32
 -4.2981987344606427E+00 a       783     0    16     1    33
 -4.4514110122826374E+00 a       784     0    16     1    34
 -1.8404811219711149E+01 a       785     0    16     1    35
  4.6796139328077482E+00 a       786     0    16     1    36
  1.8402846295188578E+01 a       787     0    16     1    37
  1.0858392171731888E+01 a       788     0    16     1    38
 -2.6644185217731016E+00 a       789     0    16     1    39
 -3.5026498645917679E+00 a       790     0    16     1    40
  2.1891587296912249E+01 a       791     0    16     1    41
  2.0254555634289321E+01 a       792     0    16     1    42
 -4.8266615033822823E+01 a       793     0    16     1    43
  6.7218111732594732E+00 a       794     0    16     1    44
 -1.0461208389018375E+00 a       795     0    16     1    45
  7.4611226528736090E+00 a       796     0    16     1    46
  1.8930297266421615E+01 a       797     0    16     1    47
  2.9601588399316039E+01 a       798     0    16     1    48
 -7.5622126808236931E+00 a       799     0    16     1    49
 -2.6670520714856885E+00 a       800     0    16     1    50
  7.3613375083480568E+00 a       801     0    17     1     1
 -8.2176695223602785E+00 a       802     0    17     1     2
  7.1151707778061750E+00 a       803     0    17     1     3
  1.7994138930134935E+00 a       804     0    17     1     4
 -1.5813618236080060E+01 a       805     0    17     1     5
  1.3753122840005478E+01 a       806     0    17     1     6
  1.3662509228673752E+00 a       807     0    17     1     7
  3.7002929870909864E+00 a       808     0    17     1     8
  2.3371318154155617E+01 a       809     0    17     1     9
 -5.2817876391546834E+00 a       810     0    17     1    10
  6.1648846134787014E+00 a       811     0    17     1    11
 -1.2994276694605205E+01 a       812     0    17     1    12
 -1.0089251448598691E+00 a       813     0    17     1    13
  4.8772472503280877E+00 a       814     0    17     1    14
 -3.2553145169199922E+01 a       815     0    17     1    15
  1.3063187852402995E+00 a       816     0    17     1    16
  2.6697603747222449E+00 a       817     0    17     1    17
 -1.2812341926719801E+01 a       818     0    17     1    18
 -5.6094075820557494E+00 a       819     0    17     1    19
 -2.2827792073317198E+01 a       820     0    17     1    20
 -1.0044865370144235E+01 a       821     0    17     1    21
  1.1948405866915541E+01 a       822     0    17     1    22
 -1.3831022992494111E+01 a       823     0    17     1    23
 -6.2167044409314354E+00 a       824     0    17     1    24
  2.0500766625862283E+01 a       825     0    17     1    25
  1.8373011383534795E+01 a       826     0    17     1    26
  6.1798163666899750E+00 a       827     0    17     1    27
  1.5750430007265792E+00 a       828     0    17     1    28
  3.6191996352474334E+01 a       829     0    17     1    29
 -6.3568614376810911E-02 a       830     0    17     1    30
  1.0048659053554905E+01 a       831     0    17     1    31
 -1.0974323360468249E+01 a       832     0    17     1    32
 -7.1636548592276208E+00 a       833     0    17     1    33
 -1.6818215185502019E+00 a       834     0    17     1    34
 -4.7942153963823513E+00 a       835     0    17     1    35
 -3.5928587781864856E+00 a       836     0    17     1    36
  3.4491803814776006E+01 a       837     0    17     1    37
  1.2119527000266435E+01 a       838     0    17     1    38
  1.0880908102227592E+01 a       839     0    17     1    39
 -1.5519519977992195E+01 a       840     0    17     1    40
  2.0336744344212612E+01 a       841     0    17     1    41
  1.6640244328215754E+01 a       842     0    17     1    42
 -4.7896399170483264E+01 a       843     0    17     1    43
 -4.5845280794932481E+00 a       844     0    17     1    44
 -6.2262627554495884E+00 a       845     0    17     1    45
  6.6114838380437160E+00 a       846     0    17     1    46
 -5.7363528543757374E+00 a       847     0    17     1    47
  7.6900918876897206E+00 a       848     0    17     1    48
 -3.8449067823134082E+00 a       849     0    17     1    49
  7.7228391226497157E+00 a       850     0    17     1    50
  3.4215309359877013E+00 a       851     0    18     1     1
  4.5968343506493774E+00 a       852     0    18     1     2
 -6.9462018474129437E+00 a       853     0    18     1     3
  4.9606229724468132E-01 a       854     0    18     1     4
  8.5165992894236844E+00 a       855     0    18     1     5
  7.0354620706059041E+00 a       856     0    18     1     6
  4.3126620435897170E-02 a       857     0    18     1     7
 -1.4716802105751071E+01 a       858     0    18     1     8
 -7.9063372189726238E+00 a       859     0    18     1     9
  4.4851403165253974E+00 a       860     0    18     1    10
 -6.1940041253350380E+00 a       861     0    18     1    11
  5.1367107207911795E+00 a       862     0    18     1    12
  4.9150874266281628E+00 a       863     0    18     1    13
 -7.8402705624231817E-01 a       864     0    18     1    14
  1.1862434852231191E+01 a       865     0    18     1    15
  4.7794741991953469E+00 a       866     0    18     1    16
  2.7912555941287134E+00 a       867     0    18     1    17
 -1.4410390754777039E-01 a       868     0    18     1    18
  1.1822707920094160E+00 a       869     0    18     1    19
  8.8895738701178288E+00 a       870     0    18     1    20
 -2.3334191642488435E+00 a       871     0    18     1    21
 -3.8059937687975500E+00 a       872     0    18     1    22
 -5.2900678868453461E+00 a       873     0    18     1    23
 -6.0367353524884031E+00 a       874     0    18     1    24
 -4.2992185087654189E+00 a       875     0    18     1    25
 -1.7966727828842759E+00 a       876     0    18     1    26
  1.3848930138932056E+01 a       877     0    18     1    27
 -5.6046922694618964E+00 a       878     0    18     1    28
 -1.3031895260526918E+01 a       879     0    18     1    29
  7.3919937154843440E+00 a       880     0    18     1    30
  1.4176704248773031E+00 a       881     0    18     1    31
  9.9700013890628334E+00 a       882     0    18     1    32
 -7.1713349015753181E-01 a       883     0    18     1    33
 -3.0973591712712447E+00 a       884     0    18     1    34
  4.8771387902321957E+00 a       885     0    18     1    35
  2.9710857762076226E+00 a       886     0    18     1    36
 -1.2098299628698131E+01 a       887     0    18     1    37
  1.1327539605891439E+00 a       888     0    18     1    38
 -4.4638080231434838E+00 a       889     0    18     1    39
  6.2046712295007058E+00 a       890     0    18     1    40
 -5.8914074826132614E+00 a       891     0    18     1    41
 -1.4721383783555645E+01 a       892     0    18     1    42
  2.8024639122331394E+01 a       893     0    18     1    43
  1.8657524341457241E+00 a       894     0    18     1    44
  1.0602701239826524E+00 a       895     0    18     1    45
  1.5394525995902650E+00 a       896     0    18     1    46
 -1.4702288670198444E+01 a       897     0    18     1    47
 -7.5793069807520563E+00 a       898     0    18     1    48
  2.7229633722869253E+00 a       899     0    18     1    49
 -6.2559684390527632E+00 a       900     0    18     1    50
 -3.4360717197746662E+00 a       901     0    19     1     1
  3.7025444359831226E+00 a       902     0    19     1     2
 -2.6577227532058760E+00 a       903     0    19     1     3
 -1.6344029816887784E+00 a       904     0    19     1     4
  7.0001690359506563E+00 a       905     0    19     1     5
 -1.0531574360414579E+01 a       906     0    19     1     6
 -4.2697228119245206E-01 a       907     0    19     1     7
  4.3552578541390004E+00 a       908     0    19     1     8
 -1.1300165846789923E+01 a       909     0    19     1     9
  2.8780425702962416E+00 a       910     0    19     1    10
 -3.2451618109977738E+00 a       911     0    19     1    11
  7.6791652509793300E+00 a       912     0    19     1    12
 -2.8953953426351733E+00 a       913     0    19     1    13
 -3.6926065428304784E+00 a       914     0    19     1    14
  1.4907254773037659E+01 a       915     0    19     1    15
  7.1826347414639100E-02 a       916     0    19     1    16
 -8.4229863358863655E-01 a       917     0    19     1    17
  7.2963209060049401E+00 a       918     0    19     1    18
  4.5047285513367479E+00 a       919     0    19     1    19
  1.1479555700423226E+01 a       920     0    19     1    20
  9.2931479893472027E+00 a       921     0    19     1    21
 -4.6426294391910083E+00 a       922     0    19     1    22
  7.4072837349517071E+00 a       923     0    19     1    23
  1.7174880209869361E+00 a       924     0    19     1    24
 -1.2218310446752184E+01 a       925     0    19     1    25
 -8.9672140213353622E+00 a       926     0    19     1    26
 -7.8868566713099533E+00 a       927     0    19     1    27
  6.5364325003049539E-01 a       928     0    19     1    28
 -1.6249685258260659E+01 a       929     0    19     1    29
 -5.6134872303783445E-01 a       930     0    19     1    30
 -8.3838824760812223E+00 a       931     0    19     1    31
  1.1158261917104455E+00 a       932     0    19     1    32
  4.0483713835229231E+00 a       933     0    19     1    33
  3.6037577044587450E+00 a       934     0    19     1    34
  2.7717486043146131E+00 a       935     0    19     1    35
  1.8126155293480248E+00 a       936     0    19     1    36
 -1.5864710239684237E+01 a       937     0    19     1    37
 -7.5750404358023369E+00 a       938     0    19     1    38
 -2.5569860534390143E+00 a       939     0    19     1    39
  5.8990309375247358E+00 a       940     0    19     1    40
 -1.1517579024069526E+01 a       941     0    19     1    41
 -4.8908367061197406E+00 a       942     0    19     1    42
  1.9376342319930181E+01 a       943     0    19     1    43
  2.1596986008391026E+00 a       944     0    19     1    44
  3.6126198026990637E+00 a       945     0    19     1    45
 -6.4352227977425125E+00 a       946     0    19     1    46
  9.5098578827867808E+00 a       947     0    19     1    47
 -4.9023902784315823E+00 a       948     0    19     1    48
  2.2224200706562316E+00 a       949     0    19     1    49
  6.2119206164306932E-02 a       950     0    19     1    50
 -1.3447958644752969E+00 a       951     0    20     1     1
 -1.2520466556438514E+00 a       952     0    20     1     2
  1.5285873417069695E+00 a       953     0    20     1     3
 -1.6884522586372570E+00 a       954     0    20     1     4
 -4.0145989417581802E+00 a       955     0    20     1     5
 -4.8194935111757067E+00 a       956     0    20     1     6
  4.6666116983724171E-01 a       957     0    20     1     7
  8.1937206765468265E+00 a       958     0    20     1     8
  2.5884845389496198E+00 a       959     0    20     1     9
 -1.8210517691564918E+00 a       960     0    20     1    10
  2.8580936293048160E+00 a       961     0    20     1    11
 -7.3722826745641101E-01 a       962     0    20     1    12
 -4.3524830906774259E+00 a       963     0    20     1    13
  3.3363331599712265E-01 a       964     0    20     1    14
 -4.4209928428106142E+00 a       965     0    20     1    15
 -2.6518260864312140E+00 a       966     0    20     1    16
 -3.3160980483762375E+00 a       967     0    20     1    17
  1.4680499174971198E+00 a       968     0    20     1    18
 -9.3634437783818092E-01 a       969     0    20     1    19
 -3.5412667367444493E+00 a       970     0    20     1    20
  1.9198699413475480E+00 a       971     0    20     1    21
  1.1008204197419096E+00 a       972     0    20     1    22
  1.3049929710835488E+00 a       973     0    20     1    23
  1.9823193833618988E+00 a       974     0    20     1    24
  2.0981376879262706E-01 a       975     0    20     1    25
 -3.7781315725656422E-01 a       976     0    20     1    26
 -6.8230039482073339E+00 a       977     0    20     1    27
  1.3826243156458986E+00 a       978     0    20     1    28
  4.1960975297660843E+00 a       979     0    20     1    29
 -3.2847250613028778E+00 a       980     0    20     1    30
 -1.8513019964697250E+00 a       981     0    20     1    31
 -4.3537153139028781E+00 a       982     0    20     1    32
  1.3110545172926460E+00 a       983     0    20     1    33
  1.4538526194848822E+00 a       984     0    20     1    34
 -1.1405645514804943E+00 a       985     0    20     1    35
 -1.5055661913110854E+00 a       986     0    20     1    36
  4.2824022584504906E+00 a       987     0    20     1    37
 -1.9426370083190796E+00 a       988     0    20     1    38
  2.0081676370658945E+00 a       989     0    20     1    39
 -2.2148273856351337E+00 a       990     0    20     1    40
  1.0867743291268068E+00 a       991     0    20     1    41
  6.3704645862069791E+00 a       992     0    20     1    42
 -1.0111185852116130E+01 a       993     0    20     1    43
 -1.1761168229299519E+00 a       994     0    20     1    44
 -7.7596498249375256E-01 a       995     0    20     1    45
 -1.5756077211741149E+00 a       996     0    20     1    46
  6.8894735085631948E+00 a       997     0    20     1    47
  2.7823422949949554E+00 a       998     0    20     1    48
 -1.2670727090057177E+00 a       999     0    20     1    49
  3.0567351707902084E+00 a      1000     0    20     1    50
 -8.1970963124101393E-01 a      1001     0    21     1     1
  1.3631937892710653E+01 a      1002     0    21     1     2
  1.7826242487390422E+00 a      1003     0    21     1     3
 -7.7991698638531890E+00 a      1004     0    21     1     4
 -2.0016109063922300E+01 a      1005     0    21     1     5
 -2.1000470331638441E+00 a      1006     0    21     1     6
 -1.4106547071473225E+01 a      1007     0    21     1     7
  3.8349883663903754E+00 a      1008     0    21     1     8
 -1.4404210553108198E+01 a      1009     0    21     1     9
  8.4557075796955363E+00 a      1010     0    21     1    10
 -7.4523767212743408E+00 a      1011     0    21     1    11
 -2.2816894138972181E+01 a      1012     0    21     1    12
 -1.3158844577554598E+01 a      1013     0    21     1    13
  2.7641316290865894E+00 a      1014     0    21     1    14
  5.2923753268878748E-01 a      1015     0    21     1    15
  2.5613473810478773E+01 a      1016     0    21     1    16
  2.4486240374945947E+01 a      1017     0    21     1    17
 -1.3001022791554437E+00 a      1018     0    21     1    18
 -3.9382830130415115E+01 a      1019     0    21     1    19
  5.7075870047141501E+00 a      1020     0    21     1    20
  1.1011447035442755E+01 a      1021     0    21     1    21
  1.4785941776185521E+01 a      1022     0    21     1    22
  9.9466757860350299E+00 a      1023     0    21     1    23
  8.2423333717297922E+00 a      1024     0    21     1    24
 -2.1333679805695209E+00 a      1025     0    21     1    25
 -1.9410355254620541E+01 a      1026     0    21     1    26
  2.5534789454214593E+01 a      1027     0    21     1    27
 -1.8803495681739697E+01 a      1028     0    21     1    28
 -1.1135094344808834E+01 a      1029     0    21     1    29
 -2.2469322155263893E+00 a      1030     0    21     1    30
 -3.0342767167307203E+00 a      1031     0    21     1    31
  1.5206811901175630E+01 a      1032     0    21     1    32
 -4.4335235174423966E+00 a      1033     0    21     1    33
  9.7367656128562956E+00 a      1034     0    21     1    34
  3.5944503840180477E+00 a      1035     0    21     1    35
  1.4260807915487829E+01 a      1036     0    21     1    36
 -2.2103735676670730E+01 a      1037     0    21     1    37
  3.2116490270115023E+00 a      1038     0    21     1    38
 -2.6169108598134541E+00 a      1039     0    21     1    39
 -4.4974746879506062E+00 a      1040     0    21     1    40
 -3.2193555200980555E+01 a      1041     0    21     1    41
 -2.4704581894244779E+01 a      1042     0    21     1    42
 -3.0050349862480530E+01 a      1043     0    21     1    43
 -6.1821900365277516E-01 a      1044     0    21     1    44
 -4.1460201719994467E+00 a      1045     0    21     1    45
 -1.2622661669320287E+01 a      1046     0    21     1    46
  1.0066523263582493E+01 a      1047     0    21     1    47
  1.7708033976653297E+01 a      1048     0    21     1    48
  5.7528919418318045E+00 a      1049     0    21     1    49
 -1.9569909728405364E+01 a      1050     0    21     1    50
 -8.6248611369131478E-01 a      1051     0    22     1     1
 -3.5156341613948623E+00 a      1052     0    22     1     2
  3.0473920696099834E+00 a      1053     0    22     1     3
 -2.7538937782760398E+00 a      1054     0    22     1     4
  7.6375974497032608E+00 a      1055     0    22     1     5
 -4.7257371468312250E+00 a      1056     0    22     1     6
  5.4137907625316650E+00 a      1057     0    22     1     7
 -1.2232937860297080E+01 a      1058     0    22     1     8
  6.8835428757726413E+00 a      1059     0    22     1     9
  6.8923924078573702E+00 a      1060     0    22     1    10
  1.3526149012010061E+01 a      1061     0    22     1    11
  1.0569219537417743E-01 a      1062     0    22     1    12
 -1.0176841327086215E+01 a      1063     0    22     1    13
  6.6896308287404169E+00 a      1064     0    22     1    14
 -4.6540080433847192E-01 a      1065     0    22     1    15
 -7.7697416154849410E+00 a      1066     0    22     1    16
 -9.3943947809203436E+00 a      1067     0    22     1    17
  2.9663466262684697E+01 a      1068     0    22     1    18
 -6.6339354381351856E-01 a      1069     0    22     1    19
  2.1622814310692933E+00 a      1070     0    22     1    20
  6.8253978067344807E+00 a      1071     0    22     1    21
 -1.0139460412378526E+01 a      1072     0    22     1    22
 -1.3938366148370465E+01 a      1073     0    22     1    23
 -2.7658710092659042E+00 a      1074     0    22     1    24
 -1.1330301798576839E-01 a      1075     0    22     1    25
 -3.4415727333564763E+00 a      1076     0    22     1    26
  1.8795397385528931E+00 a      1077     0    22     1    27
 -5.1214077820110200E+00 a      1078     0    22     1    28
 -1.3058697722248155E+01 a      1079     0    22     1    29
 -1.3690729470114746E+01 a      1080     0    22     1    30
 -1.0137640460374431E+01 a      1081     0    22     1    31
 -1.8236676968771046E+00 a      1082     0    22     1    32
 -1.7577376286707871E+00 a      1083     0    22     1    33
  3.7749006260593605E+00 a      1084     0    22     1    34
 -7.1327192927537508E+00 a      1085     0    22     1    35
  5.7648945247670591E+00 a      1086     0    22     1    36
 -5.6073883575897590E+00 a      1087     0    22     1    37
 -2.4765903971802780E-01 a      1088     0    22     1    38
  1.7034663387169971E+01 a      1089     0    22     1    39
 -1.1489808082988311E+01 a      1090     0    22     1    40
 -1.8858075230949026E+01 a      1091     0    22     1    41
 -7.7466492187886216E+00 a      1092     0    22     1    42
  1.0335349349070338E+01 a      1093     0    22     1    43
  2.1215659916038616E+00 a      1094     0    22     1    44
  2.0299440082976470E+00 a      1095     0    22     1    45
  1.9566356038840302E+00 a      1096     0    22     1    46
  2.3001686055507047E+01 a      1097     0    22     1    47
  1.1804941748486134E-01 a      1098     0    22     1    48
  5.1316786496326348E+00 a      1099     0    22     1    49
 -3.9792995300506173E+00 a      1100     0    22     1    50
  6.5852010108138295E+00 a      1101     0    23     1     1
 -1.0293731986516050E+01 a      1102     0    23     1     2
  3.4406641602622861E+00 a      1103     0    23     1     3
  1.1085257422321098E+01 a      1104     0    23     1     4
  1.7122915215557668E+01 a      1105     0    23     1     5
 -2.4043873348745306E+00 a      1106     0    23     1     6
  1.7711452447305113E+01 a      1107     0    23     1     7
 -2.0603985770806981E+00 a      1108     0    23     1     8
  9.1578031069470978E+00 a      1109     0    23     1     9
  2.2086794751206287E+00 a      1110     0    23     1    10
  1.3748402117391473E+01 a      1111     0    23     1    11
  9.6762703076220369E+00 a      1112     0    23     1    12
  2.3326641590619630E+01 a      1113     0    23     1    13
 -2.4232030428705249E+00 a      1114     0    23     1    14
 -3.7293101927010155E+00 a      1115     0    23     1    15
 -5.2315382274776248E+00 a      1116     0    23     1    16
 -1.3488728587990881E+01 a      1117     0    23     1    17
  2.1834473709593833E+00 a      1118     0    23     1    18
 -5.3581425786866008E+00 a      1119     0    23     1    19
  3.3123270145628285E+00 a      1120     0    23     1    20
 -3.5278713655898337E+00 a      1121     0    23     1    21
 -1.4068503795568139E+00 a      1122     0    23     1    22
  1.3421668224452605E+00 a      1123     0    23     1    23
 -3.1990286654271225E+00 a      1124     0    23     1    24
  9.9542718755222381E+00 a      1125     0    23     1    25
 -1.4418281024587897E+01 a      1126     0    23     1    26
 -2.0856018097676806E+01 a      1127     0    23     1    27
  7.4064814532933747E+00 a      1128     0    23     1    28
  1.5362307620820836E+01 a      1129     0    23     1    29
  1.1461584647100999E+01 a      1130     0    23     1    30
  1.1384942311353816E+01 a      1131     0    23     1    31
 -6.2312825202682909E+00 a      1132     0    23     1    32
 -4.3459336670941973E-01 a      1133     0    23     1    33
 -8.6290442284171540E+00 a      1134     0    23     1    34
 -1.4733377032203386E+01 a      1135     0    23     1    35
 -1.3701029619538099E+00 a      1136     0    23     1    36
  8.0922317962967067E+00 a      1137     0    23     1    37
 -1.2390956942945268E+01 a      1138     0    23     1    38
 -1.5793791191100160E+01 a      1139     0    23     1    39
  3.8576654525811618E-02 a      1140     0    23     1    40
  6.8185755221595485E+00 a      1141     0    23     1    41
 -3.5576214866503664E+00 a      1142     0    23     1    42
  1.5674337277313134E+01 a      1143     0    23     1    43
  5.9172256913043473E+00 a      1144     0    23     1    44
  1.6229266534810751E+01 a      1145     0    23     1    45
  5.2235901144224073E-01 a      1146     0    23     1    46
 -6.6976386083586812E+00 a      1147     0    23     1    47
 -5.7115397675246191E+00 a      1148     0    23     1    48
 -3.1635492005684585E+00 a      1149     0    23     1    49
  7.0589706731049926E+00 a      1150     0    23     1    50
  8.8299621673976674E+00 a      1151     0    24     1     1
 -5.2675459493100112E+00 a      1152     0    24     1     2
 -1.3547833727922500E+01 a      1153     0    24     1     3
 -2.0232607230744124E+00 a      1154     0    24     1     4
  2.1856688678982632E+01 a      1155     0    24     1     5
  6.3230698523130513E-01 a      1156     0    24     1     6
  4.7713564492627558E+00 a      1157     0    24     1     7
  2.4063896594045562E+00 a      1158     0    24     1     8
  4.4271894196252353E+00 a      1159     0    24     1     9
  6.2557236682223847E+00 a      1160     0    24     1    10
 -9.6347076169802932E+00 a      1161     0    24     1    11
  1.2817107846642001E+01 a      1162     0    24     1    12
  7.3158028739937988E+00 a      1163     0    24     1    13
 -6.5678417606785882E+00 a      1164     0    24     1    14
  1.4521229158294760E+01 a      1165     0    24     1    15
 -1.3179208361815297E+01 a      1166     0    24     1    16
 -8.3069338526856402E+00 a      1167     0    24     1    17
 -3.5833564697298654E+00 a      1168     0    24     1    18
  2.1446351500270524E+01 a      1169     0    24     1    19
 -9.1986354945235469E+00 a      1170     0    24     1    20
 -5.7588733752637316E+00 a      1171     0    24     1    21
 -1.7076102386978974E+01 a      1172     0    24     1    22
 -1.4997105151783236E+01 a      1173     0    24     1    23
  1.2881765423672304E+00 a      1174     0    24     1    24
  1.5691125171232276E+01 a      1175     0    24     1    25
 -3.1818422015038546E+00 a      1176     0    24     1    26
 -2.7388650285498358E+01 a      1177     0    24     1    27
  2.7547494926232083E+00 a      1178     0    24     1    28
  2.0097936479680659E+01 a      1179     0    24     1    29
  3.0386471039620013E+00 a      1180     0    24     1    30
 -4.1241570178812808E+00 a      1181     0    24     1    31
 -1.9750436789059464E+01 a      1182     0    24     1    32
  2.4349661606907493E+00 a      1183     0    24     1    33
 -4.0322400085619678E+00 a      1184     0    24     1    34
  7.2853677122452867E+00 a      1185     0    24     1    35
 -9.6015499332642822E+00 a      1186     0    24     1    36
  1.9027369801595306E+01 a      1187     0    24     1    37
  8.6688855625041175E+00 a      1188     0    24     1    38
 -1.2804108201022684E+01 a      1189     0    24     1    39
  1.5540913691964240E+01 a      1190     0    24     1    40
  5.4367540789136243E+01 a      1191     0    24     1    41
  2.4530689222147092E+01 a      1192     0    24     1    42
  4.3238564752909639E+01 a      1193     0    24     1    43
 -1.1219371393099987E+01 a      1194     0    24     1    44
  6.4573646566963854E+00 a      1195     0    24     1    45
  1.4139273482159084E+01 a      1196     0    24     1    46
 -1.4568375266682636E+01 a      1197     0    24     1    47
 -9.5067198900165266E+00 a      1198     0    24     1    48
 -8.9876885422191162E+00 a      1199     0    24     1    49
  1.8361303824135984E+01 a      1200     0    24     1    50
 -5.2095309232549205E+00 a      1201     0    25     1     1
 -7.4775205854398870E+00 a      1202     0    25     1     2
  6.2712855866098902E+00 a      1203     0    25     1     3
  2.7851525348879928E+01 a      1204     0    25     1     4
  2.5075275825341581E+01 a      1205     0    25     1     5
  2.4599755225982420E+00 a      1206     0    25     1     6
  2.8195619696021601E+00 a      1207     0    25     1     7
  2.3519926758351670E+00 a      1208     0    25     1     8
  1.4660558921473962E+01 a      1209     0    25     1     9
 -5.7524946938754145E+00 a      1210     0    25     1    10
  7.0487797074684444E+00 a      1211     0    25     1    11
  2.0708116460453727E+01 a      1212     0    25     1    12
  1.2049440986917526E+01 a      1213     0    25     1    13
  2.2671305515874742E+00 a      1214     0    25     1    14
  1.5616856080164375E+01 a      1215     0    25     1    15
 -2.6339294452971139E+01 a      1216     0    25     1    16
 -3.2658361225616211E+01 a      1217     0    25     1    17
  5.2442744557871350E+00 a      1218     0    25     1    18
  5.8971460370815990E+01 a      1219     0    25     1    19
 -1.9774552309927639E+01 a      1220     0    25     1    20
 -1.5749543416075333E+01 a      1221     0    25     1    21
 -8.3763720120570451E+00 a      1222     0    25     1    22
 -1.2207777573906293E+01 a      1223     0    25     1    23
 -4.9827373380695876E+00 a      1224     0    25     1    24
  4.6269905501790474E+00 a      1225     0    25     1    25
  2.7246857265978484E+01 a      1226     0    25     1    26
 -2.6861942092438770E+01 a      1227     0    25     1    27
  1.3112097345658063E+01 a      1228     0    25     1    28
 -5.9739343743303097E-01 a      1229     0    25     1    29
 -1.5255637564547227E+01 a      1230     0    25     1    30
  6.6098803233250205E+00 a      1231     0    25     1    31
 -2.4240451813253021E+01 a      1232     0    25     1    32
 -3.8871441440334813E+00 a      1233     0    25     1    33
 -1.4104044726987356E+01 a      1234     0    25     1    34
  1.4663309833251565E+00 a      1235     0    25     1    35
 -1.0200339223563319E+01 a      1236     0    25     1    36
  2.7028606691062478E+01 a      1237     0    25     1    37
  1.7077409121466933E+00 a      1238     0    25     1    38
  1.0839173418774623E+01 a      1239     0    25     1    39
  1.6537321711662219E+01 a      1240     0    25     1    40
  3.7753519699511017E+01 a      1241     0    25     1    41
  3.3555595911083437E+01 a      1242     0    25     1    42
  3.1176331387750004E+01 a      1243     0    25     1    43
 -6.6369526385822581E+00 a      1244     0    25     1    44
  1.4736271608821063E+00 a      1245     0    25     1    45
 -3.1997146489480094E-01 a      1246     0    25     1    46
 -1.0256999303624173E+01 a      1247     0    25     1    47
 -1.4284751139429954E+01 a      1248     0    25     1    48
 -3.8057338300047325E+00 a      1249     0    25     1    49
  9.3370065960911237E+00 a      1250     0    25     1    50
 -3.8650505111581461E+00 a      1251     0    26     1     1
 -8.4445873478398537E-01 a      1252     0    26     1     2
  8.1473584919103725E+00 a      1253     0    26     1     3
  5.0620798220122873E+00 a      1254     0    26     1     4
 -7.9829954509113610E-01 a      1255     0    26     1     5
 -1.5754615948379773E+00 a      1256     0    26     1     6
  3.2436704721026191E+00 a      1257     0    26     1     7
 -3.7698499129841037E+00 a      1258     0    26     1     8
  1.7236854868897975E+00 a      1259     0    26     1     9
 -2.9224615314403204E+00 a      1260     0    26     1    10
  7.0156419574832922E+00 a      1261     0    26     1    11
 -2.4663686039494554E-02 a      1262     0    26     1    12
 -1.8752755714791662E+00 a      1263     0    26     1    13
  4.1062206322339350E+00 a      1264     0    26     1    14
 -3.7745148527544647E+00 a      1265     0    26     1    15
 -7.7992334236023231E-01 a      1266     0    26     1    16
 -6.5713759188275098E+00 a      1267     0    26     1    17
  1.0375564255467159E+01 a      1268     0    26     1    18
 -1.3194816620028424E+00 a      1269     0    26     1    19
 -1.2312875072140127E-01 a      1270     0    26     1    20
 -3.4614290723749669E-01 a      1271     0    26     1    21
  1.5100070847644944E+00 a      1272     0    26     1    22
 -1.4095213929636803E+00 a      1273     0    26     1    23
 -2.3881772062263900E+00 a      1274     0    26     1    24
 -4.5138679134284780E+00 a      1275     0    26     1    25
  1.9937462198175071E+00 a      1276     0    26     1    26
  6.4646894230159351E+00 a      1277     0    26     1    27
 -7.3136775654834352E-01 a      1278     0    26     1    28
 -1.1223851683842879E+01 a      1279     0    26     1    29
 -6.2866424630321731E+00 a      1280     0    26     1    30
 -2.1392714808688256E+00 a      1281     0    26     1    31
  3.0525426461776548E+00 a      1282     0    26     1    32
 -1.7153482111305141E+00 a      1283     0    26     1    33
 -2.8338243374956114E+00 a      1284     0    26     1    34
 -7.0315522866084867E+00 a      1285     0    26     1    35
  3.3032014062774397E+00 a      1286     0    26     1    36
 -1.1086048635554735E+00 a      1287     0    26     1    37
 -4.0227525515255875E+00 a      1288     0    26     1    38
  1.0900494531996779E+01 a      1289     0    26     1    39
 -4.8413236621898674E+00 a      1290     0    26     1    40
 -1.9344957606130901E+01 a      1291     0    26     1    41
 -7.5258837851699303E+00 a      1292     0    26     1    42
 -9.0964788485053116E+00 a      1293     0    26     1    43
  5.1351323541034004E+00 a      1294     0    26     1    44
 -1.7233814938630845E+00 a      1295     0    26     1    45
 -2.0713175935921040E+00 a      1296     0    26     1    46
  1.0852440050702379E+01 a      1297     0    26     1    47
  1.8055990991450506E+00 a      1298     0    26     1    48
  4.8342309356133768E+00 a      1299     0    26     1    49
 -5.2854341007096046E+00 a      1300     0    26     1    50
 -6.4957985034550036E+00 a      1301     0    27     1     1
  6.2586297426826603E+00 a      1302     0    27     1     2
 -5.1864072635218061E+00 a      1303     0    27     1     3
 -1.4978306223860477E+01 a      1304     0    27     1     4
 -1.8321464661842626E+01 a      1305     0    27     1     5
  1.2627955216933453E+00 a      1306     0    27     1     6
 -1.8140591849685652E+01 a      1307     0    27     1     7
 -1.5532948948491823E+00 a      1308     0    27     1     8
 -9.0664863292447784E+00 a      1309     0    27     1     9
 -5.5966293670134961E+00 a      1310     0    27     1    10
 -1.6600854355473384E+01 a      1311     0    27     1    11
 -8.8527547981499293E+00 a      1312     0    27     1    12
 -2.4018194482246745E+01 a      1313     0    27     1    13
  6.5885277787932706E-01 a      1314     0    27     1    14
  3.6369331880565570E+00 a      1315     0    27     1    15
  2.5384565340286644E+00 a      1316     0    27     1    16
  1.4757649589541332E+01 a      1317     0    27     1    17
 -3.9698856207980406E+00 a      1318     0    27     1    18
  8.8496612995442216E+00 a      1319     0    27     1    19
 -1.3364717024230708E+00 a      1320     0    27     1    20
  5.4382950074016367E-01 a      1321     0    27     1    21
 -5.2438231518123786E+00 a      1322     0    27     1    22
  9.1418984338691012E-01 a      1323     0    27     1    23
  3.9562891577794952E+00 a      1324     0    27     1    24
 -1.4223732649515249E+01 a      1325     0    27     1    25
  1.8236148346610150E+01 a      1326     0    27     1    26
  2.4059320583370596E+01 a      1327     0    27     1    27
 -3.8444958977570218E+00 a      1328     0    27     1    28
 -1.5702475367691394E+01 a      1329     0    27     1    29
 -1.1957213121105132E+01 a      1330     0    27     1    30
 -1.1982903328051858E+01 a      1331     0    27     1    31
  1.1352907315167139E+01 a      1332     0    27     1    32
  7.8166004350642504E-01 a      1333     0    27     1    33
  1.2775260604931249E+01 a      1334     0    27     1    34
  1.4644655285409785E+01 a      1335     0    27     1    35
 -1.8927942708547822E+00 a      1336     0    27     1    36
 -6.3775109387874798E+00 a      1337     0    27     1    37
  9.3861958289478959E+00 a      1338     0    27     1    38
  1.6638726272755839E+01 a      1339     0    27     1    39
 -2.6898007549281555E+00 a      1340     0    27     1    40
 -5.0975969198567075E+00 a      1341     0    27     1    41
  4.7283833531367216E+00 a      1342     0    27     1    42
 -1.5214682000745226E+01 a      1343     0    27     1    43
 -8.8610863298428608E+00 a      1344     0    27     1    44
 -1.3297445170149338E+01 a      1345     0    27     1    45
  2.9025025485406997E+00 a      1346     0    27     1    46
  8.5478238831865792E+00 a      1347     0    27     1    47
  2.6405450439647917E+00 a      1348     0    27     1    48
  3.7885380849277932E+00 a      1349     0    27     1    49
 -6.6517713888304115E+00 a      1350     0    27     1    50
 -1.7715192324440132E+00 a      1351     0    28     1     1
  1.6595974181316876E+01 a      1352     0    28     1     2
 -5.4476807392113677E-02 a      1353     0    28     1     3
 -1.2018958437518869E+01 a      1354     0    28     1     4
 -3.5557311295135726E+01 a      1355     0    28     1     5
  1.4600503320289618E-01 a      1356     0    28     1     6
 -5.6233244634355621E+00 a      1357     0    28     1     7
  4.1659735043430821E+00 a      1358     0    28     1     8
 -2.0119086552034069E+01 a      1359     0    28     1     9
 -1.9491715256066784E+00 a      1360     0    28     1    10
 -8.0687644153396345E+00 a      1361     0    28     1    11
 -1.7734437161043175E+01 a      1362     0    28     1    12
 -7.9217008023557369E+00 a      1363     0    28     1    13
  3.4187584189986193E+00 a      1364     0    28     1    14
 -2.6426336635981329E+01 a      1365     0    28     1    15
  3.0805823494495755E+01 a      1366     0    28     1    16
  3.3601832142873299E+01 a      1367     0    28     1    17
 -1.4627684155531126E+01 a      1368     0    28     1    18
 -5.0734099984543427E+01 a      1369     0    28     1    19
  1.4088213013473926E+01 a      1370     0    28     1    20
  1.1977901798967013E+01 a      1371     0    28     1    21
  1.5983277602236813E+01 a      1372     0    28     1    22
  2.6439287809468581E+01 a      1373     0    28     1    23
  6.3138844965075718E+00 a      1374     0    28     1    24
 -4.7849988759741811E+00 a      1375     0    28     1    25
 -1.8827303819610091E+01 a      1376     0    28     1    26
  3.0456525789551137E+01 a      1377     0    28     1    27
 -1.0195699875956583E+01 a      1378     0    28     1    28
 -7.7443437587301256E+00 a      1379     0    28     1    29
  1.7311861075884149E+01 a      1380     0    28     1    30
  2.4234274888371048E+00 a      1381     0    28     1    31
  3.5691244415472688E+01 a      1382     0    28     1    32
 -6.2043487896058225E-01 a      1383     0    28     1    33
  8.0514259158664570E-01 a      1384     0    28     1    34
  7.2633999467038279E+00 a      1385     0    28     1    35
  3.7190586031786039E+00 a      1386     0    28     1    36
 -1.9856403293219465E+01 a      1387     0    28     1    37
  1.3755020855845410E+00 a      1388     0    28     1    38
 -4.5431971936698474E+00 a      1389     0    28     1    39
 -7.8871535391867083E+00 a      1390     0    28     1    40
 -4.1620004638412333E+01 a      1391     0    28     1    41
 -3.2934996361407187E+01 a      1392     0    28     1    42
 -4.8963023580424100E+01 a      1393     0    28     1    43
  1.5870237075782527E+00 a      1394     0    28     1    44
 -1.0937354363153432E+01 a      1395     0    28     1    45
  7.3496849252415641E-01 a      1396     0    28     1    46
  1.8274627115566606E+00 a      1397     0    28     1    47
  1.8933302410190713E+01 a      1398     0    28     1    48
  5.2974070391273944E+00 a      1399     0    28     1    49
 -1.2402954775290752E+01 a      1400     0    28     1    50
 -1.2296046071930915E-01 a      1401     0    29     1     1
  3.4544152066279756E+00 a      1402     0    29     1     2
 -2.8285989908304363E+00 a      1403     0    29     1     3
 -8.4695563075268545E+00 a      1404     0    29     1     4
 -3.6424194788718318E+00 a      1405     0    29     1     5
  1.1351026320765401E+00 a      1406     0    29     1     6
 -8.1602105246200829E-01 a      1407     0    29     1     7
  3.2756740729104625E+00 a      1408     0    29     1     8
 -3.3372761893978051E+00 a      1409     0    29     1     9
  3.3488433772953972E+00 a      1410     0    29     1    10
  1.4574103473933122E+00 a      1411     0    29     1    11
 -7.7085303597416521E+00 a      1412     0    29     1    12
 -4.7355758885364736E+00 a      1413     0    29     1    13
  7.0028643725023121E-01 a      1414     0    29     1    14
  1.1658064295224756E-01 a      1415     0    29     1    15
  5.5170270712362477E+00 a      1416     0    29     1    16
  5.8565615638324191E+00 a      1417     0    29     1    17
  2.2025854069891779E+00 a      1418     0    29     1    18
 -8.6727958940305392E+00 a      1419     0    29     1    19
  2.7390618839189300E+00 a      1420     0    29     1    20
  9.7780045484797977E+00 a      1421     0    29     1    21
 -1.2879736456230966E+00 a      1422     0    29     1    22
  2.0705999978962928E+00 a      1423     0    29     1    23
  5.4885414141793509E+00 a      1424     0    29     1    24
  4.3529248708921409E-01 a      1425     0    29     1    25
 -9.7689061779369553E+00 a      1426     0    29     1    26
 -1.4571796818470433E+00 a      1427     0    29     1    27
 -5.1192363742021714E+00 a      1428     0    29     1    28
  4.6212460804647787E-01 a      1429     0    29     1    29
  3.1864729138159995E+00 a      1430     0    29     1    30
 -2.5436115137453914E+00 a      1431     0    29     1    31
  3.0771146450378644E+00 a      1432     0    29     1    32
  1.9209535182498383E+00 a      1433     0    29     1    33
  1.6359472713353289E+00 a      1434     0    29     1    34
  1.9001733194752899E+00 a      1435     0    29     1    35
  3.7982633318424921E+00 a      1436     0    29     1    36
 -3.3725773162986394E+00 a      1437     0    29     1    37
  1.5105055055847394E+00 a      1438     0    29     1    38
  9.5818855228532895E-01 a      1439     0    29     1    39
 -1.3281842675062441E+00 a      1440     0    29     1    40
 -8.6601195925651520E-02 a      1441     0    29     1    41
 -4.6466144806162841E+00 a      1442     0    29     1    42
  2.8425636330077348E+00 a      1443     0    29     1    43
 -1.4402135869792618E+00 a      1444     0    29     1    44
 -2.1414777808347094E+00 a      1445     0    29     1    45
  2.4638328840894106E+00 a      1446     0    29     1    46
  3.1959372136820576E+00 a      1447     0    29     1    47
  5.6445847600181880E+00 a      1448     0    29     1    48
  1.3102737337631074E+00 a      1449     0    29     1    49
  1.0912492572391639E+00 a      1450     0    29     1    50
  4.1429541612048775E-03 a      1451     0    30     1     1
  3.5803308089903991E+00 a      1452     0    30     1     2
 -2.7358862409098594E+00 a      1453     0    30     1     3
 -8.4246604609080720E+00 a      1454     0    30     1     4
 -3.4860753410396188E+00 a      1455     0    30     1     5
  7.7315769333465512E-01 a      1456     0    30     1     6
 -1.0741950938763771E+00 a      1457     0    30     1     7
  3.4188787435791310E+00 a      1458     0    30     1     8
 -3.3011508070374056E+00 a      1459     0    30     1     9
  3.0287661966931680E+00 a      1460     0    30     1    10
  1.7249357031075856E+00 a      1461     0    30     1    11
 -7.3564392151084892E+00 a      1462     0    30     1    12
 -4.7378954808375306E+00 a      1463     0    30     1    13
  6.7556680508720834E-01 a      1464     0    30     1    14
  3.5296232498476704E-01 a      1465     0    30     1    15
  5.4617220594871840E+00 a      1466     0    30     1    16
  5.9907814896377287E+00 a      1467     0    30     1    17
  1.8887338294723672E+00 a      1468     0    30     1    18
 -8.7306362847367307E+00 a      1469     0    30     1    19
  2.8241587630091560E+00 a      1470     0    30     1    20
  1.0033230744136906E+01 a      1471     0    30     1    21
 -1.3410414522753060E+00 a      1472     0    30     1    22
  1.8704957680931853E+00 a      1473     0    30     1    23
  5.6819411120195875E+00 a      1474     0    30     1    24
  3.1386636441171317E-01 a      1475     0    30     1    25
 -9.6822466780796255E+00 a      1476     0    30     1    26
 -1.2825614993093299E+00 a      1477     0    30     1    27
 -5.1822905043382477E+00 a      1478     0    30     1    28
  1.9466711365227118E-01 a      1479     0    30     1    29
  3.3888127155412970E+00 a      1480     0    30     1    30
 -2.5534009355325256E+00 a      1481     0    30     1    31
  2.7242794308163991E+00 a      1482     0    30     1    32
  1.6945755595905727E+00 a      1483     0    30     1    33
  1.7126959800131747E+00 a      1484     0    30     1    34
  1.9527907594911225E+00 a      1485     0    30     1    35
  4.0255242233562507E+00 a      1486     0    30     1    36
 -3.5591382833549696E+00 a      1487     0    30     1    37
  1.3592056297685398E+00 a      1488     0    30     1    38
  1.0402122400031584E+00 a      1489     0    30     1    39
 -1.3440250108714875E+00 a      1490     0    30     1    40
 -1.9227376711613568E-02 a      1491     0    30     1    41
 -5.0052183355299258E+00 a      1492     0    30     1    42
  3.0079681231325632E+00 a      1493     0    30     1    43
 -1.6724275220212963E+00 a      1494     0    30     1    44
 -1.9000238456586807E+00 a      1495     0    30     1    45
  2.1231281021924677E+00 a      1496     0    30     1    46
  3.2154797043335943E+00 a      1497     0    30     1    47
  5.2818963636501790E+00 a      1498     0    30     1    48
  1.0894118770577266E+00 a      1499     0    30     1    49
  1.1506488067527469E+00 a      1500     0    30     1    50
 -2.2330448915466237E+00 a      1501     0    31     1     1
 -3.7349331506245814E-01 a      1502     0    31     1     2
  1.7382676219321247E+00 a      1503     0    31     1     3
  3.6711685841882327E+00 a      1504     0    31     1     4
  2.1957754447734215E+00 a      1505     0    31     1     5
  1.5426548569060072E+00 a      1506     0    31     1     6
 -2.4147869155735444E+00 a      1507     0    31     1     7
  7.0786355315544531E+00 a      1508     0    31     1     8
 -2.2699741786372112E+00 a      1509     0    31     1     9
 -3.2155785219269156E-01 a      1510     0    31     1    10
 -3.7197639321925702E+00 a      1511     0    31     1    11
 -3.5408750821055768E+00 a      1512     0    31     1    12
  1.2301537486732221E+00 a      1513     0    31     1    13
 -2.3054870722201342E+00 a      1514     0    31     1    14
  7.3619545244689926E+00 a      1515     0    31     1    15
  2.0923674800393677E+00 a      1516     0    31     1    16
 -1.4589513741026900E+00 a      1517     0    31     1    17
 -3.6428742550350659E+00 a      1518     0    31     1    18
  1.3166084642272702E+00 a      1519     0    31     1    19
 -5.0905008804527778E+00 a      1520     0    31     1    20
 -3.9671969253740363E-02 a      1521     0    31     1    21
  4.5093397576882444E+00 a      1522     0    31     1    22
  3.6567755303532725E+00 a      1523     0    31     1    23
  2.9713319914508269E+00 a      1524     0    31     1    24
 -2.1007613644191951E+00 a      1525     0    31     1    25
 -1.0693227339579484E-01 a      1526     0    31     1    26
 -4.1500975103565674E+00 a      1527     0    31     1    27
 -1.1765547087104753E+00 a      1528     0    31     1    28
  3.5850601391603156E+00 a      1529     0    31     1    29
  2.4837879075653024E+00 a      1530     0    31     1    30
 -1.7352706045511022E+00 a      1531     0    31     1    31
 -5.1986942036462862E+00 a      1532     0    31     1    32
 -5.0697394718388733E-01 a      1533     0    31     1    33
 -3.2629443150212096E+00 a      1534     0    31     1    34
 -1.2185415201881944E+00 a      1535     0    31     1    35
  2.3597887207845725E+00 a      1536     0    31     1    36
 -2.2071722582423572E+00 a      1537     0    31     1    37
 -1.9747744285072593E+00 a      1538     0    31     1    38
 -6.0950314002605275E+00 a      1539     0    31     1    39
  5.7287837738199281E+00 a      1540     0    31     1    40
  4.0015829339286801E+00 a      1541     0    31     1    41
  5.8314786532592233E+00 a      1542     0    31     1    42
 -1.5086653118106823E+00 a      1543     0    31     1    43
  5.7541736934080792E+00 a      1544     0    31     1    44
 -9.4169876264376762E-01 a      1545     0    31     1    45
 -5.6599132410089164E+00 a      1546     0    31     1    46
 -2.0037370307025575E+00 a      1547     0    31     1    47
  5.6721107363260392E+00 a      1548     0    31     1    48
 -2.0152290538641138E+00 a      1549     0    31     1    49
 -2.0485383376704847E+00 a      1550     0    31     1    50
 -2.2949246056281560E+00 a      1551     0    32     1     1
 -8.9899475670778134E-02 a      1552     0    32     1     2
  1.8714555197138163E+00 a      1553     0    32     1     3
  3.4236320924316033E+00 a      1554     0    32     1     4
  2.5008995692047500E+00 a      1555     0    32     1     5
  1.8474683466945723E+00 a      1556     0    32     1     6
 -2.5156071236775475E+00 a      1557     0    32     1     7
  7.2798128802044939E+00 a      1558     0    32     1     8
 -2.2179124257003200E+00 a      1559     0    32     1     9
 -4.9903901082302743E-01 a      1560     0    32     1    10
 -3.5918113541474033E+00 a      1561     0    32     1    11
 -3.4995411734918069E+00 a      1562     0    32     1    12
  1.4324715809937307E+00 a      1563     0    32     1    13
 -2.3599257182117532E+00 a      1564     0    32     1    14
  7.5980404061379643E+00 a      1565     0    32     1    15
  2.3393918409329588E+00 a      1566     0    32     1    16
 -1.5937729419093525E+00 a      1567     0    32     1    17
 -3.3272323623743207E+00 a      1568     0    32     1    18
  1.3945178031518732E+00 a      1569     0    32     1    19
 -5.0579303390789585E+00 a      1570     0    32     1    20
  9.4645233100465340E-02 a      1571     0    32     1    21
  4.3629472371683269E+00 a      1572     0    32     1    22
  3.7885853505728937E+00 a      1573     0    32     1    23
  3.1744702112659975E+00 a      1574     0    32     1    24
 -1.7723898046556394E+00 a      1575     0    32     1    25
  7.5746567588522273E-02 a      1576     0    32     1    26
 -4.3104951357512054E+00 a      1577     0    32     1    27
 -1.1769219290129174E+00 a      1578     0    32     1    28
  3.1553799840117360E+00 a      1579     0    32     1    29
  2.4902145369954907E+00 a      1580     0    32     1    30
 -1.5480608816906283E+00 a      1581     0    32     1    31
 -5.2925101786472668E+00 a      1582     0    32     1    32
 -5.0696042562954302E-01 a      1583     0    32     1    33
 -3.3072968552773130E+00 a      1584     0    32     1    34
 -8.5916731817099978E-01 a      1585     0    32     1    35
  2.6171055728239305E+00 a      1586     0    32     1    36
 -2.4638985627396854E+00 a      1587     0    32     1    37
 -1.8650420700379999E+00 a      1588     0    32     1    38
 -5.9882703809003512E+00 a      1589     0    32     1    39
  5.6546512409402112E+00 a      1590     0    32     1    40
  3.9364511511250422E+00 a      1591     0    32     1    41
  5.5031249509830023E+00 a      1592     0    32     1    42
 -1.3934460226236960E+00 a      1593     0    32     1    43
  5.6999446795231057E+00 a      1594     0    32     1    44
 -1.3718469461266167E+00 a      1595     0    32     1    45
 -5.9312294599505604E+00 a      1596     0    32     1    46
 -2.1471631885044564E+00 a      1597     0    32     1    47
  5.4931531708880410E+00 a      1598     0    32     1    48
 -1.7864475851029644E+00 a      1599     0    32     1    49
 -2.1866715765748421E+00 a      1600     0    32     1    50
  4.9765670219059244E+00 a      1601     0    33     1     1
 -5.9035705692734117E+00 a      1602     0    33     1     2
  3.1973973366891246E+00 a      1603     0    33     1     3
 -1.6443903136537932E-01 a      1604     0    33     1     4
  2.2102511618489431E+00 a      1605     0    33     1     5
  2.6673842808176476E+00 a      1606     0    33     1     6
  2.0131805321560652E+00 a      1607     0    33     1     7
 -2.7945831764700602E+00 a      1608     0    33     1     8
  1.0739547618210533E+01 a      1609     0    33     1     9
 -1.1435526131274838E+01 a      1610     0    33     1    10
  1.2363348229902101E+01 a      1611     0    33     1    11
  1.9682985569116784E+01 a      1612     0    33     1    12
  7.4112863739354768E+00 a      1613     0    33     1    13
  2.0854813850512377E+00 a      1614     0    33     1    14
 -5.2161442247994447E+00 a      1615     0    33     1    15
 -1.6334513479099702E+01 a      1616     0    33     1    16
 -9.7970766153304005E+00 a      1617     0    33     1    17
 -4.2767387949552118E+00 a      1618     0    33     1    18
  2.7767050794359932E+01 a      1619     0    33     1    19
  3.6002869803452500E+00 a      1620     0    33     1    20
 -1.3583327973312562E+01 a      1621     0    33     1    21
 -1.7380629951272555E+00 a      1622     0    33     1    22
 -4.4049453301290109E+00 a      1623     0    33     1    23
