################################################################################
# Neural network connection values (weights and biases).
################################################################################
# Col  Name       Description
################################################################################
# 1    connection Neural network connection value.
# 2    t          Connection type (a = weight, b = bias).
# 3    index      Index enumerating weights.
# 4    l_s        Starting point layer (end point layer for biases).
# 5    n_s        Starting point neuron in starting layer (end point neuron for biases).
# 6    l_e        End point layer.
# 7    n_e        End point neuron in end layer.
################################################################################
#                      1 2         3     4     5     6     7
#             connection t     index   l_s   n_s   l_e   n_e
############################################################
  5.4680486666267756E+00 a         1     0     1     1     1
 -5.4340705771993880E+00 a         2     0     1     1     2
 -2.0842647342667626E+00 a         3     0     1     1     3
  2.9389283598812828E+00 a         4     0     1     1     4
 -4.0222247675063372E+00 a         5     0     1     1     5
 -3.2910421711839366E-01 a         6     0     1     1     6
 -6.7635550516538121E+00 a         7     0     1     1     7
 -6.6683829732119673E+00 a         8     0     1     1     8
 -1.5617983784173814E+01 a         9     0     1     1     9
  2.8480290744504191E+00 a        10     0     1     1    10
 -4.1297850820271389E+00 a        11     0     1     1    11
  1.2582204456649903E+01 a        12     0     1     1    12
 -1.3825603706748726E+01 a        13     0     1     1    13
  7.4857265207272290E+00 a        14     0     1     1    14
 -4.1122187052765176E+00 a        15     0     1     1    15
 -8.9980454303930046E-01 a        16     0     1     1    16
  9.8581507478925197E+00 a        17     0     1     1    17
 -3.1048857503007450E+00 a        18     0     1     1    18
  3.4077183891644967E+00 a        19     0     1     1    19
  2.4356632670160295E+01 a        20     0     1     1    20
  3.4037972789143947E+00 a        21     0     1     1    21
 -3.0906764473586517E+00 a        22     0     1     1    22
  8.5350679826117268E+00 a        23     0     1     1    23
  1.6397849583004902E+01 a        24     0     1     1    24
 -6.5597716672237005E-01 a        25     0     1     1    25
  1.7530117231111984E+00 a        26     0     1     1    26
 -7.4775088303064825E+00 a        27     0     1     1    27
  1.3982937772021192E+01 a        28     0     1     1    28
 -9.4215499037482111E+00 a        29     0     1     1    29
  1.3732614183690773E+01 a        30     0     1     1    30
  9.3287771116390883E-01 a        31     0     1     1    31
  1.1673697986423601E+00 a        32     0     1     1    32
 -1.5274224129140981E+00 a        33     0     1     1    33
  1.1437927041113085E+00 a        34     0     1     1    34
 -6.3753538611214122E-01 a        35     0     1     1    35
  2.3851234282566205E+00 a        36     0     1     1    36
 -4.5456216944084762E+00 a        37     0     1     1    37
  1.5620460183461511E+00 a        38     0     1     1    38
 -1.3694732861906966E+00 a        39     0     1     1    39
 -6.0644447905799401E+00 a        40     0     1     1    40
 -6.8069868475374964E+00 a        41     0     1     1    41
  8.3039207316785841E+00 a        42     0     1     1    42
  1.0126567467863735E+01 a        43     0     1     1    43
 -1.5799441708627752E+01 a        44     0     1     1    44
  2.2438466202779949E+01 a        45     0     1     1    45
 -6.0011371589309692E-01 a        46     0     1     1    46
  7.9406376370534171E-01 a        47     0     1     1    47
  6.7287265956280509E+00 a        48     0     1     1    48
  4.2538164661536717E+00 a        49     0     1     1    49
  1.1795769808183325E+01 a        50     0     1     1    50
  4.5531767771802212E+00 a        51     0     2     1     1
 -4.4286815601701832E+00 a        52     0     2     1     2
 -3.0012195854017905E+00 a        53     0     2     1     3
  2.4920898426934404E+00 a        54     0     2     1     4
 -4.3677979621004841E+00 a        55     0     2     1     5
 -1.7830065107485316E-01 a        56     0     2     1     6
 -5.9043354865818616E+00 a        57     0     2     1     7
 -6.6607782751102738E+00 a        58     0     2     1     8
 -1.3359861534470715E+01 a        59     0     2     1     9
  2.3317031309028393E+00 a        60     0     2     1    10
 -3.6072869756376074E+00 a        61     0     2     1    11
  1.1472189622063690E+01 a        62     0     2     1    12
 -1.2868216931217646E+01 a        63     0     2     1    13
  8.1298645015172646E+00 a        64     0     2     1    14
 -4.5889007897700376E+00 a        65     0     2     1    15
 -9.3974065390788253E-01 a        66     0     2     1    16
  9.5168367337015365E+00 a        67     0     2     1    17
 -1.7224294644695137E+00 a        68     0     2     1    18
  3.8654948735420436E+00 a        69     0     2     1    19
  2.2011514672974872E+01 a        70     0     2     1    20
  2.7566238555293183E+00 a        71     0     2     1    21
 -3.9105720060017588E+00 a        72     0     2     1    22
  8.4283549954515777E+00 a        73     0     2     1    23
  1.4127419706455564E+01 a        74     0     2     1    24
 -1.1144568613485597E+00 a        75     0     2     1    25
  1.9189275076033270E+00 a        76     0     2     1    26
 -7.1557229837306098E+00 a        77     0     2     1    27
  1.4162916615542489E+01 a        78     0     2     1    28
 -7.2749293120709142E+00 a        79     0     2     1    29
  1.2140643869202698E+01 a        80     0     2     1    30
  1.2325773000135751E+00 a        81     0     2     1    31
  1.6319701006732699E+00 a        82     0     2     1    32
 -1.2810424490554451E+00 a        83     0     2     1    33
  1.3001848153083628E+00 a        84     0     2     1    34
 -5.9211883858207992E-01 a        85     0     2     1    35
  1.7663130551828439E+00 a        86     0     2     1    36
 -3.6933848930969400E+00 a        87     0     2     1    37
  1.9339836726484496E+00 a        88     0     2     1    38
 -1.3219316423338263E+00 a        89     0     2     1    39
 -4.1577665617187600E+00 a        90     0     2     1    40
 -6.5349748212707155E+00 a        91     0     2     1    41
  7.0703952665847840E+00 a        92     0     2     1    42
  8.0643178615173028E+00 a        93     0     2     1    43
 -1.3667571305429785E+01 a        94     0     2     1    44
  1.9458775437053841E+01 a        95     0     2     1    45
 -2.2378761681117584E-01 a        96     0     2     1    46
  7.7620223936770860E-01 a        97     0     2     1    47
  7.0434133245179762E+00 a        98     0     2     1    48
  3.8086264677021577E+00 a        99     0     2     1    49
  9.0398341827205666E+00 a       100     0     2     1    50
  7.1939290563490150E+00 a       101     0     3     1     1
 -7.3522126443235658E+00 a       102     0     3     1     2
  7.3713557295304821E-01 a       103     0     3     1     3
  4.6754668907912018E+00 a       104     0     3     1     4
 -9.8351242296902919E-01 a       105     0     3     1     5
  9.8143672383760971E-01 a       106     0     3     1     6
 -7.1211613213318197E+00 a       107     0     3     1     7
 -3.7758322800258179E+00 a       108     0     3     1     8
 -1.8013723790774453E+01 a       109     0     3     1     9
  3.8830185908706230E+00 a       110     0     3     1    10
 -3.2905379251891014E+00 a       111     0     3     1    11
  1.1546216691501586E+01 a       112     0     3     1    12
 -1.3676208510697066E+01 a       113     0     3     1    13
  2.9794632435555197E+00 a       114     0     3     1    14
 -1.9433509831740134E+00 a       115     0     3     1    15
  2.1513255477106485E-01 a       116     0     3     1    16
  7.0893743850616273E+00 a       117     0     3     1    17
 -6.3909841394176778E+00 a       118     0     3     1    18
  1.7584056387977125E+00 a       119     0     3     1    19
  2.1937011320701551E+01 a       120     0     3     1    20
  3.4429248201201181E+00 a       121     0     3     1    21
  7.1910374290592338E-01 a       122     0     3     1    22
  7.0530988635902467E+00 a       123     0     3     1    23
  1.8489493495286766E+01 a       124     0     3     1    24
  1.9263069460081466E+00 a       125     0     3     1    25
  9.7874826920947855E-01 a       126     0     3     1    26
 -6.4300578097628103E+00 a       127     0     3     1    27
  8.9023060135933942E+00 a       128     0     3     1    28
 -1.2777820604305507E+01 a       129     0     3     1    29
  1.5785116426124821E+01 a       130     0     3     1    30
  2.7716002667619366E-01 a       131     0     3     1    31
 -7.6790997800098215E-01 a       132     0     3     1    32
 -1.5647338654698175E+00 a       133     0     3     1    33
  4.0833441229240008E-01 a       134     0     3     1    34
  4.6331146685472685E-01 a       135     0     3     1    35
  2.6605166232003423E+00 a       136     0     3     1    36
 -5.9207713870736880E+00 a       137     0     3     1    37
 -5.3366178563528222E-01 a       138     0     3     1    38
 -5.2386430963370478E-01 a       139     0     3     1    39
 -9.8086069988839455E+00 a       140     0     3     1    40
 -5.7556816343085213E+00 a       141     0     3     1    41
  1.0692003098934155E+01 a       142     0     3     1    42
  1.3436463917951020E+01 a       143     0     3     1    43
 -1.7974793436939350E+01 a       144     0     3     1    44
  2.3483777171846821E+01 a       145     0     3     1    45
 -9.6331991917732329E-01 a       146     0     3     1    46
 -9.5869558710799760E-02 a       147     0     3     1    47
  3.5244952486848695E+00 a       148     0     3     1    48
  4.4329761283428057E+00 a       149     0     3     1    49
  1.6669342435295668E+01 a       150     0     3     1    50
 -3.1135822583512263E+00 a       151     0     4     1     1
  2.1127235018996737E+00 a       152     0     4     1     2
 -5.3738819780902070E+00 a       153     0     4     1     3
 -2.8431465666721230E+00 a       154     0     4     1     4
 -4.2398254065779337E+00 a       155     0     4     1     5
 -1.6129657596874751E+00 a       156     0     4     1     6
 -1.7151265317149067E-01 a       157     0     4     1     7
 -4.6090451460748234E+00 a       158     0     4     1     8
  1.7994583333729999E+00 a       159     0     4     1     9
 -1.1976038375183380E+00 a       160     0     4     1    10
 -2.8780021174207898E-01 a       161     0     4     1    11
  1.6313997280221266E+00 a       162     0     4     1    12
 -3.9972039400042203E-01 a       163     0     4     1    13
  8.9922622558298002E+00 a       164     0     4     1    14
 -3.7331514195871898E+00 a       165     0     4     1    15
 -9.8088901834606246E-01 a       166     0     4     1    16
  4.0206698491132595E+00 a       167     0     4     1    17
  5.1234613632057107E+00 a       168     0     4     1    18
  3.3524441732951931E+00 a       169     0     4     1    19
  1.5518307817778172E+00 a       170     0     4     1    20
 -5.8239121978404873E-01 a       171     0     4     1    21
 -4.7103798579296976E+00 a       172     0     4     1    22
  4.1247879058612869E+00 a       173     0     4     1    23
 -2.8405369969419372E+00 a       174     0     4     1    24
 -2.2989999260767369E+00 a       175     0     4     1    25
 -3.4840167760728714E-02 a       176     0     4     1    26
 -2.0546280958901599E+00 a       177     0     4     1    27
  8.9061038615611459E+00 a       178     0     4     1    28
  4.1452549885324244E+00 a       179     0     4     1    29
 -1.8140844125655400E+00 a       180     0     4     1    30
  2.8980437058937620E+00 a       181     0     4     1    31
  3.3741447728245335E+00 a       182     0     4     1    32
  2.2305501228331889E-01 a       183     0     4     1    33
  9.2718513247946632E-01 a       184     0     4     1    34
 -1.6357448157960508E+00 a       185     0     4     1    35
 -3.7995047974967999E-02 a       186     0     4     1    36
  2.0535342218952661E+00 a       187     0     4     1    37
  2.7386718408615875E+00 a       188     0     4     1    38
 -1.4729587682596166E+00 a       189     0     4     1    39
  6.5152468022819310E+00 a       190     0     4     1    40
 -2.2138556451922584E+00 a       191     0     4     1    41
 -3.3560787883508216E+00 a       192     0     4     1    42
 -4.7394155958125248E+00 a       193     0     4     1    43
  2.4925699091072224E+00 a       194     0     4     1    44
 -1.3953561057883894E+00 a       195     0     4     1    45
 -1.4242730394128458E-01 a       196     0     4     1    46
  1.6916605067212316E+00 a       197     0     4     1    47
  6.9671826635843415E+00 a       198     0     4     1    48
 -2.8788458268355371E-01 a       199     0     4     1    49
 -6.1479893196188984E+00 a       200     0     4     1    50
  1.0915178095627835E+01 a       201     0     5     1     1
 -1.0935789636391632E+01 a       202     0     5     1     2
  6.0433676771070592E+00 a       203     0     5     1     3
  7.9348974354250066E+00 a       204     0     5     1     4
  3.1291399378095575E+00 a       205     0     5     1     5
  3.2814812931407675E+00 a       206     0     5     1     6
 -8.3216906508493587E+00 a       207     0     5     1     7
  2.4741647234976369E-01 a       208     0     5     1     8
 -2.3082964035617227E+01 a       209     0     5     1     9
  5.8145852651113339E+00 a       210     0     5     1    10
 -3.1645524257636151E+00 a       211     0     5     1    11
  1.1554825263412571E+01 a       212     0     5     1    12
 -1.5026104869051727E+01 a       213     0     5     1    13
 -4.3614282960741679E+00 a       214     0     5     1    14
  2.2742456160274589E+00 a       215     0     5     1    15
  1.2147431387059269E+00 a       216     0     5     1    16
  4.3933670693153424E+00 a       217     0     5     1    17
 -1.2663089430513637E+01 a       218     0     5     1    18
 -6.2217575479495946E-01 a       219     0     5     1    19
  2.0715394272640374E+01 a       220     0     5     1    20
  4.6138641344212470E+00 a       221     0     5     1    21
  6.5814129851750458E+00 a       222     0     5     1    22
  4.8115675428740818E+00 a       223     0     5     1    23
  2.4263167601983405E+01 a       224     0     5     1    24
  6.1729236600168731E+00 a       225     0     5     1    25
  2.5115077477063874E-01 a       226     0     5     1    26
 -6.2574640396815182E+00 a       227     0     5     1    27
  1.1598715057469786E+00 a       228     0     5     1    28
 -1.8264192646508700E+01 a       229     0     5     1    29
  2.0456981417449253E+01 a       230     0     5     1    30
 -1.6101158650979257E+00 a       231     0     5     1    31
 -3.9966888294256169E+00 a       232     0     5     1    32
 -2.0347357559768997E+00 a       233     0     5     1    33
 -2.0601092075735575E-01 a       234     0     5     1    34
  2.9232784441279707E+00 a       235     0     5     1    35
  3.4444679806131742E+00 a       236     0     5     1    36
 -8.6654504351671164E+00 a       237     0     5     1    37
 -3.9884693602760848E+00 a       238     0     5     1    38
  6.0063315083489360E-02 a       239     0     5     1    39
 -1.7413434778702950E+01 a       240     0     5     1    40
 -5.2348931757277812E+00 a       241     0     5     1    41
  1.6495372526629854E+01 a       242     0     5     1    42
  1.9857720758966110E+01 a       243     0     5     1    43
 -2.3211854740101167E+01 a       244     0     5     1    44
  2.8158975987824899E+01 a       245     0     5     1    45
 -9.7851625456719926E-01 a       246     0     5     1    46
 -1.7852993235534407E+00 a       247     0     5     1    47
 -1.5757729638959566E+00 a       248     0     5     1    48
  4.5810155382580486E+00 a       249     0     5     1    49
  2.5758784871754109E+01 a       250     0     5     1    50
 -1.3883076088435375E+01 a       251     0     6     1     1
  1.2032291759515614E+01 a       252     0     6     1     2
 -8.3183982144313866E+00 a       253     0     6     1     3
 -1.0919133447154680E+01 a       254     0     6     1     4
 -2.4546210258073220E+00 a       255     0     6     1     5
 -3.3044867196817225E+00 a       256     0     6     1     6
  8.1437479348463064E+00 a       257     0     6     1     7
 -8.0001068035127387E-01 a       258     0     6     1     8
  2.4686945009235465E+01 a       259     0     6     1     9
 -6.3529317700584969E+00 a       260     0     6     1    10
  4.3911156816355987E+00 a       261     0     6     1    11
 -1.2931269620655263E+01 a       262     0     6     1    12
  1.7585740192177479E+01 a       263     0     6     1    13
  1.0070528809557057E+01 a       264     0     6     1    14
 -2.2153841636233724E+00 a       265     0     6     1    15
 -7.4553947742508797E-01 a       266     0     6     1    16
 -4.5554555691718841E+00 a       267     0     6     1    17
  1.4467948623347729E+01 a       268     0     6     1    18
  2.2243123991147016E+00 a       269     0     6     1    19
 -2.8847496895767343E+01 a       270     0     6     1    20
 -6.3492054614326703E+00 a       271     0     6     1    21
 -6.3118473175406535E+00 a       272     0     6     1    22
 -2.7818219796520465E+00 a       273     0     6     1    23
 -2.7994225239256760E+01 a       274     0     6     1    24
 -3.4084880285495522E+00 a       275     0     6     1    25
 -3.3309217295473452E+00 a       276     0     6     1    26
  5.9268777689379517E+00 a       277     0     6     1    27
  9.1204025366923669E-01 a       278     0     6     1    28
  2.1299817702959228E+01 a       279     0     6     1    29
 -2.2203282235383163E+01 a       280     0     6     1    30
  4.3367916542710852E+00 a       281     0     6     1    31
  5.4336090894860325E+00 a       282     0     6     1    32
  1.9362605735744975E+00 a       283     0     6     1    33
  7.1506627670734424E-01 a       284     0     6     1    34
 -3.4622957248494508E+00 a       285     0     6     1    35
 -3.0104234014797031E+00 a       286     0     6     1    36
  1.0307823391720580E+01 a       287     0     6     1    37
  4.1643230222916108E+00 a       288     0     6     1    38
 -1.5230119907739150E+00 a       289     0     6     1    39
  2.1794458415008151E+01 a       290     0     6     1    40
  5.2405657738908031E+00 a       291     0     6     1    41
 -1.8776751956646049E+01 a       292     0     6     1    42
 -2.3477303286817520E+01 a       293     0     6     1    43
  2.6164295994035335E+01 a       294     0     6     1    44
 -3.2264463396649873E+01 a       295     0     6     1    45
 -3.2491272049070524E-01 a       296     0     6     1    46
  2.7519450638736047E+00 a       297     0     6     1    47
  6.8710561718999683E+00 a       298     0     6     1    48
 -5.5625452108720834E+00 a       299     0     6     1    49
 -2.7598260006693483E+01 a       300     0     6     1    50
  8.3725783334711696E+00 a       301     0     7     1     1
 -7.7691270574772568E+00 a       302     0     7     1     2
  8.9484279323341056E+00 a       303     0     7     1     3
  7.8994468636679080E+00 a       304     0     7     1     4
  4.5765591082371584E+00 a       305     0     7     1     5
  6.0044085020745994E+00 a       306     0     7     1     6
 -4.8766479648167342E+00 a       307     0     7     1     7
  4.3647664948315388E+00 a       308     0     7     1     8
 -1.8069988651429416E+01 a       309     0     7     1     9
  5.1067046813933494E+00 a       310     0     7     1    10
 -1.2077260461351966E+00 a       311     0     7     1    11
  6.5934799761261162E+00 a       312     0     7     1    12
 -8.9551046780474177E+00 a       313     0     7     1    13
 -7.6798003500774117E+00 a       314     0     7     1    14
  5.2711658241590831E+00 a       315     0     7     1    15
  2.4110396532093352E+00 a       316     0     7     1    16
  1.7622469352764123E+00 a       317     0     7     1    17
 -1.3767203279980627E+01 a       318     0     7     1    18
 -2.2002652799950861E+00 a       319     0     7     1    19
  9.0435283681646919E+00 a       320     0     7     1    20
  4.6251861192520174E+00 a       321     0     7     1    21
  1.1665524137781688E+01 a       322     0     7     1    22
  1.0912844335629892E+00 a       323     0     7     1    23
  1.9762973882426202E+01 a       324     0     7     1    24
  7.2488961652248074E+00 a       325     0     7     1    25
 -7.4370800596591247E-01 a       326     0     7     1    26
 -4.2042474594427333E+00 a       327     0     7     1    27
 -6.2082648063263637E+00 a       328     0     7     1    28
 -1.4764497294977417E+01 a       329     0     7     1    29
  1.5331570039539729E+01 a       330     0     7     1    30
 -1.5408069515912100E+00 a       331     0     7     1    31
 -5.0223161180374660E+00 a       332     0     7     1    32
 -1.2929008952761050E+00 a       333     0     7     1    33
  4.3414982591083029E-01 a       334     0     7     1    34
  4.6260105362496455E+00 a       335     0     7     1    35
  1.4824844137843387E+00 a       336     0     7     1    36
 -7.4755611991814632E+00 a       337     0     7     1    37
 -6.2704852237688034E+00 a       338     0     7     1    38
  9.1244154332645844E-01 a       339     0     7     1    39
 -1.6945605047718050E+01 a       340     0     7     1    40
 -2.7641795353672629E+00 a       341     0     7     1    41
  1.7034811098248607E+01 a       342     0     7     1    42
  1.7680611590043394E+01 a       343     0     7     1    43
 -1.7746424906128873E+01 a       344     0     7     1    44
  1.9764850263589469E+01 a       345     0     7     1    45
 -1.0663321215944110E+00 a       346     0     7     1    46
 -2.4666171158153243E+00 a       347     0     7     1    47
 -4.8084092238186908E+00 a       348     0     7     1    48
  2.1566068483438845E+00 a       349     0     7     1    49
  2.1700372099455087E+01 a       350     0     7     1    50
 -1.6218924682371295E+01 a       351     0     8     1     1
  1.4490158860483197E+01 a       352     0     8     1     2
 -9.2055359828601127E+00 a       353     0     8     1     3
 -1.3762328412663805E+01 a       354     0     8     1     4
 -4.8432825696980281E-01 a       355     0     8     1     5
 -5.3154986398081627E+00 a       356     0     8     1     6
  1.0533866265816782E+01 a       357     0     8     1     7
  1.5112894615855998E+00 a       358     0     8     1     8
  3.3328114820927553E+01 a       359     0     8     1     9
 -8.4581187333653904E+00 a       360     0     8     1    10
  6.8207051290027136E+00 a       361     0     8     1    11
 -1.9115333848714180E+01 a       362     0     8     1    12
  2.4238373111641341E+01 a       363     0     8     1    13
  7.2623178010748406E+00 a       364     0     8     1    14
 -3.9974729614279489E-02 a       365     0     8     1    15
 -7.6180007430861862E-01 a       366     0     8     1    16
 -9.2864908046595520E+00 a       367     0     8     1    17
  1.6711806761717249E+01 a       368     0     8     1    18
  1.4968416832875000E+00 a       369     0     8     1    19
 -4.1435240744845409E+01 a       370     0     8     1    20
 -9.1063682125291034E+00 a       371     0     8     1    21
 -7.5200233297686392E+00 a       372     0     8     1    22
 -7.0502201647104314E+00 a       373     0     8     1    23
 -3.7606853933520632E+01 a       374     0     8     1    24
 -2.6841625519950312E+00 a       375     0     8     1    25
 -4.2260078967083343E+00 a       376     0     8     1    26
  1.0248022877870305E+01 a       377     0     8     1    27
 -4.6634624160568423E+00 a       378     0     8     1    28
  2.6673010993499275E+01 a       379     0     8     1    29
 -2.9424016084892507E+01 a       380     0     8     1    30
  3.4064438451305343E+00 a       381     0     8     1    31
  4.9972827789968894E+00 a       382     0     8     1    32
  2.8914254126397694E+00 a       383     0     8     1    33
  3.4910132961747747E-01 a       384     0     8     1    34
 -3.7485816178361073E+00 a       385     0     8     1    35
 -3.8612556850293611E+00 a       386     0     8     1    36
  1.2100833102978648E+01 a       387     0     8     1    37
  4.4937430405268390E+00 a       388     0     8     1    38
 -1.8845170276226060E+00 a       389     0     8     1    39
  2.6974700496186532E+01 a       390     0     8     1    40
  9.4546916066160502E+00 a       391     0     8     1    41
 -2.5553337504082972E+01 a       392     0     8     1    42
 -2.9121187598583791E+01 a       393     0     8     1    43
  3.4473692185015373E+01 a       394     0     8     1    44
 -4.3188970258154626E+01 a       395     0     8     1    45
 -5.6887557035909947E-02 a       396     0     8     1    46
  2.4266844171321473E+00 a       397     0     8     1    47
  4.6251739111442722E+00 a       398     0     8     1    48
 -6.6750450994250237E+00 a       399     0     8     1    49
 -3.3819678368143407E+01 a       400     0     8     1    50
 -1.6092933283942969E+01 a       401     0     9     1     1
  1.3325478135022966E+01 a       402     0     9     1     2
  5.2917352398800661E+00 a       403     0     9     1     3
 -5.0531439689754301E+00 a       404     0     9     1     4
  2.7118080719012294E+00 a       405     0     9     1     5
  8.6006865812433340E+00 a       406     0     9     1     6
  1.4163008499919300E+01 a       407     0     9     1     7
  1.2432427911906366E+01 a       408     0     9     1     8
  2.4898488756393597E+01 a       409     0     9     1     9
 -3.9282899052019133E+00 a       410     0     9     1    10
  7.3614928067223957E+00 a       411     0     9     1    11
 -1.9813009131782177E+01 a       412     0     9     1    12
  2.5369540113709736E+01 a       413     0     9     1    13
 -1.9746612486226416E+00 a       414     0     9     1    14
  5.4738419858218155E+00 a       415     0     9     1    15
  3.7844339590958533E+00 a       416     0     9     1    16
 -1.1040277107020403E+01 a       417     0     9     1    17
  6.0337417058686986E+00 a       418     0     9     1    18
 -3.5265538451979022E+00 a       419     0     9     1    19
 -4.9402173946477177E+01 a       420     0     9     1    20
 -2.9057171700541455E+00 a       421     0     9     1    21
  1.3810105934688270E+01 a       422     0     9     1    22
 -7.4014595478208474E+00 a       423     0     9     1    23
 -2.6674230718826507E+01 a       424     0     9     1    24
  2.6128409158395298E+00 a       425     0     9     1    25
 -6.2659285244898211E+00 a       426     0     9     1    26
  7.4537962757205172E+00 a       427     0     9     1    27
 -2.1111501816771263E+01 a       428     0     9     1    28
  1.8581471710926685E+01 a       429     0     9     1    29
 -2.5831522597173997E+01 a       430     0     9     1    30
  5.5038664967262543E+00 a       431     0     9     1    31
 -6.2309133229659364E-01 a       432     0     9     1    32
  2.8990569501914512E+00 a       433     0     9     1    33
  1.0460404725945296E+00 a       434     0     9     1    34
  3.3362004558786031E+00 a       435     0     9     1    35
 -5.9901811460359573E+00 a       436     0     9     1    36
  1.0727225463195218E+01 a       437     0     9     1    37
 -6.6322846075973372E+00 a       438     0     9     1    38
  2.3309369428488216E+00 a       439     0     9     1    39
  1.1255221137782621E+01 a       440     0     9     1    40
  6.4880126649764787E+00 a       441     0     9     1    41
 -5.7434314624326426E+00 a       442     0     9     1    42
 -1.8348118204386274E+01 a       443     0     9     1    43
  2.7716797095236942E+01 a       444     0     9     1    44
 -4.0711289842108677E+01 a       445     0     9     1    45
 -8.4329772490690758E-01 a       446     0     9     1    46
  8.1441324510603985E-01 a       447     0     9     1    47
 -3.9551432253529430E+00 a       448     0     9     1    48
 -1.1837881198692529E+01 a       449     0     9     1    49
 -2.3250190189030874E+01 a       450     0     9     1    50
  1.3451397156538767E+00 a       451     0    10     1     1
  1.2366176765080747E+00 a       452     0    10     1     2
 -4.1426467115794434E+00 a       453     0    10     1     3
 -4.8761287319317717E+00 a       454     0    10     1     4
  3.1472650302936684E+00 a       455     0    10     1     5
 -5.6651555804446625E+00 a       456     0    10     1     6
 -1.0346964904797533E+00 a       457     0    10     1     7
  3.5372897979927299E-02 a       458     0    10     1     8
  6.6793189904571912E+00 a       459     0    10     1     9
 -3.0152424764506920E+00 a       460     0    10     1    10
  1.8574217803340980E+00 a       461     0    10     1    11
 -4.0671847181216672E+00 a       462     0    10     1    12
  3.9719669687051700E+00 a       463     0    10     1    13
 -2.1611647363906852E+00 a       464     0    10     1    14
  3.4751309270984918E+00 a       465     0    10     1    15
 -1.3987251626543216E+00 a       466     0    10     1    16
 -3.9166164299225525E+00 a       467     0    10     1    17
  3.5237592452228089E-01 a       468     0    10     1    18
  1.6702568547716154E-01 a       469     0    10     1    19
 -9.5028497147068709E+00 a       470     0    10     1    20
 -4.2311695796979327E+00 a       471     0    10     1    21
 -5.9470326220925003E+00 a       472     0    10     1    22
 -5.1103698348470914E+00 a       473     0    10     1    23
 -7.8485792288587390E+00 a       474     0    10     1    24
  2.4733113357444991E+00 a       475     0    10     1    25
 -7.1727334339737414E-01 a       476     0    10     1    26
  4.4811748153300677E+00 a       477     0    10     1    27
 -1.0962514760021389E+00 a       478     0    10     1    28
  5.1447669660463760E+00 a       479     0    10     1    29
 -2.7570817567358219E+00 a       480     0    10     1    30
 -2.7866976804108528E+00 a       481     0    10     1    31
  3.9905217112765518E-01 a       482     0    10     1    32
  1.2119671887674244E-01 a       483     0    10     1    33
  4.5468581611547965E-01 a       484     0    10     1    34
 -1.5442948349168779E+00 a       485     0    10     1    35
  5.0138645812113380E-01 a       486     0    10     1    36
 -1.2672422922822431E+00 a       487     0    10     1    37
  3.6252707240010857E+00 a       488     0    10     1    38
 -2.8343316235492737E+00 a       489     0    10     1    39
  6.8893285586913144E+00 a       490     0    10     1    40
  5.8889105048118848E+00 a       491     0    10     1    41
 -9.6082432227550019E+00 a       492     0    10     1    42
 -3.8794707329639451E+00 a       493     0    10     1    43
  6.4332142256997500E+00 a       494     0    10     1    44
 -5.8377713630922754E+00 a       495     0    10     1    45
 -3.0849810920224441E-01 a       496     0    10     1    46
 -3.9108133816237572E-01 a       497     0    10     1    47
  2.7512371416229553E-01 a       498     0    10     1    48
  2.4235258143630314E+00 a       499     0    10     1    49
 -2.9855376281976143E+00 a       500     0    10     1    50
  2.2825892777279821E+00 a       501     0    11     1     1
  7.2575389020125529E+00 a       502     0    11     1     2
 -5.7441429552974954E-01 a       503     0    11     1     3
 -1.3769246093458329E+00 a       504     0    11     1     4
  9.4776910244084123E-01 a       505     0    11     1     5
 -1.0935881793974092E+00 a       506     0    11     1     6
  1.5158844422121671E+00 a       507     0    11     1     7
  2.6488681355803054E+00 a       508     0    11     1     8
  1.0543496777571825E+01 a       509     0    11     1     9
 -2.9370165854700496E+00 a       510     0    11     1    10
  1.5639730879448404E+00 a       511     0    11     1    11
 -3.6528023237546710E+00 a       512     0    11     1    12
  4.1417184649549768E+00 a       513     0    11     1    13
 -6.4239106820916261E+00 a       514     0    11     1    14
  5.8723537487020101E+00 a       515     0    11     1    15
 -3.3536037843112094E+00 a       516     0    11     1    16
 -1.4606922496500765E-01 a       517     0    11     1    17
 -3.5878627254541962E+00 a       518     0    11     1    18
 -2.4643720604273955E+00 a       519     0    11     1    19
 -9.9901806833545130E+00 a       520     0    11     1    20
 -2.0523252175621889E+00 a       521     0    11     1    21
 -3.0007442157279138E+00 a       522     0    11     1    22
 -1.0315521606798333E+01 a       523     0    11     1    23
 -5.7094424309588057E+00 a       524     0    11     1    24
  1.4614609689212621E+00 a       525     0    11     1    25
  3.1190789251106921E+00 a       526     0    11     1    26
  3.2118584890771267E+00 a       527     0    11     1    27
 -5.1914279340687264E+00 a       528     0    11     1    28
  9.8770602199133322E+00 a       529     0    11     1    29
 -5.1997562654086460E+00 a       530     0    11     1    30
 -5.4988042910834878E+00 a       531     0    11     1    31
 -1.9152476332272357E+00 a       532     0    11     1    32
  6.1209886361926580E-01 a       533     0    11     1    33
  3.8174399990772026E+00 a       534     0    11     1    34
  1.2779378762624991E+00 a       535     0    11     1    35
 -3.4153266966303746E+00 a       536     0    11     1    36
 -3.0311148010044890E+00 a       537     0    11     1    37
  5.3818829157600039E+00 a       538     0    11     1    38
 -2.4294660177925387E+00 a       539     0    11     1    39
  5.1732142294382175E+00 a       540     0    11     1    40
  6.9460079504350940E+00 a       541     0    11     1    41
 -4.0700986773771106E+00 a       542     0    11     1    42
 -2.2480784473448918E+00 a       543     0    11     1    43
  9.4405760722797325E+00 a       544     0    11     1    44
 -6.0582200883465003E+00 a       545     0    11     1    45
  1.2915248259493541E+00 a       546     0    11     1    46
 -1.3202706571793024E+00 a       547     0    11     1    47
 -3.7642105063964610E+00 a       548     0    11     1    48
  1.7778922553124428E+00 a       549     0    11     1    49
 -8.0381642752555233E+00 a       550     0    11     1    50
 -7.5539312629303479E-01 a       551     0    12     1     1
 -5.4627191335760426E+00 a       552     0    12     1     2
 -7.7246900673415384E+00 a       553     0    12     1     3
 -9.5183193730994393E+00 a       554     0    12     1     4
  7.1266573269981777E+00 a       555     0    12     1     5
 -1.1644997186671922E+01 a       556     0    12     1     6
 -2.8169057022493891E+00 a       557     0    12     1     7
 -1.5582001731358106E+00 a       558     0    12     1     8
  5.6347834884661463E+00 a       559     0    12     1     9
 -2.8362658978517663E+00 a       560     0    12     1    10
  3.0886948212257010E+00 a       561     0    12     1    11
 -6.6791949682544747E+00 a       562     0    12     1    12
  6.8053507842748928E+00 a       563     0    12     1    13
  1.4206301081012545E+00 a       564     0    12     1    14
  1.3217149689557182E+00 a       565     0    12     1    15
  5.0919798799036609E-01 a       566     0    12     1    16
 -1.0318214429343215E+01 a       567     0    12     1    17
  5.5595987101316977E+00 a       568     0    12     1    18
  1.7046449380577333E+00 a       569     0    12     1    19
 -1.4505987024689903E+01 a       570     0    12     1    20
 -8.3356103888564448E+00 a       571     0    12     1    21
 -8.8341346468788942E+00 a       572     0    12     1    22
 -1.3629733168159655E+00 a       573     0    12     1    23
 -1.3759655425994328E+01 a       574     0    12     1    24
  4.3303012268518319E+00 a       575     0    12     1    25
 -5.6690799033368693E+00 a       576     0    12     1    26
  7.8369091880554311E+00 a       577     0    12     1    27
  2.2680835791913262E-01 a       578     0    12     1    28
  3.0023920868315129E-01 a       579     0    12     1    29
 -2.8320294702615425E+00 a       580     0    12     1    30
 -1.2396952665597554E-02 a       581     0    12     1    31
  2.4787958029042487E+00 a       582     0    12     1    32
 -6.3686880647441421E-02 a       583     0    12     1    33
 -4.9153483504682924E+00 a       584     0    12     1    34
 -4.5155748072183854E+00 a       585     0    12     1    35
  4.4922158442660809E+00 a       586     0    12     1    36
  2.0615031032421509E+00 a       587     0    12     1    37
  1.1955606485063948E+00 a       588     0    12     1    38
 -2.9440506772500554E+00 a       589     0    12     1    39
  9.7983514164942189E+00 a       590     0    12     1    40
  6.1947254180496261E+00 a       591     0    12     1    41
 -1.8381763813794763E+01 a       592     0    12     1    42
 -8.0265805260399503E+00 a       593     0    12     1    43
  5.7981302342092924E+00 a       594     0    12     1    44
 -1.0096805782687106E+01 a       595     0    12     1    45
 -2.0356541205060101E+00 a       596     0    12     1    46
  3.8774570526649860E-01 a       597     0    12     1    47
  3.0511794456674126E+00 a       598     0    12     1    48
  2.3872242707904134E+00 a       599     0    12     1    49
  1.2346886220184643E+00 a       600     0    12     1    50
  1.2180729770947837E+01 a       601     0    13     1     1
 -1.8104628067483759E+00 a       602     0    13     1     2
 -1.0527139591431460E+00 a       603     0    13     1     3
  6.8518992240751180E+00 a       604     0    13     1     4
 -3.1063748729670824E+00 a       605     0    13     1     5
 -1.7221152194439280E+00 a       606     0    13     1     6
 -7.1831796300752426E+00 a       607     0    13     1     7
 -4.8821688012164302E+00 a       608     0    13     1     8
 -1.0885749445730571E+01 a       609     0    13     1     9
  1.3871987613473673E+00 a       610     0    13     1    10
 -4.6239095038332705E+00 a       611     0    13     1    11
  1.3191757177034994E+01 a       612     0    13     1    12
 -1.7816628451162210E+01 a       613     0    13     1    13
 -2.8434328821800232E+00 a       614     0    13     1    14
 -7.0332661425255838E-01 a       615     0    13     1    15
 -5.6275498797310881E+00 a       616     0    13     1    16
  1.1700280726138713E+01 a       617     0    13     1    17
 -8.7907780007504766E+00 a       618     0    13     1    18
 -1.5304697960750595E+00 a       619     0    13     1    19
  3.2980763527559034E+01 a       620     0    13     1    20
  2.8662888627896153E+00 a       621     0    13     1    21
 -7.6245305991753769E+00 a       622     0    13     1    22
 -2.4001990262480839E+00 a       623     0    13     1    23
  2.0697562813766229E+01 a       624     0    13     1    24
 -7.6522779210122294E-01 a       625     0    13     1    25
  9.6438421538483734E+00 a       626     0    13     1    26
 -5.6867820385503691E+00 a       627     0    13     1    27
  1.1338877481018166E+01 a       628     0    13     1    28
 -4.8122229772916656E+00 a       629     0    13     1    29
  1.5043308579131368E+01 a       630     0    13     1    30
 -8.0537709106628199E+00 a       631     0    13     1    31
 -1.1109460697878824E+00 a       632     0    13     1    32
 -2.1597780451609303E+00 a       633     0    13     1    33
  2.4265046794674556E+00 a       634     0    13     1    34
  4.9148746101561713E-01 a       635     0    13     1    35
  5.0795680815888378E-01 a       636     0    13     1    36
 -1.1096150829058603E+01 a       637     0    13     1    37
  8.8534626195329853E+00 a       638     0    13     1    38
 -2.7490155825007481E+00 a       639     0    13     1    39
 -7.5306789981960538E+00 a       640     0    13     1    40
 -1.0337475898659896E+00 a       641     0    13     1    41
  7.7706964826041931E+00 a       642     0    13     1    42
  1.3592291339635940E+01 a       643     0    13     1    43
 -1.4915690345440446E+01 a       644     0    13     1    44
  2.8435536801317532E+01 a       645     0    13     1    45
  2.0913931417473051E+00 a       646     0    13     1    46
 -2.5848101845266864E+00 a       647     0    13     1    47
 -9.8794161696517779E-01 a       648     0    13     1    48
  8.2313730062782149E+00 a       649     0    13     1    49
  1.0038632430645954E+01 a       650     0    13     1    50
  9.8740500032483887E+00 a       651     0    14     1     1
 -1.7024765976040332E+01 a       652     0    14     1     2
  2.6994903027003079E+00 a       653     0    14     1     3
 -3.2494780894829285E+00 a       654     0    14     1     4
  1.7695032367777983E+01 a       655     0    14     1     5
 -9.1404005827175272E+00 a       656     0    14     1     6
 -8.8298356597676779E+00 a       657     0    14     1     7
  6.7841882866155290E+00 a       658     0    14     1     8
 -1.1118043464277692E+01 a       659     0    14     1     9
  1.6848223686822177E+00 a       660     0    14     1    10
  3.2936523784977294E+00 a       661     0    14     1    11
 -6.0556586676283084E+00 a       662     0    14     1    12
  2.6697756520292319E+00 a       663     0    14     1    13
 -1.6762764992509108E+01 a       664     0    14     1    14
  1.0873421567599920E+01 a       665     0    14     1    15
  4.8440259774342609E+00 a       666     0    14     1    16
 -1.8814781854511509E+01 a       667     0    14     1    17
 -9.4533078844412231E+00 a       668     0    14     1    18
 -1.6524716508455921E+00 a       669     0    14     1    19
 -1.5012040974876061E+01 a       670     0    14     1    20
 -6.2438472209073774E+00 a       671     0    14     1    21
  4.0602981340481934E+00 a       672     0    14     1    22
 -4.4492901263069156E+00 a       673     0    14     1    23
 -7.2591024493545553E-01 a       674     0    14     1    24
  1.3728827293160112E+01 a       675     0    14     1    25
 -9.6613177375120962E+00 a       676     0    14     1    26
  9.1715263112188232E+00 a       677     0    14     1    27
 -1.6436367549269473E+01 a       678     0    14     1    28
 -1.9470695113630601E+01 a       679     0    14     1    29
  1.1239283407544795E+01 a       680     0    14     1    30
 -4.0028777545485337E+00 a       681     0    14     1    31
 -5.4262650610160641E+00 a       682     0    14     1    32
 -8.1363388871660658E-01 a       683     0    14     1    33
 -6.2744248798868201E+00 a       684     0    14     1    34
 -8.0136277721623039E-01 a       685     0    14     1    35
  7.8328776418532531E+00 a       686     0    14     1    36
 -4.6160806207660903E+00 a       687     0    14     1    37
 -9.2227853853125321E+00 a       688     0    14     1    38
 -1.1579713626910360E+00 a       689     0    14     1    39
 -9.3704760866216006E+00 a       690     0    14     1    40
  7.4348924186507750E+00 a       691     0    14     1    41
 -6.5646011364048311E+00 a       692     0    14     1    42
  1.0455287668358798E+01 a       693     0    14     1    43
 -9.8225977787206062E+00 a       694     0    14     1    44
  3.8972850348298942E+00 a       695     0    14     1    45
 -3.8242190184830256E+00 a       696     0    14     1    46
 -2.0535529890832049E+00 a       697     0    14     1    47
 -8.9154149605893007E+00 a       698     0    14     1    48
  5.5317092118407887E+00 a       699     0    14     1    49
  2.8174157879050849E+01 a       700     0    14     1    50
 -1.2861875520918272E+01 a       701     0    15     1     1
 -1.1971936450434173E+01 a       702     0    15     1     2
 -8.1741154760921724E+00 a       703     0    15     1     3
 -2.9604320458500943E-01 a       704     0    15     1     4
  8.6102659243978164E-01 a       705     0    15     1     5
 -5.6821384904943786E+00 a       706     0    15     1     6
  3.8251849113103318E+00 a       707     0    15     1     7
 -5.4630967932154215E+00 a       708     0    15     1     8
  1.8750768671558942E+00 a       709     0    15     1     9
 -1.2767792820421151E+00 a       710     0    15     1    10
 -5.1153372840222044E-01 a       711     0    15     1    11
 -2.2136197023704924E+00 a       712     0    15     1    12
 -1.5399876914538385E-01 a       713     0    15     1    13
  2.3692250634146252E+01 a       714     0    15     1    14
 -1.9910175970482161E+01 a       715     0    15     1    15
  7.2456718846542598E+00 a       716     0    15     1    16
 -3.5205553813774770E+00 a       717     0    15     1    17
  2.6079968548000593E+01 a       718     0    15     1    18
 -2.9775361585490140E-01 a       719     0    15     1    19
  1.2425938634179692E+01 a       720     0    15     1    20
 -2.6736446805705412E+00 a       721     0    15     1    21
 -4.2181897537640225E+00 a       722     0    15     1    22
  1.5782415353776811E+01 a       723     0    15     1    23
 -6.8649603401368129E+00 a       724     0    15     1    24
 -5.9222007404383863E+00 a       725     0    15     1    25
 -4.9773009234104784E+00 a       726     0    15     1    26
  3.6896260569206172E+00 a       727     0    15     1    27
  1.3576663944638751E+01 a       728     0    15     1    28
 -9.3029868506576925E+00 a       729     0    15     1    29
 -2.7437354954500774E+00 a       730     0    15     1    30
  1.1208970829223677E+01 a       731     0    15     1    31
  7.9605774121896857E+00 a       732     0    15     1    32
 -3.9839282616747922E+00 a       733     0    15     1    33
 -1.8457234614652595E+01 a       734     0    15     1    34
 -1.2064536394481234E+01 a       735     0    15     1    35
  8.2254626769954751E+00 a       736     0    15     1    36
  1.0885084771217405E+01 a       737     0    15     1    37
 -6.2219468074918165E+00 a       738     0    15     1    38
  3.9566074996643796E+00 a       739     0    15     1    39
  6.7280111490794718E+00 a       740     0    15     1    40
 -8.9104068315287162E+00 a       741     0    15     1    41
 -1.1215981730964588E+01 a       742     0    15     1    42
 -1.3949270517057744E+01 a       743     0    15     1    43
 -5.9584781172594541E+00 a       744     0    15     1    44
 -7.3428879717291640E+00 a       745     0    15     1    45
 -1.7394656174132905E+00 a       746     0    15     1    46
 -1.0668386156584875E+00 a       747     0    15     1    47
  7.4807438559707755E+00 a       748     0    15     1    48
 -7.6381080330916973E+00 a       749     0    15     1    49
 -5.2357059927099348E-01 a       750     0    15     1    50
 -5.6044442905741230E+00 a       751     0    16     1     1
  2.4681262710573908E+01 a       752     0    16     1     2
  1.5683055699980070E+01 a       753     0    16     1     3
  1.8399178143416691E+01 a       754     0    16     1     4
 -2.4256600950274173E+01 a       755     0    16     1     5
  2.8277129533680878E+01 a       756     0    16     1     6
  1.2203986316994719E+01 a       757     0    16     1     7
  5.1464082459505338E+00 a       758     0    16     1     8
  3.0019460281260235E+00 a       759     0    16     1     9
  3.0316080579596880E+00 a       760     0    16     1    10
 -8.4304804529263357E+00 a       761     0    16     1    11
  6.4839200436630575E+00 a       762     0    16     1    12
 -4.0916630961595724E+00 a       763     0    16     1    13
 -1.3188014425495050E+01 a       764     0    16     1    14
 -2.7863528918858593E+00 a       765     0    16     1    15
 -2.7746433523179652E+00 a       766     0    16     1    16
  2.3018978589425032E+01 a       767     0    16     1    17
 -6.7440423022298139E+00 a       768     0    16     1    18
 -2.7961898013850615E+00 a       769     0    16     1    19
  2.6985570881375452E+01 a       770     0    16     1    20
  1.7901423558438481E+01 a       771     0    16     1    21
  1.7487776613828846E+01 a       772     0    16     1    22
  3.7806276897640440E-01 a       773     0    16     1    23
  1.6288524621266060E+01 a       774     0    16     1    24
 -2.3829525604333650E+01 a       775     0    16     1    25
  1.1972611352160067E+01 a       776     0    16     1    26
 -1.6572604504060735E+01 a       777     0    16     1    27
 -6.4092126794090083E+00 a       778     0    16     1    28
  1.0273366452483165E+01 a       779     0    16     1    29
 -9.8426795543596537E+00 a       780     0    16     1    30
  1.5731085841268870E+00 a       781     0    16     1    31
 -3.6098984958547224E+00 a       782     0    16     1    32
  5.3418712470915333E+00 a       783     0    16     1    33
  1.6061703656356219E+01 a       784     0    16     1    34
  1.0608147109576525E+01 a       785     0    16     1    35
 -1.4780998791722535E+01 a       786     0    16     1    36
  4.0346451572241522E+00 a       787     0    16     1    37
 -2.5439982070514628E+00 a       788     0    16     1    38
  6.2119368544265399E+00 a       789     0    16     1    39
 -1.8166434585460681E+01 a       790     0    16     1    40
 -1.4253379940562226E+01 a       791     0    16     1    41
  3.6864828224688665E+01 a       792     0    16     1    42
  7.7876793329660972E+00 a       793     0    16     1    43
  3.3541543831500085E+00 a       794     0    16     1    44
  1.5089677060510696E+00 a       795     0    16     1    45
  5.2334729439727932E+00 a       796     0    16     1    46
  7.2784301273660068E+00 a       797     0    16     1    47
 -1.3712038338008782E+01 a       798     0    16     1    48
 -9.2649101117821218E+00 a       799     0    16     1    49
 -2.1613284192781702E+01 a       800     0    16     1    50
  6.3173100540875371E+00 a       801     0    17     1     1
  9.4182585748222447E+00 a       802     0    17     1     2
  2.4423400935720831E+01 a       803     0    17     1     3
  1.1165918322667819E+01 a       804     0    17     1     4
 -7.4068889638970017E+00 a       805     0    17     1     5
  9.9020842237496307E+00 a       806     0    17     1     6
  1.4013118523687622E+01 a       807     0    17     1     7
  1.2668784266411913E+01 a       808     0    17     1     8
 -8.4162233185459154E+00 a       809     0    17     1     9
  4.1054466549503354E+00 a       810     0    17     1    10
 -1.6154628893196623E+00 a       811     0    17     1    11
  5.1952216843250092E+00 a       812     0    17     1    12
  1.2469210752486037E+00 a       813     0    17     1    13
 -3.0045870986722274E+01 a       814     0    17     1    14
  6.6945177349004714E+00 a       815     0    17     1    15
 -3.8031597550214440E+00 a       816     0    17     1    16
 -1.9612944530365526E+00 a       817     0    17     1    17
 -2.4808631920588859E+01 a       818     0    17     1    18
 -5.9716487085692682E+00 a       819     0    17     1    19
  3.0000070328095250E+00 a       820     0    17     1    20
  1.6765377338718750E+01 a       821     0    17     1    21
  1.6726719194418830E+01 a       822     0    17     1    22
 -6.1089329491754114E+00 a       823     0    17     1    23
  1.2439280135513348E+01 a       824     0    17     1    24
 -8.7993303443175925E+00 a       825     0    17     1    25
  1.8155167218420750E+01 a       826     0    17     1    26
 -9.6704123228626102E+00 a       827     0    17     1    27
 -2.8034009618607275E+01 a       828     0    17     1    28
  1.0812356258950580E+01 a       829     0    17     1    29
 -4.7370660460966176E+00 a       830     0    17     1    30
 -2.6524503257040593E+00 a       831     0    17     1    31
 -1.0712670008432099E+01 a       832     0    17     1    32
  6.4330784086101627E+00 a       833     0    17     1    33
  2.1725710120089900E+01 a       834     0    17     1    34
  1.2077526186571477E+01 a       835     0    17     1    35
 -1.1102163488375027E+01 a       836     0    17     1    36
 -4.2019826369662345E+00 a       837     0    17     1    37
 -5.5825820860267834E+00 a       838     0    17     1    38
  1.3724782476432964E+01 a       839     0    17     1    39
 -2.2907168931592523E+01 a       840     0    17     1    40
  6.0991638429844262E+00 a       841     0    17     1    41
  2.2737443843066639E+01 a       842     0    17     1    42
  7.8340040712190291E+00 a       843     0    17     1    43
  6.7844961240010324E+00 a       844     0    17     1    44
  5.3116567415940539E+00 a       845     0    17     1    45
  5.5295221496072298E+00 a       846     0    17     1    46
 -5.0488116186064769E+00 a       847     0    17     1    47
 -2.0875097652452499E+01 a       848     0    17     1    48
 -1.0087422469633269E+01 a       849     0    17     1    49
 -1.1719993514706569E+01 a       850     0    17     1    50
 -7.8969637584341190E-01 a       851     0    18     1     1
 -1.5291728030481453E+01 a       852     0    18     1     2
 -5.8638731350677817E+00 a       853     0    18     1     3
 -7.4891077360980214E+00 a       854     0    18     1     4
  1.0363788948932916E+01 a       855     0    18     1     5
 -1.5880832982350826E+01 a       856     0    18     1     6
 -6.3312351407745227E-01 a       857     0    18     1     7
 -4.0219726087083725E+00 a       858     0    18     1     8
 -3.7074079639523578E+00 a       859     0    18     1     9
 -4.9296160475308765E-01 a       860     0    18     1    10
  3.7204589682046159E+00 a       861     0    18     1    11
  5.4566471456977561E-01 a       862     0    18     1    12
 -2.7681179097057751E-01 a       863     0    18     1    13
  1.6246180038456931E+01 a       864     0    18     1    14
 -6.0159385186607750E+00 a       865     0    18     1    15
  2.0664190372165172E+00 a       866     0    18     1    16
 -1.1308107006977187E+01 a       867     0    18     1    17
  6.9797415052793959E+00 a       868     0    18     1    18
  8.6506007619826708E-01 a       869     0    18     1    19
 -6.2314563825643692E+00 a       870     0    18     1    20
 -4.9068018751471172E+00 a       871     0    18     1    21
 -9.1170461727945380E+00 a       872     0    18     1    22
  4.0607573493628557E+00 a       873     0    18     1    23
 -5.7191553165065878E+00 a       874     0    18     1    24
  9.0764609845160322E+00 a       875     0    18     1    25
 -2.9469275188684702E-01 a       876     0    18     1    26
  6.2098943759441676E+00 a       877     0    18     1    27
  6.4922681846146721E+00 a       878     0    18     1    28
 -2.8552854010421780E+00 a       879     0    18     1    29
  3.4511361749906562E+00 a       880     0    18     1    30
  2.3619977587451708E+00 a       881     0    18     1    31
  2.5885001901908220E+00 a       882     0    18     1    32
 -3.2881333960411983E+00 a       883     0    18     1    33
 -1.0375599262378785E+01 a       884     0    18     1    34
 -7.7309243061139714E+00 a       885     0    18     1    35
  7.3099215970759133E+00 a       886     0    18     1    36
  8.6506062676755160E-02 a       887     0    18     1    37
  1.3550581063169882E+00 a       888     0    18     1    38
  2.7316419164336274E+00 a       889     0    18     1    39
  9.7602479970486211E+00 a       890     0    18     1    40
  7.5023707697036315E+00 a       891     0    18     1    41
 -1.9140864090805668E+01 a       892     0    18     1    42
 -9.1478336661988706E+00 a       893     0    18     1    43
 -1.9802358149075752E+00 a       894     0    18     1    44
  8.6139444580642710E-01 a       895     0    18     1    45
 -2.8935220048512811E-01 a       896     0    18     1    46
 -8.1984648229894130E+00 a       897     0    18     1    47
  8.5644718035859082E+00 a       898     0    18     1    48
 -8.4118530802820368E-01 a       899     0    18     1    49
  5.3151157063519516E+00 a       900     0    18     1    50
 -3.2068463736258006E+00 a       901     0    19     1     1
 -2.0866980904048154E+00 a       902     0    19     1     2
 -1.3346687925410112E+01 a       903     0    19     1     3
 -5.4684007300618642E+00 a       904     0    19     1     4
  2.0556117883561620E+00 a       905     0    19     1     5
 -1.5395212658963959E+00 a       906     0    19     1     6
 -9.0426537903479094E+00 a       907     0    19     1     7
 -6.3645287413016023E+00 a       908     0    19     1     8
  5.6523561203371742E+00 a       909     0    19     1     9
 -2.3973528734236145E+00 a       910     0    19     1    10
  1.2855519746913138E-01 a       911     0    19     1    11
 -4.1390157170179309E+00 a       912     0    19     1    12
  1.3457977193695231E-01 a       913     0    19     1    13
  1.1922722281784143E+01 a       914     0    19     1    14
  1.8466293278341755E-01 a       915     0    19     1    15
  2.0178677526457776E+00 a       916     0    19     1    16
  4.4363678541218468E+00 a       917     0    19     1    17
  1.0718728314967354E+01 a       918     0    19     1    18
  5.2558059156244958E+00 a       919     0    19     1    19
 -2.3070159197033617E+00 a       920     0    19     1    20
 -1.0193833419063740E+01 a       921     0    19     1    21
 -8.5160408281403459E+00 a       922     0    19     1    22
  1.3068181164051396E+00 a       923     0    19     1    23
 -6.3173936385567755E+00 a       924     0    19     1    24
  3.8306213965241427E+00 a       925     0    19     1    25
 -1.2388015444528618E+01 a       926     0    19     1    26
  4.7373370483260535E+00 a       927     0    19     1    27
  1.3779194630732643E+01 a       928     0    19     1    28
 -6.7682047284212397E+00 a       929     0    19     1    29
  2.0608898923929808E+00 a       930     0    19     1    30
 -2.4085602158227695E-01 a       931     0    19     1    31
  4.3821339076701431E+00 a       932     0    19     1    32
 -2.2617317419499843E+00 a       933     0    19     1    33
 -1.0374991737458990E+01 a       934     0    19     1    34
 -4.4489315589410428E+00 a       935     0    19     1    35
  4.2165138719350308E+00 a       936     0    19     1    36
  1.5853971260912560E+00 a       937     0    19     1    37
  3.7102396781656419E+00 a       938     0    19     1    38
 -9.1887378695298558E+00 a       939     0    19     1    39
  1.0047921063148264E+01 a       940     0    19     1    40
 -5.8519552468264475E+00 a       941     0    19     1    41
 -9.6203337071396327E+00 a       942     0    19     1    42
 -9.7118228136801710E-01 a       943     0    19     1    43
 -3.0261339712367441E+00 a       944     0    19     1    44
 -3.9864427785121004E+00 a       945     0    19     1    45
 -4.5230288478281517E+00 a       946     0    19     1    46
  6.8650338498515771E+00 a       947     0    19     1    47
  1.0359460635109276E+01 a       948     0    19     1    48
  7.3786457659848264E+00 a       949     0    19     1    49
  7.0734799198890572E+00 a       950     0    19     1    50
  8.2667473514699386E-01 a       951     0    20     1     1
  7.1119944235646306E+00 a       952     0    20     1     2
  9.6879975298579901E-01 a       953     0    20     1     3
  2.6559173502645619E+00 a       954     0    20     1     4
 -4.3933445115687624E+00 a       955     0    20     1     5
  6.7851391026483538E+00 a       956     0    20     1     6
 -1.1929397122087579E+00 a       957     0    20     1     7
  1.7888991586990566E+00 a       958     0    20     1     8
  2.5827051826202352E+00 a       959     0    20     1     9
 -3.2180806776911219E-01 a       960     0    20     1    10
 -1.5762451070932981E+00 a       961     0    20     1    11
 -1.0622227668749407E+00 a       962     0    20     1    12
  8.3716186567219228E-02 a       963     0    20     1    13
 -7.2530171884734100E+00 a       964     0    20     1    14
  3.2712830572678819E+00 a       965     0    20     1    15
 -1.0747664068148453E+00 a       966     0    20     1    16
  5.1464898373805807E+00 a       967     0    20     1    17
 -2.5700656247612454E+00 a       968     0    20     1    18
 -3.2002192881633296E-01 a       969     0    20     1    19
  2.0203207645957204E+00 a       970     0    20     1    20
  1.2783513417651025E+00 a       971     0    20     1    21
  3.1114665589377375E+00 a       972     0    20     1    22
 -2.3219118697665797E+00 a       973     0    20     1    23
  2.1030174077346633E+00 a       974     0    20     1    24
 -3.5472158328933130E+00 a       975     0    20     1    25
 -8.4225113506173677E-01 a       976     0    20     1    26
 -2.3401675881822142E+00 a       977     0    20     1    27
 -2.0718699862649181E+00 a       978     0    20     1    28
  1.0241058518123016E+00 a       979     0    20     1    29
 -8.3919784939568887E-01 a       980     0    20     1    30
 -1.3310917878299653E+00 a       981     0    20     1    31
 -9.7670384442792912E-01 a       982     0    20     1    32
  1.2282110048417823E+00 a       983     0    20     1    33
  4.9125992387027564E+00 a       984     0    20     1    34
  2.9072106675710581E+00 a       985     0    20     1    35
 -3.1295451155018901E+00 a       986     0    20     1    36
 -4.6584295368360124E-01 a       987     0    20     1    37
 -2.1470256051660963E-01 a       988     0    20     1    38
 -3.3525485956741714E+00 a       989     0    20     1    39
 -3.2064723334382061E+00 a       990     0    20     1    40
 -3.1813201429251707E+00 a       991     0    20     1    41
  7.7639678678856683E+00 a       992     0    20     1    42
  4.3449066949417352E+00 a       993     0    20     1    43
  6.2394456461005343E-01 a       994     0    20     1    44
 -1.4212882704604049E-01 a       995     0    20     1    45
 -5.5096127033068043E-01 a       996     0    20     1    46
  4.4758426557531577E+00 a       997     0    20     1    47
 -3.0917834247376903E+00 a       998     0    20     1    48
  1.1738921489777219E+00 a       999     0    20     1    49
 -1.4496131745285741E+00 a      1000     0    20     1    50
 -9.1633604419299406E+00 a      1001     0    21     1     1
 -1.9616110927788426E+01 a      1002     0    21     1     2
 -1.0893062941635987E+01 a      1003     0    21     1     3
  2.7400618103615132E-01 a      1004     0    21     1     4
 -8.6878457440351600E+00 a      1005     0    21     1     5
 -1.9595910351094334E+00 a      1006     0    21     1     6
  6.1921258009712128E+00 a      1007     0    21     1     7
  1.5116486118425534E+00 a      1008     0    21     1     8
 -1.8586003651484422E+01 a      1009     0    21     1     9
 -5.1385300372545943E+00 a      1010     0    21     1    10
 -1.0238218309541304E+01 a      1011     0    21     1    11
  6.1595603950798816E+00 a      1012     0    21     1    12
 -1.5346034988736129E+01 a      1013     0    21     1    13
 -7.7667091613257133E+00 a      1014     0    21     1    14
 -2.9203998622260251E+01 a      1015     0    21     1    15
 -2.5939762642891706E+00 a      1016     0    21     1    16
  5.4754186142089569E+00 a      1017     0    21     1    17
  6.6758768766801007E+00 a      1018     0    21     1    18
 -1.0353726206817429E+01 a      1019     0    21     1    19
  3.0017728431543094E+00 a      1020     0    21     1    20
  8.1104485162665674E-01 a      1021     0    21     1    21
 -2.7514066037636651E+00 a      1022     0    21     1    22
 -1.4963851883054252E+01 a      1023     0    21     1    23
 -1.2383417749196354E+01 a      1024     0    21     1    24
  1.6459547126003969E-03 a      1025     0    21     1    25
 -8.9385124515772354E+00 a      1026     0    21     1    26
 -9.1887904142121286E+00 a      1027     0    21     1    27
  5.8952343897759087E+00 a      1028     0    21     1    28
 -2.6291528902425544E+01 a      1029     0    21     1    29
  3.8361608875954666E+01 a      1030     0    21     1    30
 -1.7310438906553738E+01 a      1031     0    21     1    31
 -6.3028728975008992E+00 a      1032     0    21     1    32
 -3.4272298647294162E+00 a      1033     0    21     1    33
  3.7751693179609562E+00 a      1034     0    21     1    34
 -1.4558634232531581E+01 a      1035     0    21     1    35
  1.7266658965681085E+01 a      1036     0    21     1    36
 -2.4242767720967738E+01 a      1037     0    21     1    37
 -2.6517424681754456E+01 a      1038     0    21     1    38
  4.4813826969810577E+00 a      1039     0    21     1    39
  1.2482786058926333E+01 a      1040     0    21     1    40
 -1.3276087616060843E+00 a      1041     0    21     1    41
  2.1100573634274983E+01 a      1042     0    21     1    42
 -5.2841009482350376E+00 a      1043     0    21     1    43
 -2.5894571040236229E+01 a      1044     0    21     1    44
 -2.1593646410194626E+01 a      1045     0    21     1    45
  7.2085596278093460E+00 a      1046     0    21     1    46
  1.0801642201816000E+01 a      1047     0    21     1    47
  1.4679937475811606E+00 a      1048     0    21     1    48
 -7.2827853363293720E+00 a      1049     0    21     1    49
  1.4379254180144434E+01 a      1050     0    21     1    50
 -1.6004754646629831E+01 a      1051     0    22     1     1
 -6.1692529854799760E+00 a      1052     0    22     1     2
  3.4950457686867531E+00 a      1053     0    22     1     3
  2.0859896841290779E+00 a      1054     0    22     1     4
  4.9804720347322551E+00 a      1055     0    22     1     5
 -3.3441854693834334E+00 a      1056     0    22     1     6
 -8.7736030702752892E+00 a      1057     0    22     1     7
  8.1101094729880785E-01 a      1058     0    22     1     8
  1.9060272899948455E+01 a      1059     0    22     1     9
  1.5642882244646465E+01 a      1060     0    22     1    10
  1.5768753559977071E+01 a      1061     0    22     1    11
 -5.0368177352276895E+00 a      1062     0    22     1    12
  2.5891751912184429E+00 a      1063     0    22     1    13
  1.8128956912567730E+01 a      1064     0    22     1    14
  1.0099325961842172E+01 a      1065     0    22     1    15
  2.9028321380139577E+00 a      1066     0    22     1    16
  2.4811563289408953E+00 a      1067     0    22     1    17
  5.7398390521402587E-01 a      1068     0    22     1    18
 -1.5473456911493128E-01 a      1069     0    22     1    19
  5.2033834813542494E+00 a      1070     0    22     1    20
  1.8319731557437164E+00 a      1071     0    22     1    21
  8.3092525368380947E+00 a      1072     0    22     1    22
 -8.3656889428309587E+00 a      1073     0    22     1    23
 -1.5759476674415145E+01 a      1074     0    22     1    24
  1.2671097990762313E+01 a      1075     0    22     1    25
 -1.2152945633455246E+01 a      1076     0    22     1    26
  9.7494924697928482E+00 a      1077     0    22     1    27
 -5.8794458377685226E+00 a      1078     0    22     1    28
  7.4241284491692507E+00 a      1079     0    22     1    29
 -5.3273981949313509E-01 a      1080     0    22     1    30
 -9.8441831842092249E+00 a      1081     0    22     1    31
  1.8795715872452686E+01 a      1082     0    22     1    32
 -2.7559382655254662E+01 a      1083     0    22     1    33
 -1.4838876579456244E+01 a      1084     0    22     1    34
  1.1996770256461128E+01 a      1085     0    22     1    35
  1.3406424819196575E+01 a      1086     0    22     1    36
  1.5251555971704198E+00 a      1087     0    22     1    37
 -7.6069121793000036E+00 a      1088     0    22     1    38
  2.9584258591013870E+00 a      1089     0    22     1    39
 -1.4456767824679799E+01 a      1090     0    22     1    40
 -5.5601532443929766E+00 a      1091     0    22     1    41
 -6.1758683258933704E+00 a      1092     0    22     1    42
  6.1406401503861794E+00 a      1093     0    22     1    43
  1.0697166158033438E+01 a      1094     0    22     1    44
  6.1472533002760832E+00 a      1095     0    22     1    45
  4.9112642045825288E+00 a      1096     0    22     1    46
 -8.2937131925280614E+00 a      1097     0    22     1    47
 -9.2075567879309563E+00 a      1098     0    22     1    48
 -1.5915652513318816E+01 a      1099     0    22     1    49
  1.1166954584072406E+00 a      1100     0    22     1    50
  2.0310118162157927E+01 a      1101     0    23     1     1
  2.5829959915378307E+01 a      1102     0    23     1     2
  3.0427839832272441E+00 a      1103     0    23     1     3
 -1.3925646638368270E+00 a      1104     0    23     1     4
 -9.9465993192478219E+00 a      1105     0    23     1     5
  1.0488554983798650E+01 a      1106     0    23     1     6
  5.0860625359476126E+00 a      1107     0    23     1     7
  6.5833531454050869E+00 a      1108     0    23     1     8
  2.3051807885836187E+01 a      1109     0    23     1     9
 -1.5522465151298878E+01 a      1110     0    23     1    10
  3.3364213878840778E+00 a      1111     0    23     1    11
 -1.5883166122329926E+00 a      1112     0    23     1    12
  1.4501410164378724E+01 a      1113     0    23     1    13
  1.0428201566270742E+01 a      1114     0    23     1    14
  2.4989856746697576E+01 a      1115     0    23     1    15
  1.0468951037291694E+01 a      1116     0    23     1    16
  8.8164557445033331E+00 a      1117     0    23     1    17
 -4.1083566182935414E+00 a      1118     0    23     1    18
  6.6094428601508630E+00 a      1119     0    23     1    19
  1.0725816389503175E+01 a      1120     0    23     1    20
  6.5562025368034069E+00 a      1121     0    23     1    21
 -1.1154180319843025E+01 a      1122     0    23     1    22
  2.0391261059574774E+01 a      1123     0    23     1    23
  1.8949402997648825E+01 a      1124     0    23     1    24
 -2.0652320555182122E+01 a      1125     0    23     1    25
  1.3154497547800856E+01 a      1126     0    23     1    26
  4.5664536236325102E+00 a      1127     0    23     1    27
 -1.4491135625498821E+00 a      1128     0    23     1    28
  2.5620375824801311E+01 a      1129     0    23     1    29
 -6.6019619364622798E+01 a      1130     0    23     1    30
  1.5357441042152075E+01 a      1131     0    23     1    31
  1.8503171185244938E+00 a      1132     0    23     1    32
  2.2023746513449204E+01 a      1133     0    23     1    33
  1.3119016885152446E+01 a      1134     0    23     1    34
  2.6305688159509781E+00 a      1135     0    23     1    35
 -3.0664387397131460E+01 a      1136     0    23     1    36
  5.0640509238921538E+00 a      1137     0    23     1    37
  4.0127837799539378E+01 a      1138     0    23     1    38
  2.2746676216985335E+00 a      1139     0    23     1    39
 -1.9316706503424850E+01 a      1140     0    23     1    40
  9.9259524871784119E+00 a      1141     0    23     1    41
 -3.4427209437537229E+01 a      1142     0    23     1    42
 -5.8133115850927897E-01 a      1143     0    23     1    43
  3.2173799183325258E+01 a      1144     0    23     1    44
  2.7169429439605377E+00 a      1145     0    23     1    45
  1.6348165346685775E+01 a      1146     0    23     1    46
  1.3461284262746254E+00 a      1147     0    23     1    47
 -7.9922651225894814E-01 a      1148     0    23     1    48
  9.8402643496207141E+00 a      1149     0    23     1    49
  8.5828328053957370E-01 a      1150     0    23     1    50
  5.0900797685705960E+01 a      1151     0    24     1     1
  1.1584526317006965E+01 a      1152     0    24     1     2
  4.0454964298508251E+00 a      1153     0    24     1     3
  1.0407510644565294E+01 a      1154     0    24     1     4
 -1.1696262045451547E+01 a      1155     0    24     1     5
 -7.3459404692261163E+00 a      1156     0    24     1     6
  6.5266694909678957E-01 a      1157     0    24     1     7
 -1.0966299323271688E+01 a      1158     0    24     1     8
 -5.1197718392940705E-01 a      1159     0    24     1     9
 -2.9554960362605693E+00 a      1160     0    24     1    10
 -2.5583633884180639E+00 a      1161     0    24     1    11
  2.0600206969709660E+01 a      1162     0    24     1    12
 -5.8239470201317509E+00 a      1163     0    24     1    13
  2.6650587773156191E+00 a      1164     0    24     1    14
  1.0033317269941209E+01 a      1165     0    24     1    15
  1.5152723047322297E+01 a      1166     0    24     1    16
  7.7746327626338445E+00 a      1167     0    24     1    17
 -1.2377794527311398E+01 a      1168     0    24     1    18
 -4.5061336884909569E+00 a      1169     0    24     1    19
 -2.1948068277221413E+00 a      1170     0    24     1    20
  1.8692792959507187E+01 a      1171     0    24     1    21
 -1.1588494182305353E+00 a      1172     0    24     1    22
  8.3139640266692361E+00 a      1173     0    24     1    23
  3.5717365775103275E+01 a      1174     0    24     1    24
  1.6301975261360404E+00 a      1175     0    24     1    25
  2.8376546170039717E+01 a      1176     0    24     1    26
 -1.5298245187940515E-01 a      1177     0    24     1    27
  3.8956428232299016E+00 a      1178     0    24     1    28
 -8.3992704556871400E-01 a      1179     0    24     1    29
 -1.1566022168715321E+01 a      1180     0    24     1    30
 -7.5266920408469522E+00 a      1181     0    24     1    31
 -2.0119808771931851E+01 a      1182     0    24     1    32
  1.4759389495536539E+01 a      1183     0    24     1    33
  1.1883902659487934E+01 a      1184     0    24     1    34
 -1.9043015587585455E+01 a      1185     0    24     1    35
 -2.2506107240646671E+01 a      1186     0    24     1    36
 -7.9836361419501767E+00 a      1187     0    24     1    37
  3.5214850224470929E+01 a      1188     0    24     1    38
  2.1922732706220649E+00 a      1189     0    24     1    39
  9.6875183424284490E+00 a      1190     0    24     1    40
 -4.6773299290547214E+00 a      1191     0    24     1    41
  1.0290586247618680E+01 a      1192     0    24     1    42
  7.2759899632472997E+00 a      1193     0    24     1    43
 -2.7242040836304908E+00 a      1194     0    24     1    44
  2.2915107545195934E+01 a      1195     0    24     1    45
  7.9259195423463913E+00 a      1196     0    24     1    46
  3.3350853283237694E+00 a      1197     0    24     1    47
 -5.3504143739455348E+00 a      1198     0    24     1    48
  1.6233274344318993E+01 a      1199     0    24     1    49
  4.5506526500596900E+00 a      1200     0    24     1    50
  9.9373898964551994E+00 a      1201     0    25     1     1
  1.0593203168224544E+01 a      1202     0    25     1     2
 -4.1273940933599711E+00 a      1203     0    25     1     3
 -5.0279145025868672E+00 a      1204     0    25     1     4
  5.6981046521567169E-01 a      1205     0    25     1     5
 -3.7683707793573675E+00 a      1206     0    25     1     6
 -4.0190537044206787E+00 a      1207     0    25     1     7
 -7.3116708531700185E+00 a      1208     0    25     1     8
  7.5281202095355457E+00 a      1209     0    25     1     9
  5.1413313340424693E+00 a      1210     0    25     1    10
  2.3068835732576525E+00 a      1211     0    25     1    11
 -1.3588952809987720E+01 a      1212     0    25     1    12
  1.0742932916709982E+01 a      1213     0    25     1    13
 -4.8686495642632428E+00 a      1214     0    25     1    14
  1.9384637638945133E+01 a      1215     0    25     1    15
  9.2895752786339436E+00 a      1216     0    25     1    16
  4.4722114561852546E+00 a      1217     0    25     1    17
 -1.4694026702419633E+01 a      1218     0    25     1    18
 -5.9582772873517094E+00 a      1219     0    25     1    19
 -8.6689548334910942E+00 a      1220     0    25     1    20
 -3.8368026920252758E+00 a      1221     0    25     1    21
 -1.8962506995331674E-01 a      1222     0    25     1    22
  1.1190903242856423E+00 a      1223     0    25     1    23
  4.9422912685286562E+00 a      1224     0    25     1    24
 -1.7706333378641010E+00 a      1225     0    25     1    25
  7.7606861952499369E+00 a      1226     0    25     1    26
  6.3524946402581204E+00 a      1227     0    25     1    27
 -2.9706290506655284E+00 a      1228     0    25     1    28
  1.2821436587796834E+01 a      1229     0    25     1    29
 -2.5620579649042472E+01 a      1230     0    25     1    30
  7.1313342709809282E+00 a      1231     0    25     1    31
 -1.1336004961669783E+00 a      1232     0    25     1    32
 -4.0422833506258815E+00 a      1233     0    25     1    33
  1.9163394561519271E+00 a      1234     0    25     1    34
  5.1284825564793923E+00 a      1235     0    25     1    35
 -1.2465519550980085E+01 a      1236     0    25     1    36
  6.5912187181471538E+00 a      1237     0    25     1    37
  1.6435882478279932E+01 a      1238     0    25     1    38
  1.1881561099428506E+00 a      1239     0    25     1    39
 -5.5263094238193062E+00 a      1240     0    25     1    40
  5.7533032712910304E+00 a      1241     0    25     1    41
 -9.6137855587366587E+00 a      1242     0    25     1    42
  1.3783079198437161E+01 a      1243     0    25     1    43
  1.2776813841073537E+01 a      1244     0    25     1    44
  2.1262509650899471E+01 a      1245     0    25     1    45
 -5.9022865605740861E-02 a      1246     0    25     1    46
  6.5960165713561669E-01 a      1247     0    25     1    47
 -3.8671720166293326E+00 a      1248     0    25     1    48
 -4.3740942065239735E-01 a      1249     0    25     1    49
 -5.5425690444745968E+00 a      1250     0    25     1    50
 -2.6451931321616623E+01 a      1251     0    26     1     1
 -2.3522797150350860E+00 a      1252     0    26     1     2
 -9.5537983930360171E-02 a      1253     0    26     1     3
 -6.4696245781396993E+00 a      1254     0    26     1     4
  7.2298959114167971E+00 a      1255     0    26     1     5
  1.5522178342569353E+00 a      1256     0    26     1     6
 -2.6418506250155520E+00 a      1257     0    26     1     7
  7.2363390181983567E+00 a      1258     0    26     1     8
  6.1377674162427027E+00 a      1259     0    26     1     9
  3.7407257965638219E+00 a      1260     0    26     1    10
  5.9318140420186243E+00 a      1261     0    26     1    11
 -1.5161686422259162E+01 a      1262     0    26     1    12
  4.1535494817413552E+00 a      1263     0    26     1    13
  2.2285036873041340E+00 a      1264     0    26     1    14
 -3.1131358991223729E-01 a      1265     0    26     1    15
 -6.3919393145288304E+00 a      1266     0    26     1    16
 -4.6462205649007213E+00 a      1267     0    26     1    17
  9.9245602209656489E+00 a      1268     0    26     1    18
  1.7233734104715936E+00 a      1269     0    26     1    19
  5.6057013480886040E+00 a      1270     0    26     1    20
 -1.1953398488244357E+01 a      1271     0    26     1    21
  1.6197039700130547E+00 a      1272     0    26     1    22
 -5.0087625329132113E+00 a      1273     0    26     1    23
 -1.8466064612673879E+01 a      1274     0    26     1    24
  1.8558747641214177E+00 a      1275     0    26     1    25
 -1.1711528676697322E+01 a      1276     0    26     1    26
  1.2329531527350743E+00 a      1277     0    26     1    27
 -4.2023621845659687E+00 a      1278     0    26     1    28
  5.5102076286289927E+00 a      1279     0    26     1    29
 -6.4071661946356659E+00 a      1280     0    26     1    30
  1.3909302263722858E+00 a      1281     0    26     1    31
  1.4572230300578287E+01 a      1282     0    26     1    32
 -1.2420460321470079E+01 a      1283     0    26     1    33
 -9.4466282404456781E+00 a      1284     0    26     1    34
  1.4405689581773993E+01 a      1285     0    26     1    35
  9.0129707531064618E+00 a      1286     0    26     1    36
  5.8534683263726350E+00 a      1287     0    26     1    37
 -1.2692666698014269E+01 a      1288     0    26     1    38
  3.1483044042125283E+00 a      1289     0    26     1    39
 -7.8977364981518283E+00 a      1290     0    26     1    40
  1.0247494477539865E+00 a      1291     0    26     1    41
 -1.1939740828082524E+01 a      1292     0    26     1    42
  1.5612702397628462E+00 a      1293     0    26     1    43
  7.5460909070054347E+00 a      1294     0    26     1    44
 -1.1844069559326654E+01 a      1295     0    26     1    45
 -1.7727999316229333E+00 a      1296     0    26     1    46
 -4.5945116402036463E+00 a      1297     0    26     1    47
  2.5560584150722070E+00 a      1298     0    26     1    48
 -1.2000218892122456E+01 a      1299     0    26     1    49
 -7.2799088961000455E+00 a      1300     0    26     1    50
 -2.7603920921812865E+01 a      1301     0    27     1     1
 -2.7808694090798610E+01 a      1302     0    27     1     2
  1.0690233684658816E+00 a      1303     0    27     1     3
 -4.2318631058007372E-01 a      1304     0    27     1     4
  1.3133514575595509E+01 a      1305     0    27     1     5
 -8.0312162053088265E+00 a      1306     0    27     1     6
 -7.2731785970502880E+00 a      1307     0    27     1     7
 -9.4641489404364680E+00 a      1308     0    27     1     8
 -1.8774106770918838E+01 a      1309     0    27     1     9
  1.7593161108276924E+01 a      1310     0    27     1    10
 -3.0676718249693429E+00 a      1311     0    27     1    11
  3.8443380197094470E+00 a      1312     0    27     1    12
 -1.0225041407359921E+01 a      1313     0    27     1    13
 -6.0740698887496105E+00 a      1314     0    27     1    14
 -2.3870705361205044E+01 a      1315     0    27     1    15
 -1.3548552809553350E+01 a      1316     0    27     1    16
 -1.1976401960301365E+01 a      1317     0    27     1    17
  3.4605953608031195E+00 a      1318     0    27     1    18
  5.2273250706521210E+00 a      1319     0    27     1    19
 -8.0193765864477538E+00 a      1320     0    27     1    20
 -6.1437545091195398E+00 a      1321     0    27     1    21
  7.2183908463402009E+00 a      1322     0    27     1    22
 -2.1899837589625058E+01 a      1323     0    27     1    23
 -2.2333012687650012E+01 a      1324     0    27     1    24
  1.3047613367452664E+01 a      1325     0    27     1    25
 -1.6675876620969362E+01 a      1326     0    27     1    26
  5.3704017392898684E-01 a      1327     0    27     1    27
  8.1258052550724946E-01 a      1328     0    27     1    28
 -2.3433978122326636E+01 a      1329     0    27     1    29
  7.3854169345818022E+01 a      1330     0    27     1    30
 -1.1007449707075809E+01 a      1331     0    27     1    31
  5.0388009576363735E-01 a      1332     0    27     1    32
 -2.6013141361221365E+01 a      1333     0    27     1    33
 -1.8714586542893279E+01 a      1334     0    27     1    34
  1.3066111928667017E+00 a      1335     0    27     1    35
  3.4557876641038810E+01 a      1336     0    27     1    36
  6.6405716155416949E-01 a      1337     0    27     1    37
 -4.9351697265817897E+01 a      1338     0    27     1    38
 -4.6985192905374573E-01 a      1339     0    27     1    39
  1.5700627078464690E+01 a      1340     0    27     1    40
 -1.3050981069796672E+01 a      1341     0    27     1    41
  3.3080190467010482E+01 a      1342     0    27     1    42
 -4.6060541975737523E+00 a      1343     0    27     1    43
 -2.9592898016555043E+01 a      1344     0    27     1    44
 -1.9834630026196626E-01 a      1345     0    27     1    45
 -1.3049534891661915E+01 a      1346     0    27     1    46
 -2.1842314269114484E+00 a      1347     0    27     1    47
  2.3676608536143839E+00 a      1348     0    27     1    48
 -6.7101447991027108E+00 a      1349     0    27     1    49
  8.0693547151245664E+00 a      1350     0    27     1    50
 -3.3279322774101132E+01 a      1351     0    28     1     1
 -9.8038826726202242E+00 a      1352     0    28     1     2
 -7.9333856712173176E+00 a      1353     0    28     1     3
 -6.8344866992080187E+00 a      1354     0    28     1     4
  5.7968307865987381E+00 a      1355     0    28     1     5
  4.2147360084217160E+00 a      1356     0    28     1     6
  8.0988743140049273E+00 a      1357     0    28     1     7
  8.1896908674672417E+00 a      1358     0    28     1     8
 -8.9687662060137541E+00 a      1359     0    28     1     9
 -6.6920577063689866E+00 a      1360     0    28     1    10
 -9.3093948918171190E+00 a      1361     0    28     1    11
 -5.3378254377690126E+00 a      1362     0    28     1    12
 -2.8118823563607126E-01 a      1363     0    28     1    13
 -1.0261332997015820E+01 a      1364     0    28     1    14
 -2.9614418336762292E+01 a      1365     0    28     1    15
 -1.8839629380609733E+01 a      1366     0    28     1    16
 -1.9148022634601539E+01 a      1367     0    28     1    17
  2.1863047980581182E+01 a      1368     0    28     1    18
  9.1608222990514465E-01 a      1369     0    28     1    19
 -7.2554888092216379E+00 a      1370     0    28     1    20
 -1.2852146999773371E+01 a      1371     0    28     1    21
 -2.8257079067110942E+00 a      1372     0    28     1    22
 -8.5525057430386351E+00 a      1373     0    28     1    23
 -2.0070605479897754E+01 a      1374     0    28     1    24
 -7.9739087320830553E+00 a      1375     0    28     1    25
 -1.2628797074167911E+01 a      1376     0    28     1    26
 -1.4067725636422690E+01 a      1377     0    28     1    27
 -1.4170298366925813E+00 a      1378     0    28     1    28
 -1.5684299286570271E+01 a      1379     0    28     1    29
  2.6090038838360684E+01 a      1380     0    28     1    30
 -4.4945549524340517E-01 a      1381     0    28     1    31
 -7.9169010687522201E-01 a      1382     0    28     1    32
  4.3928165965301558E+00 a      1383     0    28     1    33
 -7.0620271875847251E+00 a      1384     0    28     1    34
 -7.3312987290328946E-01 a      1385     0    28     1    35
  1.8611065359997383E+01 a      1386     0    28     1    36
  3.8788107236682623E-01 a      1387     0    28     1    37
 -3.4648517409928907E+01 a      1388     0    28     1    38
 -3.0624647435920203E+00 a      1389     0    28     1    39
  1.8705978275282536E+01 a      1390     0    28     1    40
  4.3081369636262465E+00 a      1391     0    28     1    41
  5.1168394838456033E+00 a      1392     0    28     1    42
 -2.7905491184672883E+01 a      1393     0    28     1    43
 -1.0023367150866687E+01 a      1394     0    28     1    44
 -4.0590735284723479E+01 a      1395     0    28     1    45
 -7.9006098895525234E+00 a      1396     0    28     1    46
  7.9609261214120002E+00 a      1397     0    28     1    47
  1.2893182362449096E+01 a      1398     0    28     1    48
 -7.3561351719844641E+00 a      1399     0    28     1    49
 -2.2666850012466186E+00 a      1400     0    28     1    50
 -1.7288920253029130E-01 a      1401     0    29     1     1
 -2.2699251362371611E-01 a      1402     0    29     1     2
  3.7213924728991112E+00 a      1403     0    29     1     3
  2.6747506309900926E+00 a      1404     0    29     1     4
  2.4281357125750276E+00 a      1405     0    29     1     5
  8.2753276752467542E-01 a      1406     0    29     1     6
 -2.0250307255119075E+00 a      1407     0    29     1     7
 -2.3548802178029908E+00 a      1408     0    29     1     8
  4.9319484432060374E+00 a      1409     0    29     1     9
  2.1172782192692323E+00 a      1410     0    29     1    10
  2.6355977256451593E+00 a      1411     0    29     1    11
  4.4145598557200580E+00 a      1412     0    29     1    12
  2.0462087410191598E+00 a      1413     0    29     1    13
  9.1100815349668860E+00 a      1414     0    29     1    14
  2.7399841727538341E+00 a      1415     0    29     1    15
 -2.4501895595549903E+00 a      1416     0    29     1    16
 -8.8810321508362673E+00 a      1417     0    29     1    17
  4.0766528339913917E+00 a      1418     0    29     1    18
  2.7334806987363711E+00 a      1419     0    29     1    19
  1.7757551499796782E+00 a      1420     0    29     1    20
  2.0870620534956315E+00 a      1421     0    29     1    21
  1.1084120876219010E+00 a      1422     0    29     1    22
 -1.7261298365092930E+00 a      1423     0    29     1    23
 -1.2361137069161081E+00 a      1424     0    29     1    24
 -2.5198191578691915E+00 a      1425     0    29     1    25
 -5.0424267151211921E-01 a      1426     0    29     1    26
  3.3016480809817907E+00 a      1427     0    29     1    27
 -2.2837241129704577E+00 a      1428     0    29     1    28
  4.0171760677120771E-01 a      1429     0    29     1    29
  4.9962393681515991E+00 a      1430     0    29     1    30
 -2.7417298578990006E+00 a      1431     0    29     1    31
 -8.4833903697489021E-01 a      1432     0    29     1    32
 -3.7764457091394612E+00 a      1433     0    29     1    33
 -1.8788067019793726E+00 a      1434     0    29     1    34
 -1.8125037157050692E+00 a      1435     0    29     1    35
  2.6718439380343182E+00 a      1436     0    29     1    36
  3.8069419627732843E+00 a      1437     0    29     1    37
 -4.4215922789229051E-01 a      1438     0    29     1    38
 -3.3461822835099904E+00 a      1439     0    29     1    39
  1.2768591632414832E+00 a      1440     0    29     1    40
 -1.8954524654294589E+00 a      1441     0    29     1    41
 -1.0078598815867319E+00 a      1442     0    29     1    42
 -3.7168984407935142E+00 a      1443     0    29     1    43
  3.9250288961909154E+00 a      1444     0    29     1    44
 -2.4128470907506054E+00 a      1445     0    29     1    45
  1.3319969103033253E+00 a      1446     0    29     1    46
  4.7684652298579167E-01 a      1447     0    29     1    47
 -1.8462134383663123E-01 a      1448     0    29     1    48
 -1.8858928808747810E+00 a      1449     0    29     1    49
  5.9946920798382630E-01 a      1450     0    29     1    50
  7.3842096048894884E-02 a      1451     0    30     1     1
 -2.9867063495190904E-01 a      1452     0    30     1     2
  3.5220584214205575E+00 a      1453     0    30     1     3
  2.7530359115144183E+00 a      1454     0    30     1     4
  2.1395181089108548E+00 a      1455     0    30     1     5
  9.2160799404971605E-01 a      1456     0    30     1     6
 -2.1064854973290776E+00 a      1457     0    30     1     7
 -2.2956303925126265E+00 a      1458     0    30     1     8
  5.0367752763794194E+00 a      1459     0    30     1     9
  1.8495676442286269E+00 a      1460     0    30     1    10
  2.9477632385061288E+00 a      1461     0    30     1    11
  4.4133395965066775E+00 a      1462     0    30     1    12
  1.9611343085890416E+00 a      1463     0    30     1    13
  9.0519745363664246E+00 a      1464     0    30     1    14
  2.3059419832229766E+00 a      1465     0    30     1    15
 -2.7364573097300875E+00 a      1466     0    30     1    16
 -8.6765423127601515E+00 a      1467     0    30     1    17
  4.4259849923160584E+00 a      1468     0    30     1    18
  2.7428671535995344E+00 a      1469     0    30     1    19
  1.7071642334089234E+00 a      1470     0    30     1    20
  2.1599221236196007E+00 a      1471     0    30     1    21
  9.4518357930582608E-01 a      1472     0    30     1    22
 -1.4716985328773589E+00 a      1473     0    30     1    23
 -9.1629920634442985E-01 a      1474     0    30     1    24
 -2.3362671426794099E+00 a      1475     0    30     1    25
 -7.3072651723811266E-01 a      1476     0    30     1    26
  3.4133456726026283E+00 a      1477     0    30     1    27
 -2.0449188813140524E+00 a      1478     0    30     1    28
  6.1894897028917562E-01 a      1479     0    30     1    29
  4.8611789120635480E+00 a      1480     0    30     1    30
 -3.1002389715628027E+00 a      1481     0    30     1    31
 -8.4964515415748776E-01 a      1482     0    30     1    32
 -3.8844334958552200E+00 a      1483     0    30     1    33
 -1.8099367465059133E+00 a      1484     0    30     1    34
 -1.7010546254217733E+00 a      1485     0    30     1    35
  2.7408948550716041E+00 a      1486     0    30     1    36
  3.8270157057721264E+00 a      1487     0    30     1    37
 -7.7308478781098322E-01 a      1488     0    30     1    38
 -3.0416668044169826E+00 a      1489     0    30     1    39
  9.5917159730602830E-01 a      1490     0    30     1    40
 -1.8182444768462021E+00 a      1491     0    30     1    41
 -7.2424929213677114E-01 a      1492     0    30     1    42
 -3.8853553926639122E+00 a      1493     0    30     1    43
  4.1618173458231729E+00 a      1494     0    30     1    44
 -2.7376394096585575E+00 a      1495     0    30     1    45
  1.2873236261051064E+00 a      1496     0    30     1    46
  4.8344229155930135E-01 a      1497     0    30     1    47
 -6.0196232205932221E-01 a      1498     0    30     1    48
 -1.7804872385596313E+00 a      1499     0    30     1    49
  2.7907368053300452E-01 a      1500     0    30     1    50
  1.3446419698281396E+01 a      1501     0    31     1     1
 -2.3017571392291831E+00 a      1502     0    31     1     2
  4.1573114570403185E+00 a      1503     0    31     1     3
  2.9482557068965627E+00 a      1504     0    31     1     4
 -4.0511837403671338E+00 a      1505     0    31     1     5
  3.3757139192290180E+00 a      1506     0    31     1     6
  7.1488240848373374E+00 a      1507     0    31     1     7
 -2.9167259097072140E+00 a      1508     0    31     1     8
 -9.7016301546803181E+00 a      1509     0    31     1     9
 -6.1884659296838223E+00 a      1510     0    31     1    10
 -6.4001437936369650E+00 a      1511     0    31     1    11
  7.4064470478770552E+00 a      1512     0    31     1    12
 -5.8033316348006219E+00 a      1513     0    31     1    13
 -9.7956602507286838E+00 a      1514     0    31     1    14
 -8.4082461111927120E+00 a      1515     0    31     1    15
  2.1122322509658078E+00 a      1516     0    31     1    16
  5.7592893346818930E-01 a      1517     0    31     1    17
 -1.6037486750016374E+00 a      1518     0    31     1    18
 -2.1591829419139996E+00 a      1519     0    31     1    19
 -4.0981872038946969E+00 a      1520     0    31     1    20
  2.2653780504642547E+00 a      1521     0    31     1    21
 -1.3027949929392586E+00 a      1522     0    31     1    22
 -1.9887305712026551E+00 a      1523     0    31     1    23
  3.6180966664131793E+00 a      1524     0    31     1    24
  4.4065663355434959E+00 a      1525     0    31     1    25
  5.4083295499733692E+00 a      1526     0    31     1    26
  1.2563580095961551E+00 a      1527     0    31     1    27
  4.9146005967406206E+00 a      1528     0    31     1    28
 -6.0226271536508111E+00 a      1529     0    31     1    29
  6.7121102840008939E+00 a      1530     0    31     1    30
 -2.7742340902546223E+00 a      1531     0    31     1    31
 -1.0861331265695602E+01 a      1532     0    31     1    32
  1.0192373707472745E+01 a      1533     0    31     1    33
  6.8911685220170762E+00 a      1534     0    31     1    34
 -7.9243781399013740E+00 a      1535     0    31     1    35
 -5.3485704003999412E+00 a      1536     0    31     1    36
 -6.4836415883910723E+00 a      1537     0    31     1    37
  6.6211684625971960E+00 a      1538     0    31     1    38
  4.7787705684812085E+00 a      1539     0    31     1    39
  8.7364273835976363E+00 a      1540     0    31     1    40
 -3.5500470288708734E+00 a      1541     0    31     1    41
  1.0484442767727423E+01 a      1542     0    31     1    42
 -1.1272336375279295E+00 a      1543     0    31     1    43
 -9.0024851178248966E+00 a      1544     0    31     1    44
 -4.5865367155443781E+00 a      1545     0    31     1    45
 -5.6077772315294559E-02 a      1546     0    31     1    46
 -1.1215189996783856E+00 a      1547     0    31     1    47
  3.0009482615888122E-01 a      1548     0    31     1    48
  9.9684959882879642E+00 a      1549     0    31     1    49
 -3.3524892338204841E+00 a      1550     0    31     1    50
  1.3753251510925447E+01 a      1551     0    32     1     1
 -2.2497355106877848E+00 a      1552     0    32     1     2
  4.5443352518273663E+00 a      1553     0    32     1     3
  2.7017230904416518E+00 a      1554     0    32     1     4
 -3.9497629118903226E+00 a      1555     0    32     1     5
  3.1184556055740922E+00 a      1556     0    32     1     6
  6.9757597411490417E+00 a      1557     0    32     1     7
 -2.8218230936975126E+00 a      1558     0    32     1     8
 -9.6365471952128576E+00 a      1559     0    32     1     9
 -6.4425933867444165E+00 a      1560     0    32     1    10
 -6.3302498791776642E+00 a      1561     0    32     1    11
  7.1356582644019220E+00 a      1562     0    32     1    12
 -5.7269779175107320E+00 a      1563     0    32     1    13
 -9.8372884664545808E+00 a      1564     0    32     1    14
 -8.3904388794761449E+00 a      1565     0    32     1    15
  1.8071746799953179E+00 a      1566     0    32     1    16
  7.9314253384632338E-01 a      1567     0    32     1    17
 -1.7602308992442759E+00 a      1568     0    32     1    18
 -2.4382758022481306E+00 a      1569     0    32     1    19
 -4.3142995633877348E+00 a      1570     0    32     1    20
  2.1469649299069378E+00 a      1571     0    32     1    21
 -1.2705335918910121E+00 a      1572     0    32     1    22
 -2.0507092943768641E+00 a      1573     0    32     1    23
  3.5986879596172630E+00 a      1574     0    32     1    24
  4.3029974519166441E+00 a      1575     0    32     1    25
  5.3164687509069832E+00 a      1576     0    32     1    26
  1.3358492271178319E+00 a      1577     0    32     1    27
  4.9914948364178509E+00 a      1578     0    32     1    28
 -6.0564906337007507E+00 a      1579     0    32     1    29
  6.8172168508333471E+00 a      1580     0    32     1    30
 -2.5512802002527408E+00 a      1581     0    32     1    31
 -1.1134793687388573E+01 a      1582     0    32     1    32
  1.0505986050051716E+01 a      1583     0    32     1    33
  6.9670993733321094E+00 a      1584     0    32     1    34
 -8.1845947412336617E+00 a      1585     0    32     1    35
 -5.5514116605089896E+00 a      1586     0    32     1    36
 -6.4768525895848175E+00 a      1587     0    32     1    37
  6.4526117616219407E+00 a      1588     0    32     1    38
  4.5886719551353501E+00 a      1589     0    32     1    39
  8.9171276279642537E+00 a      1590     0    32     1    40
 -3.2791104668527078E+00 a      1591     0    32     1    41
  1.0173394350053631E+01 a      1592     0    32     1    42
 -9.9959909120074586E-01 a      1593     0    32     1    43
 -8.9408573751230129E+00 a      1594     0    32     1    44
 -4.6780186986689172E+00 a      1595     0    32     1    45
  1.7605925455670521E-01 a      1596     0    32     1    46
 -9.4878449549922361E-01 a      1597     0    32     1    47
  8.2177788619093528E-02 a      1598     0    32     1    48
  1.0231349473449024E+01 a      1599     0    32     1    49
 -2.8890087332458800E+00 a      1600     0    32     1    50
 -1.1269081187894677E+01 a      1601     0    33     1     1
  9.2372387520956245E+00 a      1602     0    33     1     2
  2.6503223964524274E+00 a      1603     0    33     1     3
 -3.4340497251268715E-01 a      1604     0    33     1     4
  8.5414868090197711E+00 a      1605     0    33     1     5
  5.0953704798498523E+00 a      1606     0    33     1     6
 -1.0623363058663603E+01 a      1607     0    33     1     7
  7.7426023021629237E-02 a      1608     0    33     1     8
  9.4603612927124399E+00 a      1609     0    33     1     9
  7.6590012848594720E+00 a      1610     0    33     1    10
  8.1330599086559534E+00 a      1611     0    33     1    11
 -1.0270608757694541E+01 a      1612     0    33     1    12
  1.2712496490122605E+01 a      1613     0    33     1    13
  1.1582364883845282E+01 a      1614     0    33     1    14
  2.2727052119149132E+01 a      1615     0    33     1    15
 -6.2235183327001691E+00 a      1616     0    33     1    16
 -5.3569500153760874E+00 a      1617     0    33     1    17
 -2.5753689666314243E+00 a      1618     0    33     1    18
  6.6807136310875066E+00 a      1619     0    33     1    19
  8.1368244088660209E+00 a      1620     0    33     1    20
 -4.7889004958084218E+00 a      1621     0    33     1    21
  7.7335285457499414E-01 a      1622     0    33     1    22
  1.1273262141764024E+01 a      1623     0    33     1    23
