################################################################################
# Neural network connection values (weights and biases).
################################################################################
# Col  Name       Description
################################################################################
# 1    connection Neural network connection value.
# 2    t          Connection type (a = weight, b = bias).
# 3    index      Index enumerating weights.
# 4    l_s        Starting point layer (end point layer for biases).
# 5    n_s        Starting point neuron in starting layer (end point neuron for biases).
# 6    l_e        End point layer.
# 7    n_e        End point neuron in end layer.
################################################################################
#                      1 2         3     4     5     6     7
#             connection t     index   l_s   n_s   l_e   n_e
############################################################
 -4.7246110851774354E+01 a         1     0     1     1     1
 -2.4507873831945833E+01 a         2     0     1     1     2
 -2.9977626737883032E+00 a         3     0     1     1     3
  7.7192151947416034E+00 a         4     0     1     1     4
  2.5343731491950119E+00 a         5     0     1     1     5
 -7.4063080816444042E+00 a         6     0     1     1     6
 -6.5724428430917206E+00 a         7     0     1     1     7
 -8.2734815413435232E+00 a         8     0     1     1     8
  1.3216158440101071E+00 a         9     0     1     1     9
 -4.9188603863739488E+01 a        10     0     1     1    10
  1.1644453486994961E+00 a        11     0     1     1    11
  8.1994891443551658E+00 a        12     0     1     1    12
  2.3207843853540231E+00 a        13     0     1     1    13
  2.8685905744147046E+01 a        14     0     1     1    14
  1.5754196319132492E+00 a        15     0     1     1    15
  6.9513365343037155E+00 a        16     0     1     1    16
  7.3334722562927027E+01 a        17     0     1     1    17
  3.5929055665061362E+00 a        18     0     1     1    18
  5.9034348673282393E+00 a        19     0     1     1    19
  8.6749709414076435E+00 a        20     0     1     1    20
 -1.8236401453531467E+01 a        21     0     1     1    21
  1.7769273682655005E+00 a        22     0     1     1    22
  5.6728344525575052E+00 a        23     0     1     1    23
 -8.5177585852924040E+01 a        24     0     1     1    24
  5.1100189247908219E+01 a        25     0     1     1    25
  5.9172332080136790E+01 a        26     0     1     1    26
  3.9004936837325040E+01 a        27     0     1     1    27
 -2.0598762673588625E-01 a        28     0     1     1    28
 -1.5471204341007253E+01 a        29     0     1     1    29
 -6.1047348215188633E+00 a        30     0     1     1    30
 -2.9700476458027190E+01 a        31     0     1     1    31
  1.8086414506783338E-01 a        32     0     1     1    32
 -1.7391556396602827E+01 a        33     0     1     1    33
 -5.2209727506612880E-01 a        34     0     1     1    34
  1.8648217834261709E+00 a        35     0     1     1    35
 -7.1567538882726733E-01 a        36     0     1     1    36
 -6.9931590181426753E+00 a        37     0     1     1    37
  2.3431632799373219E+02 a        38     0     1     1    38
 -1.3315797802519320E+01 a        39     0     1     1    39
  1.5223706630841324E+01 a        40     0     1     1    40
  8.7599786370223995E+01 a        41     0     1     1    41
  7.2942339261124133E+01 a        42     0     1     1    42
 -1.1223158483069724E+00 a        43     0     1     1    43
  7.2627789490894310E+00 a        44     0     1     1    44
 -2.7362140695871648E+01 a        45     0     1     1    45
 -1.3649566165392146E+01 a        46     0     1     1    46
 -7.5908176484075103E+00 a        47     0     1     1    47
  2.0374524551125850E+00 a        48     0     1     1    48
  7.7942509553273611E+00 a        49     0     1     1    49
  2.2559359554863847E+00 a        50     0     1     1    50
 -4.9956194256418996E+01 a        51     0     2     1     1
 -2.0710324339682220E+01 a        52     0     2     1     2
 -4.0669488870836163E+00 a        53     0     2     1     3
  8.1354419400023872E+00 a        54     0     2     1     4
  5.4440499525922723E+00 a        55     0     2     1     5
 -7.8027739016947191E+00 a        56     0     2     1     6
 -6.8136817405872208E+00 a        57     0     2     1     7
 -8.4558608559952422E+00 a        58     0     2     1     8
  1.1862114847012712E+00 a        59     0     2     1     9
 -4.4012104622109739E+01 a        60     0     2     1    10
  1.7840223778977038E+00 a        61     0     2     1    11
  1.0888539882706393E+01 a        62     0     2     1    12
  2.5917899365945063E+00 a        63     0     2     1    13
  3.2868083336786086E+01 a        64     0     2     1    14
  2.5036565353974134E+00 a        65     0     2     1    15
  9.8141598200733586E+00 a        66     0     2     1    16
  6.0647670761577864E+01 a        67     0     2     1    17
  4.6381301852200023E+00 a        68     0     2     1    18
  5.2769496733063486E+00 a        69     0     2     1    19
  1.0288220392033034E+01 a        70     0     2     1    20
 -1.9543503088382241E+01 a        71     0     2     1    21
  1.8664584930305479E+00 a        72     0     2     1    22
  3.6342372473843518E+00 a        73     0     2     1    23
 -8.3496486170473304E+01 a        74     0     2     1    24
  4.8249377906535493E+01 a        75     0     2     1    25
  5.0980178595072672E+01 a        76     0     2     1    26
  3.3709761400366581E+01 a        77     0     2     1    27
 -3.3147894322890745E+00 a        78     0     2     1    28
 -1.6454902175818795E+01 a        79     0     2     1    29
 -6.7368743704385414E+00 a        80     0     2     1    30
 -2.5357229027913473E+01 a        81     0     2     1    31
  2.8649504467880686E+00 a        82     0     2     1    32
 -1.3079797672586578E+01 a        83     0     2     1    33
 -3.6907187156536674E+00 a        84     0     2     1    34
  9.8809049619909139E-01 a        85     0     2     1    35
 -2.4433210304518704E+00 a        86     0     2     1    36
 -7.9407083815433852E+00 a        87     0     2     1    37
  2.1136091482300338E+02 a        88     0     2     1    38
 -1.2513145357448273E+01 a        89     0     2     1    39
  1.7076800019404633E+01 a        90     0     2     1    40
  7.8199469821800051E+01 a        91     0     2     1    41
  6.1772336849638492E+01 a        92     0     2     1    42
 -1.1701942063552673E+00 a        93     0     2     1    43
  7.1507054395945877E+00 a        94     0     2     1    44
 -2.8887271200959216E+01 a        95     0     2     1    45
 -1.9289038924204949E+01 a        96     0     2     1    46
 -7.9800028979076512E+00 a        97     0     2     1    47
  1.8065189045694110E+00 a        98     0     2     1    48
  1.1894357805468253E+01 a        99     0     2     1    49
  1.7474308323399528E+00 a       100     0     2     1    50
 -2.1889921303964751E+01 a       101     0     3     1     1
 -2.8561507955642210E+01 a       102     0     3     1     2
 -6.2466297674665650E-01 a       103     0     3     1     3
  2.6583295693207201E+00 a       104     0     3     1     4
 -1.1010150541141346E+01 a       105     0     3     1     5
 -3.9573901857966938E+00 a       106     0     3     1     6
 -3.6839131859155323E+00 a       107     0     3     1     7
 -5.4205648091395613E+00 a       108     0     3     1     8
  1.9465259546489091E+00 a       109     0     3     1     9
 -4.7618446052623291E+01 a       110     0     3     1    10
 -2.5144569438175823E-01 a       111     0     3     1    11
 -3.6907876046431327E+00 a       112     0     3     1    12
  2.5653522964628253E+00 a       113     0     3     1    13
  3.4651535136825973E+00 a       114     0     3     1    14
 -2.9952412905344925E+00 a       115     0     3     1    15
 -9.0398277910546465E+00 a       116     0     3     1    16
  8.8803530519798912E+01 a       117     0     3     1    17
 -1.1192268457287653E+00 a       118     0     3     1    18
  7.4299502398020847E+00 a       119     0     3     1    19
 -2.7529794272120078E-01 a       120     0     3     1    20
 -8.8030374124211956E+00 a       121     0     3     1    21
  1.6112667571422437E+00 a       122     0     3     1    22
  1.0032634846123868E+01 a       123     0     3     1    23
 -5.1897649740035156E+01 a       124     0     3     1    24
  3.7841102604256911E+01 a       125     0     3     1    25
  6.4547298232852796E+01 a       126     0     3     1    26
  4.4928458016902610E+01 a       127     0     3     1    27
  1.1895435530519212E+01 a       128     0     3     1    28
 -7.0512275010770482E+00 a       129     0     3     1    29
 -3.0366600533612531E+00 a       130     0     3     1    30
 -3.1071845037489226E+01 a       131     0     3     1    31
 -1.2621577479316180E+01 a       132     0     3     1    32
 -2.6473854278417786E+01 a       133     0     3     1    33
  1.3938433508126163E+01 a       134     0     3     1    34
  3.4574744586664967E+00 a       135     0     3     1    35
  6.1892809354191352E+00 a       136     0     3     1    36
  3.0993610740109001E-01 a       137     0     3     1    37
  2.2060450091946487E+02 a       138     0     3     1    38
 -1.1476180558114043E+01 a       139     0     3     1    39
  7.5761477880782202E-01 a       140     0     3     1    40
  8.5622725066776056E+01 a       141     0     3     1    41
  8.3543378666770224E+01 a       142     0     3     1    42
 -1.0419805132530944E+00 a       143     0     3     1    43
  5.7089808870548753E+00 a       144     0     3     1    44
 -9.8744351087590534E+00 a       145     0     3     1    45
  1.4745346661469613E+01 a       146     0     3     1    46
 -2.4569086834239910E+00 a       147     0     3     1    47
  2.4226156142547235E+00 a       148     0     3     1    48
 -1.3754374484503508E+01 a       149     0     3     1    49
  4.3503432721417816E+00 a       150     0     3     1    50
 -4.5441257107709177E+01 a       151     0     4     1     1
  5.4678655185826504E+00 a       152     0     4     1     2
 -6.9055425462995004E+00 a       153     0     4     1     3
  5.5669346478298047E+00 a       154     0     4     1     4
  1.6079569837873390E+01 a       155     0     4     1     5
 -7.3727333968958648E+00 a       156     0     4     1     6
 -4.2297021114340509E+00 a       157     0     4     1     7
 -6.0110052406918468E+00 a       158     0     4     1     8
 -7.9563854914405197E-01 a       159     0     4     1     9
  2.7794415213185424E+00 a       160     0     4     1    10
  1.9872300519544739E+00 a       161     0     4     1    11
  1.6794896401651187E+01 a       162     0     4     1    12
  2.6338399033825564E+00 a       163     0     4     1    13
  3.9586530169060595E+01 a       164     0     4     1    14
  5.3908798948964067E+00 a       165     0     4     1    15
  1.9703188622052384E+01 a       166     0     4     1    16
 -3.0536473735740696E+01 a       167     0     4     1    17
  7.4681982342683515E+00 a       168     0     4     1    18
 -8.2549055043244024E-01 a       169     0     4     1    19
  1.0878387780049453E+01 a       170     0     4     1    20
 -1.6654477047236078E+01 a       171     0     4     1    21
  1.4219205277201092E+00 a       172     0     4     1    22
 -7.9450149897409705E+00 a       173     0     4     1    23
 -3.0297875705735407E+01 a       174     0     4     1    24
  9.1653295338536829E+00 a       175     0     4     1    25
 -1.3261688123884227E+01 a       176     0     4     1    26
 -8.7078584575858802E+00 a       177     0     4     1    27
 -1.5088328637168935E+01 a       178     0     4     1    28
 -1.5588013826033665E+01 a       179     0     4     1    29
 -7.3817432961755545E+00 a       180     0     4     1    30
  6.6536446479640370E+00 a       181     0     4     1    31
  1.2315391638906823E+01 a       182     0     4     1    32
  1.0096722021705135E+01 a       183     0     4     1    33
 -1.5731899721769446E+01 a       184     0     4     1    34
 -6.8321663049097676E+00 a       185     0     4     1    35
 -6.9666650605977347E+00 a       186     0     4     1    36
 -1.0083899676501701E+01 a       187     0     4     1    37
 -2.8373248529569139E-01 a       188     0     4     1    38
 -4.2895153394216292E+00 a       189     0     4     1    39
  1.7533288894586242E+01 a       190     0     4     1    40
 -5.3049562890089053E-01 a       191     0     4     1    41
 -1.9565129210287434E+01 a       192     0     4     1    42
  2.2942271129985112E-01 a       193     0     4     1    43
  1.7710086226388118E+00 a       194     0     4     1    44
 -2.1083719048428168E+01 a       195     0     4     1    45
 -3.5676966184417552E+01 a       196     0     4     1    46
 -8.1598933692394784E+00 a       197     0     4     1    47
 -7.7566057721734460E-01 a       198     0     4     1    48
  2.4169323544659957E+01 a       199     0     4     1    49
 -2.4847309064213929E+00 a       200     0     4     1    50
  1.6468411401047071E+01 a       201     0     5     1     1
 -3.7758366073039376E+01 a       202     0     5     1     2
  4.6715615476211241E+00 a       203     0     5     1     3
 -4.2455623872475821E+00 a       204     0     5     1     4
 -3.0300864612984139E+01 a       205     0     5     1     5
  2.3619309724516229E+00 a       206     0     5     1     6
  1.9346128528060841E-01 a       207     0     5     1     7
 -1.1246778136766584E+00 a       208     0     5     1     8
  3.4539052125121530E+00 a       209     0     5     1     9
 -5.5074944542913435E+01 a       210     0     5     1    10
 -2.5333839360498049E+00 a       211     0     5     1    11
 -2.1325981763655946E+01 a       212     0     5     1    12
  2.0336633560169264E+00 a       213     0     5     1    13
 -3.4332036273646864E+01 a       214     0     5     1    14
 -9.2260930464631628E+00 a       215     0     5     1    15
 -3.0647067261380034E+01 a       216     0     5     1    16
  1.2925569435411987E+02 a       217     0     5     1    17
 -8.7483498478809683E+00 a       218     0     5     1    18
  1.1925426396683882E+01 a       219     0     5     1    19
 -1.1777290051772681E+01 a       220     0     5     1    20
  6.5767140365908920E+00 a       221     0     5     1    21
  5.4937407897472501E-01 a       222     0     5     1    22
  1.8364983150574449E+01 a       223     0     5     1    23
 -1.9786799959506464E+01 a       224     0     5     1    24
  3.1677606453275825E+01 a       225     0     5     1    25
  8.4400413986398050E+01 a       226     0     5     1    26
  5.7240324455794507E+01 a       227     0     5     1    27
  2.7993112897287585E+01 a       228     0     5     1    28
  6.0991649544799689E+00 a       229     0     5     1    29
  2.9654221851899734E+00 a       230     0     5     1    30
 -4.0457462081856349E+01 a       231     0     5     1    31
 -2.8868702168266513E+01 a       232     0     5     1    32
 -4.0941974515460075E+01 a       233     0     5     1    33
  3.2194323158845741E+01 a       234     0     5     1    34
  8.7038812596249233E+00 a       235     0     5     1    35
  1.2840973379431373E+01 a       236     0     5     1    36
  1.0921981745395046E+01 a       237     0     5     1    37
  2.3406977492094217E+02 a       238     0     5     1    38
 -1.0697867970792595E+01 a       239     0     5     1    39
 -1.8253313513959110E+01 a       240     0     5     1    40
  8.8704979211514356E+01 a       241     0     5     1    41
  1.1223026338252087E+02 a       242     0     5     1    42
 -4.7603955698336885E-02 a       243     0     5     1    43
  4.1131425522817606E+00 a       244     0     5     1    44
  1.1404834997939981E+01 a       245     0     5     1    45
  5.4075829566226339E+01 a       246     0     5     1    46
  5.2147569413691732E+00 a       247     0     5     1    47
  2.4979329093610576E+00 a       248     0     5     1    48
 -4.3243048690032822E+01 a       249     0     5     1    49
  7.6647360825655069E+00 a       250     0     5     1    50
 -3.3640616968554397E+01 a       251     0     6     1     1
  4.4592554621890997E+01 a       252     0     6     1     2
 -1.0876510911764965E+01 a       253     0     6     1     3
  1.0354453151839360E+00 a       254     0     6     1     4
  3.2123031640680480E+01 a       255     0     6     1     5
 -6.1868885528482238E+00 a       256     0     6     1     6
 -6.4784522597348304E-01 a       257     0     6     1     7
 -2.1589865674782036E+00 a       258     0     6     1     8
 -4.8791234427334249E+00 a       259     0     6     1     9
  7.2655815152347984E+01 a       260     0     6     1    10
  1.4608969418578643E+00 a       261     0     6     1    11
  2.4587847916785307E+01 a       262     0     6     1    12
  2.8828938922098293E+00 a       263     0     6     1    13
  4.6875923455545582E+01 a       264     0     6     1    14
  9.8551117414951754E+00 a       265     0     6     1    15
  3.3026063552949374E+01 a       266     0     6     1    16
 -1.6636405752849913E+02 a       267     0     6     1    17
  1.1485653091404032E+01 a       268     0     6     1    18
 -9.2663783647208202E+00 a       269     0     6     1    19
  1.0516108958933284E+01 a       270     0     6     1    20
 -1.1108926635775191E+01 a       271     0     6     1    21
  4.3745341246607117E-01 a       272     0     6     1    22
 -2.6331598986124362E+01 a       273     0     6     1    23
  4.8801247327373126E+01 a       274     0     6     1    24
 -4.8561735286046833E+01 a       275     0     6     1    25
 -1.0824904122336326E+02 a       276     0     6     1    26
 -7.2601729333850898E+01 a       277     0     6     1    27
 -3.2544338766781429E+01 a       278     0     6     1    28
 -1.2611479262662131E+01 a       279     0     6     1    29
 -6.6339841595228224E+00 a       280     0     6     1    30
  5.4706900568838094E+01 a       281     0     6     1    31
  2.7422147826639350E+01 a       282     0     6     1    32
  4.4641760417035883E+01 a       283     0     6     1    33
 -3.1794967498132269E+01 a       284     0     6     1    34
 -1.6897651080242909E+01 a       285     0     6     1    35
 -1.3960558227814333E+01 a       286     0     6     1    36
 -1.1510014066671280E+01 a       287     0     6     1    37
 -3.1416994439209168E+02 a       288     0     6     1    38
  9.4206215920979783E+00 a       289     0     6     1    39
  1.7883756314457074E+01 a       290     0     6     1    40
 -1.1504883371021621E+02 a       291     0     6     1    41
 -1.4085413702874499E+02 a       292     0     6     1    42
  2.5271242883565557E+00 a       293     0     6     1    43
 -6.2848998036502328E+00 a       294     0     6     1    44
 -8.0509453551010584E+00 a       295     0     6     1    45
 -6.0166766338964614E+01 a       296     0     6     1    46
 -6.6423252191435909E+00 a       297     0     6     1    47
 -4.0385961699911030E+00 a       298     0     6     1    48
  4.1860091648052425E+01 a       299     0     6     1    49
 -8.7979042857300129E+00 a       300     0     6     1    50
  3.8168015961005786E+01 a       301     0     7     1     1
 -3.2478378683782857E+01 a       302     0     7     1     2
  6.8535126172725587E+00 a       303     0     7     1     3
 -7.5191483051409946E+00 a       304     0     7     1     4
 -3.7405456951717248E+01 a       305     0     7     1     5
  7.1727012607022465E+00 a       306     0     7     1     6
  3.6642341915016039E+00 a       307     0     7     1     7
  2.2229539955006645E+00 a       308     0     7     1     8
  4.6837116017633118E+00 a       309     0     7     1     9
 -3.9406214471796631E+01 a       310     0     7     1    10
 -2.4641691996309287E+00 a       311     0     7     1    11
 -2.8856487121613441E+01 a       312     0     7     1    12
  2.2090977771998235E+00 a       313     0     7     1    13
 -5.3346295749966252E+01 a       314     0     7     1    14
 -1.1831567914798383E+01 a       315     0     7     1    15
 -3.9088088325535040E+01 a       316     0     7     1    16
  1.1657747286655442E+02 a       317     0     7     1    17
 -1.1218418284087576E+01 a       318     0     7     1    18
  1.2978376172827801E+01 a       319     0     7     1    19
 -1.7310869401052631E+01 a       320     0     7     1    20
  1.7950500094114197E+01 a       321     0     7     1    21
  1.3544487358635326E-01 a       322     0     7     1    22
  1.9728907638911082E+01 a       323     0     7     1    23
  2.1624632251842140E+01 a       324     0     7     1    24
  1.4918313695006992E+01 a       325     0     7     1    25
  6.8542666905971288E+01 a       326     0     7     1    26
  4.7417885004718663E+01 a       327     0     7     1    27
  3.2338728772633729E+01 a       328     0     7     1    28
  1.2661412751081764E+01 a       329     0     7     1    29
  4.3196194323822255E+00 a       330     0     7     1    30
 -3.3422297197495375E+01 a       331     0     7     1    31
 -3.5412421000491662E+01 a       332     0     7     1    32
 -3.7461563177981283E+01 a       333     0     7     1    33
  3.4049893278173947E+01 a       334     0     7     1    34
  8.6630146845676226E+00 a       335     0     7     1    35
  1.4319021783076346E+01 a       336     0     7     1    36
  1.4754212918937725E+01 a       337     0     7     1    37
  1.4673628098844739E+02 a       338     0     7     1    38
 -8.6310630236242076E+00 a       339     0     7     1    39
 -3.2100413776470276E+01 a       340     0     7     1    40
  4.7516056995578658E+01 a       341     0     7     1    41
  9.4478661005694747E+01 a       342     0     7     1    42
  3.0630377184451838E+00 a       343     0     7     1    43
  1.7403528689852832E+00 a       344     0     7     1    44
  2.3515249884160216E+01 a       345     0     7     1    45
  6.9605331459718798E+01 a       346     0     7     1    46
  1.0419296066514793E+01 a       347     0     7     1    47
  8.9709738661143268E-01 a       348     0     7     1    48
 -5.4188839862828289E+01 a       349     0     7     1    49
  8.0889824196693887E+00 a       350     0     7     1    50
 -1.0901008284626087E+01 a       351     0     8     1     1
  6.1159477176747245E+01 a       352     0     8     1     2
 -1.0319092595845438E+01 a       353     0     8     1     3
 -4.6262248412983382E+00 a       354     0     8     1     4
  3.9244526644721738E+01 a       355     0     8     1     5
 -4.5882539248712204E+00 a       356     0     8     1     6
  3.1681799398843888E+00 a       357     0     8     1     7
  2.4512291860968194E+00 a       358     0     8     1     8
 -7.6933613772140443E+00 a       359     0     8     1     9
  9.8173658050213788E+01 a       360     0     8     1    10
 -1.4331623692276099E+00 a       361     0     8     1    11
  2.5617349569139026E+01 a       362     0     8     1    12
  3.5084407130979831E+00 a       363     0     8     1    13
  4.0817769870526604E+01 a       364     0     8     1    14
  1.0546878481865562E+01 a       365     0     8     1    15
  3.6814846821517676E+01 a       366     0     8     1    16
 -2.1777005133819017E+02 a       367     0     8     1    17
  1.1453387109889663E+01 a       368     0     8     1    18
 -1.2677724657417345E+01 a       369     0     8     1    19
  8.6998184745831253E+00 a       370     0     8     1    20
 -2.8889106283042980E+00 a       371     0     8     1    21
 -9.9285357793219220E-01 a       372     0     8     1    22
 -3.4409422033867266E+01 a       373     0     8     1    23
  8.0421877319106883E+01 a       374     0     8     1    24
 -7.0104440551879946E+01 a       375     0     8     1    25
 -1.4357799039435812E+02 a       376     0     8     1    26
 -1.0151207006579541E+02 a       377     0     8     1    27
 -4.0002785323249846E+01 a       378     0     8     1    28
 -4.6954347884481091E+00 a       379     0     8     1    29
 -1.2150961494143611E+00 a       380     0     8     1    30
  7.2683148986238962E+01 a       381     0     8     1    31
  3.8342972531092485E+01 a       382     0     8     1    32
  5.8306886139802238E+01 a       383     0     8     1    33
 -3.4533265821382557E+01 a       384     0     8     1    34
 -1.6299812895263386E+01 a       385     0     8     1    35
 -2.1074445300421786E+01 a       386     0     8     1    36
 -7.6691627709378016E+00 a       387     0     8     1    37
 -4.4060218702583393E+02 a       388     0     8     1    38
  1.9348634263697939E+01 a       389     0     8     1    39
  2.0154278480953330E+01 a       390     0     8     1    40
 -1.5858695588419889E+02 a       391     0     8     1    41
 -1.8812975644709383E+02 a       392     0     8     1    42
  2.8881136442732500E+00 a       393     0     8     1    43
 -1.1506314250403658E+01 a       394     0     8     1    44
  1.3885896236443247E+00 a       395     0     8     1    45
 -6.9674837215563841E+01 a       396     0     8     1    46
 -2.8217648567783682E+00 a       397     0     8     1    47
 -5.6542387069107143E+00 a       398     0     8     1    48
  4.6363944772843659E+01 a       399     0     8     1    49
 -1.0989280183228328E+01 a       400     0     8     1    50
  3.0977674207826322E+01 a       401     0     9     1     1
  2.4117874759835264E+01 a       402     0     9     1     2
 -2.0867523619105146E+00 a       403     0     9     1     3
 -7.4907613413160394E+00 a       404     0     9     1     4
 -2.2180707292770514E+01 a       405     0     9     1     5
  9.5453127348467728E+00 a       406     0     9     1     6
  6.4234668930157666E+00 a       407     0     9     1     7
  3.9093934756203215E+00 a       408     0     9     1     8
  3.5735754227348027E+00 a       409     0     9     1     9
  7.6355245796606027E+01 a       410     0     9     1    10
  3.6690334060153931E+00 a       411     0     9     1    11
 -1.9176747491407220E+01 a       412     0     9     1    12
  1.8770046652332077E+00 a       413     0     9     1    13
 -3.6205361324908310E+01 a       414     0     9     1    14
 -5.4851255832693564E+00 a       415     0     9     1    15
 -2.3788235721895667E+01 a       416     0     9     1    16
 -9.2314036895945023E+01 a       417     0     9     1    17
 -3.1561420657541506E+00 a       418     0     9     1    18
  2.6510214378803805E+00 a       419     0     9     1    19
 -1.6458892470905997E+01 a       420     0     9     1    20
  2.0997880395186517E+01 a       421     0     9     1    21
  1.1781083408801674E+00 a       422     0     9     1    22
 -3.9221644134165534E+00 a       423     0     9     1    23
  1.6792937110767630E+02 a       424     0     9     1    24
 -8.5043065402858446E+01 a       425     0     9     1    25
 -8.4299701349696306E+01 a       426     0     9     1    26
 -4.1140982390428967E+01 a       427     0     9     1    27
  1.4506359005266276E+01 a       428     0     9     1    28
  6.2045459976087365E+00 a       429     0     9     1    29
 -5.1923902352084914E+00 a       430     0     9     1    30
  4.2477170717237165E+01 a       431     0     9     1    31
 -3.1875831665142808E+01 a       432     0     9     1    32
  1.2435078648820769E+01 a       433     0     9     1    33
  5.6086043146295221E+00 a       434     0     9     1    34
 -1.5264584221487674E+01 a       435     0     9     1    35
  1.7150583789072723E+01 a       436     0     9     1    36
  4.4412775648995186E+00 a       437     0     9     1    37
 -3.5716628739929149E+02 a       438     0     9     1    38
  7.5967544222989924E-01 a       439     0     9     1    39
 -4.5778771149500152E+01 a       440     0     9     1    40
 -1.4745648701107234E+02 a       441     0     9     1    41
 -9.2519418223833327E+01 a       442     0     9     1    42
  9.6672056470320200E+00 a       443     0     9     1    43
 -5.6866167227142395E+00 a       444     0     9     1    44
  4.2099085475911394E+01 a       445     0     9     1    45
  4.6937151874191507E+01 a       446     0     9     1    46
  8.9056374092892305E+00 a       447     0     9     1    47
 -4.3045787839574823E+00 a       448     0     9     1    48
 -3.2762737659445307E+01 a       449     0     9     1    49
 -6.4987345994091905E-01 a       450     0     9     1    50
  2.5718273529987080E+01 a       451     0    10     1     1
  2.4794969623807795E+01 a       452     0    10     1     2
 -6.8505119281041427E-01 a       453     0    10     1     3
 -1.0757662876436557E+01 a       454     0    10     1     4
  2.5585553360282404E+01 a       455     0    10     1     5
 -1.5225990433419978E+00 a       456     0    10     1     6
  5.5480191437780677E+00 a       457     0    10     1     7
  5.7465316046615582E+00 a       458     0    10     1     8
 -7.2145850578259125E+00 a       459     0    10     1     9
  1.6804410139887640E+01 a       460     0    10     1    10
 -9.1076968122761173E+00 a       461     0    10     1    11
  1.2401147471146725E+01 a       462     0    10     1    12
  3.6801414493147546E+00 a       463     0    10     1    13
  7.9254754367467015E+00 a       464     0    10     1    14
  2.3596660388446931E+00 a       465     0    10     1    15
  2.0203378007760545E+01 a       466     0    10     1    16
 -6.1142304221097085E+01 a       467     0    10     1    17
  2.1399337504640683E+00 a       468     0    10     1    18
 -3.7410291518571803E+00 a       469     0    10     1    19
  3.1666040342324737E+00 a       470     0    10     1    20
  8.5456897782026839E+00 a       471     0    10     1    21
 -3.7760913152696256E+00 a       472     0    10     1    22
 -1.5104106410447200E+01 a       473     0    10     1    23
 -1.0105131096009277E+01 a       474     0    10     1    24
 -5.4440646617088827E-02 a       475     0    10     1    25
 -3.2988998058888029E+01 a       476     0    10     1    26
 -4.5983957496700114E+01 a       477     0    10     1    27
 -2.6311680220380246E+01 a       478     0    10     1    28
  9.8919229236747235E+00 a       479     0    10     1    29
  1.2107584546296973E+01 a       480     0    10     1    30
  1.6954543153017081E+01 a       481     0    10     1    31
  3.8475914137989541E+01 a       482     0    10     1    32
  2.5526839771057709E+01 a       483     0    10     1    33
 -1.2420110151999411E+01 a       484     0    10     1    34
  6.2385069373594080E+00 a       485     0    10     1    35
 -3.0436128101877497E+01 a       486     0    10     1    36
  7.0759310624720078E+00 a       487     0    10     1    37
 -1.1862876300527751E+02 a       488     0    10     1    38
  1.7272800574374500E+01 a       489     0    10     1    39
  2.4421319718323581E+01 a       490     0    10     1    40
 -4.1635248056141172E+01 a       491     0    10     1    41
 -5.5868442977956605E+01 a       492     0    10     1    42
 -3.4339190267235575E-01 a       493     0    10     1    43
 -8.9122310606316475E+00 a       494     0    10     1    44
 -2.6529610692438443E+00 a       495     0    10     1    45
 -4.4480035935015508E+01 a       496     0    10     1    46
  4.7458749152339532E+00 a       497     0    10     1    47
 -3.7210558803246783E+00 a       498     0    10     1    48
  2.2764725026590572E+01 a       499     0    10     1    49
 -3.1301098414679114E+00 a       500     0    10     1    50
  5.8188826428896320E+01 a       501     0    11     1     1
  2.0452482357415111E+01 a       502     0    11     1     2
  6.4610276900118340E+00 a       503     0    11     1     3
 -1.1447275965282936E+01 a       504     0    11     1     4
  3.3816678961568790E+01 a       505     0    11     1     5
  6.9834108725248258E+00 a       506     0    11     1     6
  6.5420394952330456E+00 a       507     0    11     1     7
  1.5414690658373960E+01 a       508     0    11     1     8
 -4.4574199427049530E+00 a       509     0    11     1     9
  1.2321098308907290E+01 a       510     0    11     1    10
 -8.4622889144870612E+00 a       511     0    11     1    11
  1.2730086791723352E+01 a       512     0    11     1    12
  2.6427254058584562E+00 a       513     0    11     1    13
 -3.4452618997699012E+00 a       514     0    11     1    14
  5.7522331049821647E+00 a       515     0    11     1    15
  2.8229665896405990E+01 a       516     0    11     1    16
 -6.5133890902973590E+01 a       517     0    11     1    17
  5.9324692825880598E+00 a       518     0    11     1    18
  2.8678074289532116E+00 a       519     0    11     1    19
  8.4824430279095147E+00 a       520     0    11     1    20
  2.9012736506245115E+01 a       521     0    11     1    21
 -8.4443351022751720E+00 a       522     0    11     1    22
 -1.9388517811439097E+01 a       523     0    11     1    23
 -2.9951188900278709E+01 a       524     0    11     1    24
  2.2833628849552348E+01 a       525     0    11     1    25
 -3.3798776711795696E+01 a       526     0    11     1    26
 -5.4846417283440715E+01 a       527     0    11     1    27
 -3.5613498420119541E+01 a       528     0    11     1    28
  1.9997531375024664E+01 a       529     0    11     1    29
  1.6885499675043128E+01 a       530     0    11     1    30
  1.4164255291409797E+01 a       531     0    11     1    31
  5.3814396589590551E+01 a       532     0    11     1    32
  2.9567946384588858E+01 a       533     0    11     1    33
 -1.6559431174431950E+01 a       534     0    11     1    34
  2.2505406036696179E+01 a       535     0    11     1    35
 -4.5121149751491863E+01 a       536     0    11     1    36
  6.8953535493118796E+00 a       537     0    11     1    37
 -1.1337048299252076E+02 a       538     0    11     1    38
  2.3066685059195333E+01 a       539     0    11     1    39
  3.4392957985789707E+01 a       540     0    11     1    40
 -4.6900622286810112E+01 a       541     0    11     1    41
 -6.3831421759883035E+01 a       542     0    11     1    42
  5.4954039288127046E+00 a       543     0    11     1    43
 -1.5890024663975639E+01 a       544     0    11     1    44
 -1.1752632730616108E+01 a       545     0    11     1    45
 -6.7875558400302907E+01 a       546     0    11     1    46
  1.2358874419550098E+01 a       547     0    11     1    47
 -9.8479138167032048E+00 a       548     0    11     1    48
  3.4890109941814401E+01 a       549     0    11     1    49
 -4.8326439436927284E+00 a       550     0    11     1    50
 -1.9169390870853040E+00 a       551     0    12     1     1
  2.8027626512214063E+01 a       552     0    12     1     2
 -7.0565010426897468E+00 a       553     0    12     1     3
 -1.2322360059444462E+01 a       554     0    12     1     4
  1.3128667984769313E+01 a       555     0    12     1     5
 -9.6332528761575951E+00 a       556     0    12     1     6
  4.6294331069756449E+00 a       557     0    12     1     7
 -4.0056674828595762E+00 a       558     0    12     1     8
 -1.1806503741627987E+01 a       559     0    12     1     9
  3.0655281883636050E+01 a       560     0    12     1    10
 -9.5822280223207148E+00 a       561     0    12     1    11
  8.5293267095760310E+00 a       562     0    12     1    12
  4.4880656203479568E+00 a       563     0    12     1    13
  1.3221378456726853E+01 a       564     0    12     1    14
 -1.2020916270409501E+00 a       565     0    12     1    15
  7.1368008208069504E+00 a       566     0    12     1    16
 -6.6408910104154302E+01 a       567     0    12     1    17
 -3.9148049976958146E+00 a       568     0    12     1    18
 -1.2212409462978144E+01 a       569     0    12     1    19
 -5.8457408634362373E+00 a       570     0    12     1    20
 -1.1569900928880678E+01 a       571     0    12     1    21
  1.8207181357548461E+00 a       572     0    12     1    22
 -1.2081673076225840E+01 a       573     0    12     1    23
  3.2958107389982054E+01 a       574     0    12     1    24
 -3.6477166232620213E+01 a       575     0    12     1    25
 -4.0362080707145672E+01 a       576     0    12     1    26
 -3.7384788229926684E+01 a       577     0    12     1    27
 -1.2323343280063293E+01 a       578     0    12     1    28
  2.5015762850031895E+00 a       579     0    12     1    29
  6.9095284051449131E+00 a       580     0    12     1    30
  2.4375756187330140E+01 a       581     0    12     1    31
  1.6964810099341388E+01 a       582     0    12     1    32
  1.7141169273153512E+01 a       583     0    12     1    33
 -1.3051577403692509E+00 a       584     0    12     1    34
 -1.2485989429274138E+01 a       585     0    12     1    35
 -8.8572392441897261E+00 a       586     0    12     1    36
  9.2661181421748768E+00 a       587     0    12     1    37
 -1.4834416739716056E+02 a       588     0    12     1    38
  1.4027174607544387E+01 a       589     0    12     1    39
  9.0982454416321854E+00 a       590     0    12     1    40
 -3.7571798967951096E+01 a       591     0    12     1    41
 -5.6098556355355079E+01 a       592     0    12     1    42
 -7.2429770538141209E+00 a       593     0    12     1    43
 -3.4618788357981995E+00 a       594     0    12     1    44
  1.7281651075198177E+01 a       595     0    12     1    45
 -1.0273078371833849E+01 a       596     0    12     1    46
 -2.2249002854015867E+00 a       597     0    12     1    47
  3.4244130555650676E+00 a       598     0    12     1    48
  3.0897025264451550E+00 a       599     0    12     1    49
 -2.0798095175441977E+00 a       600     0    12     1    50
  4.5916558609949327E+01 a       601     0    13     1     1
 -4.5518942301233643E+01 a       602     0    13     1     2
  2.1675871446982303E+01 a       603     0    13     1     3
  1.9953055785891016E+00 a       604     0    13     1     4
  3.0527107065888988E+01 a       605     0    13     1     5
  4.9273987971211355E+00 a       606     0    13     1     6
 -4.8864097389551269E+00 a       607     0    13     1     7
  2.0677220397875601E+01 a       608     0    13     1     8
  1.2882624830267324E+00 a       609     0    13     1     9
 -5.0897254218960590E+01 a       610     0    13     1    10
 -2.4923597878602863E+00 a       611     0    13     1    11
  1.2220853534215664E+01 a       612     0    13     1    12
  4.2302989705653563E-02 a       613     0    13     1    13
  3.7892823006078644E+00 a       614     0    13     1    14
  1.8287446797255814E+01 a       615     0    13     1    15
  2.8710423444401002E+01 a       616     0    13     1    16
  2.8978091518170341E+01 a       617     0    13     1    17
  1.0977704384566243E+01 a       618     0    13     1    18
  1.1349194218605611E+01 a       619     0    13     1    19
  1.6705587026979092E+01 a       620     0    13     1    20
  2.0845413986037233E+01 a       621     0    13     1    21
 -1.0422901776572690E+01 a       622     0    13     1    22
 -1.3372461018089057E+01 a       623     0    13     1    23
 -1.4258777140142357E+02 a       624     0    13     1    24
  1.0731996853563588E+02 a       625     0    13     1    25
  4.8923966258238273E+01 a       626     0    13     1    26
  1.7140682520469323E+01 a       627     0    13     1    27
 -2.4346644916905060E+01 a       628     0    13     1    28
  1.8819980485796719E+01 a       629     0    13     1    29
  1.2731436472484784E+01 a       630     0    13     1    30
 -2.7744600605894483E+01 a       631     0    13     1    31
  4.9930774361370830E+01 a       632     0    13     1    32
 -2.2811494767708389E+01 a       633     0    13     1    33
  9.1607718139936747E+00 a       634     0    13     1    34
  4.2608154053534001E+01 a       635     0    13     1    35
 -2.9750577573582664E+01 a       636     0    13     1    36
 -5.7610940944576483E-01 a       637     0    13     1    37
  2.9366413028084213E+02 a       638     0    13     1    38
  1.5713921616698013E+01 a       639     0    13     1    39
  5.6357138065260486E+01 a       640     0    13     1    40
  1.3622134739126514E+02 a       641     0    13     1    41
  3.6545021042309088E+01 a       642     0    13     1    42
 -1.0656756913604708E-01 a       643     0    13     1    43
 -1.7160822146383801E+01 a       644     0    13     1    44
 -3.9752925024171020E+01 a       645     0    13     1    45
 -8.2475069085209810E+01 a       646     0    13     1    46
  7.5202401046311085E+00 a       647     0    13     1    47
 -6.3254659066428571E+00 a       648     0    13     1    48
  4.5739992214749371E+01 a       649     0    13     1    49
 -4.1733899889470827E+00 a       650     0    13     1    50
  5.9361146922478746E+01 a       651     0    14     1     1
 -6.1695966005431600E+01 a       652     0    14     1     2
  2.8639461007492102E+01 a       653     0    14     1     3
 -2.9590781165997885E+01 a       654     0    14     1     4
 -4.2174478261400566E+01 a       655     0    14     1     5
  6.2437311228980141E-01 a       656     0    14     1     6
  1.2861001675453547E+01 a       657     0    14     1     7
 -2.8384759028697637E+00 a       658     0    14     1     8
 -5.7696944379259003E+00 a       659     0    14     1     9
 -2.6493469982004662E+01 a       660     0    14     1    10
 -1.9057847292401984E+01 a       661     0    14     1    11
 -2.9315051312962208E+01 a       662     0    14     1    12
  2.9736730021436899E+00 a       663     0    14     1    13
 -6.9271781388444467E+01 a       664     0    14     1    14
 -3.3525438926941784E+00 a       665     0    14     1    15
 -5.2017668029755612E+01 a       666     0    14     1    16
  1.4994432850914842E+02 a       667     0    14     1    17
 -3.5266423127550354E+01 a       668     0    14     1    18
 -8.3559099930732010E+00 a       669     0    14     1    19
 -3.2211979670233255E+01 a       670     0    14     1    20
  7.8210416184944425E+00 a       671     0    14     1    21
  8.7774806793099707E+00 a       672     0    14     1    22
  3.8617934009969339E+01 a       673     0    14     1    23
  4.8899306915702795E+01 a       674     0    14     1    24
  5.5568487560179484E+01 a       675     0    14     1    25
  8.9643403320772407E+01 a       676     0    14     1    26
  4.2020981849985191E+01 a       677     0    14     1    27
  3.6258818984978184E+01 a       678     0    14     1    28
  2.5172348428520316E+01 a       679     0    14     1    29
  1.7670283243893660E+01 a       680     0    14     1    30
 -4.0407960173487183E+01 a       681     0    14     1    31
 -3.8060650737034194E+01 a       682     0    14     1    32
 -6.1918447531379222E+01 a       683     0    14     1    33
  4.8754905066034006E+01 a       684     0    14     1    34
 -2.5830265334672524E+00 a       685     0    14     1    35
  9.9183295779446965E+00 a       686     0    14     1    36
  3.7140841478646642E+01 a       687     0    14     1    37
  1.3428592285566043E+02 a       688     0    14     1    38
  4.3850536424745412E+00 a       689     0    14     1    39
 -5.0340168322990728E+01 a       690     0    14     1    40
  2.3091342285530061E+01 a       691     0    14     1    41
  8.9949951414684605E+01 a       692     0    14     1    42
 -8.8226280146729419E+00 a       693     0    14     1    43
 -8.1854262506193809E+00 a       694     0    14     1    44
  5.5430094688348525E+01 a       695     0    14     1    45
  1.0291872646686134E+02 a       696     0    14     1    46
  1.4544364544587165E+01 a       697     0    14     1    47
  8.9230951828242961E+00 a       698     0    14     1    48
 -8.2607674913531866E+01 a       699     0    14     1    49
  1.7356986939430548E+01 a       700     0    14     1    50
 -5.3286085244232417E+01 a       701     0    15     1     1
  2.2673229321922705E+01 a       702     0    15     1     2
 -1.6050885692919397E+01 a       703     0    15     1     3
  5.3380974293391631E+01 a       704     0    15     1     4
 -6.4830119592661134E+01 a       705     0    15     1     5
 -5.0234632918050828E+00 a       706     0    15     1     6
 -1.1912945470566008E+01 a       707     0    15     1     7
 -4.9964098064798588E+00 a       708     0    15     1     8
  1.2769742772414327E+01 a       709     0    15     1     9
 -4.4520048712543376E+00 a       710     0    15     1    10
  3.0853748603896783E+01 a       711     0    15     1    11
 -4.0817757152925211E+01 a       712     0    15     1    12
 -1.1355879009681761E+01 a       713     0    15     1    13
 -3.0826073311746992E+01 a       714     0    15     1    14
 -2.5439219138207555E+01 a       715     0    15     1    15
 -5.8152020030747721E+01 a       716     0    15     1    16
  7.8002148060081225E+01 a       717     0    15     1    17
 -4.0066672472382505E+00 a       718     0    15     1    18
  2.6981054907937656E+00 a       719     0    15     1    19
 -1.3441038694860211E+01 a       720     0    15     1    20
 -3.1720131298586587E+01 a       721     0    15     1    21
  1.8715692600215450E-01 a       722     0    15     1    22
  3.6739666791491828E+01 a       723     0    15     1    23
  7.8171393667700130E+01 a       724     0    15     1    24
 -1.2135572267759544E+02 a       725     0    15     1    25
  6.0150093889675045E+00 a       726     0    15     1    26
  8.0606328678615938E+01 a       727     0    15     1    27
  7.2386957714431233E+01 a       728     0    15     1    28
 -1.2011210655125723E+01 a       729     0    15     1    29
 -3.7901104262192547E+01 a       730     0    15     1    30
 -8.7436778801470130E+00 a       731     0    15     1    31
 -1.0055812959590054E+02 a       732     0    15     1    32
  2.2983131939020485E+00 a       733     0    15     1    33
 -6.9232286780611316E+00 a       734     0    15     1    34
 -3.3098613481426590E+01 a       735     0    15     1    35
  9.2146215620611102E+01 a       736     0    15     1    36
 -2.4890607058970126E+01 a       737     0    15     1    37
  1.0897542349983722E+01 a       738     0    15     1    38
 -4.4084927216833123E+01 a       739     0    15     1    39
 -8.4365409731325371E+01 a       740     0    15     1    40
 -1.0434737393401042E+01 a       741     0    15     1    41
  7.3563778059681610E+01 a       742     0    15     1    42
 -2.2520301410132923E+01 a       743     0    15     1    43
  3.9189968330817955E+01 a       744     0    15     1    44
  1.1853158137919090E+01 a       745     0    15     1    45
  1.3148405196935701E+02 a       746     0    15     1    46
 -1.9484997838545542E+01 a       747     0    15     1    47
  1.6923269965580793E+01 a       748     0    15     1    48
 -3.9544282062332350E+01 a       749     0    15     1    49
  6.7378541445993020E-02 a       750     0    15     1    50
 -2.8334035043824247E+01 a       751     0    16     1     1
  2.1918507017285428E+01 a       752     0    16     1     2
 -1.2764250540484506E+01 a       753     0    16     1     3
  2.6612636732533844E+01 a       754     0    16     1     4
 -2.0558597822805936E+01 a       755     0    16     1     5
  3.3397131594006439E+01 a       756     0    16     1     6
 -1.2506003816664085E+01 a       757     0    16     1     7
  3.8957625599785989E-01 a       758     0    16     1     8
  1.9071174010538265E+01 a       759     0    16     1     9
  5.6959159137790927E-01 a       760     0    16     1    10
  2.1094407463873381E+01 a       761     0    16     1    11
 -8.8266139202213143E+00 a       762     0    16     1    12
 -2.2689690547854159E+01 a       763     0    16     1    13
 -3.7341461406461374E+00 a       764     0    16     1    14
 -8.4851974206354459E+00 a       765     0    16     1    15
 -3.2247172183114654E+00 a       766     0    16     1    16
 -5.3271997551341093E+00 a       767     0    16     1    17
  1.8904819457631845E+01 a       768     0    16     1    18
  5.9245696682241027E+00 a       769     0    16     1    19
  1.6659023780298195E+01 a       770     0    16     1    20
  6.7024513683865621E+00 a       771     0    16     1    21
 -3.2697173278742614E-01 a       772     0    16     1    22
  4.3935611692786924E+00 a       773     0    16     1    23
  2.0199967260935465E+00 a       774     0    16     1    24
 -5.2828952574541738E+01 a       775     0    16     1    25
 -1.6751889498911119E+01 a       776     0    16     1    26
  2.9692997101734136E+01 a       777     0    16     1    27
  1.7336321836713005E+01 a       778     0    16     1    28
 -1.2213090792552624E+01 a       779     0    16     1    29
 -1.9002219258009955E+01 a       780     0    16     1    30
 -9.7709127281571528E-01 a       781     0    16     1    31
 -2.7395426023466943E+01 a       782     0    16     1    32
  1.7994732455993457E+01 a       783     0    16     1    33
 -2.1001911607297178E+01 a       784     0    16     1    34
  2.1628936252462942E+00 a       785     0    16     1    35
  3.4784121030645622E+01 a       786     0    16     1    36
 -3.5892759722523877E+01 a       787     0    16     1    37
  2.1007522001331264E+01 a       788     0    16     1    38
 -1.8446334690873197E+01 a       789     0    16     1    39
 -7.4939542175089944E+00 a       790     0    16     1    40
  1.0843178021326670E+01 a       791     0    16     1    41
  1.4108977605439762E+01 a       792     0    16     1    42
  1.8398326599257501E+01 a       793     0    16     1    43
  1.7262341721776618E+01 a       794     0    16     1    44
 -1.8450560296139646E+01 a       795     0    16     1    45
  1.5959826484358908E+01 a       796     0    16     1    46
 -6.9803427229613781E+00 a       797     0    16     1    47
 -6.5512101429994241E+00 a       798     0    16     1    48
  1.6652283059477845E+01 a       799     0    16     1    49
 -7.4681684553203080E+00 a       800     0    16     1    50
  6.6093137059684812E+00 a       801     0    17     1     1
 -2.8571814222587619E+00 a       802     0    17     1     2
  4.2342190299431968E+00 a       803     0    17     1     3
 -1.8374203167473329E+01 a       804     0    17     1     4
  1.4103955673302393E+00 a       805     0    17     1     5
  5.9012182006215168E+00 a       806     0    17     1     6
  3.2339214008800332E+00 a       807     0    17     1     7
 -6.8674438617273701E+00 a       808     0    17     1     8
  1.8739827398282851E+00 a       809     0    17     1     9
  6.0388696946171940E+00 a       810     0    17     1    10
 -7.4976208685550123E+00 a       811     0    17     1    11
  9.4472026933596887E+00 a       812     0    17     1    12
 -1.1279643462447715E+00 a       813     0    17     1    13
  2.5262546391480756E+00 a       814     0    17     1    14
  1.8952809269748008E+00 a       815     0    17     1    15
  8.1425029901535932E+00 a       816     0    17     1    16
 -2.8678893007756092E+00 a       817     0    17     1    17
  1.8373766674509429E+00 a       818     0    17     1    18
 -3.3609989201850570E+00 a       819     0    17     1    19
  1.9957963260433267E+00 a       820     0    17     1    20
  1.4814288882437177E+01 a       821     0    17     1    21
  5.3180736512425266E+00 a       822     0    17     1    22
 -1.8731034772042138E-01 a       823     0    17     1    23
 -1.4351245031816819E+00 a       824     0    17     1    24
  1.7598542976555557E+01 a       825     0    17     1    25
  3.2431059010366630E+00 a       826     0    17     1    26
 -1.1833917329211431E+01 a       827     0    17     1    27
 -1.1499013364891741E+01 a       828     0    17     1    28
 -2.1000910250234694E+00 a       829     0    17     1    29
  8.8377862705819830E+00 a       830     0    17     1    30
 -3.2015750546753954E+00 a       831     0    17     1    31
  9.2767735550856543E+00 a       832     0    17     1    32
 -1.4212771033361729E+00 a       833     0    17     1    33
  6.9734610102577399E-01 a       834     0    17     1    34
  5.3999614264113438E+00 a       835     0    17     1    35
 -9.6293938726897732E+00 a       836     0    17     1    36
  2.2622824255944476E+00 a       837     0    17     1    37
 -4.4339838634332178E+00 a       838     0    17     1    38
  9.1814813457568043E+00 a       839     0    17     1    39
  1.4324794398664521E+01 a       840     0    17     1    40
 -2.9599781860087782E+00 a       841     0    17     1    41
 -8.4701207017929239E+00 a       842     0    17     1    42
  1.8827559523534557E+01 a       843     0    17     1    43
 -5.5419787511358951E+00 a       844     0    17     1    44
  7.2146790750667593E+00 a       845     0    17     1    45
 -4.7528190699917561E+00 a       846     0    17     1    46
  4.6332351599543067E+00 a       847     0    17     1    47
 -6.1190444204749070E+00 a       848     0    17     1    48
  4.0641671662693633E-02 a       849     0    17     1    49
 -1.4458475991601205E+00 a       850     0    17     1    50
  4.1007955738299433E+00 a       851     0    18     1     1
 -1.9988219676639698E+00 a       852     0    18     1     2
  1.9047596167684056E+00 a       853     0    18     1     3
  5.7287190249078712E-01 a       854     0    18     1     4
  4.3751070072843277E+00 a       855     0    18     1     5
 -1.1738050674479105E+01 a       856     0    18     1     6
 -2.8269603672746874E-01 a       857     0    18     1     7
  3.4257818146212693E+00 a       858     0    18     1     8
 -2.7477989262274636E+00 a       859     0    18     1     9
 -1.8769191732481081E+00 a       860     0    18     1    10
 -1.2048406045343081E+00 a       861     0    18     1    11
 -2.8901542772933281E-01 a       862     0    18     1    12
  4.3505352048942019E+00 a       863     0    18     1    13
  2.7425212016270200E+00 a       864     0    18     1    14
  6.1585595062051501E-01 a       865     0    18     1    15
 -6.2567793904352353E-01 a       866     0    18     1    16
 -2.9759096998298338E+00 a       867     0    18     1    17
 -1.5580423779725796E+00 a       868     0    18     1    18
  1.5811295999575241E+00 a       869     0    18     1    19
 -2.2318271916758907E+00 a       870     0    18     1    20
  1.8258963321493533E+00 a       871     0    18     1    21
 -3.0615300144875097E+00 a       872     0    18     1    22
 -2.5493151815109187E+00 a       873     0    18     1    23
 -4.4900367570162638E+00 a       874     0    18     1    24
  5.4279469109874992E+00 a       875     0    18     1    25
 -5.6888911765963068E-01 a       876     0    18     1    26
 -4.2473476626433921E+00 a       877     0    18     1    27
 -4.9201207145002055E+00 a       878     0    18     1    28
  3.6777202694068216E+00 a       879     0    18     1    29
  1.9138018566440587E+00 a       880     0    18     1    30
  1.5229626468259336E+00 a       881     0    18     1    31
  4.7335005169754307E+00 a       882     0    18     1    32
 -7.7379571356298549E-01 a       883     0    18     1    33
  2.6056901978926854E+00 a       884     0    18     1    34
  1.4536508399860038E+00 a       885     0    18     1    35
 -4.9997999364525114E+00 a       886     0    18     1    36
  5.5512926113585772E+00 a       887     0    18     1    37
 -2.4800141668990774E+00 a       888     0    18     1    38
  2.8117343839729969E+00 a       889     0    18     1    39
  1.3407002488594113E+00 a       890     0    18     1    40
  4.8384548807875427E-01 a       891     0    18     1    41
 -3.3658464072536929E+00 a       892     0    18     1    42
 -6.4306757737730926E+00 a       893     0    18     1    43
 -2.9073683390920206E+00 a       894     0    18     1    44
 -1.6116236031226938E+00 a       895     0    18     1    45
 -7.6529519890279047E+00 a       896     0    18     1    46
  1.6952339883018761E+00 a       897     0    18     1    47
  2.3518134440187235E+00 a       898     0    18     1    48
  1.3016710846988107E+00 a       899     0    18     1    49
  1.4382816259463937E+00 a       900     0    18     1    50
  1.2028490465926435E+01 a       901     0    19     1     1
  3.6462294059781918E+01 a       902     0    19     1     2
  1.0953925471243730E+01 a       903     0    19     1     3
  1.5850951386247623E+01 a       904     0    19     1     4
 -5.8356644225718082E+00 a       905     0    19     1     5
 -7.6637481774034821E+00 a       906     0    19     1     6
 -1.2501438318473690E+01 a       907     0    19     1     7
  2.2854159807104448E+01 a       908     0    19     1     8
 -8.3107552290710878E+00 a       909     0    19     1     9
  2.4539772970236374E+01 a       910     0    19     1    10
 -7.4265120404860241E+00 a       911     0    19     1    11
  7.5413084445689842E+00 a       912     0    19     1    12
  1.2752035544002147E+00 a       913     0    19     1    13
  1.6862978071581207E+01 a       914     0    19     1    14
  3.6625507582830792E+01 a       915     0    19     1    15
 -4.8878290826159720E+01 a       916     0    19     1    16
 -1.6788252819987164E+00 a       917     0    19     1    17
 -1.3566318546486171E+01 a       918     0    19     1    18
 -1.5891176675205854E+00 a       919     0    19     1    19
  3.6746534565380216E+01 a       920     0    19     1    20
  2.4054726407267790E+01 a       921     0    19     1    21
 -2.4002660037489090E+01 a       922     0    19     1    22
 -8.7775830440328662E+00 a       923     0    19     1    23
 -4.4490181749683501E+01 a       924     0    19     1    24
 -1.8713439670353072E+01 a       925     0    19     1    25
  3.8735117695801482E+00 a       926     0    19     1    26
 -2.6399318234422296E+01 a       927     0    19     1    27
  2.3499852936271314E+01 a       928     0    19     1    28
  7.6810633249699976E+00 a       929     0    19     1    29
 -2.3490840934727512E+01 a       930     0    19     1    30
  4.4653776324697823E+01 a       931     0    19     1    31
 -3.4569842596370691E+01 a       932     0    19     1    32
  3.0634481121596135E+01 a       933     0    19     1    33
 -1.2158732751928561E+01 a       934     0    19     1    34
  6.2473348013243593E+00 a       935     0    19     1    35
 -5.4205316331061205E+01 a       936     0    19     1    36
 -5.7399534376574202E+01 a       937     0    19     1    37
 -7.1888503266321715E+00 a       938     0    19     1    38
 -6.9602629694712306E+00 a       939     0    19     1    39
  1.3489550210595635E+01 a       940     0    19     1    40
 -3.4704795804613092E+01 a       941     0    19     1    41
  9.7676253879824415E+01 a       942     0    19     1    42
 -2.6214479127844443E+00 a       943     0    19     1    43
 -7.6172332739251098E+00 a       944     0    19     1    44
 -5.2282162196744899E+01 a       945     0    19     1    45
 -7.1629162951748260E+00 a       946     0    19     1    46
  2.4344006093734752E+01 a       947     0    19     1    47
  1.1138020643445977E+01 a       948     0    19     1    48
 -1.2805107962962163E+01 a       949     0    19     1    49
  6.3088398996112524E+01 a       950     0    19     1    50
  5.8469193242800355E+00 a       951     0    20     1     1
 -1.4275722185405439E+02 a       952     0    20     1     2
 -1.9491380761031770E+01 a       953     0    20     1     3
 -1.9114785913244702E+01 a       954     0    20     1     4
  1.5315787863717114E+01 a       955     0    20     1     5
 -1.1140086975458519E+00 a       956     0    20     1     6
  7.7677744113455617E+01 a       957     0    20     1     7
 -2.0906199962950005E+01 a       958     0    20     1     8
  5.6639083526014048E+01 a       959     0    20     1     9
  5.1765429475384117E+00 a       960     0    20     1    10
  5.9999880490271572E+01 a       961     0    20     1    11
  2.1936384527857502E+01 a       962     0    20     1    12
  2.1430417706457600E+01 a       963     0    20     1    13
 -9.0060035411922446E+00 a       964     0    20     1    14
  8.0881250741191735E+01 a       965     0    20     1    15
  1.0062401659190922E+01 a       966     0    20     1    16
 -2.7535722517216122E+01 a       967     0    20     1    17
  2.7730264662733179E+00 a       968     0    20     1    18
 -1.7460294555681863E+01 a       969     0    20     1    19
  2.3115486290151024E+00 a       970     0    20     1    20
  4.2797592542500205E+01 a       971     0    20     1    21
 -3.4818010162237655E+01 a       972     0    20     1    22
 -8.3519655398144309E+01 a       973     0    20     1    23
  2.7012190687495728E+01 a       974     0    20     1    24
  1.9001376082056090E+01 a       975     0    20     1    25
  3.2106942214455941E+01 a       976     0    20     1    26
 -8.9019184959458414E+01 a       977     0    20     1    27
 -3.3344658876609003E+01 a       978     0    20     1    28
 -3.7646718974504061E+01 a       979     0    20     1    29
  3.7911740486762305E+01 a       980     0    20     1    30
  3.3100457660312934E+01 a       981     0    20     1    31
 -2.6661460110947438E+01 a       982     0    20     1    32
  1.1834833454404857E+01 a       983     0    20     1    33
 -1.4280191805285703E+01 a       984     0    20     1    34
 -2.7589173851635866E+01 a       985     0    20     1    35
 -6.7432875852517071E+01 a       986     0    20     1    36
 -4.6131396046053439E+01 a       987     0    20     1    37
 -5.2667248488974103E+01 a       988     0    20     1    38
 -4.7532942492448811E+01 a       989     0    20     1    39
  5.9512746062085409E+00 a       990     0    20     1    40
 -1.8250211826633796E+02 a       991     0    20     1    41
  1.0487170919716681E+02 a       992     0    20     1    42
  2.0005594572239693E+00 a       993     0    20     1    43
 -1.0323194494252485E+02 a       994     0    20     1    44
  1.0881150335867376E+02 a       995     0    20     1    45
  3.2547727161870164E+01 a       996     0    20     1    46
 -4.1054350067022156E+01 a       997     0    20     1    47
 -8.0754719328078135E+00 a       998     0    20     1    48
 -4.3552440398760687E+01 a       999     0    20     1    49
 -6.4406141142124511E+01 a      1000     0    20     1    50
 -2.0389467244953298E+01 a      1001     0    21     1     1
  9.1261652452276039E+00 a      1002     0    21     1     2
  1.8383037689212628E+01 a      1003     0    21     1     3
 -2.4755695188095522E+01 a      1004     0    21     1     4
  3.6932506350431802E+00 a      1005     0    21     1     5
  4.2134341083245799E+00 a      1006     0    21     1     6
  8.3390161289627841E+01 a      1007     0    21     1     7
 -9.3913963373120133E+00 a      1008     0    21     1     8
 -3.6765841618091905E+01 a      1009     0    21     1     9
 -3.1131101681161446E+01 a      1010     0    21     1    10
 -3.2407189442361893E-02 a      1011     0    21     1    11
  4.7018583076610227E+01 a      1012     0    21     1    12
 -8.1555402275412714E+00 a      1013     0    21     1    13
 -8.7133874475143571E+00 a      1014     0    21     1    14
 -3.9238294126231281E+01 a      1015     0    21     1    15
  1.9957313746579530E+01 a      1016     0    21     1    16
  3.5648847702827041E+01 a      1017     0    21     1    17
  2.5408702218766503E+00 a      1018     0    21     1    18
 -3.3033788547108060E+01 a      1019     0    21     1    19
  4.6204041886774768E+01 a      1020     0    21     1    20
 -2.1274900620675979E+01 a      1021     0    21     1    21
 -3.6995231755323306E+00 a      1022     0    21     1    22
  2.6076430502616798E+01 a      1023     0    21     1    23
  2.6474070516570052E+00 a      1024     0    21     1    24
  4.4784777729816867E+01 a      1025     0    21     1    25
  3.6963062094933270E+00 a      1026     0    21     1    26
  4.7898782488790587E+01 a      1027     0    21     1    27
  2.3245039045999018E+01 a      1028     0    21     1    28
 -1.3652049937978563E+00 a      1029     0    21     1    29
  1.4548035916931607E+01 a      1030     0    21     1    30
 -6.3324402650306020E+01 a      1031     0    21     1    31
  5.1732673972473336E+01 a      1032     0    21     1    32
 -4.3673285455736611E+01 a      1033     0    21     1    33
 -2.0756072023879270E+01 a      1034     0    21     1    34
  4.1148610771861364E+01 a      1035     0    21     1    35
  9.7158459597668756E+00 a      1036     0    21     1    36
  2.3655817756201181E+01 a      1037     0    21     1    37
 -1.2261835011211598E+01 a      1038     0    21     1    38
  1.0304668123318898E+01 a      1039     0    21     1    39
 -3.3455904056081962E+01 a      1040     0    21     1    40
 -8.8479771279219065E+01 a      1041     0    21     1    41
 -4.9257916448776008E+01 a      1042     0    21     1    42
  1.5931833159752827E+01 a      1043     0    21     1    43
  1.5115398692254485E+02 a      1044     0    21     1    44
 -3.2228464635874680E+01 a      1045     0    21     1    45
 -5.4094088906635200E+01 a      1046     0    21     1    46
  3.2573582576770517E+00 a      1047     0    21     1    47
 -3.3267683691746441E+01 a      1048     0    21     1    48
  2.3835006478010414E+00 a      1049     0    21     1    49
 -8.0640210936174256E+01 a      1050     0    21     1    50
  2.6780697370163981E+01 a      1051     0    22     1     1
 -2.1815786712940024E+02 a      1052     0    22     1     2
  8.0048153437883229E+01 a      1053     0    22     1     3
 -1.3727627141716173E+01 a      1054     0    22     1     4
 -8.5652074640411939E+00 a      1055     0    22     1     5
  6.7452852621327501E+00 a      1056     0    22     1     6
  1.5663782292509005E+01 a      1057     0    22     1     7
 -1.0102654287277288E+01 a      1058     0    22     1     8
 -2.2121221363293941E+01 a      1059     0    22     1     9
  9.9399742547075334E+01 a      1060     0    22     1    10
 -1.7864831614192415E+01 a      1061     0    22     1    11
  9.0065547676391404E+01 a      1062     0    22     1    12
  8.7948510426727999E+00 a      1063     0    22     1    13
  1.7498509143429409E+01 a      1064     0    22     1    14
  1.8050639723592928E+02 a      1065     0    22     1    15
  5.9701807250500373E+01 a      1066     0    22     1    16
 -3.0865893997031531E+01 a      1067     0    22     1    17
 -3.6218265018733135E+01 a      1068     0    22     1    18
 -2.7280725783389610E+01 a      1069     0    22     1    19
 -7.5723199633015650E+00 a      1070     0    22     1    20
 -2.4808112502787441E+01 a      1071     0    22     1    21
  8.0930737409092579E+00 a      1072     0    22     1    22
 -1.4598243472727941E+02 a      1073     0    22     1    23
 -6.5371611684279953E+00 a      1074     0    22     1    24
  1.2216743972064228E+02 a      1075     0    22     1    25
 -5.5687056677522882E+01 a      1076     0    22     1    26
  2.2878263257567522E-01 a      1077     0    22     1    27
  2.1649341185176219E+01 a      1078     0    22     1    28
 -2.2299792631919782E+01 a      1079     0    22     1    29
 -7.6014144032082331E+00 a      1080     0    22     1    30
  4.5258730766211087E+01 a      1081     0    22     1    31
 -3.6091667006341133E+01 a      1082     0    22     1    32
 -1.9703494437529880E+01 a      1083     0    22     1    33
  4.6261042691268692E+01 a      1084     0    22     1    34
  3.0465369587222153E+01 a      1085     0    22     1    35
 -1.0127111342751627E+02 a      1086     0    22     1    36
  1.4519710431534465E+00 a      1087     0    22     1    37
  1.1222863928919708E+02 a      1088     0    22     1    38
  1.5676105521587230E+01 a      1089     0    22     1    39
 -2.1350506104592482E+00 a      1090     0    22     1    40
 -5.6356538187463457E+01 a      1091     0    22     1    41
 -1.6502251329152458E+01 a      1092     0    22     1    42
  2.7930450625048927E+01 a      1093     0    22     1    43
 -1.3900182805566828E+01 a      1094     0    22     1    44
 -5.4869201602340700E+00 a      1095     0    22     1    45
 -2.9876889975425200E+01 a      1096     0    22     1    46
 -3.5234146850137250E+01 a      1097     0    22     1    47
 -7.4752798356923922E+00 a      1098     0    22     1    48
  3.2742227808179457E+01 a      1099     0    22     1    49
 -1.5712741867624530E+01 a      1100     0    22     1    50
  2.0649446304915582E+01 a      1101     0    23     1     1
  1.1237677393993843E+01 a      1102     0    23     1     2
 -7.5508047274724144E-01 a      1103     0    23     1     3
 -1.7035163974379710E+01 a      1104     0    23     1     4
 -1.3050485322350502E+00 a      1105     0    23     1     5
 -2.4791338559709832E+01 a      1106     0    23     1     6
 -2.5082586069796832E+01 a      1107     0    23     1     7
 -1.7907050520018995E+01 a      1108     0    23     1     8
 -5.6133592453510728E+00 a      1109     0    23     1     9
  2.0135768820773463E+00 a      1110     0    23     1    10
  8.3320358521580218E+00 a      1111     0    23     1    11
 -1.8584450692562918E+01 a      1112     0    23     1    12
 -7.2859724359652889E-01 a      1113     0    23     1    13
 -2.3948057610386093E+00 a      1114     0    23     1    14
  1.6909317067596458E-01 a      1115     0    23     1    15
 -2.8612867955101073E+01 a      1116     0    23     1    16
 -2.6603964125601497E+01 a      1117     0    23     1    17
  3.1740131725379732E+00 a      1118     0    23     1    18
  5.3142816323295436E+00 a      1119     0    23     1    19
 -3.1929275818768442E+01 a      1120     0    23     1    20
  2.7897712420691626E+01 a      1121     0    23     1    21
  1.3482621563498840E+01 a      1122     0    23     1    22
  2.2101350245248526E+01 a      1123     0    23     1    23
  4.7197821667253898E+01 a      1124     0    23     1    24
 -7.4249542370389587E+00 a      1125     0    23     1    25
 -6.1739744084187036E+00 a      1126     0    23     1    26
  4.2566032650938910E+00 a      1127     0    23     1    27
 -2.0134559586129463E+01 a      1128     0    23     1    28
  4.4512586715927460E+00 a      1129     0    23     1    29
 -1.9524302472817798E+01 a      1130     0    23     1    30
  1.0452017346749871E+01 a      1131     0    23     1    31
  1.1065058908874352E+01 a      1132     0    23     1    32
 -1.6601866530801440E-01 a      1133     0    23     1    33
  6.7803376955106657E+01 a      1134     0    23     1    34
 -1.2941921139964439E+01 a      1135     0    23     1    35
  7.9050004260896912E+01 a      1136     0    23     1    36
  3.2502079511630420E+01 a      1137     0    23     1    37
  3.1813652548519670E+01 a      1138     0    23     1    38
  7.4737353138482199E+00 a      1139     0    23     1    39
  2.0139882277898810E+01 a      1140     0    23     1    40
  1.5802986080923827E+02 a      1141     0    23     1    41
 -8.6346665406994006E+01 a      1142     0    23     1    42
 -2.0368648705983020E+01 a      1143     0    23     1    43
 -3.1489037875368883E+01 a      1144     0    23     1    44
  4.9875247427547784E+01 a      1145     0    23     1    45
  7.5857417263984417E-01 a      1146     0    23     1    46
  1.0337476082228353E+01 a      1147     0    23     1    47
  7.5501694535613666E+00 a      1148     0    23     1    48
  5.8940073400954631E+01 a      1149     0    23     1    49
  9.3355269208772373E+00 a      1150     0    23     1    50
 -2.4451570465541073E-01 a      1151     0    24     1     1
  2.0462198646195853E+02 a      1152     0    24     1     2
 -3.3609135169904704E+01 a      1153     0    24     1     3
 -2.0397670958711869E+00 a      1154     0    24     1     4
 -1.1601377742033785E+00 a      1155     0    24     1     5
 -8.9036921039829213E+00 a      1156     0    24     1     6
  5.9549636735074692E+01 a      1157     0    24     1     7
 -1.9560446554859837E+01 a      1158     0    24     1     8
  1.4066479922743291E+01 a      1159     0    24     1     9
 -5.5637455374928372E+01 a      1160     0    24     1    10
  1.6160499791528050E+01 a      1161     0    24     1    11
 -3.6794944945728396E+01 a      1162     0    24     1    12
  1.2259118883290657E-01 a      1163     0    24     1    13
 -2.7318170592802132E-01 a      1164     0    24     1    14
 -1.2245448335203167E+02 a      1165     0    24     1    15
 -1.4310653403952299E+01 a      1166     0    24     1    16
  1.5971412259223827E+01 a      1167     0    24     1    17
  2.1089861902225639E+01 a      1168     0    24     1    18
  2.5638288895873456E+00 a      1169     0    24     1    19
  7.2312098797278006E+00 a      1170     0    24     1    20
  2.2220979968610635E+01 a      1171     0    24     1    21
  1.6799123768855235E+01 a      1172     0    24     1    22
  1.3251592919171190E+02 a      1173     0    24     1    23
 -1.5698034315576409E+01 a      1174     0    24     1    24
 -7.7450875888889144E+01 a      1175     0    24     1    25
  2.7259122479579496E+01 a      1176     0    24     1    26
  5.7231455589671981E+01 a      1177     0    24     1    27
 -1.5551000445340080E+01 a      1178     0    24     1    28
 -3.5026370427847047E+00 a      1179     0    24     1    29
  3.0146725588583334E+00 a      1180     0    24     1    30
 -7.3041765123692301E+01 a      1181     0    24     1    31
  3.0126500863146685E+01 a      1182     0    24     1    32
 -2.2477762240205976E+01 a      1183     0    24     1    33
 -2.0792194617541263E+01 a      1184     0    24     1    34
 -5.4275593838888136E-01 a      1185     0    24     1    35
  9.9102433874930782E+01 a      1186     0    24     1    36
  3.9788855169682080E+01 a      1187     0    24     1    37
 -4.1091923746164902E+01 a      1188     0    24     1    38
 -1.7905082381934189E+01 a      1189     0    24     1    39
 -6.1461835252451180E-01 a      1190     0    24     1    40
  1.3263693895736043E+02 a      1191     0    24     1    41
 -5.5003750727328239E+01 a      1192     0    24     1    42
 -1.1656428454716725E+01 a      1193     0    24     1    43
  8.6399980147513674E+01 a      1194     0    24     1    44
  4.7853758192862578E-01 a      1195     0    24     1    45
  2.9309118263514321E+01 a      1196     0    24     1    46
  7.9725031456234552E+00 a      1197     0    24     1    47
 -5.9771268311387593E-01 a      1198     0    24     1    48
  1.4474862592059525E+01 a      1199     0    24     1    49
 -2.3654257346753329E+01 a      1200     0    24     1    50
 -3.5548688037254181E+00 a      1201     0    25     1     1
 -3.3326824969659782E+01 a      1202     0    25     1     2
 -3.9309122832436472E+01 a      1203     0    25     1     3
  2.4527119797463406E+01 a      1204     0    25     1     4
  1.4668664491913447E+01 a      1205     0    25     1     5
  4.7316161518702854E-01 a      1206     0    25     1     6
 -1.0460216552911432E+02 a      1207     0    25     1     7
  1.0367880732119064E+01 a      1208     0    25     1     8
  5.3915606352505414E+01 a      1209     0    25     1     9
  4.3587984947396045E+01 a      1210     0    25     1    10
 -1.5920728819001231E+00 a      1211     0    25     1    11
 -4.8334700206225087E+01 a      1212     0    25     1    12
 -6.0657830025596322E+00 a      1213     0    25     1    13
 -1.7853974015608582E-02 a      1214     0    25     1    14
  4.2213518059134273E+01 a      1215     0    25     1    15
  2.6609135863477271E+00 a      1216     0    25     1    16
 -3.5012779682713322E+01 a      1217     0    25     1    17
  1.1773105441606361E+01 a      1218     0    25     1    18
  3.9327282539750229E+01 a      1219     0    25     1    19
 -5.4932861753802115E+01 a      1220     0    25     1    20
 -3.6367673454736096E+00 a      1221     0    25     1    21
  2.0883762499234888E+00 a      1222     0    25     1    22
 -3.4760292261584695E+01 a      1223     0    25     1    23
  4.1801407397506170E+00 a      1224     0    25     1    24
 -4.7889754173383366E+01 a      1225     0    25     1    25
 -8.0829545440929031E+00 a      1226     0    25     1    26
 -5.4955629891580109E+01 a      1227     0    25     1    27
 -2.8206837092173309E+01 a      1228     0    25     1    28
 -2.1282178418071553E+00 a      1229     0    25     1    29
  1.5199808614327438E+01 a      1230     0    25     1    30
  5.7554274105805128E+01 a      1231     0    25     1    31
 -5.5973865901233410E+01 a      1232     0    25     1    32
  3.4043882246223916E+01 a      1233     0    25     1    33
 -2.8761608958697695E+00 a      1234     0    25     1    34
 -6.2183862238608249E+01 a      1235     0    25     1    35
 -1.2489894183509620E+01 a      1236     0    25     1    36
 -2.3783835515781824E+01 a      1237     0    25     1    37
  1.3167379465776763E+01 a      1238     0    25     1    38
 -1.9274910478100658E+01 a      1239     0    25     1    39
  3.2125139437439856E+01 a      1240     0    25     1    40
  6.7859418967271253E+01 a      1241     0    25     1    41
  4.6348404409205159E+01 a      1242     0    25     1    42
 -8.4949177023891078E+00 a      1243     0    25     1    43
 -1.6603308410881385E+02 a      1244     0    25     1    44
  4.2462889424123141E+01 a      1245     0    25     1    45
  7.6019136504738796E+01 a      1246     0    25     1    46
 -1.9135849825530403E+01 a      1247     0    25     1    47
  3.3282743397952999E+01 a      1248     0    25     1    48
 -3.2695988912711520E+01 a      1249     0    25     1    49
  6.5767431684850294E+01 a      1250     0    25     1    50
 -1.0912538870022628E+01 a      1251     0    26     1     1
  2.8744953298114621E+02 a      1252     0    26     1     2
 -5.1399920911415727E+01 a      1253     0    26     1     3
  3.7627194831939093E+01 a      1254     0    26     1     4
 -5.5099511057602628E+00 a      1255     0    26     1     5
  6.0462026441472743E+00 a      1256     0    26     1     6
 -1.4589791872631565E+01 a      1257     0    26     1     7
  5.1814505541934412E+00 a      1258     0    26     1     8
 -1.2141901697148326E+01 a      1259     0    26     1     9
 -9.2186301326581940E+01 a      1260     0    26     1    10
 -3.0886792048871101E+01 a      1261     0    26     1    11
 -4.5402931547438854E+01 a      1262     0    26     1    12
 -1.9991273189840204E+01 a      1263     0    26     1    13
  8.4472072614523785E+00 a      1264     0    26     1    14
 -1.7729994626505606E+02 a      1265     0    26     1    15
  2.1464395332245614E+00 a      1266     0    26     1    16
  5.7236034567340582E+01 a      1267     0    26     1    17
  1.2719039687667831E+01 a      1268     0    26     1    18
  2.1289872413274850E+01 a      1269     0    26     1    19
  1.8430101627329603E+00 a      1270     0    26     1    20
 -1.6134871795215528E+01 a      1271     0    26     1    21
  3.1778652248408857E+01 a      1272     0    26     1    22
  1.8452185056249965E+02 a      1273     0    26     1    23
 -1.5692019179477992E+01 a      1274     0    26     1    24
 -1.2311880396922344E+02 a      1275     0    26     1    25
  6.4298064578516716E+01 a      1276     0    26     1    26
  1.3314704862199834E+01 a      1277     0    26     1    27
  1.6727875334447511E+01 a      1278     0    26     1    28
  1.7449678790559929E+01 a      1279     0    26     1    29
 -1.5807253548622120E+01 a      1280     0    26     1    30
 -7.1628753331528072E+00 a      1281     0    26     1    31
  5.8043059282207786E+01 a      1282     0    26     1    32
  1.8505588743985474E+01 a      1283     0    26     1    33
 -2.7047485770355099E+01 a      1284     0    26     1    34
  6.1320623839942670E+00 a      1285     0    26     1    35
  8.0817650277403885E+01 a      1286     0    26     1    36
  3.0956449833926403E+01 a      1287     0    26     1    37
 -1.0045873043012146E+02 a      1288     0    26     1    38
  1.6199876077026246E+01 a      1289     0    26     1    39
 -7.0420979618617210E+00 a      1290     0    26     1    40
  1.0205798089622748E+02 a      1291     0    26     1    41
 -9.0844916529199633E+00 a      1292     0    26     1    42
 -4.2013662396639146E+00 a      1293     0    26     1    43
  1.0069990587555978E+02 a      1294     0    26     1    44
 -8.3698299141023909E+01 a      1295     0    26     1    45
  1.7658179408067035E+01 a      1296     0    26     1    46
  1.9116911772153692E+01 a      1297     0    26     1    47
  1.6200440377145497E+01 a      1298     0    26     1    48
 -3.3721615947631953E+01 a      1299     0    26     1    49
  5.0842135265017923E+01 a      1300     0    26     1    50
 -1.5289997839603203E+01 a      1301     0    27     1     1
 -1.0502905257519070E+02 a      1302     0    27     1     2
 -6.9207053214568063E+01 a      1303     0    27     1     3
  4.6543808899816295E+00 a      1304     0    27     1     4
  1.8163341426497578E+01 a      1305     0    27     1     5
  2.3156655757174427E+01 a      1306     0    27     1     6
  8.2420309220102311E+01 a      1307     0    27     1     7
  3.3712956661563261E+01 a      1308     0    27     1     8
  3.6805075775183852E+01 a      1309     0    27     1     9
  2.3711649957246848E+01 a      1310     0    27     1    10
  1.3619235369125883E+01 a      1311     0    27     1    11
 -3.5129267192092590E+00 a      1312     0    27     1    12
  8.3189843570195379E+00 a      1313     0    27     1    13
  1.9893473887867714E+01 a      1314     0    27     1    14
  6.5016364924709478E+01 a      1315     0    27     1    15
  3.3507029861240509E+00 a      1316     0    27     1    16
  5.6601595982813350E+01 a      1317     0    27     1    17
 -3.9962149165869381E+00 a      1318     0    27     1    18
  3.0177557984723290E+01 a      1319     0    27     1    19
 -5.0275996972087391E+01 a      1320     0    27     1    20
 -1.6457728143463481E+01 a      1321     0    27     1    21
 -2.6502717378308894E+01 a      1322     0    27     1    22
 -4.6562376331123943E+01 a      1323     0    27     1    23
  5.1954436301971496E+00 a      1324     0    27     1    24
  7.8066201975891232E+01 a      1325     0    27     1    25
 -7.9054605933336015E+00 a      1326     0    27     1    26
 -5.8083203260618310E+00 a      1327     0    27     1    27
 -4.1201893852196410E+00 a      1328     0    27     1    28
 -3.2449012192808584E+00 a      1329     0    27     1    29
 -8.5037659133658767E+00 a      1330     0    27     1    30
  9.4239964899034106E+01 a      1331     0    27     1    31
  2.6367574196670049E+01 a      1332     0    27     1    32
  3.6198602343426565E+01 a      1333     0    27     1    33
  1.4136153981669482E+01 a      1334     0    27     1    34
 -1.6402630595922659E+01 a      1335     0    27     1    35
  1.3717295143751445E+01 a      1336     0    27     1    36
 -1.0872800054661291E+00 a      1337     0    27     1    37
 -2.2176013699543208E+01 a      1338     0    27     1    38
  5.6566874546326261E+01 a      1339     0    27     1    39
  2.0110697311490775E+01 a      1340     0    27     1    40
 -6.6961461358656138E+01 a      1341     0    27     1    41
  5.2250048214219412E+01 a      1342     0    27     1    42
 -5.3329092619382523E+00 a      1343     0    27     1    43
  1.2653851444684767E+01 a      1344     0    27     1    44
  9.5965067261144146E+00 a      1345     0    27     1    45
 -1.3348672588566915E+01 a      1346     0    27     1    46
 -4.7745823308881675E+01 a      1347     0    27     1    47
  2.3252644575591219E+01 a      1348     0    27     1    48
 -3.8216265171148322E+01 a      1349     0    27     1    49
  2.6179195332253336E+01 a      1350     0    27     1    50
 -6.1759154274709189E+00 a      1351     0    28     1     1
  4.5813275247078693E+01 a      1352     0    28     1     2
 -4.0345671102511567E+01 a      1353     0    28     1     3
  2.1072083358665283E+00 a      1354     0    28     1     4
  3.8079293809332757E+00 a      1355     0    28     1     5
  6.2070099895504827E+00 a      1356     0    28     1     6
  5.6577535799771361E+01 a      1357     0    28     1     7
  1.8898709664946384E+01 a      1358     0    28     1     8
  1.4516875700232744E+01 a      1359     0    28     1     9
  1.3503168680003791E+01 a      1360     0    28     1    10
  7.6002848935124998E+00 a      1361     0    28     1    11
 -1.7757752667805583E+01 a      1362     0    28     1    12
  5.3680747867419498E+00 a      1363     0    28     1    13
  1.4810228755471398E+01 a      1364     0    28     1    14
 -7.0270451063727180E+00 a      1365     0    28     1    15
 -1.6062835377820853E+01 a      1366     0    28     1    16
  3.4556301497804931E+01 a      1367     0    28     1    17
  5.4546248613659181E+00 a      1368     0    28     1    18
  2.0852454419664920E+01 a      1369     0    28     1    19
 -1.9165114427500271E+01 a      1370     0    28     1    20
 -5.2944415907345048E+00 a      1371     0    28     1    21
 -9.8491776876817916E+00 a      1372     0    28     1    22
  3.1993954940102675E+01 a      1373     0    28     1    23
 -3.3039058487596421E+01 a      1374     0    28     1    24
  1.9900718597781047E+01 a      1375     0    28     1    25
 -1.5571695121493876E+01 a      1376     0    28     1    26
  6.2611002904926401E+01 a      1377     0    28     1    27
 -2.6198435487119007E+00 a      1378     0    28     1    28
 -3.4516219324357289E-01 a      1379     0    28     1    29
 -1.3034015807623179E+01 a      1380     0    28     1    30
  1.8605455322147844E+00 a      1381     0    28     1    31
  1.4578053026877930E+01 a      1382     0    28     1    32
  3.2099583840480023E-01 a      1383     0    28     1    33
 -1.4533470388113683E+00 a      1384     0    28     1    34
 -2.5777105680360735E+00 a      1385     0    28     1    35
  5.6440961117236199E+01 a      1386     0    28     1    36
  1.9941274777706109E+01 a      1387     0    28     1    37
  1.9422642147237937E+01 a      1388     0    28     1    38
  2.5671317667256396E+01 a      1389     0    28     1    39
  1.4705276293942161E+01 a      1390     0    28     1    40
  7.8378664794640002E+01 a      1391     0    28     1    41
 -1.3331713257935798E+01 a      1392     0    28     1    42
 -5.3657781648283072E+00 a      1393     0    28     1    43
  6.1685317702657521E+01 a      1394     0    28     1    44
 -2.0951332198037104E+01 a      1395     0    28     1    45
 -3.8419848504825965E-01 a      1396     0    28     1    46
 -9.8968234253031433E+00 a      1397     0    28     1    47
  1.3703505470775143E+01 a      1398     0    28     1    48
  9.3081643595326078E+00 a      1399     0    28     1    49
  1.9401443190792740E+01 a      1400     0    28     1    50
 -1.5282315077300943E+01 a      1401     0    29     1     1
 -4.0500647447971716E+01 a      1402     0    29     1     2
 -6.6888086184591799E+01 a      1403     0    29     1     3
  3.0744103476670896E+00 a      1404     0    29     1     4
  1.5664593550717976E+01 a      1405     0    29     1     5
  6.7299252329283572E+00 a      1406     0    29     1     6
  2.0929084963927295E+01 a      1407     0    29     1     7
  5.1853803571514661E+00 a      1408     0    29     1     8
  1.7414817490845813E+01 a      1409     0    29     1     9
 -2.8788689497286502E+01 a      1410     0    29     1    10
  1.0710054796307983E+01 a      1411     0    29     1    11
 -2.9385634997058428E+01 a      1412     0    29     1    12
 -5.7109978178286420E+00 a      1413     0    29     1    13
 -2.8253935131799830E+00 a      1414     0    29     1    14
 -2.6808592554045447E+01 a      1415     0    29     1    15
 -1.6820949302854080E+00 a      1416     0    29     1    16
  3.5907360279031721E+01 a      1417     0    29     1    17
  2.3987156164918897E+00 a      1418     0    29     1    18
  2.9959711246406883E+01 a      1419     0    29     1    19
 -4.9353721687727798E+01 a      1420     0    29     1    20
 -1.4262930866594312E+00 a      1421     0    29     1    21
 -1.2276195213335543E+00 a      1422     0    29     1    22
  4.1353973208457617E+00 a      1423     0    29     1    23
  3.9527891287057280E+01 a      1424     0    29     1    24
  2.5654455233444281E+01 a      1425     0    29     1    25
  6.1602866366227031E+00 a      1426     0    29     1    26
 -7.9305680786745896E+00 a      1427     0    29     1    27
 -1.4670374231809641E+01 a      1428     0    29     1    28
  1.0331785607428108E+01 a      1429     0    29     1    29
 -7.4433647562276688E+00 a      1430     0    29     1    30
  3.6211193522592779E+01 a      1431     0    29     1    31
  4.8002005100652539E+01 a      1432     0    29     1    32
  2.2491000499235675E+01 a      1433     0    29     1    33
  1.9501576431085983E+01 a      1434     0    29     1    34
 -2.0474795007851075E+01 a      1435     0    29     1    35
  6.0204778660798809E+01 a      1436     0    29     1    36
  2.3169155493572617E+01 a      1437     0    29     1    37
 -4.5564036071852122E+01 a      1438     0    29     1    38
  4.2252148998438393E+01 a      1439     0    29     1    39
  4.0993791353701390E+00 a      1440     0    29     1    40
 -1.2781658267381502E+01 a      1441     0    29     1    41
 -1.3853265277904232E+01 a      1442     0    29     1    42
 -1.8913675795373916E+01 a      1443     0    29     1    43
 -1.0868129534615143E+01 a      1444     0    29     1    44
  3.0926754492747143E+01 a      1445     0    29     1    45
 -9.2676324685384230E+00 a      1446     0    29     1    46
 -2.1361308742443349E+01 a      1447     0    29     1    47
  1.6038759682770166E+01 a      1448     0    29     1    48
 -1.8009104141070356E+01 a      1449     0    29     1    49
  7.8446915739208816E+00 a      1450     0    29     1    50
 -2.7218710137116333E+00 a      1451     0    30     1     1
  1.2364770149626867E+02 a      1452     0    30     1     2
 -2.9268751655626382E+01 a      1453     0    30     1     3
  2.3193928803117697E-01 a      1454     0    30     1     4
 -2.1511819245098915E+00 a      1455     0    30     1     5
 -5.6028052302375873E+00 a      1456     0    30     1     6
  2.3450298731974634E+01 a      1457     0    30     1     7
  3.0210534811898224E+00 a      1458     0    30     1     8
 -9.8382709750959407E-01 a      1459     0    30     1     9
 -1.0254002929339716E+01 a      1460     0    30     1    10
  4.4777533934281992E+00 a      1461     0    30     1    11
 -3.2732777491608978E+01 a      1462     0    30     1    12
 -9.8443383666416651E-01 a      1463     0    30     1    13
  4.2989143532019192E+00 a      1464     0    30     1    14
 -6.7909738590749342E+01 a      1465     0    30     1    15
 -2.4968017458219844E+01 a      1466     0    30     1    16
  1.8306631174121719E+01 a      1467     0    30     1    17
  1.0985091452633105E+01 a      1468     0    30     1    18
  1.7517819184280388E+01 a      1469     0    30     1    19
 -7.9460171989373078E+00 a      1470     0    30     1    20
  4.4518228289890027E+00 a      1471     0    30     1    21
  6.2281737061104971E+00 a      1472     0    30     1    22
  7.9382479155494195E+01 a      1473     0    30     1    23
 -3.2752957517700942E+01 a      1474     0    30     1    24
 -2.1022984579832578E+01 a      1475     0    30     1    25
 -1.2605563174975261E+01 a      1476     0    30     1    26
  8.5101423700664782E+01 a      1477     0    30     1    27
 -6.4604385037381773E+00 a      1478     0    30     1    28
  5.2832776879194947E+00 a      1479     0    30     1    29
 -1.4235151821899596E+01 a      1480     0    30     1    30
 -5.2548832055799828E+01 a      1481     0    30     1    31
  1.8912427547512369E+01 a      1482     0    30     1    32
 -1.8065748927301826E+01 a      1483     0    30     1    33
 -4.5836184172358667E+00 a      1484     0    30     1    34
  5.5112681156204135E-01 a      1485     0    30     1    35
  8.9855517041765893E+01 a      1486     0    30     1    36
  3.6284927482440239E+01 a      1487     0    30     1    37
  2.5116884486738481E+01 a      1488     0    30     1    38
  9.6756609182613502E+00 a      1489     0    30     1    39
  6.7222371514636157E+00 a      1490     0    30     1    40
  1.5005665048112576E+02 a      1491     0    30     1    41
 -6.1800390986436270E+01 a      1492     0    30     1    42
 -1.0570663695589758E+01 a      1493     0    30     1    43
  6.9567859741348656E+01 a      1494     0    30     1    44
 -2.3263436915007745E+01 a      1495     0    30     1    45
  6.0634309762480934E+00 a      1496     0    30     1    46
  1.3020618613399032E+01 a      1497     0    30     1    47
  7.1746268398684556E+00 a      1498     0    30     1    48
  3.3475675112647444E+01 a      1499     0    30     1    49
  9.4124033223031702E+00 a      1500     0    30     1    50
  1.8846927828433222E+00 a      1501     0    31     1     1
  5.9439499425101431E+01 a      1502     0    31     1     2
  4.9194337381233183E+01 a      1503     0    31     1     3
  4.3125749177689956E+00 a      1504     0    31     1     4
  2.5610915617541727E+00 a      1505     0    31     1     5
  1.1474290079505591E+01 a      1506     0    31     1     6
 -1.2462137244136350E+01 a      1507     0    31     1     7
 -1.7215775994511504E+00 a      1508     0    31     1     8
  4.0231910082455196E+00 a      1509     0    31     1     9
  4.4426760096346403E+00 a      1510     0    31     1    10
 -1.7301017987095705E+01 a      1511     0    31     1    11
  1.1877303124135883E+01 a      1512     0    31     1    12
  5.0434935899710895E+00 a      1513     0    31     1    13
  4.3815276584751626E+00 a      1514     0    31     1    14
  2.0396289055819019E+00 a      1515     0    31     1    15
  2.8707372247488383E+01 a      1516     0    31     1    16
 -4.3661665726214629E+01 a      1517     0    31     1    17
  8.2987347323043554E+00 a      1518     0    31     1    18
 -3.3618950919538065E+01 a      1519     0    31     1    19
  2.4422109192813188E+01 a      1520     0    31     1    20
 -2.6434853960825347E+01 a      1521     0    31     1    21
  1.4112682849299174E+01 a      1522     0    31     1    22
  2.5000527456708490E+01 a      1523     0    31     1    23
 -2.2478930762021289E+01 a      1524     0    31     1    24
 -5.8255524946995195E+01 a      1525     0    31     1    25
  1.6990682962329657E+00 a      1526     0    31     1    26
  9.6934942124965531E+00 a      1527     0    31     1    27
  5.5012377799993128E+00 a      1528     0    31     1    28
 -8.8910858344334933E+00 a      1529     0    31     1    29
  2.6455014831381416E+01 a      1530     0    31     1    30
 -3.2770285664366654E+01 a      1531     0    31     1    31
 -8.1840239997501314E+00 a      1532     0    31     1    32
 -4.3160298577148360E+01 a      1533     0    31     1    33
  1.5220034698930260E+01 a      1534     0    31     1    34
  9.1869591746027073E+00 a      1535     0    31     1    35
 -2.9063794015331894E+01 a      1536     0    31     1    36
  7.1045797296200393E+00 a      1537     0    31     1    37
  6.2323153867994250E+01 a      1538     0    31     1    38
 -2.3785094196526671E+01 a      1539     0    31     1    39
  3.5144737730763782E+00 a      1540     0    31     1    40
  8.4184353385867567E+01 a      1541     0    31     1    41
 -1.9775380128662668E+01 a      1542     0    31     1    42
  1.0276015058690385E+01 a      1543     0    31     1    43
  2.8749083935342885E+01 a      1544     0    31     1    44
 -1.3071306912993430E+01 a      1545     0    31     1    45
  9.4720516456026882E+00 a      1546     0    31     1    46
 -2.8981639208347709E+00 a      1547     0    31     1    47
 -1.4973737240205340E+01 a      1548     0    31     1    48
 -5.9721198799289130E+00 a      1549     0    31     1    49
 -2.7262870616220077E+01 a      1550     0    31     1    50
  6.3692850585688268E+00 a      1551     0    32     1     1
  2.4541238489064867E+01 a      1552     0    32     1     2
  3.0502820064274925E+01 a      1553     0    32     1     3
  4.0235638197945569E+00 a      1554     0    32     1     4
 -4.6055619323826349E+00 a      1555     0    32     1     5
 -1.4037123806595682E+00 a      1556     0    32     1     6
 -5.7809672453556551E+01 a      1557     0    32     1     7
  1.5080803388260838E+01 a      1558     0    32     1     8
 -2.8711274839438026E+01 a      1559     0    32     1     9
  4.5367667262516385E+00 a      1560     0    32     1    10
 -1.9056793284708633E+01 a      1561     0    32     1    11
  4.4703866071031300E+00 a      1562     0    32     1    12
 -7.8412122028280551E-01 a      1563     0    32     1    13
  3.4410351154564842E+00 a      1564     0    32     1    14
  2.8957023300291298E+00 a      1565     0    32     1    15
 -1.0000221765428790E+01 a      1566     0    32     1    16
 -1.9857301259634845E+01 a      1567     0    32     1    17
 -7.6219114670519228E-01 a      1568     0    32     1    18
 -9.9112794198134910E+00 a      1569     0    32     1    19
  8.6872605960474054E+00 a      1570     0    32     1    20
 -2.0470509743005042E+01 a      1571     0    32     1    21
 -1.8452414619946378E-01 a      1572     0    32     1    22
  1.0857933283904366E+01 a      1573     0    32     1    23
  2.7743350681353749E+00 a      1574     0    32     1    24
 -2.1125035948883209E+01 a      1575     0    32     1    25
 -3.9561664531459275E+00 a      1576     0    32     1    26
 -2.3697444757981199E+00 a      1577     0    32     1    27
  1.3867990926276738E+01 a      1578     0    32     1    28
  3.7368768239192103E+00 a      1579     0    32     1    29
 -1.0533577694095976E+01 a      1580     0    32     1    30
  1.8884226725263602E+01 a      1581     0    32     1    31
  4.4028239709112631E+00 a      1582     0    32     1    32
 -3.3257918085587610E+00 a      1583     0    32     1    33
  3.8445241328898824E+01 a      1584     0    32     1    34
  9.4783824271327131E+00 a      1585     0    32     1    35
 -2.4493801807359805E+00 a      1586     0    32     1    36
 -1.9799074043892659E-01 a      1587     0    32     1    37
  4.8216178753158154E+01 a      1588     0    32     1    38
  9.0439205112779248E+00 a      1589     0    32     1    39
  9.3240394035048961E+00 a      1590     0    32     1    40
  7.7209321823933493E+01 a      1591     0    32     1    41
 -1.7021449735172897E+01 a      1592     0    32     1    42
  6.0221865418446541E+00 a      1593     0    32     1    43
  8.1013571997409368E+00 a      1594     0    32     1    44
 -3.0150910693531028E+01 a      1595     0    32     1    45
 -2.2510850824290817E+01 a      1596     0    32     1    46
  2.3312891494426992E+01 a      1597     0    32     1    47
 -3.2198338904864769E+00 a      1598     0    32     1    48
  1.8947997331452363E+01 a      1599     0    32     1    49
  2.3909655204721343E+01 a      1600     0    32     1    50
 -1.7267988562769844E+01 a      1601     0    33     1     1
  3.2093228117686039E+01 a      1602     0    33     1     2
  1.4830860789517047E+01 a      1603     0    33     1     3
  2.1279018902356519E+00 a      1604     0    33     1     4
  8.8701068987402945E+00 a      1605     0    33     1     5
  3.8451836884532575E+00 a      1606     0    33     1     6
 -2.6789282593457031E+01 a      1607     0    33     1     7
 -2.5836914803545785E+01 a      1608     0    33     1     8
  1.7058589904277405E+01 a      1609     0    33     1     9
 -1.8059459747399501E+01 a      1610     0    33     1    10
  4.0365320241011657E+00 a      1611     0    33     1    11
 -2.6880308335833313E+01 a      1612     0    33     1    12
 -5.0234688536627568E+00 a      1613     0    33     1    13
 -2.2131843134696208E+01 a      1614     0    33     1    14
 -6.2390014411980800E+01 a      1615     0    33     1    15
  2.0289391434929911E+01 a      1616     0    33     1    16
 -3.9452997755005988E+01 a      1617     0    33     1    17
  1.1919624848617973E+01 a      1618     0    33     1    18
 -1.0033284177530172E+01 a      1619     0    33     1    19
  1.3874145511611049E+01 a      1620     0    33     1    20
  4.3034251425649234E-01 a      1621     0    33     1    21
  2.1853898733025094E+01 a      1622     0    33     1    22
  1.2015477385155460E+01 a      1623     0    33     1    23
