################################################################################
# Neural network connection values (weights and biases).
################################################################################
# Col  Name       Description
################################################################################
# 1    connection Neural network connection value.
# 2    t          Connection type (a = weight, b = bias).
# 3    index      Index enumerating weights.
# 4    l_s        Starting point layer (end point layer for biases).
# 5    n_s        Starting point neuron in starting layer (end point neuron for biases).
# 6    l_e        End point layer.
# 7    n_e        End point neuron in end layer.
################################################################################
#                      1 2         3     4     5     6     7
#             connection t     index   l_s   n_s   l_e   n_e
############################################################
  6.5673442097966488E+00 a         1     0     1     1     1
 -2.5764471112104061E+01 a         2     0     1     1     2
  1.2155778676921807E+01 a         3     0     1     1     3
  8.3663962336728339E+00 a         4     0     1     1     4
 -2.0831299848133558E+00 a         5     0     1     1     5
 -7.3000568407525854E+00 a         6     0     1     1     6
 -2.5931129974116072E+01 a         7     0     1     1     7
 -1.5244434932781127E+01 a         8     0     1     1     8
  6.3650125654194145E+00 a         9     0     1     1     9
  2.2227313540380102E+01 a        10     0     1     1    10
 -4.9534448385875347E+00 a        11     0     1     1    11
  5.4328084209959586E+00 a        12     0     1     1    12
 -8.1170665309903445E+00 a        13     0     1     1    13
  1.8482027719839408E+01 a        14     0     1     1    14
  2.1675596606978218E+01 a        15     0     1     1    15
 -1.5537379665963821E+01 a        16     0     1     1    16
  8.4785388538831029E+01 a        17     0     1     1    17
  7.0114708377770455E+01 a        18     0     1     1    18
 -1.4174814866389386E+02 a        19     0     1     1    19
  2.0164353541069453E+01 a        20     0     1     1    20
  8.8351717292819689E+00 a        21     0     1     1    21
  2.7452223614266731E+00 a        22     0     1     1    22
  2.1781977781853437E+00 a        23     0     1     1    23
  2.1308713125412062E+01 a        24     0     1     1    24
 -8.0334393543587286E+00 a        25     0     1     1    25
  4.9292743599023980E+00 a        26     0     1     1    26
  1.5752073849620260E+02 a        27     0     1     1    27
 -7.9864851364272180E+00 a        28     0     1     1    28
  8.2279238161806116E+00 a        29     0     1     1    29
  2.4880227316526511E+01 a        30     0     1     1    30
  1.5830627981042190E+02 a        31     0     1     1    31
 -9.6774389214551366E+00 a        32     0     1     1    32
  1.9034443528573000E+01 a        33     0     1     1    33
 -1.0994511839449540E+01 a        34     0     1     1    34
 -3.3179433424324691E+00 a        35     0     1     1    35
  2.6951030254029957E+00 a        36     0     1     1    36
  9.7609410174726065E+01 a        37     0     1     1    37
 -5.7040287692348661E+00 a        38     0     1     1    38
  1.3943037562595721E+01 a        39     0     1     1    39
  1.7564590441183061E+01 a        40     0     1     1    40
 -2.0556757942557915E+01 a        41     0     1     1    41
 -3.7941690402234229E+01 a        42     0     1     1    42
  2.6689402238362668E+01 a        43     0     1     1    43
 -5.1638182636471257E+01 a        44     0     1     1    44
  1.6963162693921467E+00 a        45     0     1     1    45
  1.0385642975065450E+01 a        46     0     1     1    46
  7.9280918021431646E+00 a        47     0     1     1    47
  1.4164366995343721E+01 a        48     0     1     1    48
 -3.7662828129865136E+00 a        49     0     1     1    49
  3.4136126219256546E+00 a        50     0     1     1    50
  1.2547533699570186E+01 a        51     0     2     1     1
 -2.6750298552003205E+01 a        52     0     2     1     2
  3.6759870304676858E+00 a        53     0     2     1     3
  7.0470565181980556E+00 a        54     0     2     1     4
 -8.2935035215736637E+00 a        55     0     2     1     5
 -9.6481052004721626E+00 a        56     0     2     1     6
 -2.5087327811582114E+01 a        57     0     2     1     7
 -1.7103797987631797E+01 a        58     0     2     1     8
  6.1774327940905449E+00 a        59     0     2     1     9
  2.3798780324312713E+01 a        60     0     2     1    10
 -4.5648621242277061E+00 a        61     0     2     1    11
 -4.2733809286172173E+00 a        62     0     2     1    12
 -8.4153997319645431E+00 a        63     0     2     1    13
  1.8764057816050624E+01 a        64     0     2     1    14
  7.7887861235413647E+00 a        65     0     2     1    15
 -1.6540705867148304E+01 a        66     0     2     1    16
  6.4084630481730215E+01 a        67     0     2     1    17
  5.1390413289512146E+01 a        68     0     2     1    18
 -1.0559583164051070E+02 a        69     0     2     1    19
  2.0905245406112122E+01 a        70     0     2     1    20
  1.1094562988132232E+01 a        71     0     2     1    21
  8.3849050099641094E+00 a        72     0     2     1    22
  3.8063329176027620E+00 a        73     0     2     1    23
  2.3496689439287032E+01 a        74     0     2     1    24
 -9.9772036943533422E+00 a        75     0     2     1    25
  5.2806268837291057E+00 a        76     0     2     1    26
  1.2632703147604896E+02 a        77     0     2     1    27
 -7.7347597445609297E+00 a        78     0     2     1    28
  7.8920362105051627E+00 a        79     0     2     1    29
  2.6619120717441028E+01 a        80     0     2     1    30
  1.3053531423421114E+02 a        81     0     2     1    31
 -1.7172542087338059E+01 a        82     0     2     1    32
  1.3122004633728006E+01 a        83     0     2     1    33
 -1.1982091227244938E+01 a        84     0     2     1    34
 -2.9765987550005111E+00 a        85     0     2     1    35
  1.3737295024194598E+00 a        86     0     2     1    36
  7.6298182756643143E+01 a        87     0     2     1    37
  3.9751590757840249E-01 a        88     0     2     1    38
  1.6634298296519187E+01 a        89     0     2     1    39
  1.3588686381001175E+01 a        90     0     2     1    40
 -2.3023706229003409E+01 a        91     0     2     1    41
 -3.1119372891043682E+01 a        92     0     2     1    42
  2.0003500044026474E+01 a        93     0     2     1    43
 -4.2495709086712822E+01 a        94     0     2     1    44
  2.1623458365742225E+00 a        95     0     2     1    45
  1.0522125141193293E+01 a        96     0     2     1    46
  1.3797973741210644E+01 a        97     0     2     1    47
  1.5559184113444953E+01 a        98     0     2     1    48
  1.0497674844402978E+00 a        99     0     2     1    49
  6.9621098178742802E+00 a       100     0     2     1    50
 -1.8676609918383264E+01 a       101     0     3     1     1
 -7.9986256310990900E+00 a       102     0     3     1     2
  3.9767150756582865E+01 a       103     0     3     1     3
  9.6135466208061278E+00 a       104     0     3     1     4
  2.3806545396946202E+01 a       105     0     3     1     5
  5.4703078930170692E+00 a       106     0     3     1     6
 -1.2479152246868932E+01 a       107     0     3     1     7
 -6.2429008483505166E+00 a       108     0     3     1     8
  4.0364514921715013E+00 a       109     0     3     1     9
  7.3121869143145437E+00 a       110     0     3     1    10
 -3.6458959114238794E+00 a       111     0     3     1    11
  4.1976156476656186E+01 a       112     0     3     1    12
 -3.5911148527529337E+00 a       113     0     3     1    13
  7.4595198733671051E+00 a       114     0     3     1    14
  6.8151849370176379E+01 a       115     0     3     1    15
 -4.2799076120442709E+00 a       116     0     3     1    16
  1.4000618746780108E+02 a       117     0     3     1    17
  1.1943343982464278E+02 a       118     0     3     1    18
 -2.4577096850065664E+02 a       119     0     3     1    19
  9.6044725985232873E+00 a       120     0     3     1    20
 -1.2943142945416275E+00 a       121     0     3     1    21
 -2.1328623902147541E+01 a       122     0     3     1    22
 -4.4595691610254660E+00 a       123     0     3     1    23
  2.8199331180496099E+00 a       124     0     3     1    24
  2.3688165935117822E+00 a       125     0     3     1    25
  3.6511812019376944E+00 a       126     0     3     1    26
  2.1875341199800167E+02 a       127     0     3     1    27
 -6.0032016463151496E+00 a       128     0     3     1    28
  7.7754158605909884E+00 a       129     0     3     1    29
  1.0108522225274102E+01 a       130     0     3     1    30
  2.1640485497355283E+02 a       131     0     3     1    31
  2.3555975694240558E+01 a       132     0     3     1    32
  3.5879425349846663E+01 a       133     0     3     1    33
 -3.7882648939768186E+00 a       134     0     3     1    34
 -3.2798123661355647E+00 a       135     0     3     1    35
  8.2018221755619720E+00 a       136     0     3     1    36
  1.4035425264499452E+02 a       137     0     3     1    37
 -2.8151523270447889E+01 a       138     0     3     1    38
  5.1919741968023625E-01 a       139     0     3     1    39
  2.6563309115533805E+01 a       140     0     3     1    40
 -4.7208414318938914E+00 a       141     0     3     1    41
 -5.1125094399495133E+01 a       142     0     3     1    42
  4.3271601002327280E+01 a       143     0     3     1    43
 -6.3547781452691524E+01 a       144     0     3     1    44
 -5.2802643470338495E-01 a       145     0     3     1    45
  5.1709316665283342E+00 a       146     0     3     1    46
 -2.2289635517686126E+01 a       147     0     3     1    47
  4.9163289894747457E+00 a       148     0     3     1    48
 -2.2267150064518166E+01 a       149     0     3     1    49
 -1.1630718643053447E+01 a       150     0     3     1    50
  3.2071586613585367E+01 a       151     0     4     1     1
 -1.3517352906428707E+01 a       152     0     4     1     2
 -3.7941866859816912E+01 a       153     0     4     1     3
 -3.0679313257067435E+00 a       154     0     4     1     4
 -3.0680698772235441E+01 a       155     0     4     1     5
 -1.8241128157938807E+01 a       156     0     4     1     6
  3.5027498582294920E+00 a       157     0     4     1     7
 -1.9509861475624376E+01 a       158     0     4     1     8
  4.7908765823279653E+00 a       159     0     4     1     9
  2.3635612151071108E+01 a       160     0     4     1    10
  4.9035966465807568E-01 a       161     0     4     1    11
 -4.5921056860676444E+01 a       162     0     4     1    12
 -6.2576342576375525E+00 a       163     0     4     1    13
  4.9632631289372435E+00 a       164     0     4     1    14
 -5.6807710745230899E+01 a       165     0     4     1    15
 -1.0174682328006547E+01 a       166     0     4     1    16
 -3.7728998726903555E+01 a       167     0     4     1    17
 -4.8450316154148545E+01 a       168     0     4     1    18
  5.7757374894656600E+01 a       169     0     4     1    19
  1.2545046412892482E+01 a       170     0     4     1    20
  1.6067841722234238E+01 a       171     0     4     1    21
  2.5252731959420554E+01 a       172     0     4     1    22
  1.0028802180918266E+01 a       173     0     4     1    23
  2.2598410252762360E+01 a       174     0     4     1    24
 -1.5005163771554585E+01 a       175     0     4     1    25
  8.9424407528878334E+00 a       176     0     4     1    26
 -5.8233749825556529E+01 a       177     0     4     1    27
 -3.0541986491946975E+00 a       178     0     4     1    28
  4.0478682109094111E+00 a       179     0     4     1    29
  2.5030967838205896E+01 a       180     0     4     1    30
 -1.6180126212275749E+01 a       181     0     4     1    31
 -4.0556233641900981E+01 a       182     0     4     1    32
 -1.8425676966858610E+01 a       183     0     4     1    33
 -1.0985153855243180E+01 a       184     0     4     1    34
 -4.2047695307273364E-01 a       185     0     4     1    35
 -6.6122733068626864E+00 a       186     0     4     1    36
 -5.4094774620525335E+01 a       187     0     4     1    37
  2.9550043134572721E+01 a       188     0     4     1    38
  2.2910048693703505E+01 a       189     0     4     1    39
 -8.5689248106526446E+00 a       190     0     4     1    40
 -2.5185442674920317E+01 a       191     0     4     1    41
  9.9707405164775729E+00 a       192     0     4     1    42
 -1.8216397552971078E+01 a       193     0     4     1    43
  2.8472846696399596E+01 a       194     0     4     1    44
  2.8681708901708882E+00 a       195     0     4     1    45
  3.4349421384640109E+00 a       196     0     4     1    46
  2.5526680405605660E+01 a       197     0     4     1    47
  1.5170070319070172E+01 a       198     0     4     1    48
  2.3523208546859316E+01 a       199     0     4     1    49
  1.8368968173921200E+01 a       200     0     4     1    50
 -5.4666288246817885E+01 a       201     0     5     1     1
  7.7053074005904865E+00 a       202     0     5     1     2
  8.5427490277858993E+01 a       203     0     5     1     3
  1.0861891542385511E+01 a       204     0     5     1     4
  5.9362931564276145E+01 a       205     0     5     1     5
  2.5316360344871228E+01 a       206     0     5     1     6
 -2.0095661987085979E+01 a       207     0     5     1     7
  8.5147317467818464E+00 a       208     0     5     1     8
  1.2128917702200801E+00 a       209     0     5     1     9
 -1.4199692856307326E+01 a       210     0     5     1    10
 -1.5636102540836181E+00 a       211     0     5     1    11
  9.5126843253993982E+01 a       212     0     5     1    12
  4.3394666334371488E+00 a       213     0     5     1    13
  1.9596504114069817E+00 a       214     0     5     1    14
  1.3514039992445285E+02 a       215     0     5     1    15
  5.7137125092409740E+00 a       216     0     5     1    16
  1.8668771323773035E+02 a       217     0     5     1    17
  1.7857740420783225E+02 a       218     0     5     1    18
 -3.1877119363494648E+02 a       219     0     5     1    19
 -1.4663165847705284E+00 a       220     0     5     1    20
 -1.5265606186824879E+01 a       221     0     5     1    21
 -5.2129931815196592E+01 a       222     0     5     1    22
 -1.4827283444324141E+01 a       223     0     5     1    23
 -2.1771898174772662E+01 a       224     0     5     1    24
  1.5673657765769438E+01 a       225     0     5     1    25
 -2.3826132223468943E+00 a       226     0     5     1    26
  2.9366078539924024E+02 a       227     0     5     1    27
 -2.8921609072070638E+00 a       228     0     5     1    28
  5.7888319337518483E+00 a       229     0     5     1    29
 -9.9218229844749128E+00 a       230     0     5     1    30
  2.4536282941412685E+02 a       231     0     5     1    31
  6.9471118493922447E+01 a       232     0     5     1    32
  5.8518003772282604E+01 a       233     0     5     1    33
  6.2560371162639061E+00 a       234     0     5     1    34
 -2.3570675391792433E+00 a       235     0     5     1    35
  1.4891483094951402E+01 a       236     0     5     1    36
  2.1127711437542604E+02 a       237     0     5     1    37
 -5.9607993005887195E+01 a       238     0     5     1    38
 -2.0530110147327854E+01 a       239     0     5     1    39
  4.1959674267064663E+01 a       240     0     5     1    40
  1.9635924338658615E+01 a       241     0     5     1    41
 -6.4860437598298518E+01 a       242     0     5     1    42
  6.6992388963553793E+01 a       243     0     5     1    43
 -1.0165247062281864E+02 a       244     0     5     1    44
 -3.3474063770969322E+00 a       245     0     5     1    45
  3.3574060528436624E+00 a       246     0     5     1    46
 -4.9575551779185666E+01 a       247     0     5     1    47
 -9.7065718573431798E+00 a       248     0     5     1    48
 -5.1964595246111472E+01 a       249     0     5     1    49
 -3.2838934773584988E+01 a       250     0     5     1    50
  5.9661067747217153E+01 a       251     0     6     1     1
  6.4163011670682870E+00 a       252     0     6     1     2
 -9.9738578283293606E+01 a       253     0     6     1     3
 -1.7647388303461142E+01 a       254     0     6     1     4
 -6.3728246416567416E+01 a       255     0     6     1     5
 -3.0040290044271647E+01 a       256     0     6     1     6
  4.9649968012527900E+01 a       257     0     6     1     7
 -2.1285099706924651E+01 a       258     0     6     1     8
  1.3627448863086082E+00 a       259     0     6     1     9
  2.0817035433825549E+01 a       260     0     6     1    10
  7.8053222567098945E+00 a       261     0     6     1    11
 -1.0553938047627675E+02 a       262     0     6     1    12
 -1.9213579181826828E+00 a       263     0     6     1    13
 -1.7334980467730158E+01 a       264     0     6     1    14
 -1.5090430730253988E+02 a       265     0     6     1    15
 -1.1023612413659161E+00 a       266     0     6     1    16
 -1.7484490577853640E+02 a       267     0     6     1    17
 -1.8575193897200842E+02 a       268     0     6     1    18
  2.7253527590502387E+02 a       269     0     6     1    19
 -3.6950814391384995E-01 a       270     0     6     1    20
  2.3047906010755273E+01 a       271     0     6     1    21
  4.8865929777143300E+01 a       272     0     6     1    22
  1.9218770400673915E+01 a       273     0     6     1    23
  2.0228494242919986E+01 a       274     0     6     1    24
 -2.2301992429691008E+01 a       275     0     6     1    25
  1.4448966492238348E+01 a       276     0     6     1    26
 -3.1451994573913032E+02 a       277     0     6     1    27
  5.7439371514452739E+00 a       278     0     6     1    28
 -2.3870540902530881E+00 a       279     0     6     1    29
  2.0197714803934215E+01 a       280     0     6     1    30
 -2.0973243471132133E+02 a       281     0     6     1    31
 -7.2964988556256074E+01 a       282     0     6     1    32
 -6.5248595099935613E+01 a       283     0     6     1    33
 -8.0500515681853546E+00 a       284     0     6     1    34
  4.1069620695286737E+00 a       285     0     6     1    35
 -1.7540321954105810E+01 a       286     0     6     1    36
 -2.3938942882796240E+02 a       287     0     6     1    37
  7.1163132541513548E+01 a       288     0     6     1    38
  3.0579315676580521E+01 a       289     0     6     1    39
 -4.1902488007422093E+01 a       290     0     6     1    40
 -2.6266635628287332E+01 a       291     0     6     1    41
  6.6874542958916990E+01 a       292     0     6     1    42
 -7.3536042207121739E+01 a       293     0     6     1    43
  1.3048987884146754E+02 a       294     0     6     1    44
  3.4062450779269731E+00 a       295     0     6     1    45
 -8.1463930448743245E+00 a       296     0     6     1    46
  3.8702401700259657E+01 a       297     0     6     1    47
  1.4518251826885514E+01 a       298     0     6     1    48
  5.3975103138000634E+01 a       299     0     6     1    49
  3.4996659420972151E+01 a       300     0     6     1    50
 -6.7667497868334067E+01 a       301     0     7     1     1
  2.0297145470284704E+01 a       302     0     7     1     2
  9.6699210437397028E+01 a       303     0     7     1     3
  5.3521215660696244E+00 a       304     0     7     1     4
  6.9614958044685110E+01 a       305     0     7     1     5
  3.2893169774296048E+01 a       306     0     7     1     6
 -3.8689827081803109E+01 a       307     0     7     1     7
  1.4321754137255022E+01 a       308     0     7     1     8
  1.8576406755635226E+00 a       309     0     7     1     9
 -2.6643267728284666E+01 a       310     0     7     1    10
  2.5407968325455497E+00 a       311     0     7     1    11
  1.0663475561002500E+02 a       312     0     7     1    12
  1.1922860667759085E+01 a       313     0     7     1    13
  3.6170654122163248E+00 a       314     0     7     1    14
  1.4283311094246392E+02 a       315     0     7     1    15
  1.2758175853675221E+01 a       316     0     7     1    16
  1.1292954149351613E+02 a       317     0     7     1    17
  1.3853464478651941E+02 a       318     0     7     1    18
 -1.7135560474645206E+02 a       319     0     7     1    19
 -8.4880482819045771E+00 a       320     0     7     1    20
 -1.9473598004285691E+01 a       321     0     7     1    21
 -6.0255352181668968E+01 a       322     0     7     1    22
 -1.9249278036491763E+01 a       323     0     7     1    23
 -3.6485148367364481E+01 a       324     0     7     1    24
  2.1385294366955694E+01 a       325     0     7     1    25
 -7.8122482521641388E+00 a       326     0     7     1    26
  2.0477116234473078E+02 a       327     0     7     1    27
 -1.2768937404623255E+00 a       328     0     7     1    28
  5.3742512988008384E+00 a       329     0     7     1    29
 -1.9883042757322666E+01 a       330     0     7     1    30
  1.0054659138015363E+02 a       331     0     7     1    31
  8.4135780771175106E+01 a       332     0     7     1    32
  5.7502909296185415E+01 a       333     0     7     1    33
  1.0472090461348568E+01 a       334     0     7     1    34
 -1.9345398604750752E+00 a       335     0     7     1    35
  1.3783467805882124E+01 a       336     0     7     1    36
  1.7883129078281513E+02 a       337     0     7     1    37
 -6.2795260795867605E+01 a       338     0     7     1    38
 -2.9682171572596818E+01 a       339     0     7     1    39
  4.1553207803451443E+01 a       340     0     7     1    40
  3.3869832820256079E+01 a       341     0     7     1    41
 -4.0815865005404717E+01 a       342     0     7     1    42
  5.9507699805812678E+01 a       343     0     7     1    43
 -9.8684737429501624E+01 a       344     0     7     1    44
 -1.9170587191463602E+00 a       345     0     7     1    45
  4.0472220687438947E+00 a       346     0     7     1    46
 -4.0884790760459957E+01 a       347     0     7     1    47
 -1.9204932684122237E+01 a       348     0     7     1    48
 -5.8445087796109569E+01 a       349     0     7     1    49
 -3.9928739109859748E+01 a       350     0     7     1    50
  6.9842083429725406E+01 a       351     0     8     1     1
  1.0854773579569514E+01 a       352     0     8     1     2
 -1.2226808293702366E+02 a       353     0     8     1     3
 -2.3015643832679942E+01 a       354     0     8     1     4
 -7.8435342025868053E+01 a       355     0     8     1     5
 -2.9102565255135424E+01 a       356     0     8     1     6
  7.0129183113446146E+01 a       357     0     8     1     7
 -1.5146283417982911E+01 a       358     0     8     1     8
 -4.7372723951668405E+00 a       359     0     8     1     9
  1.2349232375641463E+01 a       360     0     8     1    10
  1.1112737112824432E+01 a       361     0     8     1    11
 -1.2832954907593643E+02 a       362     0     8     1    12
  1.8347986465628225E+00 a       363     0     8     1    13
 -3.0066025267904486E+01 a       364     0     8     1    14
 -1.8960952873328858E+02 a       365     0     8     1    15
 -2.2076926247506581E+00 a       366     0     8     1    16
 -2.1721717335311982E+02 a       367     0     8     1    17
 -2.2857380423609774E+02 a       368     0     8     1    18
  3.3823722350295134E+02 a       369     0     8     1    19
 -7.6885697186913839E+00 a       370     0     8     1    20
  2.3655327141558740E+01 a       371     0     8     1    21
  5.9209962368868140E+01 a       372     0     8     1    22
  2.3907288800862066E+01 a       373     0     8     1    23
  1.7122424849476477E+01 a       374     0     8     1    24
 -2.6135019964172404E+01 a       375     0     8     1    25
  1.4614270140527973E+01 a       376     0     8     1    26
 -3.9858273072163638E+02 a       377     0     8     1    27
  1.4160032827067022E+01 a       378     0     8     1    28
 -1.0771472704134862E+01 a       379     0     8     1    29
  1.0330619059056531E+01 a       380     0     8     1    30
 -2.6594514224107064E+02 a       381     0     8     1    31
 -8.3385209251560724E+01 a       382     0     8     1    32
 -9.0056165253247769E+01 a       383     0     8     1    33
 -2.7755114778402334E+00 a       384     0     8     1    34
  8.8790002066159239E+00 a       385     0     8     1    35
 -2.2322236057649725E+01 a       386     0     8     1    36
 -2.9893787124276668E+02 a       387     0     8     1    37
  8.5357822569609795E+01 a       388     0     8     1    38
  2.8881074553315457E+01 a       389     0     8     1    39
 -5.6566954153182792E+01 a       390     0     8     1    40
 -2.2197053688384667E+01 a       391     0     8     1    41
  8.6136734035339828E+01 a       392     0     8     1    42
 -9.4707670678072631E+01 a       393     0     8     1    43
  1.5928263522358122E+02 a       394     0     8     1    44
  5.3239536074890770E-01 a       395     0     8     1    45
 -1.2997955204004139E+01 a       396     0     8     1    46
  3.9328359925867318E+01 a       397     0     8     1    47
  1.0854868482146644E+01 a       398     0     8     1    48
  5.9925367263724866E+01 a       399     0     8     1    49
  4.1549564320756922E+01 a       400     0     8     1    50
 -3.6634623601615672E+01 a       401     0     9     1     1
  7.2027181219045445E+01 a       402     0     9     1     2
  9.3158559146965718E+00 a       403     0     9     1     3
 -2.3184849868722512E+01 a       404     0     9     1     4
  3.3336056946920536E+01 a       405     0     9     1     5
  7.1679873645256844E+00 a       406     0     9     1     6
  1.3793012531321326E+01 a       407     0     9     1     7
 -3.1469124543746474E-01 a       408     0     9     1     8
  9.1595629239185783E+00 a       409     0     9     1     9
 -2.1994677169517278E+01 a       410     0     9     1    10
  1.5553757911019906E+01 a       411     0     9     1    11
  2.4533331843956987E+01 a       412     0     9     1    12
  1.9373526030937931E+01 a       413     0     9     1    13
 -1.7656946331667008E+01 a       414     0     9     1    14
  1.5391449732087063E+01 a       415     0     9     1    15
  4.7757923931444189E+01 a       416     0     9     1    16
 -1.6590612223512920E+02 a       417     0     9     1    17
 -1.1831289786771268E+02 a       418     0     9     1    18
  2.8850357725983463E+02 a       419     0     9     1    19
 -2.8284692900104890E+01 a       420     0     9     1    20
 -5.6248597769539801E+00 a       421     0     9     1    21
 -3.6682559314858651E+01 a       422     0     9     1    22
 -1.3383665506336945E+01 a       423     0     9     1    23
 -4.8263900663750192E+01 a       424     0     9     1    24
  1.7447731911842585E+01 a       425     0     9     1    25
  5.0408558339438081E-01 a       426     0     9     1    26
 -2.7671661264388661E+02 a       427     0     9     1    27
  8.6419834834106890E-01 a       428     0     9     1    28
  9.4296284314072203E+00 a       429     0     9     1    29
 -1.3248523009104183E+01 a       430     0     9     1    30
 -3.3145233337852426E+02 a       431     0     9     1    31
  4.1936072609272308E+01 a       432     0     9     1    32
  5.1637364688372918E+00 a       433     0     9     1    33
  7.2190489751640774E+00 a       434     0     9     1    34
 -3.5432182967150401E+00 a       435     0     9     1    35
 -2.5561108975160387E+00 a       436     0     9     1    36
 -1.5844186919559237E+02 a       437     0     9     1    37
  5.6807631905385569E-01 a       438     0     9     1    38
 -1.3923168080338325E+01 a       439     0     9     1    39
 -2.1158681868295077E+00 a       440     0     9     1    40
  3.0150344414846522E+01 a       441     0     9     1    41
  7.0066346622161674E+01 a       442     0     9     1    42
 -3.0485845967868759E+01 a       443     0     9     1    43
  8.9669743813086541E+01 a       444     0     9     1    44
  6.9847169670747311E+00 a       445     0     9     1    45
 -1.2830190173504960E+01 a       446     0     9     1    46
 -8.8694204520914184E+00 a       447     0     9     1    47
 -2.1325031697330161E+01 a       448     0     9     1    48
 -1.9192740626537180E-01 a       449     0     9     1    49
 -1.9908662466786240E+01 a       450     0     9     1    50
  4.4653619920429428E+01 a       451     0    10     1     1
 -2.4308392891135767E+01 a       452     0    10     1     2
 -5.6848686835260018E+01 a       453     0    10     1     3
 -8.2929982738194639E+00 a       454     0    10     1     4
 -5.3821930920803794E+01 a       455     0    10     1     5
 -2.7358911523528722E+00 a       456     0    10     1     6
  6.4769398365040596E+00 a       457     0    10     1     7
  3.3252790991318912E+00 a       458     0    10     1     8
 -1.2810823797425423E+01 a       459     0    10     1     9
 -5.9491702435387896E+00 a       460     0    10     1    10
  6.3080169328726798E+00 a       461     0    10     1    11
 -7.0445263989146241E+01 a       462     0    10     1    12
  4.1631365618230980E+00 a       463     0    10     1    13
 -1.2386535727320418E+01 a       464     0    10     1    14
 -1.1077709491452772E+02 a       465     0    10     1    15
 -3.1253321709478197E+01 a       466     0    10     1    16
 -1.1259814358864580E+02 a       467     0    10     1    17
 -9.7859512826280493E+01 a       468     0    10     1    18
  2.0139472807026726E+02 a       469     0    10     1    19
  9.9314324268949639E-01 a       470     0    10     1    20
  1.0846064403747048E+01 a       471     0    10     1    21
  4.6640710961546603E+01 a       472     0    10     1    22
  1.9259496893450155E+01 a       473     0    10     1    23
  1.5801602981245475E+01 a       474     0    10     1    24
 -2.2329901783672067E+01 a       475     0    10     1    25
  9.4730469817494622E-01 a       476     0    10     1    26
 -1.6032776712547465E+02 a       477     0    10     1    27
  1.8581705955774567E+01 a       478     0    10     1    28
 -1.9267451165607582E+01 a       479     0    10     1    29
 -6.8049081921075354E+00 a       480     0    10     1    30
 -1.2180678632096138E+02 a       481     0    10     1    31
 -4.9618170603022008E+01 a       482     0    10     1    32
 -6.6643608562099246E+01 a       483     0    10     1    33
  5.9936592084601390E+00 a       484     0    10     1    34
  1.3579687909125896E+01 a       485     0    10     1    35
 -1.3476607629587122E+01 a       486     0    10     1    36
 -9.3211101166483033E+01 a       487     0    10     1    37
  4.3749369661035864E+01 a       488     0    10     1    38
  8.8771837773806919E+00 a       489     0    10     1    39
 -3.1588562805241832E+01 a       490     0    10     1    40
 -5.5197267816436293E+00 a       491     0    10     1    41
  3.4063320760872102E+01 a       492     0    10     1    42
 -4.3733375374161902E+01 a       493     0    10     1    43
  1.7187483851374846E+01 a       494     0    10     1    44
 -7.3595294655550134E+00 a       495     0    10     1    45
  3.0615732981967283E+00 a       496     0    10     1    46
  3.6250257509017288E+01 a       497     0    10     1    47
  3.5939351171072782E+00 a       498     0    10     1    48
  1.1410504359771576E+01 a       499     0    10     1    49
  2.4799400985507624E+01 a       500     0    10     1    50
  6.3708871929297175E+01 a       501     0    11     1     1
 -4.4306293723122060E+01 a       502     0    11     1     2
 -8.3394585423232016E+01 a       503     0    11     1     3
 -1.8494697716140518E+01 a       504     0    11     1     4
 -8.8571708614928937E+01 a       505     0    11     1     5
 -5.9085519476477266E+00 a       506     0    11     1     6
 -1.6130646751856421E+01 a       507     0    11     1     7
  1.6755061776466491E+01 a       508     0    11     1     8
 -1.3520020011424483E+01 a       509     0    11     1     9
 -1.1892230824270730E+01 a       510     0    11     1    10
  5.5722736091677483E-01 a       511     0    11     1    11
 -1.0590081555354334E+02 a       512     0    11     1    12
  1.5842644543582461E+01 a       513     0    11     1    13
 -1.7548850458014267E+00 a       514     0    11     1    14
 -1.6358427676280317E+02 a       515     0    11     1    15
 -4.4523664652928481E+01 a       516     0    11     1    16
 -1.8461148736938694E+02 a       517     0    11     1    17
 -1.4779038980980206E+02 a       518     0    11     1    18
  3.4698357069240762E+02 a       519     0    11     1    19
  7.5194193859882423E+00 a       520     0    11     1    20
  1.8242104830089097E+01 a       521     0    11     1    21
  6.8522298617960516E+01 a       522     0    11     1    22
  2.5286343998944080E+01 a       523     0    11     1    23
  2.6639759379903136E+01 a       524     0    11     1    24
 -3.9387260860525409E+01 a       525     0    11     1    25
 -6.8073780217471027E+00 a       526     0    11     1    26
 -2.2571272273497107E+02 a       527     0    11     1    27
  2.7918201420651727E+01 a       528     0    11     1    28
 -2.9574955745888815E+01 a       529     0    11     1    29
 -5.3892131909673191E+00 a       530     0    11     1    30
 -2.0540970619496775E+02 a       531     0    11     1    31
 -7.7201489964783320E+01 a       532     0    11     1    32
 -9.9113021383731478E+01 a       533     0    11     1    33
  3.8025786380437729E+00 a       534     0    11     1    34
  1.8728404193983199E+01 a       535     0    11     1    35
 -2.4253372775573460E+01 a       536     0    11     1    36
 -1.3369048713660143E+02 a       537     0    11     1    37
  6.2892398431212648E+01 a       538     0    11     1    38
  7.4344613933209667E+00 a       539     0    11     1    39
 -4.0672799223083665E+01 a       540     0    11     1    40
 -5.9766891487268641E+00 a       541     0    11     1    41
  5.6853313399188238E+01 a       542     0    11     1    42
 -6.6114699453913261E+01 a       543     0    11     1    43
  1.3496130803307137E+01 a       544     0    11     1    44
 -4.8405254248672769E+00 a       545     0    11     1    45
  4.4073699687677417E+00 a       546     0    11     1    46
  6.6347237623403416E+01 a       547     0    11     1    47
  8.7123016181462021E-01 a       548     0    11     1    48
  2.3771367864063826E+01 a       549     0    11     1    49
  3.9155465011662237E+01 a       550     0    11     1    50
  1.7089083074353887E+01 a       551     0    12     1     1
  9.6523692726614598E+00 a       552     0    12     1     2
 -2.7486627134930593E+01 a       553     0    12     1     3
  1.3094474996666769E-01 a       554     0    12     1     4
 -1.0744558825022454E+01 a       555     0    12     1     5
  2.6648892294735087E+00 a       556     0    12     1     6
  5.5792316691699440E+01 a       557     0    12     1     7
 -7.4158743551239521E+00 a       558     0    12     1     8
 -1.4107991811960019E+01 a       559     0    12     1     9
 -3.9520721137371133E+00 a       560     0    12     1    10
  1.2408669366358415E+01 a       561     0    12     1    11
 -2.5319217310248092E+01 a       562     0    12     1    12
 -7.5066706891647659E+00 a       563     0    12     1    13
 -3.5037149438177735E+01 a       564     0    12     1    14
 -4.5181655064514352E+01 a       565     0    12     1    15
 -7.7718339198956023E+00 a       566     0    12     1    16
  1.1877850190112419E+01 a       567     0    12     1    17
 -1.8229061755766317E+01 a       568     0    12     1    18
 -5.5647801100716485E+01 a       569     0    12     1    19
 -1.2561357216113226E+01 a       570     0    12     1    20
 -3.6133029403129480E-01 a       571     0    12     1    21
  1.2690396262114165E+01 a       572     0    12     1    22
  1.1458087851298931E+01 a       573     0    12     1    23
 -2.8766030326407916E+00 a       574     0    12     1    24
 -7.6079268387100329E-01 a       575     0    12     1    25
  1.1100275360803977E+01 a       576     0    12     1    26
 -5.4079857780019303E+01 a       577     0    12     1    27
  9.8732795899745138E+00 a       578     0    12     1    28
 -1.0387616806685282E+01 a       579     0    12     1    29
 -1.5177810066382602E+01 a       580     0    12     1    30
  3.9909071429603557E+01 a       581     0    12     1    31
 -1.0216227793092607E+01 a       582     0    12     1    32
 -2.7942085043573741E+01 a       583     0    12     1    33
  1.1357415228973505E+01 a       584     0    12     1    34
  9.0323737401772579E+00 a       585     0    12     1    35
 -2.1739609032029533E-01 a       586     0    12     1    36
 -4.6145380162324415E+01 a       587     0    12     1    37
  1.7102546166430628E+01 a       588     0    12     1    38
  6.8743063646425222E+00 a       589     0    12     1    39
 -2.1086029263033058E+01 a       590     0    12     1    40
 -1.7170394890457732E-01 a       591     0    12     1    41
  2.3116798787413879E+00 a       592     0    12     1    42
 -1.7481498369379096E+01 a       593     0    12     1    43
  3.5571776441522459E+01 a       594     0    12     1    44
 -1.1173349776593259E+01 a       595     0    12     1    45
 -5.6724051930256669E+00 a       596     0    12     1    46
 -2.0194543294107142E+01 a       597     0    12     1    47
  3.6916361189170512E+00 a       598     0    12     1    48
 -3.3206011474499100E+00 a       599     0    12     1    49
  6.3405115834945684E+00 a       600     0    12     1    50
  5.3039963793077348E+01 a       601     0    13     1     1
 -5.1188435608944424E+01 a       602     0    13     1     2
 -6.9042602424174405E+01 a       603     0    13     1     3
 -3.5768727451877989E+00 a       604     0    13     1     4
 -8.0553337631585208E+01 a       605     0    13     1     5
 -1.5527974522384012E+01 a       606     0    13     1     6
  6.8738146372185170E+01 a       607     0    13     1     7
  3.0816033529078151E+01 a       608     0    13     1     8
 -1.0531152889333162E+01 a       609     0    13     1     9
  5.5206398720270009E+00 a       610     0    13     1    10
 -2.4421343628352968E+01 a       611     0    13     1    11
 -7.2855833361249964E+01 a       612     0    13     1    12
  1.0782012471118595E+01 a       613     0    13     1    13
 -9.7310879916452269E+00 a       614     0    13     1    14
 -9.1108449115879580E+01 a       615     0    13     1    15
 -2.1937178740086317E+01 a       616     0    13     1    16
  2.0920876354909763E+02 a       617     0    13     1    17
  1.0293286440500728E+02 a       618     0    13     1    18
 -4.4378407984133929E+02 a       619     0    13     1    19
  1.5948069731782997E+01 a       620     0    13     1    20
  1.2898200771543024E+01 a       621     0    13     1    21
  3.7613091095099698E+01 a       622     0    13     1    22
  2.1140265360043170E+01 a       623     0    13     1    23
  4.4403177486825285E+01 a       624     0    13     1    24
 -4.3682366857643075E+01 a       625     0    13     1    25
  1.2216280422493275E+00 a       626     0    13     1    26
  2.4872478105302042E+02 a       627     0    13     1    27
  1.9617847572732074E+01 a       628     0    13     1    28
 -2.6922510729636620E+01 a       629     0    13     1    29
  8.9450534352410020E+00 a       630     0    13     1    30
  4.5416795608075773E+02 a       631     0    13     1    31
 -6.5765600531860912E+01 a       632     0    13     1    32
 -5.1134202338104700E+01 a       633     0    13     1    33
 -7.9079161525194666E+00 a       634     0    13     1    34
  1.2732375607916923E+01 a       635     0    13     1    35
 -9.7369490410618535E+00 a       636     0    13     1    36
  6.4528794078614752E+01 a       637     0    13     1    37
  2.1378167808905687E+01 a       638     0    13     1    38
  6.1658591770887146E+00 a       639     0    13     1    39
 -6.5120577385361269E+00 a       640     0    13     1    40
 -2.3667867067970658E+01 a       641     0    13     1    41
 -5.5462636410031024E+01 a       642     0    13     1    42
 -6.7434586190540982E+00 a       643     0    13     1    43
 -1.4701270965348752E+00 a       644     0    13     1    44
 -4.1230550275545630E+00 a       645     0    13     1    45
 -2.0572305536515653E+01 a       646     0    13     1    46
 -3.5195333606541205E+01 a       647     0    13     1    47
  1.2923661947085041E+01 a       648     0    13     1    48
  2.9384265546200176E+01 a       649     0    13     1    49
  3.6910433006829088E+01 a       650     0    13     1    50
 -8.3404715867722999E+01 a       651     0    14     1     1
  6.2859835106424548E+01 a       652     0    14     1     2
  1.1324617575966485E+02 a       653     0    14     1     3
 -1.6727494852435488E+01 a       654     0    14     1     4
  8.8069547921617527E+01 a       655     0    14     1     5
  5.3013903395872539E+01 a       656     0    14     1     6
 -7.0963428246684003E+01 a       657     0    14     1     7
  1.1678261803988377E+01 a       658     0    14     1     8
 -2.4763832913385823E+01 a       659     0    14     1     9
 -5.4507401846366328E+01 a       660     0    14     1    10
  2.0888623733997687E+01 a       661     0    14     1    11
  1.1865069902249745E+02 a       662     0    14     1    12
 -2.5519566273118062E+00 a       663     0    14     1    13
 -7.8605755343162036E+00 a       664     0    14     1    14
  1.3530055803880620E+02 a       665     0    14     1    15
  3.7679059744660442E+01 a       666     0    14     1    16
  4.3617367725493516E+01 a       667     0    14     1    17
  1.1843642115973374E+02 a       668     0    14     1    18
 -2.9166267225636091E+01 a       669     0    14     1    19
 -4.2266884119833385E+01 a       670     0    14     1    20
 -3.8694629743989637E+01 a       671     0    14     1    21
 -6.5684318885123872E+01 a       672     0    14     1    22
 -2.3296698183523368E+01 a       673     0    14     1    23
 -8.1321710658029474E+01 a       674     0    14     1    24
  4.9723755817027531E+01 a       675     0    14     1    25
 -2.3280209209163345E+01 a       676     0    14     1    26
  1.2523463046365305E+02 a       677     0    14     1    27
  3.4006212885442593E+00 a       678     0    14     1    28
 -1.4237610600259046E+01 a       679     0    14     1    29
 -7.5870901309895189E+01 a       680     0    14     1    30
 -5.3427031195695527E+01 a       681     0    14     1    31
  1.1261670628942088E+02 a       682     0    14     1    32
  5.7182373329170588E+01 a       683     0    14     1    33
  4.1838069814478033E+01 a       684     0    14     1    34
  9.3672545624456589E+00 a       685     0    14     1    35
  2.2734408888573263E+01 a       686     0    14     1    36
  1.1829946759537934E+02 a       687     0    14     1    37
 -7.4852334245874758E+01 a       688     0    14     1    38
 -4.0763885709973145E+01 a       689     0    14     1    39
  4.1604545443597296E+01 a       690     0    14     1    40
  6.5369747850202700E+01 a       691     0    14     1    41
 -2.2356439327602061E+01 a       692     0    14     1    42
  3.8599613974579604E+01 a       693     0    14     1    43
 -8.4390200143723177E+01 a       694     0    14     1    44
 -2.0237748410922965E+01 a       695     0    14     1    45
 -1.0213294042420686E+00 a       696     0    14     1    46
 -6.9364723010943848E+01 a       697     0    14     1    47
 -3.0123681449758582E+01 a       698     0    14     1    48
 -7.9465079014732609E+01 a       699     0    14     1    49
 -5.7146062173661782E+01 a       700     0    14     1    50
 -9.6349105988963245E+01 a       701     0    15     1     1
  1.6026443020588211E+01 a       702     0    15     1     2
  1.5426230831443957E+02 a       703     0    15     1     3
  6.6168910394725089E+01 a       704     0    15     1     4
  1.3353206837109229E+02 a       705     0    15     1     5
 -2.1368325476825447E+00 a       706     0    15     1     6
 -6.3148927775057643E+01 a       707     0    15     1     7
  9.8501990229278196E+00 a       708     0    15     1     8
  3.3711352887640857E+01 a       709     0    15     1     9
  3.6120532491275036E+01 a       710     0    15     1    10
 -6.8394610799751518E+00 a       711     0    15     1    11
  1.6924914280134479E+02 a       712     0    15     1    12
 -1.5733901184323953E+01 a       713     0    15     1    13
  6.4360517448465885E+01 a       714     0    15     1    14
  2.6964360077003198E+02 a       715     0    15     1    15
  4.8969405063267658E+01 a       716     0    15     1    16
  2.5101878739412619E+01 a       717     0    15     1    17
  7.4583372431598136E+01 a       718     0    15     1    18
  3.3959916430879069E+01 a       719     0    15     1    19
  4.0424791914945750E+00 a       720     0    15     1    20
 -5.2081400950856136E+01 a       721     0    15     1    21
 -8.3020980713463715E+01 a       722     0    15     1    22
 -4.2140572688066200E+01 a       723     0    15     1    23
 -1.2687217202268043E+01 a       724     0    15     1    24
  7.2670033180265079E+01 a       725     0    15     1    25
 -1.8961653754662539E+01 a       726     0    15     1    26
  9.4405889778684440E+01 a       727     0    15     1    27
 -7.2517946069659303E+01 a       728     0    15     1    28
  6.0347267138495333E+01 a       729     0    15     1    29
  1.7049040289377611E+01 a       730     0    15     1    30
 -1.6933172971482225E+02 a       731     0    15     1    31
  1.0174312658381066E+02 a       732     0    15     1    32
  1.4142423414365783E+02 a       733     0    15     1    33
 -2.4895511193681028E+01 a       734     0    15     1    34
 -4.2673545321714293E+01 a       735     0    15     1    35
  5.3693023384891760E+01 a       736     0    15     1    36
  1.2913989148604404E+02 a       737     0    15     1    37
 -1.0725075306913904E+02 a       738     0    15     1    38
 -2.9618491380843185E+01 a       739     0    15     1    39
  2.8577166809179701E+01 a       740     0    15     1    40
  2.6741413659527819E+01 a       741     0    15     1    41
 -1.4769977551791714E+01 a       742     0    15     1    42
  8.1300437342627319E+01 a       743     0    15     1    43
 -2.8758201381705454E+01 a       744     0    15     1    44
  1.5500611220223126E+01 a       745     0    15     1    45
  1.3876804393761985E+01 a       746     0    15     1    46
  6.7610416709807728E+00 a       747     0    15     1    47
 -8.6650604636123081E+00 a       748     0    15     1    48
 -9.7397007475355295E+00 a       749     0    15     1    49
 -5.7567097085901665E+01 a       750     0    15     1    50
 -1.5254502996779781E+01 a       751     0    16     1     1
 -1.4021793081579125E+01 a       752     0    16     1     2
  1.2748451986459733E+01 a       753     0    16     1     3
  2.2579232222425389E+01 a       754     0    16     1     4
  1.9132230032076521E+01 a       755     0    16     1     5
 -1.6450878140422752E+01 a       756     0    16     1     6
 -1.6941332889083741E-01 a       757     0    16     1     7
  6.3701664931661748E+00 a       758     0    16     1     8
  2.0778204134652039E+01 a       759     0    16     1     9
  1.5148172314329711E+01 a       760     0    16     1    10
 -3.0271618971527772E+01 a       761     0    16     1    11
  2.5588257029876754E+01 a       762     0    16     1    12
  8.0709819869059940E-01 a       763     0    16     1    13
  2.8387985559176368E+01 a       764     0    16     1    14
  5.9406744354223086E+01 a       765     0    16     1    15
  1.1101280685204713E+01 a       766     0    16     1    16
  2.0055708409914622E+01 a       767     0    16     1    17
  2.5891038934419162E+00 a       768     0    16     1    18
 -2.9375716298874057E+01 a       769     0    16     1    19
  1.6660946634226438E+01 a       770     0    16     1    20
  3.7670019403793908E-01 a       771     0    16     1    21
 -1.1390392600215035E+01 a       772     0    16     1    22
 -2.0437768265853425E+01 a       773     0    16     1    23
  1.9534654684118532E+01 a       774     0    16     1    24
  7.3901447928953701E+00 a       775     0    16     1    25
 -2.7446282956858856E+00 a       776     0    16     1    26
  3.3155652621665503E+01 a       777     0    16     1    27
 -1.6001508044154349E+01 a       778     0    16     1    28
  2.3473485182621545E+01 a       779     0    16     1    29
  2.8564160315546186E+01 a       780     0    16     1    30
  5.4693212232924147E+00 a       781     0    16     1    31
  9.0795675883973672E+00 a       782     0    16     1    32
  4.5190259993038737E+01 a       783     0    16     1    33
 -2.7365700139174329E+01 a       784     0    16     1    34
 -2.2732212256022745E+01 a       785     0    16     1    35
 -5.7741451570348712E+00 a       786     0    16     1    36
  2.7383082560230147E+01 a       787     0    16     1    37
 -1.3023004611976669E+01 a       788     0    16     1    38
 -4.4271506580275934E+00 a       789     0    16     1    39
  3.8349161638835381E+00 a       790     0    16     1    40
 -1.3911081509714524E+01 a       791     0    16     1    41
 -7.4044891407749738E+00 a       792     0    16     1    42
  2.7670974032581910E+01 a       793     0    16     1    43
  4.9394372922298215E+00 a       794     0    16     1    44
  2.6281247788775897E+01 a       795     0    16     1    45
  3.8741718334041040E+00 a       796     0    16     1    46
  1.9619077649185577E+01 a       797     0    16     1    47
 -5.5535861960998680E+00 a       798     0    16     1    48
  2.9381771170935377E+01 a       799     0    16     1    49
  4.4703995017639547E-01 a       800     0    16     1    50
 -1.3258143927352430E+00 a       801     0    17     1     1
  8.8026147093171510E+00 a       802     0    17     1     2
 -1.9987984224831774E+01 a       803     0    17     1     3
 -1.3873697756065134E+01 a       804     0    17     1     4
 -7.4237957317080827E+00 a       805     0    17     1     5
  5.4607761861796531E+00 a       806     0    17     1     6
  2.3437412921452352E+00 a       807     0    17     1     7
 -4.8918025500516320E+00 a       808     0    17     1     8
 -1.0180785727535969E+01 a       809     0    17     1     9
 -1.9055939444591374E+01 a       810     0    17     1    10
 -7.5525811270075112E+00 a       811     0    17     1    11
 -1.6370415094025741E+01 a       812     0    17     1    12
  1.7625454490698054E+00 a       813     0    17     1    13
 -1.1162198133282979E+01 a       814     0    17     1    14
 -2.6553253645503524E+01 a       815     0    17     1    15
 -3.4107099116215869E+00 a       816     0    17     1    16
 -9.3956843469626019E+00 a       817     0    17     1    17
 -1.2291314230303827E+01 a       818     0    17     1    18
  6.2878139847406791E+00 a       819     0    17     1    19
 -6.6504033242464473E+00 a       820     0    17     1    20
  1.6893108812648894E+01 a       821     0    17     1    21
  9.2967218873898609E+00 a       822     0    17     1    22
 -4.6910123426976442E+00 a       823     0    17     1    23
 -9.3388400161397414E+00 a       824     0    17     1    24
 -6.2500924154045787E+00 a       825     0    17     1    25
  1.1172220862577236E+00 a       826     0    17     1    26
 -1.7419460716758365E+01 a       827     0    17     1    27
  1.6596342597651390E+01 a       828     0    17     1    28
 -1.0679736392862113E+01 a       829     0    17     1    29
 -1.5184456552343692E+01 a       830     0    17     1    30
  8.9711556042718463E+00 a       831     0    17     1    31
  2.9225684896344899E+00 a       832     0    17     1    32
 -1.0482006709722127E+01 a       833     0    17     1    33
  9.8948100872608986E+00 a       834     0    17     1    34
  1.2307149230734540E+00 a       835     0    17     1    35
 -1.7222895898738592E+01 a       836     0    17     1    36
 -1.7257163157941264E+01 a       837     0    17     1    37
  1.3315096350947645E+01 a       838     0    17     1    38
  5.4907628171020493E+00 a       839     0    17     1    39
 -3.8380193810913230E+00 a       840     0    17     1    40
 -2.7499010556955192E+00 a       841     0    17     1    41
  2.6446591640469332E+00 a       842     0    17     1    42
 -2.9538872109644068E+00 a       843     0    17     1    43
 -4.0755324551115715E+00 a       844     0    17     1    44
  5.9208414560000762E+00 a       845     0    17     1    45
 -1.5833508409411619E+00 a       846     0    17     1    46
 -7.5586886477764406E+00 a       847     0    17     1    47
 -9.9257676494250120E+00 a       848     0    17     1    48
 -3.8848201104560625E+00 a       849     0    17     1    49
  2.8545382064823386E+00 a       850     0    17     1    50
  4.2768119837271890E+00 a       851     0    18     1     1
 -2.4140676451364222E+00 a       852     0    18     1     2
 -3.3422296695291180E+00 a       853     0    18     1     3
 -1.4760982208013669E+00 a       854     0    18     1     4
 -5.8431623084656028E+00 a       855     0    18     1     5
 -3.1768204360770758E-01 a       856     0    18     1     6
  2.4569273495902388E+00 a       857     0    18     1     7
  1.6697226518087318E+00 a       858     0    18     1     8
 -8.6540569893529018E-01 a       859     0    18     1     9
  8.3851838650410615E-01 a       860     0    18     1    10
  4.2384102662801144E+00 a       861     0    18     1    11
 -6.1228435118845255E+00 a       862     0    18     1    12
  1.2395494251456844E+00 a       863     0    18     1    13
 -1.8246227153181893E+00 a       864     0    18     1    14
 -1.0023838907617373E+01 a       865     0    18     1    15
 -2.9340888571611532E+00 a       866     0    18     1    16
 -1.5023908807636106E+00 a       867     0    18     1    17
 -1.5954953828635501E+00 a       868     0    18     1    18
  8.2952216460767991E-01 a       869     0    18     1    19
 -8.6824487367166886E-02 a       870     0    18     1    20
 -7.6292807470570836E-02 a       871     0    18     1    21
  2.5550140188720620E+00 a       872     0    18     1    22
  6.0259842695236721E+00 a       873     0    18     1    23
  7.6439788301912004E-01 a       874     0    18     1    24
 -3.3690749615411670E+00 a       875     0    18     1    25
  1.0091599325536114E+00 a       876     0    18     1    26
 -3.3543579338155465E+00 a       877     0    18     1    27
  2.9853986882531869E-01 a       878     0    18     1    28
 -2.0639726773495131E+00 a       879     0    18     1    29
  2.0018534640099897E-01 a       880     0    18     1    30
  3.3880335381045992E+00 a       881     0    18     1    31
 -5.7028168965900399E+00 a       882     0    18     1    32
 -8.8512573239167676E+00 a       883     0    18     1    33
  1.6285238849711796E+00 a       884     0    18     1    34
  2.7009240266696084E+00 a       885     0    18     1    35
  2.6324361243335286E+00 a       886     0    18     1    36
 -4.5816826051035831E+00 a       887     0    18     1    37
  1.9203858460317051E+00 a       888     0    18     1    38
  9.0681431025558035E-01 a       889     0    18     1    39
 -1.6564143334205024E+00 a       890     0    18     1    40
  9.9956308502459001E-01 a       891     0    18     1    41
  1.6881035583332673E+00 a       892     0    18     1    42
 -5.2607817752374837E+00 a       893     0    18     1    43
  1.8858599063305286E+00 a       894     0    18     1    44
 -4.5336855339186810E+00 a       895     0    18     1    45
 -1.4768090059630905E+00 a       896     0    18     1    46
 -1.7542162558865423E-01 a       897     0    18     1    47
  2.5545343438927501E+00 a       898     0    18     1    48
 -8.7000343533096813E-01 a       899     0    18     1    49
  1.8668018465183978E+00 a       900     0    18     1    50
  3.6973298067811520E+01 a       901     0    19     1     1
  4.8345424691946789E+01 a       902     0    19     1     2
 -3.6805868856774431E+01 a       903     0    19     1     3
  9.8877735476765025E+00 a       904     0    19     1     4
  8.0643884772029679E+01 a       905     0    19     1     5
 -1.3012677841076627E+01 a       906     0    19     1     6
 -4.4779280795936060E+01 a       907     0    19     1     7
  5.6918534137119543E+01 a       908     0    19     1     8
 -1.6334275993447303E+01 a       909     0    19     1     9
 -1.4269760637780527E+01 a       910     0    19     1    10
 -2.4302657224208044E+01 a       911     0    19     1    11
  4.9401555610177745E+01 a       912     0    19     1    12
  1.3559001429611547E+01 a       913     0    19     1    13
  1.6169092323707883E+01 a       914     0    19     1    14
  2.2360094398198783E+01 a       915     0    19     1    15
 -1.4887894090965739E+01 a       916     0    19     1    16
 -6.2356384437129798E+01 a       917     0    19     1    17
  2.9309087383326311E+01 a       918     0    19     1    18
 -1.3365818429876091E+02 a       919     0    19     1    19
 -1.0597600806909464E+01 a       920     0    19     1    20
 -3.9895909956026166E+01 a       921     0    19     1    21
 -1.2738213719420775E+01 a       922     0    19     1    22
 -1.7102596836774593E+00 a       923     0    19     1    23
  6.8461272522474594E+00 a       924     0    19     1    24
 -3.0651959102570597E+01 a       925     0    19     1    25
 -2.6735389189965780E+01 a       926     0    19     1    26
  8.1126684100908690E+01 a       927     0    19     1    27
  3.4204748579275567E+01 a       928     0    19     1    28
 -7.0023761521287781E+01 a       929     0    19     1    29
 -7.6628673175800500E+01 a       930     0    19     1    30
 -3.3801763849255565E+01 a       931     0    19     1    31
 -3.1052336636002189E+00 a       932     0    19     1    32
  5.4295307250017686E+01 a       933     0    19     1    33
  1.7105374831941695E+00 a       934     0    19     1    34
  3.8159445261137357E+00 a       935     0    19     1    35
 -2.7800972221516016E+00 a       936     0    19     1    36
 -2.1247654935858773E+01 a       937     0    19     1    37
 -5.6780004338174230E+01 a       938     0    19     1    38
  1.4903480775221565E+01 a       939     0    19     1    39
  1.1060626169070479E+01 a       940     0    19     1    40
 -2.4476660250906058E+01 a       941     0    19     1    41
 -4.5386911670447518E+01 a       942     0    19     1    42
  4.0967184334493524E+01 a       943     0    19     1    43
 -3.6197639461407803E+01 a       944     0    19     1    44
 -4.2525440592754961E+01 a       945     0    19     1    45
  7.2791996701418871E+00 a       946     0    19     1    46
  6.3343531824292363E+01 a       947     0    19     1    47
  2.4597160444796309E+01 a       948     0    19     1    48
  6.9253745270042501E+01 a       949     0    19     1    49
  1.9052342003963343E-01 a       950     0    19     1    50
 -5.6255727765765194E+01 a       951     0    20     1     1
 -5.1823788154741601E+00 a       952     0    20     1     2
  1.3748938364131176E+01 a       953     0    20     1     3
 -2.4249688912637911E+01 a       954     0    20     1     4
 -1.7073101868150935E+01 a       955     0    20     1     5
  2.1929900662221055E+01 a       956     0    20     1     6
  9.3124391705988607E+00 a       957     0    20     1     7
 -2.0021732538103389E+01 a       958     0    20     1     8
  1.0096564838209520E+02 a       959     0    20     1     9
  9.0023099021831801E+00 a       960     0    20     1    10
  2.8524897042683488E+00 a       961     0    20     1    11
  1.4531483565938119E+01 a       962     0    20     1    12
 -1.8935054151478074E+01 a       963     0    20     1    13
 -6.7750634776427408E+00 a       964     0    20     1    14
  4.4086246113338213E+01 a       965     0    20     1    15
 -7.6421279719445625E+00 a       966     0    20     1    16
  3.4891380013943788E+01 a       967     0    20     1    17
  7.4127763967622036E+00 a       968     0    20     1    18
  4.2893066968949597E+01 a       969     0    20     1    19
 -1.6615525374743235E+01 a       970     0    20     1    20
  4.1383600928639410E+01 a       971     0    20     1    21
 -1.1617198089364093E+01 a       972     0    20     1    22
  1.3354881098755259E+01 a       973     0    20     1    23
  6.5019473982834583E+01 a       974     0    20     1    24
  6.2538259154154723E+00 a       975     0    20     1    25
 -5.5268224456939087E+01 a       976     0    20     1    26
  3.7857149978988730E+01 a       977     0    20     1    27
  3.1069803167506702E+01 a       978     0    20     1    28
 -4.6104426646386806E+01 a       979     0    20     1    29
 -8.4300508600618130E+01 a       980     0    20     1    30
  3.7326115794144519E+00 a       981     0    20     1    31
 -6.3894499431269594E+01 a       982     0    20     1    32
 -3.5663900634009750E+01 a       983     0    20     1    33
 -1.3151260392272375E+00 a       984     0    20     1    34
 -4.9990766249085851E+01 a       985     0    20     1    35
  1.4297708978407089E+01 a       986     0    20     1    36
 -4.0753802349987126E+01 a       987     0    20     1    37
  2.6310451164790500E+01 a       988     0    20     1    38
 -1.3505977410357895E+01 a       989     0    20     1    39
 -4.0327747995101390E+01 a       990     0    20     1    40
  6.7378267017585767E+00 a       991     0    20     1    41
  1.2067642362358152E+01 a       992     0    20     1    42
 -6.1358574258665071E+00 a       993     0    20     1    43
 -1.3962513769076216E+02 a       994     0    20     1    44
  7.7142862149765946E+01 a       995     0    20     1    45
  5.1908797182649629E+00 a       996     0    20     1    46
  1.2376737570646299E+02 a       997     0    20     1    47
 -8.8505802209179308E+01 a       998     0    20     1    48
 -9.1920706292468864E+01 a       999     0    20     1    49
  3.8490218227982247E+01 a      1000     0    20     1    50
 -1.8491531885922768E+01 a      1001     0    21     1     1
 -7.4731331494639717E+00 a      1002     0    21     1     2
 -3.6396036308685837E+00 a      1003     0    21     1     3
  1.4286077768130241E+02 a      1004     0    21     1     4
 -1.2962121245134009E+02 a      1005     0    21     1     5
  1.0062976962111468E+02 a      1006     0    21     1     6
 -5.8434926601817722E+01 a      1007     0    21     1     7
 -4.0371603870278598E+01 a      1008     0    21     1     8
  4.5920303958943364E+01 a      1009     0    21     1     9
 -4.1599409969174168E+00 a      1010     0    21     1    10
 -2.3924097808235341E+01 a      1011     0    21     1    11
  1.3019259476306669E+02 a      1012     0    21     1    12
 -9.0565755887079629E+00 a      1013     0    21     1    13
 -2.5203818284562431E+01 a      1014     0    21     1    14
 -2.0082737235809052E+01 a      1015     0    21     1    15
 -5.7973603775034185E+01 a      1016     0    21     1    16
  6.7845286886832952E+01 a      1017     0    21     1    17
  3.2508018083644409E+01 a      1018     0    21     1    18
 -1.5007018317607121E+00 a      1019     0    21     1    19
 -5.2178846317144298E+01 a      1020     0    21     1    20
  4.1709061852915234E+01 a      1021     0    21     1    21
  2.0858992656270768E+01 a      1022     0    21     1    22
 -4.3133375895179121E+01 a      1023     0    21     1    23
 -3.3379331330872752E+01 a      1024     0    21     1    24
 -1.1593706417918492E+01 a      1025     0    21     1    25
 -4.4886165849491938E+01 a      1026     0    21     1    26
 -2.6501248300360629E+01 a      1027     0    21     1    27
  4.2191345400334988E+01 a      1028     0    21     1    28
  2.5696035766806300E+01 a      1029     0    21     1    29
  2.2178204071668699E+01 a      1030     0    21     1    30
 -1.1010223142050913E+02 a      1031     0    21     1    31
  3.8190404421503303E+01 a      1032     0    21     1    32
  4.3629335656864079E+01 a      1033     0    21     1    33
  2.4078823979687488E+01 a      1034     0    21     1    34
  6.2197101741233309E+00 a      1035     0    21     1    35
 -5.1436186420428953E+01 a      1036     0    21     1    36
  4.7447232251839544E+01 a      1037     0    21     1    37
  7.7856599532700017E+01 a      1038     0    21     1    38
  1.7340849534358524E+00 a      1039     0    21     1    39
 -2.3550945494357368E+01 a      1040     0    21     1    40
  3.6406471150996933E+00 a      1041     0    21     1    41
 -8.0254302078693883E+01 a      1042     0    21     1    42
 -1.0621712129056732E+02 a      1043     0    21     1    43
  4.7426799982854803E+01 a      1044     0    21     1    44
  2.2477401287061262E+01 a      1045     0    21     1    45
 -2.7502137059931229E+01 a      1046     0    21     1    46
 -1.2164620636929951E+02 a      1047     0    21     1    47
 -4.3143666640333613E+01 a      1048     0    21     1    48
  5.7582077319635172E-01 a      1049     0    21     1    49
  1.3392884512020741E+01 a      1050     0    21     1    50
  2.8649914563037431E+01 a      1051     0    22     1     1
  1.6497428854417284E+00 a      1052     0    22     1     2
 -1.1406602303716244E+02 a      1053     0    22     1     3
 -5.4860624669285734E+01 a      1054     0    22     1     4
  1.9316672155427515E+01 a      1055     0    22     1     5
  1.7870096998317712E+02 a      1056     0    22     1     6
 -6.1257100657488003E+01 a      1057     0    22     1     7
 -1.9311144951216668E+00 a      1058     0    22     1     8
  1.5803868474594154E+00 a      1059     0    22     1     9
 -2.6892430114062716E+01 a      1060     0    22     1    10
 -9.5024403647781526E+00 a      1061     0    22     1    11
 -5.9806020381163712E+01 a      1062     0    22     1    12
 -1.9999105105336490E+01 a      1063     0    22     1    13
 -6.0566130671502890E+01 a      1064     0    22     1    14
 -6.6158805876446536E+01 a      1065     0    22     1    15
  5.4285314837925135E+01 a      1066     0    22     1    16
  1.3317850405854375E+02 a      1067     0    22     1    17
  4.9064324993074848E+01 a      1068     0    22     1    18
  7.3531695308670933E+01 a      1069     0    22     1    19
  8.7733736514721855E+01 a      1070     0    22     1    20
 -1.7568827816818601E+01 a      1071     0    22     1    21
  6.4233957400977157E+00 a      1072     0    22     1    22
 -2.5513039021969476E+01 a      1073     0    22     1    23
 -4.2359864888779477E+01 a      1074     0    22     1    24
 -1.5149512546468713E+01 a      1075     0    22     1    25
 -9.0056358282412514E+00 a      1076     0    22     1    26
 -1.5459370064604346E+02 a      1077     0    22     1    27
 -4.2374586913201490E+01 a      1078     0    22     1    28
  3.3557121414827691E+01 a      1079     0    22     1    29
 -2.0763012799524525E+01 a      1080     0    22     1    30
  7.3974236634671129E+01 a      1081     0    22     1    31
  3.0080568905427405E+01 a      1082     0    22     1    32
  9.2134115099304793E+01 a      1083     0    22     1    33
  4.9385984487250063E+00 a      1084     0    22     1    34
 -3.0405037215816787E+01 a      1085     0    22     1    35
 -1.6869936525339349E+00 a      1086     0    22     1    36
  1.5480116725652465E+02 a      1087     0    22     1    37
  1.8663957518248825E+01 a      1088     0    22     1    38
  3.1034127033944944E+01 a      1089     0    22     1    39
 -1.6260027625770888E+01 a      1090     0    22     1    40
 -3.1232288808005421E+01 a      1091     0    22     1    41
  2.1949128148169908E+01 a      1092     0    22     1    42
  2.4295859078853379E+01 a      1093     0    22     1    43
  4.0049444315137805E+01 a      1094     0    22     1    44
 -2.4122177478895004E+01 a      1095     0    22     1    45
  2.8200991194244416E+01 a      1096     0    22     1    46
  7.6298069911348762E+01 a      1097     0    22     1    47
  1.0974674448117212E+00 a      1098     0    22     1    48
  5.0761752000977218E+01 a      1099     0    22     1    49
 -1.2561512594684874E+01 a      1100     0    22     1    50
 -6.4792596078906275E+00 a      1101     0    23     1     1
 -5.5086809361609873E+01 a      1102     0    23     1     2
 -1.3212567928804639E+00 a      1103     0    23     1     3
 -1.0320005956165619E+02 a      1104     0    23     1     4
  1.5578014030797235E+01 a      1105     0    23     1     5
  2.5918274665992879E+01 a      1106     0    23     1     6
  7.5403501883546426E+01 a      1107     0    23     1     7
 -1.4484840728286203E+01 a      1108     0    23     1     8
 -6.8145171256961614E+00 a      1109     0    23     1     9
  1.3935112654319257E+01 a      1110     0    23     1    10
  2.1618835392577087E+00 a      1111     0    23     1    11
 -1.1324501114565659E+02 a      1112     0    23     1    12
 -5.6860527949337469E-01 a      1113     0    23     1    13
 -3.2181602365852847E+01 a      1114     0    23     1    14
 -1.7110089108958203E+01 a      1115     0    23     1    15
  9.8788625901226254E+01 a      1116     0    23     1    16
  2.9535456755062864E+01 a      1117     0    23     1    17
 -3.3745844247529547E+01 a      1118     0    23     1    18
  1.4107566603509488E+02 a      1119     0    23     1    19
  9.5504675594379535E+01 a      1120     0    23     1    20
 -3.3187606677797135E+01 a      1121     0    23     1    21
  1.3211746131140060E+01 a      1122     0    23     1    22
 -1.6864429502925564E+01 a      1123     0    23     1    23
 -3.0258042757945432E+01 a      1124     0    23     1    24
 -9.8604155490334975E+00 a      1125     0    23     1    25
  4.4801601045079423E+01 a      1126     0    23     1    26
 -8.6098461540199708E+01 a      1127     0    23     1    27
 -4.6648887502778329E+01 a      1128     0    23     1    28
  7.4098781516020452E+01 a      1129     0    23     1    29
  5.0096645127959306E+01 a      1130     0    23     1    30
  1.2181289118065060E+02 a      1131     0    23     1    31
 -1.8127376367607340E+01 a      1132     0    23     1    32
  5.4934584608066102E+00 a      1133     0    23     1    33
 -1.1760661239175107E+01 a      1134     0    23     1    34
 -1.8637798291564305E+01 a      1135     0    23     1    35
  2.9713632120215870E+01 a      1136     0    23     1    36
  1.1498605820528327E+01 a      1137     0    23     1    37
  2.6810678100055906E+01 a      1138     0    23     1    38
 -5.2718117421488566E+00 a      1139     0    23     1    39
  3.9937081913946102E+01 a      1140     0    23     1    40
  3.0959720297952561E+01 a      1141     0    23     1    41
  7.9093200218221554E+01 a      1142     0    23     1    42
  4.9967865332196524E+01 a      1143     0    23     1    43
  1.0151286088453418E+02 a      1144     0    23     1    44
 -7.0492681762201181E-01 a      1145     0    23     1    45
  2.4394182602505968E+01 a      1146     0    23     1    46
 -3.2199031320894327E+00 a      1147     0    23     1    47
  4.0730593155519472E+01 a      1148     0    23     1    48
 -3.7853146037077693E+01 a      1149     0    23     1    49
 -2.7152450886734862E+01 a      1150     0    23     1    50
 -3.0706451139466267E+01 a      1151     0    24     1     1
 -2.4809016239416149E+01 a      1152     0    24     1     2
  9.2795252740590243E+01 a      1153     0    24     1     3
  9.5446918664918428E+01 a      1154     0    24     1     4
 -1.4608996312021056E+01 a      1155     0    24     1     5
 -5.3131560284660601E+01 a      1156     0    24     1     6
  1.2114356343183626E+01 a      1157     0    24     1     7
  1.8232837348626865E+00 a      1158     0    24     1     8
  3.0785686640373140E+01 a      1159     0    24     1     9
  1.2380495964064245E+01 a      1160     0    24     1    10
  9.6254062028797751E+00 a      1161     0    24     1    11
  3.2792078721278742E+01 a      1162     0    24     1    12
  3.7471463536889926E+00 a      1163     0    24     1    13
  5.5236793733064564E+00 a      1164     0    24     1    14
  3.9984769241297144E+01 a      1165     0    24     1    15
 -4.7858593247852275E+00 a      1166     0    24     1    16
 -9.4318534248595810E+01 a      1167     0    24     1    17
 -3.1861836484030526E+01 a      1168     0    24     1    18
 -2.8528104667181779E+01 a      1169     0    24     1    19
 -3.8989769469805886E+01 a      1170     0    24     1    20
  2.2094552505736520E+01 a      1171     0    24     1    21
  3.5893179657192480E+00 a      1172     0    24     1    22
 -1.3001698654551031E+01 a      1173     0    24     1    23
 -1.6815470629977194E+00 a      1174     0    24     1    24
 -4.0208400713189318E+00 a      1175     0    24     1    25
 -1.8123016324043711E+01 a      1176     0    24     1    26
  5.7223218822964959E+01 a      1177     0    24     1    27
  1.1558625689922710E+01 a      1178     0    24     1    28
 -1.0299600204068160E+01 a      1179     0    24     1    29
  1.3380237497279227E+01 a      1180     0    24     1    30
 -1.7868522995931123E+01 a      1181     0    24     1    31
 -1.8416627659933418E+01 a      1182     0    24     1    32
 -5.8361521488761475E+01 a      1183     0    24     1    33
 -8.0410104405089677E-01 a      1184     0    24     1    34
 -4.3770175507110078E+00 a      1185     0    24     1    35
  1.1813355436506416E+00 a      1186     0    24     1    36
 -6.4766044958479881E+01 a      1187     0    24     1    37
  8.0921439965462092E+00 a      1188     0    24     1    38
 -1.7295445980762295E+01 a      1189     0    24     1    39
  1.8347862364721284E+01 a      1190     0    24     1    40
  4.3145503283633552E+01 a      1191     0    24     1    41
 -3.7663247417103207E+01 a      1192     0    24     1    42
 -2.8203687702949207E+01 a      1193     0    24     1    43
  4.9478217421907679E+01 a      1194     0    24     1    44
  3.6316219972530881E+01 a      1195     0    24     1    45
 -2.6164953869248957E+00 a      1196     0    24     1    46
 -1.0209797643842778E+02 a      1197     0    24     1    47
 -1.1989041251112308E+01 a      1198     0    24     1    48
 -5.5958261753681271E+01 a      1199     0    24     1    49
 -2.3023804080319268E+00 a      1200     0    24     1    50
  3.4206809317895143E+01 a      1201     0    25     1     1
  5.6588341176285848E+00 a      1202     0    25     1     2
  2.9255898765661833E+01 a      1203     0    25     1     3
 -1.4244827927427625E+02 a      1204     0    25     1     4
  1.0936325879482025E+02 a      1205     0    25     1     5
 -1.1790719427998241E+02 a      1206     0    25     1     6
  5.6515869241758679E+01 a      1207     0    25     1     7
  1.5013556673198348E+01 a      1208     0    25     1     8
 -3.1293365721996459E+01 a      1209     0    25     1     9
  3.2539050587414842E+00 a      1210     0    25     1    10
  2.5610281030525528E+01 a      1211     0    25     1    11
 -9.0726542340022036E+01 a      1212     0    25     1    12
 -2.3765962150558231E+01 a      1213     0    25     1    13
  2.3205592302294519E+01 a      1214     0    25     1    14
  4.7719200122844079E+01 a      1215     0    25     1    15
  4.7642868340178858E+01 a      1216     0    25     1    16
 -7.2698885221504142E+01 a      1217     0    25     1    17
 -3.6799671154177574E+01 a      1218     0    25     1    18
  1.2957466914803462E+01 a      1219     0    25     1    19
  3.8059000808876881E+01 a      1220     0    25     1    20
  2.0983392880160554E+01 a      1221     0    25     1    21
 -1.8066443872713496E+01 a      1222     0    25     1    22
  6.2353857225766433E+01 a      1223     0    25     1    23
  4.5475421571034268E+01 a      1224     0    25     1    24
  4.4770783545693071E+01 a      1225     0    25     1    25
  4.9772363978162268E+01 a      1226     0    25     1    26
  2.2182397321780734E+01 a      1227     0    25     1    27
 -5.3100658179830219E+01 a      1228     0    25     1    28
 -2.4907674874550612E+01 a      1229     0    25     1    29
 -1.9136668184955443E+01 a      1230     0    25     1    30
  1.2028514194139863E+02 a      1231     0    25     1    31
 -3.6703130728764791E+01 a      1232     0    25     1    32
 -6.4260198173039683E+01 a      1233     0    25     1    33
 -5.0550058445492461E+00 a      1234     0    25     1    34
  4.2844136192595004E+00 a      1235     0    25     1    35
  1.5157688796291742E+01 a      1236     0    25     1    36
 -5.8624424959795768E+01 a      1237     0    25     1    37
 -5.9158013063856068E+01 a      1238     0    25     1    38
 -1.3243293165608787E+01 a      1239     0    25     1    39
  1.0149693518206128E+01 a      1240     0    25     1    40
 -2.5624642208322680E+01 a      1241     0    25     1    41
  8.5568556065254484E+01 a      1242     0    25     1    42
  1.0635621116550028E+02 a      1243     0    25     1    43
 -7.8365577948920418E+01 a      1244     0    25     1    44
  8.4978165538461481E-01 a      1245     0    25     1    45
  2.7690326036339030E+01 a      1246     0    25     1    46
  1.3481568622215801E+02 a      1247     0    25     1    47
  1.4594461786354257E+01 a      1248     0    25     1    48
 -2.9847669030277086E+01 a      1249     0    25     1    49
  1.4758725640888244E+01 a      1250     0    25     1    50
  3.2854236750115703E+01 a      1251     0    26     1     1
  5.0402592466233983E+01 a      1252     0    26     1     2
  3.9904725326835518E+01 a      1253     0    26     1     3
  4.4085129890397546E+01 a      1254     0    26     1     4
  5.6839464258307522E+01 a      1255     0    26     1     5
 -1.0085867540400051E+02 a      1256     0    26     1     6
  4.5292497492871156E+01 a      1257     0    26     1     7
  4.0997759020972147E+01 a      1258     0    26     1     8
 -6.1153775975395909E+01 a      1259     0    26     1     9
 -7.3714328324133280E+00 a      1260     0    26     1    10
  5.1070733273517224E+00 a      1261     0    26     1    11
  6.1024601049151450E+01 a      1262     0    26     1    12
  1.1609704235456904E+01 a      1263     0    26     1    13
  1.9574270833968065E+01 a      1264     0    26     1    14
  1.1150670352983376E+01 a      1265     0    26     1    15
 -1.6801542316962053E+01 a      1266     0    26     1    16
 -1.2574953828905979E+02 a      1267     0    26     1    17
 -1.2962258686823299E+01 a      1268     0    26     1    18
 -1.0222596922902027E+02 a      1269     0    26     1    19
 -8.1413713562459591E+01 a      1270     0    26     1    20
 -7.6780731938450160E+00 a      1271     0    26     1    21
 -9.4688858756868584E+00 a      1272     0    26     1    22
  4.0366934892421753E+00 a      1273     0    26     1    23
 -1.9810076817744612E+01 a      1274     0    26     1    24
 -6.1485252082110851E+00 a      1275     0    26     1    25
  1.3195803894642996E+01 a      1276     0    26     1    26
  1.3626548714307057E+02 a      1277     0    26     1    27
  2.3216933416446459E+01 a      1278     0    26     1    28
 -4.5594673151586562E+01 a      1279     0    26     1    29
  2.7319982341209466E+00 a      1280     0    26     1    30
 -8.9351498275285792E+01 a      1281     0    26     1    31
  2.4464961163849019E+01 a      1282     0    26     1    32
 -1.5252187623638827E+01 a      1283     0    26     1    33
  1.0667514360434703E+01 a      1284     0    26     1    34
  3.7313598738891642E+01 a      1285     0    26     1    35
 -2.6496701958232375E+01 a      1286     0    26     1    36
 -1.1578064120798611E+02 a      1287     0    26     1    37
 -6.4712534463141807E+01 a      1288     0    26     1    38
 -4.3368112062463577E+00 a      1289     0    26     1    39
  4.8647188015467464E+01 a      1290     0    26     1    40
 -1.0916413155184046E+01 a      1291     0    26     1    41
 -4.4341242618788492E+01 a      1292     0    26     1    42
 -6.9875725604521026E+00 a      1293     0    26     1    43
  5.3694406417392301E+01 a      1294     0    26     1    44
 -3.7489457136919675E+01 a      1295     0    26     1    45
 -2.6442991523399630E+01 a      1296     0    26     1    46
 -1.0864604728380948E+02 a      1297     0    26     1    47
  4.8767266909265039E+01 a      1298     0    26     1    48
  5.2872510595836637E+01 a      1299     0    26     1    49
 -2.4163833739261140E+01 a      1300     0    26     1    50
  2.4318575788326497E+00 a      1301     0    27     1     1
 -2.1637300523806580E+01 a      1302     0    27     1     2
  1.7805943509262999E+01 a      1303     0    27     1     3
 -6.1497330250977413E+01 a      1304     0    27     1     4
  3.7787807262713144E+01 a      1305     0    27     1     5
  3.5157175312626890E+01 a      1306     0    27     1     6
 -2.1933405020810133E+00 a      1307     0    27     1     7
  8.6135238809003027E+00 a      1308     0    27     1     8
  3.5220615811382253E+01 a      1309     0    27     1     9
 -3.5476726375463109E+01 a      1310     0    27     1    10
 -1.0888497456865384E+01 a      1311     0    27     1    11
 -3.0972065608746465E+01 a      1312     0    27     1    12
 -5.4405238148254957E+00 a      1313     0    27     1    13
  1.4413573052716295E+01 a      1314     0    27     1    14
 -1.8824193165769771E+01 a      1315     0    27     1    15
 -7.7970485141955777E+01 a      1316     0    27     1    16
  6.4891927966643223E+01 a      1317     0    27     1    17
 -1.5483779252574678E+01 a      1318     0    27     1    18
  2.8013469469537480E+01 a      1319     0    27     1    19
 -6.1772665086391321E+00 a      1320     0    27     1    20
  3.9343054705497167E+01 a      1321     0    27     1    21
  2.9300953442800704E+01 a      1322     0    27     1    22
  5.1654320549744021E+01 a      1323     0    27     1    23
  5.2649771643793770E+01 a      1324     0    27     1    24
  6.6793968591512126E+01 a      1325     0    27     1    25
  7.9629402850137732E+00 a      1326     0    27     1    26
 -2.5478850361351807E+01 a      1327     0    27     1    27
 -4.1675601728262549E+01 a      1328     0    27     1    28
 -1.0257180214546851E+01 a      1329     0    27     1    29
 -4.2454149928429509E+01 a      1330     0    27     1    30
 -2.5120396977189317E+00 a      1331     0    27     1    31
 -4.5985416077166249E+01 a      1332     0    27     1    32
  2.6128939337913287E+01 a      1333     0    27     1    33
 -7.7520844037435310E+00 a      1334     0    27     1    34
  5.2778313530865653E+00 a      1335     0    27     1    35
  2.0688027179838762E+01 a      1336     0    27     1    36
  2.9159409236271429E+01 a      1337     0    27     1    37
 -3.6973594134165836E+01 a      1338     0    27     1    38
  6.3493607087904129E+00 a      1339     0    27     1    39
 -5.4806973076063869E+01 a      1340     0    27     1    40
 -2.7320134380921047E+01 a      1341     0    27     1    41
  8.0157868953904810E+01 a      1342     0    27     1    42
  1.0166615152876499E+01 a      1343     0    27     1    43
 -1.0770891244141178E+02 a      1344     0    27     1    44
  2.2119588202097674E+01 a      1345     0    27     1    45
  1.4672956719660970E+01 a      1346     0    27     1    46
  5.4286134575644995E+00 a      1347     0    27     1    47
 -7.8853211814509265E+01 a      1348     0    27     1    48
  3.9108372350229089E+01 a      1349     0    27     1    49
 -2.4907274924119708E+01 a      1350     0    27     1    50
 -3.4318757464910252E+00 a      1351     0    28     1     1
 -3.2356588644658324E+01 a      1352     0    28     1     2
  6.1150819054931368E+01 a      1353     0    28     1     3
  4.9398245153606176E+01 a      1354     0    28     1     4
  2.1051912632812368E+01 a      1355     0    28     1     5
 -8.7230177596917144E+00 a      1356     0    28     1     6
 -2.8230614322887796E+01 a      1357     0    28     1     7
  1.6494338599963669E+01 a      1358     0    28     1     8
  2.6642002653401974E+01 a      1359     0    28     1     9
 -1.6871240685636035E+01 a      1360     0    28     1    10
  1.9127673589540859E+00 a      1361     0    28     1    11
 -9.3808012822099816E+00 a      1362     0    28     1    12
  8.3248186469133312E-01 a      1363     0    28     1    13
  1.4326074332734217E+01 a      1364     0    28     1    14
  1.1370892804468063E+01 a      1365     0    28     1    15
 -4.8680525493227776E+01 a      1366     0    28     1    16
 -2.5134893862416988E+01 a      1367     0    28     1    17
 -2.6887509984169476E+01 a      1368     0    28     1    18
 -4.4618393709326149E+01 a      1369     0    28     1    19
 -1.0657808952442920E+01 a      1370     0    28     1    20
  3.1303053149770324E+01 a      1371     0    28     1    21
  2.1075090493524083E+01 a      1372     0    28     1    22
  1.8597063707995375E+01 a      1373     0    28     1    23
  2.0970242778302620E+01 a      1374     0    28     1    24
  3.3808513043844208E+01 a      1375     0    28     1    25
  1.8122766096529039E+00 a      1376     0    28     1    26
 -1.1377387622328497E+01 a      1377     0    28     1    27
 -3.0796234841867296E+01 a      1378     0    28     1    28
 -1.3993339361165171E+00 a      1379     0    28     1    29
 -1.8169254730006454E-01 a      1380     0    28     1    30
  8.7098286352576970E+00 a      1381     0    28     1    31
 -2.5151898838719251E+01 a      1382     0    28     1    32
 -1.2496639675608249E+01 a      1383     0    28     1    33
 -8.7746855289940591E+00 a      1384     0    28     1    34
  3.6334497368858214E+00 a      1385     0    28     1    35
  1.8693763041511190E+01 a      1386     0    28     1    36
  1.9959137492244558E+01 a      1387     0    28     1    37
 -1.9560502949569408E+01 a      1388     0    28     1    38
  3.3731090770006245E+00 a      1389     0    28     1    39
 -2.7676315075293928E+01 a      1390     0    28     1    40
  1.2277161328853737E+01 a      1391     0    28     1    41
  1.5368262480153732E+01 a      1392     0    28     1    42
 -1.6179390461677225E+00 a      1393     0    28     1    43
 -2.6995129390558432E+00 a      1394     0    28     1    44
  2.0666558598787528E+01 a      1395     0    28     1    45
  1.5868179994190090E+01 a      1396     0    28     1    46
 -6.9027873001704478E+01 a      1397     0    28     1    47
 -3.4615428319999403E+01 a      1398     0    28     1    48
  8.3317472132286561E+00 a      1399     0    28     1    49
 -2.0494251997839200E+01 a      1400     0    28     1    50
 -1.5150108410524130E+01 a      1401     0    29     1     1
 -3.2688401381820093E+01 a      1402     0    29     1     2
  2.2762811416161647E+01 a      1403     0    29     1     3
 -7.1163328821037140E+01 a      1404     0    29     1     4
 -1.3336451517017133E+01 a      1405     0    29     1     5
 -1.5460156467956692E+01 a      1406     0    29     1     6
  5.8736236121915873E+01 a      1407     0    29     1     7
 -1.8871495745288893E+01 a      1408     0    29     1     8
 -2.7274642244679277E+00 a      1409     0    29     1     9
 -1.5497273462107239E+00 a      1410     0    29     1    10
 -3.9283889297947967E+00 a      1411     0    29     1    11
 -4.7150274701935892E+01 a      1412     0    29     1    12
  3.8074291819143240E+00 a      1413     0    29     1    13
  1.4350411201670422E+01 a      1414     0    29     1    14
 -3.0534386119209014E+01 a      1415     0    29     1    15
 -3.3991349314806612E+01 a      1416     0    29     1    16
  4.2216374372872792E+01 a      1417     0    29     1    17
 -3.4400134232513778E+01 a      1418     0    29     1    18
  1.0676500892166983E+02 a      1419     0    29     1    19
 -5.0462889256283150E+00 a      1420     0    29     1    20
  5.9227925882504104E+00 a      1421     0    29     1    21
  2.5192566434630724E+01 a      1422     0    29     1    22
  2.9142598006083464E+01 a      1423     0    29     1    23
  2.0585217084131632E+01 a      1424     0    29     1    24
  4.6558112078062884E+01 a      1425     0    29     1    25
  3.3707332248897998E+01 a      1426     0    29     1    26
 -1.8864583503204248E+01 a      1427     0    29     1    27
 -2.9236764149939951E+01 a      1428     0    29     1    28
  2.9150861599827405E+01 a      1429     0    29     1    29
  2.4029162856147991E+01 a      1430     0    29     1    30
 -2.1064364637314238E+01 a      1431     0    29     1    31
 -2.5647592121546548E+01 a      1432     0    29     1    32
 -5.4267703502242410E+00 a      1433     0    29     1    33
 -3.6052533128168776E+00 a      1434     0    29     1    34
  1.5355485818079995E+01 a      1435     0    29     1    35
  1.5281133894848415E+01 a      1436     0    29     1    36
 -1.7126408174695861E+01 a      1437     0    29     1    37
 -8.1321997218133717E+00 a      1438     0    29     1    38
 -1.3767225805005156E+01 a      1439     0    29     1    39
 -1.2366082592295658E+01 a      1440     0    29     1    40
  1.8530919339228005E+00 a      1441     0    29     1    41
  7.6689703197992799E+01 a      1442     0    29     1    42
 -1.4840183649393721E+01 a      1443     0    29     1    43
 -3.9329338324179638E+01 a      1444     0    29     1    44
  1.2015719568275502E+01 a      1445     0    29     1    45
 -2.4479774766201197E+00 a      1446     0    29     1    46
 -4.1308244577297877E+01 a      1447     0    29     1    47
 -1.0170682673079055E+01 a      1448     0    29     1    48
 -2.1488907030277953E+00 a      1449     0    29     1    49
 -3.0733130221770448E+01 a      1450     0    29     1    50
 -1.1779571418021488E+01 a      1451     0    30     1     1
 -3.7324215651166689E+01 a      1452     0    30     1     2
  7.1830646679791116E+01 a      1453     0    30     1     3
  7.4728346858613435E+01 a      1454     0    30     1     4
 -4.7826075074478558E+00 a      1455     0    30     1     5
 -4.0281404874607922E+01 a      1456     0    30     1     6
 -1.1013973329637617E+01 a      1457     0    30     1     7
  7.2691438998408975E+00 a      1458     0    30     1     8
  8.0245158987866123E+00 a      1459     0    30     1     9
  2.4151057875170485E+00 a      1460     0    30     1    10
  7.8829268031629924E+00 a      1461     0    30     1    11
 -8.9828003213824772E+00 a      1462     0    30     1    12
  6.7231550931777182E+00 a      1463     0    30     1    13
  1.3327774896227519E+01 a      1464     0    30     1    14
  1.4901231882622346E+01 a      1465     0    30     1    15
 -2.0238699278745607E+01 a      1466     0    30     1    16
 -5.8634974389185146E+01 a      1467     0    30     1    17
 -3.5744586165501168E+01 a      1468     0    30     1    18
 -3.3225521119378087E+01 a      1469     0    30     1    19
 -1.0260339071222479E+01 a      1470     0    30     1    20
  1.4633202834392275E+01 a      1471     0    30     1    21
  1.5978895877265067E+01 a      1472     0    30     1    22
 -5.2308940009111948E-01 a      1473     0    30     1    23
 -1.8153080301629421E+00 a      1474     0    30     1    24
  1.4876117156245311E+01 a      1475     0    30     1    25
  1.0090180552032651E+01 a      1476     0    30     1    26
 -3.8998208455405581E+00 a      1477     0    30     1    27
 -2.0932481714138795E+01 a      1478     0    30     1    28
  1.6288947684053205E+01 a      1479     0    30     1    29
  3.7315124832462907E+01 a      1480     0    30     1    30
  4.2122849158340419E+00 a      1481     0    30     1    31
 -9.6591459006385367E+00 a      1482     0    30     1    32
 -3.4677912567068994E+01 a      1483     0    30     1    33
 -6.9275506097738173E+00 a      1484     0    30     1    34
  6.1753601067202109E+00 a      1485     0    30     1    35
  1.4553006963866666E+01 a      1486     0    30     1    36
 -1.8316214405894373E+00 a      1487     0    30     1    37
 -2.4881701285066917E+00 a      1488     0    30     1    38
 -5.3486840649810832E+00 a      1489     0    30     1    39
 -1.7498871306246879E+00 a      1490     0    30     1    40
  3.3979125930549273E+01 a      1491     0    30     1    41
 -5.4922883679498264E+00 a      1492     0    30     1    42
 -1.4167660672744521E+01 a      1493     0    30     1    43
  5.3797152738550388E+01 a      1494     0    30     1    44
  1.5194745346324742E+01 a      1495     0    30     1    45
  8.8271443549916793E+00 a      1496     0    30     1    46
 -1.0365186668282087E+02 a      1497     0    30     1    47
  6.6267298965509100E+00 a      1498     0    30     1    48
 -1.6945873928382138E+01 a      1499     0    30     1    49
 -2.0131116780246046E+01 a      1500     0    30     1    50
  2.3990241067821083E-01 a      1501     0    31     1     1
  3.5334451335137999E+01 a      1502     0    31     1     2
 -9.0241569194447813E+00 a      1503     0    31     1     3
  4.1856128331809579E+01 a      1504     0    31     1     4
  1.2278911749027497E+01 a      1505     0    31     1     5
  2.2346187524701339E+01 a      1506     0    31     1     6
  4.7997543704972763E+01 a      1507     0    31     1     7
 -6.2928238953548368E+00 a      1508     0    31     1     8
  1.2476596679494266E+01 a      1509     0    31     1     9
 -1.6113579384008490E+00 a      1510     0    31     1    10
  2.1562858621611138E+01 a      1511     0    31     1    11
  5.2901702001964033E+01 a      1512     0    31     1    12
 -2.7902589075141178E+00 a      1513     0    31     1    13
 -5.7286311511157088E+01 a      1514     0    31     1    14
  2.8437790726791668E+01 a      1515     0    31     1    15
  6.4940867044290172E+01 a      1516     0    31     1    16
 -4.1031066862376697E+01 a      1517     0    31     1    17
  6.7343195067728052E+00 a      1518     0    31     1    18
 -2.9820289229784265E+01 a      1519     0    31     1    19
 -7.4094745427431414E+00 a      1520     0    31     1    20
  1.0599631649109245E+01 a      1521     0    31     1    21
 -2.6712389236390703E+01 a      1522     0    31     1    22
 -2.8618323528448045E+01 a      1523     0    31     1    23
 -3.6396320001279008E+01 a      1524     0    31     1    24
 -3.4785825955817316E+01 a      1525     0    31     1    25
 -2.5885306560681983E+01 a      1526     0    31     1    26
 -7.2930604092277695E-01 a      1527     0    31     1    27
  2.6223637596410313E+01 a      1528     0    31     1    28
 -4.6768616999703800E+00 a      1529     0    31     1    29
  7.4049449425943914E-01 a      1530     0    31     1    30
 -1.4748577192856898E+01 a      1531     0    31     1    31
  2.1481518476109862E+01 a      1532     0    31     1    32
 -7.3379204911531151E+00 a      1533     0    31     1    33
  1.1890652137736112E+01 a      1534     0    31     1    34
  4.0078317001429404E+00 a      1535     0    31     1    35
 -2.7575747756510712E+01 a      1536     0    31     1    36
 -5.0761410236583046E+01 a      1537     0    31     1    37
  2.4861011716238259E+01 a      1538     0    31     1    38
 -2.7271700978760447E+00 a      1539     0    31     1    39
  4.3499084157010394E+01 a      1540     0    31     1    40
 -2.7092056317999900E+00 a      1541     0    31     1    41
 -5.9959772058632502E+01 a      1542     0    31     1    42
  6.7899084541258148E+00 a      1543     0    31     1    43
  9.0863493442348570E+01 a      1544     0    31     1    44
  4.0701961135141740E-01 a      1545     0    31     1    45
 -3.0534224069779775E+01 a      1546     0    31     1    46
 -4.5778514830370813E+00 a      1547     0    31     1    47
 -1.1269567164141487E+01 a      1548     0    31     1    48
 -1.1137027001690527E+01 a      1549     0    31     1    49
  3.0676344486959927E+01 a      1550     0    31     1    50
  2.5421754230052514E+01 a      1551     0    32     1     1
  3.0259973568433399E+01 a      1552     0    32     1     2
 -4.7318547583022564E+01 a      1553     0    32     1     3
 -4.0455389115933222E+01 a      1554     0    32     1     4
  3.1633633369707361E+01 a      1555     0    32     1     5
  9.9968598950881749E+00 a      1556     0    32     1     6
  6.0983127395998174E+01 a      1557     0    32     1     7
  1.3661502487326352E+01 a      1558     0    32     1     8
 -3.4079891365368439E+01 a      1559     0    32     1     9
 -5.2307121655322941E+00 a      1560     0    32     1    10
  1.0099393658368308E+01 a      1561     0    32     1    11
 -8.9009906453226240E+00 a      1562     0    32     1    12
  5.1524916666434599E+00 a      1563     0    32     1    13
 -2.9147787036960601E+01 a      1564     0    32     1    14
 -1.3453988625755926E+01 a      1565     0    32     1    15
  5.1107820051598502E+01 a      1566     0    32     1    16
  6.4658688858053848E-01 a      1567     0    32     1    17
  1.5817272361945529E+00 a      1568     0    32     1    18
  1.0269703130062499E+01 a      1569     0    32     1    19
  2.0896801173218879E+01 a      1570     0    32     1    20
 -2.2830158551561631E+01 a      1571     0    32     1    21
 -1.2191750722099394E+01 a      1572     0    32     1    22
 -1.6435807481600538E+01 a      1573     0    32     1    23
 -3.5056252895295621E+01 a      1574     0    32     1    24
 -2.7885891751379070E+01 a      1575     0    32     1    25
  2.4544871494973911E+01 a      1576     0    32     1    26
 -1.8168492922101695E+01 a      1577     0    32     1    27
  6.3078655515989688E+00 a      1578     0    32     1    28
  2.6091919324897773E+01 a      1579     0    32     1    29
  2.8097021414241929E+01 a      1580     0    32     1    30
 -1.4406792563041941E+01 a      1581     0    32     1    31
  2.7206901172906694E+01 a      1582     0    32     1    32
  3.6854759461272721E+01 a      1583     0    32     1    33
  2.2376501714650709E-01 a      1584     0    32     1    34
  8.5753261277743711E+00 a      1585     0    32     1    35
 -3.6932752633654924E+00 a      1586     0    32     1    36
 -2.3982877332205621E+01 a      1587     0    32     1    37
 -7.6752403145515335E-01 a      1588     0    32     1    38
  1.3944754294979363E+01 a      1589     0    32     1    39
  4.1141862714068999E+01 a      1590     0    32     1    40
 -1.3727005771729626E+01 a      1591     0    32     1    41
  7.2108042777683845E-01 a      1592     0    32     1    42
  2.8803382748387811E+01 a      1593     0    32     1    43
  8.8843707348260097E+01 a      1594     0    32     1    44
 -3.7187210576016589E+01 a      1595     0    32     1    45
 -2.2272040722659451E+01 a      1596     0    32     1    46
 -7.3743683286004895E+00 a      1597     0    32     1    47
  4.7149726260976010E+01 a      1598     0    32     1    48
  4.2262296542622323E+01 a      1599     0    32     1    49
 -7.4128697672430164E+00 a      1600     0    32     1    50
 -4.6806847239328526E+01 a      1601     0    33     1     1
 -2.2653441755666023E+01 a      1602     0    33     1     2
  5.7453633827784195E+01 a      1603     0    33     1     3
  1.0747793761032769E+02 a      1604     0    33     1     4
 -8.0301968606980338E+01 a      1605     0    33     1     5
 -5.6752770707531248E+01 a      1606     0    33     1     6
 -3.9367580011458854E+00 a      1607     0    33     1     7
 -4.4140210138697938E+01 a      1608     0    33     1     8
  1.7604169722506434E+01 a      1609     0    33     1     9
  2.9994030366590561E+01 a      1610     0    33     1    10
  2.0188434265157316E+01 a      1611     0    33     1    11
  4.1118363795735554E+01 a      1612     0    33     1    12
  6.0495283948118477E+00 a      1613     0    33     1    13
  4.7262774972979358E+00 a      1614     0    33     1    14
  3.1075283933325125E+01 a      1615     0    33     1    15
 -1.4539898335427784E+01 a      1616     0    33     1    16
 -4.5272878589061811E+01 a      1617     0    33     1    17
 -1.8175440755295817E+01 a      1618     0    33     1    18
 -3.0950446836578077E+01 a      1619     0    33     1    19
 -3.5659861635359725E+01 a      1620     0    33     1    20
  1.9575796368055141E+01 a      1621     0    33     1    21
 -7.7101272988143448E+00 a      1622     0    33     1    22
 -7.9716162479650041E+00 a      1623     0    33     1    23
